,0,1,2,3,4,5,6,7,8,9,10,11,12,13,14,15,16,17,18,19,20,21,22,23,24,25,26,27,28,29,30,31,32,33,34,35,36,37,38,39
0,-0.14670240879058838,-0.3510150909423828,0.7539201974868774,0.9525996446609497,0.7091906070709229,0.09407734870910645,0.40888988971710205,-0.6937911510467529,-0.025238394737243652,0.2809494733810425,-0.3027225732803345,0.5636502504348755,0.5330663919448853,-0.43683791160583496,0.6934763193130493,-0.6648358106613159,0.23482131958007812,0.7641324996948242,-0.5402108430862427,0.48068809509277344,-0.9954228401184082,-0.10230803489685059,-0.3751718997955322,0.6545578241348267,0.25874900817871094,0.004263639450073242,0.9991190433502197,-0.1298205852508545,0.5843510627746582,0.27911365032196045,-0.8724712133407593,0.4139125347137451,0.24709928035736084,0.14247572422027588,-0.5321207046508789,0.6076135635375977,-0.6100025177001953,-0.24423301219940186,0.9637793302536011,0.21300148963928223
1,-0.19917896389961243,-0.29853856563568115,0.701443612575531,0.9001230597496033,0.6567140817642212,0.0416007936000824,0.4613664150238037,-0.7462677359580994,0.0272381491959095,0.33342596888542175,-0.2502460479736328,0.511173665523529,0.4805898666381836,-0.3843621015548706,0.7459529042243958,-0.6123592853546143,0.18234476447105408,0.8166090846061707,-0.5926873683929443,0.428211510181427,-0.9429462552070618,-0.15478459000587463,-0.4276484251022339,0.6020816564559937,0.20627246797084808,0.056740179657936096,0.9466424584388733,-0.07734403014183044,0.6368276476860046,0.3315901756286621,-0.9249476790428162,0.36143597960472107,0.1946227252483368,0.08999916911125183,-0.47964420914649963,0.5551369786262512,-0.5575259327888489,-0.29670950770378113,0.9113028049468994,0.2654779851436615
2,-0.23979133367538452,-0.25506895780563354,0.6592444181442261,0.8914490938186646,0.6083704829216003,2.4294480681419373e-05,0.4996080696582794,-0.7881931066513062,0.07107947766780853,0.38158583641052246,-0.21147385239601135,0.4694466292858124,0.43222692608833313,-0.33243924379348755,0.7934057712554932,-0.5630715489387512,0.141649067401886,0.8619935512542725,-0.641990065574646,0.39244717359542847,-0.9002766609191895,-0.19275788962841034,-0.4655398726463318,0.5499440431594849,0.1675463616847992,0.10398951172828674,0.90555340051651,-0.03461471199989319,0.6777859926223755,0.37198343873023987,-0.9603257179260254,0.3248750567436218,0.15595658123493195,0.04829012230038643,-0.43879199028015137,0.5182456970214844,-0.5126806497573853,-0.347363144159317,0.9046751260757446,0.3087732493877411
3,-0.2767495810985565,-0.21611154079437256,0.6216136813163757,0.9130483269691467,0.5637048482894897,-0.03676772490143776,0.5293449759483337,-0.8261909484863281,0.11058879643678665,0.428337037563324,-0.17403769493103027,0.43091481924057007,0.3862078785896301,-0.3383335471153259,0.8397608399391174,-0.5148212909698486,0.10526236891746521,0.9053897261619568,-0.6855309009552002,0.364618182182312,-0.8621177077293396,-0.22610007226467133,-0.4970954954624176,0.49958810210227966,0.1341422200202942,0.1495148241519928,0.8687477111816406,0.004260422196239233,0.7148362398147583,0.4029473662376404,-1.0094475746154785,0.29921355843544006,0.12456146627664566,0.009985271841287613,-0.39640161395072937,0.49038490653038025,-0.47171464562416077,-0.3941224217414856,0.9339138865470886,0.347059041261673
4,-0.3103601038455963,-0.18606474995613098,0.5897048711776733,0.9455094337463379,0.5232216119766235,-0.06773513555526733,0.5458663105964661,-0.8611421585083008,0.14602988958358765,0.4710536003112793,-0.13380984961986542,0.39441725611686707,0.3426496684551239,-0.3912866413593292,0.8852354884147644,-0.46724772453308105,0.07271189242601395,0.946295976638794,-0.7183981537818909,0.34420448541641235,-0.8291897773742676,-0.2565155327320099,-0.5241585373878479,0.45273342728614807,0.10223141312599182,0.19319038093090057,0.8343916535377502,0.038734450936317444,0.7489221692085266,0.42323702573776245,-1.064652442932129,0.2867250442504883,0.10233451426029205,-0.02608034759759903,-0.35070353746414185,0.47286030650138855,-0.43662229180336,-0.43812185525894165,0.9575484991073608,0.3778969943523407
5,-0.3387288749217987,-0.17358142137527466,0.5669525265693665,0.9688853621482849,0.4848625361919403,-0.08954182267189026,0.5447791218757629,-0.8898322582244873,0.17276689410209656,0.5020703077316284,-0.09248323738574982,0.3593725264072418,0.30284568667411804,-0.44337648153305054,0.928820788860321,-0.42169681191444397,0.045450933277606964,0.9830337762832642,-0.731741189956665,0.32995688915252686,-0.8046684265136719,-0.28304359316825867,-0.548541247844696,0.4100704491138458,0.07064209878444672,0.233335480093956,0.8010157346725464,0.06631657481193542,0.778861403465271,0.4457065463066101,-1.1175127029418945,0.2884978950023651,0.09321197867393494,-0.05924028903245926,-0.30370432138442993,0.46350333094596863,-0.41277721524238586,-0.4773429036140442,0.9452041983604431,0.4007229804992676
6,-0.36096686124801636,-0.1766374111175537,0.5548538565635681,0.9766778349876404,0.4463548958301544,-0.10124816745519638,0.5308078527450562,-0.9091569185256958,0.18612618744373322,0.5165426135063171,-0.05529250577092171,0.3258768916130066,0.26742708683013916,-0.48411068320274353,0.9699246883392334,-0.3802582919597626,0.024640928953886032,1.0153056383132935,-0.7222309112548828,0.31977900862693787,-0.7896304130554199,-0.303397536277771,-0.5690743327140808,0.36928802728652954,0.041778814047575,0.26866912841796875,0.7680638432502747,0.08687674254179001,0.8044900298118591,0.48189035058021545,-1.1611844301223755,0.29792919754981995,0.09749960154294968,-0.08873201906681061,-0.25560805201530457,0.45846691727638245,-0.40218299627304077,-0.507832407951355,0.926580011844635,0.41913172602653503
7,-0.37742865085601807,-0.18604589998722076,0.5501669049263,0.9774863719940186,0.4094579517841339,-0.10392889380455017,0.510916531085968,-0.9189460277557373,0.18767906725406647,0.5171023607254028,-0.025201372802257538,0.2959696054458618,0.2360725998878479,-0.5045382976531982,1.008205771446228,-0.34387528896331787,0.010227830149233341,1.0434364080429077,-0.7007171511650085,0.31138691306114197,-0.7811227440834045,-0.3157392740249634,-0.5876325368881226,0.32888203859329224,0.016666453331708908,0.29884248971939087,0.7354382276535034,0.1022629365324974,0.8279727697372437,0.5286256074905396,-1.198422908782959,0.30667147040367126,0.11167117208242416,-0.11354772746562958,-0.20734013617038727,0.45561712980270386,-0.4003799259662628,-0.5269484519958496,0.9345418810844421,0.4328773319721222
8,-0.3888998031616211,-0.198354572057724,0.5479538440704346,0.9782978296279907,0.37615951895713806,-0.0983055830001831,0.48917919397354126,-0.9197201728820801,0.1813957691192627,0.5103247165679932,-0.002081599086523056,0.2712055742740631,0.20825938880443573,-0.5002053380012512,1.0436664819717407,-0.3120073676109314,0.0009776121005415916,1.0672104358673096,-0.6764736771583557,0.3030918538570404,-0.7762703895568848,-0.3191598951816559,-0.609120786190033,0.28981828689575195,-0.005352047272026539,0.32470881938934326,0.7037784457206726,0.11369412392377853,0.8515315651893616,0.5794381499290466,-1.2383301258087158,0.3120885193347931,0.1322712004184723,-0.133279487490654,-0.16085535287857056,0.4525136351585388,-0.4025842547416687,-0.5339476466178894,0.96235191822052,0.4393370747566223
9,-0.39642322063446045,-0.21073566377162933,0.5455449223518372,0.9838665127754211,0.34580981731414795,-0.0870409831404686,0.46878936886787415,-0.9124954342842102,0.170337975025177,0.5032138228416443,0.015911150723695755,0.2511611878871918,0.1834058165550232,-0.47999757528305054,1.0767375230789185,-0.2840358018875122,-0.004923469386994839,1.08706533908844,-0.650702714920044,0.2936251759529114,-0.773116409778595,-0.31563252210617065,-0.6338541507720947,0.25437936186790466,-0.02418987639248371,0.34768348932266235,0.6743930578231812,0.1219058707356453,0.8764631748199463,0.629370927810669,-1.2820959091186523,0.3135974407196045,0.15644733607769012,-0.148909792304039,-0.1158185750246048,0.44649261236190796,-0.40637657046318054,-0.5328289866447449,1.002548336982727,0.4384876489639282
10,-0.40073031187057495,-0.22221289575099945,0.5416186451911926,0.9954402446746826,0.31760016083717346,-0.07322601974010468,0.45176610350608826,-0.8991044163703918,0.15595616400241852,0.4994986951351166,0.03130972385406494,0.2349739968776703,0.16109123826026917,-0.4553419351577759,1.1078852415084839,-0.2594086825847626,-0.00899538304656744,1.1037728786468506,-0.623005747795105,0.2822660505771637,-0.7706072330474854,-0.3086787164211273,-0.6605545282363892,0.22455184161663055,-0.03971431404352188,0.3687519133090973,0.6484257578849792,0.12692295014858246,0.9032411575317383,0.6756521463394165,-1.3284707069396973,0.31163182854652405,0.18220360577106476,-0.16153359413146973,-0.07244174182415009,0.43593573570251465,-0.41104069352149963,-0.5294150710105896,1.0457117557525635,0.4299348294734955
11,-0.40220168232917786,-0.2330687940120697,0.535820484161377,1.0122888088226318,0.29102179408073425,-0.0594308041036129,0.43905168771743774,-0.881455659866333,0.13878034055233002,0.4994942247867584,0.046194612979888916,0.22207820415496826,0.14107735455036163,-0.4337442219257355,1.1374980211257935,-0.2378115952014923,-0.011852970346808434,1.1183507442474365,-0.5936924815177917,0.26862484216690063,-0.7683683037757874,-0.3016241788864136,-0.6876928210258484,0.20172035694122314,-0.051809266209602356,0.3880704939365387,0.6266390681266785,0.12841367721557617,0.9317603707313538,0.7165287137031555,-1.3757109642028809,0.30665889382362366,0.208139106631279,-0.17173899710178375,-0.03135586902499199,0.4204402565956116,-0.41673463582992554,-0.5285034775733948,1.086562156677246,0.4142051637172699
12,-0.40108442306518555,-0.24433252215385437,0.5282190442085266,1.0323139429092407,0.2661493122577667,-0.047048699110746384,0.4303700029850006,-0.8611044883728027,0.11922164261341095,0.5015649795532227,0.061433617025613785,0.21226871013641357,0.12314093858003616,-0.41929399967193604,1.165941834449768,-0.21892049908638,-0.01352374255657196,1.1317853927612305,-0.563856303691864,0.25266292691230774,-0.7665314078330994,-0.2964157164096832,-0.7145596742630005,0.18591465055942535,-0.06040860339999199,0.405354380607605,0.6093167066574097,0.12612435221672058,0.9616447687149048,0.751075267791748,-1.4227032661437988,0.2993021309375763,0.2331663817167282,-0.17958445847034454,0.006869744509458542,0.4005187749862671,-0.4237821400165558,-0.5322654843330383,1.1212910413742065,0.3914344906806946
13,-0.39767253398895264,-0.2564980089664459,0.5191771984100342,1.0533955097198486,0.24316133558750153,-0.03671589866280556,0.4247974157333374,-0.8389920592308044,0.09786760061979294,0.503993034362793,0.07675599306821823,0.2053811252117157,0.1069592833518982,-0.41308891773223877,1.1935127973556519,-0.20237603783607483,-0.013808605261147022,1.145037055015564,-0.5345163941383362,0.2344878762960434,-0.7654667496681213,-0.2938501536846161,-0.7406870126724243,0.17620958387851715,-0.06545242667198181,0.42030754685401917,0.5963220000267029,0.1201876550912857,0.9924454689025879,0.7789824604988098,-1.4681984186172485,0.2901020050048828,0.2563075125217438,-0.18489369750022888,0.04233000427484512,0.3768814206123352,-0.4323410093784332,-0.5410245060920715,1.150274395942688,0.36257100105285645
14,-0.39240196347236633,-0.2695412039756775,0.5089612603187561,1.0736061334609985,0.22244995832443237,-0.028410818427801132,0.42107686400413513,-0.8156792521476746,0.07556593418121338,0.5056883692741394,0.09108047932386398,0.20111994445323944,0.09205502271652222,-0.41429561376571655,1.2204113006591797,-0.18768811225891113,-0.012774607166647911,1.158825159072876,-0.5067087411880493,0.21429802477359772,-0.7656477093696594,-0.29380786418914795,-0.7660115361213684,0.17114029824733734,-0.06708688288927078,0.43285441398620605,0.5871918201446533,0.11112622916698456,1.023789405822754,0.8006588816642761,-1.5114597082138062,0.27965280413627625,0.27665600180625916,-0.18744410574436188,0.07536689937114716,0.350159227848053,-0.4422492980957031,-0.5536565184593201,1.1747276782989502,0.3287026882171631
15,-0.3858310282230377,-0.2828405201435089,0.4978207051753998,1.0918060541152954,0.2041969746351242,-0.02192431315779686,0.4180797338485718,-0.7914665341377258,0.05335018411278725,0.506426215171814,0.10309014469385147,0.19894246757030487,0.07788042724132538,-0.42116352915763855,1.2466703653335571,-0.17435966432094574,-0.010755623690783978,1.1736470460891724,-0.48119452595710754,0.19227036833763123,-0.7674835920333862,-0.2958695590496063,-0.7902732491493225,0.1696331650018692,-0.06574414670467377,0.4431266188621521,0.5813584923744202,0.09969402104616165,1.0553803443908691,0.8169080018997192,-1.5517629384994507,0.2684587836265564,0.2934004068374634,-0.18710759282112122,0.10647128522396088,0.3207884132862091,-0.4531923234462738,-0.5687656402587891,1.1970387697219849,0.29168835282325745
16,-0.3785589635372162,-0.29580867290496826,0.4859345853328705,1.1072989702224731,0.18851463496685028,-0.01689504273235798,0.41484424471855164,-0.7666441798210144,0.03229532390832901,0.5064237713813782,0.11149833351373672,0.19812831282615662,0.06389108300209045,-0.4321592450141907,1.2721757888793945,-0.16189830005168915,-0.008338897489011288,1.1897151470184326,-0.45863083004951477,0.1685941070318222,-0.7713050842285156,-0.2995070219039917,-0.8131651878356934,0.171023890376091,-0.06213250383734703,0.45132896304130554,0.5782597661018372,0.08667145669460297,1.0869545936584473,0.828910768032074,-1.5889254808425903,0.2570596933364868,0.30593129992485046,-0.18384768068790436,0.1358874887228012,0.2891610562801361,-0.46484485268592834,-0.584881067276001,1.2178010940551758,0.25309738516807556
17,-0.371106892824173,-0.3078116774559021,0.47363290190696716,1.1201324462890625,0.17526055872440338,-0.013092360459268093,0.41069263219833374,-0.7414925694465637,0.01338387094438076,0.5063087344169617,0.11540304124355316,0.19785740971565247,0.04964141547679901,-0.4458320736885071,1.2966443300247192,-0.1499202698469162,-0.006076897494494915,1.2070780992507935,-0.4391959309577942,0.1434897929430008,-0.7772824168205261,-0.3044075667858124,-0.8339565396308899,0.17515015602111816,-0.057014498859643936,0.4576244354248047,0.5774535536766052,0.0727325901389122,1.1182434558868408,0.8379144668579102,-1.622750997543335,0.24586406350135803,0.31392765045166016,-0.17773093283176422,0.1637333333492279,0.255575954914093,-0.47702717781066895,-0.6011186838150024,1.238088846206665,0.21462959051132202
18,-0.36388885974884033,-0.31875112652778625,0.4612634479999542,1.1303720474243164,0.16437572240829468,-0.010199484415352345,0.40501484274864197,-0.7163876295089722,-0.0026938458904623985,0.5066643953323364,0.1142495647072792,0.19733163714408875,0.03481105715036392,-0.4611209034919739,1.3197485208511353,-0.1380908042192459,-0.0045029763132333755,1.2256028652191162,-0.42283308506011963,0.11727608740329742,-0.7855236530303955,-0.3103006184101105,-0.8520613312721252,0.18178264796733856,-0.051122020930051804,0.4620714485645294,0.578581690788269,0.05838445946574211,1.1489832401275635,0.8452478647232056,-1.653690218925476,0.23525561392307281,0.31742343306541443,-0.1688837707042694,0.1897745132446289,0.22033730149269104,-0.4896905720233917,-0.6166606545448303,1.2568432092666626,0.17719650268554688
19,-0.35717907547950745,-0.3283831477165222,0.4493577182292938,1.1388462781906128,0.1555977612733841,-0.008109183982014656,0.397449254989624,-0.6916939616203308,-0.015517868101596832,0.5082780122756958,0.10805711895227432,0.1958412379026413,0.019240833818912506,-0.4767681360244751,1.341121792793274,-0.12620553374290466,-0.003930110950022936,1.2451317310333252,-0.4089447259902954,0.09039102494716644,-0.7959544062614441,-0.3171653747558594,-0.8666163682937622,0.1907743215560913,-0.044982586055994034,0.46467673778533936,0.581412672996521,0.04399706795811653,1.1789708137512207,0.8519451022148132,-1.681714415550232,0.22527272999286652,0.31674113869667053,-0.15752939879894257,0.21372555196285248,0.18361283838748932,-0.5028742551803589,-0.6313608288764954,1.274841547012329,0.1418682485818863
20,-0.351180762052536,-0.33723071217536926,0.4383048117160797,1.1457099914550781,0.14887899160385132,-0.006504442542791367,0.3876746892929077,-0.6678418517112732,-0.025226715952157974,0.5115274786949158,0.09699831902980804,0.19283804297447205,0.002911071293056011,-0.49192604422569275,1.3605318069458008,-0.11406581103801727,-0.004668219015002251,1.265425443649292,-0.3969896733760834,0.06340403854846954,-0.8085641860961914,-0.3248080313205719,-0.8773539066314697,0.20147660374641418,-0.039027925580739975,0.46541792154312134,0.585712194442749,0.02979964204132557,1.20802640914917,0.8589612245559692,-1.707564353942871,0.21593378484249115,0.31245559453964233,-0.14392749965190887,0.23498967289924622,0.14562541246414185,-0.5166510343551636,-0.6446456909179688,1.28960120677948,0.1087426021695137
21,-0.3459814190864563,-0.34485989809036255,0.42867374420166016,1.1525260210037231,0.14374488592147827,-0.005465647205710411,0.37588798999786377,-0.6451810598373413,-0.03203405439853668,0.5170150995254517,0.08182282745838165,0.1879902184009552,-0.014057955704629421,-0.5052281022071838,1.3777554035186768,-0.10162618011236191,-0.006730369292199612,1.286334753036499,-0.38597992062568665,0.0369853600859642,-0.8230619430541992,-0.3332968056201935,-0.883486807346344,0.21354885399341583,-0.03345152363181114,0.4643908143043518,0.5913593173027039,0.015978403389453888,1.2361050844192505,0.8667552471160889,-1.730454683303833,0.20667904615402222,0.30518627166748047,-0.12842251360416412,0.2532273232936859,0.10639452189207077,-0.531011164188385,-0.6569833755493164,1.3034929037094116,0.07873020321130753
22,-0.34169068932533264,-0.35253646969795227,0.4205528497695923,1.1584054231643677,0.14030401408672333,-0.004462958313524723,0.3621872365474701,-0.6241220235824585,-0.036971185356378555,0.5244442224502563,0.06285584717988968,0.1811775267124176,-0.03146062046289444,-0.5163394212722778,1.3928309679031372,-0.08872440457344055,-0.010340358130633831,1.3076106309890747,-0.375593900680542,0.011862143874168396,-0.8395030498504639,-0.3420640230178833,-0.8855294585227966,0.2257068008184433,-0.028497571125626564,0.461730420589447,0.59808748960495,0.0025918125174939632,1.2630547285079956,0.8759192228317261,-1.7517515420913696,0.19743546843528748,0.29567041993141174,-0.1113101914525032,0.26786163449287415,0.06623323261737823,-0.545969545841217,-0.6673230528831482,1.3109350204467773,0.05082639679312706
23,-0.3382332921028137,-0.35829710960388184,0.4145294427871704,1.1665774583816528,0.137498676776886,-0.004045828245580196,0.34771040081977844,-0.6048831343650818,-0.04011816531419754,0.534251868724823,0.041546531021595,0.17256106436252594,-0.04901131987571716,-0.523658275604248,1.4056165218353271,-0.07550209015607834,-0.015089655295014381,1.3291692733764648,-0.364571750164032,-0.011301813647150993,-0.8571694493293762,-0.3513689935207367,-0.8822417855262756,0.23825958371162415,-0.02419593371450901,0.45787593722343445,0.6059190630912781,-0.010227371007204056,1.2890377044677734,0.8863301873207092,-1.76854407787323,0.18694905936717987,0.28438231348991394,-0.09296981245279312,0.27919846773147583,0.024940727278590202,-0.5612820386886597,-0.6776174306869507,1.3209201097488403,0.026903633028268814
24,-0.33578675985336304,-0.36618366837501526,0.40984010696411133,1.171807050704956,0.13647478818893433,-0.002707516308873892,0.33230575919151306,-0.5878111124038696,-0.04369336739182472,0.5449756383895874,0.017449472099542618,0.16235648095607758,-0.06644965708255768,-0.5287361145019531,1.416499376296997,-0.061620213091373444,-0.021549401804804802,1.350641131401062,-0.3537862002849579,-0.03182792291045189,-0.8766791224479675,-0.3595403730869293,-0.8760268688201904,0.24846301972866058,-0.020806007087230682,0.4530978500843048,0.6143354773521423,-0.022574355825781822,1.3136309385299683,0.8985983729362488,-1.7859504222869873,0.17626363039016724,0.27210527658462524,-0.07359673827886581,0.2868899405002594,-0.016611749306321144,-0.5769876837730408,-0.6843624711036682,1.3158031702041626,0.0028992006555199623
25,-0.3339260518550873,-0.3679499924182892,0.40783044695854187,1.1848609447479248,0.13400523364543915,-0.0029572248458862305,0.3189544677734375,-0.5728220343589783,-0.045266300439834595,0.557944118976593,-0.005937605630606413,0.15116244554519653,-0.08344192057847977,-0.528285026550293,1.42495596408844,-0.04775773733854294,-0.028141112998127937,1.372043490409851,-0.3404366672039032,-0.0495288223028183,-0.8957638740539551,-0.36862874031066895,-0.8629307150840759,0.260314017534256,-0.01841113530099392,0.44839757680892944,0.6239718198776245,-0.03420493006706238,1.3376137018203735,0.9118078351020813,-1.7931092977523804,0.1620846837759018,0.2587277293205261,-0.05363268777728081,0.29270461201667786,-0.05953307822346687,-0.5923212170600891,-0.6954085826873779,1.3315813541412354,-0.013809416443109512
26,-0.33347222208976746,-0.3812658190727234,0.4051366150379181,1.1826635599136353,0.13619093596935272,0.0010536364279687405,0.3038444221019745,-0.5601866245269775,-0.05208834633231163,0.5688899159431458,-0.03326696902513504,0.13898654282093048,-0.0999620333313942,-0.5295801758766174,1.4323173761367798,-0.03258940577507019,-0.037680041044950485,1.3926385641098022,-0.3298429846763611,-0.06348229944705963,-0.9180641770362854,-0.3726496994495392,-0.8519837260246277,0.26390835642814636,-0.016952959820628166,0.44340085983276367,0.632968008518219,-0.04554028809070587,1.3591760396957397,0.9272777438163757,-1.8128902912139893,0.15085014700889587,0.24577420949935913,-0.03302610293030739,0.2952207922935486,-0.10066598653793335,-0.6081479787826538,-0.69491046667099,1.2952041625976562,-0.03925705328583717
27,-0.33256763219833374,-0.3673683702945709,0.4077056646347046,1.2136802673339844,0.12944740056991577,-0.002827287185937166,0.29812294244766235,-0.5495661497116089,-0.04887916520237923,0.5844313502311707,-0.051354873925447464,0.1272195279598236,-0.11539223790168762,-0.5199914574623108,1.4360069036483765,-0.01915798895061016,-0.043518904596567154,1.412898063659668,-0.31093937158584595,-0.0754188522696495,-0.9340400099754333,-0.3836280107498169,-0.8268251419067383,0.2807912826538086,-0.017646219581365585,0.44093528389930725,0.6451470851898193,-0.0556962676346302,1.3820806741714478,0.9424750208854675,-1.7962419986724854,0.12843374907970428,0.2309395968914032,-0.0125688211992383,0.2999052107334137,-0.14544256031513214,-0.6212812662124634,-0.7186046838760376,1.3576239347457886,-0.04132726415991783
28,-0.33489546179771423,-0.41039207577705383,0.4019399583339691,1.17279851436615,0.14214405417442322,0.01232934556901455,0.27888599038124084,-0.5405668020248413,-0.07180905342102051,0.5896278023719788,-0.08720598369836807,0.11381176114082336,-0.13094478845596313,-0.5247179865837097,1.4415582418441772,-0.0011663255281746387,-0.05911032855510712,1.4310109615325928,-0.3076919913291931,-0.0808168351650238,-0.9632936120033264,-0.3734495937824249,-0.8228636384010315,0.2629810869693756,-0.01649628020823002,0.43609175086021423,0.651441216468811,-0.06665089726448059,1.397745132446289,0.960679292678833,-1.8471572399139404,0.12634025514125824,0.22048631310462952,0.008539319038391113,0.2977510988712311,-0.1818820983171463,-0.6388733983039856,-0.6899592280387878,1.2540310621261597,-0.08404034376144409
29,-0.3343260884284973,-0.35005515813827515,0.411652147769928,1.259503722190857,0.11981651186943054,-0.00841605942696333,0.2925281226634979,-0.5339104533195496,-0.04113471508026123,0.6075069308280945,-0.07943198084831238,0.10385244339704514,-0.14340755343437195,-0.4995978772640228,1.4387165307998657,0.008224625140428543,-0.05902004987001419,1.4496777057647705,-0.2767374515533447,-0.09025999903678894,-0.9625959992408752,-0.40033334493637085,-0.7791702151298523,0.3112689256668091,-0.023893173784017563,0.4407173693180084,0.6696227788925171,-0.07348739355802536,1.4237550497055054,0.9785099029541016,-1.7748689651489258,0.08420133590698242,0.2007499635219574,0.028172671794891357,0.3090745210647583,-0.2284616231918335,-0.643757164478302,-0.7574184536933899,1.3595560789108276,-0.057631075382232666
30,-0.3381216526031494,-0.4336238503456116,0.398020476102829,1.1642178297042847,0.14881375432014465,0.030745692551136017,0.2642093598842621,-0.5271700024604797,-0.10479822754859924,0.6076200008392334,-0.14106769859790802,0.08789301663637161,-0.1596292108297348,-0.5095494985580444,1.444108486175537,0.03140908107161522,-0.0814492404460907,1.4618370532989502,-0.2882995903491974,-0.08501717448234558,-1.0080742835998535,-0.3607276678085327,-0.7934722900390625,0.2485421597957611,-0.01844523660838604,0.4338091015815735,0.6707868576049805,-0.08681496977806091,1.42808198928833,0.9962892532348633,-1.8628349304199219,0.10141508281230927,0.19961145520210266,0.049743376672267914,0.29866743087768555,-0.2604427933692932,-0.6685983538627625,-0.6847046613693237,1.2537895441055298,-0.1181161031126976
31,-0.3395068347454071,-0.36037373542785645,0.4110027253627777,1.2587294578552246,0.11914446204900742,-0.006315199658274651,0.2930925190448761,-0.5243867039680481,-0.04823167622089386,0.6218850016593933,-0.10468315333127975,0.08160176128149033,-0.16889327764511108,-0.4712861180305481,1.4360239505767822,0.03600592911243439,-0.07873842865228653,1.4788740873336792,-0.2535226047039032,-0.0941661074757576,-0.9898306727409363,-0.40242522954940796,-0.7407363653182983,0.3189604580402374,-0.032287441194057465,0.4468889534473419,0.6934035420417786,-0.08937867730855942,1.4564167261123657,1.020188570022583,-1.7811247110366821,0.04847227409482002,0.17417976260185242,0.06809316575527191,0.3197682797908783,-0.30160781741142273,-0.6644057035446167,-0.7692885398864746,1.3356804847717285,-0.09072025865316391
32,-0.34412893652915955,-0.42626839876174927,0.39862060546875,1.1897449493408203,0.14265176653862,0.032546479254961014,0.268189013004303,-0.5170864462852478,-0.10951235145330429,0.6205189824104309,-0.16262385249137878,0.06553870439529419,-0.1847587674856186,-0.4918690323829651,1.4387725591659546,0.058989882469177246,-0.09865929186344147,1.4870847463607788,-0.25941163301467896,-0.08452960103750229,-1.0301097631454468,-0.3614300787448883,-0.7521725296974182,0.26597630977630615,-0.026602845638990402,0.44133231043815613,0.6940634846687317,-0.1016598641872406,1.4570578336715698,1.0318474769592285,-1.8431048393249512,0.06341149657964706,0.1764831840991974,0.08843981474637985,0.31101420521736145,-0.3315802216529846,-0.6872689127922058,-0.7121670842170715,1.2611342668533325,-0.13031597435474396
33,-0.3472125828266144,-0.3820631504058838,0.40663331747055054,1.2459015846252441,0.12542936205863953,0.008213948458433151,0.2912488281726837,-0.5164585709571838,-0.07529477775096893,0.6302222013473511,-0.13810406625270844,0.060770660638809204,-0.19412535429000854,-0.48160988092422485,1.430613398551941,0.06515492498874664,-0.09950150549411774,1.5006729364395142,-0.23204651474952698,-0.08787353336811066,-1.0179246664047241,-0.3885335326194763,-0.7119420170783997,0.31146347522735596,-0.036968812346458435,0.4548421800136566,0.7113663554191589,-0.10461987555027008,1.4766826629638672,1.0528794527053833,-1.7931171655654907,0.023337367922067642,0.15806007385253906,0.10566971451044083,0.32818472385406494,-0.3662753701210022,-0.6823117733001709,-0.7680501937866211,1.307420015335083,-0.12607154250144958
34,-0.35258063673973083,-0.4218718707561493,0.39950641989707947,1.20662522315979,0.13671372830867767,0.033735111355781555,0.2766354978084564,-0.5091776251792908,-0.11417651176452637,0.6304212212562561,-0.1726180464029312,0.04836251214146614,-0.20758317410945892,-0.48577880859375,1.4288212060928345,0.08416207879781723,-0.11424471437931061,1.5076924562454224,-0.22564297914505005,-0.07967320829629898,-1.0417051315307617,-0.36139532923698425,-0.7120531797409058,0.2858240604400635,-0.0340006947517395,0.45183753967285156,0.7143988609313965,-0.11473579704761505,1.4791221618652344,1.062030553817749,-1.8253012895584106,0.026254234835505486,0.15783841907978058,0.1234508752822876,0.324501097202301,-0.3946726322174072,-0.6992676258087158,-0.7400910258293152,1.2637842893600464,-0.13050001859664917
35,-0.35806840658187866,-0.397409588098526,0.4014997184276581,1.2406527996063232,0.13041473925113678,0.02225986123085022,0.2925417423248291,-0.5092520713806152,-0.09771109372377396,0.6365280747413635,-0.1592472344636917,0.044862449169158936,-0.21774491667747498,-0.5073466300964355,1.4215549230575562,0.09146511554718018,-0.11964478343725204,1.516891598701477,-0.20933189988136292,-0.07878673076629639,-1.0348742008209229,-0.3735697567462921,-0.6849873065948486,0.3100917935371399,-0.04081958532333374,0.4652765095233917,0.7269348502159119,-0.11719868332147598,1.4914710521697998,1.0783535242080688,-1.7971009016036987,-0.002355496399104595,0.14562717080116272,0.13918240368366241,0.33536067605018616,-0.4229007959365845,-0.692446768283844,-0.7737489342689514,1.2872833013534546,-0.15660175681114197
36,-0.3634452223777771,-0.42622777819633484,0.3973526656627655,1.2121812105178833,0.13146285712718964,0.039691876620054245,0.28399044275283813,-0.5014069676399231,-0.12459570169448853,0.6382691264152527,-0.17951427400112152,0.03562349081039429,-0.22881130874156952,-0.4771144688129425,1.4167344570159912,0.10783152282238007,-0.1304934322834015,1.5229122638702393,-0.19506879150867462,-0.07178967446088791,-1.0472842454910278,-0.3546162545681,-0.6803706884384155,0.30185216665267944,-0.038663771003484726,0.4617011249065399,0.7301236987113953,-0.12711039185523987,1.493301510810852,1.0875415802001953,-1.8138597011566162,-0.004841816145926714,0.14445555210113525,0.15421943366527557,0.3341759145259857,-0.4499526917934418,-0.7082614302635193,-0.7621855735778809,1.2600141763687134,-0.12432210147380829
37,-0.37144508957862854,-0.407611608505249,0.39500778913497925,1.2403156757354736,0.13279588520526886,0.03394648805260658,0.2977789640426636,-0.5021787285804749,-0.11504781246185303,0.6414839029312134,-0.1701408177614212,0.03383832052350044,-0.2399107664823532,-0.5360425710678101,1.410196304321289,0.11378393322229385,-0.138613760471344,1.5281974077224731,-0.18886464834213257,-0.06992218643426895,-1.0411394834518433,-0.3596300482749939,-0.6620298624038696,0.3129124641418457,-0.044341158121824265,0.47757789492607117,0.7403379082679749,-0.12740042805671692,1.5016016960144043,1.099438190460205,-1.7953746318817139,-0.02783874422311783,0.13547109067440033,0.16854006052017212,0.3398783504962921,-0.47164905071258545,-0.6956984996795654,-0.7851947546005249,1.2751590013504028,-0.1866396963596344
38,-0.3760456144809723,-0.43620333075523376,0.39281147718429565,1.2102066278457642,0.12476527690887451,0.048439983278512955,0.28985631465911865,-0.49284452199935913,-0.13788965344429016,0.6450046300888062,-0.1838691532611847,0.026833007112145424,-0.248663991689682,-0.4688208997249603,1.4037774801254272,0.12934435904026031,-0.14618532359600067,1.5336220264434814,-0.16815365850925446,-0.06333156675100327,-1.0471700429916382,-0.3435124158859253,-0.6573854684829712,0.3148273527622223,-0.0405072458088398,0.4694291353225708,0.7418196797370911,-0.1388346552848816,1.5009664297103882,1.1089547872543335,-1.8064637184143066,-0.03036293014883995,0.13498277962207794,0.18127687275409698,0.3405722975730896,-0.4977375268936157,-0.7156196236610413,-0.7805537581443787,1.2534065246582031,-0.12013319134712219
39,-0.3863584101200104,-0.4152607321739197,0.3875901997089386,1.2413430213928223,0.13303445279598236,0.043364789336919785,0.3047202527523041,-0.4946689009666443,-0.12841542065143585,0.6454417705535889,-0.1736716330051422,0.026890510693192482,-0.26085609197616577,-0.5497202277183533,1.3976572751998901,0.1325562745332718,-0.1556030660867691,1.5360373258590698,-0.16995565593242645,-0.06208217889070511,-1.0397289991378784,-0.34719496965408325,-0.6442984342575073,0.3195044994354248,-0.0467601977288723,0.4895402789115906,0.7506484985351562,-0.13617677986621857,1.5072946548461914,1.1176249980926514,-1.7911663055419922,-0.0513417087495327,0.12733787298202515,0.19431167840957642,0.34146708250045776,-0.5139111876487732,-0.6948515772819519,-0.7999716401100159,1.2693214416503906,-0.20204101502895355
40,-0.39036253094673157,-0.44715777039527893,0.38605695962905884,1.2065675258636475,0.11886924505233765,0.05818446725606918,0.2947808802127838,-0.484271764755249,-0.1517265886068344,0.6501649618148804,-0.1866651475429535,0.021548794582486153,-0.2680397927761078,-0.4788965582847595,1.3912971019744873,0.1474590003490448,-0.16089239716529846,1.540605068206787,-0.14725108444690704,-0.05589579790830612,-1.0426108837127686,-0.3303793668746948,-0.642625629901886,0.3232298493385315,-0.040300361812114716,0.47680309414863586,0.7503086924552917,-0.14836683869361877,1.5036933422088623,1.1260899305343628,-1.8021409511566162,-0.05150517076253891,0.12823368608951569,0.20550936460494995,0.3436889350414276,-0.5374707579612732,-0.7191703915596008,-0.7954593300819397,1.24657142162323,-0.13333851099014282
41,-0.40130093693733215,-0.4242177903652191,0.3802189528942108,1.2382984161376953,0.1296127438545227,0.051442962139844894,0.310530424118042,-0.4862845540046692,-0.13989748060703278,0.6484050154685974,-0.17316582798957825,0.023079784587025642,-0.28013119101524353,-0.5461710095405579,1.3848392963409424,0.14877989888191223,-0.169385626912117,1.5421208143234253,-0.14983129501342773,-0.05521788448095322,-1.0333302021026611,-0.3356959819793701,-0.631998598575592,0.3309987187385559,-0.04689592123031616,0.4975907802581787,0.757365345954895,-0.14486968517303467,1.508715271949768,1.1343151330947876,-1.786729097366333,-0.07139511406421661,0.1210792064666748,0.21709345281124115,0.34189191460609436,-0.5515246987342834,-0.6951579451560974,-0.8158496618270874,1.2664858102798462,-0.20230980217456818
42,-0.4059073030948639,-0.45596742630004883,0.37754887342453003,1.2034157514572144,0.11638537794351578,0.06717365235090256,0.2989400029182434,-0.47661346197128296,-0.16387759149074554,0.6521511673927307,-0.18722116947174072,0.019069219008088112,-0.28714868426322937,-0.49226945638656616,1.3796265125274658,0.1621285378932953,-0.17417675256729126,1.5451911687850952,-0.13112494349479675,-0.049942705780267715,-1.0349453687667847,-0.31733328104019165,-0.6348700523376465,0.3307344317436218,-0.039581548422575,0.4845627248287201,0.7559865713119507,-0.15552620589733124,1.5034128427505493,1.1405861377716064,-1.7996619939804077,-0.06969525665044785,0.12279874086380005,0.2273334413766861,0.3432900905609131,-0.57109534740448,-0.7179344296455383,-0.8082022070884705,1.2424776554107666,-0.15170270204544067
43,-0.4160301983356476,-0.4340920150279999,0.3724232614040375,1.2320051193237305,0.12452103942632675,0.058665454387664795,0.3145788908004761,-0.4782419204711914,-0.1506023108959198,0.6488751769065857,-0.1717763990163803,0.02162203937768936,-0.2981851100921631,-0.5420766472816467,1.372964859008789,0.16222158074378967,-0.1800088733434677,1.5470019578933716,-0.13113020360469818,-0.04929998517036438,-1.0238720178604126,-0.32462960481643677,-0.6251239776611328,0.34376123547554016,-0.045033685863018036,0.5029429197311401,0.7610184550285339,-0.15248873829841614,1.506600260734558,1.1492068767547607,-1.7828898429870605,-0.08801780641078949,0.11619618535041809,0.23759976029396057,0.3418847322463989,-0.5843822956085205,-0.6963404417037964,-0.8306046724319458,1.2649106979370117,-0.20379063487052917
44,-0.42138442397117615,-0.46377578377723694,0.36849191784858704,1.1990199089050293,0.11555726081132889,0.07471254467964172,0.3017096519470215,-0.46979719400405884,-0.1741681694984436,0.6516475081443787,-0.18577976524829865,0.018648933619260788,-0.30543142557144165,-0.49991557002067566,1.3688102960586548,0.1740008294582367,-0.18477624654769897,1.548890233039856,-0.11649459600448608,-0.04503032937645912,-1.0252150297164917,-0.30552393198013306,-0.6321435570716858,0.3399101793766022,-0.03812911733984947,0.49088287353515625,0.7589901089668274,-0.16132435202598572,1.5007245540618896,1.1536108255386353,-1.7980211973190308,-0.08530288934707642,0.11823862046003342,0.24708367884159088,0.34141916036605835,-0.6008235812187195,-0.715550422668457,-0.8200315833091736,1.2411936521530151,-0.16675113141536713
45,-0.43054404854774475,-0.443247526884079,0.36397668719291687,1.2246240377426147,0.12066565454006195,0.06485152244567871,0.31708016991615295,-0.4713011085987091,-0.16019995510578156,0.647209882736206,-0.16985081136226654,0.02178455889225006,-0.3154565095901489,-0.5403458476066589,1.362415075302124,0.17287956178188324,-0.18803679943084717,1.5511887073516846,-0.11500184237957001,-0.044218726456165314,-1.0129987001419067,-0.3143870532512665,-0.6227676272392273,0.35626694560050964,-0.042274411767721176,0.5070312023162842,0.7623040676116943,-0.15839365124702454,1.502227783203125,1.162457823753357,-1.779928207397461,-0.10205845534801483,0.11217105388641357,0.2562500238418579,0.34111592173576355,-0.6133189797401428,-0.6968830227851868,-0.8437123894691467,1.2649435997009277,-0.20896266400814056
46,-0.4362282454967499,-0.47136175632476807,0.35921135544776917,1.1928880214691162,0.115517757833004,0.08108045160770416,0.3028959035873413,-0.4638388156890869,-0.183279886841774,0.6496480703353882,-0.18355228006839752,0.0195264033973217,-0.32271257042884827,-0.5033248066902161,1.3591148853302002,0.1834406852722168,-0.192519873380661,1.5524029731750488,-0.10297835618257523,-0.04073295369744301,-1.0145316123962402,-0.2949218153953552,-0.6330183744430542,0.35006222128868103,-0.03595414757728577,0.4953077733516693,0.7597864866256714,-0.16587376594543457,1.4961241483688354,1.1653300523757935,-1.7970123291015625,-0.09854539483785629,0.11447589099407196,0.2650233805179596,0.3393573462963104,-0.6276605129241943,-0.7137643098831177,-0.8308079242706299,1.2416387796401978,-0.17853331565856934
47,-0.444610595703125,-0.45112940669059753,0.3550287187099457,1.2171193361282349,0.1188025176525116,0.06989962607622147,0.3183765411376953,-0.4656519293785095,-0.16847175359725952,0.6442101001739502,-0.1673721820116043,0.022992422804236412,-0.33193743228912354,-0.5400567650794983,1.353118658065796,0.1809888482093811,-0.1937270611524582,1.5551553964614868,-0.1012430489063263,-0.0397702194750309,-1.0016740560531616,-0.3053330183029175,-0.6235188245773315,0.3684965670108795,-0.03929685801267624,0.5102218389511108,0.7619017362594604,-0.16253238916397095,1.4965521097183228,1.1742836236953735,-1.7775382995605469,-0.1142447292804718,0.10875968635082245,0.27324458956718445,0.3400309085845947,-0.6393629908561707,-0.6968114376068115,-0.855532705783844,1.2666900157928467,-0.21617132425308228
48,-0.4502808451652527,-0.47883549332618713,0.3496829867362976,1.185389518737793,0.1164461299777031,0.08666442334651947,0.3026021122932434,-0.45883822441101074,-0.19170954823493958,0.6467151641845703,-0.18129660189151764,0.02112530916929245,-0.3389483392238617,-0.504146933555603,1.3505655527114868,0.1907820701599121,-0.19778525829315186,1.5559637546539307,-0.09089722484350204,-0.036811478435993195,-1.0038357973098755,-0.2852715849876404,-0.6364266276359558,0.3602520823478699,-0.033458102494478226,0.4980309009552002,0.7590116262435913,-0.16911214590072632,1.4903104305267334,1.1756788492202759,-1.796656847000122,-0.10975956916809082,0.1114392951130867,0.28131479024887085,0.33761221170425415,-0.652268648147583,-0.7129170894622803,-0.8402942419052124,1.2429373264312744,-0.18783381581306458
49,-0.4580405652523041,-0.45765164494514465,0.34570834040641785,1.2099974155426025,0.11881842464208603,0.07385725528001785,0.3188628852367401,-0.46129992604255676,-0.17545750737190247,0.6402987241744995,-0.1645008772611618,0.024830641224980354,-0.34748604893684387,-0.5405921936035156,1.3448714017868042,0.18684391677379608,-0.19728456437587738,1.5591553449630737,-0.08962394297122955,-0.03575321286916733,-0.9904945492744446,-0.2975905239582062,-0.6260412335395813,0.3804153501987457,-0.03649669140577316,0.5126814246177673,0.7604274749755859,-0.1649952530860901,1.4902617931365967,1.184740424156189,-1.775272011756897,-0.125074103474617,0.10584715008735657,0.2886897027492523,0.33923429250717163,-0.6632727980613708,-0.6964656710624695,-0.8665168285369873,1.269882321357727,-0.2241857647895813
50,-0.46350178122520447,-0.4861883223056793,0.3398648202419281,1.1770341396331787,0.11855420470237732,0.09178247302770615,0.3010511100292206,-0.4547956585884094,-0.19977912306785583,0.6431573629379272,-0.17941753566265106,0.023082902655005455,-0.35407623648643494,-0.5032511353492737,1.3430095911026,0.1963645964860916,-0.20097646117210388,1.5596141815185547,-0.08043325692415237,-0.033134132623672485,-0.993793249130249,-0.2763366997241974,-0.641448438167572,0.369765967130661,-0.03101697936654091,0.4993211030960083,0.7572827935218811,-0.17107070982456207,1.4839082956314087,1.1845089197158813,-1.7969131469726562,-0.11926408857107162,0.10907556116580963,0.29606160521507263,0.3364763855934143,-0.6751438975334167,-0.7130386829376221,-0.8484642505645752,1.2444614171981812,-0.1951053887605667
51,-0.4707474410533905,-0.4628715217113495,0.33609068393707275,1.2036162614822388,0.12043485045433044,0.07683806121349335,0.3189157247543335,-0.4581458866596222,-0.1812799572944641,0.6356967091560364,-0.16141609847545624,0.027039876207709312,-0.3619631230831146,-0.5416452288627625,1.33743155002594,0.1907457560300827,-0.19892731308937073,1.5632734298706055,-0.07997290045022964,-0.03203454986214638,-0.9798653721809387,-0.29113462567329407,-0.6292271614074707,0.39185667037963867,-0.03411144018173218,0.5145654082298279,0.7584154605865479,-0.16591939330101013,1.4838640689849854,1.1937769651412964,-1.772775411605835,-0.13488297164440155,0.10336701571941376,0.3026511073112488,0.33916157484054565,-0.6855776906013489,-0.6960771083831787,-0.8770270943641663,1.2741450071334839,-0.23233824968338013
52,-0.47591519355773926,-0.4934077262878418,0.3297320604324341,1.16830313205719,0.12188827246427536,0.09666619449853897,0.2985084354877472,-0.45160919427871704,-0.2076803743839264,0.6392039656639099,-0.17813768982887268,0.025198571383953094,-0.3680356442928314,-0.5011606812477112,1.3362458944320679,0.2005087286233902,-0.2024351805448532,1.5633049011230469,-0.07163302600383759,-0.029645537957549095,-0.984837532043457,-0.2679280638694763,-0.6473013162612915,0.37811198830604553,-0.028893880546092987,0.4994218945503235,0.7551203966140747,-0.17184840142726898,1.4773788452148438,1.1916472911834717,-1.7976691722869873,-0.1272989809513092,0.10734514892101288,0.3093332350254059,0.3361057937145233,-0.6966503262519836,-0.7140843868255615,-0.8554227352142334,1.2457911968231201,-0.20064161717891693
53,-0.482732355594635,-0.4669399857521057,0.32621869444847107,1.198187232017517,0.12334412336349487,0.0789908915758133,0.31881287693977356,-0.4560225307941437,-0.18607930839061737,0.6306052803993225,-0.15827828645706177,0.029480693861842155,-0.3752698600292206,-0.5429520010948181,1.330579161643982,0.1929928958415985,-0.19887834787368774,1.5674962997436523,-0.07213295996189117,-0.02856372855603695,-0.9700557589530945,-0.28584083914756775,-0.6322469115257263,0.40261808037757874,-0.032268501818180084,0.5159913301467896,0.7562949061393738,-0.1654677391052246,1.4777089357376099,1.2012827396392822,-1.7698516845703125,-0.14387869834899902,0.10127846151590347,0.31518039107322693,0.34004834294319153,-0.7066500782966614,-0.6957836151123047,-0.8872736692428589,1.279078483581543,-0.24020026624202728
54,-0.48759835958480835,-0.5004204511642456,0.3192768692970276,1.159680962562561,0.12636609375476837,0.10142342746257782,0.29526785016059875,-0.4491335153579712,-0.2154494971036911,0.6350801587104797,-0.17754174768924713,0.02738303877413273,-0.38080039620399475,-0.498371422290802,1.3300883769989014,0.20348672568798065,-0.20243795216083527,1.5669463872909546,-0.06448177993297577,-0.026357725262641907,-0.9772048592567444,-0.2599506080150604,-0.6533366441726685,0.38504111766815186,-0.027260087430477142,0.4985743463039398,0.7529276013374329,-0.17156045138835907,1.4710313081741333,1.1969455480575562,-1.7987191677093506,-0.13404788076877594,0.1062086746096611,0.32118621468544006,0.3365280330181122,-0.7170486450195312,-0.7159363031387329,-0.8613765835762024,1.2467541694641113,-0.2047819048166275
55,-0.4940556585788727,-0.47014713287353516,0.316118985414505,1.1936877965927124,0.1272362768650055,0.08052828907966614,0.3186477720737457,-0.4547138810157776,-0.19005714356899261,0.6252641081809998,-0.15527577698230743,0.032084736973047256,-0.3873562216758728,-0.5441082715988159,1.3241510391235352,0.1939026564359665,-0.19736069440841675,1.5717555284500122,-0.06592202931642532,-0.02535952813923359,-0.9612515568733215,-0.2814680337905884,-0.6346080303192139,0.41248220205307007,-0.031007220968604088,0.5169805288314819,0.7543764114379883,-0.16383181512355804,1.4720066785812378,1.2071160078048706,-1.7665208578109741,-0.1521366983652115,0.09957212954759598,0.32633304595947266,0.3419665992259979,-0.7267541885375977,-0.695723295211792,-0.8972367644309998,1.284212350845337,-0.24734210968017578
56,-0.4986630976200104,-0.5069993734359741,0.3085227608680725,1.1517252922058105,0.13182583451271057,0.10597819089889526,0.29169028997421265,-0.4472321569919586,-0.22291266918182373,0.6309520602226257,-0.1775529682636261,0.029620476067066193,-0.3923926055431366,-0.49548330903053284,1.3243790864944458,0.2054913491010666,-0.20118722319602966,1.5704529285430908,-0.05892216041684151,-0.023327752947807312,-0.9709420204162598,-0.2524771988391876,-0.6589851975440979,0.3906097710132599,-0.02622375264763832,0.49707263708114624,0.7509945034980774,-0.1702984720468521,1.4650639295578003,1.2003628015518188,-1.7996960878372192,-0.1397026926279068,0.10560671240091324,0.3316807746887207,0.3376895785331726,-0.7365261316299438,-0.7183547616004944,-0.8666853308677673,1.2474851608276367,-0.20802927017211914
57,-0.5048036575317383,-0.4729631543159485,0.30581608414649963,1.1898046731948853,0.13183914124965668,0.08177869766950607,0.3182675838470459,-0.45395222306251526,-0.1935512125492096,0.6198825240135193,-0.15268993377685547,0.03480640426278114,-0.39822492003440857,-0.5445323586463928,1.3180577754974365,0.19384150207042694,-0.19459979236125946,1.5759533643722534,-0.061087124049663544,-0.022470057010650635,-0.953617513179779,-0.2776215076446533,-0.6362067461013794,0.4211762845516205,-0.0302913635969162,0.5174222588539124,0.7528510689735413,-0.16123966872692108,1.4668408632278442,1.2111622095108032,-1.7630693912506104,-0.15958721935749054,0.09828543663024902,0.3361804485321045,0.34486809372901917,-0.7460725903511047,-0.6960996389389038,-0.906611979007721,1.2889485359191895,-0.2532544732093811
58,-0.5092211961746216,-0.5127525329589844,0.2975568473339081,1.145046591758728,0.13805170357227325,0.11005134135484695,0.28821873664855957,-0.4457911550998688,-0.2296816110610962,0.626771867275238,-0.17792260646820068,0.03193597123026848,-0.4028812050819397,-0.4931054413318634,1.3189815282821655,0.20662018656730652,-0.19879812002182007,1.5737959146499634,-0.05480186641216278,-0.020608173683285713,-0.9659103751182556,-0.2457784116268158,-0.6636962890625,0.3952063322067261,-0.02583475597202778,0.4952872395515442,0.7495080232620239,-0.1681118756532669,1.4596003293991089,1.2021015882492065,-1.8000614643096924,-0.14451994001865387,0.10544149577617645,0.34088870882987976,0.33953481912612915,-0.7552303671836853,-0.7209619283676147,-0.8718796968460083,1.2483923435211182,-0.21100078523159027
59,-0.5150548815727234,-0.4759538173675537,0.29535973072052,1.1860411167144775,0.1369836926460266,0.0831666886806488,0.3173176646232605,-0.45341283082962036,-0.19701363146305084,0.6144891381263733,-0.15089133381843567,0.0375874787569046,-0.40794363617897034,-0.5436744093894958,1.3122793436050415,0.1932155042886734,-0.19082212448120117,1.5800025463104248,-0.05726626142859459,-0.019908489659428596,-0.9473231434822083,-0.27380454540252686,-0.637273907661438,0.4283740222454071,-0.030030325055122375,0.5171228051185608,0.751801609992981,-0.15794067084789276,1.4621793031692505,1.2134658098220825,-1.7599704265594482,-0.16604484617710114,0.09750213474035263,0.3448106050491333,0.34861433506011963,-0.7647221684455872,-0.6971433758735657,-0.9149021506309509,1.2926560640335083,-0.2575027048587799
60,-0.5193449854850769,-0.5173084139823914,0.28655463457107544,1.1400948762893677,0.14479117095470428,0.11328519135713577,0.28525882959365845,-0.4446818232536316,-0.23530876636505127,0.6221739649772644,-0.17832748591899872,0.034358490258455276,-0.41237205266952515,-0.4915999472141266,1.313782811164856,0.2069101184606552,-0.19531919062137604,1.5770500898361206,-0.051797717809677124,-0.018181584775447845,-0.9618408679962158,-0.2401992380619049,-0.6669787764549255,0.39939647912979126,-0.026070451363921165,0.493583083152771,0.748557448387146,-0.1650274693965912,1.4546924829483032,1.2026982307434082,-1.7992929220199585,-0.14879821240901947,0.10558920353651047,0.34889012575149536,0.34205931425094604,-0.7732973098754883,-0.7233453989028931,-0.8774972558021545,1.2499126195907593,-0.21418708562850952
61,-0.5248594880104065,-0.47953251004219055,0.28485822677612305,1.182011365890503,0.14263604581356049,0.08504332602024078,0.31545764207839966,-0.4527553617954254,-0.2008037269115448,0.6088466048240662,-0.15018410980701447,0.04035501182079315,-0.4166550040245056,-0.5413655638694763,1.3068333864212036,0.19237788021564484,-0.1862422376871109,1.583886981010437,-0.054018087685108185,-0.01759466901421547,-0.9424809813499451,-0.26963117718696594,-0.6381279230117798,0.4338359832763672,-0.030132299289107323,0.5159608721733093,0.7512319087982178,-0.15414901077747345,1.4579073190689087,1.2143727540969849,-1.7576099634170532,-0.1713358759880066,0.09731055796146393,0.35231518745422363,0.35299891233444214,-0.782778799533844,-0.698956310749054,-0.921725869178772,1.2949578762054443,-0.2600134313106537
62,-0.5290570259094238,-0.5206096172332764,0.27574557065963745,1.1368883848190308,0.151798814535141,0.1155005618929863,0.282957524061203,-0.4437171518802643,-0.23956699669361115,0.6166384220123291,-0.17856819927692413,0.03688766434788704,-0.4209933280944824,-0.49093443155288696,1.3087154626846313,0.20641973614692688,-0.19081434607505798,1.580379843711853,-0.04944967105984688,-0.015926389023661613,-0.958462119102478,-0.2358994036912918,-0.6685776114463806,0.4035715162754059,-0.026848172768950462,0.4921590983867645,0.7481489181518555,-0.16110248863697052,1.4503047466278076,1.202897310256958,-1.7972028255462646,-0.15276512503623962,0.10595791041851044,0.355764240026474,0.3452692925930023,-0.7908576726913452,-0.7252587676048279,-0.8837801218032837,1.2521854639053345,-0.2177249640226364
63,-0.5342474579811096,-0.4837615191936493,0.2744733989238739,1.177671194076538,0.14882433414459229,0.08748485147953033,0.31260737776756287,-0.45172417163848877,-0.20495560765266418,0.6025993227958679,-0.1506025791168213,0.04305444285273552,-0.42455047369003296,-0.5379540324211121,1.3017232418060303,0.19151119887828827,-0.18104758858680725,1.587698221206665,-0.050958044826984406,-0.015355793759226799,-0.9390358328819275,-0.2650437355041504,-0.6388788223266602,0.43758997321128845,-0.03057296760380268,0.5140220522880554,0.751115083694458,-0.14998646080493927,1.4538922309875488,1.2145054340362549,-1.7560279369354248,-0.1754571497440338,0.09773910045623779,0.3587719798088074,0.35777926445007324,-0.8003183007240295,-0.7013970017433167,-0.9271126389503479,1.2959439754486084,-0.26116594672203064
64,-0.538364052772522,-0.5230018496513367,0.26531752943992615,1.1349948644638062,0.15889805555343628,0.11684608459472656,0.2811213731765747,-0.44267669320106506,-0.24258111417293549,0.6098653674125671,-0.17868030071258545,0.03949177637696266,-0.4288769066333771,-0.4908125102519989,1.3037676811218262,0.20528309047222137,-0.18544428050518036,1.583957314491272,-0.0473468042910099,-0.013654154725372791,-0.955612063407898,-0.23270843923091888,-0.6685931086540222,0.40771082043647766,-0.028089813888072968,0.490975558757782,0.7482436299324036,-0.15645994246006012,1.4463263750076294,1.2033356428146362,-1.7940572500228882,-0.15649335086345673,0.10653860867023468,0.3615861237049103,0.3490780293941498,-0.8080281615257263,-0.72672438621521,-0.8905574083328247,1.2549680471420288,-0.22142638266086578
65,-0.5432536602020264,-0.48842257261276245,0.26436012983322144,1.1732534170150757,0.1555127501487732,0.09029493480920792,0.30897292494773865,-0.4502234160900116,-0.20918194949626923,0.5955498218536377,-0.1518944352865219,0.04568113014101982,-0.43180957436561584,-0.5340745449066162,1.2969081401824951,0.1906118541955948,-0.17539437115192413,1.591597318649292,-0.04789459705352783,-0.01299524586647749,-0.9367390275001526,-0.260282963514328,-0.6393709778785706,0.4399290382862091,-0.031415972858667374,0.5115594863891602,0.751431405544281,-0.145486518740654,1.450046181678772,1.2145189046859741,-1.7549464702606201,-0.17861296236515045,0.09873505681753159,0.36424461007118225,0.36271968483924866,-0.8174429535865784,-0.7041628360748291,-0.9314708113670349,1.296052098274231,-0.2615550756454468
66,-0.5472962856292725,-0.5250183343887329,0.255349338054657,1.1338083744049072,0.16599828004837036,0.11768042296171188,0.27938389778137207,-0.44138380885124207,-0.244676411151886,0.6019712686538696,-0.1788482517004013,0.042135804891586304,-0.4361395835876465,-0.4909120798110962,1.2989572286605835,0.20368409156799316,-0.17945460975170135,1.5878896713256836,-0.045277539640665054,-0.01118818111717701,-0.953240692615509,-0.23025034368038177,-0.6673781275749207,0.4115074574947357,-0.029776211827993393,0.4898488223552704,0.7487951517105103,-0.15126845240592957,1.442630648612976,1.2043310403823853,-1.7903587818145752,-0.15994243323802948,0.10739118605852127,0.36643460392951965,0.3532606065273285,-0.8249092698097229,-0.7279345393180847,-0.8974458575248718,1.257851243019104,-0.2249966561794281
67,-0.5519326329231262,-0.493241548538208,0.2546120285987854,1.1690385341644287,0.16255511343479156,0.093193918466568,0.30486544966697693,-0.4482927918434143,-0.21308523416519165,0.5877700448036194,-0.15370158851146698,0.04827749729156494,-0.43855613470077515,-0.5303136706352234,1.292314887046814,0.18958896398544312,-0.16940748691558838,1.595740556716919,-0.044819176197052,-0.010365178808569908,-0.9352563619613647,-0.25566405057907104,-0.6393632888793945,0.44124075770378113,-0.032761089503765106,0.5088414549827576,0.7521708011627197,-0.14064951241016388,1.4463438987731934,1.2148609161376953,-1.754005789756775,-0.18110860884189606,0.10020669549703598,0.368800550699234,0.36762261390686035,-0.8342730402946472,-0.7069625854492188,-0.9353073835372925,1.2957671880722046,-0.2616927921772003
68,-0.5559155344963074,-0.527117908000946,0.24582648277282715,1.132829189300537,0.1730540245771408,0.11835669726133347,0.2774240970611572,-0.43974918127059937,-0.24615472555160522,0.5933435559272766,-0.17925925552845,0.04480389505624771,-0.44287416338920593,-0.4910215437412262,1.294295310974121,0.20179985463619232,-0.17309315502643585,1.592211127281189,-0.04320404306054115,-0.00841561146080494,-0.9513503313064575,-0.2281602919101715,-0.6653338670730591,0.4146539866924286,-0.03193330019712448,0.48859089612960815,0.749757707118988,-0.14569418132305145,1.439127802848816,1.2059171199798584,-1.7865638732910156,-0.16305574774742126,0.10859242081642151,0.37039873003959656,0.3575136661529541,-0.8415891528129578,-0.7290853261947632,-0.9041077494621277,1.2604904174804688,-0.22821243107318878
69,-0.5603547096252441,-0.4980308413505554,0.24526101350784302,1.1652100086212158,0.16974157094955444,0.09597625583410263,0.3005397915840149,-0.4460286796092987,-0.2163393199443817,0.5794917345046997,-0.15573136508464813,0.05090514197945595,-0.4448595941066742,-0.5270485281944275,1.2878628969192505,0.1883656084537506,-0.1631789207458496,1.600237250328064,-0.041785430163145065,-0.007390271872282028,-0.9342978000640869,-0.2514066696166992,-0.6386972069740295,0.4418658912181854,-0.03467819094657898,0.506051242351532,0.7533140182495117,-0.1354866623878479,1.4428021907806396,1.2157195806503296,-1.7529417276382446,-0.1832299679517746,0.10207464545965195,0.3725229799747467,0.3723439574241638,-0.8509234189987183,-0.7096022367477417,-0.9390099048614502,1.2954272031784058,-0.26189130544662476
70,-0.5643010139465332,-0.5295814275741577,0.2366960346698761,1.1317545175552368,0.1800205260515213,0.11911174654960632,0.2750604748725891,-0.4377578794956207,-0.2471987009048462,0.5843982696533203,-0.18003706634044647,0.04749692603945732,-0.4491524398326874,-0.49105361104011536,1.2897708415985107,0.19977056980133057,-0.16654910147190094,1.5969172716140747,-0.04115235060453415,-0.005291454028338194,-0.9499562382698059,-0.22619140148162842,-0.6627877354621887,0.4169970452785492,-0.03458675742149353,0.4870792031288147,0.751076877117157,-0.13986974954605103,1.4357740879058838,1.2079887390136719,-1.7829655408859253,-0.16581197082996368,0.11020203679800034,0.3735741674900055,0.3615454137325287,-0.8581475615501404,-0.7302917838096619,-0.9103513956069946,1.2626811265945435,-0.23097127676010132
71,-0.5685951113700867,-0.5027040839195251,0.236306831240654,1.1618387699127197,0.1768602877855301,0.09854532778263092,0.29615238308906555,-0.4435277581214905,-0.21874263882637024,0.5709599852561951,-0.15780779719352722,0.05361868441104889,-0.45075806975364685,-0.5244624614715576,1.2834795713424683,0.1869155466556549,-0.1567714810371399,1.6051547527313232,-0.03881435841321945,-0.004051816649734974,-0.93367600440979,-0.24760355055332184,-0.6373352408409119,0.442061185836792,-0.03718094527721405,0.5032817125320435,0.7548233270645142,-0.13002978265285492,1.4394512176513672,1.2171058654785156,-1.751623511314392,-0.18519015610218048,0.10429201275110245,0.3755064010620117,0.37679627537727356,-0.867494523525238,-0.7119745016098022,-0.9427978992462158,1.2951998710632324,-0.26230084896087646
72,-0.5725353360176086,-0.532538115978241,0.22790586948394775,1.130436897277832,0.18683721125125885,0.12006808817386627,0.27223506569862366,-0.435436487197876,-0.24788936972618103,0.5754526853561401,-0.18124598264694214,0.050218403339385986,-0.45503219962120056,-0.4910045266151428,1.285357117652893,0.19769813120365143,-0.15994678437709808,1.6019954681396484,-0.03914131596684456,-0.001816263422369957,-0.9490779042243958,-0.22420838475227356,-0.6599738001823425,0.41853398084640503,-0.037737034261226654,0.48525798320770264,0.7526891231536865,-0.13389036059379578,1.4325547218322754,1.2104123830795288,-1.779714584350586,-0.16822409629821777,0.11225680261850357,0.37605366110801697,0.36512720584869385,-0.8746595978736877,-0.7315878868103027,-0.9161048531532288,1.2643285989761353,-0.23326440155506134
73,-0.5767279267311096,-0.5072374939918518,0.22774165868759155,1.1589208841323853,0.18372802436351776,0.10088015347719193,0.29178574681282043,-0.44086983799934387,-0.22019463777542114,0.5623648762702942,-0.1598445475101471,0.05645422637462616,-0.4562758803367615,-0.5226190090179443,1.2791056632995605,0.185252845287323,-0.15022915601730347,1.610537052154541,-0.03587150573730469,-0.0003612465807236731,-0.9332965612411499,-0.24425992369651794,-0.6353247761726379,0.4420161843299866,-0.040237490087747574,0.5005701184272766,0.756648600101471,-0.12432398647069931,1.4363166093826294,1.2189476490020752,-1.7500169277191162,-0.18713071942329407,0.10683951526880264,0.3778449594974518,0.380945086479187,-0.8840757012367249,-0.7140228748321533,-0.9467668533325195,1.2951356172561646,-0.2629835605621338
74,-0.5806987285614014,-0.5360248684883118,0.21941757202148438,1.1288141012191772,0.193433478474617,0.12127401679754257,0.26896408200263977,-0.4328286647796631,-0.24825379252433777,0.5667145848274231,-0.1829133927822113,0.05296452343463898,-0.4605616629123688,-0.49091053009033203,1.2810230255126953,0.19565382599830627,-0.1533677875995636,1.6074382066726685,-0.03716735914349556,0.0019879641477018595,-0.9487401247024536,-0.22214552760124207,-0.6570571660995483,0.4193509519100189,-0.04136156290769577,0.483116090297699,0.7545284628868103,-0.12782353162765503,1.4294650554656982,1.2130687236785889,-1.7768806219100952,-0.1703212857246399,0.1147771030664444,0.3779189884662628,0.36809998750686646,-0.8911998867988586,-0.7329582571983337,-0.9213603138923645,1.265395998954773,-0.23513540625572205
75,-0.5848231315612793,-0.5116314888000488,0.21956104040145874,1.1564174890518188,0.1901933252811432,0.10299539566040039,0.28748178482055664,-0.43812116980552673,-0.22065655887126923,0.5538366436958313,-0.1618022322654724,0.05943001061677933,-0.46143028140068054,-0.5215217471122742,1.274692177772522,0.18340930342674255,-0.1435874104499817,1.6164189577102661,-0.032883256673812866,0.003661006223410368,-0.9331246614456177,-0.241338312625885,-0.632752537727356,0.4418782591819763,-0.04379302263259888,0.4979296028614044,0.758739173412323,-0.1184190884232521,1.4334133863449097,1.2211464643478394,-1.7481396198272705,-0.18914209306240082,0.10971417278051376,0.37962380051612854,0.3848014771938324,-0.9007522463798523,-0.7157162427902222,-0.9509435296058655,1.2952244281768799,-0.26396453380584717
76,-0.5888676643371582,-0.5400316119194031,0.21120457351207733,1.1268619298934937,0.19973942637443542,0.12273869663476944,0.26529791951179504,-0.4299820363521576,-0.2483016848564148,0.5583177804946899,-0.18504869937896729,0.0557209849357605,-0.4657818078994751,-0.4908185303211212,1.276738166809082,0.1936853528022766,-0.14687426388263702,1.613242268562317,-0.03521556407213211,0.006093989126384258,-0.948972761631012,-0.21997123956680298,-0.6541610956192017,0.41956818103790283,-0.04542737081646919,0.4806663990020752,0.7565352916717529,-0.12171940505504608,1.4265005588531494,1.2158600091934204,-1.7744981050491333,-0.172133669257164,0.11777433753013611,0.37923720479011536,0.3703574240207672,-0.9078447818756104,-0.7343671917915344,-0.9261336326599121,1.265869379043579,-0.23664982616901398
77,-0.5929465293884277,-0.5158894062042236,0.21176587045192719,1.1542785167694092,0.19612880051136017,0.1049162819981575,0.283261775970459,-0.4353407323360443,-0.22012339532375336,0.5454648733139038,-0.16365963220596313,0.06255217641592026,-0.4662327170372009,-0.5211455225944519,1.2701969146728516,0.1814175248146057,-0.13687939941883087,1.6228312253952026,-0.02975795790553093,0.007997657172381878,-0.9331549406051636,-0.23878593742847443,-0.6297155618667603,0.4417681097984314,-0.04778721556067467,0.49536657333374023,0.7610514760017395,-0.11236422508955002,1.4307477474212646,1.2236021757125854,-1.746030569076538,-0.19128169119358063,0.11292047053575516,0.38091516494750977,0.3884132206439972,-0.9176098108291626,-0.7170383334159851,-0.9553231000900269,1.2954305410385132,-0.26525530219078064
78,-0.5971161723136902,-0.5445255637168884,0.20324675738811493,1.1245700120925903,0.20569492876529694,0.12445186078548431,0.2612987756729126,-0.4269426465034485,-0.24804221093654633,0.5503575801849365,-0.18765337765216827,0.058464884757995605,-0.47072747349739075,-0.49077320098876953,1.2724754810333252,0.19182102382183075,-0.14052283763885498,1.6194045543670654,-0.03327169269323349,0.01047686766833067,-0.9498090147972107,-0.21766865253448486,-0.651383638381958,0.41930830478668213,-0.0499015748500824,0.47793373465538025,0.758659303188324,-0.1156172901391983,1.4236549139022827,1.2187037467956543,-1.7725906372070312,-0.173685222864151,0.12125516682863235,0.3800605237483978,0.371826708316803,-0.9246723651885986,-0.7357745170593262,-0.9304443597793579,1.2657421827316284,-0.23788051307201385
79,-0.6011605262756348,-0.5200101733207703,0.20436054468154907,1.1524513959884644,0.20142191648483276,0.10666732490062714,0.279134601354599,-0.4325856864452362,-0.21860955655574799,0.5373149514198303,-0.16540062427520752,0.06582120060920715,-0.47068819403648376,-0.5214477181434631,1.2655810117721558,0.17930303514003754,-0.13013800978660583,1.6298019886016846,-0.02639942057430744,0.012639743275940418,-0.9333952069282532,-0.23654696345329285,-0.6263078451156616,0.44178715348243713,-0.052163075655698776,0.49288663268089294,0.7635509967803955,-0.10620572417974472,1.4283194541931152,1.226218581199646,-1.743736743927002,-0.1935845911502838,0.11646557599306107,0.3817783296108246,0.3918554186820984,-0.9347351789474487,-0.7179861068725586,-0.9598858952522278,1.2957088947296143,-0.2668597400188446
80,-0.6055175065994263,-0.5494588613510132,0.19552554190158844,1.12193763256073,0.2112540304660797,0.12639135122299194,0.2570328712463379,-0.42375344038009644,-0.24748599529266357,0.5429127812385559,-0.19072316586971283,0.0611686185002327,-0.47542887926101685,-0.49081510305404663,1.2682100534439087,0.1900714486837387,-0.13437004387378693,1.6259175539016724,-0.031328652054071426,0.015115980058908463,-0.9512813091278076,-0.21522833406925201,-0.6488040685653687,0.4186848998069763,-0.05475696176290512,0.4749505817890167,0.7608602046966553,-0.10954809933900833,1.420922875404358,1.2215254306793213,-1.7711774110794067,-0.17499323189258575,0.12522248923778534,0.3804280459880829,0.37245792150497437,-0.9417600035667419,-0.7371408939361572,-0.9343101382255554,1.265013337135315,-0.23890474438667297
81,-0.6095242500305176,-0.5239918231964111,0.19734959304332733,1.1508811712265015,0.20596866309642792,0.10827034711837769,0.2750975787639618,-0.42991283535957336,-0.2161477506160736,0.5294404029846191,-0.16701486706733704,0.06923573464155197,-0.4747961461544037,-0.5223663449287415,1.2608075141906738,0.17708362638950348,-0.12339602410793304,1.637352705001831,-0.02271452732384205,0.017587458714842796,-0.9338605999946594,-0.2345641553401947,-0.6226192712783813,0.4420178532600403,-0.05686916783452034,0.4904935359954834,0.7662099003791809,-0.09998708218336105,1.4261248111724854,1.2289048433303833,-1.7413111925125122,-0.19606541097164154,0.12035797536373138,0.3822605609893799,0.3952166438102722,-0.9522138833999634,-0.7185736298561096,-0.9646003246307373,1.2960056066513062,-0.26876920461654663
82,-0.6141442060470581,-0.5547664761543274,0.18802204728126526,1.1189788579940796,0.21638524532318115,0.12852339446544647,0.2525714039802551,-0.4204544126987457,-0.24663592875003815,0.5360544323921204,-0.194242462515831,0.06380478292703629,-0.47991183400154114,-0.490987092256546,1.2639164924621582,0.18842974305152893,-0.1284707486629486,1.632767915725708,-0.029383797198534012,0.019994203001260757,-0.9534147381782532,-0.21264857053756714,-0.6464816927909851,0.41780295968055725,-0.0599728524684906,0.47175824642181396,0.7631074786186218,-0.10353448241949081,1.418304443359375,1.2242558002471924,-1.7702698707580566,-0.1760733276605606,0.12967367470264435,0.3803691565990448,0.3722285032272339,-0.9591813683509827,-0.7384259104728699,-0.937750518321991,1.2636947631835938,-0.23980849981307983
83,-0.6180940270423889,-0.5278414487838745,0.1907326728105545,1.1495006084442139,0.20967215299606323,0.10974718630313873,0.27113422751426697,-0.42737776041030884,-0.21279789507389069,0.5218867659568787,-0.16850793361663818,0.07279247790575027,-0.47855326533317566,-0.5238154530525208,1.255842685699463,0.17477335035800934,-0.11668727546930313,1.645493745803833,-0.01862000860273838,0.022848736494779587,-0.9345784187316895,-0.23277564346790314,-0.6187422275543213,0.44251883029937744,-0.06185803562402725,0.4881844222545624,0.76900315284729,-0.09374996274709702,1.4241567850112915,1.2315760850906372,-1.7388206720352173,-0.19871407747268677,0.12460799515247345,0.3823976516723633,0.39857450127601624,-0.9701277613639832,-0.7188370823860168,-0.9694170355796814,1.2962501049041748,-0.270952969789505
84,-0.6230672597885132,-0.5603576302528381,0.18071939051151276,1.1157348155975342,0.22106584906578064,0.1307995468378067,0.2479950338602066,-0.4170837700366974,-0.24546940624713898,0.5298424363136292,-0.19817036390304565,0.06635360419750214,-0.4841965436935425,-0.4913443326950073,1.2595665454864502,0.18686984479427338,-0.1228722482919693,1.6399410963058472,-0.027425577864050865,0.025098375976085663,-0.9562157392501831,-0.20993943512439728,-0.6444476246833801,0.41676822304725647,-0.0655326098203659,0.46841150522232056,0.7653809189796448,-0.09758973866701126,1.4158105850219727,1.2268339395523071,-1.769858717918396,-0.17695005238056183,0.13459663093090057,0.37990763783454895,0.3711685538291931,-0.9770020246505737,-0.7395820617675781,-0.9407973289489746,1.261825442314148,-0.24069397151470184
85,-0.6269230246543884,-0.5315904021263123,0.18449880182743073,1.148218035697937,0.21245108544826508,0.1111246794462204,0.2672111690044403,-0.42502936720848083,-0.2086644470691681,0.5146903991699219,-0.1699201762676239,0.07648183405399323,-0.48195958137512207,-0.5256804823875427,1.250661015510559,0.17238862812519073,-0.11005102843046188,1.6542174816131592,-0.014052367769181728,0.028437523171305656,-0.935600757598877,-0.2311093807220459,-0.6147823333740234,0.44331565499305725,-0.0670829713344574,0.485943078994751,0.7719010710716248,-0.08753582090139389,1.4224016666412354,1.234159231185913,-1.73635995388031,-0.2014869749546051,0.12923088669776917,0.3822126090526581,0.40195292234420776,-0.9885514974594116,-0.7188389897346497,-0.9742571711540222,1.2963413000106812,-0.2733475863933563
86,-0.632350742816925,-0.5661051869392395,0.17361131310462952,1.1122874021530151,0.22526879608631134,0.1331542283296585,0.2433960884809494,-0.4136791527271271,-0.24391555786132812,0.5243080854415894,-0.20242013037204742,0.06881300359964371,-0.48829376697540283,-0.49196410179138184,1.2551243305206299,0.185344398021698,-0.11760450154542923,1.6474342346191406,-0.025407051667571068,0.030424226075410843,-0.9596564173698425,-0.20712754130363464,-0.642692506313324,0.41570019721984863,-0.07141821086406708,0.4649829566478729,0.7676715850830078,-0.09171712398529053,1.413465976715088,1.2292158603668213,-1.7698982954025269,-0.17767208814620972,0.13996563851833344,0.37906694412231445,0.3694067597389221,-0.9952762722969055,-0.7405492663383484,-0.9435074925422668,1.2594871520996094,-0.2416837215423584
87,-0.6360592842102051,-0.5353072285652161,0.17862050235271454,1.146904706954956,0.21425968408584595,0.11243866384029388,0.2632790505886078,-0.4228997230529785,-0.20391333103179932,0.5078684091567993,-0.17134805023670197,0.08027827739715576,-0.4850297272205353,-0.5278260707855225,1.245252013206482,0.16995252668857574,-0.10354176163673401,1.6634926795959473,-0.008983579464256763,0.034372858703136444,-0.9370207190513611,-0.22948062419891357,-0.610866904258728,0.4443914294242859,-0.07249566167593002,0.48373547196388245,0.7748621702194214,-0.08138605207204819,1.4208329916000366,1.2366050481796265,-1.7340686321258545,-0.20429977774620056,0.1342514157295227,0.38171157240867615,0.40526482462882996,-1.007551670074463,-0.7186641693115234,-0.9790030717849731,1.2961336374282837,-0.2758517861366272
88,-0.6420407891273499,-0.5718429088592529,0.16671691834926605,1.1087632179260254,0.22894160449504852,0.13550880551338196,0.2388710230588913,-0.4102778434753418,-0.24183867871761322,0.5194254517555237,-0.2068418711423874,0.07121090590953827,-0.4921998381614685,-0.4929482340812683,1.2505428791046143,0.18378368020057678,-0.11267067492008209,1.6552766561508179,-0.023209955543279648,0.035988692194223404,-0.9636598229408264,-0.2042563259601593,-0.6411550045013428,0.4147431552410126,-0.07760326564311981,0.46156319975852966,0.7699832916259766,-0.08591082692146301,1.4113094806671143,1.231391191482544,-1.7702945470809937,-0.17832793295383453,0.14574015140533447,0.37787508964538574,0.367220014333725,-1.0140447616577148,-0.7412548065185547,-0.9459742903709412,1.2568126916885376,-0.24291281402111053
89,-0.6455428004264832,-0.5391004085540771,0.1730525642633438,1.1453962326049805,0.21511834859848022,0.11373527348041534,0.2592790126800537,-0.42098939418792725,-0.19877228140830994,0.5014024972915649,-0.17295478284358978,0.08413039892911911,-0.48780784010887146,-0.5301227569580078,1.239627718925476,0.1674927920103073,-0.09724283963441849,1.6732633113861084,-0.003436345374211669,0.04068014398217201,-0.9389849305152893,-0.2277953326702118,-0.6071433424949646,0.4456835687160492,-0.0780475065112114,0.4815123677253723,0.7778263092041016,-0.07533929497003555,1.4194073677062988,1.2389074563980103,-1.7321399450302124,-0.20703165233135223,0.1397085040807724,0.38087862730026245,0.40827038884162903,-1.0271857976913452,-0.7184011340141296,-0.9835012555122375,1.2954381704330444,-0.2783363163471222
90,-0.652152419090271,-0.5773822665214539,0.1600964069366455,1.1053181886672974,0.23198403418064117,0.13778583705425262,0.23449841141700745,-0.4069150984287262,-0.23904813826084137,0.51507967710495,-0.21122853457927704,0.07361306250095367,-0.4958960711956024,-0.49441272020339966,1.2457666397094727,0.18209950625896454,-0.10804533958435059,1.6635512113571167,-0.020618682727217674,0.041847098618745804,-0.9681004285812378,-0.2013777494430542,-0.6397225260734558,0.41406315565109253,-0.08404719084501266,0.4582495093345642,0.7723281383514404,-0.08016003668308258,1.40938401222229,1.2334010601043701,-1.770914912223816,-0.1790502667427063,0.15187202394008636,0.3763655424118042,0.3650352954864502,-1.0333356857299805,-0.7416255474090576,-0.9483267664909363,1.253970980644226,-0.2445010393857956
91,-0.6554009318351746,-0.5430984497070312,0.16774237155914307,1.1435171365737915,0.21513690054416656,0.11506746709346771,0.2551543414592743,-0.41925400495529175,-0.19349221885204315,0.49522364139556885,-0.1749463975429535,0.08795848488807678,-0.49038004875183105,-0.5324913263320923,1.2338248491287231,0.165029838681221,-0.09127668291330338,1.6834640502929688,0.0025188690051436424,0.04739541932940483,-0.9416815042495728,-0.22596222162246704,-0.6037579774856567,0.44709667563438416,-0.08369958400726318,0.4792233109474182,0.7807148098945618,-0.06942594051361084,1.4180647134780884,1.2411235570907593,-1.73080575466156,-0.2095523625612259,0.14565593004226685,0.3796742260456085,0.4106132984161377,-1.047503113746643,-0.7181094288825989,-0.987591028213501,1.2940503358840942,-0.2806733548641205
92,-0.6626614928245544,-0.5825578570365906,0.15385331213474274,1.102091670036316,0.2342471480369568,0.13993097841739655,0.2303086668252945,-0.4036189615726471,-0.23535235226154327,0.5110587477684021,-0.21536536514759064,0.07611290365457535,-0.4993615746498108,-0.4964633882045746,1.24074125289917,0.1801961213350296,-0.1036924496293068,1.6723982095718384,-0.017339494079351425,0.048104219138622284,-0.9728354215621948,-0.19853569567203522,-0.638255774974823,0.4138209819793701,-0.09069962054491043,0.455124169588089,0.7747142910957336,-0.07445531338453293,1.4077179431915283,1.2353527545928955,-1.7716323137283325,-0.17999516427516937,0.15832434594631195,0.3745700716972351,0.36332210898399353,-1.0531725883483887,-0.7416086792945862,-0.9507085680961609,1.2511190176010132,-0.2465120553970337
93,-0.6656439900398254,-0.5474071502685547,0.16265492141246796,1.1411317586898804,0.21449612081050873,0.11648939549922943,0.2508593499660492,-0.4176030457019806,-0.18826735019683838,0.48921507596969604,-0.1775028109550476,0.09167072176933289,-0.49287039041519165,-0.534939706325531,1.227893352508545,0.16255800426006317,-0.085797980427742,1.6940538883209229,0.008803488686680794,0.05457350239157677,-0.9452918767929077,-0.22390860319137573,-0.6008194088935852,0.44853413105010986,-0.08944230526685715,0.4768385887145996,0.7834432721138,-0.06366322189569473,1.4167402982711792,1.2433825731277466,-1.7302882671356201,-0.21177047491073608,0.15215429663658142,0.3780449330806732,0.41197049617767334,-1.0685391426086426,-0.7177910804748535,-0.9911555647850037,1.2918063402175903,-0.28277871012687683
94,-0.673514187335968,-0.5872868895530701,0.14811034500598907,1.0991475582122803,0.23556998372077942,0.14193034172058105,0.22626738250255585,-0.4004027247428894,-0.23064278066158295,0.507098376750946,-0.21911445260047913,0.07879497110843658,-0.5026018023490906,-0.499167263507843,1.2354321479797363,0.177986279129982,-0.09960412979125977,1.6819859743118286,-0.013083536177873611,0.05490340292453766,-0.9777653813362122,-0.1957492083311081,-0.6366369724273682,0.414124071598053,-0.09752131253480911,0.4522319436073303,0.7771291732788086,-0.06879448890686035,1.4063053131103516,1.2374175786972046,-1.772391676902771,-0.18129265308380127,0.1650949865579605,0.37250232696533203,0.36239469051361084,-1.073585033416748,-0.7411909699440002,-0.9532370567321777,1.248331904411316,-0.2489243745803833
95,-0.6762648224830627,-0.552065908908844,0.15780109167099,1.1381921768188477,0.2133730947971344,0.11804895102977753,0.24636110663414001,-0.4159219264984131,-0.18315435945987701,0.4832454323768616,-0.18069398403167725,0.09519548714160919,-0.49541419744491577,-0.5375592112541199,1.2218725681304932,0.1600312888622284,-0.08096377551555634,1.7050541639328003,0.015399273484945297,0.06229504570364952,-0.9499212503433228,-0.22159239649772644,-0.598362922668457,0.4499352276325226,-0.09531545639038086,0.47436705231666565,0.7859436273574829,-0.05805637314915657,1.4153860807418823,1.2458703517913818,-1.730734944343567,-0.21367692947387695,0.1592545062303543,0.3759438395500183,0.41223153471946716,-1.0903093814849854,-0.7173914313316345,-0.9941716194152832,1.2886402606964111,-0.2846435606479645
96,-0.6846548318862915,-0.591606616973877,0.14296582341194153,1.096440076828003,0.2358403354883194,0.14381366968154907,0.2222876250743866,-0.3972582221031189,-0.22495076060295105,0.5029764771461487,-0.22247852385044098,0.08168894797563553,-0.5056761503219604,-0.5025325417518616,1.2298352718353271,0.17540523409843445,-0.09583821892738342,1.692455530166626,-0.0076700663194060326,0.06239251792430878,-0.9828872084617615,-0.19300316274166107,-0.6348181366920471,0.41498449444770813,-0.1045159101486206,0.4495735764503479,0.7795295715332031,-0.06318628042936325,1.4051032066345215,1.2398067712783813,-1.7732590436935425,-0.1829940229654312,0.17222678661346436,0.3701454699039459,0.3622652292251587,-1.0946111679077148,-0.7404041886329651,-0.9559629559516907,1.245558500289917,-0.25164297223091125
97,-0.6872462034225464,-0.5570351481437683,0.1532447338104248,1.1347508430480957,0.2118476927280426,0.11977849155664444,0.24163910746574402,-0.4141126871109009,-0.17805330455303192,0.47721269726753235,-0.1844458431005478,0.09850682318210602,-0.49812236428260803,-0.5404784083366394,1.2157695293426514,0.1573645919561386,-0.07689504325389862,1.7165592908859253,0.02239307016134262,0.07066452503204346,-0.955557644367218,-0.21900556981563568,-0.5963402390480042,0.45129621028900146,-0.10140801966190338,0.47185757756233215,0.7881835699081421,-0.052605945616960526,1.4139885902404785,1.2487902641296387,-1.7321792840957642,-0.2153501957654953,0.1669815629720688,0.37335076928138733,0.41155076026916504,-1.112805724143982,-0.7168374061584473,-0.9967215061187744,1.2845977544784546,-0.2863340675830841
98,-0.6960556507110596,-0.5956570506095886,0.1384606957435608,1.0938317775726318,0.23503513634204865,0.1456446647644043,0.2182653248310089,-0.39415425062179565,-0.21842940151691437,0.4986007511615753,-0.22559012472629547,0.0847502201795578,-0.5086994171142578,-0.5065074563026428,1.2239741086959839,0.17241548001766205,-0.09252157807350159,1.703879714012146,-0.0010676141828298569,0.07068771123886108,-0.9882983565330505,-0.19024863839149475,-0.6328374147415161,0.41631370782852173,-0.11174872517585754,0.4471200108528137,0.781850278377533,-0.057651784271001816,1.4040532112121582,1.2427237033843994,-1.7744109630584717,-0.1850554198026657,0.17979125678539276,0.3674585223197937,0.36267173290252686,-1.116283893585205,-0.7393164038658142,-0.9588570594787598,1.2426352500915527,-0.25454622507095337
99,-0.6985722184181213,-0.5622227787971497,0.1490788757801056,1.130925178527832,0.2098611444234848,0.12168637663125992,0.23669011890888214,-0.4121316075325012,-0.1727655827999115,0.47106632590293884,-0.18858321011066437,0.10162349790334702,-0.5010625720024109,-0.5438083410263062,1.209555983543396,0.15444983541965485,-0.07365445047616959,1.7287089824676514,0.029959533363580704,0.0797954723238945,-0.9620954990386963,-0.21616984903812408,-0.5946412086486816,0.45266634225845337,-0.10783160477876663,0.4693862199783325,0.7901660799980164,-0.04731570929288864,1.412573218345642,1.2523175477981567,-1.734554648399353,-0.21691961586475372,0.17533013224601746,0.3702785074710846,0.4102363884449005,-1.1360033750534058,-0.7160812616348267,-0.9989587664604187,1.2797952890396118,-0.2879602313041687
100,-0.7077271938323975,-0.5996217727661133,0.13457581400871277,1.091149926185608,0.23321151733398438,0.14750702679157257,0.214112788438797,-0.391044020652771,-0.2112806886434555,0.49402567744255066,-0.22863999009132385,0.08788162469863892,-0.5118151307106018,-0.5109953880310059,1.2178843021392822,0.16900044679641724,-0.08981417864561081,1.7162586450576782,0.006649397779256105,0.07985787838697433,-0.9941532015800476,-0.1874111294746399,-0.6307947635650635,0.41796132922172546,-0.11933431774377823,0.44483479857444763,0.7840232253074646,-0.052224401384592056,1.4031116962432861,1.2463172674179077,-1.776074767112732,-0.18736833333969116,0.18785814940929413,0.36440080404281616,0.36323386430740356,-1.1386075019836426,-0.7380172610282898,-0.9618301391601562,1.2393512725830078,-0.25753238797187805
101,-0.7102352976799011,-0.5675257444381714,0.14538876712322235,1.1268476247787476,0.2072494775056839,0.12375704944133759,0.23153162002563477,-0.4100011885166168,-0.16708062589168549,0.46479666233062744,-0.19290883839130402,0.10458678752183914,-0.5042669773101807,-0.5476119518280029,1.203183889389038,0.15117663145065308,-0.07124976068735123,1.741640567779541,0.03830163553357124,0.08979063481092453,-0.9693989753723145,-0.21312646567821503,-0.5931313037872314,0.45412707328796387,-0.11468275636434555,0.46704015135765076,0.7919131517410278,-0.04219713807106018,1.411190390586853,1.2565704584121704,-1.7377465963363647,-0.21851666271686554,0.18427330255508423,0.3667658865451813,0.40859657526016235,-1.1598680019378662,-0.7151215076446533,-1.0010523796081543,1.2743600606918335,-0.28963562846183777
102,-0.7197079062461853,-0.6036691069602966,0.1312507838010788,1.088240385055542,0.2304687350988388,0.14948983490467072,0.2097766101360321,-0.38787609338760376,-0.2036883383989334,0.4894033670425415,-0.23180489242076874,0.09097224473953247,-0.5151641964912415,-0.5158752799034119,1.2116022109985352,0.16515372693538666,-0.0878637358546257,1.7295424938201904,0.015373703092336655,0.08992910385131836,-1.0006104707717896,-0.1844056099653244,-0.6288104057312012,0.4197688698768616,-0.12740249931812286,0.442691445350647,0.785993754863739,-0.04694714397192001,1.4022657871246338,1.2506567239761353,-1.7784653902053833,-0.18980731070041656,0.19647230207920074,0.36095529794692993,0.36360347270965576,-1.1615402698516846,-0.7366047501564026,-0.9647681713104248,1.2355124950408936,-0.26053711771965027
103,-0.7222347855567932,-0.5728583335876465,0.14222601056098938,1.1226297616958618,0.2038123905658722,0.12595999240875244,0.22619973123073578,-0.4077942371368408,-0.1608366072177887,0.45840972661972046,-0.1972612738609314,0.10743687301874161,-0.5077521204948425,-0.5519002676010132,1.1966065168380737,0.1474473774433136,-0.06965126097202301,1.755454421043396,0.047597430646419525,0.10072729736566544,-0.9773560762405396,-0.20992524921894073,-0.5916855931282043,0.45577099919319153,-0.12201760709285736,0.46490758657455444,0.7934473752975464,-0.0372702032327652,1.4098963737487793,1.2616052627563477,-1.741642713546753,-0.2202439308166504,0.19377584755420685,0.36286744475364685,0.4068560004234314,-1.184353232383728,-0.7139966487884521,-1.003143072128296,1.2683905363082886,-0.2914485037326813
104,-0.7320438623428345,-0.6079201698303223,0.12840412557125092,1.08499276638031,0.22691400349140167,0.1516747921705246,0.20524068176746368,-0.38460201025009155,-0.19579122960567474,0.48491933941841125,-0.23521295189857483,0.0939241573214531,-0.5188698768615723,-0.5210177898406982,1.2051619291305542,0.1608705371618271,-0.08677792549133301,1.74365234375,0.02501065284013748,0.10089518874883652,-1.0077991485595703,-0.18115396797657013,-0.6269937753677368,0.4216073453426361,-0.13606657087802887,0.440681517124176,0.787725031375885,-0.04186811298131943,1.4015289545059204,1.255739450454712,-1.7817500829696655,-0.19226336479187012,0.20564809441566467,0.35713839530944824,0.3635384142398834,-1.1849849224090576,-0.7351763248443604,-0.9675609469413757,1.2309788465499878,-0.2635258436203003
105,-0.7345688343048096,-0.5781593322753906,0.1396009922027588,1.1183509826660156,0.19937166571617126,0.12826043367385864,0.22074179351329803,-0.40560591220855713,-0.1539417803287506,0.4519093334674835,-0.20153279602527618,0.11019910126924515,-0.5115371346473694,-0.5566406846046448,1.1897920370101929,0.14318403601646423,-0.06880863010883331,1.7701985836029053,0.05797367915511131,0.1126517802476883,-0.985896110534668,-0.206618070602417,-0.5902074575424194,0.45768651366233826,-0.1298431158065796,0.4630739688873291,0.7947832345962524,-0.032562680542469025,1.408738374710083,1.267427921295166,-1.7461581230163574,-0.22216686606407166,0.20380361378192902,0.358647882938385,0.40515008568763733,-1.209387183189392,-0.712769091129303,-1.0053253173828125,1.2619473934173584,-0.2934494912624359
106,-0.7447701692581177,-0.6124439835548401,0.12594537436962128,1.081342339515686,0.22264748811721802,0.1541278064250946,0.20052187144756317,-0.38117715716362,-0.18768930435180664,0.4807509779930115,-0.23894207179546356,0.0966595783829689,-0.5230388045310974,-0.5262929797172546,1.198599100112915,0.15614445507526398,-0.08661734312772751,1.7584906816482544,0.03548608720302582,0.11272428184747696,-1.0158038139343262,-0.17759865522384644,-0.6254302859306335,0.42338991165161133,-0.14540521800518036,0.43881574273109436,0.7891954779624939,-0.037035878747701645,1.4009275436401367,1.261512279510498,-1.78603994846344,-0.19465482234954834,0.21537436544895172,0.35299837589263916,0.3629101514816284,-1.2087851762771606,-0.7338262796401978,-0.9701154232025146,1.2256726026535034,-0.2664763927459717
107,-0.7472233176231384,-0.5833855867385864,0.13748681545257568,1.1140631437301636,0.19380387663841248,0.1306261569261551,0.21521134674549103,-0.40352869033813477,-0.14637145400047302,0.4452941417694092,-0.20566190779209137,0.11287970095872879,-0.515652596950531,-0.5617680549621582,1.1827311515808105,0.1383294314146042,-0.06865955889225006,1.7858668565750122,0.06949856132268906,0.12557898461818695,-0.9949797987937927,-0.20325800776481628,-0.5886328220367432,0.45994848012924194,-0.13811825215816498,0.4616227447986603,0.7959272861480713,-0.028108850121498108,1.4077446460723877,1.2740057706832886,-1.7512352466583252,-0.22431814670562744,0.21432602405548096,0.3541816174983978,0.40355241298675537,-1.2348566055297852,-0.7115128636360168,-1.007648229598999,1.2550644874572754,-0.29565170407295227
108,-0.7578970193862915,-0.6172650456428528,0.12377937883138657,1.0772615671157837,0.21776410937309265,0.15689513087272644,0.19566510617733002,-0.3775589168071747,-0.1794617623090744,0.4770495593547821,-0.24303041398525238,0.09911695122718811,-0.5277673602104187,-0.5315712094306946,1.1919565200805664,0.15096907317638397,-0.08739844709634781,1.7739408016204834,0.046732835471630096,0.12535971403121948,-1.0246610641479492,-0.17371074855327606,-0.6241805553436279,0.42506691813468933,-0.1554550975561142,0.4371226131916046,0.7903963327407837,-0.03249618411064148,1.4004873037338257,1.267890214920044,-1.7913923263549805,-0.19692456722259521,0.22562052309513092,0.348610520362854,0.36168166995048523,-1.2327229976654053,-0.732646644115448,-0.9723589420318604,1.219573736190796,-0.2693651616573334
109,-0.760161280632019,-0.5885033011436462,0.13582639396190643,1.1097986698150635,0.1870550960302353,0.1330302655696869,0.20966753363609314,-0.4016357362270355,-0.13815763592720032,0.43856513500213623,-0.20961901545524597,0.11546650528907776,-0.5201414823532104,-0.5671928524971008,1.1754379272460938,0.13284701108932495,-0.06913105398416519,1.802398681640625,0.0821797102689743,0.13949184119701385,-1.0045790672302246,-0.1999012976884842,-0.5869266390800476,0.4626113176345825,-0.1467568576335907,0.4606364369392395,0.7968850135803223,-0.023947669193148613,1.406921148300171,1.281275987625122,-1.7568343877792358,-0.22670525312423706,0.2253131866455078,0.34955480694770813,0.4021010994911194,-1.2605926990509033,-0.7103069424629211,-1.0101242065429688,1.2477660179138184,-0.29803600907325745
110,-0.7713992595672607,-0.6223717927932739,0.12180803716182709,1.072752833366394,0.21235820651054382,0.16000182926654816,0.19074007868766785,-0.37370774149894714,-0.17118176817893982,0.4739316701889038,-0.2474866360425949,0.10124634206295013,-0.5331451892852783,-0.5367229580879211,1.1852866411209106,0.14534159004688263,-0.08909540623426437,1.7898613214492798,0.05867328867316246,0.13871753215789795,-1.0343568325042725,-0.1694946438074112,-0.6232807636260986,0.42661723494529724,-0.16620537638664246,0.4356459379196167,0.7913318276405334,-0.028289182111620903,1.400223970413208,1.2747691869735718,-1.7978119850158691,-0.19903473556041718,0.2363397628068924,0.3440733253955841,0.35988277196884155,-1.2565184831619263,-0.7317293882369995,-0.9742401838302612,1.2127162218093872,-0.27215901017189026
111,-0.7733150720596313,-0.5934818983078003,0.1345384120941162,1.1055784225463867,0.17915335297584534,0.13545340299606323,0.2041771560907364,-0.3999687135219574,-0.12938152253627777,0.43174272775650024,-0.2133973389863968,0.11793099343776703,-0.5250560641288757,-0.5728062391281128,1.167949914932251,0.12672209739685059,-0.0701376274228096,1.819678544998169,0.09596032649278641,0.1543371081352234,-1.0146600008010864,-0.19660785794258118,-0.5850794911384583,0.4657002389431,-0.15563011169433594,0.46019572019577026,0.7976676821708679,-0.02012035995721817,1.406251311302185,1.2891477346420288,-1.762921929359436,-0.229315847158432,0.23672986030578613,0.34486809372901917,0.4008099436759949,-1.2863610982894897,-0.709232747554779,-1.0127356052398682,1.2400802373886108,-0.30055758357048035
112,-0.7852078080177307,-0.62772136926651,0.11993377655744553,1.0678472518920898,0.20652271807193756,0.16344968974590302,0.18583965301513672,-0.3695950508117676,-0.16292215883731842,0.471465140581131,-0.2522943913936615,0.1030087098479271,-0.5392525792121887,-0.541620671749115,1.1786513328552246,0.1392667591571808,-0.09163736552000046,1.8060855865478516,0.07120858132839203,0.15268313884735107,-1.0448213815689087,-0.1649923175573349,-0.6227402091026306,0.4280441403388977,-0.17758889496326447,0.43444374203681946,0.792020857334137,-0.024446526542305946,1.4001383781433105,1.282034993171692,-1.8052453994750977,-0.20096561312675476,0.24746885895729065,0.3395055830478668,0.35759302973747253,-1.2798362970352173,-0.7311669588088989,-0.9757319688796997,1.2051854133605957,-0.2748126983642578
113,-0.7865816354751587,-0.5982927083969116,0.13352221250534058,1.1014124155044556,0.1702243983745575,0.13788823783397675,0.19881772994995117,-0.3985254168510437,-0.12017040699720383,0.4248923361301422,-0.21701182425022125,0.12022970616817474,-0.5304543375968933,-0.578484058380127,1.1603268384933472,0.11996539682149887,-0.07158197462558746,1.8375318050384521,0.11071359366178513,0.1700163036584854,-1.025172233581543,-0.19343753159046173,-0.5831078290939331,0.469198614358902,-0.16457293927669525,0.46037420630455017,0.7982984185218811,-0.01666744239628315,1.405697226524353,1.297501802444458,-1.7694660425186157,-0.23212046921253204,0.24852879345417023,0.3402366638183594,0.3996656835079193,-1.3118587732315063,-0.7083698511123657,-1.0154364109039307,1.2320486307144165,-0.3031524419784546
114,-0.7992028594017029,-0.6332400441169739,0.11806837469339371,1.0626072883605957,0.20033490657806396,0.16721294820308685,0.1810762584209442,-0.36522093415260315,-0.1547510176897049,0.4696437418460846,-0.2574100196361542,0.10438057780265808,-0.5461511611938477,-0.5461446642875671,1.1721162796020508,0.13275912404060364,-0.09490185976028442,1.8224259614944458,0.08421868085861206,0.16711148619651794,-1.0559240579605103,-0.16028942167758942,-0.6225332021713257,0.42938023805618286,-0.18946869671344757,0.43358758091926575,0.7924996614456177,-0.020987888798117638,1.400212287902832,1.2895746231079102,-1.813568353652954,-0.20272143185138702,0.2589280307292938,0.3350422978401184,0.3549354672431946,-1.3023039102554321,-0.7310476303100586,-0.9768404960632324,1.1971189975738525,-0.2772708535194397
115,-0.7998259663581848,-0.6029132604598999,0.132663756608963,1.0972965955734253,0.1605101078748703,0.14034827053546906,0.19367638230323792,-0.397242933511734,-0.11069753766059875,0.41815340518951416,-0.2205050140619278,0.12230368703603745,-0.5363976359367371,-0.5840885043144226,1.1526497602462769,0.11261799931526184,-0.07336287945508957,1.8557201623916626,0.1262376457452774,0.18637380003929138,-1.0360475778579712,-0.19044038653373718,-0.5810601115226746,0.4730323553085327,-0.17339929938316345,0.46122804284095764,0.7988159656524658,-0.013625059276819229,1.4052026271820068,1.3061949014663696,-1.7764383554458618,-0.23507295548915863,0.2606443166732788,0.33578747510910034,0.39861786365509033,-1.3367148637771606,-0.7077887654304504,-1.0181461572647095,1.2237271070480347,-0.30574488639831543
116,-0.8132115006446838,-0.6388213038444519,0.11614913493394852,1.0571341514587402,0.19383129477500916,0.17123118042945862,0.17657256126403809,-0.3606392443180084,-0.146719291806221,0.4683571457862854,-0.2627565264701843,0.10536160320043564,-0.5538700222969055,-0.5501946806907654,1.1657416820526123,0.12584248185157776,-0.0987091064453125,1.8386900424957275,0.09757623076438904,0.1818338930606842,-1.0674697160720825,-0.15552395582199097,-0.6225875020027161,0.43069931864738464,-0.20162281394004822,0.43316417932510376,0.7928223609924316,-0.017917729914188385,1.4004040956497192,1.2972979545593262,-1.8225739002227783,-0.20434176921844482,0.27062276005744934,0.33082684874534607,0.3520748019218445,-1.323546290397644,-0.7314438223838806,-0.9776157736778259,1.1887023448944092,-0.2794739007949829
117,-0.8128931522369385,-0.607335090637207,0.1318468451499939,1.093205213546753,0.15037241578102112,0.14287860691547394,0.18884342908859253,-0.3959807753562927,-0.10118009895086288,0.4117588400840759,-0.22395502030849457,0.12407588213682175,-0.5429510474205017,-0.5894696712493896,1.1450181007385254,0.10475603491067886,-0.07539166510105133,1.8739440441131592,0.14226001501083374,0.20318686962127686,-1.0472053289413452,-0.18764343857765198,-0.5790246725082397,0.47705742716789246,-0.18193067610263824,0.4627811312675476,0.7992731332778931,-0.011020907200872898,1.4046980142593384,1.315073847770691,-1.7838228940963745,-0.23811069130897522,0.2729882597923279,0.33165231347084045,0.3975701928138733,-1.3605033159255981,-0.7075399160385132,-1.0207430124282837,1.2151820659637451,-0.3082554042339325
118,-0.8270148038864136,-0.6443272233009338,0.11416056752204895,1.0515695810317993,0.1869836449623108,0.17540507018566132,0.17244380712509155,-0.3559766709804535,-0.1388477087020874,0.4673788547515869,-0.2682185173034668,0.10597915202379227,-0.5623924732208252,-0.5537035465240479,1.1595693826675415,0.11854703724384308,-0.10282496362924576,1.8547050952911377,0.11117040365934372,0.19667424261569977,-1.0792049169540405,-0.1508904993534088,-0.6227783560752869,0.4321245551109314,-0.21373708546161652,0.43327662348747253,0.7930566072463989,-0.015224314294755459,1.4006446599960327,1.3051677942276,-1.8319735527038574,-0.20591247081756592,0.2824491858482361,0.3269991874694824,0.34921151399612427,-1.343235969543457,-0.7323926091194153,-0.9781593680381775,1.1801551580429077,-0.28136786818504333
119,-0.825629711151123,-0.6115710139274597,0.13097260892391205,1.0890865325927734,0.14025849103927612,0.1455617994070053,0.1843983680009842,-0.3945181965827942,-0.09186846017837524,0.40601709485054016,-0.22747619450092316,0.1254488229751587,-0.5501860976219177,-0.5944664478302002,1.1375435590744019,0.09649090468883514,-0.07761160284280777,1.8918591737747192,0.15845760703086853,0.22016756236553192,-1.0585565567016602,-0.18504194915294647,-0.5771317481994629,0.48106446862220764,-0.19003067910671234,0.46501097083091736,0.7997302412986755,-0.00886998139321804,1.4041061401367188,1.324007272720337,-1.7916189432144165,-0.24115881323814392,0.2854488790035248,0.32795771956443787,0.39638543128967285,-1.3827677965164185,-0.7076428532600403,-1.0230650901794434,1.206486463546753,-0.3106086254119873
