,0,1,2,3,4,5,6,7,8,9,10,11,12,13,14,15,16,17,18,19,20,21,22,23,24,25,26,27,28,29,30,31,32,33,34,35,36,37,38,39,40,41,42,43,44,45,46,47,48,49,50,51,52,53,54,55,56,57,58,59,60,61,62,63,64,65,66,67,68,69,70,71,72,73,74,75,76,77,78,79,80,81,82,83,84,85,86,87,88,89,90,91,92,93,94,95,96,97,98,99,100,101,102,103
0,0.31750380992889404,-0.9121190309524536,-0.58193039894104,-0.5611608028411865,0.18425250053405762,0.4430593252182007,0.18382632732391357,0.3380638360977173,-0.9108501672744751,-0.6389608383178711,0.55989670753479,0.891289234161377,0.07605397701263428,0.3973121643066406,0.7515097856521606,0.7012085914611816,0.1738417148590088,-0.09075701236724854,0.9350423812866211,0.3833664655685425,0.20126855373382568,-0.37539660930633545,0.7242180109024048,-0.4065793752670288,0.37273383140563965,0.96385657787323,0.36640453338623047,-0.517219066619873,-0.08901429176330566,-0.19616830348968506,0.6062625646591187,0.052153587341308594,-0.5192579030990601,-0.07191634178161621,0.03582131862640381,-0.21919524669647217,0.29825377464294434,-0.10188889503479004,-0.5865168571472168,0.1378997564315796,-0.03358817100524902,0.9442334175109863,0.23551058769226074,-0.34551453590393066,0.7494000196456909,-0.2452702522277832,0.2535085678100586,-0.4633995294570923,0.8815641403198242,-0.10496068000793457,-0.794538140296936,-0.4216529130935669,-0.6434358358383179,-0.8290047645568848,0.8008396625518799,0.46647000312805176,-0.20308494567871094,-0.3213770389556885,-0.6337666511535645,0.9665216207504272,0.7961962223052979,-0.48777294158935547,-0.005832195281982422,0.031754374504089355,-0.9124734401702881,0.141929030418396,-0.3531759977340698,0.1539292335510254,0.219954252243042,0.3955245018005371,-0.3287104368209839,-0.14630401134490967,0.30024540424346924,-0.3437381982803345,-0.08879852294921875,-0.2725938558578491,-0.9666851758956909,0.03453648090362549,-0.1798616647720337,-0.05752754211425781,0.5591315031051636,-0.7009001970291138,-0.40559613704681396,0.5349463224411011,-0.8406771421432495,-0.6627113819122314,-0.5136153697967529,0.6955826282501221,-0.21454989910125732,0.36452293395996094,0.34665238857269287,0.6780761480331421,-0.8220280408859253,-0.3494070768356323,-0.06567633152008057,-0.39233267307281494,-0.5510461330413818,0.29240942001342773,0.8648422956466675,-0.12621688842773438,0.3371981382369995,0.7759907245635986,-0.8523368835449219,0.48656654357910156
1,0.26468127965927124,-0.8592965602874756,-0.6347529292106628,-0.5083382725715637,0.13142992556095123,0.4958817958831787,0.23664890229701996,0.28524163365364075,-0.8580276966094971,-0.6917821168899536,0.6127191781997681,0.8384667634963989,0.1288764923810959,0.34449005126953125,0.8043323159217834,0.7540310621261597,0.22666426002979279,-0.037934474647045135,0.9878648519515991,0.3305439054965973,0.2540910840034485,-0.32257410883903503,0.671395480632782,-0.35375696420669556,0.3199113607406616,1.0166791677474976,0.3135819733142853,-0.5700415968894958,-0.03619180619716644,-0.24899083375930786,0.6590850949287415,-0.0006689750589430332,-0.5720804333686829,-0.019093846902251244,0.0886438712477684,-0.27201777696609497,0.35107630491256714,-0.15471145510673523,-0.6393393874168396,0.08507721871137619,0.019234387204051018,0.9970555305480957,0.28833311796188354,-0.39833709597587585,0.8022225499153137,-0.2980928122997284,0.2006860077381134,-0.5162220597267151,0.8287416100502014,-0.05213836953043938,-0.8473606705665588,-0.4744754731655121,-0.6962583661079407,-0.8818272352218628,0.8536620736122131,0.519292414188385,-0.15026246011257172,-0.2685544788837433,-0.6865891814231873,0.9136990904808044,0.743373692035675,-0.43495041131973267,0.04699030891060829,-0.02106819860637188,-0.9652959704399109,0.0891064777970314,-0.3003535866737366,0.10110805928707123,0.167131707072258,0.4483470618724823,-0.2758878767490387,-0.09348145872354507,0.24742282927036285,-0.3965607285499573,-0.03597598895430565,-0.3254163861274719,-0.9138627052307129,-0.01828608103096485,-0.12703919410705566,-0.110350102186203,0.5063089728355408,-0.648077666759491,-0.35277360677719116,0.5877687931060791,-0.7878546118736267,-0.6098889112472534,-0.4607929289340973,0.6427603960037231,-0.2673724293708801,0.4173451364040375,0.3994747996330261,0.6252536177635193,-0.7692055106163025,-0.2965852618217468,-0.012853761203587055,-0.44515523314476013,-0.49822360277175903,0.3452318012714386,0.8120197653770447,-0.17903931438922882,0.2843755781650543,0.7231681942939758,-0.7995143532752991,0.5393889546394348
2,0.23412694036960602,-0.8157328963279724,-0.6644721627235413,-0.46519696712493896,0.09608869254589081,0.4921376407146454,0.2808986306190491,0.2540876269340515,-0.8872659206390381,-0.6403887271881104,0.6512449979782104,0.8244876861572266,0.16903984546661377,0.391263484954834,0.8471623659133911,0.7343266606330872,0.2676343619823456,-0.028346950188279152,0.9733185768127441,0.2967647612094879,0.28278884291648865,-0.2770578861236572,0.6361907720565796,-0.3390238583087921,0.2733977138996124,0.9854579567909241,0.2827701270580292,-0.6064354777336121,-0.007557956501841545,-0.2776150405406952,0.6902258992195129,-0.039026182144880295,-0.6071702837944031,0.019007861614227295,0.12953849136829376,-0.2949734032154083,0.39252108335494995,-0.19972503185272217,-0.679033100605011,0.04769453778862953,0.05817878246307373,0.9463549256324768,0.32961559295654297,-0.43080222606658936,0.8253540992736816,-0.3282848596572876,0.17700092494487762,-0.5612760186195374,0.7853801846504211,-0.0009505678899586201,-0.8799607753753662,-0.5139090418815613,-0.7456011176109314,-0.9029983878135681,0.9022974371910095,0.5703707933425903,-0.1071198359131813,-0.23048214614391327,-0.7192561030387878,0.8746952414512634,0.7173053622245789,-0.3901080787181854,0.06008480489253998,-0.05428847670555115,-0.9718933701515198,0.06204143166542053,-0.33690550923347473,0.15311022102832794,0.12806333601474762,0.4631543457508087,-0.23961633443832397,-0.05399150401353836,0.21220465004444122,-0.40925076603889465,-0.009371611289680004,-0.3664785623550415,-0.9167904257774353,-0.05558375269174576,-0.17038387060165405,-0.12335492670536041,0.5063207149505615,-0.6020203828811646,-0.30796390771865845,0.6146283149719238,-0.7719815969467163,-0.5743910670280457,-0.41919058561325073,0.6659460663795471,-0.2607240080833435,0.36588001251220703,0.3518407344818115,0.605748176574707,-0.7416083216667175,-0.34750863909721375,0.01779411919414997,-0.4815405607223511,-0.4571378529071808,0.3965415358543396,0.7738671898841858,-0.2210722118616104,0.2469233125448227,0.6806195378303528,-0.7602486610412598,0.5790601372718811
3,0.2063487321138382,-0.7878526449203491,-0.684319794178009,-0.436799019575119,0.06356211751699448,0.4439292848110199,0.3197014629840851,0.2584135830402374,-0.8913131356239319,-0.6463820338249207,0.6962518095970154,0.8449991941452026,0.19355560839176178,0.423077255487442,0.8872008323669434,0.7136348485946655,0.29877370595932007,-0.03265969455242157,0.9481474161148071,0.2674882113933563,0.3091921806335449,-0.25129422545433044,0.6055319905281067,-0.3094784617424011,0.2314191609621048,0.9488124251365662,0.26010358333587646,-0.634406328201294,-0.002159931231290102,-0.283829927444458,0.7233803868293762,-0.07120981812477112,-0.6427225470542908,0.058506716042757034,0.16441872715950012,-0.30794230103492737,0.4284575283527374,-0.2368512898683548,-0.7092461585998535,0.009034705348312855,0.08632712066173553,0.9204651117324829,0.3659979999065399,-0.46042653918266296,0.8443037271499634,-0.3488513231277466,0.16448794305324554,-0.6042581796646118,0.7531650066375732,0.04214451462030411,-0.9063928127288818,-0.5490859150886536,-0.7903765439987183,-0.9042889475822449,0.9200153946876526,0.6002206206321716,-0.06175035983324051,-0.19374047219753265,-0.7397394776344299,0.8409374952316284,0.7104658484458923,-0.3485938608646393,0.09912502765655518,-0.08092516660690308,-0.9652763605117798,0.04599763825535774,-0.38175857067108154,0.18930692970752716,0.1051333025097847,0.45555198192596436,-0.2107977271080017,-0.02641027607023716,0.18200737237930298,-0.4223012626171112,-0.002945993561297655,-0.400395929813385,-0.9377122521400452,-0.09088696539402008,-0.20844832062721252,-0.12368215620517731,0.5253776907920837,-0.5618902444839478,-0.2694149315357208,0.651854932308197,-0.7747820615768433,-0.5279887318611145,-0.43280667066574097,0.6208648681640625,-0.265974760055542,0.32024744153022766,0.31942182779312134,0.6172056794166565,-0.7318316102027893,-0.3883121609687805,0.04100804030895233,-0.5074265599250793,-0.4202725291252136,0.41171500086784363,0.7369147539138794,-0.2661665380001068,0.21899154782295227,0.6461060047149658,-0.7267358303070068,0.6284721493721008
4,0.19128216803073883,-0.7755049467086792,-0.6937279105186462,-0.4063752591609955,0.037008412182331085,0.40368014574050903,0.35383495688438416,0.19842782616615295,-0.8995017409324646,-0.5941938161849976,0.7451342940330505,0.8603083491325378,0.19792886078357697,0.40617331862449646,0.9200676679611206,0.6901952624320984,0.32084935903549194,-0.05737743154168129,0.9293346405029297,0.2445867955684662,0.33845221996307373,-0.22599275410175323,0.5760120749473572,-0.2615833282470703,0.19699318706989288,0.9193602800369263,0.2419441193342209,-0.6539178490638733,-0.01075567677617073,-0.2638142704963684,0.7607941627502441,-0.09514967352151871,-0.682856559753418,0.10070076584815979,0.19574250280857086,-0.2981563210487366,0.4563220739364624,-0.26499277353286743,-0.72840416431427,-0.030553877353668213,0.10642509162425995,0.897305965423584,0.3974461555480957,-0.48876574635505676,0.8578685522079468,-0.36302679777145386,0.16551917791366577,-0.643936276435852,0.7259871959686279,0.08949439227581024,-0.9218739867210388,-0.5804955363273621,-0.8304011225700378,-0.8791272640228271,0.9077739119529724,0.6071223616600037,-0.03438293933868408,-0.15847358107566833,-0.7580329179763794,0.8115696907043457,0.7022243738174438,-0.308958500623703,0.14194200932979584,-0.10297095775604248,-0.9488577246665955,0.03823694586753845,-0.4288704991340637,0.22465409338474274,0.09134391695261002,0.4422108829021454,-0.19042305648326874,-0.015312479808926582,0.15730972588062286,-0.43038520216941833,-0.008932644501328468,-0.42986243963241577,-0.9359171986579895,-0.11689648032188416,-0.24648042023181915,-0.11503752321004868,0.5483254790306091,-0.5257114768028259,-0.23621141910552979,0.6796754002571106,-0.7710022926330566,-0.48014742136001587,-0.44443920254707336,0.6732379198074341,-0.27370619773864746,0.2753121852874756,0.29371553659439087,0.6478553414344788,-0.7352582812309265,-0.4146517515182495,0.055154405534267426,-0.5260271430015564,-0.3875180184841156,0.39195242524147034,0.7075832486152649,-0.3092004060745239,0.20054656267166138,0.6139569878578186,-0.6958794593811035,0.6619745492935181
5,0.18413183093070984,-0.7815920114517212,-0.6938115954399109,-0.37956732511520386,0.015375494956970215,0.36583974957466125,0.3831974267959595,0.20382417738437653,-0.9248955845832825,-0.5925474762916565,0.7915773391723633,0.9035772681236267,0.20064771175384521,0.45996132493019104,0.9513958692550659,0.6950238347053528,0.3493427038192749,-0.08628327399492264,0.9160435199737549,0.22146502137184143,0.36580848693847656,-0.2180546075105667,0.5484206080436707,-0.24890825152397156,0.1748955398797989,0.8887555599212646,0.2377811223268509,-0.6587181687355042,-0.031216170638799667,-0.22416609525680542,0.7970852255821228,-0.11763535439968109,-0.7067778706550598,0.12690772116184235,0.225215345621109,-0.28455784916877747,0.47472265362739563,-0.2814694344997406,-0.7443345785140991,-0.06791801750659943,0.11943363398313522,0.8654954433441162,0.41184473037719727,-0.5194091796875,0.8755837678909302,-0.37162351608276367,0.1596912443637848,-0.6793223023414612,0.7081448435783386,0.13598662614822388,-0.9293253421783447,-0.6086915731430054,-0.8659457564353943,-0.838636040687561,0.877445638179779,0.5955265164375305,-0.016011355444788933,-0.1239405944943428,-0.7658138275146484,0.7873460054397583,0.6896274089813232,-0.2709171175956726,0.1870628446340561,-0.1261923611164093,-0.9441133141517639,0.04087863489985466,-0.4814121723175049,0.2720981240272522,0.10071946680545807,0.4249792993068695,-0.17318524420261383,-0.007359272334724665,0.135035440325737,-0.4425381124019623,-0.018926648423075676,-0.4541524350643158,-0.9253736734390259,-0.13891568779945374,-0.28197115659713745,-0.10443899035453796,0.5592164397239685,-0.49231985211372375,-0.2067166566848755,0.710242748260498,-0.7792403101921082,-0.4382404386997223,-0.4907718598842621,0.6511503458023071,-0.2705923914909363,0.2354801446199417,0.28094416856765747,0.6810796856880188,-0.7457020878791809,-0.44003599882125854,0.06649107486009598,-0.542009174823761,-0.35199859738349915,0.36241069436073303,0.6820906400680542,-0.3212328851222992,0.19111135601997375,0.5929639339447021,-0.6669126749038696,0.688637912273407
6,0.18910352885723114,-0.7855151295661926,-0.6877653002738953,-0.3584922254085541,-0.0010108663700520992,0.3484347462654114,0.41042178869247437,0.15022116899490356,-0.9493885636329651,-0.5468837022781372,0.8413538932800293,0.923974335193634,0.1887066513299942,0.4713486433029175,0.9755119681358337,0.6976006627082825,0.3742541968822479,-0.11902809888124466,0.8944156169891357,0.2035558968782425,0.3941657245159149,-0.2125597447156906,0.5157163143157959,-0.19194504618644714,0.1697077602148056,0.8743743300437927,0.23813101649284363,-0.6660556793212891,-0.04937746003270149,-0.18707948923110962,0.8178859353065491,-0.12990768253803253,-0.733441174030304,0.16347819566726685,0.24778485298156738,-0.25841808319091797,0.4901396632194519,-0.28381335735321045,-0.7484581470489502,-0.10450729727745056,0.13543817400932312,0.8336270451545715,0.41365155577659607,-0.5468502640724182,0.8934726119041443,-0.3813377618789673,0.14861701428890228,-0.7018327713012695,0.6926436424255371,0.18024592101573944,-0.9355559349060059,-0.632573664188385,-0.8959949016571045,-0.7929242849349976,0.8448005318641663,0.5632234811782837,-0.011664744466543198,-0.09181033074855804,-0.7781699895858765,0.7658820748329163,0.6599000692367554,-0.23184749484062195,0.22724708914756775,-0.14918409287929535,-0.9263458251953125,0.053757380694150925,-0.5330000519752502,0.3163982033729553,0.1259646713733673,0.4144718050956726,-0.16292625665664673,-0.016546135768294334,0.1179407387971878,-0.4528353214263916,-0.016645392403006554,-0.46870896220207214,-0.9104568362236023,-0.15790222585201263,-0.3189266324043274,-0.10590861737728119,0.5820371508598328,-0.46356093883514404,-0.1825798898935318,0.7245006561279297,-0.756766140460968,-0.39584219455718994,-0.5196890830993652,0.7099835276603699,-0.2608438730239868,0.1947993040084839,0.257425993680954,0.7093846797943115,-0.7485728859901428,-0.4153475761413574,0.07402399927377701,-0.5621237754821777,-0.32000571489334106,0.32701948285102844,0.6659777164459229,-0.3168151378631592,0.1933361291885376,0.5804097056388855,-0.6403185129165649,0.7090722322463989
7,0.19991916418075562,-0.7919607162475586,-0.675390899181366,-0.35242822766304016,-0.012402022257447243,0.3350415527820587,0.4344680607318878,0.1831643432378769,-0.9864002466201782,-0.5628220438957214,0.8865116238594055,0.9603462815284729,0.18499687314033508,0.5317738056182861,0.9973965287208557,0.741325318813324,0.4102003276348114,-0.15226897597312927,0.8738194704055786,0.1826927661895752,0.42642906308174133,-0.22371487319469452,0.4871002733707428,-0.1894286423921585,0.17217591404914856,0.8556128144264221,0.24890659749507904,-0.6662458181381226,-0.08762364834547043,-0.14537695050239563,0.8250021934509277,-0.13954952359199524,-0.7441831231117249,0.17267191410064697,0.26836341619491577,-0.24400413036346436,0.5005142688751221,-0.2715611159801483,-0.7527064681053162,-0.13641482591629028,0.15441276133060455,0.7896916270256042,0.39649540185928345,-0.5744082927703857,0.9136720299720764,-0.3932616412639618,0.1242099180817604,-0.7101410031318665,0.6862050890922546,0.2160448580980301,-0.938102126121521,-0.6514415740966797,-0.9206082820892334,-0.7457361221313477,0.8164775371551514,0.5294867753982544,-0.007933895103633404,-0.06300371140241623,-0.7859636545181274,0.7497637867927551,0.6328344941139221,-0.19305557012557983,0.27158698439598083,-0.17695017158985138,-0.9117125272750854,0.08178821206092834,-0.5875142812728882,0.3620583117008209,0.1600174456834793,0.40175262093544006,-0.15357616543769836,-0.016278259456157684,0.10355634987354279,-0.46993014216423035,-0.006241706199944019,-0.47233903408050537,-0.8802574276924133,-0.17878639698028564,-0.3561030626296997,-0.11050426959991455,0.6121834516525269,-0.43790701031684875,-0.16632623970508575,0.744299590587616,-0.7276594042778015,-0.3611568212509155,-0.5668578743934631,0.7277379631996155,-0.2434263974428177,0.15635913610458374,0.2481158822774887,0.7292757034301758,-0.7431879043579102,-0.40824413299560547,0.07864581793546677,-0.5886300206184387,-0.2857464849948883,0.29229480028152466,0.6517618894577026,-0.28866079449653625,0.20477810502052307,0.5790255069732666,-0.615892231464386,0.7136169672012329
8,0.21322892606258392,-0.7954313158988953,-0.6619466543197632,-0.3615857660770416,-0.019170215353369713,0.34445542097091675,0.4582725465297699,0.1475738286972046,-1.0103150606155396,-0.5342566967010498,0.9341449737548828,0.9673147797584534,0.16884933412075043,0.5594332814216614,1.0155304670333862,0.7600056529045105,0.44427725672721863,-0.1849967986345291,0.8392361998558044,0.15997199714183807,0.45650714635849,-0.23378434777259827,0.4501361846923828,-0.14562201499938965,0.18712057173252106,0.844380795955658,0.25524935126304626,-0.682486891746521,-0.11502254009246826,-0.11212078481912613,0.8165760040283203,-0.1412508487701416,-0.7664988040924072,0.18972568213939667,0.28247731924057007,-0.22701247036457062,0.5112040042877197,-0.24804745614528656,-0.7501564025878906,-0.16891348361968994,0.17602652311325073,0.751253068447113,0.38166531920433044,-0.5967676043510437,0.9326220154762268,-0.4060949981212616,0.09505387395620346,-0.6991901993751526,0.6833956837654114,0.24061113595962524,-0.9371839165687561,-0.6636094450950623,-0.9416623711585999,-0.6973247528076172,0.7954366207122803,0.48813310265541077,-0.017428362742066383,-0.03473846614360809,-0.798622190952301,0.7365158796310425,0.5945560336112976,-0.152973011136055,0.3038634657859802,-0.20896896719932556,-0.8786031007766724,0.11367065459489822,-0.63401859998703,0.3944397270679474,0.19353483617305756,0.3922322392463684,-0.14985138177871704,-0.02844958007335663,0.09409482777118683,-0.4826526939868927,0.016552696004509926,-0.462619423866272,-0.8502743244171143,-0.20259445905685425,-0.3947911262512207,-0.12767425179481506,0.6446263790130615,-0.4169275462627411,-0.15660223364830017,0.7419732213020325,-0.6716214418411255,-0.3239354193210602,-0.5933337807655334,0.7845131158828735,-0.24475474655628204,0.11680230498313904,0.2238045334815979,0.7414165735244751,-0.7213694453239441,-0.37442222237586975,0.08088087290525436,-0.6251209378242493,-0.25707530975341797,0.26488515734672546,0.6496462225914001,-0.2783915400505066,0.22117027640342712,0.5771278142929077,-0.595946729183197,0.7211275100708008
9,0.22722889482975006,-0.7851102948188782,-0.6483807563781738,-0.3864476978778839,-0.022013865411281586,0.34586095809936523,0.48004576563835144,0.18118278682231903,-1.0398318767547607,-0.569595992565155,0.9723710417747498,1.0047447681427002,0.17043359577655792,0.605199933052063,1.0284883975982666,0.8188170194625854,0.48519235849380493,-0.21258100867271423,0.8235357403755188,0.13509462773799896,0.4942860007286072,-0.23895560204982758,0.42174720764160156,-0.1768212765455246,0.19188916683197021,0.8221981525421143,0.2649982273578644,-0.6935005784034729,-0.1654125154018402,-0.0830330029129982,0.801713764667511,-0.140532985329628,-0.7835357189178467,0.17796531319618225,0.2950285077095032,-0.22034287452697754,0.516556441783905,-0.2211342602968216,-0.7549288272857666,-0.20050102472305298,0.19936858117580414,0.7049307823181152,0.3595532774925232,-0.6154974699020386,0.9464980363845825,-0.4194965660572052,0.06020684167742729,-0.6721240878105164,0.6908486485481262,0.2482125461101532,-0.9247035980224609,-0.6705076694488525,-0.9596101641654968,-0.6525906920433044,0.7847433686256409,0.4599228501319885,-0.009102033451199532,-0.011027629487216473,-0.8063465356826782,0.727808952331543,0.5723243355751038,-0.11327016353607178,0.3353068232536316,-0.24595987796783447,-0.8559444546699524,0.14685849845409393,-0.6816425323486328,0.4194280207157135,0.22563937306404114,0.37589582800865173,-0.14404943585395813,-0.027341553941369057,0.08481445163488388,-0.4975009262561798,0.03823627158999443,-0.44042909145355225,-0.809005081653595,-0.23025548458099365,-0.43253523111343384,-0.13865242898464203,0.6757039427757263,-0.39791423082351685,-0.15355372428894043,0.7637471556663513,-0.6269415616989136,-0.2929142415523529,-0.6391395330429077,0.7945292592048645,-0.2541194260120392,0.08017489314079285,0.23043709993362427,0.7487544417381287,-0.6969508528709412,-0.3770998418331146,0.07973630726337433,-0.660773515701294,-0.22579805552959442,0.2417290359735489,0.6445018649101257,-0.25893330574035645,0.23902761936187744,0.5758363008499146,-0.5808345079421997,0.6956585049629211
10,0.24482892453670502,-0.7810445427894592,-0.6380428671836853,-0.41649383306503296,-0.01725870370864868,0.3641042709350586,0.5005635023117065,0.13524170219898224,-1.0583075284957886,-0.5353911519050598,1.009982943534851,1.0102424621582031,0.1475045531988144,0.622752845287323,1.0457823276519775,0.8376880288124084,0.5208888053894043,-0.22412557899951935,0.794411838054657,0.1101621761918068,0.5200614929199219,-0.24106533825397491,0.38286611437797546,-0.1421726793050766,0.21267981827259064,0.806086540222168,0.26467165350914,-0.7173863649368286,-0.1841857135295868,-0.07039230316877365,0.7867512106895447,-0.13369973003864288,-0.8094800710678101,0.19033895432949066,0.30154532194137573,-0.21663379669189453,0.5290082693099976,-0.19478102028369904,-0.7584161758422852,-0.23265177011489868,0.22209259867668152,0.6676622033119202,0.35215991735458374,-0.628028929233551,0.9522238969802856,-0.4302850365638733,0.023195788264274597,-0.6360496878623962,0.7039871215820312,0.24210822582244873,-0.9091586470603943,-0.6715478301048279,-0.9811995625495911,-0.6061809062957764,0.7661263346672058,0.4347884953022003,-0.027502592653036118,0.014991478994488716,-0.8163952827453613,0.7221090197563171,0.5377838015556335,-0.07467041909694672,0.3332567811012268,-0.28480756282806396,-0.8206458687782288,0.17291760444641113,-0.7159679532051086,0.42869895696640015,0.2527957856655121,0.3625037968158722,-0.14300581812858582,-0.042851753532886505,0.07823172211647034,-0.5014825463294983,0.06344271451234818,-0.41368210315704346,-0.779910683631897,-0.2599829137325287,-0.4704589545726776,-0.15367479622364044,0.7060400247573853,-0.38058602809906006,-0.15580350160598755,0.7566363215446472,-0.5708452463150024,-0.2543945014476776,-0.6523609757423401,0.841202437877655,-0.28032660484313965,0.04555482789874077,0.21282806992530823,0.7465247511863708,-0.6647999286651611,-0.36439424753189087,0.07975275814533234,-0.6991885900497437,-0.20429128408432007,0.24237357079982758,0.6508957147598267,-0.268266499042511,0.25427401065826416,0.565854012966156,-0.5732112526893616,0.7263229489326477
11,0.2626038193702698,-0.7561730146408081,-0.627467155456543,-0.4516723155975342,-0.01378687471151352,0.3575088083744049,0.51561039686203,0.16652996838092804,-1.0724363327026367,-0.5709385275840759,1.029081106185913,1.0621663331985474,0.17356346547603607,0.6475589871406555,1.0593295097351074,0.9029678106307983,0.5593410134315491,-0.22714191675186157,0.8115949630737305,0.09312751889228821,0.5555053949356079,-0.21943974494934082,0.36419013142585754,-0.19410234689712524,0.1957494169473648,0.785369873046875,0.27462056279182434,-0.7252998948097229,-0.24114678800106049,-0.06269560009241104,0.7643813490867615,-0.12570539116859436,-0.8353444933891296,0.1740715354681015,0.30976974964141846,-0.20894648134708405,0.5324355363845825,-0.17409639060497284,-0.769566535949707,-0.2650122344493866,0.244090735912323,0.6253176331520081,0.3306204378604889,-0.6354630589485168,0.9561325907707214,-0.4443599581718445,-0.008941312320530415,-0.5962039828300476,0.7264136672019958,0.22235193848609924,-0.8824350833892822,-0.6721221804618835,-1.0022422075271606,-0.5714340209960938,0.7597344517707825,0.4358668625354767,0.0007311399094760418,0.03261200338602066,-0.8234658241271973,0.7205520272254944,0.5280736088752747,-0.03887976333498955,0.34585991501808167,-0.3222266435623169,-0.8054502606391907,0.19072364270687103,-0.7515043616294861,0.431964635848999,0.2795318067073822,0.3417869806289673,-0.13371290266513824,-0.03822622448205948,0.06778541207313538,-0.5159781575202942,0.08638040721416473,-0.38284286856651306,-0.7423579096794128,-0.28749164938926697,-0.5027256011962891,-0.15251745283603668,0.7341634035110474,-0.3638409972190857,-0.15709571540355682,0.7965622544288635,-0.5425010323524475,-0.24043262004852295,-0.6936216950416565,0.8168879151344299,-0.3013683557510376,0.016448477283120155,0.23697340488433838,0.7423645853996277,-0.6460614800453186,-0.38346967101097107,0.07773028314113617,-0.7194861769676208,-0.17524197697639465,0.22317229211330414,0.6480971574783325,-0.2435806840658188,0.26091936230659485,0.5609464049339294,-0.5694534182548523,0.6718916296958923
12,0.29681041836738586,-0.7628446817398071,-0.6194076538085938,-0.48112747073173523,0.0023682783357799053,0.38202112913131714,0.5274549126625061,0.117563396692276,-1.0973637104034424,-0.5136874318122864,1.0487346649169922,1.0510473251342773,0.12589362263679504,0.6545213460922241,1.0886611938476562,0.8927565813064575,0.5911824107170105,-0.20932117104530334,0.770862877368927,0.07591544091701508,0.5623465776443481,-0.2251289337873459,0.3246670961380005,-0.13876384496688843,0.2206680178642273,0.7778962850570679,0.2689621150493622,-0.7461264729499817,-0.23798198997974396,-0.07025545090436935,0.7619413137435913,-0.11602633446455002,-0.8566016554832458,0.19909442961215973,0.31692633032798767,-0.21532997488975525,0.554117739200592,-0.1564614474773407,-0.7709773778915405,-0.29116249084472656,0.26527878642082214,0.5914419889450073,0.3326564133167267,-0.6427075862884521,0.9424890875816345,-0.4569205641746521,-0.04348699003458023,-0.5546560287475586,0.7475377917289734,0.20361804962158203,-0.8668434023857117,-0.6686704158782959,-1.0292690992355347,-0.540202260017395,0.7287763953208923,0.4270442724227905,-0.03339063376188278,0.05346227437257767,-0.8298761248588562,0.7202165126800537,0.4993712902069092,-0.009386448189616203,0.3135537803173065,-0.3561149537563324,-0.7752730250358582,0.20419546961784363,-0.7658148407936096,0.43092650175094604,0.2995782196521759,0.32856979966163635,-0.13423563539981842,-0.05561640486121178,0.06198134273290634,-0.5077952742576599,0.12057244777679443,-0.3585854768753052,-0.7440469264984131,-0.3171015679836273,-0.5355514287948608,-0.1555546522140503,0.7591779232025146,-0.3457547426223755,-0.15955355763435364,0.7657040953636169,-0.4999374747276306,-0.21075187623500824,-0.6739386916160583,0.8693737387657166,-0.3232382535934448,-0.010254841297864914,0.2094786912202835,0.7260110974311829,-0.6169864535331726,-0.3952234089374542,0.08478713780641556,-0.7404365539550781,-0.16185791790485382,0.24814464151859283,0.6592326760292053,-0.28179699182510376,0.2638548016548157,0.5445129871368408,-0.5718292593955994,0.7320419549942017
13,0.3066958487033844,-0.735240638256073,-0.6087790131568909,-0.5146109461784363,0.007750750984996557,0.3615720272064209,0.5307881832122803,0.16800378262996674,-1.0606212615966797,-0.5570759177207947,1.042784333229065,1.1147464513778687,0.17647713422775269,0.6675623655319214,1.104101538658142,0.9615521430969238,0.6178625226020813,-0.20025870203971863,0.8180524110794067,0.07693954557180405,0.5945188999176025,-0.185344859957695,0.3234841525554657,-0.19411902129650116,0.1830112189054489,0.7665188312530518,0.28863176703453064,-0.7409093379974365,-0.2941850423812866,-0.06740649789571762,0.7294365763664246,-0.10750913619995117,-0.894422709941864,0.17539332807064056,0.32717105746269226,-0.19008256494998932,0.5505430102348328,-0.1453588753938675,-0.7816574573516846,-0.32102450728416443,0.28459349274635315,0.5694951415061951,0.2958027124404907,-0.6463392376899719,0.9415576457977295,-0.4736698865890503,-0.060718368738889694,-0.520711362361908,0.7747602462768555,0.18017074465751648,-0.8363887667655945,-0.6708666682243347,-1.0510467290878296,-0.5220442414283752,0.7384027242660522,0.4510825276374817,0.018090147525072098,0.06057141721248627,-0.8335533142089844,0.7237154245376587,0.5103715062141418,0.018433621153235435,0.328727126121521,-0.38349947333335876,-0.7669644355773926,0.20890195667743683,-0.7877711057662964,0.4211682379245758,0.3239207863807678,0.3026941120624542,-0.1185026541352272,-0.03603915497660637,0.049881525337696075,-0.5289456248283386,0.13304360210895538,-0.33337900042533875,-0.688681423664093,-0.33659371733665466,-0.5519280433654785,-0.13368138670921326,0.7976524233818054,-0.32983189821243286,-0.1534566730260849,0.8337307572364807,-0.5047826170921326,-0.22816109657287598,-0.7155399322509766,0.8144670724868774,-0.32841160893440247,-0.034160539507865906,0.2360866367816925,0.7135019302368164,-0.6134427785873413,-0.40125980973243713,0.08493901044130325,-0.73105388879776,-0.13530346751213074,0.2105344533920288,0.6484931707382202,-0.2290463000535965,0.2557891011238098,0.5525535941123962,-0.5752421617507935,0.6749757528305054
14,0.36610037088394165,-0.752505362033844,-0.6000717878341675,-0.5362133979797363,0.029872817918658257,0.401218444108963,0.533423662185669,0.12045320123434067,-1.1342400312423706,-0.49134302139282227,1.0477792024612427,1.0770955085754395,0.10954546928405762,0.6506213545799255,1.1403530836105347,0.9311388731002808,0.650272786617279,-0.17260612547397614,0.7644762992858887,0.06495308876037598,0.5805606245994568,-0.20810022950172424,0.27841654419898987,-0.1277121901512146,0.2222076952457428,0.7662125825881958,0.2718702554702759,-0.7640907764434814,-0.27267715334892273,-0.08289264142513275,0.7393930554389954,-0.10280004888772964,-0.8941787481307983,0.20855377614498138,0.3406154215335846,-0.20975761115550995,0.581584095954895,-0.1363397091627121,-0.7754114866256714,-0.33972910046577454,0.2977830171585083,0.540831446647644,0.2971269190311432,-0.658781886100769,0.9149284958839417,-0.49035850167274475,-0.088957279920578,-0.4832667112350464,0.7907582521438599,0.16622357070446014,-0.835719645023346,-0.6639333367347717,-1.0790269374847412,-0.5174022912979126,0.7047818303108215,0.431155264377594,-0.030265741050243378,0.07218601554632187,-0.8422598242759705,0.7210822105407715,0.4878009259700775,0.03355995565652847,0.2917197644710541,-0.40465107560157776,-0.7457309365272522,0.22423355281352997,-0.7839341759681702,0.42258062958717346,0.3292199373245239,0.2981318533420563,-0.12594006955623627,-0.06549946963787079,0.049561575055122375,-0.5089306235313416,0.1741553544998169,-0.3179132342338562,-0.7470466494560242,-0.3592406213283539,-0.575770378112793,-0.1367858201265335,0.7933417558670044,-0.3128839135169983,-0.15258820354938507,0.779619574546814,-0.4723479449748993,-0.21516750752925873,-0.6601958274841309,0.8697786927223206,-0.33756521344184875,-0.05365459620952606,0.20260508358478546,0.7026975154876709,-0.5831084251403809,-0.4317340552806854,0.09897386282682419,-0.7431926131248474,-0.12598687410354614,0.26202020049095154,0.6688587069511414,-0.296749472618103,0.2494226098060608,0.5285741090774536,-0.5765892863273621,0.7276816964149475
15,0.3471308648586273,-0.7546961903572083,-0.5881495475769043,-0.5707958936691284,0.034198131412267685,0.36427590250968933,0.527676522731781,0.18054257333278656,-1.0603724718093872,-0.5340261459350586,1.025028944015503,1.1398611068725586,0.16061274707317352,0.6710667014122009,1.1514623165130615,0.990574836730957,0.6623099446296692,-0.1645260453224182,0.8104007840156555,0.07926850020885468,0.6113675236701965,-0.1635637879371643,0.2880568504333496,-0.17013207077980042,0.1852359175682068,0.761645495891571,0.3025115430355072,-0.7465879321098328,-0.3120737373828888,-0.0808931514620781,0.6994572877883911,-0.09834735840559006,-0.9489405751228333,0.17386895418167114,0.35035717487335205,-0.16873279213905334,0.5706188082695007,-0.1286849081516266,-0.7844298481941223,-0.3664546310901642,0.3153218626976013,0.5356840491294861,0.2507426142692566,-0.6617550253868103,0.9060337543487549,-0.4998698830604553,-0.09141802787780762,-0.46370556950569153,0.8180973529815674,0.144043430685997,-0.8056132793426514,-0.6717947721481323,-1.0965486764907837,-0.511400043964386,0.720242440700531,0.4726506173610687,0.026899483054876328,0.07142004370689392,-0.834639310836792,0.7294797897338867,0.5168229937553406,0.05311460793018341,0.3031192421913147,-0.4192465543746948,-0.7378957867622375,0.21616345643997192,-0.7917812466621399,0.3982584476470947,0.35233187675476074,0.2772798538208008,-0.11069305986166,-0.024430658668279648,0.03844623267650604,-0.53270423412323,0.15817305445671082,-0.30328887701034546,-0.6778680086135864,-0.3702563941478729,-0.5756723284721375,-0.09416145831346512,0.8531544804573059,-0.30306363105773926,-0.1406661421060562,0.8538313508033752,-0.5021994113922119,-0.23869793117046356,-0.7057379484176636,0.809307873249054,-0.32309797406196594,-0.07764725387096405,0.23262163996696472,0.6927942037582397,-0.5902068614959717,-0.4152211844921112,0.09942582249641418,-0.7163298726081848,-0.10858023911714554,0.21064969897270203,0.6499665975570679,-0.23850303888320923,0.23941026628017426,0.5562257766723633,-0.5854355692863464,0.6933584213256836
16,0.4112989008426666,-0.7559252977371216,-0.5802356004714966,-0.5834692120552063,0.056432612240314484,0.4124871790409088,0.5249453186988831,0.14039038121700287,-1.1273969411849976,-0.4763439893722534,1.0254768133163452,1.1041003465652466,0.09969700872898102,0.6211692094802856,1.1869772672653198,0.9634799361228943,0.6916996836662292,-0.1366564780473709,0.7765920162200928,0.0710383802652359,0.5990715026855469,-0.18058262765407562,0.24483619630336761,-0.1085071936249733,0.22869431972503662,0.7668395042419434,0.27734243869781494,-0.7705315947532654,-0.2848409116268158,-0.0988302230834961,0.7173504829406738,-0.09968128800392151,-0.9343369007110596,0.20740078389644623,0.36938926577568054,-0.18670295178890228,0.6051336526870728,-0.12195464968681335,-0.7766594886779785,-0.38172078132629395,0.31233346462249756,0.5167664289474487,0.24193637073040009,-0.6814740896224976,0.8744316101074219,-0.5181471705436707,-0.1082257404923439,-0.43218493461608887,0.8259189128875732,0.13414712250232697,-0.8188065886497498,-0.6634281277656555,-1.1233550310134888,-0.5231983065605164,0.7031437158584595,0.4449622333049774,-0.01995014399290085,0.07415997982025146,-0.8525286316871643,0.7226899862289429,0.48892906308174133,0.05794401094317436,0.277001291513443,-0.43006205558776855,-0.7268978357315063,0.2396356165409088,-0.7765643000602722,0.40610551834106445,0.34387895464897156,0.27592068910598755,-0.12071172893047333,-0.061940811574459076,0.04377118870615959,-0.5139873027801514,0.19551770389080048,-0.2911413013935089,-0.7298154234886169,-0.38301393389701843,-0.5884862542152405,-0.10802384465932846,0.8174517750740051,-0.29024234414100647,-0.13808487355709076,0.8117479681968689,-0.47263044118881226,-0.24581006169319153,-0.6484513878822327,0.8465131521224976,-0.3259255886077881,-0.09166108816862106,0.19814886152744293,0.6934003829956055,-0.5610975027084351,-0.4544309973716736,0.11682923138141632,-0.7327762842178345,-0.09324014186859131,0.26478439569473267,0.6788272261619568,-0.2945720851421356,0.22804976999759674,0.5273873805999756,-0.5829594135284424,0.7227301597595215
17,0.3918226361274719,-0.7935171127319336,-0.5672474503517151,-0.6250114440917969,0.06286291033029556,0.3683401346206665,0.5146063566207886,0.18794654309749603,-1.0737017393112183,-0.5133395791053772,0.9974140524864197,1.157823920249939,0.13965395092964172,0.6577121019363403,1.1926745176315308,1.0049760341644287,0.7022536396980286,-0.12958082556724548,0.7972006797790527,0.08656120300292969,0.6174970865249634,-0.15042950212955475,0.2543148398399353,-0.13157160580158234,0.2039170116186142,0.769929051399231,0.3032415509223938,-0.7519986033439636,-0.314382404088974,-0.10331301391124725,0.6790475845336914,-0.09680064022541046,-0.9738690257072449,0.16595256328582764,0.37821459770202637,-0.1546005755662918,0.5898293852806091,-0.1145024299621582,-0.7889013290405273,-0.40177735686302185,0.3239573836326599,0.508190929889679,0.20007993280887604,-0.6834207773208618,0.855367124080658,-0.5178750157356262,-0.10881084203720093,-0.4228607416152954,0.8539949059486389,0.11486504971981049,-0.7971811890602112,-0.6729822158813477,-1.1377925872802734,-0.5256380438804626,0.70756995677948,0.48607051372528076,0.02873840555548668,0.0691690593957901,-0.8379129767417908,0.731151282787323,0.541867196559906,0.07096440345048904,0.2745986580848694,-0.4334432780742645,-0.7171842455863953,0.22481617331504822,-0.7742101550102234,0.3778309226036072,0.36724090576171875,0.2648760676383972,-0.11137210577726364,-0.016533957794308662,0.03857693821191788,-0.5344964265823364,0.1664220541715622,-0.28436532616615295,-0.6910274624824524,-0.38986366987228394,-0.5823341608047485,-0.061598263680934906,0.88433837890625,-0.2896348536014557,-0.12742894887924194,0.8718143701553345,-0.5098984837532043,-0.25871458649635315,-0.682384192943573,0.7984369993209839,-0.3024718761444092,-0.10853472352027893,0.23652714490890503,0.6924918293952942,-0.5703705549240112,-0.4290373623371124,0.11564025282859802,-0.7036297917366028,-0.08254610747098923,0.2205648273229599,0.6569213271141052,-0.25611644983291626,0.22016321122646332,0.5618427991867065,-0.594733715057373,0.7027067542076111
18,0.4442858397960663,-0.7711803317070007,-0.5577728748321533,-0.6280970573425293,0.08434593677520752,0.4150093197822571,0.5094925165176392,0.15727388858795166,-1.1242023706436157,-0.4618535339832306,0.9955021739006042,1.1225049495697021,0.08934219926595688,0.5878070592880249,1.2257825136184692,0.9830591678619385,0.7180948257446289,-0.10332944989204407,0.7946966886520386,0.0849638506770134,0.6206876635551453,-0.14731083810329437,0.21954859793186188,-0.07952233403921127,0.24313046038150787,0.7786379456520081,0.2783537805080414,-0.7657963633537292,-0.2763737142086029,-0.11584290862083435,0.7011079788208008,-0.10594383627176285,-0.9790350198745728,0.1944463849067688,0.3961755335330963,-0.147665873169899,0.6250634789466858,-0.1036224216222763,-0.7815439701080322,-0.419054239988327,0.3125755786895752,0.4998027980327606,0.186445415019989,-0.706987202167511,0.8241101503372192,-0.5320507287979126,-0.11125362664461136,-0.39776450395584106,0.8572570085525513,0.10700086504220963,-0.812912106513977,-0.6679044365882874,-1.1623343229293823,-0.5429275631904602,0.7060169577598572,0.4626973867416382,-0.012901432812213898,0.06716360151767731,-0.8601508140563965,0.7245242595672607,0.49820536375045776,0.07126447558403015,0.2591278851032257,-0.4371878504753113,-0.7101967334747314,0.24789190292358398,-0.7520174980163574,0.38590455055236816,0.3541738986968994,0.26592838764190674,-0.1175326481461525,-0.04398539662361145,0.04652765020728111,-0.5160084962844849,0.19125574827194214,-0.27375754714012146,-0.7183015942573547,-0.39236462116241455,-0.5869715809822083,-0.07935778051614761,0.8477312922477722,-0.28273308277130127,-0.12106501311063766,0.847416341304779,-0.48342859745025635,-0.2802356481552124,-0.6396648287773132,0.8179017305374146,-0.30323347449302673,-0.12352154403924942,0.20011819899082184,0.6962361931800842,-0.5415099859237671,-0.46980783343315125,0.13645601272583008,-0.7195953130722046,-0.061252810060977936,0.2635624408721924,0.6890990138053894,-0.29134419560432434,0.20688989758491516,0.537845253944397,-0.5923846364021301,0.7129960060119629
19,0.42642849683761597,-0.8307650089263916,-0.546244204044342,-0.6753484010696411,0.0953056588768959,0.36914581060409546,0.4984973073005676,0.18816496431827545,-1.083889126777649,-0.5000952482223511,0.9672816395759583,1.178330421447754,0.12360957264900208,0.624341607093811,1.2262424230575562,1.0119469165802002,0.7328619956970215,-0.0966058298945427,0.7816845178604126,0.09565091878175735,0.6242672801017761,-0.13321246206760406,0.2282647043466568,-0.09017662703990936,0.2290821373462677,0.7898956537246704,0.29410484433174133,-0.7527269721031189,-0.3032034635543823,-0.12684118747711182,0.6710074543952942,-0.10012693703174591,-0.9818089008331299,0.14790715277194977,0.40760666131973267,-0.146975576877594,0.608137845993042,-0.09460865706205368,-0.8001129627227783,-0.42977049946784973,0.3175765573978424,0.478817880153656,0.15132051706314087,-0.7080380320549011,0.7966403961181641,-0.5268501043319702,-0.11429207772016525,-0.3924044370651245,0.88840651512146,0.08944510668516159,-0.8015241622924805,-0.6766553521156311,-1.174386978149414,-0.5489535927772522,0.6994238495826721,0.4955850839614868,0.029077595099806786,0.060572702437639236,-0.8431767225265503,0.7287946939468384,0.5619510412216187,0.07896474003791809,0.24376270174980164,-0.43448781967163086,-0.7034298181533813,0.23351702094078064,-0.7425566911697388,0.3617491126060486,0.37836092710494995,0.2595575749874115,-0.11294947564601898,-0.003529255511239171,0.049480047076940536,-0.537062406539917,0.1633298695087433,-0.2701564431190491,-0.7046658992767334,-0.397138386964798,-0.5819080471992493,-0.03443530574440956,0.9039086103439331,-0.2903689444065094,-0.1166166141629219,0.8937378525733948,-0.5191159248352051,-0.2804110050201416,-0.6619353890419006,0.7800546288490295,-0.2806154787540436,-0.13084906339645386,0.246687114238739,0.6980686783790588,-0.5534058809280396,-0.44956517219543457,0.1324462741613388,-0.6922248005867004,-0.05102540925145149,0.22265547513961792,0.6658966541290283,-0.27173665165901184,0.19986039400100708,0.5739700794219971,-0.6090531349182129,0.6998479962348938
20,0.47227904200553894,-0.7994213700294495,-0.5328760743141174,-0.6694322824478149,0.11801119148731232,0.41163191199302673,0.491595059633255,0.16281014680862427,-1.1291923522949219,-0.44701677560806274,0.9633649587631226,1.1387091875076294,0.07874617725610733,0.5527625679969788,1.2582666873931885,0.9880921840667725,0.733254075050354,-0.07058344036340714,0.8148419260978699,0.10155386477708817,0.639970600605011,-0.11514812707901001,0.20137453079223633,-0.047095682471990585,0.2632988393306732,0.7978421449661255,0.26858004927635193,-0.7559903860092163,-0.2576756775379181,-0.1280559003353119,0.69541335105896,-0.11625806987285614,-1.0163185596466064,0.17395934462547302,0.42275407910346985,-0.1035279631614685,0.6400710344314575,-0.08001330494880676,-0.7939128279685974,-0.45108306407928467,0.3025825023651123,0.4784523546695709,0.14061959087848663,-0.7334135174751282,0.7711431384086609,-0.5341020226478577,-0.10722179710865021,-0.3722080886363983,0.8891216516494751,0.0874776691198349,-0.8194431066513062,-0.6757590174674988,-1.196531891822815,-0.5663742423057556,0.7015974521636963,0.4772285223007202,-0.01195208914577961,0.056983135640621185,-0.8686580061912537,0.7232228517532349,0.5148892998695374,0.07736185193061829,0.23795916140079498,-0.43346723914146423,-0.6902865171432495,0.2546747624874115,-0.7158187031745911,0.3666016459465027,0.3650081157684326,0.26820459961891174,-0.11432424932718277,-0.021881038323044777,0.059224650263786316,-0.5140469670295715,0.1730470061302185,-0.26255497336387634,-0.7200905680656433,-0.3948468267917633,-0.5831978917121887,-0.057433489710092545,0.8745540380477905,-0.2909562885761261,-0.10635121911764145,0.8825439810752869,-0.492642879486084,-0.31199824810028076,-0.631636917591095,0.7911060452461243,-0.2817033529281616,-0.14980630576610565,0.2074122428894043,0.7042280435562134,-0.5208062529563904,-0.47030192613601685,0.1607392430305481,-0.7045305967330933,-0.027910208329558372,0.2627333402633667,0.6995369791984558,-0.28861090540885925,0.186432346701622,0.5554989576339722,-0.6064336895942688,0.6990222334861755
21,0.45254480838775635,-0.861113429069519,-0.522704005241394,-0.7184363603591919,0.13400089740753174,0.3663586378097534,0.4812588393688202,0.18054898083209991,-1.0943403244018555,-0.4916360378265381,0.9331806898117065,1.2003679275512695,0.11566336452960968,0.5848380923271179,1.252709984779358,1.0138952732086182,0.7511821985244751,-0.06597435474395752,0.7714983224868774,0.10630879551172256,0.6314575672149658,-0.11096861213445663,0.21293160319328308,-0.05310773849487305,0.2564741373062134,0.8125630021095276,0.27463147044181824,-0.7466421127319336,-0.28341057896614075,-0.14310258626937866,0.673105001449585,-0.10400272905826569,-0.9789424538612366,0.12184453010559082,0.4376052916049957,-0.14209872484207153,0.6220362186431885,-0.07128404080867767,-0.8195998668670654,-0.4507612884044647,0.3088078200817108,0.45143598318099976,0.1094910055398941,-0.7322096228599548,0.7377375364303589,-0.5278160572052002,-0.11210546642541885,-0.37035349011421204,0.9260839819908142,0.06690743565559387,-0.8155341148376465,-0.6834774613380432,-1.205459713935852,-0.5744693875312805,0.7007107138633728,0.5017486214637756,0.026404472067952156,0.04985475912690163,-0.8528613448143005,0.7218450903892517,0.5744372606277466,0.08019043505191803,0.21630562841892242,-0.42904558777809143,-0.6948233842849731,0.24170322716236115,-0.7039675116539001,0.3517415523529053,0.3913020193576813,0.26387307047843933,-0.11211437731981277,0.012776857241988182,0.07030904293060303,-0.5397758483886719,0.15687140822410583,-0.2593071758747101,-0.7213134765625,-0.3968318700790405,-0.5817438364028931,-0.0068269711919128895,0.9167680144309998,-0.30371716618537903,-0.10865683108568192,0.9162689447402954,-0.5251856446266174,-0.30093899369239807,-0.6461146473884583,0.7591831684112549,-0.2542925775051117,-0.14963114261627197,0.2582229673862457,0.7013708353042603,-0.5363244414329529,-0.4831358790397644,0.1496639847755432,-0.6778607964515686,-0.015398611314594746,0.21829107403755188,0.6718848943710327,-0.2862204611301422,0.17962338030338287,0.5911232829093933,-0.6300261616706848,0.6853501200675964
22,0.49375733733177185,-0.8369961977005005,-0.5049247741699219,-0.7067201137542725,0.15830294787883759,0.40190044045448303,0.4725280702114105,0.1584758311510086,-1.1377465724945068,-0.43260183930397034,0.9304920434951782,1.155832290649414,0.07098757475614548,0.5153002142906189,1.2867546081542969,0.9794245958328247,0.7394009828567505,-0.036746710538864136,0.8302581310272217,0.11848288029432297,0.6539632678031921,-0.08472897857427597,0.19133371114730835,-0.01879577897489071,0.2820110321044922,0.8220261335372925,0.24937216937541962,-0.7410067915916443,-0.23807737231254578,-0.13053132593631744,0.6978734731674194,-0.1254146844148636,-1.0377622842788696,0.14929120242595673,0.4497482180595398,-0.07063940912485123,0.6514789462089539,-0.05587998777627945,-0.8115238547325134,-0.48045337200164795,0.2900892496109009,0.4498216509819031,0.11015475541353226,-0.7579637765884399,0.7221604585647583,-0.5272446870803833,-0.10217666625976562,-0.35302233695983887,0.9236240983009338,0.07734175771474838,-0.836615264415741,-0.6857777237892151,-1.2256672382354736,-0.58907151222229,0.6844918727874756,0.4888962507247925,-0.018157072365283966,0.04712490364909172,-0.8777787685394287,0.7179410457611084,0.5289989113807678,0.07714401185512543,0.22154666483402252,-0.4255031943321228,-0.6641548871994019,0.2628169357776642,-0.6742326617240906,0.3479832708835602,0.37790438532829285,0.28393036127090454,-0.11051904410123825,-0.003277042880654335,0.07973460853099823,-0.5108264684677124,0.148236483335495,-0.2580409348011017,-0.7322216629981995,-0.3938160538673401,-0.5818678140640259,-0.03898467868566513,0.8949239253997803,-0.3128495514392853,-0.0975245013833046,0.9135171175003052,-0.4954933822154999,-0.3381979167461395,-0.6244232654571533,0.7696541547775269,-0.2724004089832306,-0.17583073675632477,0.21578627824783325,0.7141386866569519,-0.4985825717449188,-0.4489579498767853,0.19012467563152313,-0.6857304573059082,0.006248162128031254,0.26159757375717163,0.7086264491081238,-0.28190866112709045,0.16795484721660614,0.5777933597564697,-0.6262162923812866,0.6818195581436157
23,0.47222790122032166,-0.8873001933097839,-0.4955592453479767,-0.7531247138977051,0.17826776206493378,0.3596060574054718,0.4615279734134674,0.1667385846376419,-1.1055986881256104,-0.4848664402961731,0.8948243260383606,1.221792221069336,0.11571905016899109,0.5440688729286194,1.2724379301071167,1.0124690532684326,0.7575100660324097,-0.03754658252000809,0.7735089659690857,0.11977081000804901,0.6349930167198181,-0.07971491664648056,0.20926694571971893,-0.02386043407022953,0.28353792428970337,0.828553318977356,0.24607820808887482,-0.731972873210907,-0.2617693543434143,-0.14684787392616272,0.6819694638252258,-0.10376343876123428,-0.9794763326644897,0.09376977384090424,0.46951258182525635,-0.12486590445041656,0.6303064227104187,-0.052539508789777756,-0.8431293368339539,-0.4656926393508911,0.30385902523994446,0.43731096386909485,0.07685741782188416,-0.7520176768302917,0.6853009462356567,-0.5227182507514954,-0.10665018856525421,-0.35808801651000977,0.9678909182548523,0.04939817264676094,-0.8370281457901001,-0.6923850774765015,-1.2313014268875122,-0.59751296043396,0.7147842049598694,0.5058454871177673,0.017692726105451584,0.03933490440249443,-0.8665518760681152,0.7096402645111084,0.5804625153541565,0.07527310401201248,0.2005336582660675,-0.42255812883377075,-0.6913179159164429,0.25239405035972595,-0.665203869342804,0.351033091545105,0.40779387950897217,0.27803972363471985,-0.10899633914232254,0.02479296736419201,0.09777399152517319,-0.5425233840942383,0.15310265123844147,-0.251775860786438,-0.7448185682296753,-0.3950255811214447,-0.5832908749580383,0.021972263231873512,0.9223039746284485,-0.32678160071372986,-0.10449415445327759,0.9349219799041748,-0.5253570079803467,-0.3216800391674042,-0.6366918087005615,0.7412400841712952,-0.22185933589935303,-0.170466348528862,0.2654460668563843,0.7030565738677979,-0.5186758041381836,-0.5226298570632935,0.16710251569747925,-0.6591630578041077,0.02192513272166252,0.2122090458869934,0.6722257733345032,-0.2974863052368164,0.16167378425598145,0.6092208027839661,-0.6562373638153076,0.6622774600982666
24,0.5072693228721619,-0.8783989548683167,-0.47582340240478516,-0.7412442564964294,0.20335152745246887,0.384684294462204,0.45138323307037354,0.14585065841674805,-1.1464580297470093,-0.4227183163166046,0.8986355662345886,1.1757758855819702,0.07062093168497086,0.4801841974258423,1.3112753629684448,0.9638022780418396,0.7415707111358643,-0.0011942069977521896,0.8383381962776184,0.13497206568717957,0.660009503364563,-0.05454621464014053,0.19009332358837128,0.0015133651904761791,0.29477059841156006,0.8485485315322876,0.22376437485218048,-0.7215593457221985,-0.22338029742240906,-0.12720805406570435,0.7044612169265747,-0.1255505234003067,-1.0387500524520874,0.12324697524309158,0.47623249888420105,-0.05318903923034668,0.6638314723968506,-0.037711258977651596,-0.8302987217903137,-0.5073926448822021,0.28190624713897705,0.4102862477302551,0.09664058685302734,-0.7782772779464722,0.6783822774887085,-0.5136149525642395,-0.10064136981964111,-0.34020665287971497,0.9611184597015381,0.07758232951164246,-0.8591707944869995,-0.6956989169120789,-1.2504324913024902,-0.6082214117050171,0.662161648273468,0.5005708336830139,-0.031113168224692345,0.03975085914134979,-0.8897954225540161,0.707337498664856,0.5373104810714722,0.07054279744625092,0.21517327427864075,-0.41891077160835266,-0.635014533996582,0.27412423491477966,-0.6347609758377075,0.3327977955341339,0.3939812183380127,0.30870699882507324,-0.10808970779180527,0.008395124226808548,0.10507427155971527,-0.5098068714141846,0.12452121824026108,-0.25947630405426025,-0.751177191734314,-0.39142507314682007,-0.5825514197349548,-0.01738896779716015,0.9089697003364563,-0.3437736928462982,-0.09737204015254974,0.9368830919265747,-0.4925653338432312,-0.3586452007293701,-0.6170567870140076,0.7557719349861145,-0.2726903259754181,-0.20347285270690918,0.2229527086019516,0.7253897190093994,-0.4762742817401886,-0.44145655632019043,0.21873441338539124,-0.6622542142868042,0.040402065962553024,0.25947070121765137,0.7129024863243103,-0.2696312367916107,0.15360067784786224,0.6016854643821716,-0.6523941159248352,0.6630719304084778
25,0.4870739281177521,-0.9098438620567322,-0.467271089553833,-0.7831746935844421,0.22545333206653595,0.3484286963939667,0.43690183758735657,0.15157835185527802,-1.1192227602005005,-0.47687211632728577,0.8595324158668518,1.2398045063018799,0.12056484073400497,0.5042123794555664,1.2891743183135986,1.0036330223083496,0.7567352652549744,-0.008263560011982918,0.7842693328857422,0.1376064568758011,0.6325956583023071,-0.037628527730703354,0.2156127691268921,-0.005503382533788681,0.30376601219177246,0.8416103720664978,0.2143852263689041,-0.7133434414863586,-0.24373461306095123,-0.13962547481060028,0.6924667954444885,-0.09765183925628662,-0.9837188124656677,0.06890850514173508,0.5020185112953186,-0.09990332275629044,0.6380074620246887,-0.044248808175325394,-0.864346444606781,-0.4806554913520813,0.30362144112586975,0.44152945280075073,0.05769618600606918,-0.7668212056159973,0.6412211060523987,-0.5114668607711792,-0.10292094200849533,-0.35479795932769775,1.0093234777450562,0.04458310455083847,-0.861523449420929,-0.7010442018508911,-1.2539175748825073,-0.6125382781028748,0.7258822321891785,0.5127228498458862,0.0019110993016511202,0.03160811960697174,-0.8833622932434082,0.6933716535568237,0.5797417163848877,0.0653245821595192,0.20143623650074005,-0.4195516109466553,-0.6790624856948853,0.2678093910217285,-0.6299393773078918,0.353484183549881,0.4271988868713379,0.30035704374313354,-0.10521983355283737,0.029494687914848328,0.12704451382160187,-0.5425900220870972,0.14772860705852509,-0.25221681594848633,-0.7738587260246277,-0.3965725302696228,-0.5845736861228943,0.04721425846219063,0.9227824807167053,-0.35671088099479675,-0.10542222857475281,0.9495154619216919,-0.518994152545929,-0.34412944316864014,-0.6344329118728638,0.7311682105064392,-0.19865618646144867,-0.19695338606834412,0.2635629177093506,0.7101429104804993,-0.49973392486572266,-0.5215621590614319,0.18710872530937195,-0.6361899375915527,0.058745913207530975,0.21099953353405,0.669542133808136,-0.30229368805885315,0.14709024131298065,0.6266747117042542,-0.6850241422653198,0.635955274105072
26,0.511915922164917,-0.9155135154724121,-0.4476986229419708,-0.7732102870941162,0.2492242008447647,0.363070547580719,0.42751404643058777,0.12572386860847473,-1.1509250402450562,-0.41996490955352783,0.8680906891822815,1.197334885597229,0.0785180926322937,0.4483680725097656,1.3276699781417847,0.9541760087013245,0.7426422238349915,0.031990326941013336,0.8416586518287659,0.1553799957036972,0.6558770537376404,-0.020758135244250298,0.19936203956604004,0.015879999846220016,0.3016403913497925,0.8664509057998657,0.1944642961025238,-0.6937643885612488,-0.21246442198753357,-0.12373865395784378,0.7146545052528381,-0.11135982722043991,-1.0344494581222534,0.0970536321401596,0.5042977929115295,-0.041023001074790955,0.6780089735984802,-0.030342603102326393,-0.845420777797699,-0.5264520645141602,0.2803042232990265,0.3763274848461151,0.09297481924295425,-0.7934063076972961,0.6368975043296814,-0.49766606092453003,-0.10151813179254532,-0.3377082943916321,1.0023775100708008,0.08272899687290192,-0.8795938491821289,-0.7026398181915283,-1.2709325551986694,-0.6274526715278625,0.660279393196106,0.5142006874084473,-0.047713592648506165,0.034863416105508804,-0.9034749865531921,0.6892887949943542,0.5395479202270508,0.057696402072906494,0.2186310887336731,-0.41685956716537476,-0.6162541508674622,0.2905212938785553,-0.6023070812225342,0.3277242183685303,0.41586214303970337,0.33344370126724243,-0.10863330960273743,0.014072333462536335,0.13406644761562347,-0.5108073353767395,0.11452767997980118,-0.2622210383415222,-0.7772833704948425,-0.39062806963920593,-0.5848520994186401,0.012521922588348389,0.9156821966171265,-0.3777148127555847,-0.10480903834104538,0.9488561749458313,-0.48724228143692017,-0.37876054644584656,-0.6115367412567139,0.7479140758514404,-0.26064321398735046,-0.23197197914123535,0.22865942120552063,0.7388560175895691,-0.45690834522247314,-0.4576553404331207,0.23798882961273193,-0.6343947649002075,0.07461169362068176,0.2555360198020935,0.7087642550468445,-0.2579997479915619,0.1459086537361145,0.6238095164299011,-0.6844044327735901,0.6461084485054016
27,0.4957083761692047,-0.9328113794326782,-0.4397740662097931,-0.8117854595184326,0.2715354859828949,0.3302404582500458,0.40905216336250305,0.13462327420711517,-1.1322028636932373,-0.4680519700050354,0.8349894285202026,1.253766655921936,0.12666243314743042,0.46790260076522827,1.3049616813659668,0.9898009896278381,0.7558053135871887,0.026083484292030334,0.7971956133842468,0.16144101321697235,0.624955415725708,0.010572023689746857,0.22779084742069244,0.005744899157434702,0.3148033618927002,0.8586660623550415,0.18425674736499786,-0.6945391297340393,-0.2276248037815094,-0.1277340054512024,0.7017625570297241,-0.08454308658838272,-0.9894528388977051,0.04868865758180618,0.5315049886703491,-0.07462705671787262,0.6524559259414673,-0.04518934711813927,-0.8791859149932861,-0.49886414408683777,0.3070390224456787,0.43827781081199646,0.05609530583024025,-0.7800690531730652,0.6008502840995789,-0.49460911750793457,-0.10542371869087219,-0.3567182719707489,1.0468839406967163,0.05640382692217827,-0.8808817863464355,-0.7068382501602173,-1.2732036113739014,-0.6198708415031433,0.7206453084945679,0.5267747044563293,-0.020197918638586998,0.028216950595378876,-0.9042097926139832,0.6746200919151306,0.5713961124420166,0.04991055279970169,0.2148759961128235,-0.4201900064945221,-0.6521670818328857,0.2893984019756317,-0.6022593379020691,0.3535620868206024,0.4501480162143707,0.3237777054309845,-0.10359255969524384,0.029836686328053474,0.1543714702129364,-0.5368059873580933,0.1373697817325592,-0.26087480783462524,-0.805208146572113,-0.40116629004478455,-0.5864785313606262,0.07059397548437119,0.9229742288589478,-0.38964512944221497,-0.1131274551153183,0.9590815901756287,-0.5090363025665283,-0.36738237738609314,-0.6331025958061218,0.73002028465271,-0.1948157101869583,-0.2254372388124466,0.2572717070579529,0.724689245223999,-0.47803929448127747,-0.5134245753288269,0.20788754522800446,-0.6114500761032104,0.0945192500948906,0.21646183729171753,0.6664842367172241,-0.2977614402770996,0.13667288422584534,0.6433611512184143,-0.7148493528366089,0.6113788485527039
28,0.5107922554016113,-0.9453282952308655,-0.42286649346351624,-0.8034973740577698,0.29183170199394226,0.3400537967681885,0.4000336229801178,0.1041373535990715,-1.153159499168396,-0.4229142367839813,0.8443456292152405,1.217716932296753,0.09041661024093628,0.4222920835018158,1.3365556001663208,0.952002227306366,0.7452841401100159,0.06265070289373398,0.8439924120903015,0.18220217525959015,0.6440497040748596,0.018432684242725372,0.21657554805278778,0.02726488746702671,0.30539682507514954,0.8806547522544861,0.16516128182411194,-0.6680576801300049,-0.20283380150794983,-0.12203441560268402,0.7242296934127808,-0.08725941926240921,-1.031880497932434,0.06978467851877213,0.533667802810669,-0.030674507841467857,0.693499743938446,-0.0348719023168087,-0.8577746152877808,-0.5386540293693542,0.28398841619491577,0.3714287579059601,0.0951920598745346,-0.8043057322502136,0.5945218801498413,-0.4820908010005951,-0.1063876673579216,-0.34411144256591797,1.0418102741241455,0.0917171835899353,-0.8930953741073608,-0.7060487270355225,-1.2861638069152832,-0.6436589956283569,0.6715242266654968,0.5325081944465637,-0.06471221894025803,0.03321298211812973,-0.9188985228538513,0.6668957471847534,0.5367393493652344,0.040350671857595444,0.2304895669221878,-0.42001402378082275,-0.5986252427101135,0.31058192253112793,-0.5768458843231201,0.3297063708305359,0.44319772720336914,0.35492679476737976,-0.1125309094786644,0.017919739708304405,0.16467466950416565,-0.511512279510498,0.11427084356546402,-0.26960575580596924,-0.8118754625320435,-0.3956061005592346,-0.5878307819366455,0.04383712261915207,0.9156926274299622,-0.41112232208251953,-0.1164633110165596,0.953692615032196,-0.4829079508781433,-0.4014311134815216,-0.6090624928474426,0.746502161026001,-0.24396942555904388,-0.2580433189868927,0.22959691286087036,0.7573674321174622,-0.4392258822917938,-0.47032561898231506,0.2507552206516266,-0.601629376411438,0.10909383744001389,0.2549894452095032,0.6978112459182739,-0.2538476288318634,0.14079588651657104,0.6437180042266846,-0.7182957530021667,0.6313956379890442
29,0.4978233575820923,-0.956576943397522,-0.4160708487033844,-0.8379059433937073,0.31178638339042664,0.30787011981010437,0.3796493113040924,0.11360833793878555,-1.1409473419189453,-0.46239733695983887,0.8200799226760864,1.2636792659759521,0.1303812563419342,0.4389640688896179,1.3156239986419678,0.9810551404953003,0.759595513343811,0.06223050504922867,0.8090724349021912,0.19246888160705566,0.6135571002960205,0.05875599756836891,0.24356698989868164,0.016229625791311264,0.3178940415382385,0.8766558766365051,0.15749074518680573,-0.6753518581390381,-0.20949548482894897,-0.11635949462652206,0.711177408695221,-0.06471472233533859,-1.0000807046890259,0.029823511838912964,0.558255136013031,-0.055730897933244705,0.6750912070274353,-0.053487665951251984,-0.888452410697937,-0.51544588804245,0.3101454973220825,0.4245159327983856,0.06710787862539291,-0.7933472990989685,0.5608302354812622,-0.4783002436161041,-0.11461368203163147,-0.36341625452041626,1.0783352851867676,0.07556503266096115,-0.8894880414009094,-0.709240198135376,-1.2861216068267822,-0.6265690922737122,0.7152535319328308,0.5465947389602661,-0.04399901255965233,0.028824247419834137,-0.927728533744812,0.653764009475708,0.557837963104248,0.0313437283039093,0.2343265563249588,-0.4241802394390106,-0.6199491024017334,0.3159330189228058,-0.582261860370636,0.351261168718338,0.476692259311676,0.3400021493434906,-0.10660377889871597,0.028127245604991913,0.18239815533161163,-0.530998706817627,0.13035500049591064,-0.27368536591529846,-0.8377365469932556,-0.4059510827064514,-0.5901676416397095,0.09199009090662003,0.9205161929130554,-0.42243707180023193,-0.1271730214357376,0.9627090692520142,-0.5025470852851868,-0.392671674489975,-0.6284664869308472,0.7341161370277405,-0.19503867626190186,-0.25016504526138306,0.2530483603477478,0.7469841241836548,-0.4547846019268036,-0.506648600101471,0.22633108496665955,-0.584732711315155,0.128931924700737,0.22641943395137787,0.6620855331420898,-0.29005441069602966,0.1283833235502243,0.6585334539413452,-0.7448726296424866,0.5936110615730286
30,0.5071224570274353,-0.9710552096366882,-0.4020462930202484,-0.8304649591445923,0.32625913619995117,0.31642746925354004,0.37065622210502625,0.08226139843463898,-1.1540189981460571,-0.4285620450973511,0.8308333158493042,1.2337225675582886,0.09849005937576294,0.4042639434337616,1.337973952293396,0.9576927423477173,0.7504690885543823,0.09012666344642639,0.8471057415008545,0.21501560509204865,0.6286579370498657,0.05675717443227768,0.2350901961326599,0.040262460708618164,0.31051868200302124,0.8986908197402954,0.13814522325992584,-0.6496666669845581,-0.1877458691596985,-0.12225037813186646,0.7315001487731934,-0.05859902873635292,-1.0364466905593872,0.043097712099552155,0.5616526007652283,-0.02229280024766922,0.7129424214363098,-0.047257449477910995,-0.8689054846763611,-0.5465981364250183,0.2898349463939667,0.37671005725860596,0.10415923595428467,-0.813220739364624,0.5513138175010681,-0.46922576427459717,-0.11699504405260086,-0.3569895029067993,1.0727505683898926,0.10353152453899384,-0.8947679400444031,-0.7074861526489258,-1.29371178150177,-0.6575825810432434,0.6811398267745972,0.5556075572967529,-0.08080025017261505,0.03499860689043999,-0.9360047578811646,0.6441264152526855,0.5295696258544922,0.02038738504052162,0.24592584371566772,-0.42565450072288513,-0.5767786502838135,0.3326575458049774,-0.5583769083023071,0.3347897231578827,0.4739986062049866,0.369266539812088,-0.11952206492424011,0.022744854912161827,0.19541063904762268,-0.512188732624054,0.1185796782374382,-0.2814779579639435,-0.8511325120925903,-0.4034489095211029,-0.5924164056777954,0.07203163206577301,0.9124107956886292,-0.4424361288547516,-0.12874126434326172,0.9560474157333374,-0.4816126525402069,-0.4257676899433136,-0.6057823300361633,0.7502224445343018,-0.23222915828227997,-0.27682143449783325,0.22693222761154175,0.778496503829956,-0.4211665093898773,-0.4788174331188202,0.2593975365161896,-0.5669072270393372,0.141904816031456,0.2591986060142517,0.6826997399330139,-0.25350072979927063,0.13498152792453766,0.6609682440757751,-0.7497410774230957,0.6216409206390381
31,0.4989326000213623,-0.978086531162262,-0.39626580476760864,-0.8596184253692627,0.34153878688812256,0.2839118242263794,0.3504387140274048,0.0906660407781601,-1.1471474170684814,-0.4613175392150879,0.8123795390129089,1.2703752517700195,0.1286628544330597,0.42023128271102905,1.3176703453063965,0.9811077117919922,0.7666313052177429,0.09438742697238922,0.8185935020446777,0.2281137853860855,0.5994385480880737,0.10062771290540695,0.2590431272983551,0.029739832505583763,0.31889092922210693,0.8959513306617737,0.13521887362003326,-0.6604599952697754,-0.18677780032157898,-0.10383196175098419,0.7201473712921143,-0.04268086701631546,-1.0171732902526855,0.010544400662183762,0.5815399289131165,-0.044284142553806305,0.70145183801651,-0.06763233244419098,-0.8960899114608765,-0.5260298848152161,0.3113565444946289,0.41477084159851074,0.08449980616569519,-0.8059059977531433,0.5207388401031494,-0.4654979407787323,-0.12738516926765442,-0.3744337856769562,1.1004337072372437,0.09631796181201935,-0.8860580325126648,-0.7104612588882446,-1.2907438278198242,-0.6322123408317566,0.7123011946678162,0.5690755248069763,-0.06398296356201172,0.03223340958356857,-0.9519016742706299,0.6329208612442017,0.5417837500572205,0.012528575956821442,0.25637444853782654,-0.42990392446517944,-0.585135817527771,0.3447364568710327,-0.5695552229881287,0.3478221893310547,0.5057278275489807,0.3444599211215973,-0.1129804402589798,0.02665645442903042,0.21173037588596344,-0.532781183719635,0.12986759841442108,-0.2877529263496399,-0.8705300092697144,-0.40958815813064575,-0.5975038409233093,0.10948129743337631,0.9126890301704407,-0.4525112807750702,-0.14339089393615723,0.9632836580276489,-0.5024824738502502,-0.4176865816116333,-0.6190546751022339,0.7401382923126221,-0.19402092695236206,-0.26521921157836914,0.25210416316986084,0.7722379565238953,-0.4323422610759735,-0.5015280842781067,0.2412644773721695,-0.557081401348114,0.16166864335536957,0.23854567110538483,0.6564707159996033,-0.28593799471855164,0.1184762567281723,0.6710185408592224,-0.7715912461280823,0.5812167525291443
32,0.5039230585098267,-0.994276762008667,-0.38568276166915894,-0.8507601618766785,0.34868109226226807,0.29420530796051025,0.34271904826164246,0.060817964375019073,-1.152740478515625,-0.43517181277275085,0.8253387212753296,1.2437909841537476,0.09658245742321014,0.39538443088531494,1.3310303688049316,0.9696345925331116,0.7574546933174133,0.11194919794797897,0.8526418209075928,0.2503373324871063,0.6136445999145508,0.08646523952484131,0.25094616413116455,0.0557369738817215,0.3188427686691284,0.9247271418571472,0.114658422768116,-0.6385640501976013,-0.16567127406597137,-0.12594106793403625,0.735866367816925,-0.02829894609749317,-1.05000901222229,0.019279100000858307,0.5860294699668884,-0.018320433795452118,0.7353844046592712,-0.0636904165148735,-0.8800422549247742,-0.5502809882164001,0.2951973080635071,0.38369491696357727,0.11961177736520767,-0.820857048034668,0.5093460083007812,-0.4600641131401062,-0.132796511054039,-0.3739410936832428,1.0910395383834839,0.11438504606485367,-0.8850054740905762,-0.7088273167610168,-1.2923164367675781,-0.6740232110023499,0.68611079454422,0.5824486017227173,-0.09337835758924484,0.03950601816177368,-0.9496426582336426,0.6237614154815674,0.5185790061950684,0.00017172610387206078,0.25664281845092773,-0.43207159638404846,-0.5512058734893799,0.3520055115222931,-0.5453301668167114,0.3402663469314575,0.503852903842926,0.37413573265075684,-0.12925675511360168,0.02989436686038971,0.22588728368282318,-0.5146871209144592,0.12449104338884354,-0.2928529977798462,-0.8883712887763977,-0.41100582480430603,-0.5979529023170471,0.09394168108701706,0.9088857769966125,-0.4705579876899719,-0.13930518925189972,0.9590530395507812,-0.48455125093460083,-0.44840556383132935,-0.6001877188682556,0.7544188499450684,-0.22300046682357788,-0.28509336709976196,0.22154878079891205,0.7982003688812256,-0.40329694747924805,-0.4854753017425537,0.26487722992897034,-0.5327214598655701,0.17066462337970734,0.2663308382034302,0.6651443243026733,-0.25299161672592163,0.12730959057807922,0.6768189668655396,-0.7764930129051208,0.620515763759613
33,0.5045135617256165,-0.9926502108573914,-0.3798912763595581,-0.8761302828788757,0.35821518301963806,0.25928717851638794,0.32392019033432007,0.06949567049741745,-1.1530543565750122,-0.46400347352027893,0.8079625368118286,1.2748910188674927,0.11868935078382492,0.4102538526058197,1.3090393543243408,0.987478494644165,0.7741467952728271,0.11945497989654541,0.8252684473991394,0.2629360854625702,0.5828573703765869,0.13024191558361053,0.2709254324436188,0.04674698784947395,0.32096239924430847,0.9150724411010742,0.11893942207098007,-0.6529839038848877,-0.1626255065202713,-0.0864197164773941,0.7277957797050476,-0.022733274847269058,-1.0394107103347778,-0.005946338642388582,0.6000061631202698,-0.04026828333735466,0.726190447807312,-0.08602666854858398,-0.9044718742370605,-0.5298751592636108,0.3099864423274994,0.40794268250465393,0.1036335900425911,-0.8177624940872192,0.4840662479400635,-0.45702263712882996,-0.13806253671646118,-0.387936532497406,1.1116634607315063,0.11732698976993561,-0.8736808896064758,-0.7123356461524963,-1.2875174283981323,-0.6357076168060303,0.7106017470359802,0.5898324847221375,-0.07632774114608765,0.03659004345536232,-0.9757678508758545,0.614560604095459,0.5237792730331421,-0.004371216520667076,0.28112298250198364,-0.43533164262771606,-0.5477566123008728,0.37615281343460083,-0.5648022890090942,0.34248408675193787,0.5353760719299316,0.33572638034820557,-0.11951089650392532,0.024789096787571907,0.24106620252132416,-0.5485936999320984,0.13472402095794678,-0.2987613379955292,-0.9021553993225098,-0.410643994808197,-0.6071945428848267,0.12002791464328766,0.8977139592170715,-0.47822678089141846,-0.16018305718898773,0.9608141779899597,-0.5079955458641052,-0.43921664357185364,-0.6033039689064026,0.7453395128250122,-0.19154492020606995,-0.2678365409374237,0.254611998796463,0.7959370613098145,-0.41331779956817627,-0.4993985891342163,0.2534896433353424,-0.5335853099822998,0.1924252063035965,0.2501060366630554,0.6524482369422913,-0.2880799174308777,0.10344382375478745,0.6799166202545166,-0.7933968305587769,0.5702163577079773
34,0.5023676753044128,-1.0182923078536987,-0.37385594844818115,-0.862015962600708,0.3588787913322449,0.2771974205970764,0.3193148076534271,0.04298918694257736,-1.1481819152832031,-0.4423941373825073,0.8237238526344299,1.248822569847107,0.08278249204158783,0.39433979988098145,1.316571593284607,0.9843366146087646,0.7647740244865417,0.1259780079126358,0.8623388409614563,0.2832338809967041,0.6027709245681763,0.10601222515106201,0.2626422345638275,0.07175998389720917,0.3342202305793762,0.9623926281929016,0.0946708619594574,-0.6316662430763245,-0.1391540765762329,-0.13523893058300018,0.7372323274612427,0.004685520194470882,-1.069689393043518,-0.00030792178586125374,0.6035932898521423,-0.018794363364577293,0.7578293085098267,-0.08163444697856903,-0.8930060267448425,-0.5498372316360474,0.3021997809410095,0.39622145891189575,0.13920462131500244,-0.8264412879943848,0.46962249279022217,-0.4531313478946686,-0.15424703061580658,-0.3942994773387909,1.0960423946380615,0.12082953006029129,-0.8680710196495056,-0.7109445333480835,-1.282193660736084,-0.6965824365615845,0.6863441467285156,0.6136980056762695,-0.10017263144254684,0.04572157561779022,-0.952695369720459,0.6081242561340332,0.5047352910041809,-0.018579047173261642,0.2521500289440155,-0.43785861134529114,-0.5248282551765442,0.36285844445228577,-0.5348587036132812,0.347271203994751,0.5265599489212036,0.37130168080329895,-0.1417662501335144,0.04213801026344299,0.25531885027885437,-0.5153096318244934,0.12876084446907043,-0.2988773584365845,-0.9139227271080017,-0.4176403880119324,-0.6026417016983032,0.10920543223619461,0.911054253578186,-0.4945068955421448,-0.14571261405944824,0.9667302370071411,-0.489382266998291,-0.4660225808620453,-0.59700608253479,0.754380464553833,-0.21471475064754486,-0.28220391273498535,0.21141991019248962,0.8111543655395508,-0.3864164352416992,-0.4944964349269867,0.2671881914138794,-0.5009662508964539,0.1923898458480835,0.27271997928619385,0.6438513994216919,-0.24736954271793365,0.1192522868514061,0.6941866874694824,-0.7989547252655029,0.6286207437515259
35,0.5181662440299988,-0.9924681186676025,-0.3663356602191925,-0.8895685076713562,0.3625350594520569,0.23401251435279846,0.3020375072956085,0.053859006613492966,-1.1605812311172485,-0.46896135807037354,0.8020778894424438,1.2779896259307861,0.09975570440292358,0.4037642776966095,1.2901551723480225,0.9947258234024048,0.7789917588233948,0.14003650844097137,0.8289546370506287,0.2919493317604065,0.562223494052887,0.14245884120464325,0.2775067389011383,0.0660446435213089,0.3201170265674591,0.9276539087295532,0.11014138907194138,-0.6541342735290527,-0.14648805558681488,-0.06314818561077118,0.7363396286964417,-0.008479487150907516,-1.0645604133605957,-0.01434764452278614,0.6123977899551392,-0.04135235399007797,0.7446509599685669,-0.10690847784280777,-0.9121249318122864,-0.5296680927276611,0.30416324734687805,0.39446136355400085,0.12157562375068665,-0.8306648135185242,0.456490695476532,-0.4530867040157318,-0.13975930213928223,-0.4009978175163269,1.114357590675354,0.1400517374277115,-0.8562418222427368,-0.7152162194252014,-1.2785555124282837,-0.6366139054298401,0.709802508354187,0.6012179255485535,-0.07988543063402176,0.039835844188928604,-1.0003842115402222,0.5998845100402832,0.5034224390983582,-0.017450157552957535,0.312980055809021,-0.4386482238769531,-0.5056741833686829,0.41409215331077576,-0.5687164664268494,0.33271586894989014,0.5658910274505615,0.31680288910865784,-0.121344193816185,0.017295848578214645,0.2683453857898712,-0.5822144150733948,0.1444564312696457,-0.3034958243370056,-0.9375709891319275,-0.4084245562553406,-0.6166934967041016,0.11951766908168793,0.8707543611526489,-0.49882087111473083,-0.17949748039245605,0.9497191309928894,-0.5155382752418518,-0.4567471146583557,-0.57689368724823,0.7503746151924133,-0.18994131684303284,-0.25996363162994385,0.2618114948272705,0.8209987878799438,-0.40067747235298157,-0.49934718012809753,0.26666364073753357,-0.5196820497512817,0.2222333699464798,0.2603471875190735,0.6570125818252563,-0.2981627881526947,0.08133556693792343,0.683280348777771,-0.8115293383598328,0.5583332180976868
36,0.4995298385620117,-1.0468552112579346,-0.36741402745246887,-0.8626750707626343,0.3607226014137268,0.2700198292732239,0.30241742730140686,0.03380552679300308,-1.1382007598876953,-0.45213401317596436,0.8219726085662842,1.2514011859893799,0.060037657618522644,0.39909687638282776,1.2980742454528809,0.9993333220481873,0.7725725173950195,0.13151751458644867,0.8771106600761414,0.3103380501270294,0.5990424752235413,0.126080721616745,0.27111902832984924,0.08486704528331757,0.36038634181022644,1.009246587753296,0.07731077075004578,-0.6257154941558838,-0.1073550283908844,-0.1424117237329483,0.7341967225074768,0.042088866233825684,-1.0895061492919922,-0.01848069578409195,0.6092861890792847,-0.022205818444490433,0.7797069549560547,-0.09953470528125763,-0.9108823537826538,-0.5451552271842957,0.3175264298915863,0.42459607124328613,0.15957312285900116,-0.8281531929969788,0.43028292059898376,-0.4451059103012085,-0.18557506799697876,-0.4199039340019226,1.09040367603302,0.11954224109649658,-0.8474679589271545,-0.7138120532035828,-1.2643415927886963,-0.7211366295814514,0.68340665102005,0.6523146033287048,-0.10067066550254822,0.0531020388007164,-0.9437921643257141,0.5988634824752808,0.4897158741950989,-0.03400513902306557,0.2345525622367859,-0.4409528076648712,-0.5013547539710999,0.3640608489513397,-0.5243193507194519,0.3597240149974823,0.5364016890525818,0.36262980103492737,-0.15645839273929596,0.06299415975809097,0.28375327587127686,-0.5126243829727173,0.1287848800420761,-0.2989933490753174,-0.9138897061347961,-0.4223453998565674,-0.6067284345626831,0.12324024736881256,0.927817165851593,-0.5129605531692505,-0.14759372174739838,0.9865017533302307,-0.49052321910858154,-0.47608286142349243,-0.6055337190628052,0.7455146312713623,-0.20617565512657166,-0.26862823963165283,0.19699375331401825,0.8114950060844421,-0.36994510889053345,-0.5098148584365845,0.26463231444358826,-0.473021537065506,0.20275719463825226,0.2733480632305145,0.6149922013282776,-0.23583321273326874,0.11369726061820984,0.7165155410766602,-0.8196957111358643,0.638982892036438
37,0.5368520617485046,-0.9792870879173279,-0.3559893071651459,-0.9025688767433167,0.35668545961380005,0.2122037261724472,0.2864464521408081,0.044905297458171844,-1.167088270187378,-0.4722808003425598,0.7948171496391296,1.2755935192108154,0.0686839371919632,0.3934718370437622,1.2647409439086914,0.9988930821418762,0.776301383972168,0.16185835003852844,0.833416759967804,0.31302690505981445,0.5385220050811768,0.12648865580558777,0.27755895256996155,0.08925550431013107,0.3105946481227875,0.940247118473053,0.1062568798661232,-0.6624078750610352,-0.14694373309612274,-0.04831072688102722,0.7513759136199951,0.003160230815410614,-1.091708779335022,-0.007858950644731522,0.6190235018730164,-0.041284020990133286,0.7554016709327698,-0.12733769416809082,-0.9129804372787476,-0.5316883325576782,0.29095467925071716,0.36214208602905273,0.14044508337974548,-0.8469365835189819,0.44128483533859253,-0.4549764394760132,-0.13675829768180847,-0.4122094213962555,1.1112762689590454,0.1624419391155243,-0.8353344202041626,-0.718095600605011,-1.2646293640136719,-0.6452136039733887,0.7082001566886902,0.6002995371818542,-0.07773452252149582,0.04095856472849846,-1.0182029008865356,0.5896875262260437,0.48150330781936646,-0.02739880047738552,0.33198845386505127,-0.43807703256607056,-0.45624953508377075,0.44956061244010925,-0.5748559832572937,0.31929832696914673,0.5958701372146606,0.29781851172447205,-0.11634320765733719,0.0032482370734214783,0.29068103432655334,-0.6124581694602966,0.16473035514354706,-0.3024451732635498,-0.9833282828330994,-0.4054970145225525,-0.6260096430778503,0.1043752133846283,0.842972457408905,-0.5147238969802856,-0.2010103166103363,0.9267480373382568,-0.5191542506217957,-0.47467556595802307,-0.5383117198944092,0.7597672939300537,-0.19384513795375824,-0.24791668355464935,0.26878756284713745,0.8545140624046326,-0.39757412672042847,-0.49497249722480774,0.28578755259513855,-0.513322114944458,0.25212061405181885,0.27201545238494873,0.6715642809867859,-0.30896613001823425,0.057905443012714386,0.682488739490509,-0.8288614749908447,0.5541752576828003
38,0.49844154715538025,-1.0620356798171997,-0.3636610507965088,-0.8571737408638,0.36124834418296814,0.26705488562583923,0.2921265959739685,0.0393943265080452,-1.1277527809143066,-0.4709053635597229,0.812155544757843,1.258178472518921,0.0362018421292305,0.40680307149887085,1.276314616203308,1.0138518810272217,0.7803663611412048,0.13169191777706146,0.8898685574531555,0.3295004069805145,0.5932614803314209,0.16334328055381775,0.27905410528182983,0.09483008086681366,0.3838876485824585,1.0386730432510376,0.06773311644792557,-0.6251360177993774,-0.07706765085458755,-0.12861822545528412,0.7219248414039612,0.07120397686958313,-1.1022202968597412,-0.037566713988780975,0.5989952683448792,-0.029736027121543884,0.7979422211647034,-0.11935029178857803,-0.9344099760055542,-0.5336377024650574,0.33865541219711304,0.45029956102371216,0.17313605546951294,-0.8282804489135742,0.39108505845069885,-0.432526558637619,-0.2120063155889511,-0.4486379027366638,1.082880973815918,0.11793740093708038,-0.8257754445075989,-0.7187516689300537,-1.242838740348816,-0.7317520380020142,0.681069552898407,0.6835947036743164,-0.09423557668924332,0.05949670448899269,-0.9424422979354858,0.5947967171669006,0.4743116497993469,-0.040509581565856934,0.23740491271018982,-0.4389195740222931,-0.47667163610458374,0.38081032037734985,-0.5218250155448914,0.3700747489929199,0.5416550040245056,0.34147071838378906,-0.16353905200958252,0.07878214120864868,0.3115740716457367,-0.5321098566055298,0.12801456451416016,-0.2956511080265045,-0.9037164449691772,-0.4186234772205353,-0.6160386204719543,0.1398848593235016,0.9336114525794983,-0.5217378735542297,-0.15687339007854462,1.0036823749542236,-0.4824499785900116,-0.4792294502258301,-0.6123912334442139,0.7278547286987305,-0.1902950406074524,-0.24296806752681732,0.19305448234081268,0.806837260723114,-0.3558976650238037,-0.5300211310386658,0.2592347264289856,-0.4604039490222931,0.20590515434741974,0.2629234790802002,0.595045804977417,-0.23722505569458008,0.10284693539142609,0.7342336177825928,-0.8415312767028809,0.6355621814727783
39,0.5489904284477234,-0.9829027652740479,-0.3527548015117645,-0.9087843894958496,0.3476090431213379,0.20526142418384552,0.27827760577201843,0.044281311333179474,-1.1663209199905396,-0.47555336356163025,0.7927230596542358,1.2641726732254028,0.02506445161998272,0.38307350873947144,1.2431890964508057,1.0049488544464111,0.7675955295562744,0.1708621382713318,0.8475215435028076,0.32934853434562683,0.5288252234458923,0.09769057482481003,0.27288946509361267,0.1170601174235344,0.316989928483963,0.9750857949256897,0.0969119668006897,-0.6632053256034851,-0.14353808760643005,-0.04870983958244324,0.7662364840507507,0.02776584029197693,-1.117835521697998,0.0045746429823338985,0.6165069937705994,-0.03429008647799492,0.7672097086906433,-0.14365606009960175,-0.9110254049301147,-0.5393834114074707,0.2886759042739868,0.36032921075820923,0.16798025369644165,-0.859248697757721,0.4247005879878998,-0.4574369490146637,-0.15420229732990265,-0.42772629857063293,1.1019933223724365,0.17056432366371155,-0.8140164613723755,-0.7214094996452332,-1.2435117959976196,-0.6725330948829651,0.7013051509857178,0.6135857701301575,-0.07507628202438354,0.044187430292367935,-1.0120280981063843,0.5877710580825806,0.4644748568534851,-0.03622236102819443,0.32462212443351746,-0.4319416880607605,-0.41583916544914246,0.46336010098457336,-0.5684511065483093,0.3133654296398163,0.607060432434082,0.29156407713890076,-0.1166282445192337,0.008137747645378113,0.308781236410141,-0.6242515444755554,0.18174001574516296,-0.2984701097011566,-0.9985854029655457,-0.4058960974216461,-0.6322706937789917,0.08987961709499359,0.8478683829307556,-0.5258347988128662,-0.21404758095741272,0.9231477975845337,-0.5153585076332092,-0.49090576171875,-0.5246219635009766,0.7634027004241943,-0.20363754034042358,-0.23211519420146942,0.25832876563072205,0.877008318901062,-0.3969500660896301,-0.49068981409072876,0.30054181814193726,-0.5055391192436218,0.2702939808368683,0.28278639912605286,0.6678373217582703,-0.306343138217926,0.05013443902134895,0.6935058236122131,-0.8491294384002686,0.5634915828704834
40,0.512937068939209,-1.055783748626709,-0.35877469182014465,-0.8611151576042175,0.3616856038570404,0.25828370451927185,0.2836889624595642,0.05170206353068352,-1.1253399848937988,-0.49747756123542786,0.7930079102516174,1.2654379606246948,0.011761628091335297,0.4176282584667206,1.2479596138000488,1.0265717506408691,0.7811504602432251,0.13474726676940918,0.8897303938865662,0.3396863341331482,0.5740916132926941,0.17482632398605347,0.28246447443962097,0.10664447396993637,0.38706591725349426,1.0555987358093262,0.06677457690238953,-0.6287336349487305,-0.07067487388849258,-0.1007210835814476,0.7156834602355957,0.08618249744176865,-1.1083277463912964,-0.03940701484680176,0.5857884883880615,-0.04196668416261673,0.8040206432342529,-0.1394149512052536,-0.9474494457244873,-0.5236263275146484,0.34559276700019836,0.4418922960758209,0.18345120549201965,-0.8345752358436584,0.36997848749160767,-0.4246918261051178,-0.21575599908828735,-0.46561959385871887,1.0830811262130737,0.12569348514080048,-0.80299973487854,-0.7248929142951965,-1.2213330268859863,-0.7344369888305664,0.6810072064399719,0.6918646097183228,-0.0832391306757927,0.06245483458042145,-0.9496893286705017,0.592293381690979,0.462150514125824,-0.03957406431436539,0.25051629543304443,-0.434016615152359,-0.44428354501724243,0.41124284267425537,-0.5298594236373901,0.36248698830604553,0.5547881722450256,0.3119748532772064,-0.1581963747739792,0.07448786497116089,0.33339938521385193,-0.5655769109725952,0.13689053058624268,-0.28326255083084106,-0.920219898223877,-0.4100307524204254,-0.6184824109077454,0.14039842784404755,0.9194002151489258,-0.5264229774475098,-0.18108367919921875,0.9907805919647217,-0.47900035977363586,-0.48393380641937256,-0.5930714011192322,0.7123355865478516,-0.1744956076145172,-0.21030119061470032,0.19859391450881958,0.8258331418037415,-0.35846835374832153,-0.5392885208129883,0.2599608600139618,-0.47018495202064514,0.22198252379894257,0.25127309560775757,0.5996264815330505,-0.2549242079257965,0.08131645619869232,0.7380639314651489,-0.8651914596557617,0.6203785538673401
41,0.5619410276412964,-0.9931125640869141,-0.35054564476013184,-0.9089853763580322,0.3436886966228485,0.20806702971458435,0.27333754301071167,0.05419011786580086,-1.1617369651794434,-0.4897278845310211,0.7887887954711914,1.2543822526931763,-0.01521510910242796,0.3796011507511139,1.2278715372085571,1.0124866962432861,0.7619706392288208,0.16392068564891815,0.8665418028831482,0.3443770110607147,0.5332303047180176,0.10494598001241684,0.26717790961265564,0.13755583763122559,0.3349975347518921,1.0215764045715332,0.08573143929243088,-0.6499615907669067,-0.13132303953170776,-0.050027456134557724,0.7672829031944275,0.057399723678827286,-1.137845754623413,0.00810680165886879,0.6031932830810547,-0.029192782938480377,0.7860282063484192,-0.1545562744140625,-0.9165770411491394,-0.5433783531188965,0.3048710525035858,0.3838198781013489,0.1990443468093872,-0.8635342121124268,0.40306925773620605,-0.4548932909965515,-0.17103339731693268,-0.44990789890289307,1.0908795595169067,0.17111560702323914,-0.7910182476043701,-0.7262853384017944,-1.215969204902649,-0.7024807333946228,0.6933672428131104,0.6401059031486511,-0.07244335114955902,0.0514657124876976,-0.996625542640686,0.590792715549469,0.45234912633895874,-0.03856029734015465,0.30839285254478455,-0.4226231873035431,-0.3916628360748291,0.4655159115791321,-0.5570662021636963,0.31145986914634705,0.6020023226737976,0.28800904750823975,-0.12439528852701187,0.02662181295454502,0.32541605830192566,-0.633990466594696,0.17678000032901764,-0.2882133722305298,-0.9942646026611328,-0.40321290493011475,-0.6331298351287842,0.08626598864793777,0.8615191578865051,-0.5320123434066772,-0.2215305119752884,0.9270559549331665,-0.5042937994003296,-0.4952108860015869,-0.527614414691925,0.7496493458747864,-0.2072490155696869,-0.20382387936115265,0.23586423695087433,0.8857024908065796,-0.3909389078617096,-0.49987858533859253,0.30278295278549194,-0.5030940175056458,0.2746105492115021,0.2834120988845825,0.6560477614402771,-0.29926350712776184,0.049866460263729095,0.709604024887085,-0.8699119091033936,0.574423611164093
42,0.537865400314331,-1.0417027473449707,-0.35598307847976685,-0.8714066743850708,0.36065542697906494,0.251059353351593,0.2748658359050751,0.06573713570833206,-1.1251846551895142,-0.5220073461532593,0.7783158421516418,1.2666993141174316,-0.01694072224199772,0.4243490397930145,1.220377802848816,1.0370434522628784,0.7744101285934448,0.13977162539958954,0.8877250552177429,0.34732770919799805,0.5550521016120911,0.1642114371061325,0.27607280015945435,0.1210399642586708,0.3852631151676178,1.0811142921447754,0.06842146813869476,-0.6317204833030701,-0.07431267946958542,-0.07641248404979706,0.7241749167442322,0.10038043558597565,-1.1158658266067505,-0.028611907735466957,0.5757474899291992,-0.05042710900306702,0.808501124382019,-0.15420739352703094,-0.9480181336402893,-0.5172445774078369,0.3515055179595947,0.4391407072544098,0.20096398890018463,-0.8425347208976746,0.36288535594940186,-0.425151526927948,-0.2091885507106781,-0.47843578457832336,1.0861133337020874,0.13590677082538605,-0.7755265831947327,-0.7291677594184875,-1.1978362798690796,-0.744861900806427,0.6788718700408936,0.6960065364837646,-0.07298015058040619,0.06475883722305298,-0.9549776315689087,0.5922621488571167,0.4550285041332245,-0.035896770656108856,0.2568652033805847,-0.4246753752231598,-0.41111788153648376,0.43611520528793335,-0.5336729288101196,0.3475026488304138,0.5677754282951355,0.2922123372554779,-0.15155625343322754,0.07041390985250473,0.3480443060398102,-0.5957556366920471,0.1438133716583252,-0.26881641149520874,-0.939516544342041,-0.40152281522750854,-0.6095312237739563,0.12852665781974792,0.9057157039642334,-0.5322515368461609,-0.2071560174226761,0.9717994332313538,-0.48008590936660767,-0.4866952896118164,-0.571214497089386,0.7010166645050049,-0.17137567698955536,-0.1762986034154892,0.19612130522727966,0.8568316698074341,-0.3685855269432068,-0.5437154769897461,0.2623811662197113,-0.4883614778518677,0.23919709026813507,0.24592570960521698,0.6086580753326416,-0.26996296644210815,0.0600869283080101,0.7403510808944702,-0.8910475969314575,0.6081842184066772
43,0.5800675749778748,-0.9954525828361511,-0.3494592607021332,-0.9103610515594482,0.3429959714412689,0.21520152688026428,0.26723048090934753,0.06929882615804672,-1.1532307863235474,-0.5107545852661133,0.7802227735519409,1.2470067739486694,-0.049321189522743225,0.3791288435459137,1.2117664813995361,1.0200636386871338,0.7543568015098572,0.16040553152561188,0.8828375339508057,0.3569096624851227,0.5358853340148926,0.11739563196897507,0.2588895857334137,0.14951181411743164,0.34745556116104126,1.0685441493988037,0.08041587471961975,-0.6357837915420532,-0.12320951372385025,-0.044182807207107544,0.768649697303772,0.08318741619586945,-1.1511269807815552,0.01180767547339201,0.5854074358940125,-0.03152477368712425,0.8061177134513855,-0.162307009100914,-0.9207782745361328,-0.5405943989753723,0.3246879279613495,0.404828816652298,0.2276456505060196,-0.8655334711074829,0.38820600509643555,-0.45240622758865356,-0.17691801488399506,-0.47389504313468933,1.085220217704773,0.17222416400909424,-0.7623422741889954,-0.7299935817718506,-1.1860156059265137,-0.7306622266769409,0.6860162615776062,0.6642951369285583,-0.06924822181463242,0.059328701347112656,-0.9855011701583862,0.5945199728012085,0.4441533088684082,-0.03311138600111008,0.29312506318092346,-0.4097552001476288,-0.36495527625083923,0.47028329968452454,-0.5457023978233337,0.30669233202934265,0.5967236757278442,0.2816429138183594,-0.13028624653816223,0.043828193098306656,0.33898043632507324,-0.6472236514091492,0.16530628502368927,-0.27670660614967346,-0.9906207323074341,-0.3955721855163574,-0.631352961063385,0.08200469613075256,0.870730996131897,-0.5369768142700195,-0.2350350171327591,0.9252334237098694,-0.4911794364452362,-0.4916992783546448,-0.5244464874267578,0.7302823662757874,-0.206027552485466,-0.16797873377799988,0.21325530111789703,0.900881826877594,-0.3881528973579407,-0.5125471353530884,0.301455020904541,-0.51021808385849,0.275180846452713,0.2777078449726105,0.6500698328018188,-0.29519572854042053,0.04548170790076256,0.7234381437301636,-0.8919408917427063,0.581188440322876
44,0.5654477477073669,-1.0264503955841064,-0.35786399245262146,-0.8823514580726624,0.3594774305820465,0.2508147656917572,0.2663642168045044,0.08416125923395157,-1.1218165159225464,-0.5464485883712769,0.7658042311668396,1.2638899087905884,-0.046262290328741074,0.42288973927497864,1.1962512731552124,1.0464800596237183,0.7644102573394775,0.1441206932067871,0.8900889158248901,0.3553355932235718,0.5401191115379333,0.16028481721878052,0.2642095685005188,0.13444434106349945,0.383914053440094,1.1145968437194824,0.07017012685537338,-0.6325161457061768,-0.08107562363147736,-0.05617956444621086,0.7351170182228088,0.1157444640994072,-1.1233667135238647,-0.014846633188426495,0.5636031627655029,-0.05560854822397232,0.8158619403839111,-0.16493622958660126,-0.942552924156189,-0.5114310383796692,0.3627922236919403,0.44341424107551575,0.22250033915042877,-0.8493505120277405,0.3598562479019165,-0.4277753233909607,-0.20202235877513885,-0.49730247259140015,1.0895425081253052,0.144591823220253,-0.7439210414886475,-0.7317962050437927,-1.1705690622329712,-0.7625952363014221,0.6762515902519226,0.7030584812164307,-0.06683892011642456,0.0682377815246582,-0.9579089283943176,0.5937630534172058,0.4504603147506714,-0.027791660279035568,0.2552066147327423,-0.40904003381729126,-0.37794309854507446,0.45745551586151123,-0.5309213399887085,0.33305084705352783,0.5760110020637512,0.2796649634838104,-0.145505890250206,0.07256265729665756,0.35815438628196716,-0.6225290298461914,0.14457739889621735,-0.2583329677581787,-0.9536387324333191,-0.39202213287353516,-0.600725531578064,0.11634325236082077,0.8986305594444275,-0.5385153889656067,-0.2356262356042862,0.9550001621246338,-0.4773339331150055,-0.48352646827697754,-0.5513518452644348,0.6883965134620667,-0.1722366362810135,-0.13759101927280426,0.1850440800189972,0.8890849351882935,-0.37897789478302,-0.5489406585693359,0.2642555832862854,-0.5107530951499939,0.25070151686668396,0.2403796762228012,0.6169723868370056,-0.27959373593330383,0.041945330798625946,0.7448533177375793,-0.9188143014907837,0.599631130695343
45,0.6023425459861755,-0.9910127520561218,-0.3525846302509308,-0.9141395688056946,0.3438652455806732,0.22591529786586761,0.26068827509880066,0.08855539560317993,-1.1427600383758545,-0.5342423319816589,0.7699167132377625,1.2390084266662598,-0.0801820233464241,0.37793004512786865,1.1956729888916016,1.0277955532073975,0.7426308989524841,0.16131828725337982,0.8970550894737244,0.3693694770336151,0.5347651839256287,0.1272793710231781,0.24813124537467957,0.15834355354309082,0.3528164327144623,1.1143258810043335,0.07864104956388474,-0.6239723563194275,-0.12080772966146469,-0.03509073331952095,0.7739611268043518,0.1059025451540947,-1.1587666273117065,0.017211802303791046,0.5654835104942322,-0.03576428443193436,0.827081024646759,-0.170243501663208,-0.9201393127441406,-0.5342350602149963,0.3446052670478821,0.4198952913284302,0.2536642253398895,-0.8671895861625671,0.379474014043808,-0.45145779848098755,-0.17698931694030762,-0.5008801817893982,1.0852761268615723,0.17505446076393127,-0.7293243408203125,-0.733302116394043,-1.1540794372558594,-0.7592926621437073,0.6805762648582458,0.6840565800666809,-0.06844543665647507,0.06660832464694977,-0.9786685109138489,0.5984339714050293,0.44063398241996765,-0.021726354956626892,0.2793066203594208,-0.3918437063694,-0.33454403281211853,0.48115065693855286,-0.531777024269104,0.29960355162620544,0.5929684042930603,0.2767333388328552,-0.13125382363796234,0.06037446856498718,0.34864339232444763,-0.6635706424713135,0.15358570218086243,-0.2679178714752197,-0.9895764589309692,-0.38487523794174194,-0.627192497253418,0.07634025812149048,0.8768633008003235,-0.5414416790008545,-0.2560688555240631,0.9192076325416565,-0.47822585701942444,-0.4838835597038269,-0.5147534608840942,0.7102257609367371,-0.2056116908788681,-0.12574608623981476,0.1898343563079834,0.9246131777763367,-0.39073339104652405,-0.5238377451896667,0.30058997869491577,-0.527157187461853,0.2758744955062866,0.2683784067630768,0.6500808596611023,-0.2945777475833893,0.03799082338809967,0.7360224723815918,-0.9170289039611816,0.5839011669158936
46,0.594186007976532,-1.0116995573043823,-0.364991694688797,-0.8930258750915527,0.3598141670227051,0.25718429684638977,0.2590913772583008,0.1067039892077446,-1.1164562702178955,-0.5718396902084351,0.753859281539917,1.2580510377883911,-0.07451838254928589,0.4175044000148773,1.17615807056427,1.055923342704773,0.7531326413154602,0.14747482538223267,0.8969655632972717,0.3653469681739807,0.5280150175094604,0.16339759528636932,0.2504155933856964,0.14544439315795898,0.3815383315086365,1.151366949081421,0.07084664702415466,-0.6302303671836853,-0.08945941925048828,-0.039728887379169464,0.7467750310897827,0.13223351538181305,-1.1272225379943848,-0.0017283603083342314,0.5489169359207153,-0.0598389096558094,0.8262109756469727,-0.17508219182491302,-0.9327928423881531,-0.5039941072463989,0.37766778469085693,0.44985905289649963,0.24375507235527039,-0.8545835614204407,0.35897669196128845,-0.4303702712059021,-0.19505587220191956,-0.5227224230766296,1.0953458547592163,0.15195819735527039,-0.7107639312744141,-0.7346121668815613,-1.1406314373016357,-0.7842618227005005,0.6751058101654053,0.7121281623840332,-0.06533724814653397,0.07238402217626572,-0.9595507383346558,0.5959963798522949,0.4492722153663635,-0.014548253268003464,0.24915865063667297,-0.3881736397743225,-0.34504953026771545,0.48002389073371887,-0.5222914218902588,0.31981563568115234,0.5801547169685364,0.27234211564064026,-0.1383679360151291,0.08066656440496445,0.36416617035865784,-0.6471983194351196,0.1401464194059372,-0.2522858679294586,-0.9638626575469971,-0.3797784745693207,-0.5932666063308716,0.10701962560415268,0.8966660499572754,-0.5448074340820312,-0.26803675293922424,0.9411419630050659,-0.47189390659332275,-0.4752020835876465,-0.5319326519966125,0.6730474233627319,-0.1736835390329361,-0.09143595397472382,0.16756200790405273,0.9237985014915466,-0.39080262184143066,-0.5547938346862793,0.2657844126224518,-0.5389553308486938,0.2580922842025757,0.2322801798582077,0.6262525320053101,-0.2863006889820099,0.02605356089770794,0.7507852911949158,-0.9486326575279236,0.5917229056358337
47,0.6270312666893005,-0.9833008646965027,-0.3603731393814087,-0.9204742908477783,0.3459407389163971,0.2396523654460907,0.2550444006919861,0.11025070399045944,-1.1319514513015747,-0.5579202771186829,0.7602254152297974,1.2288039922714233,-0.10905642807483673,0.3744414150714874,1.1819005012512207,1.03616201877594,0.7293336987495422,0.16550299525260925,0.9124031662940979,0.38409939408302307,0.5316376686096191,0.1364695280790329,0.23620811104774475,0.16482482850551605,0.3513047397136688,1.1581546068191528,0.07740545272827148,-0.6125593185424805,-0.1235586479306221,-0.026686610653996468,0.7827567458152771,0.1271207630634308,-1.1611859798431396,0.02339562401175499,0.5455626249313354,-0.04039258137345314,0.8488617539405823,-0.18014393746852875,-0.9141575694084167,-0.5259124040603638,0.36395707726478577,0.4289831519126892,0.27598291635513306,-0.8684068322181702,0.3759287893772125,-0.4523082971572876,-0.1730860322713852,-0.5313170552253723,1.0906624794006348,0.1796894371509552,-0.6945464015007019,-0.7376401424407959,-1.121260404586792,-0.7879413962364197,0.6784034967422485,0.7013945579528809,-0.07074033468961716,0.07322382181882858,-0.9743496179580688,0.6030462384223938,0.44191938638687134,-0.005820068065077066,0.2669229805469513,-0.3699222505092621,-0.30291983485221863,0.4980538785457611,-0.5138248801231384,0.2907676696777344,0.589200496673584,0.2758885324001312,-0.127410888671875,0.078589528799057,0.35326695442199707,-0.6812629699707031,0.14198404550552368,-0.2632637321949005,-0.9904076457023621,-0.370612233877182,-0.6212826371192932,0.07132226973772049,0.8812486529350281,-0.5459418296813965,-0.2827123999595642,0.9118285775184631,-0.46572548151016235,-0.472883939743042,-0.5005459785461426,0.6903980374336243,-0.20671190321445465,-0.07669433951377869,0.16370710730552673,0.9552837610244751,-0.398335337638855,-0.5332186818122864,0.3010425269603729,-0.5529897809028625,0.27720949053764343,0.2569568455219269,0.6552248001098633,-0.2955983281135559,0.029650162905454636,0.7477273941040039,-0.9442649483680725,0.5826369524002075
