,0,1,2,3,4,5,6,7,8,9,10,11,12,13,14,15,16,17,18,19,20,21,22,23
0,0.0482938289642334,0.2895117998123169,0.8128533363342285,-0.5715451240539551,-0.040334105491638184,-0.5109248161315918,0.5241889953613281,-0.8866852521896362,0.5990594625473022,-0.8544784784317017,0.23352015018463135,0.15441322326660156,-0.8822809457778931,0.6885079145431519,0.24747014045715332,0.22167980670928955,-0.8247041702270508,-0.8741811513900757,0.14111697673797607,-0.19432711601257324,-0.20560169219970703,-0.8526879549026489,0.8270418643951416,0.9310067892074585
1,-0.004182656295597553,0.34198811650276184,0.865329921245575,-0.6240216493606567,0.012142430059611797,-0.5634013414382935,0.5766655206680298,-0.8866852521896362,0.5465834736824036,-0.9069548845291138,0.2859966456890106,0.10193672776222229,-0.8298043608665466,0.6360313892364502,0.24747014045715332,0.22167980670928955,-0.8247041702270508,-0.8741811513900757,0.14111697673797607,-0.24680332839488983,-0.15312550961971283,-0.8526879549026489,0.8270418643951416,0.9310067892074585
2,-0.033747438341379166,0.30941668152809143,0.9059878587722778,-0.6621964573860168,0.04981856420636177,-0.6023961305618286,0.6098245978355408,-0.8866852521896362,0.4982542395591736,-0.9087706208229065,0.3135387897491455,0.07175508886575699,-0.7891445755958557,0.6063143014907837,0.24747014045715332,0.22167980670928955,-0.8247041702270508,-0.8741811513900757,0.14111697673797607,-0.29127368330955505,-0.2042345404624939,-0.8526879549026489,0.8270418643951416,0.9310067892074585
3,-0.06369692087173462,0.31386202573776245,0.9458308815956116,-0.6975440382957458,0.0819348618388176,-0.6310043931007385,0.6478151082992554,-0.8866852521896362,0.45251691341400146,-0.8885042071342468,0.3484874665737152,0.039507463574409485,-0.7522885203361511,0.5704575181007385,0.24747014045715332,0.22167980670928955,-0.8247041702270508,-0.8741811513900757,0.14111697673797607,-0.31894204020500183,-0.24658438563346863,-0.8526879549026489,0.8270418643951416,0.9310067892074585
4,-0.0909382551908493,0.333634614944458,0.9863810539245605,-0.7326238751411438,0.11036902666091919,-0.6503973603248596,0.689504086971283,-0.8866852521896362,0.4061281085014343,-0.8479326367378235,0.387915700674057,0.007808793801814318,-0.7159534096717834,0.5312250256538391,0.24747014045715332,0.22167980670928955,-0.8247041702270508,-0.8741811513900757,0.14111697673797607,-0.3162417411804199,-0.2917298376560211,-0.8526879549026489,0.8270418643951416,0.9310067892074585
5,-0.11298488080501556,0.35743921995162964,1.0278964042663574,-0.7688379883766174,0.1361234486103058,-0.6577208638191223,0.7353249788284302,-0.8866852521896362,0.35872188210487366,-0.798581600189209,0.4317176342010498,-0.020255474373698235,-0.678973913192749,0.4890941083431244,0.24747014045715332,0.22167980670928955,-0.8247041702270508,-0.8741811513900757,0.14111697673797607,-0.28698164224624634,-0.341204434633255,-0.8526879549026489,0.8270418643951416,0.9310067892074585
6,-0.12626653909683228,0.3768906593322754,1.0701693296432495,-0.80727219581604,0.1611431986093521,-0.6507107615470886,0.7851841449737549,-0.8866852521896362,0.3106163740158081,-0.7450496554374695,0.47919368743896484,-0.03634600341320038,-0.640717625617981,0.44505831599235535,0.24747014045715332,0.22167980670928955,-0.8247041702270508,-0.8741811513900757,0.14111697673797607,-0.24892467260360718,-0.39468201994895935,-0.8526879549026489,0.8270418643951416,0.9310067892074585
7,-0.12719900906085968,0.3838224709033966,1.1131548881530762,-0.8481721878051758,0.18730194866657257,-0.6290333271026611,0.8385400176048279,-0.8866852521896362,0.261867880821228,-0.6880341172218323,0.529792308807373,-0.0254516638815403,-0.6010105609893799,0.40019524097442627,0.24747014045715332,0.22167980670928955,-0.8247041702270508,-0.8741811513900757,0.14111697673797607,-0.21118691563606262,-0.4507763087749481,-0.8526879549026489,0.8270418643951416,0.9310067892074585
8,-0.11527814716100693,0.37811702489852905,1.1570072174072266,-0.8909998536109924,0.2163991928100586,-0.5939761400222778,0.8949965834617615,-0.8866852521896362,0.21225900948047638,-0.6277826428413391,0.584639310836792,0.018054479733109474,-0.5603217482566833,0.35472166538238525,0.24747014045715332,0.22167980670928955,-0.8247041702270508,-0.8741811513900757,0.14111697673797607,-0.17680847644805908,-0.5084364414215088,-0.8526879549026489,0.8270418643951416,0.9310067892074585
9,-0.09412278980016708,0.3706459701061249,1.2018239498138428,-0.9351023435592651,0.24976253509521484,-0.5477362275123596,0.9543397426605225,-0.8866852521896362,0.16165021061897278,-0.5650029182434082,0.6451533436775208,0.08022940903902054,-0.5201276540756226,0.3090622127056122,0.24747014045715332,0.22167980670928955,-0.8247041702270508,-0.8741811513900757,0.14111697673797607,-0.14353486895561218,-0.5676407814025879,-0.8526879549026489,0.8270418643951416,0.9310067892074585
10,-0.06880120933055878,0.36813223361968994,1.2472400665283203,-0.9801455736160278,0.28776815533638,-0.4936605989933014,1.0160703659057617,-0.8866852521896362,0.11137613654136658,-0.5014031529426575,0.7104433178901672,0.14980711042881012,-0.4829350411891937,0.2664102017879486,0.24747014045715332,0.22167980670928955,-0.8247041702270508,-0.8741811513900757,0.14111697673797607,-0.10821247100830078,-0.6286556720733643,-0.8526879549026489,0.8270418643951416,0.9310067892074585
11,-0.0436234325170517,0.371974915266037,1.2925931215286255,-1.0259301662445068,0.3300234377384186,-0.4349656105041504,1.0793685913085938,-0.8866852521896362,0.06486581265926361,-0.43962806463241577,0.7787095904350281,0.22184118628501892,-0.45254409313201904,0.2323477417230606,0.24747014045715332,0.22167980670928955,-0.8247041702270508,-0.8741811513900757,0.14111697673797607,-0.07173125445842743,-0.6911008358001709,-0.8526879549026489,0.8270418643951416,0.9310067892074585
12,-0.021662767976522446,0.381276398897171,1.3373583555221558,-1.0721819400787354,0.3753150701522827,-0.37375250458717346,1.143158197402954,-0.8866852521896362,0.026681873947381973,-0.38281917572021484,0.8485507369041443,0.29405325651168823,-0.43448394536972046,0.2138921469449997,0.24747014045715332,0.22167980670928955,-0.8247041702270508,-0.8741811513900757,0.14111697673797607,-0.03665688633918762,-0.754047691822052,-0.8526879549026489,0.8270418643951416,0.9310067892074585
13,-0.005013149697333574,0.3945883512496948,1.3814016580581665,-1.1186413764953613,0.4221991002559662,-0.31091395020484924,1.206300139427185,-0.8866852521896362,0.0006774235516786575,-0.33428558707237244,0.9191587567329407,0.36559832096099854,-0.4355832636356354,0.21731969714164734,0.24747014045715332,0.22167980670928955,-0.8247041702270508,-0.8741811513900757,0.14111697673797607,-0.006043212488293648,-0.816699206829071,-0.8526879549026489,0.8270418643951416,0.9310067892074585
14,0.005020370706915855,0.4110397398471832,1.42497718334198,-1.1651809215545654,0.46961724758148193,-0.24629203975200653,1.2678366899490356,-0.8866852521896362,-0.012341363355517387,-0.2966362535953522,0.9901605248451233,0.43696942925453186,-0.4608384966850281,0.24375364184379578,0.24747014045715332,0.22167980670928955,-0.8247041702270508,-0.8741811513900757,0.14111697673797607,0.01727364771068096,-0.8789898157119751,-0.8526879549026489,0.8270418643951416,0.9310067892074585
15,0.008640780113637447,0.4294542968273163,1.4684240818023682,-1.2114897966384888,0.5170184373855591,-0.17938491702079773,1.3270683288574219,-0.8866852521896362,-0.015130359679460526,-0.2702271044254303,1.061296820640564,0.509486734867096,-0.5087341666221619,0.2874450385570526,0.24747014045715332,0.22167980670928955,-0.8247041702270508,-0.8741811513900757,0.14111697673797607,0.030443385243415833,-0.9416213631629944,-0.8526879549026489,0.8270418643951416,0.9310067892074585
16,0.00792306661605835,0.4470475912094116,1.5118200778961182,-1.2563198804855347,0.5637258887290955,-0.11064760386943817,1.3832956552505493,-0.8866852521896362,-0.012241771444678307,-0.252097487449646,1.1320253610610962,0.5836784243583679,-0.5721874833106995,0.33901315927505493,0.24747014045715332,0.22167980670928955,-0.8247041702270508,-0.8741811513900757,0.14111697673797607,0.03381146490573883,-1.0051403045654297,-0.8526879549026489,0.8270418643951416,0.9310067892074585
17,0.005459153093397617,0.45822450518608093,1.5547841787338257,-1.297196388244629,0.608977198600769,-0.042568981647491455,1.4355121850967407,-0.8866852521896362,-0.008168895728886127,-0.23678283393383026,1.2011845111846924,0.658189058303833,-0.643875777721405,0.3881271779537201,0.24747014045715332,0.22167980670928955,-0.8247041702270508,-0.8741811513900757,0.14111697673797607,0.027775075286626816,-1.0690563917160034,-0.8526879549026489,0.8270418643951416,0.9310067892074585
18,0.003514977404847741,0.4527401924133301,1.596599817276001,-1.330775499343872,0.6514928936958313,0.020983872935175896,1.4823493957519531,-0.8866852521896362,-0.005067591555416584,-0.2179301381111145,1.2669419050216675,0.7306276559829712,-0.7186639308929443,0.4238891005516052,0.24747014045715332,0.22167980670928955,-0.8247041702270508,-0.8741811513900757,0.14111697673797607,0.023388007655739784,-1.1316477060317993,-0.8526879549026489,0.8270418643951416,0.9310067892074585
19,0.001977162668481469,0.42935654520988464,1.6364006996154785,-1.3546383380889893,0.6917570233345032,0.07462767511606216,1.5223692655563354,-0.8866852521896362,-0.003545528743416071,-0.19041453301906586,1.327174186706543,0.7984791398048401,-0.7934895157814026,0.43639954924583435,0.24747014045715332,0.22167980670928955,-0.8247041702270508,-0.8741811513900757,0.14111697673797607,-0.012737410143017769,-1.1909286975860596,-0.8526879549026489,0.8270418643951416,0.9310067892074585
20,0.0020472456235438585,0.362549751996994,1.6736773252487183,-1.3645269870758057,0.7227967381477356,0.11939552426338196,1.554345726966858,-0.8866852521896362,-0.0016699708066880703,-0.15419569611549377,1.379719614982605,0.8628968596458435,-0.8667473196983337,0.42402490973472595,0.24747014045715332,0.22167980670928955,-0.8247041702270508,-0.8741811513900757,0.14111697673797607,0.07317300140857697,-1.243912935256958,-0.8526879549026489,0.8270418643951416,0.9310067892074585
21,-0.0014596593100577593,0.3449300229549408,1.7080967426300049,-1.3782293796539307,0.7687597274780273,0.13127994537353516,1.577663540840149,-0.8866852521896362,-0.0035703317262232304,-0.1103726476430893,1.4239290952682495,0.9159698486328125,-0.937714159488678,0.39484652876853943,0.24747014045715332,0.22167980670928955,-0.8247041702270508,-0.8741811513900757,0.14111697673797607,-0.054332438856363297,-1.293723464012146,-0.8526879549026489,0.8270418643951416,0.9310067892074585
22,0.00905781239271164,0.23406465351581573,1.7391631603240967,-1.3598966598510742,0.785836935043335,0.15900875627994537,1.5924307107925415,-0.8866852521896362,0.006396893877536058,-0.08318594098091125,1.4582456350326538,0.977069616317749,-1.005753755569458,0.3633746802806854,0.24747014045715332,0.22167980670928955,-0.8247041702270508,-0.8741811513900757,0.14111697673797607,0.0025884932838380337,-1.332619309425354,-0.8526879549026489,0.8270418643951416,0.9310067892074585
23,-0.02864503115415573,0.18205958604812622,1.7680556774139404,-1.361437201499939,0.8164122700691223,0.1546754390001297,1.599727988243103,-0.8866852521896362,-0.027462083846330643,-0.040823910385370255,1.4840823411941528,1.0268625020980835,-1.0706019401550293,0.3254871964454651,0.24747014045715332,0.22167980670928955,-0.8247041702270508,-0.8741811513900757,0.14111697673797607,-0.0540025420486927,-1.3678752183914185,-0.8526879549026489,0.8270418643951416,0.9310067892074585
24,0.0676690861582756,0.10149252414703369,1.7937926054000854,-1.347275972366333,0.8355085849761963,0.15932142734527588,1.6014119386672974,-0.8866852521896362,0.06418968737125397,-0.023134542629122734,1.5017729997634888,1.079711675643921,-1.1317391395568848,0.2943452000617981,0.24747014045715332,0.22167980670928955,-0.8247041702270508,-0.8741811513900757,0.14111697673797607,-0.035910479724407196,-1.3960434198379517,-0.8526879549026489,0.8270418643951416,0.9310067892074585
25,-0.05246870219707489,0.03413848578929901,1.8172502517700195,-1.348119854927063,0.8588595390319824,0.1485711634159088,1.5995279550552368,-0.8866852521896362,-0.05614617466926575,-0.002295711077749729,1.5131255388259888,1.1254608631134033,-1.1886913776397705,0.26375311613082886,0.24747014045715332,0.22167980670928955,-0.8247041702270508,-0.8741811513900757,0.14111697673797607,-0.06324370950460434,-1.4209322929382324,-0.8526879549026489,0.8270418643951416,0.9310067892074585
26,0.02284620702266693,-0.012876003980636597,1.837944746017456,-1.3412563800811768,0.8767106533050537,0.14455798268318176,1.5957623720169067,-0.8866852521896362,0.024102162569761276,0.007283719256520271,1.5194767713546753,1.1709859371185303,-1.2414805889129639,0.23897641897201538,0.24747014045715332,0.22167980670928955,-0.8247041702270508,-0.8741811513900757,0.14111697673797607,-0.05158315971493721,-1.441509485244751,-0.8526879549026489,0.8270418643951416,0.9310067892074585
27,-0.00970824807882309,-0.03222968429327011,1.8565748929977417,-1.3460137844085693,0.8956665396690369,0.13204510509967804,1.5913745164871216,-0.8866852521896362,-0.010840138420462608,0.010845894925296307,1.5223875045776367,1.2103121280670166,-1.290089726448059,0.21492581069469452,0.24747014045715332,0.22167980670928955,-0.8247041702270508,-0.8741811513900757,0.14111697673797607,-0.06809388846158981,-1.4600943326950073,-0.8526879549026489,0.8270418643951416,0.9310067892074585
28,0.00345346936956048,-0.04130111262202263,1.8728442192077637,-1.3433467149734497,0.9106367826461792,0.1269337385892868,1.5871820449829102,-0.8866852521896362,0.00374656543135643,0.009711471386253834,1.5229284763336182,1.2480558156967163,-1.3343952894210815,0.19578337669372559,0.24747014045715332,0.22167980670928955,-0.8247041702270508,-0.8741811513900757,0.14111697673797607,-0.05608294904232025,-1.47576904296875,-0.8526879549026489,0.8270418643951416,0.9310067892074585
29,-0.0019763954915106297,-0.044265054166316986,1.8874306678771973,-1.3503291606903076,0.9258422255516052,0.11574122309684753,1.5835542678833008,-0.8866852521896362,-0.002430093940347433,0.008511134423315525,1.5220167636871338,1.2792370319366455,-1.374501347541809,0.17670246958732605,0.24747014045715332,0.22167980670928955,-0.8247041702270508,-0.8741811513900757,0.14111697673797607,-0.0707850307226181,-1.4900355339050293,-0.8526879549026489,0.8270418643951416,0.9310067892074585
30,0.0005535977543331683,-0.04361883923411369,1.900012493133545,-1.347896933555603,0.9376705884933472,0.11331212520599365,1.5806041955947876,-0.8866852521896362,0.0006079956656321883,0.006611294578760862,1.5202828645706177,1.3088384866714478,-1.4103766679763794,0.16254116594791412,0.24747014045715332,0.22167980670928955,-0.8247041702270508,-0.8741811513900757,0.14111697673797607,-0.05719677358865738,-1.5020103454589844,-0.8526879549026489,0.8270418643951416,0.9310067892074585
31,-0.0006025484763085842,-0.04152759909629822,1.9113065004348755,-1.3562690019607544,0.9497209787368774,0.10390789061784744,1.5782933235168457,-0.8866852521896362,-0.0008277426823042333,0.005151061806827784,1.518117904663086,1.3315757513046265,-1.4421720504760742,0.14738696813583374,0.24747014045715332,0.22167980670928955,-0.8247041702270508,-0.8741811513900757,0.14111697673797607,-0.07444116473197937,-1.5130865573883057,-0.8526879549026489,0.8270418643951416,0.9310067892074585
32,6.147460953798145e-05,-0.03805059194564819,1.920828938484192,-1.3518232107162476,0.9587050080299377,0.10529022663831711,1.5765254497528076,-0.8866852521896362,5.409432924352586e-05,0.003707961179316044,1.515885591506958,1.35385262966156,-1.4699090719223022,0.13798180222511292,0.24747014045715332,0.22167980670928955,-0.8247041702270508,-0.8741811513900757,0.14111697673797607,-0.05654750019311905,-1.5221326351165771,-0.8526879549026489,0.8270418643951416,0.9310067892074585
33,-0.0002586294722277671,-0.03469226136803627,1.929464340209961,-1.3623497486114502,0.968228816986084,0.09621138125658035,1.5751878023147583,-0.8866852521896362,-0.0003861490695271641,0.002739952178671956,1.5136138200759888,1.36862051486969,-1.4938437938690186,0.12570470571517944,0.24747014045715332,0.22167980670928955,-0.8247041702270508,-0.8741811513900757,0.14111697673797607,-0.07989799976348877,-1.5307236909866333,-0.8526879549026489,0.8270418643951416,0.9310067892074585
34,-2.6505455025471747e-05,-0.03071044385433197,1.936420202255249,-1.3537603616714478,0.9746926426887512,0.10202335566282272,1.574179768562317,-0.8866852521896362,-4.68679063487798e-05,0.0018060172442346811,1.5116150379180908,1.3851447105407715,-1.5140470266342163,0.12117310613393784,0.24747014045715332,0.22167980670928955,-0.8247041702270508,-0.8741811513900757,0.14111697673797607,-0.053452394902706146,-1.5372307300567627,-0.8526879549026489,0.8270418643951416,0.9310067892074585
35,-0.00013788032811135054,-0.027402857318520546,1.9429441690444946,-1.3684927225112915,0.9822252988815308,0.09082887321710587,1.5734180212020874,-0.8866852521896362,-0.00021597344311885536,0.001324726501479745,1.5096192359924316,1.3925633430480957,-1.5309035778045654,0.11033288389444351,0.24747014045715332,0.22167980670928955,-0.8247041702270508,-0.8741811513900757,0.14111697673797607,-0.08744953572750092,-1.5437794923782349,-0.8526879549026489,0.8270418643951416,0.9310067892074585
36,-3.495484997984022e-05,-0.023636462166905403,1.9477124214172363,-1.3529618978500366,0.9864025115966797,0.10235308855772018,1.5728394985198975,-0.8866852521896362,-5.454363417811692e-05,0.000729905441403389,1.5080974102020264,1.405390739440918,-1.5444775819778442,0.1112995371222496,0.24747014045715332,0.22167980670928955,-0.8247041702270508,-0.8741811513900757,0.14111697673797607,-0.04740361496806145,-1.547911524772644,-0.8526879549026489,0.8270418643951416,0.9310067892074585
37,-8.305368828587234e-05,-0.02076486498117447,1.9525974988937378,-1.3749479055404663,0.9923818707466125,0.08614674210548401,1.5723968744277954,-0.8866852521896362,-0.00013309798669070005,0.0006107810186222196,1.506415605545044,1.4058705568313599,-1.5553011894226074,0.09976296126842499,0.24747014045715332,0.22167980670928955,-0.8247041702270508,-0.8741811513900757,0.14111697673797607,-0.09599479287862778,-1.55276620388031,-0.8526879549026489,0.8270418643951416,0.9310067892074585
38,-2.774689346551895e-05,-0.017433959990739822,1.9555031061172485,-1.3497669696807861,0.9944939613342285,0.10497855395078659,1.5720558166503906,-0.8866852521896362,-4.326643829699606e-05,0.00018511340022087097,1.5054254531860352,1.4171677827835083,-1.5633372068405151,0.10748735815286636,0.24747014045715332,0.22167980670928955,-0.8247041702270508,-0.8741811513900757,0.14111697673797607,-0.04091767594218254,-1.554669737815857,-0.8526879549026489,0.8270418643951416,0.9310067892074585
39,-5.376222179620527e-05,-0.015040871687233448,1.9590849876403809,-1.3805887699127197,0.9991649389266968,0.08211369067430496,1.571791172027588,-0.8866852521896362,-8.673634147271514e-05,0.0003197789192199707,1.5039753913879395,1.411232352256775,-1.5693061351776123,0.09269428998231888,0.24747014045715332,0.22167980670928955,-0.8247041702270508,-0.8741811513900757,0.14111697673797607,-0.10100541263818741,-1.5580973625183105,-0.8526879549026489,0.8270418643951416,0.9310067892074585
40,-1.9005117792403325e-05,-0.012250050902366638,1.960512399673462,-1.3468865156173706,0.9996283054351807,0.10751476883888245,1.5715843439102173,-0.8866852521896362,-3.02746775560081e-05,-5.3922529332339764e-05,1.5034756660461426,1.4222947359085083,-1.5729557275772095,0.10813570767641068,0.24747014045715332,0.22167980670928955,-0.8247041702270508,-0.8741811513900757,0.14111697673797607,-0.03910786658525467,-1.558140516281128,-0.8526879549026489,0.8270418643951416,0.9310067892074585
41,-3.6616340366890654e-05,-0.010271750390529633,1.9629294872283936,-1.3826040029525757,1.002960205078125,0.08032350987195969,1.5714221000671387,-0.8866852521896362,-5.883838821318932e-05,0.00024280755314975977,1.5022060871124268,1.4115945100784302,-1.5752391815185547,0.08901224285364151,0.24747014045715332,0.22167980670928955,-0.8247041702270508,-0.8741811513900757,0.14111697673797607,-0.0992719754576683,-1.5602469444274902,-0.8526879549026489,0.8270418643951416,0.9310067892074585
42,-1.1698048183461651e-05,-0.008054469712078571,1.9632964134216309,-1.346869945526123,1.0023813247680664,0.10792088508605957,1.5712940692901611,-0.8866852521896362,-1.935600084834732e-05,-0.00012730818707495928,1.5020534992218018,1.4220752716064453,-1.575631022453308,0.11050450056791306,0.24747014045715332,0.22167980670928955,-0.8247041702270508,-0.8741811513900757,0.14111697673797607,-0.04214414209127426,-1.5590236186981201,-0.8526879549026489,0.8270418643951416,0.9310067892074585
43,-2.614951335999649e-05,-0.006469149142503738,1.9646415710449219,-1.3808071613311768,1.0043731927871704,0.08103734254837036,1.5711930990219116,-0.8866852521896362,-4.1501720261294395e-05,0.0002445029967930168,1.5009863376617432,1.4092209339141846,-1.575277328491211,0.08920525759458542,0.24747014045715332,0.22167980670928955,-0.8247041702270508,-0.8741811513900757,0.14111697673797607,-0.0937749370932579,-1.5599173307418823,-0.8526879549026489,0.8270418643951416,0.9310067892074585
44,-6.063633918529376e-06,-0.004800815135240555,1.964249610900879,-1.348613977432251,1.0031687021255493,0.10667591542005539,1.5711126327514648,-0.8866852521896362,-1.0891522833844647e-05,-0.0001233790535479784,1.5010119676589966,1.4181876182556152,-1.5734530687332153,0.11276494711637497,0.24747014045715332,0.22167980670928955,-0.8247041702270508,-0.8741811513900757,0.14111697673797607,-0.04635608568787575,-1.5579525232315063,-0.8526879549026489,0.8270418643951416,0.9310067892074585
45,-1.9767903722822666e-05,-0.003619543742388487,1.964687466621399,-1.3775591850280762,1.0040628910064697,0.08286112546920776,1.5710489749908447,-0.8866852521896362,-3.069671947741881e-05,0.0002576951519586146,1.5001599788665771,1.4052317142486572,-1.5713558197021484,0.09235265851020813,0.24747014045715332,0.22167980670928955,-0.8247041702270508,-0.8741811513900757,0.14111697673797607,-0.08803591877222061,-1.5578992366790771,-0.8526879549026489,0.8270418643951416,0.9310067892074585
46,-1.6770482034189627e-06,-0.0024505306500941515,1.963724970817566,-1.350345253944397,1.0023961067199707,0.10505152493715286,1.570998191833496,-0.8866852521896362,-4.373021511128172e-06,-9.981947368942201e-05,1.500259518623352,1.4123880863189697,-1.5681976079940796,0.11491680145263672,0.24747014045715332,0.22167980670928955,-0.8247041702270508,-0.8741811513900757,0.14111697673797607,-0.04971335083246231,-1.5555505752563477,-0.8526879549026489,0.8270418643951416,0.9310067892074585
47,-1.6126396076288074e-05,-0.0016568150604143739,1.963449478149414,-1.374392032623291,1.0025041103363037,0.08471672981977463,1.5709580183029175,-0.8866852521896362,-2.421073440928012e-05,0.00026000794605351985,1.4995958805084229,1.4002711772918701,-1.5650999546051025,0.09680035710334778,0.24747014045715332,0.22167980670928955,-0.8247041702270508,-0.8741811513900757,0.14111697673797607,-0.08338102698326111,-1.5548900365829468,-0.8526879549026489,0.8270418643951416,0.9310067892074585
48,2.0097668311791494e-06,-0.0009110079263336957,1.9620496034622192,-1.3514454364776611,1.0004665851593018,0.10371652245521545,1.5709258317947388,-0.8866852521896362,9.098093869397417e-07,-8.578284177929163e-05,1.4997234344482422,1.4059566259384155,-1.561297059059143,0.11729475110769272,0.24747014045715332,0.22167980670928955,-0.8247041702270508,-0.8741811513900757,0.14111697673797607,-0.05191288888454437,-1.552409052848816,-0.8526879549026489,0.8270418643951416,0.9310067892074585
49,-1.4549255865858868e-05,-0.0004474528832361102,1.9612386226654053,-1.3717827796936035,1.0000495910644531,0.08621661365032196,1.570900321006775,-0.8866852521896362,-2.0843639504164457e-05,0.00025122583610937,1.4992036819458008,1.3949079513549805,-1.5577865839004517,0.10139863938093185,0.24747014045715332,0.22167980670928955,-0.8247041702270508,-0.8741811513900757,0.14111697673797607,-0.07997460663318634,-1.5514545440673828,-0.8526879549026489,0.8270418643951416,0.9310067892074585
50,5.5728214647388086e-06,-2.72811739705503e-05,1.9595075845718384,-1.3519235849380493,0.9977349638938904,0.10284260660409927,1.5708796977996826,-0.8866852521896362,5.703237548004836e-06,-8.930161129683256e-05,1.4993414878845215,1.3996821641921997,-1.553844690322876,0.11991087347269058,0.24747014045715332,0.22167980670928955,-0.8247041702270508,-0.8741811513900757,0.14111697673797607,-0.053207650780677795,-1.5490238666534424,-0.8526879549026489,0.8270418643951416,0.9310067892074585
51,-1.4825198377366178e-05,0.00018857406394090503,1.9583100080490112,-1.369797706604004,0.9969989061355591,0.08731012046337128,1.5708632469177246,-0.8866852521896362,-2.00679169211071e-05,0.00023950340982992202,1.4989228248596191,1.3896292448043823,-1.5503532886505127,0.10557329654693604,0.24747014045715332,0.22167980670928955,-0.8247041702270508,-0.8741811513900757,0.14111697673797607,-0.07766985893249512,-1.5480198860168457,-0.8526879549026489,0.8270418643951416,0.9310067892074585
52,9.685771146905608e-06,0.0003856089897453785,1.956335425376892,-1.3519361019134521,0.9945017099380493,0.10241138190031052,1.5708500146865845,-0.8866852521896362,1.0832993211806752e-05,-0.00010890259000007063,1.499064564704895,1.3940263986587524,-1.5466183423995972,0.12260253727436066,0.24747014045715332,0.22167980670928955,-0.8247041702270508,-0.8741811513900757,0.14111697673797607,-0.05388683080673218,-1.5457619428634644,-0.8526879549026489,0.8270418643951416,0.9310067892074585
53,-1.719094143481925e-05,0.00043929056846536696,1.9548715353012085,-1.3684006929397583,0.9936143159866333,0.08803900331258774,1.570839524269104,-0.8866852521896362,-2.1934502001386136e-05,0.0002343966334592551,1.4987132549285889,1.3847848176956177,-1.5434362888336182,0.10906495898962021,0.24747014045715332,0.22167980670928955,-0.8247041702270508,-0.8741811513900757,0.14111697673797607,-0.07629372179508209,-1.5448790788650513,-0.8526879549026489,0.8270418643951416,0.9310067892074585
54,1.530207009636797e-05,0.0005037791561335325,1.9527238607406616,-1.3516191244125366,0.9910192489624023,0.10236595571041107,1.570831060409546,-0.8866852521896362,1.7383279555360787e-05,-0.00014237240247894078,1.4988588094711304,1.3892430067062378,-1.5401204824447632,0.12520918250083923,0.24747014045715332,0.22167980670928955,-0.8247041702270508,-0.8741811513900757,0.14111697673797607,-0.05414856970310211,-1.5428615808486938,-0.8526879549026489,0.8270418643951416,0.9310067892074585
55,-2.2492256903205998e-05,0.00046699255472049117,1.951088547706604,-1.3675460815429688,0.9901211857795715,0.08844465762376785,1.570824384689331,-0.8866852521896362,-2.718861651374027e-05,0.00024460209533572197,1.4985500574111938,1.3805766105651855,-1.537418246269226,0.11176225543022156,0.24747014045715332,0.22167980670928955,-0.8247041702270508,-0.8741811513900757,0.14111697673797607,-0.07571171224117279,-1.5422061681747437,-0.8526879549026489,0.8270418643951416,0.9310067892074585
56,2.4012357243918814e-05,0.0004677014658227563,1.9488214254379272,-1.3510510921478271,0.9874956011772156,0.10266192257404327,1.5708189010620117,-0.8866852521896362,2.705502265598625e-05,-0.00019131536828354,1.4987025260925293,1.3854471445083618,-1.5346267223358154,0.1276399791240692,0.24747014045715332,0.22167980670928955,-0.8247041702270508,-0.8741811513900757,0.14111697673797607,-0.054094623774290085,-1.5404491424560547,-0.8526879549026489,0.8270418643951416,0.9310067892074585
57,-3.262770042056218e-05,0.0003904971817974001,1.9470881223678589,-1.3672019243240356,0.9867070913314819,0.08854415267705917,1.5708144903182983,-0.8866852521896362,-3.767870657611638e-05,0.00027902782312594354,1.4984183311462402,1.3770792484283447,-1.5324811935424805,0.11362413316965103,0.24747014045715332,0.22167980670928955,-0.8247041702270508,-0.8741811513900757,0.14111697673797607,-0.07583405077457428,-1.5400779247283936,-0.8526879549026489,0.8270418643951416,0.9310067892074585
58,3.87718973797746e-05,0.00037288456223905087,1.9447394609451294,-1.3502546548843384,0.9840977191925049,0.10328040271997452,1.5708110332489014,-0.8866852521896362,4.288032141630538e-05,-0.00026348541723564267,1.498583197593689,1.3826600313186646,-1.5302371978759766,0.1298816204071045,0.24747014045715332,0.22167980670928955,-0.8247041702270508,-0.8741811513900757,0.14111697673797607,-0.053752414882183075,-1.5385627746582031,-0.8526879549026489,0.8270418643951416,0.9310067892074585
59,-5.156420957064256e-05,0.0002836991916410625,1.9429646730422974,-1.367353916168213,0.9835226535797119,0.08832916617393494,1.5708081722259521,-0.8866852521896362,-5.7321849453728646e-05,0.000350257963873446,1.4983102083206177,1.3742684125900269,-1.528657078742981,0.11464306712150574,0.24747014045715332,0.22167980670928955,-0.8247041702270508,-0.8741811513900757,0.14111697673797607,-0.07660845667123795,-1.5384982824325562,-0.8526879549026489,0.8270418643951416,0.9310067892074585
60,6.545981887029484e-05,0.000274563004495576,1.9405580759048462,-1.3492099046707153,0.9809540510177612,0.10422805696725845,1.5708059072494507,-0.8866852521896362,7.071925210766494e-05,-0.00037561243516393006,1.4984946250915527,1.3808410167694092,-1.5269263982772827,0.13198597729206085,0.24747014045715332,0.22167980670928955,-0.8247041702270508,-0.8741811513900757,0.14111697673797607,-0.0530998669564724,-1.5371780395507812,-0.8526879549026489,0.8270418643951416,0.9310067892074585
61,-8.762655488681048e-05,0.0001844541693571955,1.9387850761413574,-1.368001103401184,0.9806833863258362,0.0877729058265686,1.5708041191101074,-0.8866852521896362,-9.426793258171529e-05,0.00048055569641292095,1.4982216358184814,1.3720508813858032,-1.5258759260177612,0.11482707411050797,0.24747014045715332,0.22167980670928955,-0.8247041702270508,-0.8741811513900757,0.14111697673797607,-0.07800690829753876,-1.5374224185943604,-0.8526879549026489,0.8270418643951416,0.9310067892074585
62,0.00011637097486527637,0.0001994700141949579,1.936331868171692,-1.347872257232666,0.9781581163406372,0.10552852600812912,1.5708025693893433,-0.8866852521896362,0.00012253905879333615,-0.000559651292860508,1.4984337091445923,1.3799132108688354,-1.5245871543884277,0.1340482532978058,0.24747014045715332,0.22167980670928955,-0.8247041702270508,-0.8741811513900757,0.14111697673797607,-0.0520942285656929,-1.5362311601638794,-0.8526879549026489,0.8270418643951416,0.9310067892074585
63,-0.00015876410179771483,0.00010681400453904644,1.934593915939331,-1.3691424131393433,0.9782711863517761,0.08684413135051727,1.5708013772964478,-0.8866852521896362,-0.00016580212104599923,0.0007125816191546619,1.4981504678726196,1.3702937364578247,-1.5240058898925781,0.11419541388750076,0.24747014045715332,0.22167980670928955,-0.8247041702270508,-0.8741811513900757,0.14111697673797607,-0.08000238239765167,-1.5367774963378906,-0.8526879549026489,0.8270418643951416,0.9310067892074585
64,0.00021833297796547413,0.00015895083197392523,1.9320961236953735,-1.346203327178955,0.9757728576660156,0.10720248520374298,1.5708003044128418,-0.8866852521896362,0.00022388188517652452,-0.0008767069084569812,1.4983989000320435,1.3797760009765625,-1.5230673551559448,0.13617561757564545,0.24747014045715332,0.22167980670928955,-0.8247041702270508,-0.8741811513900757,0.14111697673797607,-0.05071277171373367,-1.5356383323669434,-0.8526879549026489,0.8270418643951416,0.9310067892074585
65,-0.00030504356254823506,5.189188232179731e-05,1.9304183721542358,-1.3707472085952759,0.9763352274894714,0.08553652465343475,1.5707995891571045,-0.8866852521896362,-0.0003097589942626655,0.001130583113990724,1.4980957508087158,1.368855357170105,-1.5228850841522217,0.11279740929603577,0.24747014045715332,0.22167980670928955,-0.8247041702270508,-0.8741811513900757,0.14111697673797607,-0.08252300322055817,-1.536476731300354,-0.8526879549026489,0.8270418643951416,0.9310067892074585
66,0.0004322584136389196,0.0001608996681170538,1.927871823310852,-1.344219446182251,0.9738369584083557,0.10922708362340927,1.5707989931106567,-0.8866852521896362,0.00043147947872057557,-0.0014472334878519177,1.4983879327774048,1.3803049325942993,-1.522197961807251,0.13843458890914917,0.24747014045715332,0.22167980670928955,-0.8247041702270508,-0.8741811513900757,0.14111697673797607,-0.049015529453754425,-1.535312294960022,-0.8526879549026489,0.8270418643951416,0.9310067892074585
67,-0.0006192834116518497,1.530050576548092e-05,1.9262707233428955,-1.3726983070373535,0.9748927354812622,0.08391956984996796,1.570798397064209,-0.8866852521896362,-0.0006119455792941153,0.0019050529226660728,1.4980573654174805,1.3676245212554932,-1.5223451852798462,0.11076097190380096,0.24747014045715332,0.22167980670928955,-0.8247041702270508,-0.8741811513900757,0.14111697673797607,-0.08538326621055603,-1.5364303588867188,-0.8526879549026489,0.8270418643951416,0.9310067892074585
68,0.0009018763666972518,0.00022095348685979843,1.9236711263656616,-1.3420627117156982,0.9723737239837646,0.11147276312112808,1.5707980394363403,-0.8866852521896362,0.0008762386860325933,-0.0025165427941828966,1.4983975887298584,1.3813329935073853,-1.5218148231506348,0.14077128469944,0.24747014045715332,0.22167980670928955,-0.8247041702270508,-0.8741811513900757,0.14111697673797607,-0.047222428023815155,-1.535175085067749,-0.8526879549026489,0.8270418643951416,0.9310067892074585
69,-0.0013247320894151926,-1.0485618076927494e-05,1.922152042388916,-1.3747265338897705,0.9739317297935486,0.08220355212688446,1.5707978010177612,-0.8866852521896362,-0.0012742175022140145,0.003389441641047597,1.4980363845825195,1.3665688037872314,-1.5222266912460327,0.10836735367774963,0.24747014045715332,0.22167980670928955,-0.8247041702270508,-0.8741811513900757,0.14111697673797607,-0.08821875602006912,-1.5365501642227173,-0.8526879549026489,0.8270418643951416,0.9310067892074585
70,0.0019791838712990284,0.00037314725341275334,1.919501781463623,-1.3400530815124512,0.9714043736457825,0.11364632844924927,1.5707974433898926,-0.8866852521896362,0.001871571410447359,-0.004596974700689316,1.4984216690063477,1.3826234340667725,-1.5217729806900024,0.14292781054973602,0.24747014045715332,0.22167980670928955,-0.8247041702270508,-0.8741811513900757,0.14111697673797607,-0.045749481767416,-1.5351665019989014,-0.8526879549026489,0.8270418643951416,0.9310067892074585
71,-0.00297794328071177,-4.923532105749473e-05,1.9180545806884766,-1.3764004707336426,0.9734259843826294,0.08076349645853043,1.5707972049713135,-0.8866852521896362,-0.0027884822338819504,0.006326549220830202,1.4980345964431763,1.3657691478729248,-1.5223881006240845,0.10609216243028641,0.24747014045715332,0.22167980670928955,-0.8247041702270508,-0.8741811513900757,0.14111697673797607,-0.09051061421632767,-1.536753535270691,-0.8526879549026489,0.8270418643951416,0.9310067892074585
72,0.004554507322609425,0.0006618155166506767,1.9153679609298706,-1.3386359214782715,0.9709618091583252,0.11532313376665115,1.570797085762024,-0.8866852521896362,0.004192597232758999,-0.008757983334362507,1.4984509944915771,1.3838727474212646,-1.5219554901123047,0.14445190131664276,0.24747014045715332,0.22167980670928955,-0.8247041702270508,-0.8741811513900757,0.14111697673797607,-0.04510395601391792,-1.5352474451065063,-0.8526879549026489,0.8270418643951416,0.9310067892074585
73,-0.007000981364399195,-0.0002365542750339955,1.9139657020568848,-1.377260446548462,0.9733648300170898,0.08003257215023041,1.5707969665527344,-0.8866852521896362,-0.006384784821420908,0.012222790159285069,1.4980525970458984,1.3653937578201294,-1.5227116346359253,0.10449600964784622,0.24747014045715332,0.22167980670928955,-0.8247041702270508,-0.8741811513900757,0.14111697673797607,-0.0917794331908226,-1.5369689464569092,-0.8526879549026489,0.8270418643951416,0.9310067892074585
74,0.010890414007008076,0.0009581209742464125,1.9112683534622192,-1.3381686210632324,0.9710978865623474,0.11613260209560394,1.5707968473434448,-0.8866852521896362,0.009773477911949158,-0.017010217532515526,1.4984766244888306,1.3847907781600952,-1.5222744941711426,0.14489829540252686,0.24747014045715332,0.22167980670928955,-0.8247041702270508,-0.8741811513900757,0.14111697673797607,-0.04562874883413315,-1.5353896617889404,-0.8526879549026489,0.8270418643951416,0.9310067892074585
75,-0.01687522605061531,-0.001403435249812901,1.9098737239837646,-1.3770605325698853,0.9737844467163086,0.08027466386556625,1.5707967281341553,-0.8866852521896362,-0.015046965330839157,0.023411858826875687,1.49808669090271,1.365580677986145,-1.5231068134307861,0.103946752846241,0.24747014045715332,0.22167980670928955,-0.8247041702270508,-0.8741811513900757,0.14111697673797607,-0.0918547660112381,-1.5371423959732056,-0.8526879549026489,0.8270418643951416,0.9310067892074585
76,0.025843758136034012,-0.00043883922626264393,1.9071937799453735,-1.3386934995651245,0.9718779921531677,0.11598776280879974,1.5707966089248657,-0.8866852521896362,0.0228404700756073,-0.031147370114922523,1.4984915256500244,1.3852258920669556,-1.5226621627807617,0.144118994474411,0.24747014045715332,0.22167980670928955,-0.8247041702270508,-0.8741811513900757,0.14111697673797607,-0.04730188846588135,-1.5355606079101562,-0.8526879549026489,0.8270418643951416,0.9310067892074585
77,-0.0375678725540638,-0.008230604231357574,1.905768632888794,-1.3758846521377563,0.974764883518219,0.08144938945770264,1.5707966089248657,-0.8866852521896362,-0.03355399891734123,0.03879902884364128,1.498125672340393,1.3663071393966675,-1.5235179662704468,0.10441648215055466,0.24747014045715332,0.22167980670928955,-0.8247041702270508,-0.8741811513900757,0.14111697673797607,-0.0909600555896759,-1.5372341871261597,-0.8526879549026489,0.8270418643951416,0.9310067892074585
78,0.04895210266113281,-0.013269060291349888,1.903125286102295,-1.3399250507354736,0.9733827114105225,0.11512725800275803,1.5707964897155762,-0.8866852521896362,0.04476027563214302,-0.04387998208403587,1.4984848499298096,1.3852168321609497,-1.5230340957641602,0.1423438936471939,0.24747014045715332,0.22167980670928955,-0.8247041702270508,-0.8741811513900757,0.14111697673797607,-0.04980356991291046,-1.5357120037078857,-0.8526879549026489,0.8270418643951416,0.9310067892074585
79,-0.05324786528944969,-0.03444507718086243,1.9016399383544922,-1.3740633726119995,0.9763831496238708,0.08327723294496536,1.5707964897155762,-0.8866852521896362,-0.051406510174274445,0.04350178688764572,1.4981540441513062,1.367340087890625,-1.5239615440368652,0.10554458200931549,0.24747014045715332,0.22167980670928955,-0.8247041702270508,-0.8741811513900757,0.14111697673797607,-0.08951445668935776,-1.5372084379196167,-0.8526879549026489,0.8270418643951416,0.9310067892074585
80,0.04689701274037361,-0.04514447972178459,1.899038314819336,-1.3414784669876099,0.9756874442100525,0.11391923576593399,1.5707964897155762,-0.8866852521896362,0.04799208417534828,-0.03947718068957329,1.4984740018844604,1.3850150108337402,-1.523298740386963,0.14010025560855865,0.24747014045715332,0.22167980670928955,-0.8247041702270508,-0.8741811513900757,0.14111697673797607,-0.052551500499248505,-1.5358288288116455,-0.8526879549026489,0.8270418643951416,0.9310067892074585
81,-0.03520766645669937,-0.056175462901592255,1.8974783420562744,-1.3723013401031494,0.9787266850471497,0.0850987657904625,1.5707964897155762,-0.8866852521896362,-0.038548048585653305,0.03175840154290199,1.4982578754425049,1.3685303926467896,-1.5243898630142212,0.10669250786304474,0.24747014045715332,0.22167980670928955,-0.8247041702270508,-0.8741811513900757,0.14111697673797607,-0.08788534253835678,-1.537125587463379,-0.8526879549026489,0.8270418643951416,0.9310067892074585
82,0.024219200015068054,-0.04578077793121338,1.894916296005249,-1.3430187702178955,0.9786248207092285,0.11266588419675827,1.5707964897155762,-0.8866852521896362,0.0282968208193779,-0.02603195235133171,1.4985785484313965,1.3848508596420288,-1.52371346950531,0.1379498392343521,0.24747014045715332,0.22167980670928955,-0.8247041702270508,-0.8741811513900757,0.14111697673797607,-0.054828912019729614,-1.5359362363815308,-0.8526879549026489,0.8270418643951416,0.9310067892074585
83,-0.016592517495155334,-0.03830701485276222,1.893282175064087,-1.3707259893417358,0.9818507432937622,0.08660575747489929,1.5707963705062866,-0.8866852521896362,-0.020733613520860672,0.019309256225824356,1.4984092712402344,1.369810938835144,-1.524656891822815,0.10762367397546768,0.24747014045715332,0.22167980670928955,-0.8247041702270508,-0.8741811513900757,0.14111697673797607,-0.08658834546804428,-1.5370773077011108,-0.8526879549026489,0.8270418643951416,0.9310067892074585
84,0.011640721000730991,-0.024240627884864807,1.890738606452942,-1.3440916538238525,0.9821786284446716,0.11172367632389069,1.5707963705062866,-0.8866852521896362,0.015378947369754314,-0.015405949205160141,1.4986839294433594,1.3845951557159424,-1.5241957902908325,0.13594163954257965,0.24747014045715332,0.22167980670928955,-0.8247041702270508,-0.8741811513900757,0.14111697673797607,-0.05693347752094269,-1.5359365940093994,-0.8526879549026489,0.8270418643951416,0.9310067892074585
85,-0.008513480424880981,-0.017230261117219925,1.889020562171936,-1.3692010641098022,0.9856714010238647,0.08807865530252457,1.5707963705062866,-0.8866852521896362,-0.011759666725993156,0.011394912376999855,1.4985023736953735,1.3708319664001465,-1.5249297618865967,0.1083887591958046,0.24747014045715332,0.22167980670928955,-0.8247041702270508,-0.8741811513900757,0.14111697673797607,-0.0857844278216362,-1.5369453430175781,-0.8526879549026489,0.8270418643951416,0.9310067892074585
86,0.006469800136983395,-0.008819246664643288,1.8864666223526,-1.3448119163513184,0.9864373803138733,0.11113244295120239,1.5707963705062866,-0.8866852521896362,0.009183918125927448,-0.009028337895870209,1.4987521171569824,1.384354829788208,-1.5245847702026367,0.13417284190654755,0.24747014045715332,0.22167980670928955,-0.8247041702270508,-0.8741811513900757,0.14111697673797607,-0.05878656730055809,-1.535839319229126,-0.8526879549026489,0.8270418643951416,0.9310067892074585
87,-0.005082197953015566,-0.005346701480448246,1.8846591711044312,-1.3679174184799194,0.9901882410049438,0.08938232064247131,1.5707963705062866,-0.8866852521896362,-0.007340061943978071,0.006862442474812269,1.4985867738723755,1.3716075420379639,-1.5252057313919067,0.10884873569011688,0.24747014045715332,0.22167980670928955,-0.8247041702270508,-0.8741811513900757,0.14111697673797607,-0.0852680429816246,-1.5367261171340942,-0.8526879549026489,0.8270418643951416,0.9310067892074585
88,0.0041128802113235,-0.0013624579878523946,1.8820743560791016,-1.3452385663986206,0.9913923740386963,0.1108209490776062,1.5707963705062866,-0.8866852521896362,0.00596773624420166,-0.005435621831566095,1.498829960823059,1.3842241764068604,-1.5248996019363403,0.13270625472068787,0.24747014045715332,0.22167980670928955,-0.8247041702270508,-0.8741811513900757,0.14111697673797607,-0.060264986008405685,-1.535663366317749,-0.8526879549026489,0.8270418643951416,0.9310067892074585
89,-0.003397021908313036,-0.00018280977383255959,1.8801755905151367,-1.3668901920318604,0.9954057335853577,0.09042637050151825,1.5707963705062866,-0.8866852521896362,-0.004934750497341156,0.004283371847122908,1.49868905544281,1.3721846342086792,-1.5254619121551514,0.10897262394428253,0.24747014045715332,0.22167980670928955,-0.8247041702270508,-0.8741811513900757,0.14111697673797607,-0.08503267168998718,-1.5364439487457275,-0.8526879549026489,0.8270418643951416,0.9310067892074585
90,0.0028674991335719824,0.0014072924386709929,1.8775393962860107,-1.3453468084335327,0.9970224499702454,0.11077488958835602,1.5707963705062866,-0.8866852521896362,0.004139428026974201,-0.0034084965009242296,1.4989324808120728,1.3842166662216187,-1.5251667499542236,0.13153482973575592,0.24747014045715332,0.22167980670928955,-0.8247041702270508,-0.8741811513900757,0.14111697673797607,-0.06138737127184868,-1.5354130268096924,-0.8526879549026489,0.8270418643951416,0.9310067892074585
91,-0.002451418898999691,0.0014990532072260976,1.8755460977554321,-1.366096019744873,1.0013188123703003,0.09121491014957428,1.5707963705062866,-0.8866852521896362,-0.0035199481062591076,0.0027838624082505703,1.4988113641738892,1.3725765943527222,-1.5256974697113037,0.10877373069524765,0.24747014045715332,0.22167980670928955,-0.8247041702270508,-0.8741811513900757,0.14111697673797607,-0.08509453386068344,-1.5361074209213257,-0.8526879549026489,0.8270418643951416,0.9310067892074585
92,0.0021325238049030304,0.0019868272356688976,1.8728371858596802,-1.345136046409607,1.0033153295516968,0.11099429428577423,1.5707963705062866,-0.8866852521896362,0.0030316743068397045,-0.0022389835212379694,1.4990586042404175,1.3843263387680054,-1.5254027843475342,0.13063587248325348,0.24747014045715332,0.22167980670928955,-0.8247041702270508,-0.8741811513900757,0.14111697673797607,-0.06218963488936424,-1.5350918769836426,-0.8526879549026489,0.8270418643951416,0.9310067892074585
93,-0.0018720511579886079,0.0016819890588521957,1.870745062828064,-1.3655184507369995,1.0079213380813599,0.09176944941282272,1.5707963705062866,-0.8866852521896362,-0.0026426902040839195,0.0018875855021178722,1.4989502429962158,1.3727891445159912,-1.5259193181991577,0.10826814919710159,0.24747014045715332,0.22167980670928955,-0.8247041702270508,-0.8741811513900757,0.14111697673797607,-0.08545026928186417,-1.535722017288208,-0.8526879549026489,0.8270418643951416,0.9310067892074585
94,0.001669050194323063,0.0017360248602926731,1.8679416179656982,-1.3446158170700073,1.0102649927139282,0.11147671937942505,1.5707963705062866,-0.8866852521896362,0.002331238705664873,-0.0015443398151546717,1.499205470085144,1.3845504522323608,-1.5256191492080688,0.12999048829078674,0.24747014045715332,0.22167980670928955,-0.8247041702270508,-0.8741811513900757,0.14111697673797607,-0.06269743293523788,-1.534705638885498,-0.8526879549026489,0.8270418643951416,0.9310067892074585
95,-0.0014994576340541244,0.0013579513179138303,1.865745186805725,-1.3651491403579712,1.0152087211608887,0.09210414439439774,1.5707963705062866,-0.8866852521896362,-0.0020797832403331995,0.0013371697859838605,1.4991037845611572,1.3728255033493042,-1.526136040687561,0.10746591538190842,0.24747014045715332,0.22167980670928955,-0.8247041702270508,-0.8741811513900757,0.14111697673797607,-0.08609265834093094,-1.5352920293807983,-0.8526879549026489,0.8270418643951416,0.9310067892074585
96,0.0013670901535078883,0.0012825900921598077,1.8628257513046265,-1.3437927961349487,1.017868995666504,0.11222051829099655,1.5707963705062866,-0.8866852521896362,0.001876658177934587,-0.0011189773213118315,1.499372124671936,1.384891390800476,-1.525824785232544,0.12958839535713196,0.24747014045715332,0.22167980670928955,-0.8247041702270508,-0.8741811513900757,0.14111697673797607,-0.06292535364627838,-1.5342609882354736,-0.8526879549026489,0.8270418643951416,0.9310067892074585
97,-0.0012552256230264902,0.0009537842124700546,1.8605194091796875,-1.3649853467941284,1.0231791734695435,0.0922241285443306,1.5707963705062866,-0.8866852521896362,-0.0017119798576459289,0.0009908424690365791,1.499271273612976,1.3726860284805298,-1.5263557434082031,0.10637065768241882,0.24747014045715332,0.22167980670928955,-0.8247041702270508,-0.8741811513900757,0.14111697673797607,-0.0870184600353241,-1.5348222255706787,-0.8526879549026489,0.8270418643951416,0.9310067892074585
98,0.00116929248906672,0.000868792412802577,1.8574625253677368,-1.342667818069458,1.0261268615722656,0.1132265254855156,1.5707963705062866,-0.8866852521896362,0.0015789035242050886,-0.0008510324405506253,1.4995585680007935,1.3853564262390137,-1.5260273218154907,0.12942585349082947,0.24747014045715332,0.22167980670928955,-0.8247041702270508,-0.8741811513900757,0.14111697673797607,-0.06288053095340729,-1.5337634086608887,-0.8526879549026489,0.8270418643951416,0.9310067892074585
99,-0.0010965949622914195,0.000618117512203753,1.855040192604065,-1.3650288581848145,1.0318324565887451,0.09212934225797653,1.5707963705062866,-0.8866852521896362,-0.0014719408936798573,0.0007685482269152999,1.4994529485702515,1.3723680973052979,-1.5265854597091675,0.10498197376728058,0.24747014045715332,0.22167980670928955,-0.8247041702270508,-0.8741811513900757,0.14111697673797607,-0.08822792768478394,-1.534315586090088,-0.8526879549026489,0.8270418643951416,0.9310067892074585
