,0,1,2,3,4,5,6,7,8,9,10,11,12,13,14,15,16,17,18,19,20,21,22,23,24,25,26,27,28,29,30,31,32,33,34,35
0,0.6490986347198486,0.656314492225647,0.31029748916625977,0.9351475238800049,0.31684160232543945,-0.5003803968429565,-0.37898290157318115,-0.6176049709320068,-0.08267855644226074,0.5426592826843262,-0.07180190086364746,0.3996978998184204,0.46903562545776367,-0.8451553583145142,-0.05308890342712402,-0.6879943609237671,-0.9049434661865234,-0.911657452583313,-0.749627947807312,-0.11683940887451172,0.9168460369110107,-0.8392878770828247,0.21048462390899658,0.19663286209106445,0.46634674072265625,-0.692948579788208,0.516960620880127,-0.5705094337463379,-0.10929930210113525,0.42385804653167725,0.3809291124343872,0.6803349256515503,-0.9616093635559082,-0.14229297637939453,-0.6679723262786865,0.46477270126342773
1,0.596622109413147,0.6038380861282349,0.25782108306884766,0.8826720714569092,0.36931803822517395,-0.5528567433357239,-0.4314592480659485,-0.6700814962387085,-0.1351550966501236,0.5426592826843262,-0.07180190086364746,0.3996978998184204,0.4165593087673187,-0.7926794290542603,-0.10556527227163315,-0.7404704689979553,-0.8524669408798218,-0.9641338586807251,-0.6971514225006104,-0.06436298042535782,0.9168460369110107,-0.8392878770828247,0.21048462390899658,0.19663286209106445,0.46634674072265625,-0.692948579788208,0.516960620880127,-0.5705094337463379,-0.10929930210113525,0.4763340950012207,0.4334056079387665,0.6803349256515503,-0.9616093635559082,-0.14229297637939453,-0.6679723262786865,0.46477270126342773
2,0.5526459217071533,0.5607975125312805,0.21825937926769257,0.8315354585647583,0.3954135477542877,-0.589834451675415,-0.47673481702804565,-0.7011957764625549,-0.17838305234909058,0.5426592826843262,-0.07180190086364746,0.3996978998184204,0.36839762330055237,-0.7414636015892029,-0.148569718003273,-0.7721951603889465,-0.8154628872871399,-1.006057858467102,-0.6587722301483154,-0.03196832165122032,0.9168460369110107,-0.8392878770828247,0.21048462390899658,0.19663286209106445,0.46634674072265625,-0.692948579788208,0.516960620880127,-0.5705094337463379,-0.10929930210113525,0.4297202527523041,0.477454274892807,0.6803349256515503,-0.9616093635559082,-0.14229297637939453,-0.6679723262786865,0.46477270126342773
3,0.5101122856140137,0.5186895728111267,0.1846904158592224,0.7817876935005188,0.40667107701301575,-0.6358461380004883,-0.5176478624343872,-0.7251087427139282,-0.22254714369773865,0.5426592826843262,-0.07180190086364746,0.3996978998184204,0.3217869699001312,-0.6915122270584106,-0.18868137896060944,-0.801257848739624,-0.7893708944320679,-1.0458259582519531,-0.6226648092269897,-0.009112128987908363,0.9168460369110107,-0.8392878770828247,0.21048462390899658,0.19663286209106445,0.46634674072265625,-0.692948579788208,0.516960620880127,-0.5705094337463379,-0.10929930210113525,0.376516193151474,0.5218610167503357,0.6803349256515503,-0.9616093635559082,-0.14229297637939453,-0.6679723262786865,0.46477270126342773
4,0.46676111221313477,0.47632694244384766,0.1576225310564041,0.7370746731758118,0.4023149311542511,-0.6871848106384277,-0.5599033832550049,-0.7432183027267456,-0.2688888907432556,0.5426592826843262,-0.07180190086364746,0.3996978998184204,0.27485236525535583,-0.641190230846405,-0.22771070897579193,-0.8326045274734497,-0.7779610753059387,-1.0849897861480713,-0.5870055556297302,-0.00019668461754918098,0.9168460369110107,-0.8392878770828247,0.21048462390899658,0.19663286209106445,0.46634674072265625,-0.692948579788208,0.516960620880127,-0.5705094337463379,-0.10929930210113525,0.3216424584388733,0.5682765245437622,0.6803349256515503,-0.9616093635559082,-0.14229297637939453,-0.6679723262786865,0.46477270126342773
5,0.4219094514846802,0.4343193769454956,0.1426573395729065,0.7064865231513977,0.3806454539299011,-0.7421998381614685,-0.6073452830314636,-0.7555781602859497,-0.3176209628582001,0.5426592826843262,-0.07180190086364746,0.3996978998184204,0.22692172229290009,-0.5897603034973145,-0.26555997133255005,-0.8709697723388672,-0.7873270511627197,-1.1254510879516602,-0.5520027875900269,-0.009494530037045479,0.9168460369110107,-0.8392878770828247,0.21048462390899658,0.19663286209106445,0.46634674072265625,-0.692948579788208,0.516960620880127,-0.5705094337463379,-0.10929930210113525,0.2653317153453827,0.6169015169143677,0.6803349256515503,-0.9616093635559082,-0.14229297637939453,-0.6679723262786865,0.46477270126342773
6,0.3754380941390991,0.39430493116378784,0.14925260841846466,0.713658332824707,0.34327033162117004,-0.8001230359077454,-0.6614362001419067,-0.7628113031387329,-0.36888039112091064,0.5426592826843262,-0.07180190086364746,0.3996978998184204,0.1778610497713089,-0.536936342716217,-0.3016969859600067,-0.9208968281745911,-0.8175610899925232,-1.170952558517456,-0.5188705325126648,-0.034475650638341904,0.9168460369110107,-0.8392878770828247,0.21048462390899658,0.19663286209106445,0.46634674072265625,-0.692948579788208,0.516960620880127,-0.5705094337463379,-0.10929930210113525,0.20790213346481323,0.6677817106246948,0.6803349256515503,-0.9616093635559082,-0.14229297637939453,-0.6679723262786865,0.46477270126342773
7,0.32749590277671814,0.3591758608818054,0.1806318163871765,0.7618506550788879,0.295088529586792,-0.8597221374511719,-0.7201849222183228,-0.7661763429641724,-0.42317527532577515,0.5426592826843262,-0.07180190086364746,0.3996978998184204,0.12772053480148315,-0.48221221566200256,-0.3362443447113037,-0.9816699624061584,-0.8629458546638489,-1.2234994173049927,-0.48897406458854675,-0.07342884689569473,0.9168460369110107,-0.8392878770828247,0.21048462390899658,0.19663286209106445,0.46634674072265625,-0.692948579788208,0.516960620880127,-0.5705094337463379,-0.10929930210113525,0.1502171754837036,0.7216039896011353,0.6803349256515503,-0.9616093635559082,-0.14229297637939453,-0.6679723262786865,0.46477270126342773
8,0.2785925567150116,0.3328302502632141,0.22741495072841644,0.8247856497764587,0.24299681186676025,-0.9192942380905151,-0.7796200513839722,-0.7669979929924011,-0.4808264970779419,0.5426592826843262,-0.07180190086364746,0.3996978998184204,0.07727578282356262,-0.4253302216529846,-0.37052351236343384,-1.0482605695724487,-0.917335569858551,-1.28239107131958,-0.463046133518219,-0.12238295376300812,0.9168460369110107,-0.8392878770828247,0.21048462390899658,0.19663286209106445,0.46634674072265625,-0.692948579788208,0.516960620880127,-0.5705094337463379,-0.10929930210113525,0.09369681775569916,0.7791734337806702,0.6803349256515503,-0.9616093635559082,-0.14229297637939453,-0.6679723262786865,0.46477270126342773
9,0.22993969917297363,0.3184846043586731,0.28013333678245544,0.8916156888008118,0.19310101866722107,-0.9772467613220215,-0.8358757495880127,-0.7659283876419067,-0.541157066822052,0.5426592826843262,-0.07180190086364746,0.3996978998184204,0.028900306671857834,-0.36757487058639526,-0.405769407749176,-1.1107449531555176,-0.9761785864830017,-1.3452197313308716,-0.44038280844688416,-0.17106935381889343,0.9168460369110107,-0.8392878770828247,0.21048462390899658,0.19663286209106445,0.46634674072265625,-0.692948579788208,0.516960620880127,-0.5705094337463379,-0.10929930210113525,0.04036349803209305,0.8399428129196167,0.6803349256515503,-0.9616093635559082,-0.14229297637939453,-0.6679723262786865,0.46477270126342773
10,0.18330822885036469,0.31614968180656433,0.3334679901599884,0.9585356712341309,0.1504887342453003,-1.0321314334869385,-0.8857106566429138,-0.7621914744377136,-0.6030621528625488,0.5426592826843262,-0.07180190086364746,0.3996978998184204,-0.013632932677865028,-0.31148597598075867,-0.441216379404068,-1.1546883583068848,-1.037306547164917,-1.4085907936096191,-0.418780654668808,-0.2073267251253128,0.9168460369110107,-0.8392878770828247,0.21048462390899658,0.19663286209106445,0.46634674072265625,-0.692948579788208,0.516960620880127,-0.5705094337463379,-0.10929930210113525,-0.006930876523256302,0.9026454091072083,0.6803349256515503,-0.9616093635559082,-0.14229297637939453,-0.6679723262786865,0.46477270126342773
11,0.14057976007461548,0.32068654894828796,0.384201318025589,1.0238616466522217,0.11873157322406769,-1.0832420587539673,-0.9276878833770752,-0.7526407241821289,-0.6655421257019043,0.5426592826843262,-0.07180190086364746,0.3996978998184204,-0.0456085242331028,-0.26032590866088867,-0.47409123182296753,-1.166520118713379,-1.100219964981079,-1.4692862033843994,-0.39741051197052,-0.21851424872875214,0.9168460369110107,-0.8392878770828247,0.21048462390899658,0.19663286209106445,0.46634674072265625,-0.692948579788208,0.516960620880127,-0.5705094337463379,-0.10929930210113525,-0.044783517718315125,0.9660122394561768,0.6803349256515503,-0.9616093635559082,-0.14229297637939453,-0.6679723262786865,0.46477270126342773
12,0.10315406322479248,0.32393723726272583,0.42959651350975037,1.0869972705841064,0.09764450043439865,-1.1308609247207642,-0.9635741114616394,-0.7307758927345276,-0.7279845476150513,0.5426592826843262,-0.07180190086364746,0.3996978998184204,-0.06273023039102554,-0.2172914296388626,-0.5009893774986267,-1.1608607769012451,-1.1652770042419434,-1.5229063034057617,-0.38075950741767883,-0.20691516995429993,0.9168460369110107,-0.8392878770828247,0.21048462390899658,0.19663286209106445,0.46634674072265625,-0.692948579788208,0.516960620880127,-0.5705094337463379,-0.10929930210113525,-0.06978196650743484,1.0291748046875,0.6803349256515503,-0.9616093635559082,-0.14229297637939453,-0.6679723262786865,0.46477270126342773
13,0.07151248306035995,0.31907880306243896,0.46703633666038513,1.1486091613769531,0.08283006399869919,-1.1751177310943604,-0.9957965612411499,-0.6926989555358887,-0.7900269627571106,0.5426592826843262,-0.07180190086364746,0.3996978998184204,-0.06393998116254807,-0.18444278836250305,-0.5217514038085938,-1.150593638420105,-1.2317253351211548,-1.5630240440368652,-0.37382131814956665,-0.19146907329559326,0.9168460369110107,-0.8392878770828247,0.21048462390899658,0.19663286209106445,0.46634674072265625,-0.692948579788208,0.516960620880127,-0.5705094337463379,-0.10929930210113525,-0.07930246740579605,1.091688871383667,0.6803349256515503,-0.9616093635559082,-0.14229297637939453,-0.6679723262786865,0.46477270126342773
14,0.045253999531269073,0.3043093979358673,0.4960005283355713,1.2087844610214233,0.07057991623878479,-1.2159383296966553,-1.0250298976898193,-0.6396750807762146,-0.8514053821563721,0.5426592826843262,-0.07180190086364746,0.3996978998184204,-0.053235188126564026,-0.1615554690361023,-0.5373252034187317,-1.129487156867981,-1.2969975471496582,-1.5905721187591553,-0.380575031042099,-0.17050929367542267,0.9168460369110107,-0.8392878770828247,0.21048462390899658,0.19663286209106445,0.46634674072265625,-0.692948579788208,0.516960620880127,-0.5705094337463379,-0.10929930210113525,-0.07407067716121674,1.1533344984054565,0.6803349256515503,-0.9616093635559082,-0.14229297637939453,-0.6679723262786865,0.46477270126342773
15,0.02364843711256981,0.2832777500152588,0.5176170468330383,1.2667735815048218,0.0581468865275383,-1.2530603408813477,-1.052606463432312,-0.5735326409339905,-0.9119883179664612,0.5426592826843262,-0.07180190086364746,0.3996978998184204,-0.037247348576784134,-0.1458713710308075,-0.5485779643058777,-1.0883394479751587,-1.3597062826156616,-1.6070032119750977,-0.4061620533466339,-0.14484184980392456,0.9168460369110107,-0.8392878770828247,0.21048462390899658,0.19663286209106445,0.46634674072265625,-0.692948579788208,0.516960620880127,-0.5705094337463379,-0.10929930210113525,-0.058001935482025146,1.2139880657196045,0.6803349256515503,-0.9616093635559082,-0.14229297637939453,-0.6679723262786865,0.46477270126342773
16,0.006260508671402931,0.26107168197631836,0.5331043004989624,1.3216307163238525,0.0445985272526741,-1.2859854698181152,-1.079716682434082,-0.4961088001728058,-0.9716707468032837,0.5426592826843262,-0.07180190086364746,0.3996978998184204,-0.02164512127637863,-0.13399791717529297,-0.5564514994621277,-1.0250617265701294,-1.4187666177749634,-1.6154719591140747,-0.4552387595176697,-0.11535535007715225,0.9168460369110107,-0.8392878770828247,0.21048462390899658,0.19663286209106445,0.46634674072265625,-0.692948579788208,0.516960620880127,-0.5705094337463379,-0.10929930210113525,-0.03649131581187248,1.2735719680786133,0.6803349256515503,-0.9616093635559082,-0.14229297637939453,-0.6679723262786865,0.46477270126342773
17,-0.006927162874490023,0.24075810611248016,0.5439015030860901,1.3729147911071777,0.030115490779280663,-1.3138450384140015,-1.1068716049194336,-0.4104483127593994,-1.030356764793396,0.5426592826843262,-0.07180190086364746,0.3996978998184204,-0.009625528007745743,-0.12391667813062668,-0.5610480904579163,-0.9395958781242371,-1.4733052253723145,-1.6176033020019531,-0.5251094102859497,-0.08778990060091019,0.9168460369110107,-0.8392878770828247,0.21048462390899658,0.19663286209106445,0.46634674072265625,-0.692948579788208,0.516960620880127,-0.5705094337463379,-0.10929930210113525,-0.014369744807481766,1.33204185962677,0.6803349256515503,-0.9616093635559082,-0.14229297637939453,-0.6679723262786865,0.46477270126342773
18,-0.015781043097376823,0.22295118868350983,0.550235390663147,1.4205142259597778,0.015696745365858078,-1.3360869884490967,-1.1335346698760986,-0.32076624035835266,-1.0879307985305786,0.5426592826843262,-0.07180190086364746,0.3996978998184204,-0.0020327679812908173,-0.11501473188400269,-0.5647751688957214,-0.8446505665779114,-1.521846055984497,-1.6186305284500122,-0.6089152097702026,-0.05879630893468857,0.9168460369110107,-0.8392878770828247,0.21048462390899658,0.19663286209106445,0.46634674072265625,-0.692948579788208,0.516960620880127,-0.5705094337463379,-0.10929930210113525,0.004235707689076662,1.3891626596450806,0.6803349256515503,-0.9616093635559082,-0.14229297637939453,-0.6679723262786865,0.46477270126342773
19,-0.020388338714838028,0.2074480652809143,0.5575793981552124,1.4647440910339355,0.0017622262239456177,-1.3527566194534302,-1.158470869064331,-0.2320818305015564,-1.1441768407821655,0.5426592826843262,-0.07180190086364746,0.3996978998184204,0.0018257173942402005,-0.10748618841171265,-0.5633519887924194,-0.745977520942688,-1.5633409023284912,-1.614691138267517,-0.6982179284095764,-0.04586576670408249,0.9168460369110107,-0.8392878770828247,0.21048462390899658,0.19663286209106445,0.46634674072265625,-0.692948579788208,0.516960620880127,-0.5705094337463379,-0.10929930210113525,0.017301779240369797,1.4442850351333618,0.6803349256515503,-0.9616093635559082,-0.14229297637939453,-0.6679723262786865,0.46477270126342773
20,-0.021327471360564232,0.19313320517539978,0.5514482259750366,1.5048421621322632,-0.01119469664990902,-1.3670233488082886,-1.1806488037109375,-0.14929106831550598,-1.1986865997314453,0.5426592826843262,-0.07180190086364746,0.3996978998184204,0.0032091266475617886,-0.10044800490140915,-0.5830639600753784,-0.6513510346412659,-1.5946460962295532,-1.6215218305587769,-0.7884629964828491,-0.010328243486583233,0.9168460369110107,-0.8392878770828247,0.21048462390899658,0.19663286209106445,0.46634674072265625,-0.692948579788208,0.516960620880127,-0.5705094337463379,-0.10929930210113525,0.022649278864264488,1.4963256120681763,0.6803349256515503,-0.9616093635559082,-0.14229297637939453,-0.6679723262786865,0.46477270126342773
21,-0.019724039360880852,0.1823960393667221,0.6097202301025391,1.5411717891693115,-0.023167381063103676,-1.3786356449127197,-1.1970126628875732,-0.07590565830469131,-1.250939130783081,0.5426592826843262,-0.07180190086364746,0.3996978998184204,0.0032586539164185524,-0.09750968962907791,-0.5122770071029663,-0.5615667700767517,-1.6181731224060059,-1.5981838703155518,-0.8759786486625671,-0.06404432654380798,0.9168460369110107,-0.8392878770828247,0.21048462390899658,0.19663286209106445,0.46634674072265625,-0.692948579788208,0.516960620880127,-0.5705094337463379,-0.10929930210113525,0.025258531793951988,1.5439321994781494,0.6803349256515503,-0.9616093635559082,-0.14229297637939453,-0.6679723262786865,0.46477270126342773
22,-0.016667405143380165,0.16275689005851746,0.49089759588241577,1.5700702667236328,-0.03655189275741577,-1.3974673748016357,-1.2146481275558472,-0.01770312339067459,-1.3001885414123535,0.5426592826843262,-0.07180190086364746,0.3996978998184204,0.0026847016997635365,-0.08086854219436646,-0.6420955657958984,-0.483953595161438,-1.6240805387496948,-1.6612091064453125,-0.9600252509117126,0.048627059906721115,0.9168460369110107,-0.8392878770828247,0.21048462390899658,0.19663286209106445,0.46634674072265625,-0.692948579788208,0.516960620880127,-0.5705094337463379,-0.10929930210113525,0.016420911997556686,1.5859256982803345,0.6803349256515503,-0.9616093635559082,-0.14229297637939453,-0.6679723262786865,0.46477270126342773
23,-0.01338595524430275,0.16293828189373016,0.5997734069824219,1.597835659980774,-0.04428216069936752,-1.4039313793182373,-1.214848279953003,0.027834473177790642,-1.3460321426391602,0.5426592826843262,-0.07180190086364746,0.3996978998184204,0.0019356569973751903,-0.09417387843132019,-0.5333752036094666,-0.40685534477233887,-1.6378333568572998,-1.5701234340667725,-1.0369081497192383,-0.06261017918586731,0.9168460369110107,-0.8392878770828247,0.21048462390899658,0.19663286209106445,0.46634674072265625,-0.692948579788208,0.516960620880127,-0.5705094337463379,-0.10929930210113525,0.029889026656746864,1.6213109493255615,0.6803349256515503,-0.9616093635559082,-0.14229297637939453,-0.6679723262786865,0.46477270126342773
24,-0.010268239304423332,0.15962578356266022,0.549566924571991,1.6120200157165527,-0.05929617956280708,-1.4187544584274292,-1.2263076305389404,0.05473436042666435,-1.388471007347107,0.5426592826843262,-0.07180190086364746,0.3996978998184204,0.0015811428893357515,-0.07421445846557617,-0.5867301821708679,-0.35093384981155396,-1.6246503591537476,-1.6416890621185303,-1.1118085384368896,0.01496428344398737,0.9168460369110107,-0.8392878770828247,0.21048462390899658,0.19663286209106445,0.46634674072265625,-0.692948579788208,0.516960620880127,-0.5705094337463379,-0.10929930210113525,0.005439654923975468,1.6497615575790405,0.6803349256515503,-0.9616093635559082,-0.14229297637939453,-0.6679723262786865,0.46477270126342773
25,-0.007742571644484997,0.13285475969314575,0.5744064450263977,1.6272727251052856,-0.0666317343711853,-1.4214361906051636,-1.2222238779067993,0.07056137919425964,-1.4271645545959473,0.5426592826843262,-0.07180190086364746,0.3996978998184204,0.0009094472043216228,-0.08682364225387573,-0.5615575313568115,-0.28851813077926636,-1.6248645782470703,-1.5932735204696655,-1.1786623001098633,-0.03551256284117699,0.9168460369110107,-0.8392878770828247,0.21048462390899658,0.19663286209106445,0.46634674072265625,-0.692948579788208,0.516960620880127,-0.5705094337463379,-0.10929930210113525,0.017909148707985878,1.6711041927337646,0.6803349256515503,-0.9616093635559082,-0.14229297637939453,-0.6679723262786865,0.46477270126342773
26,-0.005768291186541319,0.15652251243591309,0.5620471239089966,1.6327576637268066,-0.07759382575750351,-1.4249577522277832,-1.2216603755950928,0.07547254860401154,-1.4619237184524536,0.5426592826843262,-0.07180190086364746,0.3996978998184204,0.0006085552158765495,-0.060300957411527634,-0.5756809115409851,-0.2422177940607071,-1.6127827167510986,-1.6199086904525757,-1.2418752908706665,-0.0053977821953594685,0.9168460369110107,-0.8392878770828247,0.21048462390899658,0.19663286209106445,0.46634674072265625,-0.692948579788208,0.516960620880127,-0.5705094337463379,-0.10929930210113525,0.005898427218198776,1.6860219240188599,0.6803349256515503,-0.9616093635559082,-0.14229297637939453,-0.6679723262786865,0.46477270126342773
27,-0.004332205280661583,0.10246046632528305,0.5688971877098083,1.636250615119934,-0.08465860038995743,-1.4229031801223755,-1.214300513267517,0.07516878843307495,-1.4927232265472412,0.5426592826843262,-0.07180190086364746,0.3996978998184204,0.00047195650404319167,-0.08922076970338821,-0.5657743215560913,-0.1952163726091385,-1.6074872016906738,-1.597529411315918,-1.2985142469406128,-0.025326237082481384,0.9168460369110107,-0.8392878770828247,0.21048462390899658,0.19663286209106445,0.46634674072265625,-0.692948579788208,0.516960620880127,-0.5705094337463379,-0.10929930210113525,0.010832099243998528,1.6953321695327759,0.6803349256515503,-0.9616093635559082,-0.14229297637939453,-0.6679723262786865,0.46477270126342773
28,-0.003290243912488222,0.16231589019298553,0.5643340349197388,1.6341056823730469,-0.09259532392024994,-1.4214229583740234,-1.2070142030715942,0.07173062860965729,-1.5196033716201782,0.5426592826843262,-0.07180190086364746,0.3996978998184204,9.846719331108034e-05,-0.03992258757352829,-0.5720154047012329,-0.15768322348594666,-1.5982611179351807,-1.6071404218673706,-1.3505644798278809,-0.010613341815769672,0.9168460369110107,-0.8392878770828247,0.21048462390899658,0.19663286209106445,0.46634674072265625,-0.692948579788208,0.516960620880127,-0.5705094337463379,-0.10929930210113525,0.004847778473049402,1.7001392841339111,0.6803349256515503,-0.9616093635559082,-0.14229297637939453,-0.6679723262786865,0.46477270126342773
29,-0.0025053275749087334,0.0792631283402443,0.5656173825263977,1.6302757263183594,-0.09843015670776367,-1.4184472560882568,-1.1966538429260254,0.06748245656490326,-1.542677879333496,0.5426592826843262,-0.07180190086364746,0.3996978998184204,0.0003633218293543905,-0.09640967845916748,-0.5639269351959229,-0.1217925101518631,-1.5932210683822632,-1.5935412645339966,-1.396822214126587,-0.01934071257710457,0.9168460369110107,-0.8392878770828247,0.21048462390899658,0.19663286209106445,0.46634674072265625,-0.692948579788208,0.516960620880127,-0.5705094337463379,-0.10929930210113525,0.007076576352119446,1.7015084028244019,0.6803349256515503,-0.9616093635559082,-0.14229297637939453,-0.6679723262786865,0.46477270126342773
30,-0.0019719151314347982,0.15512266755104065,0.5626288056373596,1.623496413230896,-0.10424306988716125,-1.4163572788238525,-1.185892939567566,0.06327605992555618,-1.5621172189712524,0.5426592826843262,-0.07180190086364746,0.3996978998184204,-0.0001613481726963073,-0.03075762651860714,-0.5689266324043274,-0.09267769753932953,-1.5868077278137207,-1.5970553159713745,-1.438339352607727,-0.009835092350840569,0.9168460369110107,-0.8392878770828247,0.21048462390899658,0.19663286209106445,0.46634674072265625,-0.692948579788208,0.516960620880127,-0.5705094337463379,-0.10929930210113525,0.0034642955288290977,1.7004631757736206,0.6803349256515503,-0.9616093635559082,-0.14229297637939453,-0.6679723262786865,0.46477270126342773
31,-0.0015044966712594032,0.08263096958398819,0.5631407499313354,1.6162917613983154,-0.10885093361139297,-1.4141343832015991,-1.173755407333374,0.059611283242702484,-1.5781409740447998,0.5426592826843262,-0.07180190086364746,0.3996978998184204,0.00035772446426562965,-0.08657265454530716,-0.5610198378562927,-0.06557844579219818,-1.5832791328430176,-1.5871002674102783,-1.4745259284973145,-0.014247177168726921,0.9168460369110107,-0.8392878770828247,0.21048462390899658,0.19663286209106445,0.46634674072265625,-0.692948579788208,0.516960620880127,-0.5705094337463379,-0.10929930210113525,0.004714789800345898,1.6978329420089722,0.6803349256515503,-0.9616093635559082,-0.14229297637939453,-0.6679723262786865,0.46477270126342773
32,-0.001233093673363328,0.13430866599082947,0.5595273971557617,1.607969045639038,-0.11326362937688828,-1.4126272201538086,-1.1613876819610596,0.05660669505596161,-1.591004729270935,0.5426592826843262,-0.07180190086364746,0.3996978998184204,-0.00029512165929190814,-0.03888460993766785,-0.5663438439369202,-0.0439157709479332,-1.5790016651153564,-1.5884854793548584,-1.5061863660812378,-0.007023019716143608,0.9168460369110107,-0.8392878770828247,0.21048462390899658,0.19663286209106445,0.46634674072265625,-0.692948579788208,0.516960620880127,-0.5705094337463379,-0.10929930210113525,0.0021712309680879116,1.694309949874878,0.6803349256515503,-0.9616093635559082,-0.14229297637939453,-0.6679723262786865,0.46477270126342773
33,-0.0009249139693565667,0.09132858365774155,0.5619331002235413,1.6003131866455078,-0.11698027700185776,-1.4112745523452759,-1.1484754085540771,0.05420631542801857,-1.6009914875030518,0.5426592826843262,-0.07180190086364746,0.3996978998184204,0.00039159972220659256,-0.0724739357829094,-0.5596064329147339,-0.024092843756079674,-1.576825737953186,-1.5804920196533203,-1.5329976081848145,-0.00985618494451046,0.9168460369110107,-0.8392878770828247,0.21048462390899658,0.19663286209106445,0.46634674072265625,-0.692948579788208,0.516960620880127,-0.5705094337463379,-0.10929930210113525,0.0030534181278198957,1.690422773361206,0.6803349256515503,-0.9616093635559082,-0.14229297637939453,-0.6679723262786865,0.46477270126342773
34,-0.0007988135912455618,0.11910401284694672,0.5578046441078186,1.5926376581192017,-0.12050020694732666,-1.4103624820709229,-1.1355034112930298,0.052351027727127075,-1.6084024906158447,0.5426592826843262,-0.07180190086364746,0.3996978998184204,-0.00040535430889576674,-0.045294828712940216,-0.5648447871208191,-0.00891774520277977,-1.5739690065383911,-1.5814249515533447,-1.5557372570037842,-0.0038309688679873943,0.9168460369110107,-0.8392878770828247,0.21048462390899658,0.19663286209106445,0.46634674072265625,-0.692948579788208,0.516960620880127,-0.5705094337463379,-0.10929930210113525,0.0010283796582370996,1.6865532398223877,0.6803349256515503,-0.9616093635559082,-0.14229297637939453,-0.6679723262786865,0.46477270126342773
35,-0.0005705115618184209,0.09483063966035843,0.5614615678787231,1.5862605571746826,-0.12359675019979477,-1.409609317779541,-1.1223750114440918,0.050897106528282166,-1.6135461330413818,0.5426592826843262,-0.07180190086364746,0.3996978998184204,0.0004845882940571755,-0.06382664293050766,-0.558929979801178,0.004826758988201618,-1.5727792978286743,-1.5746681690216064,-1.5742242336273193,-0.006305953487753868,0.9168460369110107,-0.8392878770828247,0.21048462390899658,0.19663286209106445,0.46634674072265625,-0.692948579788208,0.516960620880127,-0.5705094337463379,-0.10929930210113525,0.001809990731999278,1.6829519271850586,0.6803349256515503,-0.9616093635559082,-0.14229297637939453,-0.6679723262786865,0.46477270126342773
36,-0.0005380436778068542,0.11006945371627808,0.5569499135017395,1.580317497253418,-0.12650138139724731,-1.409079909324646,-1.109259009361267,0.049792490899562836,-1.61672842502594,0.5426592826843262,-0.07180190086364746,0.3996978998184204,-0.0005618352442979813,-0.047837965190410614,-0.5641248226165771,0.014470315538346767,-1.5708105564117432,-1.5759825706481934,-1.5892809629440308,-0.0009215567260980606,0.9168460369110107,-0.8392878770828247,0.21048462390899658,0.19663286209106445,0.46634674072265625,-0.692948579788208,0.516960620880127,-0.5705094337463379,-0.10929930210113525,1.6043224604800344e-05,1.6797618865966797,0.6803349256515503,-0.9616093635559082,-0.14229297637939453,-0.6679723262786865,0.46477270126342773
37,-0.00033879169495776296,0.09515294432640076,0.5613614916801453,1.5758543014526367,-0.12912411987781525,-1.4086796045303345,-1.0961580276489258,0.04891910031437874,-1.6182453632354736,0.5426592826843262,-0.07180190086364746,0.3996978998184204,0.0006760164978913963,-0.058889057487249374,-0.5584237575531006,0.023280860856175423,-1.5703325271606445,-1.5699880123138428,-1.6007658243179321,-0.0037122017238289118,0.9168460369110107,-0.8392878770828247,0.21048462390899658,0.19663286209106445,0.46634674072265625,-0.692948579788208,0.516960620880127,-0.5705094337463379,-0.10929930210113525,0.0008724606013856828,1.6770509481430054,0.6803349256515503,-0.9616093635559082,-0.14229297637939453,-0.6679723262786865,0.46477270126342773
38,-0.0003862132434733212,0.10439999401569366,0.5563217401504517,1.5718119144439697,-0.13154850900173187,-1.4083590507507324,-1.083082675933838,0.048262134194374084,-1.6183773279190063,0.5426592826843262,-0.07180190086364746,0.3996978998184204,-0.0008368944399990141,-0.0484246127307415,-0.5638910531997681,0.028366804122924805,-1.5688934326171875,-1.5722057819366455,-1.609566330909729,0.0014842727687209845,0.9168460369110107,-0.8392878770828247,0.21048462390899658,0.19663286209106445,0.46634674072265625,-0.692948579788208,0.516960620880127,-0.5705094337463379,-0.10929930210113525,-0.0008592969970777631,1.6748290061950684,0.6803349256515503,-0.9616093635559082,-0.14229297637939453,-0.6679723262786865,0.46477270126342773
39,-0.0001715510297799483,0.09418649226427078,0.5615377426147461,1.5691899061203003,-0.13377471268177032,-1.4081590175628662,-1.070107340812683,0.04773039370775223,-1.6173851490020752,0.5426592826843262,-0.07180190086364746,0.3996978998184204,0.0010479585034772754,-0.05587353929877281,-0.557813823223114,0.03340543434023857,-1.5689789056777954,-1.5664830207824707,-1.615480899810791,-0.0021344050765037537,0.9168460369110107,-0.8392878770828247,0.21048462390899658,0.19663286209106445,0.46634674072265625,-0.692948579788208,0.516960620880127,-0.5705094337463379,-0.10929930210113525,0.00024325179401785135,1.6730729341506958,0.6803349256515503,-0.9616093635559082,-0.14229297637939453,-0.6679723262786865,0.46477270126342773
40,-0.00031478426535613835,0.1005510464310646,0.5555838942527771,1.5667160749435425,-0.13579338788986206,-1.4079395532608032,-1.0571526288986206,0.047340214252471924,-1.6155073642730713,0.5426592826843262,-0.07180190086364746,0.3996978998184204,-0.0013602491235360503,-0.04815865308046341,-0.5640403032302856,0.034866467118263245,-1.5678067207336426,-1.5700665712356567,-1.6194932460784912,0.0034186257980763912,0.9168460369110107,-0.8392878770828247,0.21048462390899658,0.19663286209106445,0.46634674072265625,-0.692948579788208,0.516960620880127,-0.5705094337463379,-0.10929930210113525,-0.0015835645608603954,1.6717360019683838,0.6803349256515503,-0.9616093635559082,-0.14229297637939453,-0.6679723262786865,0.46477270126342773
41,-2.5653171178419143e-05,0.09277928620576859,0.562035858631134,1.5655734539031982,-0.13767841458320618,-1.407859206199646,-1.0443603992462158,0.04700998216867447,-1.6129587888717651,0.5426592826843262,-0.07180190086364746,0.3996978998184204,0.0017846552655100822,-0.05391748994588852,-0.5569187998771667,0.0373026467859745,-1.5684112310409546,-1.5639407634735107,-1.621230125427246,-0.0016032787971198559,0.9168460369110107,-0.8392878770828247,0.21048462390899658,0.19663286209106445,0.46634674072265625,-0.692948579788208,0.516960620880127,-0.5705094337463379,-0.10929930210113525,-3.4795826650224626e-05,1.6707634925842285,0.6803349256515503,-0.9616093635559082,-0.14229297637939453,-0.6679723262786865,0.46477270126342773
42,-0.0003220799844712019,0.09780097752809525,0.5545049905776978,1.5641716718673706,-0.1393454521894455,-1.4076769351959229,-1.0315827131271362,0.04678314924240112,-1.6099294424057007,0.5426592826843262,-0.07180190086364746,0.3996978998184204,-0.0024138977751135826,-0.04751112684607506,-0.5646392703056335,0.03592323511838913,-1.5672581195831299,-1.5695096254348755,-1.6218457221984863,0.005117757245898247,0.9168460369110107,-0.8392878770828247,0.21048462390899658,0.19663286209106445,0.46634674072265625,-0.692948579788208,0.516960620880127,-0.5705094337463379,-0.10929930210113525,-0.002191636711359024,1.6700952053070068,0.6803349256515503,-0.9616093635559082,-0.14229297637939453,-0.6679723262786865,0.46477270126342773
43,0.0001484281092416495,0.09126067161560059,0.5630322694778442,1.5641385316848755,-0.14094200730323792,-1.4076822996139526,-1.0190349817276,0.04657142981886864,-1.606584906578064,0.5426592826843262,-0.07180190086364746,0.3996978998184204,0.0033106603659689426,-0.05264083668589592,-0.5555322170257568,0.036933235824108124,-1.5684434175491333,-1.5619243383407593,-1.6206434965133667,-0.002199275651946664,0.9168460369110107,-0.8392878770828247,0.21048462390899658,0.19663286209106445,0.46634674072265625,-0.692948579788208,0.516960620880127,-0.5705094337463379,-0.10929930210113525,9.020799916470423e-05,1.6696760654449463,0.6803349256515503,-0.9616093635559082,-0.14229297637939453,-0.6679723262786865,0.46477270126342773
44,-0.00044228846672922373,0.0958075150847435,0.55280601978302,1.563310146331787,-0.14230413734912872,-1.407495379447937,-1.0064946413040161,0.046449195593595505,-1.60306715965271,0.5426592826843262,-0.07180190086364746,0.3996978998184204,-0.004649496637284756,-0.04665008932352066,-0.565922200679779,0.03321068361401558,-1.5669962167739868,-1.570569634437561,-1.619107723236084,0.007037128321826458,0.9168460369110107,-0.8392878770828247,0.21048462390899658,0.19663286209106445,0.46634674072265625,-0.692948579788208,0.516960620880127,-0.5705094337463379,-0.10929930210113525,-0.0028054113499820232,1.6694526672363281,0.6803349256515503,-0.9616093635559082,-0.14229297637939453,-0.6679723262786865,0.46477270126342773
45,0.0004372016410343349,0.08972456306219101,0.5648723244667053,1.5641496181488037,-0.1436682641506195,-1.40758216381073,-0.994267463684082,0.04630455747246742,-1.5994950532913208,0.5426592826843262,-0.07180190086364746,0.3996978998184204,0.006622049957513809,-0.05189763754606247,-0.5533157587051392,0.034055352210998535,-1.568985104560852,-1.5597368478775024,-1.6159683465957642,-0.004196125082671642,0.9168460369110107,-0.8392878770828247,0.21048462390899658,0.19663286209106445,0.46634674072265625,-0.692948579788208,0.516960620880127,-0.5705094337463379,-0.10929930210113525,0.0007081649382598698,1.6693819761276245,0.6803349256515503,-0.9616093635559082,-0.14229297637939453,-0.6679723262786865,0.46477270126342773
46,-0.0007809862727299333,0.09441227465867996,0.5500373840332031,1.5634074211120605,-0.14476920664310455,-1.4073541164398193,-0.9820317029953003,0.04625504091382027,-1.5959662199020386,0.5426592826843262,-0.07180190086364746,0.3996978998184204,-0.00957747083157301,-0.04558214172720909,-0.5683351159095764,0.027995431795716286,-1.5667517185211182,-1.5735607147216797,-1.6133674383163452,0.009941913187503815,0.9168460369110107,-0.8392878770828247,0.21048462390899658,0.19663286209106445,0.46634674072265625,-0.692948579788208,0.516960620880127,-0.5705094337463379,-0.10929930210113525,-0.0036685611121356487,1.6694239377975464,0.6803349256515503,-0.9616093635559082,-0.14229297637939453,-0.6679723262786865,0.46477270126342773
47,0.0010259872069582343,0.08812954276800156,0.5681326985359192,1.56509530544281,-0.1459665298461914,-1.4075411558151245,-0.9702158570289612,0.04614313691854477,-1.5925582647323608,0.5426592826843262,-0.07180190086364746,0.3996978998184204,0.013923310674726963,-0.05168265849351883,-0.5497045516967773,0.030252836644649506,-1.5700650215148926,-1.556303858757019,-1.60899019241333,-0.008262472227215767,0.9168460369110107,-0.8392878770828247,0.21048462390899658,0.19663286209106445,0.46634674072265625,-0.692948579788208,0.516960620880127,-0.5705094337463379,-0.10929930210113525,0.0020265704952180386,1.6695505380630493,0.6803349256515503,-0.9616093635559082,-0.14229297637939453,-0.6679723262786865,0.46477270126342773
48,-0.0015890641370788217,0.09356050938367844,0.5455236434936523,1.5638788938522339,-0.14685747027397156,-1.4072288274765015,-0.9583605527877808,0.046152643859386444,-1.5893309116363525,0.5426592826843262,-0.07180190086364746,0.3996978998184204,-0.02010302059352398,-0.04418684542179108,-0.5725581049919128,0.021011637523770332,-1.5661758184432983,-1.5792827606201172,-1.6062980890274048,0.015033971518278122,0.9168460369110107,-0.8392878770828247,0.21048462390899658,0.19663286209106445,0.46634674072265625,-0.692948579788208,0.516960620880127,-0.5705094337463379,-0.10929930210113525,-0.005207469686865807,1.6697357892990112,0.6803349256515503,-0.9616093635559082,-0.14229297637939453,-0.6679723262786865,0.46477270126342773
49,0.0022682794369757175,0.08627838641405106,0.573523223400116,1.566692590713501,-0.14798322319984436,-1.4075568914413452,-0.9470659494400024,0.04604834318161011,-1.5863279104232788,0.5426592826843262,-0.07180190086364746,0.3996978998184204,0.02803109586238861,-0.05209854990243912,-0.5439969301223755,0.027055025100708008,-1.5718790292739868,-1.5501582622528076,-1.6010035276412964,-0.015492339618504047,0.9168460369110107,-0.8392878770828247,0.21048462390899658,0.19663286209106445,0.46634674072265625,-0.692948579788208,0.516960620880127,-0.5705094337463379,-0.10929930210113525,0.004466583486646414,1.6699668169021606,0.6803349256515503,-0.9616093635559082,-0.14229297637939453,-0.6679723262786865,0.46477270126342773
50,-0.0031903088092803955,0.09324470162391663,0.538773775100708,1.5642263889312744,-0.14876383543014526,-1.4071041345596313,-0.9356948137283325,0.04611785337328911,-1.5835784673690796,0.5426592826843262,-0.07180190086364746,0.3996978998184204,-0.03615140914916992,-0.04219319298863411,-0.5790837407112122,0.012370416894555092,-1.5648192167282104,-1.5886529684066772,-1.5991911888122559,0.023475676774978638,0.9168460369110107,-0.8392878770828247,0.21048462390899658,0.19663286209106445,0.46634674072265625,-0.692948579788208,0.516960620880127,-0.5705094337463379,-0.10929930210113525,-0.008044199086725712,1.6702309846878052,0.6803349256515503,-0.9616093635559082,-0.14229297637939453,-0.6679723262786865,0.46477270126342773
51,0.004161065444350243,0.0836608037352562,0.5808637142181396,1.568810224533081,-0.1499946266412735,-1.4076308012008667,-0.9250680208206177,0.04600365832448006,-1.5810998678207397,0.5426592826843262,-0.07180190086364746,0.3996978998184204,0.040959522128105164,-0.0532839372754097,-0.5363848805427551,0.025931408628821373,-1.5746797323226929,-1.5408759117126465,-1.5928536653518677,-0.025833144783973694,0.9168460369110107,-0.8392878770828247,0.21048462390899658,0.19663286209106445,0.46634674072265625,-0.692948579788208,0.516960620880127,-0.5705094337463379,-0.10929930210113525,0.008502419106662273,1.6705267429351807,0.6803349256515503,-0.9616093635559082,-0.14229297637939453,-0.6679723262786865,0.46477270126342773
52,-0.004625027999281883,0.09355195611715317,0.5313685536384583,1.564147710800171,-0.15090802311897278,-1.4069873094558716,-0.9143713712692261,0.04614511877298355,-1.5788984298706055,0.5426592826843262,-0.07180190086364746,0.3996978998184204,-0.03977818042039871,-0.039215076714754105,-0.5863254070281982,0.0020434483885765076,-1.562544822692871,-1.5995216369628906,-1.592929482460022,0.03300265222787857,0.9168460369110107,-0.8392878770828247,0.21048462390899658,0.19663286209106445,0.46634674072265625,-0.692948579788208,0.516960620880127,-0.5705094337463379,-0.10929930210113525,-0.012350245378911495,1.6708407402038574,0.6803349256515503,-0.9616093635559082,-0.14229297637939453,-0.6679723262786865,0.46477270126342773
53,0.004573488142341375,0.079564668238163,0.5866267085075378,1.5710829496383667,-0.15250729024410248,-1.4077425003051758,-0.9045795202255249,0.04601495340466499,-1.5769717693328857,0.5426592826843262,-0.07180190086364746,0.3996978998184204,0.03386450931429863,-0.055336590856313705,-0.5303846001625061,0.02706361748278141,-1.5778498649597168,-1.5338057279586792,-1.5851918458938599,-0.03332364559173584,0.9168460369110107,-0.8392878770828247,0.21048462390899658,0.19663286209106445,0.46634674072265625,-0.692948579788208,0.516960620880127,-0.5705094337463379,-0.10929930210113525,0.013234066776931286,1.6711583137512207,0.6803349256515503,-0.9616093635559082,-0.14229297637939453,-0.6679723262786865,0.46477270126342773
54,-0.0037650831509381533,0.0953073725104332,0.5284293293952942,1.5641100406646729,-0.15384472906589508,-1.4069188833236694,-0.8947901129722595,0.046222127974033356,-1.5753107070922852,0.5426592826843262,-0.07180190086364746,0.3996978998184204,-0.026544954627752304,-0.035197287797927856,-0.5891315937042236,-0.007822372019290924,-1.5608536005020142,-1.603500485420227,-1.5876771211624146,0.03512290120124817,0.9168460369110107,-0.8392878770828247,0.21048462390899658,0.19663286209106445,0.46634674072265625,-0.692948579788208,0.516960620880127,-0.5705094337463379,-0.10929930210113525,-0.01573353260755539,1.6714526414871216,0.6803349256515503,-0.9616093635559082,-0.14229297637939453,-0.6679723262786865,0.46477270126342773
55,0.003085683099925518,0.07376790046691895,0.5857765078544617,1.5724983215332031,-0.15574216842651367,-1.4078209400177002,-0.8857899904251099,0.046061921864748,-1.5739012956619263,0.5426592826843262,-0.07180190086364746,0.3996978998184204,0.020010197535157204,-0.05842217803001404,-0.5308887958526611,0.026962272822856903,-1.5790960788726807,-1.5363672971725464,-1.57891845703125,-0.030770061537623405,0.9168460369110107,-0.8392878770828247,0.21048462390899658,0.19663286209106445,0.46634674072265625,-0.692948579788208,0.516960620880127,-0.5705094337463379,-0.10929930210113525,0.014977747574448586,1.6717041730880737,0.6803349256515503,-0.9616093635559082,-0.14229297637939453,-0.6679723262786865,0.46477270126342773
56,-0.0022280642297118902,0.09924843162298203,0.5322529077529907,1.565037727355957,-0.15725991129875183,-1.4069055318832397,-0.8768101334571838,0.046268317848443985,-1.5727263689041138,0.5426592826843262,-0.07180190086364746,0.3996978998184204,-0.014921353198587894,-0.0303819477558136,-0.5851213932037354,-0.012706645764410496,-1.5616471767425537,-1.5983644723892212,-1.5829235315322876,0.028416914865374565,0.9168460369110107,-0.8392878770828247,0.21048462390899658,0.19663286209106445,0.46634674072265625,-0.692948579788208,0.516960620880127,-0.5705094337463379,-0.10929930210113525,-0.01489526592195034,1.6718987226486206,0.6803349256515503,-0.9616093635559082,-0.14229297637939453,-0.6679723262786865,0.46477270126342773
57,0.0018038474954664707,0.0665697455406189,0.5797054171562195,1.572748064994812,-0.15891636908054352,-1.4078125953674316,-0.8682928085327148,0.04606382176280022,-1.5717660188674927,0.5426592826843262,-0.07180190086364746,0.3996978998184204,0.01118292286992073,-0.06241424009203911,-0.5362786650657654,0.022724008187651634,-1.5779969692230225,-1.544529676437378,-1.574620246887207,-0.02307889424264431,0.9168460369110107,-0.8392878770828247,0.21048462390899658,0.19663286209106445,0.46634674072265625,-0.692948579788208,0.516960620880127,-0.5705094337463379,-0.10929930210113525,0.01273177657276392,1.6720389127731323,0.6803349256515503,-0.9616093635559082,-0.14229297637939453,-0.6679723262786865,0.46477270126342773
58,-0.001258695381693542,0.10445667058229446,0.538459300994873,1.5665485858917236,-0.16019560396671295,-1.4069005250930786,-0.8598467111587524,0.04623904824256897,-1.5709991455078125,0.5426592826843262,-0.07180190086364746,0.3996978998184204,-0.00848463922739029,-0.025012759491801262,-0.5784649848937988,-0.01263330690562725,-1.5637383460998535,-1.5911535024642944,-1.5786411762237549,0.02041413076221943,0.9168460369110107,-0.8392878770828247,0.21048462390899658,0.19663286209106445,0.46634674072265625,-0.692948579788208,0.516960620880127,-0.5705094337463379,-0.10929930210113525,-0.011562413536012173,1.6721396446228027,0.6803349256515503,-0.9616093635559082,-0.14229297637939453,-0.6679723262786865,0.46477270126342773
59,0.0010763013269752264,0.05949566885828972,0.5731030702590942,1.572579026222229,-0.16142547130584717,-1.4077625274658203,-0.8517038226127625,0.04602786526083946,-1.570404052734375,0.5426592826843262,-0.07180190086364746,0.3996978998184204,0.006544653791934252,-0.0664699375629425,-0.5416519045829773,0.01681874878704548,-1.5763636827468872,-1.5520386695861816,-1.571881651878357,-0.016421763226389885,0.9168460369110107,-0.8392878770828247,0.21048462390899658,0.19663286209106445,0.46634674072265625,-0.692948579788208,0.516960620880127,-0.5705094337463379,-0.10929930210113525,0.009545632638037205,1.6722155809402466,0.6803349256515503,-0.9616093635559082,-0.14229297637939453,-0.6679723262786865,0.46477270126342773
60,-0.0007475634338334203,0.1085529625415802,0.5432797074317932,1.5678924322128296,-0.1624159961938858,-1.4068942070007324,-0.8437352776527405,0.04619745910167694,-1.5699588060379028,0.5426592826843262,-0.07180190086364746,0.3996978998184204,-0.005135484039783478,-0.020500928163528442,-0.5726025104522705,-0.01095673255622387,-1.5656301975250244,-1.5856143236160278,-1.5752516984939575,0.014495239593088627,0.9168460369110107,-0.8392878770828247,0.21048462390899658,0.19663286209106445,0.46634674072265625,-0.692948579788208,0.516960620880127,-0.5705094337463379,-0.10929930210113525,-0.008447607047855854,1.6722817420959473,0.6803349256515503,-0.9616093635559082,-0.14229297637939453,-0.6679723262786865,0.46477270126342773
61,0.0006792588974349201,0.05534600093960762,0.567880392074585,1.572404146194458,-0.16332580149173737,-1.4077271223068237,-0.8360424637794495,0.04600246623158455,-1.5696419477462769,0.5426592826843262,-0.07180190086364746,0.3996978998184204,0.004105186089873314,-0.06850383430719376,-0.545055627822876,0.011843079701066017,-1.575068712234497,-1.5573251247406006,-1.5701231956481934,-0.011944616213440895,0.9168460369110107,-0.8392878770828247,0.21048462390899658,0.19663286209106445,0.46634674072265625,-0.692948579788208,0.516960620880127,-0.5705094337463379,-0.10929930210113525,0.007062085438519716,1.6723424196243286,0.6803349256515503,-0.9616093635559082,-0.14229297637939453,-0.6679723262786865,0.46477270126342773
62,-0.0004814852145500481,0.10883660614490509,0.5459482073783875,1.568855881690979,-0.16410262882709503,-1.4068851470947266,-0.8285967707633972,0.04617983475327492,-1.5694334506988525,0.5426592826843262,-0.07180190086364746,0.3996978998184204,-0.0033406384754925966,-0.019135918468236923,-0.568159818649292,-0.009399082511663437,-1.5669702291488647,-1.5819865465164185,-1.5728834867477417,0.010630190372467041,0.9168460369110107,-0.8392878770828247,0.21048462390899658,0.19663286209106445,0.46634674072265625,-0.692948579788208,0.516960620880127,-0.5705094337463379,-0.10929930210113525,-0.0062447176314890385,1.6724023818969727,0.6803349256515503,-0.9616093635559082,-0.14229297637939453,-0.6679723262786865,0.46477270126342773
63,0.000454763910965994,0.055858902633190155,0.5640791654586792,1.5722838640213013,-0.16480371356010437,-1.4077228307724,-0.8214288353919983,0.04599430039525032,-1.5693143606185913,0.5426592826843262,-0.07180190086364746,0.3996978998184204,0.0027693226002156734,-0.06688108295202255,-0.5467965602874756,0.008397134952247143,-1.5741914510726929,-1.56074857711792,-1.569035291671753,-0.00913176964968443,0.9168460369110107,-0.8392878770828247,0.21048462390899658,0.19663286209106445,0.46634674072265625,-0.692948579788208,0.516960620880127,-0.5705094337463379,-0.10929930210113525,0.0054090614430606365,1.672458529472351,0.6803349256515503,-0.9616093635559082,-0.14229297637939453,-0.6679723262786865,0.46477270126342773
64,-0.0003384798183105886,0.10516244918107986,0.5470608472824097,1.5694822072982788,-0.16542929410934448,-1.4068632125854492,-0.814542293548584,0.0461842305958271,-1.5692675113677979,0.5426592826843262,-0.07180190086364746,0.3996978998184204,-0.0023368007969111204,-0.02133524790406227,-0.5649017691612244,-0.00825839675962925,-1.5678380727767944,-1.5797196626663208,-1.5713969469070435,0.00820212997496128,0.9168460369110107,-0.8392878770828247,0.21048462390899658,0.19663286209106445,0.46634674072265625,-0.692948579788208,0.516960620880127,-0.5705094337463379,-0.10929930210113525,-0.004817101173102856,1.672511100769043,0.6803349256515503,-0.9616093635559082,-0.14229297637939453,-0.6679723262786865,0.46477270126342773
65,0.00032410354469902813,0.05953776091337204,0.5614182949066162,1.5721980333328247,-0.16598978638648987,-1.407751202583313,-0.8079361319541931,0.04599303752183914,-1.5692775249481201,0.5426592826843262,-0.07180190086364746,0.3996978998184204,0.002007698407396674,-0.06268305331468582,-0.5476433038711548,0.006243991665542126,-1.573627233505249,-1.562882423400879,-1.5684449672698975,-0.0074045611545443535,0.9168460369110107,-0.8392878770828247,0.21048462390899658,0.19663286209106445,0.46634674072265625,-0.692948579788208,0.516960620880127,-0.5705094337463379,-0.10929930210113525,0.004365001805126667,1.672558069229126,0.6803349256515503,-0.9616093635559082,-0.14229297637939453,-0.6679723262786865,0.46477270126342773
66,-0.0002572749799583107,0.09993671625852585,0.5474072098731995,1.5698578357696533,-0.1665041446685791,-1.4068173170089722,-0.8016226291656494,0.046203285455703735,-1.5693309307098389,0.5426592826843262,-0.07180190086364746,0.3996978998184204,-0.0017547926399856806,-0.025139203295111656,-0.5625720620155334,-0.007453029975295067,-1.5683683156967163,-1.578331708908081,-1.5705827474594116,0.006718185264617205,0.9168460369110107,-0.8392878770828247,0.21048462390899658,0.19663286209106445,0.46634674072265625,-0.692948579788208,0.516960620880127,-0.5705094337463379,-0.10929930210113525,-0.0039315009489655495,1.672600269317627,0.6803349256515503,-0.9616093635559082,-0.14229297637939453,-0.6679723262786865,0.46477270126342773
67,0.00024735910119488835,0.0637965127825737,0.5596120953559875,1.572128415107727,-0.16696403920650482,-1.4078160524368286,-0.7955880761146545,0.045989878475666046,-1.5694159269332886,0.5426592826843262,-0.07180190086364746,0.3996978998184204,0.0015605539083480835,-0.05811700597405434,-0.5480603575706482,0.005031358450651169,-1.5732781887054443,-1.5641521215438843,-1.5682162046432495,-0.0063730329275131226,0.9168460369110107,-0.8392878770828247,0.21048462390899658,0.19663286209106445,0.46634674072265625,-0.692948579788208,0.516960620880127,-0.5705094337463379,-0.10929930210113525,0.00372908147983253,1.6726384162902832,0.6803349256515503,-0.9616093635559082,-0.14229297637939453,-0.6679723262786865,0.46477270126342773
68,-0.00020902956021018326,0.09517725557088852,0.5474439859390259,1.5700551271438599,-0.16739368438720703,-1.4067344665527344,-0.7898451685905457,0.04623405262827873,-1.5695223808288574,0.5426592826843262,-0.07180190086364746,0.3996978998184204,-0.0014106093440204859,-0.028730925172567368,-0.5609446167945862,-0.0068920268677175045,-1.5686641931533813,-1.5775172710418701,-1.5702452659606934,0.005863579455763102,0.9168460369110107,-0.8392878770828247,0.21048462390899658,0.19663286209106445,0.46634674072265625,-0.692948579788208,0.516960620880127,-0.5705094337463379,-0.10929930210113525,-0.003414641600102186,1.6726726293563843,0.6803349256515503,-0.9616093635559082,-0.14229297637939453,-0.6679723262786865,0.46477270126342773
69,0.00020255545678082854,0.06727911531925201,0.5584064722061157,1.572069764137268,-0.16777855157852173,-1.407928705215454,-0.7843756079673767,0.045978207141160965,-1.569642186164856,0.5426592826843262,-0.07180190086364746,0.3996978998184204,0.0012963898479938507,-0.054375436156988144,-0.5482239127159119,0.004480150993913412,-1.5730814933776855,-1.5648267269134521,-1.5682272911071777,-0.005808834917843342,0.9168460369110107,-0.8392878770828247,0.21048462390899658,0.19663286209106445,0.46634674072265625,-0.692948579788208,0.516960620880127,-0.5705094337463379,-0.10929930210113525,0.0033720959909260273,1.6727046966552734,0.6803349256515503,-0.9616093635559082,-0.14229297637939453,-0.6679723262786865,0.46477270126342773
70,-0.00018044740136247128,0.09154088795185089,0.5473272204399109,1.5701262950897217,-0.16814284026622772,-1.406596064567566,-0.7791904211044312,0.04627802222967148,-1.5697684288024902,0.5426592826843262,-0.07180190086364746,0.3996978998184204,-0.0012099648592993617,-0.031458500772714615,-0.5598371028900146,-0.006538204848766327,-1.5687907934188843,-1.577108383178711,-1.5702258348464966,0.0054543884471058846,0.9168460369110107,-0.8392878770828247,0.21048462390899658,0.19663286209106445,0.46634674072265625,-0.692948579788208,0.516960620880127,-0.5705094337463379,-0.10929930210113525,-0.0031593416351825,1.6727333068847656,0.6803349256515503,-0.9616093635559082,-0.14229297637939453,-0.6679723262786865,0.46477270126342773
71,0.00017752889834810048,0.0697471871972084,0.5576265454292297,1.5720272064208984,-0.1684710681438446,-1.4081120491027832,-0.7742696404457092,0.045951373875141144,-1.569895625114441,0.5426592826843262,-0.07180190086364746,0.3996978998184204,0.0011473445920273662,-0.051656726747751236,-0.548193633556366,0.0044045294634997845,-1.573005199432373,-1.565061330795288,-1.5683729648590088,-0.005592347122728825,0.9168460369110107,-0.8392878770828247,0.21048462390899658,0.19663286209106445,0.46634674072265625,-0.692948579788208,0.516960620880127,-0.5705094337463379,-0.10929930210113525,0.0032227514311671257,1.6727607250213623,0.6803349256515503,-0.9616093635559082,-0.14229297637939453,-0.6679723262786865,0.46477270126342773
72,-0.00016511503781657666,0.08896064013242722,0.5470882058143616,1.570106029510498,-0.16878558695316315,-1.4063695669174194,-0.7696221470832825,0.04634122923016548,-1.5700196027755737,0.5426592826843262,-0.07180190086364746,0.3996978998184204,-0.0011040918761864305,-0.03333321213722229,-0.5591267347335815,-0.006398539058864117,-1.5687839984893799,-1.5770279169082642,-1.5704063177108765,0.005394411273300648,0.9168460369110107,-0.8392878770828247,0.21048462390899658,0.19663286209106445,0.46634674072265625,-0.692948579788208,0.516960620880127,-0.5705094337463379,-0.10929930210113525,-0.0031078082975000143,1.6727843284606934,0.6803349256515503,-0.9616093635559082,-0.14229297637939453,-0.6679723262786865,0.46477270126342773
73,0.00016587122809141874,0.07137297093868256,0.5571743249893188,1.5720118284225464,-0.16907213628292084,-1.4084081649780273,-0.7652277946472168,0.04589929059147835,-1.57013738155365,0.5426592826843262,-0.07180190086364746,0.3996978998184204,0.0010786894708871841,-0.04978887736797333,-0.5479899048805237,0.004697977565228939,-1.573039174079895,-1.5649319887161255,-1.5685675144195557,-0.005674493033438921,0.9168460369110107,-0.8392878770828247,0.21048462390899658,0.19663286209106445,0.46634674072265625,-0.692948579788208,0.516960620880127,-0.5705094337463379,-0.10929930210113525,0.00325011950917542,1.6728074550628662,0.6803349256515503,-0.9616093635559082,-0.14229297637939453,-0.6679723262786865,0.46477270126342773
74,-0.00015992089174687862,0.08719315379858017,0.5467196106910706,1.5700143575668335,-0.16935086250305176,-1.4059979915618896,-0.7610938549041748,0.04643584042787552,-1.570246696472168,0.5426592826843262,-0.07180190086364746,0.3996978998184204,-0.0010688150068745017,-0.03454205021262169,-0.5587427616119385,-0.006510321516543627,-1.5686564445495605,-1.5772595405578613,-1.5707056522369385,0.005648164078593254,0.9168460369110107,-0.8392878770828247,0.21048462390899658,0.19663286209106445,0.46634674072265625,-0.692948579788208,0.516960620880127,-0.5705094337463379,-0.10929930210113525,-0.003237975062802434,1.6728264093399048,0.6803349256515503,-0.9616093635559082,-0.14229297637939453,-0.6679723262786865,0.46477270126342773
75,0.00016457495803479105,0.07237820327281952,0.5570053458213806,1.5720382928848267,-0.1696096956729889,-1.4088935852050781,-0.7572000026702881,0.0458049438893795,-1.5703462362289429,0.5426592826843262,-0.07180190086364746,0.3996978998184204,0.0010744895553216338,-0.04855731874704361,-0.5476121306419373,0.0053191720508039,-1.5731898546218872,-1.5644556283950806,-1.5687440633773804,-0.00605646800249815,0.9168460369110107,-0.8392878770828247,0.21048462390899658,0.19663286209106445,0.46634674072265625,-0.692948579788208,0.516960620880127,-0.5705094337463379,-0.10929930210113525,0.0034527459647506475,1.672845721244812,0.6803349256515503,-0.9616093635559082,-0.14229297637939453,-0.6679723262786865,0.46477270126342773
76,-0.0001637106906855479,0.08602073043584824,0.5461972951889038,1.5698585510253906,-0.16986685991287231,-1.4053775072097778,-0.7535530924797058,0.046584825962781906,-1.5704351663589478,0.5426592826843262,-0.07180190086364746,0.3996978998184204,-0.0010948801646009088,-0.03525876626372337,-0.5586547255516052,-0.0069357710890471935,-1.5684016942977905,-1.577833890914917,-1.5710757970809937,0.006228105165064335,0.9168460369110107,-0.8392878770828247,0.21048462390899658,0.19663286209106445,0.46634674072265625,-0.692948579788208,0.516960620880127,-0.5705094337463379,-0.10929930210113525,-0.00355650600977242,1.6728602647781372,0.6803349256515503,-0.9616093635559082,-0.14229297637939453,-0.6679723262786865,0.46477270126342773
77,0.00017282141197938472,0.07293149828910828,0.5571121573448181,1.5721240043640137,-0.17011314630508423,-1.4097096920013428,-0.7501323819160461,0.04563736543059349,-1.570513367652893,0.5426592826843262,-0.07180190086364746,0.3996978998184204,0.0011312400456517935,-0.04779860004782677,-0.5470402240753174,0.00628494331613183,-1.5734788179397583,-1.563598871231079,-1.568851113319397,-0.006781791336834431,0.9168460369110107,-0.8392878770828247,0.21048462390899658,0.19663286209106445,0.46634674072265625,-0.692948579788208,0.516960620880127,-0.5705094337463379,-0.10929930210113525,0.0038546861615031958,1.6728768348693848,0.6803349256515503,-0.9616093635559082,-0.14229297637939453,-0.6679723262786865,0.46477270126342773
78,-0.00017682899488136172,0.08529142290353775,0.5454810857772827,1.5696334838867188,-0.17036555707454681,-1.40431547164917,-0.746945858001709,0.04683125019073486,-1.5705809593200684,0.5426592826843262,-0.07180190086364746,0.3996978998184204,-0.0011840526713058352,-0.03560240566730499,-0.558864951133728,-0.0077637797221541405,-1.5679949522018433,-1.5788235664367676,-1.5714964866638184,0.007190195377916098,0.9168460369110107,-0.8392878770828247,0.21048462390899658,0.19663286209106445,0.46634674072265625,-0.692948579788208,0.516960620880127,-0.5705094337463379,-0.10929930210113525,-0.004097122699022293,1.6728874444961548,0.6803349256515503,-0.9616093635559082,-0.14229297637939453,-0.6679723262786865,0.46477270126342773
79,0.0001915329194162041,0.07313837856054306,0.5575172305107117,1.5722905397415161,-0.17061878740787506,-1.411121129989624,-0.7439717054367065,0.04533834010362625,-1.5706382989883423,0.5426592826843262,-0.07180190086364746,0.3996978998184204,0.0012559000169858336,-0.047409337013959885,-0.5462326407432556,0.007665942423045635,-1.5739444494247437,-1.5622793436050415,-1.568846583366394,-0.007934031076729298,0.9168460369110107,-0.8392878770828247,0.21048462390899658,0.19663286209106445,0.46634674072265625,-0.692948579788208,0.516960620880127,-0.5705094337463379,-0.10929930210113525,0.004505373537540436,1.6729029417037964,0.6803349256515503,-0.9616093635559082,-0.14229297637939453,-0.6679723262786865,0.46477270126342773
80,-0.00020113243954256177,0.08491251617670059,0.544511616230011,1.5693212747573853,-0.1708896905183792,-1.4024490118026733,-0.7412217855453491,0.04725699499249458,-1.5706861019134521,0.5426592826843262,-0.07180190086364746,0.3996978998184204,-0.0013487485703080893,-0.03563982620835304,-0.5594057440757751,-0.00911409966647625,-1.5673907995224,-1.5803420543670654,-1.5719716548919678,0.00863339751958847,0.9168460369110107,-0.8392878770828247,0.21048462390899658,0.19663286209106445,0.46634674072265625,-0.692948579788208,0.516960620880127,-0.5705094337463379,-0.10929930210113525,-0.004922464489936829,1.6729105710983276,0.6803349256515503,-0.9616093635559082,-0.14229297637939453,-0.6679723262786865,0.46477270126342773
81,0.0002234679996035993,0.07305196672677994,0.5582714080810547,1.572564721107483,-0.17117884755134583,-1.413626790046692,-0.7386712431907654,0.044796671718358994,-1.5707253217697144,0.5426592826843262,-0.07180190086364746,0.3996978998184204,0.001466984860599041,-0.04733611270785332,-0.5451235771179199,0.009581943042576313,-1.5746428966522217,-1.5603705644607544,-1.5686931610107422,-0.009634144604206085,0.9168460369110107,-0.8392878770828247,0.21048462390899658,0.19663286209106445,0.46634674072265625,-0.692948579788208,0.516960620880127,-0.5705094337463379,-0.10929930210113525,0.005480851978063583,1.6729276180267334,0.6803349256515503,-0.9616093635559082,-0.14229297637939453,-0.6679723262786865,0.46477270126342773
82,-0.00024039068375714123,0.08483751118183136,0.5432066321372986,1.5688910484313965,-0.171504408121109,-1.3991005420684814,-0.7363407015800476,0.04801877588033676,-1.5707566738128662,0.5426592826843262,-0.07180190086364746,0.3996978998184204,-0.0016145966947078705,-0.03539528697729111,-0.560338020324707,-0.011130647733807564,-1.5665251016616821,-1.5825337171554565,-1.572524070739746,0.010689493268728256,0.9168460369110107,-0.8392878770828247,0.21048462390899658,0.19663286209106445,0.46634674072265625,-0.692948579788208,0.516960620880127,-0.5705094337463379,-0.10929930210113525,-0.00612427806481719,1.6729328632354736,0.6803349256515503,-0.9616093635559082,-0.14229297637939453,-0.6679723262786865,0.46477270126342773
83,0.0002738271141424775,0.07268315553665161,0.5594513416290283,1.5729761123657227,-0.1718766987323761,-1.4181346893310547,-0.734198808670044,0.04380118101835251,-1.5707812309265137,0.5426592826843262,-0.07180190086364746,0.3996978998184204,0.0017987103201448917,-0.047565359622240067,-0.5436222553253174,0.01217610202729702,-1.575644850730896,-1.557727336883545,-1.5683550834655762,-0.012018546462059021,0.9168460369110107,-0.8392878770828247,0.21048462390899658,0.19663286209106445,0.46634674072265625,-0.692948579788208,0.516960620880127,-0.5705094337463379,-0.10929930210113525,0.0068781436420977116,1.672955870628357,0.6803349256515503,-0.9616093635559082,-0.14229297637939453,-0.6679723262786865,0.46477270126342773
84,-0.00030116087873466313,0.08505599200725555,0.5414632558822632,1.5683023929595947,-0.17231641709804535,-1.3931055068969727,-0.732283353805542,0.049406278878450394,-1.5707999467849731,0.5426592826843262,-0.07180190086364746,0.3996978998184204,-0.0020263739861547947,-0.03485804423689842,-0.5617459416389465,-0.01393874827772379,-1.565325140953064,-1.5855234861373901,-1.573184847831726,0.01347904372960329,0.9168460369110107,-0.8392878770828247,0.21048462390899658,0.19663286209106445,0.46634674072265625,-0.692948579788208,0.516960620880127,-0.5705094337463379,-0.10929930210113525,-0.007811013143509626,1.6729599237442017,0.6803349256515503,-0.9616093635559082,-0.14229297637939453,-0.6679723262786865,0.46477270126342773
85,0.000351498369127512,0.07200668752193451,0.5611482858657837,1.5735455751419067,-0.1728505939245224,-1.426020622253418,-0.7305474281311035,0.041981857270002365,-1.570813536643982,0.5426592826843262,-0.07180190086364746,0.3996978998184204,0.002309075789526105,-0.048115842044353485,-0.5416227579116821,0.015529832802712917,-1.5770119428634644,-1.5542731285095215,-1.5678046941757202,-0.01516001671552658,0.9168460369110107,-0.8392878770828247,0.21048462390899658,0.19663286209106445,0.46634674072265625,-0.692948579788208,0.516960620880127,-0.5705094337463379,-0.10929930210113525,0.008782567456364632,1.6729971170425415,0.6803349256515503,-0.9616093635559082,-0.14229297637939453,-0.6679723262786865,0.46477270126342773
86,-0.0003943256742786616,0.08558617532253265,0.5391789078712463,1.5675188302993774,-0.17349965870380402,-1.3831472396850586,-0.7290616631507874,0.05186808109283447,-1.570823073387146,0.5426592826843262,-0.07180190086364746,0.3996978998184204,-0.002658624667674303,-0.033988531678915024,-0.563713788986206,-0.017512641847133636,-1.5637521743774414,-1.5892748832702637,-1.5739684104919434,0.01698334887623787,0.9168460369110107,-0.8392878770828247,0.21048462390899658,0.19663286209106445,0.46634674072265625,-0.692948579788208,0.516960620880127,-0.5705094337463379,-0.10929930210113525,-0.01005460973829031,1.6730012893676758,0.6803349256515503,-0.9616093635559082,-0.14229297637939453,-0.6679723262786865,0.46477270126342773
87,0.0004712142108473927,0.07096497714519501,0.5634273290634155,1.5742508172988892,-0.17431801557540894,-1.4378292560577393,-0.7277417182922363,0.038905173540115356,-1.570829153060913,0.5426592826843262,-0.07180190086364746,0.3996978998184204,0.0030934789683669806,-0.04903017729520798,-0.539042055606842,0.019460270181298256,-1.5787279605865479,-1.5502073764801025,-1.5670512914657593,-0.01887739822268486,0.9168460369110107,-0.8392878770828247,0.21048462390899658,0.19663286209106445,0.46634674072265625,-0.692948579788208,0.516960620880127,-0.5705094337463379,-0.10929930210113525,0.011174238286912441,1.6730661392211914,0.6803349256515503,-0.9616093635559082,-0.14229297637939453,-0.6679723262786865,0.46477270126342773
88,-0.0005375987384468317,0.08646638691425323,0.5363144874572754,1.5665489435195923,-0.17530681192874908,-1.370820164680481,-0.7267157435417175,0.055610641837120056,-1.5708324909210205,0.5426592826843262,-0.07180190086364746,0.3996978998184204,-0.0036329226568341255,-0.03272811695933342,-0.5662611722946167,-0.02142142504453659,-1.5619029998779297,-1.5933219194412231,-1.5748227834701538,0.020797666162252426,0.9168460369110107,-0.8392878770828247,0.21048462390899658,0.19663286209106445,0.46634674072265625,-0.692948579788208,0.516960620880127,-0.5705094337463379,-0.10929930210113525,-0.012749066576361656,1.6730715036392212,0.6803349256515503,-0.9616093635559082,-0.14229297637939453,-0.6679723262786865,0.46477270126342773
89,0.0006571874255314469,0.06947377324104309,0.5662320256233215,1.5749746561050415,-0.17655859887599945,-1.4482243061065674,-0.7258182764053345,0.035031769424676895,-1.5708335638046265,0.5426592826843262,-0.07180190086364746,0.3996978998184204,0.004306901711970568,-0.05035915598273277,-0.5359115600585938,0.023231185972690582,-1.5805736780166626,-1.5462920665740967,-1.5662033557891846,-0.02246536687016487,0.9168460369110107,-0.8392878770828247,0.21048462390899658,0.19663286209106445,0.46634674072265625,-0.692948579788208,0.516960620880127,-0.5705094337463379,-0.10929930210113525,0.013768255710601807,1.673177719116211,0.6803349256515503,-0.9616093635559082,-0.14229297637939453,-0.6679723262786865,0.46477270126342773
90,-0.000759941409341991,0.08774518966674805,0.5330126881599426,1.5655314922332764,-0.17800435423851013,-1.3653786182403564,-0.7252587080001831,0.05899288132786751,-1.5708330869674683,0.5426592826843262,-0.07180190086364746,0.3996978998184204,-0.005147600546479225,-0.031013840809464455,-0.5692222118377686,-0.024646783247590065,-1.5601449012756348,-1.596584677696228,-1.5755809545516968,0.02394033595919609,0.9168460369110107,-0.8392878770828247,0.21048462390899658,0.19663286209106445,0.46634674072265625,-0.692948579788208,0.516960620880127,-0.5705094337463379,-0.10929930210113525,-0.015389781445264816,1.6731737852096558,0.6803349256515503,-0.9616093635559082,-0.14229297637939453,-0.6679723262786865,0.46477270126342773
91,0.0009502950124442577,0.06742501258850098,0.5692543387413025,1.575524091720581,-0.17977041006088257,-1.4471988677978516,-0.7247514724731445,0.0332333967089653,-1.5708314180374146,0.5426592826843262,-0.07180190086364746,0.3996978998184204,0.006205769255757332,-0.05214367061853409,-0.5325012803077698,0.025590328499674797,-1.5820597410202026,-1.5438077449798584,-1.5655171871185303,-0.024727515876293182,0.9168460369110107,-0.8392878770828247,0.21048462390899658,0.19663286209106445,0.46634674072265625,-0.692948579788208,0.516960620880127,-0.5705094337463379,-0.10929930210113525,0.0159488245844841,1.6732995510101318,0.6803349256515503,-0.9616093635559082,-0.14229297637939453,-0.6679723262786865,0.46477270126342773
92,-0.001110606361180544,0.08947505056858063,0.5297065377235413,1.5647993087768555,-0.18166787922382355,-1.3720557689666748,-0.7245649099349976,0.05885781720280647,-1.5708290338516235,0.5426592826843262,-0.07180190086364746,0.3996978998184204,-0.007535016629844904,-0.028789889067411423,-0.5721344351768494,-0.025982508435845375,-1.559066891670227,-1.5978288650512695,-1.576009750366211,0.025232234969735146,0.9168460369110107,-0.8392878770828247,0.21048462390899658,0.19663286209106445,0.46634674072265625,-0.692948579788208,0.516960620880127,-0.5705094337463379,-0.10929930210113525,-0.017105786129832268,1.673262357711792,0.6803349256515503,-0.9616093635559082,-0.14229297637939453,-0.6679723262786865,0.46477270126342773
93,0.0014213781105354428,0.06470654159784317,0.5718615055084229,1.5757640600204468,-0.1838243454694748,-1.4373821020126343,-0.7243438959121704,0.03517446666955948,-1.5708260536193848,0.5426592826843262,-0.07180190086364746,0.3996978998184204,0.00921609252691269,-0.054382674396038055,-0.5293881297111511,0.025623220950365067,-1.5826444625854492,-1.5437268018722534,-1.5652765035629272,-0.024766165763139725,0.9168460369110107,-0.8392878770828247,0.21048462390899658,0.19663286209106445,0.46634674072265625,-0.692948579788208,0.516960620880127,-0.5705094337463379,-0.10929930210113525,0.01698543317615986,1.6733577251434326,0.6803349256515503,-0.9616093635559082,-0.14229297637939453,-0.6679723262786865,0.46477270126342773
94,-0.0016714490484446287,0.0916501060128212,0.5271271467208862,1.5646766424179077,-0.18597464263439178,-1.382610559463501,-0.7243378758430481,0.0559382364153862,-1.570822834968567,0.5426592826843262,-0.07180190086364746,0.3996978998184204,-0.011321564204990864,-0.02606414258480072,-0.5742241144180298,-0.024951426312327385,-1.5590674877166748,-1.5966523885726929,-1.5759724378585815,0.024225791916251183,0.9168460369110107,-0.8392878770828247,0.21048462390899658,0.19663286209106445,0.46634674072265625,-0.692948579788208,0.516960620880127,-0.5705094337463379,-0.10929930210113525,-0.017279930412769318,1.673296332359314,0.6803349256515503,-0.9616093635559082,-0.14229297637939453,-0.6679723262786865,0.46477270126342773
95,0.0021844699513167143,0.06132457032799721,0.5731915831565857,1.5756474733352661,-0.18822000920772552,-1.4275914430618286,-0.7242404222488403,0.03835105895996094,-1.5708194971084595,0.5426592826843262,-0.07180190086364746,0.3996978998184204,0.013951752334833145,-0.056922730058431625,-0.5273604989051819,0.02354092337191105,-1.5821553468704224,-1.545886754989624,-1.565547227859497,-0.022763153538107872,0.9168460369110107,-0.8392878770828247,0.21048462390899658,0.19663286209106445,0.46634674072265625,-0.692948579788208,0.516960620880127,-0.5705094337463379,-0.10929930210113525,0.016518406569957733,1.6733474731445312,0.6803349256515503,-0.9616093635559082,-0.14229297637939453,-0.6679723262786865,0.46477270126342773
96,-0.002561752451583743,0.09404776990413666,0.5260236859321594,1.565137505531311,-0.19033294916152954,-1.3909666538238525,-0.7242391705513,0.05293021351099014,-1.570816159248352,0.5426592826843262,-0.07180190086364746,0.3996978998184204,-0.017148420214653015,-0.02302834577858448,-0.5746769309043884,-0.022203566506505013,-1.5600136518478394,-1.5937700271606445,-1.575541377067566,0.021557744592428207,0.9168460369110107,-0.8392878770828247,0.21048462390899658,0.19663286209106445,0.46634674072265625,-0.692948579788208,0.516960620880127,-0.5705094337463379,-0.10929930210113525,-0.016036463901400566,1.673284649848938,0.6803349256515503,-0.9616093635559082,-0.14229297637939453,-0.6679723262786865,0.46477270126342773
97,0.003388253040611744,0.05758126825094223,0.5726334452629089,1.5752356052398682,-0.19239351153373718,-1.4207179546356201,-0.7241309285163879,0.04089702293276787,-1.5708130598068237,0.5426592826843262,-0.07180190086364746,0.3996978998184204,0.020936938002705574,-0.05934150144457817,-0.5269562005996704,0.02036152593791485,-1.5809255838394165,-1.5492441654205322,-1.5661499500274658,-0.019694244489073753,0.9168460369110107,-0.8392878770828247,0.21048462390899658,0.19663286209106445,0.46634674072265625,-0.692948579788208,0.516960620880127,-0.5705094337463379,-0.10929930210113525,0.014908265322446823,1.6733049154281616,0.6803349256515503,-0.9616093635559082,-0.14229297637939453,-0.6679723262786865,0.46477270126342773
98,-0.0038986848667263985,0.09608263522386551,0.5265912413597107,1.5658977031707764,-0.1942688226699829,-1.3964414596557617,-0.7240495085716248,0.05076121538877487,-1.5708101987838745,0.5426592826843262,-0.07180190086364746,0.3996978998184204,-0.025125514715909958,-0.020128164440393448,-0.5732146501541138,-0.01884543150663376,-1.5614272356033325,-1.590299367904663,-1.5749226808547974,0.018293442204594612,0.9168460369110107,-0.8392878770828247,0.21048462390899658,0.19663286209106445,0.46634674072265625,-0.692948579788208,0.516960620880127,-0.5705094337463379,-0.10929930210113525,-0.014030867256224155,1.6732510328292847,0.6803349256515503,-0.9616093635559082,-0.14229297637939453,-0.6679723262786865,0.46477270126342773
99,0.005098464898765087,0.054117705672979355,0.5703220963478088,1.5746856927871704,-0.1960248202085495,-1.4163508415222168,-0.7238754034042358,0.042587097734212875,-1.570807695388794,0.5426592826843262,-0.07180190086364746,0.3996978998184204,0.02939021959900856,-0.06095678359270096,-0.5280103087425232,0.0170684065669775,-1.5794522762298584,-1.5527536869049072,-1.5668494701385498,-0.01650836318731308,0.9168460369110107,-0.8392878770828247,0.21048462390899658,0.19663286209106445,0.46634674072265625,-0.692948579788208,0.516960620880127,-0.5705094337463379,-0.10929930210113525,0.01285097748041153,1.6732566356658936,0.6803349256515503,-0.9616093635559082,-0.14229297637939453,-0.6679723262786865,0.46477270126342773
