,0,1,2,3,4,5,6,7,8,9,10,11,12,13,14,15,16,17,18,19,20,21,22,23
0,0.40379440784454346,-0.5974328517913818,0.8095961809158325,0.1720747947692871,0.5436103343963623,-0.8520537614822388,0.43365299701690674,0.773065447807312,0.5273540019989014,-0.36921465396881104,-0.1110219955444336,0.27733373641967773,-0.26571881771087646,-0.2895350456237793,0.8563913106918335,0.9521433115005493,-0.5908212661743164,0.8390626907348633,-0.06502556800842285,-0.03383445739746094,-0.7532157897949219,-0.008310317993164062,-0.9242038726806641,0.9182485342025757
1,0.3513179421424866,-0.544956386089325,0.7571196556091309,0.11959829926490784,0.596086859703064,-0.7995776534080505,0.486129492521286,0.773065447807312,0.4748775064945221,-0.31673818826675415,-0.05854545533657074,0.22485719621181488,-0.31819531321525574,-0.34201163053512573,0.8563913106918335,0.9521433115005493,-0.5908212661743164,0.8390626907348633,-0.06502556800842285,-0.0863109678030014,-0.8056923151016235,-0.008310317993164062,-0.9242038726806641,0.9182485342025757
2,0.3108937442302704,-0.5096461772918701,0.7197753190994263,0.09474113583564758,0.6228957772254944,-0.7552325129508972,0.5305673480033875,0.773065447807312,0.4302201271057129,-0.2723660171031952,-0.018279504030942917,0.184811532497406,-0.3574029505252838,-0.3830406963825226,0.8563913106918335,0.9521433115005493,-0.5908212661743164,0.8390626907348633,-0.06502556800842285,-0.09442774206399918,-0.8485004305839539,-0.008310317993164062,-0.9242038726806641,0.9182485342025757
3,0.27328434586524963,-0.47919678688049316,0.6844088435173035,0.07468574494123459,0.6321173310279846,-0.7199941873550415,0.5759440064430237,0.773065447807312,0.3870827555656433,-0.23178109526634216,0.018613114953041077,0.14784350991249084,-0.39158016443252563,-0.42199233174324036,0.8563913106918335,0.9521433115005493,-0.5908212661743164,0.8390626907348633,-0.06502556800842285,-0.07346116006374359,-0.8912515044212341,-0.008310317993164062,-0.9242038726806641,0.9182485342025757
4,0.23639076948165894,-0.449994832277298,0.648632287979126,0.04954957962036133,0.6194629073143005,-0.7061575651168823,0.6242713332176208,0.773065447807312,0.3435896337032318,-0.19344733655452728,0.05401226505637169,0.11236798018217087,-0.42097964882850647,-0.46098753809928894,0.8563913106918335,0.9521433115005493,-0.5908212661743164,0.8390626907348633,-0.06502556800842285,-0.036024563014507294,-0.9363643527030945,-0.008310317993164062,-0.9242038726806641,0.9182485342025757
5,0.1997688114643097,-0.41981810331344604,0.6124313473701477,0.014497826807200909,0.5868767499923706,-0.7246007323265076,0.6754059195518494,0.773065447807312,0.29926836490631104,-0.1576535403728485,0.08826350420713425,0.07931104302406311,-0.44339466094970703,-0.5005323886871338,0.8563913106918335,0.9521433115005493,-0.5908212661743164,0.8390626907348633,-0.06502556800842285,0.009523304179310799,-0.984233021736145,-0.008310317993164062,-0.9242038726806641,0.9182485342025757
6,0.16355513036251068,-0.3870370388031006,0.5760042071342468,-0.02987479418516159,0.544816792011261,-0.7603013515472412,0.7283579111099243,0.773065447807312,0.25428512692451477,-0.12586592137813568,0.12130710482597351,0.05156517028808594,-0.4555520713329315,-0.5406365990638733,0.8563913106918335,0.9521433115005493,-0.5908212661743164,0.8390626907348633,-0.06502556800842285,0.05891759321093559,-1.0342234373092651,-0.008310317993164062,-0.9242038726806641,0.9182485342025757
7,0.12813928723335266,-0.3505786061286926,0.5390037894248962,-0.07969141751527786,0.5027966499328613,-0.7963306307792664,0.7819551825523376,0.773065447807312,0.20925220847129822,-0.09946172684431076,0.15270546078681946,0.03349465876817703,-0.45444080233573914,-0.5811145305633545,0.8563913106918335,0.9521433115005493,-0.5908212661743164,0.8390626907348633,-0.06502556800842285,0.10822226107120514,-1.085182785987854,-0.008310317993164062,-0.9242038726806641,0.9182485342025757
8,0.09418103098869324,-0.31036287546157837,0.5005766749382019,-0.1306849867105484,0.46762025356292725,-0.8240841031074524,0.835094690322876,0.773065447807312,0.16509577631950378,-0.07824160158634186,0.18226966261863708,0.029093114659190178,-0.44022440910339355,-0.621795654296875,0.8563913106918335,0.9521433115005493,-0.5908212661743164,0.8390626907348633,-0.06502556800842285,0.15380510687828064,-1.1359201669692993,-0.008310317993164062,-0.9242038726806641,0.9182485342025757
9,0.06273273378610611,-0.2674619257450104,0.4597545862197876,-0.17956766486167908,0.44360867142677307,-0.8433586359024048,0.886970043182373,0.773065447807312,0.12294366955757141,-0.06023494154214859,0.2104775756597519,0.039201654493808746,-0.4171600341796875,-0.6626005172729492,0.8563913106918335,0.9521433115005493,-0.5908212661743164,0.8390626907348633,-0.06502556800842285,0.19291605055332184,-1.1855448484420776,-0.008310317993164062,-0.9242038726806641,0.9182485342025757
10,0.035256318747997284,-0.22353287041187286,0.4160981774330139,-0.2240447849035263,0.4318709075450897,-0.8629074096679688,0.9371541142463684,0.773065447807312,0.08408448100090027,-0.04355737194418907,0.23805558681488037,0.06090107932686806,-0.39085400104522705,-0.7034425735473633,0.8563913106918335,0.9521433115005493,-0.5908212661743164,0.8390626907348633,-0.06502556800842285,0.22421443462371826,-1.2335325479507446,-0.008310317993164062,-0.9242038726806641,0.9182485342025757
11,0.013338726945221424,-0.18028080463409424,0.3699738085269928,-0.26253804564476013,0.4313492476940155,-0.8934684991836548,0.985442578792572,0.773065447807312,0.049911439418792725,-0.028138987720012665,0.26559537649154663,0.08985995501279831,-0.36622077226638794,-0.7441619038581848,0.8563913106918335,0.9521433115005493,-0.5908212661743164,0.8390626907348633,-0.06502556800842285,0.2475123405456543,-1.2795844078063965,-0.008310317993164062,-0.9242038726806641,0.9182485342025757
12,-0.0019211573526263237,-0.13932883739471436,0.3223259747028351,-0.2939349412918091,0.44052550196647644,-0.9394914507865906,1.0317091941833496,0.773065447807312,0.021732540801167488,-0.01529916375875473,0.2932618260383606,0.12240228801965714,-0.34751567244529724,-0.784532904624939,0.8563913106918335,0.9521433115005493,-0.5908212661743164,0.8390626907348633,-0.06502556800842285,0.2631603479385376,-1.3235063552856445,-0.008310317993164062,-0.9242038726806641,0.9182485342025757
13,-0.010522718541324139,-0.10205306857824326,0.2743293344974518,-0.31756842136383057,0.45723551511764526,-0.9990644454956055,1.075882911682129,0.773065447807312,0.0004349490627646446,-0.00620609987527132,0.32038047909736633,0.15609382092952728,-0.33857864141464233,-0.8242716789245605,0.8563913106918335,0.9521433115005493,-0.5908212661743164,0.8390626907348633,-0.06502556800842285,0.2719917297363281,-1.3651955127716064,-0.008310317993164062,-0.9242038726806641,0.9182485342025757
14,-0.013673379085958004,-0.06929080933332443,0.2270573377609253,-0.33371540904045105,0.4784591495990753,-1.0685218572616577,1.1179200410842896,0.773065447807312,-0.013855070807039738,-0.0008827894926071167,0.3455045223236084,0.18977685272693634,-0.3422289192676544,-0.8630804419517517,0.8563913106918335,0.9521433115005493,-0.5908212661743164,0.8390626907348633,-0.06502556800842285,0.275088369846344,-1.4046136140823364,-0.008310317993164062,-0.9242038726806641,0.9182485342025757
15,-0.01325948629528284,-0.04129253327846527,0.18122521042823792,-0.34406331181526184,0.5012133121490479,-1.1448580026626587,1.1577377319335938,0.773065447807312,-0.021868400275707245,0.001733256969600916,0.3672468960285187,0.22344982624053955,-0.3593730330467224,-0.9007580876350403,0.8563913106918335,0.9521433115005493,-0.5908212661743164,0.8390626907348633,-0.06502556800842285,0.2731357216835022,-1.4417086839675903,-0.008310317993164062,-0.9242038726806641,0.9182485342025757
16,-0.01110786758363247,-0.018005983904004097,0.13707494735717773,-0.3511908948421478,0.5230498313903809,-1.2257407903671265,1.195189356803894,0.773065447807312,-0.024940311908721924,0.0030592004768550396,0.38529491424560547,0.25778865814208984,-0.38888874650001526,-0.9372930526733398,0.8563913106918335,0.9521433115005493,-0.5908212661743164,0.8390626907348633,-0.06502556800842285,0.26628538966178894,-1.4763838052749634,-0.008310317993164062,-0.9242038726806641,0.9182485342025757
17,-0.008526677265763283,0.0006599798798561096,0.09437080472707748,-0.35718289017677307,0.5419459939002991,-1.3089377880096436,1.2301048040390015,0.773065447807312,-0.024592386558651924,0.00413883663713932,0.4008925259113312,0.2934686541557312,-0.4283479154109955,-0.9728604555130005,0.8563913106918335,0.9521433115005493,-0.5908212661743164,0.8390626907348633,-0.06502556800842285,0.2545129954814911,-1.5085299015045166,-0.008310317993164062,-0.9242038726806641,0.9182485342025757
18,-0.006228893995285034,0.014804338105022907,0.05248656123876572,-0.3623339533805847,0.5563691854476929,-1.3923094272613525,1.2623571157455444,0.773065447807312,-0.02220102772116661,0.005347073543816805,0.41650140285491943,0.33072739839553833,-0.47478070855140686,-1.0077288150787354,0.8563913106918335,0.9521433115005493,-0.5908212661743164,0.8390626907348633,-0.06502556800842285,0.2379494607448578,-1.5380650758743286,-0.008310317993164062,-0.9242038726806641,0.9182485342025757
19,-0.004473945591598749,0.02460593916475773,0.010599551722407341,-0.3647076487541199,0.5658350586891174,-1.4742307662963867,1.2919096946716309,0.773065447807312,-0.018842805176973343,0.006527642719447613,0.43491607904434204,0.36929547786712646,-0.5252324938774109,-1.0421373844146729,0.8563913106918335,0.9521433115005493,-0.5908212661743164,0.8390626907348633,-0.06502556800842285,0.21710728108882904,-1.5649327039718628,-0.008310317993164062,-0.9242038726806641,0.9182485342025757
20,-0.003255941905081272,0.03035692125558853,-0.032029151916503906,-0.36085301637649536,0.5715999007225037,-1.5540134906768799,1.3188295364379883,0.773065447807312,-0.015269781462848186,0.007321507669985294,0.4583096206188202,0.4085503816604614,-0.5772338509559631,-1.0762019157409668,0.8563913106918335,0.9521433115005493,-0.5908212661743164,0.8390626907348633,-0.06502556800842285,0.19311687350273132,-1.5890388488769531,-0.008310317993164062,-0.9242038726806641,0.9182485342025757
21,-0.0024550107773393393,0.032472915947437286,-0.07577931880950928,-0.34745898842811584,0.5767834186553955,-1.6319743394851685,1.3432697057724,0.773065447807312,-0.011946272104978561,0.007462247274816036,0.48764780163764954,0.4477079212665558,-0.6291953325271606,-1.1098805665969849,0.8563913106918335,0.9521433115005493,-0.5908212661743164,0.8390626907348633,-0.06502556800842285,0.1678294837474823,-1.6101492643356323,-0.008310317993164062,-0.9242038726806641,0.9182485342025757
22,-0.0019318272825330496,0.031531039625406265,-0.12052037566900253,-0.32309839129447937,0.5854021906852722,-1.7089215517044067,1.3654338121414185,0.773065447807312,-0.009107807651162148,0.006918040104210377,0.5227026343345642,0.485923707485199,-0.6806034445762634,-1.1429986953735352,0.8563913106918335,0.9521433115005493,-0.5908212661743164,0.8390626907348633,-0.06502556800842285,0.14354166388511658,-1.6278187036514282,-0.008310317993164062,-0.9242038726806641,0.9182485342025757
23,-0.0015736061614006758,0.028298668563365936,-0.1656447798013687,-0.2888262867927551,0.6006316542625427,-1.785274863243103,1.385541319847107,0.773065447807312,-0.006826172117143869,0.005872467532753944,0.5624817609786987,0.5222928524017334,-0.7318359613418579,-1.1753015518188477,0.8563913106918335,0.9521433115005493,-0.5908212661743164,0.8390626907348633,-0.06502556800842285,0.12235333025455475,-1.641444444656372,-0.008310317993164062,-0.9242038726806641,0.9182485342025757
24,-0.0013070404529571533,0.023681873455643654,-0.2102324217557907,-0.2472577840089798,0.623437225818634,-1.860460638999939,1.4038035869598389,0.773065447807312,-0.005071441642940044,0.004612768068909645,0.6056585311889648,0.5558357238769531,-0.7835566401481628,-1.2064965963363647,0.8563913106918335,0.9521433115005493,-0.5908212661743164,0.8390626907348633,-0.06502556800842285,0.10547889769077301,-1.650446891784668,-0.008310317993164062,-0.9242038726806641,0.9182485342025757
25,-0.0010926845716312528,0.018591392785310745,-0.2532269358634949,-0.2012297809123993,0.6525633335113525,-1.933022379875183,1.4204157590866089,0.773065447807312,-0.003763235406950116,0.0034024331253021955,0.6508049368858337,0.5855437517166138,-0.8359853029251099,-1.2362648248672485,0.8563913106918335,0.9521433115005493,-0.5908212661743164,0.8390626907348633,-0.06502556800842285,0.09294828027486801,-1.6544855833053589,-0.008310317993164062,-0.9242038726806641,0.9182485342025757
26,-0.0009125872747972608,0.013783848844468594,-0.2935705780982971,-0.15309089422225952,0.6856339573860168,-2.0012500286102295,1.4355559349060059,0.773065447807312,-0.0028067079838365316,0.002400211524218321,0.6965016722679138,0.6104716658592224,-0.8885080814361572,-1.2642457485198975,0.8563913106918335,0.9521433115005493,-0.5908212661743164,0.8390626907348633,-0.06502556800842285,0.08391311764717102,-1.6536152362823486,-0.008310317993164062,-0.9242038726806641,0.9182485342025757
27,-0.0007592567708343267,0.009744682349264622,-0.3303253650665283,-0.10463505983352661,0.7202939987182617,-2.0638716220855713,1.4493873119354248,0.773065447807312,-0.002113439841195941,0.0016523088561370969,0.7414433360099792,0.6298436522483826,-0.9397919178009033,-1.2900198698043823,0.8563913106918335,0.9521433115005493,-0.5908212661743164,0.8390626907348633,-0.06502556800842285,0.07726730406284332,-1.6483317613601685,-0.008310317993164062,-0.9242038726806641,0.9182485342025757
28,-0.000629018759354949,0.006660066079348326,-0.3627952039241791,-0.05721885710954666,0.7547507286071777,-2.1204843521118164,1.4620568752288818,0.773065447807312,-0.0016106183174997568,0.0011317158350721002,0.7845784425735474,0.643143355846405,-0.988174557685852,-1.3131194114685059,0.8563913106918335,0.9521433115005493,-0.5908212661743164,0.8390626907348633,-0.06502556800842285,0.07207274436950684,-1.6395020484924316,-0.008310317993164062,-0.9242038726806641,0.9182485342025757
29,-0.0005191382952034473,0.004479560069739819,-0.39060816168785095,-0.011764632537961006,0.787773072719574,-2.171609401702881,1.4736933708190918,0.773065447807312,-0.0012428057380020618,0.0007836529402993619,0.8252432942390442,0.6501337289810181,-1.0320523977279663,-1.3330774307250977,0.8563913106918335,0.9521433115005493,-0.5908212661743164,0.8390626907348633,-0.06502556800842285,0.06762732565402985,-1.6282099485397339,-0.008310317993164062,-0.9242038726806641,0.9182485342025757
30,-0.00042696757009252906,0.0030247410759329796,-0.41371163725852966,0.03134368732571602,0.8184858560562134,-2.2184693813323975,1.4844063520431519,0.773065447807312,-0.0009699680376797915,0.0005547135369852185,0.8632215857505798,0.6507965922355652,-1.070148229598999,-1.3494913578033447,0.8563913106918335,0.9521433115005493,-0.5908212661743164,0.8390626907348633,-0.06502556800842285,0.06337031722068787,-1.6155694723129272,-0.008310317993164062,-0.9242038726806641,0.9182485342025757
31,-0.0003499191952869296,0.0020882990211248398,-0.43228328227996826,0.0723494216799736,0.846225380897522,-2.262693405151367,1.4942885637283325,0.773065447807312,-0.0007641770644113421,0.00040360435377806425,0.8987030982971191,0.6452410221099854,-1.1016563177108765,-1.3620730638504028,0.8563913106918335,0.9521433115005493,-0.5908212661743164,0.8390626907348633,-0.06502556800842285,0.05881461501121521,-1.6025567054748535,-0.008310317993164062,-0.9242038726806641,0.9182485342025757
32,-0.00028562769875861704,0.001492946408689022,-0.44661054015159607,0.112123042345047,0.8705049157142639,-2.3060851097106934,1.503420114517212,0.773065447807312,-0.000606314861215651,0.0003018130664713681,0.9321763515472412,0.6336326599121094,-1.1262869834899902,-1.370668888092041,0.8563913106918335,0.9521433115005493,-0.5908212661743164,0.8390626907348633,-0.06502556800842285,0.05353444442152977,-1.589892864227295,-0.008310317993164062,-0.9242038726806641,0.9182485342025757
33,-0.00023206262267194688,0.001110757584683597,-0.4569934010505676,0.15206852555274963,0.8910117149353027,-2.3504550457000732,1.5118712186813354,0.773065447807312,-0.00048337032785639167,0.00023092381889000535,0.9643058180809021,0.6161637902259827,-1.1442272663116455,-1.375251054763794,0.8563913106918335,0.9521433115005493,-0.5908212661743164,0.8390626907348633,-0.06502556800842285,0.047169290482997894,-1.5779913663864136,-0.008310317993164062,-0.9242038726806641,0.9182485342025757
34,-0.0001875485759228468,0.0008588578784838319,-0.46369266510009766,0.19394543766975403,0.9075599908828735,-2.3974835872650146,1.5197043418884277,0.773065447807312,-0.00038643472362309694,0.00017957176896743476,0.9958144426345825,0.5930728316307068,-1.15603768825531,-1.3758968114852905,0.8563913106918335,0.9521433115005493,-0.5908212661743164,0.8390626907348633,-0.06502556800842285,0.03943195566534996,-1.566956639289856,-0.008310317993164062,-0.9242038726806641,0.9182485342025757
35,-0.00015072314999997616,0.0006869087228551507,-0.4669167995452881,0.2396189421415329,0.9199780225753784,-2.4485583305358887,1.5269745588302612,0.773065447807312,-0.0003093120758421719,0.00014090343029238284,1.0273563861846924,0.5647153854370117,-1.1625202894210815,-1.372767686843872,0.8563913106918335,0.9521433115005493,-0.5908212661743164,0.8390626907348633,-0.06502556800842285,0.0301281176507473,-1.5566189289093018,-0.008310317993164062,-0.9242038726806641,0.9182485342025757
36,-0.00012047126074321568,0.0005651151877827942,-0.4668305814266205,0.2907329797744751,0.9279519319534302,-2.5045573711395264,1.5337284803390503,0.773065447807312,-0.0002475962392054498,0.00011079007526859641,1.0593560934066772,0.5316933989524841,-1.1645913124084473,-1.3661062717437744,0.8563913106918335,0.9521433115005493,-0.5908212661743164,0.8390626907348633,-0.06502556800842285,0.01919681578874588,-1.5465880632400513,-0.008310317993164062,-0.9242038726806641,0.9182485342025757
37,-9.586171654518694e-05,0.0004756458511110395,-0.46357080340385437,0.3483189642429352,0.9308682084083557,-2.565575122833252,1.540002703666687,0.773065447807312,-0.00019807412172667682,8.668693772051483e-05,1.0918068885803223,0.49503248929977417,-1.1631662845611572,-1.3562568426132202,0.8563913106918335,0.9521433115005493,-0.5908212661743164,0.8390626907348633,-0.06502556800842285,0.006765285506844521,-1.5363215208053589,-0.008310317993164062,-0.9242038726806641,0.9182485342025757
38,-7.608809391967952e-05,0.00040734332287684083,-0.45725709199905396,0.4124199151992798,0.9277105927467346,-2.630664825439453,1.5458219051361084,0.773065447807312,-0.00015834445366635919,6.699555524392053e-05,1.1240732669830322,0.456360399723053,-1.1590386629104614,-1.3437021970748901,0.8563913106918335,0.9521433115005493,-0.5908212661743164,0.8390626907348633,-0.06502556800842285,-0.006811802741140127,-1.5252093076705933,-0.008310317993164062,-0.9242038726806641,0.9182485342025757
39,-6.041357119102031e-05,0.00035277687129564583,-0.4479847252368927,0.4819129705429077,0.9170870184898376,-2.69773530960083,1.5511982440948486,0.773065447807312,-0.00012656563194468617,5.07137956446968e-05,1.1548007726669312,0.41798484325408936,-1.1527363061904907,-1.329088807106018,0.8563913106918335,0.9521433115005493,-0.5908212661743164,0.8390626907348633,-0.06502556800842285,-0.02098960056900978,-1.5126789808273315,-0.008310317993164062,-0.9242038726806641,0.9182485342025757
40,-4.813228588318452e-05,0.00030676802271045744,-0.4357868731021881,0.5547054409980774,0.8974586725234985,-2.7637438774108887,1.556133508682251,0.773065447807312,-0.00010127145651495084,3.724761336343363e-05,1.1820660829544067,0.38274794816970825,-1.1443891525268555,-1.3131928443908691,0.8563913106918335,0.9521433115005493,-0.5908212661743164,0.8390626907348633,-0.06502556800842285,-0.035195864737033844,-1.4983024597167969,-0.008310317993164062,-0.9242038726806641,0.9182485342025757
41,-3.856458351947367e-05,0.00026577903190627694,-0.4205778241157532,0.6282896995544434,0.8675689697265625,-2.82523775100708,1.5606240034103394,0.773065447807312,-8.123766747303307e-05,2.6261172024533153e-05,1.2038265466690063,0.353599488735199,-1.1337177753448486,-1.2967960834503174,0.8563913106918335,0.9521433115005493,-0.5908212661743164,0.8390626907348633,-0.06502556800842285,-0.04907809570431709,-1.481874942779541,-0.008310317993164062,-0.9242038726806641,0.9182485342025757
42,-3.1091985874809325e-05,0.0002277126768603921,-0.4021320641040802,0.7003944516181946,0.8269253373146057,-2.8791422843933105,1.5646662712097168,0.773065447807312,-6.540298636537045e-05,1.7553400539327413e-05,1.2185418605804443,0.3329855501651764,-1.1202582120895386,-1.2805063724517822,0.8563913106918335,0.9521433115005493,-0.5908212661743164,0.8390626907348633,-0.06502556800842285,-0.06267859786748886,-1.4634385108947754,-0.008310317993164062,-0.9242038726806641,0.9182485342025757
43,-2.5198743969667703e-05,0.00019177897775080055,-0.38017043471336365,0.7693881392478943,0.7760915756225586,-2.923556327819824,1.568260908126831,0.773065447807312,-5.285377483232878e-05,1.0944753739750013e-05,1.2256791591644287,0.32230085134506226,-1.1037887334823608,-1.2646148204803467,0.8563913106918335,0.9521433115005493,-0.5908212661743164,0.8390626907348633,-0.06502556800842285,-0.07639628648757935,-1.4432735443115234,-0.008310317993164062,-0.9242038726806641,0.9182485342025757
44,-2.0495550415944308e-05,0.00015820925182197243,-0.3545677065849304,0.8342518210411072,0.7166630029678345,-2.958195447921753,1.571412444114685,0.773065447807312,-4.284145325073041e-05,6.225076504051685e-06,1.2258588075637817,0.3216472864151001,-1.0847375392913818,-1.2490735054016113,0.8563913106918335,0.9521433115005493,-0.5908212661743164,0.8390626907348633,-0.06502556800842285,-0.09076213836669922,-1.4219030141830444,-0.008310317993164062,-0.9242038726806641,0.9182485342025757
45,-1.670724668656476e-05,0.00012778515520039946,-0.3255946636199951,0.894225001335144,0.6510107517242432,-2.984248638153076,1.574126958847046,0.773065447807312,-3.4790275094565004e-05,3.1203089747577906e-06,1.2206345796585083,0.3299691081047058,-1.0643320083618164,-1.2335935831069946,0.8563913106918335,0.9521433115005493,-0.5908212661743164,0.8390626907348633,-0.06502556800842285,-0.10616018623113632,-1.4001199007034302,-0.008310317993164062,-0.9242038726806641,0.9182485342025757
46,-1.3642398698721081e-05,0.00010132378520211205,-0.29404935240745544,0.9484403729438782,0.5819408893585205,-3.003743886947632,1.5764102935791016,0.773065447807312,-2.8276404918869957e-05,1.3098797353450209e-06,1.2121002674102783,0.34545275568962097,-1.0444179773330688,-1.2178032398223877,0.8563913106918335,0.9521433115005493,-0.5908212661743164,0.8390626907348633,-0.06502556800842285,-0.1226121261715889,-1.3789825439453125,-0.008310317993164062,-0.9242038726806641,0.9182485342025757
47,-1.1159141649841331e-05,7.929468847578391e-05,-0.2611713409423828,0.9958520531654358,0.5123106241226196,-3.018777370452881,1.5782679319381714,0.773065447807312,-2.2988295313552953e-05,4.2967076296918094e-07,1.202500820159912,0.3660183548927307,-1.0270291566848755,-1.2013899087905884,0.8563913106918335,0.9521433115005493,-0.5908212661743164,0.8390626907348633,-0.06502556800842285,-0.13970504701137543,-1.3597131967544556,-0.008310317993164062,-0.9242038726806641,0.9182485342025757
48,-9.14488009584602e-06,6.167728133732453e-05,-0.2283509224653244,1.0355453491210938,0.4446057081222534,-3.0309252738952637,1.5797069072723389,0.773065447807312,-1.8689192074816674e-05,1.3680437405128032e-07,1.193901538848877,0.3897501826286316,-1.013866901397705,-1.1841756105422974,0.8563913106918335,0.9521433115005493,-0.5908212661743164,0.8390626907348633,-0.06502556800842285,-0.15670056641101837,-1.3434804677963257,-0.008310317993164062,-0.9242038726806641,0.9182485342025757
49,-7.505588655476458e-06,4.802910189027898e-05,-0.1967664659023285,1.0672225952148438,0.380576491355896,-3.0410380363464355,1.5807380676269531,0.773065447807312,-1.519205943623092e-05,1.299613359151408e-07,1.1879181861877441,0.41517123579978943,-1.0058943033218384,-1.1661118268966675,0.8563913106918335,0.9521433115005493,-0.5908212661743164,0.8390626907348633,-0.06502556800842285,-0.17277199029922485,-1.331138253211975,-0.008310317993164062,-0.9242038726806641,0.9182485342025757
50,-6.166024832054973e-06,3.768560054595582e-05,-0.16711941361427307,1.0915237665176392,0.32109713554382324,-3.049412965774536,1.5813771486282349,0.773065447807312,-1.2346014045760967e-05,2.2751555661670864e-07,1.1855374574661255,0.44132518768310547,-1.0032259225845337,-1.147220253944397,0.8563913106918335,0.9521433115005493,-0.5908212661743164,0.8390626907348633,-0.06502556800842285,-0.18724656105041504,-1.3230395317077637,-0.008310317993164062,-0.9242038726806641,0.9182485342025757
51,-5.065574441687204e-06,2.9935950806248002e-05,-0.13956482708454132,1.10997474193573,0.2663102447986603,-3.056157350540161,1.5816457271575928,0.773065447807312,-1.0029324585048016e-05,3.035811459994875e-07,1.1870862245559692,0.46771490573883057,-1.0053331851959229,-1.1275264024734497,0.8563913106918335,0.9521433115005493,-0.5908212661743164,0.8390626907348633,-0.06502556800842285,-0.19973352551460266,-1.3190191984176636,-0.008310317993164062,-0.9242038726806641,0.9182485342025757
52,-4.1600096665206365e-06,2.416055758658331e-05,-0.11381381750106812,1.124639868736267,0.21593163907527924,-3.0614750385284424,1.5815719366073608,0.773065447807312,-8.14395480119856e-06,3.555123839760199e-07,1.1923631429672241,0.49419185519218445,-1.011400580406189,-1.107019066810608,0.8563913106918335,0.9521433115005493,-0.5908212661743164,0.8390626907348633,-0.06502556800842285,-0.21010765433311462,-1.318532943725586,-0.008310317993164062,-0.9242038726806641,0.9182485342025757
53,-3.411830221011769e-06,1.9845656424877234e-05,-0.08931024372577667,1.1377122402191162,0.16952139139175415,-3.06573748588562,1.5811901092529297,0.773065447807312,-6.610554009967018e-06,3.299705895187799e-07,1.2008644342422485,0.5208706259727478,-1.020646095275879,-1.0856361389160156,0.8563913106918335,0.9521433115005493,-0.5908212661743164,0.8390626907348633,-0.06502556800842285,-0.21841004490852356,-1.3208634853363037,-0.008310317993164062,-0.9242038726806641,0.9182485342025757
54,-2.7962018975813407e-06,1.6631000107736327e-05,-0.06539099663496017,1.1512038707733154,0.12662465870380402,-3.0693955421447754,1.5805410146713257,0.773065447807312,-5.364206117519643e-06,3.227301021979656e-07,1.21200692653656,0.5480859279632568,-1.032517910003662,-1.06326162815094,0.8563913106918335,0.9521433115005493,-0.5908212661743164,0.8390626907348633,-0.06502556800842285,-0.22474369406700134,-1.3253028392791748,-0.008310317993164062,-0.9242038726806641,0.9182485342025757
55,-2.2853796508570667e-06,1.4217308489605784e-05,-0.041387323290109634,1.166776418685913,0.08680333197116852,-3.0728564262390137,1.5796716213226318,0.773065447807312,-4.351425104687223e-06,2.1358982849051245e-07,1.2252846956253052,0.5763715505599976,-1.046772837638855,-1.0397188663482666,0.8563913106918335,0.9521433115005493,-0.5908212661743164,0.8390626907348633,-0.06502556800842285,-0.22920650243759155,-1.3312668800354004,-0.008310317993164062,-0.9242038726806641,0.9182485342025757
56,-1.8684004317037761e-06,1.2460493962862529e-05,-0.016667034476995468,1.18569016456604,0.04962070286273956,-3.0764100551605225,1.5786340236663818,0.773065447807312,-3.5282012049719924e-06,2.3616257749381475e-07,1.2403484582901,0.6064388751983643,-1.0634710788726807,-1.0147544145584106,0.8563913106918335,0.9521433115005493,-0.5908212661743164,0.8390626907348633,-0.06502556800842285,-0.23186011612415314,-1.3383398056030273,-0.008310317993164062,-0.9242038726806641,0.9182485342025757
57,-1.5170253391261213e-06,1.1164675015606917e-05,0.00936346035450697,1.2088268995285034,0.014627991244196892,-3.0802111625671387,1.577484130859375,0.773065447807312,-2.858548214135226e-06,2.335104909434449e-08,1.2570233345031738,0.6391467452049255,-1.082924246788025,-0.9880167245864868,0.8563913106918335,0.9521433115005493,-0.5908212661743164,0.8390626907348633,-0.06502556800842285,-0.23272252082824707,-1.3462680578231812,-0.008310317993164062,-0.9242038726806641,0.9182485342025757
58,-1.2399609659041744e-06,1.0368974471930414e-05,0.03727499395608902,1.23674476146698,-0.018625879660248756,-3.084296941757202,1.576279878616333,0.773065447807312,-2.3132354272092925e-06,2.2742847249901388e-07,1.2752877473831177,0.6754665374755859,-1.1056197881698608,-0.9590346217155457,0.8563913106918335,0.9521433115005493,-0.5908212661743164,0.8390626907348633,-0.06502556800842285,-0.2317691445350647,-1.3549251556396484,-0.008310317993164062,-0.9242038726806641,0.9182485342025757
59,-9.891664376482368e-07,9.848807167145424e-06,0.06763036549091339,1.269721508026123,-0.050555549561977386,-3.0886104106903076,1.5750795602798462,0.773065447807312,-1.8686525891098427e-06,-2.895781108236406e-07,1.2952275276184082,0.7164417505264282,-1.132140040397644,-0.9272026419639587,0.8563913106918335,0.9521433115005493,-0.5908212661743164,0.8390626907348633,-0.06502556800842285,-0.2289387732744217,-1.3642632961273193,-0.008310317993164062,-0.9242038726806641,0.9182485342025757
60,-8.245883691415656e-07,9.909382242767606e-06,0.10098208487033844,1.3077545166015625,-0.08147261291742325,-3.093010663986206,1.5739402770996094,0.773065447807312,-1.5057821656228043e-06,5.40837049811671e-07,1.3169714212417603,0.7631349563598633,-1.1630665063858032,-0.8917831778526306,0.8563913106918335,0.9521433115005493,-0.5908212661743164,0.8390626907348633,-0.06502556800842285,-0.2241455614566803,-1.3742620944976807,-0.008310317993164062,-0.9242038726806641,0.9182485342025757
61,-6.085122095100814e-07,1.0097985978063662e-05,0.13784058392047882,1.3505027294158936,-0.1114937961101532,-3.0972723960876465,1.5729154348373413,0.773065447807312,-1.2093612440366996e-06,-1.1092325848949258e-06,1.340604543685913,0.8165373802185059,-1.198850154876709,-0.8519379496574402,0.8563913106918335,0.9521433115005493,-0.5908212661743164,0.8390626907348633,-0.06502556800842285,-0.21730521321296692,-1.3848766088485718,-0.008310317993164062,-0.9242038726806641,0.9182485342025757
62,-5.979345587547868e-07,1.1267370609857608e-05,0.1786046177148819,1.3971810340881348,-0.1404341757297516,-3.1010801792144775,1.5720508098602295,0.773065447807312,-9.671958878243458e-07,2.1068117348477244e-06,1.366051435470581,0.8774118423461914,-1.2396295070648193,-0.806809663772583,0.8563913106918335,0.9521433115005493,-0.5908212661743164,0.8390626907348633,-0.06502556800842285,-0.20838691294193268,-1.395987629890442,-0.008310317993164062,-0.9242038726806641,0.9182485342025757
63,-2.3007692107057665e-07,1.2398456419759896e-05,0.22345617413520813,1.4464560747146606,-0.16771261394023895,-3.1040520668029785,1.5713800191879272,0.773065447807312,-7.696353350183927e-07,-4.353173608251382e-06,1.392936110496521,0.9460597634315491,-1.2849950790405273,-0.7556721568107605,0.8563913106918335,0.9521433115005493,-0.5908212661743164,0.8390626907348633,-0.06502556800842285,-0.19749949872493744,-1.4073606729507446,-0.008310317993164062,-0.9242038726806641,0.9182485342025757
64,-7.62093634421035e-07,1.5234219063131604e-05,0.2722409963607788,1.4964455366134644,-0.1923278421163559,-3.105797290802002,1.5709173679351807,0.773065447807312,-6.091389082030219e-07,9.637789844418876e-06,1.4204503297805786,1.0220472812652588,-1.3337652683258057,-0.698148787021637,0.8563913106918335,0.9521433115005493,-0.5908212661743164,0.8390626907348633,-0.06502556800842285,-0.1849963217973709,-1.418631911277771,-0.008310317993164062,-0.9242038726806641,0.9182485342025757
65,8.474958121951204e-07,1.8360387912252918e-05,0.32437676191329956,1.5449436902999878,-0.2129809558391571,-3.106032609939575,1.5706511735916138,0.773065447807312,-4.797627752850531e-07,-2.1365358406910673e-05,1.4473202228546143,1.1040016412734985,-1.3839111328125,-0.6344501972198486,0.8563913106918335,0.9521433115005493,-0.5908212661743164,0.8390626907348633,-0.06502556800842285,-0.1715453863143921,-1.4293440580368042,-0.008310317993164062,-0.9242038726806641,0.9182485342025757
66,-3.210162958566798e-06,2.187131940445397e-05,0.37883278727531433,1.5899256467819214,-0.22841084003448486,-3.104689598083496,1.5705432891845703,0.773065447807312,-3.767667635656835e-07,5.3227278840495273e-05,1.4719891548156738,1.1896201372146606,-1.4328045845031738,-0.5655238628387451,0.8563913106918335,0.9521433115005493,-0.5908212661743164,0.8390626907348633,-0.06502556800842285,-0.15807126462459564,-1.439043641090393,-0.008310317993164062,-0.9242038726806641,0.9182485342025757
67,8.450167115370277e-06,3.3199114113813266e-05,0.4341960549354553,1.630115270614624,-0.23791953921318054,-3.101975917816162,1.57053804397583,0.773065447807312,-2.9562539793914766e-07,-0.00013510615099221468,1.4930675029754639,1.2759722471237183,-1.4778387546539307,-0.4930065870285034,0.8563913106918335,0.9521433115005493,-0.5908212661743164,0.8390626907348633,-0.06502556800842285,-0.14554990828037262,-1.4474085569381714,-0.008310317993164062,-0.9242038726806641,0.9182485342025757
68,-2.6125650038011372e-05,1.861264172475785e-05,0.48880118131637573,1.6651805639266968,-0.2419615387916565,-3.098314046859741,1.5705804824829102,0.773065447807312,-2.3335144305747235e-07,0.00037413003155961633,1.5098623037338257,1.3600125312805176,-1.5171642303466797,-0.4189627170562744,0.8563913106918335,0.9521433115005493,-0.5908212661743164,0.8390626907348633,-0.06502556800842285,-0.1347639262676239,-1.4543275833129883,-0.008310317993164062,-0.9242038726806641,0.9182485342025757
69,8.165182225639e-05,8.756968600209802e-05,0.5408937335014343,1.6954025030136108,-0.24254260957241058,-3.094177722930908,1.5706318616867065,0.773065447807312,-1.826956292916293e-07,-0.001080534071661532,1.522611141204834,1.439091444015503,-1.5500630140304565,-0.34552106261253357,0.8563913106918335,0.9521433115005493,-0.5908212661743164,0.8390626907348633,-0.06502556800842285,-0.12616539001464844,-1.4598687887191772,-0.008310317993164062,-0.9242038726806641,0.9182485342025757
70,-0.00026613319641910493,-8.816514309728518e-05,0.5888069868087769,1.7212516069412231,-0.2430962175130844,-3.0898921489715576,1.5706746578216553,0.773065447807312,-1.566073706271709e-07,0.003292665584012866,1.5322157144546509,1.511281967163086,-1.5767372846603394,-0.2745661437511444,0.8563913106918335,0.9521433115005493,-0.5908212661743164,0.8390626907348633,-0.06502556800842285,-0.11979047954082489,-1.46416437625885,-0.008310317993164062,-0.9242038726806641,0.9182485342025757
71,0.0008889284217730165,0.0003767209127545357,0.6311391592025757,1.7432218790054321,-0.24765834212303162,-3.0856399536132812,1.570705533027649,0.773065447807312,-1.194951977367964e-07,-0.010407774709165096,1.5397307872772217,1.575522541999817,-1.5978403091430664,-0.207570880651474,0.8563913106918335,0.9521433115005493,-0.5908212661743164,0.8390626907348633,-0.06502556800842285,-0.11526158452033997,-1.4673199653625488,-0.008310317993164062,-0.9242038726806641,0.9182485342025757
72,-0.003031350439414382,-0.0007014894508756697,0.6669042706489563,1.7619034051895142,-0.25967398285865784,-3.081484079360962,1.570726990699768,0.773065447807312,-4.5456283714884194e-07,0.033293843269348145,1.5459620952606201,1.6316167116165161,-1.6141507625579834,-0.1455586552619934,0.8563913106918335,0.9521433115005493,-0.5908212661743164,0.8390626907348633,-0.06502556800842285,-0.11183740198612213,-1.4693994522094727,-0.008310317993164062,-0.9242038726806641,0.9182485342025757
73,0.010469957254827023,0.0012235058238729835,0.6956228613853455,1.7779273986816406,-0.2810363471508026,-3.077589273452759,1.570742130279541,0.773065447807312,-2.2207668735063635e-06,-0.08978521078824997,1.5513497591018677,1.6801025867462158,-1.6264501810073853,-0.0891491025686264,0.8563913106918335,0.9521433115005493,-0.5908212661743164,0.8390626907348633,-0.06502556800842285,-0.1088423803448677,-1.4704498052597046,-0.008310317993164062,-0.9242038726806641,0.9182485342025757
74,-0.035586997866630554,0.0002662074111867696,0.7173372507095337,1.7921110391616821,-0.3117058277130127,-3.0737404823303223,1.5707530975341797,0.773065447807312,-2.008151750487741e-05,0.10780128836631775,1.5560017824172974,1.7218855619430542,-1.635480284690857,-0.03866710513830185,0.8563913106918335,0.9521433115005493,-0.5908212661743164,0.8390626907348633,-0.06502556800842285,-0.1059715747833252,-1.4704139232635498,-0.008310317993164062,-0.9242038726806641,0.9182485342025757
75,0.09701714664697647,-0.0037317597307264805,0.7325670719146729,1.8046022653579712,-0.35014912486076355,-3.0708553791046143,1.5707615613937378,0.773065447807312,-2.763086513368762e-06,-0.06007324531674385,1.5599411725997925,1.758143663406372,-1.6420938968658447,0.005973644554615021,0.8563913106918335,0.9521433115005493,-0.5908212661743164,0.8390626907348633,-0.06502556800842285,-0.10138017684221268,-1.4696613550186157,-0.008310317993164062,-0.9242038726806641,0.9182485342025757
76,-0.10735489428043365,0.0018758694641292095,0.7419345378875732,1.8164160251617432,-0.39436423778533936,-3.0689990520477295,1.570768117904663,0.773065447807312,0.0005672876723110676,0.02674238383769989,1.5631630420684814,1.7904109954833984,-1.6465396881103516,0.04503636807203293,0.8563913106918335,0.9521433115005493,-0.5908212661743164,0.8390626907348633,-0.06502556800842285,-0.09510909765958786,-1.468620777130127,-0.008310317993164062,-0.9242038726806641,0.9182485342025757
77,0.055905409157276154,-0.0013012782437726855,0.7464196085929871,1.8269299268722534,-0.441747784614563,-3.0680062770843506,1.5707733631134033,0.773065447807312,-0.000219752560951747,-0.012315002270042896,1.5650123357772827,1.8187743425369263,-1.6492037773132324,0.07895883917808533,0.8563913106918335,0.9521433115005493,-0.5908212661743164,0.8390626907348633,-0.06502556800842285,-0.08953231573104858,-1.4674557447433472,-0.008310317993164062,-0.9242038726806641,0.9182485342025757
78,-0.024122128263115883,0.0010732644004747272,0.7471874952316284,1.8364216089248657,-0.48899519443511963,-3.066410779953003,1.5707776546478271,0.773065447807312,0.0003109789686277509,0.005465306807309389,1.5658280849456787,1.842707872390747,-1.6505614519119263,0.10816262662410736,0.8563913106918335,0.9521433115005493,-0.5908212661743164,0.8390626907348633,-0.06502556800842285,-0.08152580261230469,-1.466537594795227,-0.008310317993164062,-0.9242038726806641,0.9182485342025757
79,0.01025381963700056,-0.0002308116090716794,0.7452955842018127,1.8430638313293457,-0.5342573523521423,-3.0690746307373047,1.5707812309265137,0.773065447807312,-0.00025649426970630884,-0.002881095977500081,1.5669766664505005,1.863952398300171,-1.650491714477539,0.13289734721183777,0.8563913106918335,0.9521433115005493,-0.5908212661743164,0.8390626907348633,-0.06502556800842285,-0.07777838408946991,-1.465664029121399,-0.008310317993164062,-0.9242038726806641,0.9182485342025757
80,-0.004269397351890802,0.0004612660559359938,0.7414552569389343,1.854659914970398,-0.5739867687225342,-3.0607998371124268,1.5707839727401733,0.773065447807312,0.00024656119057908654,0.0012342579429969192,1.5666210651397705,1.8803950548171997,-1.6501978635787964,0.15367411077022552,0.8563913106918335,0.9521433115005493,-0.5908212661743164,0.8390626907348633,-0.06502556800842285,-0.06289718300104141,-1.4648855924606323,-0.008310317993164062,-0.9242038726806641,0.9182485342025757
81,0.0018644839292392135,-3.5228611068305327e-06,0.7371028661727905,1.8465607166290283,-0.6120555996894836,-3.0855507850646973,1.5707862377166748,0.773065447807312,-0.00024231881252489984,-0.0007984217954799533,1.5688210725784302,1.89852774143219,-1.6484967470169067,0.17076615989208221,0.8563913106918335,0.9521433115005493,-0.5908212661743164,0.8390626907348633,-0.06502556800842285,-0.0803477093577385,-1.4643627405166626,-0.008310317993164062,-0.9242038726806641,0.9182485342025757
82,-0.0007601897814311087,0.00019061888451687992,0.7304074168205261,1.89054274559021,-0.6329236626625061,-3.0179028511047363,1.570788025856018,0.773065447807312,0.00023805242381058633,0.00028017733711749315,1.5630226135253906,1.899857521057129,-1.6492102146148682,0.18485993146896362,0.8563913106918335,0.9521433115005493,-0.5908212661743164,0.8390626907348633,-0.06502556800842285,-0.01023043878376484,-1.4638346433639526,-0.008310317993164062,-0.9242038726806641,0.9182485342025757
83,0.0003537806333042681,3.531446782290004e-05,0.7269946932792664,1.7912476062774658,-0.6782394647598267,-3.1705896854400635,1.5707895755767822,0.773065447807312,-0.00024183337518479675,-0.00026211910881102085,1.579179048538208,1.9382809400558472,-1.6425540447235107,0.1954285204410553,0.8563913106918335,0.9521433115005493,-0.5908212661743164,0.8390626907348633,-0.06502556800842285,-0.15488849580287933,-1.4638599157333374,-0.008310317993164062,-0.9242038726806641,0.9182485342025757
84,-0.00012258251081220806,9.247504931408912e-05,0.7065674066543579,1.9677592515945435,-0.64533931016922,-2.970024347305298,1.5707906484603882,0.773065447807312,0.00023621183936484158,4.178503877483308e-05,1.5400735139846802,1.8760099411010742,-1.657740592956543,0.20636482536792755,0.8563913106918335,0.9521433115005493,-0.5908212661743164,0.8390626907348633,-0.06502556800842285,0.0464104562997818,-1.4620941877365112,-0.008310317993164062,-0.9242038726806641,0.9182485342025757
85,7.330178050324321e-05,4.4149739551357925e-05,0.7017689943313599,1.8007595539093018,-0.7040464282035828,-3.1297600269317627,1.5707916021347046,0.773065447807312,-0.0002365414402447641,-9.677588968770579e-05,1.6071701049804688,1.9728422164916992,-1.6218055486679077,0.20651160180568695,0.8563913106918335,0.9521433115005493,-0.5908212661743164,0.8390626907348633,-0.06502556800842285,-0.11022908240556717,-1.4619650840759277,-0.008310317993164062,-0.9242038726806641,0.9182485342025757
86,-1.1119705959572457e-05,6.012724043102935e-05,0.6863682866096497,1.904637336730957,-0.6811004281044006,-3.0336713790893555,1.570792555809021,0.773065447807312,0.0002408760046819225,-1.2933087418787181e-05,1.5321775674819946,1.898800253868103,-1.6743788719177246,0.21956712007522583,0.8563913106918335,0.9521433115005493,-0.5908212661743164,0.8390626907348633,-0.06502556800842285,-0.010512959212064743,-1.4626702070236206,-0.008310317993164062,-0.9242038726806641,0.9182485342025757
87,2.2505259039462544e-05,2.7418018362368457e-05,0.6824886798858643,1.8427367210388184,-0.6961857080459595,-3.0906295776367188,1.5707933902740479,0.773065447807312,-0.0002546125615481287,-4.3471001845318824e-05,1.5944077968597412,1.952886939048767,-1.6180527210235596,0.21508091688156128,0.8563913106918335,0.9521433115005493,-0.5908212661743164,0.8390626907348633,-0.06502556800842285,-0.06522144377231598,-1.4609850645065308,-0.008310317993164062,-0.9242038726806641,0.9182485342025757
88,4.034320227219723e-06,2.783324998745229e-05,0.6747098565101624,1.8798847198486328,-0.6912202835083008,-3.0572142601013184,1.570793867111206,0.773065447807312,0.0002716835297178477,-1.9134749891236424e-05,1.5513341426849365,1.917655110359192,-1.6651352643966675,0.22126244008541107,0.8563913106918335,0.9521433115005493,-0.5908212661743164,0.8390626907348633,-0.06502556800842285,-0.031025853008031845,-1.4635940790176392,-0.008310317993164062,-0.9242038726806641,0.9182485342025757
89,1.0025103620137088e-05,1.2330517165537458e-05,0.6703237295150757,1.8551452159881592,-0.6907938718795776,-3.078737497329712,1.5707943439483643,0.773065447807312,-0.00029597157845273614,-2.3842223527026363e-05,1.5811339616775513,1.9407774209976196,-1.6293896436691284,0.2174859195947647,0.8563913106918335,0.9521433115005493,-0.5908212661743164,0.8390626907348633,-0.06502556800842285,-0.051329709589481354,-1.4616142511367798,-0.008310317993164062,-0.9242038726806641,0.9182485342025757
90,5.025997779739555e-06,1.1379153875168413e-05,0.6643224358558655,1.86994206905365,-0.6863037943840027,-3.065443992614746,1.570794701576233,0.773065447807312,0.0003250133013352752,-1.5090350643731654e-05,1.5610783100128174,1.9235230684280396,-1.6552361249923706,0.21877653896808624,0.8563913106918335,0.9521433115005493,-0.5908212661743164,0.8390626907348633,-0.06502556800842285,-0.03804817050695419,-1.4631627798080444,-0.008310317993164062,-0.9242038726806641,0.9182485342025757
91,5.666474862664472e-06,5.670571226801258e-06,0.6596301794052124,1.8582799434661865,-0.6817721724510193,-3.074855327606201,1.5707950592041016,0.773065447807312,-0.00036243099020794034,-1.476572833780665e-05,1.575034260749817,1.9325788021087646,-1.6373085975646973,0.21513476967811584,0.8563913106918335,0.9521433115005493,-0.5908212661743164,0.8390626907348633,-0.06502556800842285,-0.04714592918753624,-1.4619131088256836,-0.008310317993164062,-0.9242038726806641,0.9182485342025757
92,3.89013257517945e-06,5.077731657365803e-06,0.6542154550552368,1.8641550540924072,-0.6761057376861572,-3.0690102577209473,1.5707952976226807,0.773065447807312,0.00040771038038656116,-1.0662075510481372e-05,1.5654959678649902,1.9227402210235596,-1.6503889560699463,0.21381910145282745,0.8563913106918335,0.9521433115005493,-0.5908212661743164,0.8390626907348633,-0.06502556800842285,-0.041724417358636856,-1.462599515914917,-0.008310317993164062,-0.9242038726806641,0.9182485342025757
93,3.566676241462119e-06,2.896024852816481e-06,0.6494107246398926,1.857712984085083,-0.6702095866203308,-3.0735504627227783,1.5707954168319702,0.773065447807312,-0.0004646184970624745,-9.600966222933494e-06,1.5723422765731812,1.9253387451171875,-1.6416115760803223,0.2100730538368225,0.8563913106918335,0.9521433115005493,-0.5908212661743164,0.8390626907348633,-0.06502556800842285,-0.04648689180612564,-1.4618557691574097,-0.008310317993164062,-0.9242038726806641,0.9182485342025757
94,2.7374535420676693e-06,2.5179929252772126e-06,0.6442736983299255,1.8596527576446533,-0.6639625430107117,-3.0708277225494385,1.5707955360412598,0.773065447807312,0.0005344795063138008,-7.328203537326772e-06,1.5676473379135132,1.9186854362487793,-1.648391604423523,0.20749357342720032,0.8563913106918335,0.9521433115005493,-0.5908212661743164,0.8390626907348633,-0.06502556800842285,-0.044400136917829514,-1.462113857269287,-0.008310317993164062,-0.9242038726806641,0.9182485342025757
95,2.3391403374262154e-06,1.5710057823525858e-06,0.6394695043563843,1.8555114269256592,-0.6577091217041016,-3.0731945037841797,1.5707956552505493,0.773065447807312,-0.0006219942588359118,-6.361822670442052e-06,1.571221113204956,1.9182841777801514,-1.6439834833145142,0.20374009013175964,0.8563913106918335,0.9521433115005493,-0.5908212661743164,0.8390626907348633,-0.06502556800842285,-0.0472620390355587,-1.4616436958312988,-0.008310317993164062,-0.9242038726806641,0.9182485342025757
96,1.8726400412560906e-06,1.3210743645686307e-06,0.634528398513794,1.8556480407714844,-0.6514409184455872,-3.071882486343384,1.5707957744598389,0.773065447807312,0.0007308831554837525,-4.989250555809122e-06,1.5688422918319702,1.913183569908142,-1.6476651430130005,0.20067894458770752,0.8563913106918335,0.9521433115005493,-0.5908212661743164,0.8390626907348633,-0.06502556800842285,-0.046662699431180954,-1.4617037773132324,-0.008310317993164062,-0.9242038726806641,0.9182485342025757
97,1.5576799796690466e-06,8.577583230362507e-07,0.62980717420578,1.8526469469070435,-0.6453380584716797,-3.073209047317505,1.570796012878418,0.773065447807312,-0.0008680555620230734,-4.250539859640412e-06,1.5708425045013428,1.9114625453948975,-1.6453666687011719,0.19710303843021393,0.8563913106918335,0.9521433115005493,-0.5908212661743164,0.8390626907348633,-0.06502556800842285,-0.0485847070813179,-1.4613813161849976,-0.008310317993164062,-0.9242038726806641,0.9182485342025757
98,1.2690782114077592e-06,7.002717552495596e-07,0.6250603199005127,1.8519779443740845,-0.6393954157829285,-3.0725700855255127,1.5707961320877075,0.773065447807312,0.0010409904643893242,-3.3827968763944227e-06,1.569616436958313,1.9073024988174438,-1.647466778755188,0.19402626156806946,0.8563913106918335,0.9521433115005493,-0.5908212661743164,0.8390626907348633,-0.06502556800842285,-0.04863980412483215,-1.4613521099090576,-0.008310317993164062,-0.9242038726806641,0.9182485342025757
99,1.0434752084620413e-06,4.5470420673154877e-07,0.6204909682273865,1.8496367931365967,-0.6337160468101501,-3.073370933532715,1.5707961320877075,0.773065447807312,-0.0012609956320375204,-2.8517879400169477e-06,1.5708210468292236,1.9051247835159302,-1.646219253540039,0.1907915323972702,0.8563913106918335,0.9521433115005493,-0.5908212661743164,0.8390626907348633,-0.06502556800842285,-0.05002690479159355,-1.4611142873764038,-0.008310317993164062,-0.9242038726806641,0.9182485342025757
