,0,1,2,3,4,5,6,7,8,9,10,11,12,13,14,15,16,17,18,19,20,21,22,23,24,25,26,27,28,29,30,31,32,33,34,35
0,0.7409133911132812,-0.5398740768432617,0.9673939943313599,0.4640212059020996,0.3229081630706787,-0.5480622053146362,-0.9988547563552856,0.7882199287414551,0.40390753746032715,-0.6187448501586914,-0.43168485164642334,-0.5061744451522827,0.6359050273895264,-0.007061600685119629,0.20661115646362305,0.3904632329940796,-0.7347778081893921,-0.3310481309890747,-0.6929963827133179,0.12783288955688477,0.14738106727600098,0.7072323560714722,0.6431554555892944,0.9955660104751587,0.08645057678222656,-0.041436076164245605,0.30131030082702637,-0.5191010236740112,0.05113637447357178,0.4155484437942505,-0.7880767583847046,-0.9763314723968506,-0.17712903022766113,0.6159924268722534,0.7645490169525146,-0.43845343589782715
1,0.6884368658065796,-0.48741215467453003,0.9149174690246582,0.41154471039772034,0.375384658575058,-0.4955861270427704,-1.0513312816619873,0.8406964540481567,0.4563840627670288,-0.6187448501586914,-0.43168485164642334,-0.5061744451522827,0.583428680896759,0.045413997024297714,0.15413478016853333,0.3379867672920227,-0.6823012828826904,-0.2785722613334656,-0.6405198574066162,0.07535634934902191,0.14738106727600098,0.7072323560714722,0.6431554555892944,0.9955660104751587,0.08645057678222656,-0.041436076164245605,0.30131030082702637,-0.5191010236740112,0.05113637447357178,0.46802496910095215,-0.8405532240867615,-0.9763314723968506,-0.17712903022766113,0.6159924268722534,0.7645490169525146,-0.43845343589782715
2,0.6466729640960693,-0.5393833518028259,0.8728716373443604,0.37111496925354004,0.4151085317134857,-0.4501444101333618,-1.0876808166503906,0.8785454630851746,0.49898847937583923,-0.6187448501586914,-0.43168485164642334,-0.5061744451522827,0.5360767841339111,0.07818695902824402,0.10787556320428848,0.29397913813591003,-0.6420580148696899,-0.22952760756015778,-0.6186529994010925,0.034428782761096954,0.14738106727600098,0.7072323560714722,0.6431554555892944,0.9955660104751587,0.08645057678222656,-0.041436076164245605,0.30131030082702637,-0.5191010236740112,0.05113637447357178,0.5104789137840271,-0.8750494122505188,-0.9763314723968506,-0.17712903022766113,0.6159924268722534,0.7645490169525146,-0.43845343589782715
3,0.6077721118927002,-0.583159327507019,0.832201361656189,0.3348488211631775,0.4499802589416504,-0.40334218740463257,-1.1190011501312256,0.9125937819480896,0.5405706763267517,-0.6187448501586914,-0.43168485164642334,-0.5061744451522827,0.4930640459060669,0.0753292590379715,0.06364469230175018,0.25056853890419006,-0.6031744480133057,-0.18786700069904327,-0.6211145520210266,-0.005633332300931215,0.14738106727600098,0.7072323560714722,0.6431554555892944,0.9955660104751587,0.08645057678222656,-0.041436076164245605,0.30131030082702637,-0.5191010236740112,0.05113637447357178,0.5521486401557922,-0.902703583240509,-0.9763314723968506,-0.17712903022766113,0.6159924268722534,0.7645490169525146,-0.43845343589782715
4,0.5687364935874939,-0.6261138916015625,0.7905531525611877,0.3017134368419647,0.48135483264923096,-0.35846373438835144,-1.1457847356796265,0.9444302916526794,0.5835041403770447,-0.6187448501586914,-0.43168485164642334,-0.5061744451522827,0.4514157474040985,0.07126228511333466,0.020532991737127304,0.2067214995622635,-0.5640950202941895,-0.15098318457603455,-0.6446182131767273,-0.04638350009918213,0.14738106727600098,0.7072323560714722,0.6431554555892944,0.9955660104751587,0.08645057678222656,-0.041436076164245605,0.30131030082702637,-0.5191010236740112,0.05113637447357178,0.5946220755577087,-0.9313066601753235,-0.9763314723968506,-0.17712903022766113,0.6159924268722534,0.7645490169525146,-0.43845343589782715
5,0.5288106203079224,-0.6677890419960022,0.7474410533905029,0.27236872911453247,0.5091720223426819,-0.31343525648117065,-1.1656237840652466,0.9735226631164551,0.6285170912742615,-0.6187448501586914,-0.43168485164642334,-0.5061744451522827,0.4112740457057953,0.06751508265733719,-0.02037758380174637,0.16269373893737793,-0.5250625014305115,-0.1194775328040123,-0.681025505065918,-0.08794775605201721,0.14738106727600098,0.7072323560714722,0.6431554555892944,0.9955660104751587,0.08645057678222656,-0.041436076164245605,0.30131030082702637,-0.5191010236740112,0.05113637447357178,0.6379790306091309,-0.9652093648910522,-0.9763314723968506,-0.17712903022766113,0.6159924268722534,0.7645490169525146,-0.43845343589782715
6,0.4881058633327484,-0.7066246867179871,0.7031684517860413,0.24820737540721893,0.5325648784637451,-0.26597875356674194,-1.1745271682739258,0.9985038638114929,0.6756578683853149,-0.6187448501586914,-0.43168485164642334,-0.5061744451522827,0.37368372082710266,0.06184377148747444,-0.05669897422194481,0.1193118691444397,-0.48693960905075073,-0.09302402287721634,-0.7231390476226807,-0.12993335723876953,0.14738106727600098,0.7072323560714722,0.6431554555892944,0.9955660104751587,0.08645057678222656,-0.041436076164245605,0.30131030082702637,-0.5191010236740112,0.05113637447357178,0.6818265914916992,-1.0046383142471313,-0.9763314723968506,-0.17712903022766113,0.6159924268722534,0.7645490169525146,-0.43845343589782715
7,0.447120726108551,-0.7417269945144653,0.6583123207092285,0.2305615246295929,0.5504342317581177,-0.2143598049879074,-1.169248104095459,1.0175637006759644,0.7246589064598083,-0.6187448501586914,-0.43168485164642334,-0.5061744451522827,0.3396115005016327,0.06013539060950279,-0.08571552485227585,0.07765579223632812,-0.45059436559677124,-0.06920655816793442,-0.7666522860527039,-0.17169919610023499,0.14738106727600098,0.7072323560714722,0.6431554555892944,0.9955660104751587,0.08645057678222656,-0.041436076164245605,0.30131030082702637,-0.5191010236740112,0.05113637447357178,0.7256196141242981,-1.0477524995803833,-0.9763314723968506,-0.17712903022766113,0.6159924268722534,0.7645490169525146,-0.43845343589782715
8,0.4065427780151367,-0.7736571431159973,0.6134935021400452,0.22012975811958313,0.5620808601379395,-0.15774860978126526,-1.150147557258606,1.0284762382507324,0.7751353979110718,-0.6187448501586914,-0.43168485164642334,-0.5061744451522827,0.3093491494655609,0.03704946115612984,-0.10584686696529388,0.0388229638338089,-0.41663217544555664,-0.04527878016233444,-0.8092237710952759,-0.21243886649608612,0.14738106727600098,0.7072323560714722,0.6431554555892944,0.9955660104751587,0.08645057678222656,-0.041436076164245605,0.30131030082702637,-0.5191010236740112,0.05113637447357178,0.7687764763832092,-1.0928422212600708,-0.9763314723968506,-0.17712903022766113,0.6159924268722534,0.7645490169525146,-0.43845343589782715
9,0.3670588433742523,-0.8020273447036743,0.5691422820091248,0.21624578535556793,0.5660905838012695,-0.09596502035856247,-1.1211234331130981,1.0297054052352905,0.826613187789917,-0.6187448501586914,-0.43168485164642334,-0.5061744451522827,0.28222712874412537,0.10362359136343002,-0.11558239907026291,0.0038779862225055695,-0.3851381242275238,-0.027912801131606102,-0.8497644662857056,-0.25144949555397034,0.14738106727600098,0.7072323560714722,0.6431554555892944,0.9955660104751587,0.08645057678222656,-0.041436076164245605,0.30131030082702637,-0.5191010236740112,0.05113637447357178,0.810694694519043,-1.1379057168960571,-0.9763314723968506,-0.17712903022766113,0.6159924268722534,0.7645490169525146,-0.43845343589782715
10,0.32925543189048767,-0.8332583904266357,0.5258384943008423,0.2197059988975525,0.566599428653717,-0.03234930709004402,-1.0859442949295044,1.0187160968780518,0.8786992430686951,-0.6187448501586914,-0.43168485164642334,-0.5061744451522827,0.2579745352268219,0.015733158215880394,-0.12318089604377747,-0.026880662888288498,-0.3573448956012726,0.009693093597888947,-0.8871099948883057,-0.2873305678367615,0.14738106727600098,0.7072323560714722,0.6431554555892944,0.9955660104751587,0.08645057678222656,-0.041436076164245605,0.30131030082702637,-0.5191010236740112,0.05113637447357178,0.8506731986999512,-1.1821472644805908,-0.9763314723968506,-0.17712903022766113,0.6159924268722534,0.7645490169525146,-0.43845343589782715
11,0.2936449348926544,-0.8525874614715576,0.4834194481372833,0.22595718502998352,0.5555007457733154,0.038325756788253784,-1.0494976043701172,1.001250147819519,0.9307347536087036,-0.6187448501586914,-0.43168485164642334,-0.5061744451522827,0.23440206050872803,0.0567113496363163,-0.11689465492963791,-0.05222361162304878,-0.332197368144989,-0.024485241621732712,-0.9236360192298889,-0.3201855719089508,0.14738106727600098,0.7072323560714722,0.6431554555892944,0.9955660104751587,0.08645057678222656,-0.041436076164245605,0.30131030082702637,-0.5191010236740112,0.05113637447357178,0.8878194689750671,-1.219375491142273,-0.9763314723968506,-0.17712903022766113,0.6159924268722534,0.7645490169525146,-0.43845343589782715
12,0.25960907340049744,-0.8813676834106445,0.4419019818305969,0.23666109144687653,0.5499094724655151,0.0927710086107254,-1.0099694728851318,0.9707971811294556,0.9823271036148071,-0.6187448501586914,-0.43168485164642334,-0.5061744451522827,0.21289262175559998,0.024273302406072617,-0.11312341690063477,-0.07262986898422241,-0.31106817722320557,0.0592312254011631,-0.9521287083625793,-0.3487391471862793,0.14738106727600098,0.7072323560714722,0.6431554555892944,0.9955660104751587,0.08645057678222656,-0.041436076164245605,0.30131030082702637,-0.5191010236740112,0.05113637447357178,0.9219043850898743,-1.2534582614898682,-0.9763314723968506,-0.17712903022766113,0.6159924268722534,0.7645490169525146,-0.43845343589782715
13,0.22837316989898682,-0.8815320134162903,0.40178513526916504,0.24808861315250397,0.5291860699653625,0.16771699488162994,-0.977588415145874,0.9440324902534485,1.032987356185913,-0.6187448501586914,-0.43168485164642334,-0.5061744451522827,0.18980222940444946,0.04910702258348465,-0.1025308221578598,-0.08769374340772629,-0.29530489444732666,-0.0005020855460315943,-0.9848068952560425,-0.3719904124736786,0.14738106727600098,0.7072323560714722,0.6431554555892944,0.9955660104751587,0.08645057678222656,-0.041436076164245605,0.30131030082702637,-0.5191010236740112,0.05113637447357178,0.9510776400566101,-1.270380973815918,-0.9763314723968506,-0.17712903022766113,0.6159924268722534,0.7645490169525146,-0.43845343589782715
14,0.19834847748279572,-0.8989447951316833,0.3627122938632965,0.26208528876304626,0.521666944026947,0.2109401673078537,-0.943573534488678,0.9047988057136536,1.0823484659194946,-0.6187448501586914,-0.43168485164642334,-0.5061744451522827,0.1678665578365326,0.01905384100973606,-0.09657236933708191,-0.0977964922785759,-0.28262653946876526,0.06784138083457947,-1.007647156715393,-0.3903535306453705,0.14738106727600098,0.7072323560714722,0.6431554555892944,0.9955660104751587,0.08645057678222656,-0.041436076164245605,0.30131030082702637,-0.5191010236740112,0.05113637447357178,0.976597785949707,-1.2962290048599243,-0.9763314723968506,-0.17712903022766113,0.6159924268722534,0.7645490169525146,-0.43845343589782715
15,0.17053057253360748,-0.8765544891357422,0.3251274824142456,0.2751597762107849,0.5044084787368774,0.2750614881515503,-0.9185978770256042,0.8745465278625488,1.130197286605835,-0.6187448501586914,-0.43168485164642334,-0.5061744451522827,0.1449582427740097,0.04302668944001198,-0.08510399609804153,-0.10372816026210785,-0.2775285243988037,0.03692461922764778,-1.0351499319076538,-0.40268123149871826,0.14738106727600098,0.7072323560714722,0.6431554555892944,0.9955660104751587,0.08645057678222656,-0.041436076164245605,0.30131030082702637,-0.5191010236740112,0.05113637447357178,0.996077299118042,-1.2959116697311401,-0.9763314723968506,-0.17712903022766113,0.6159924268722534,0.7645490169525146,-0.43845343589782715
16,0.14370639622211456,-0.8620983958244324,0.2889420688152313,0.28918910026550293,0.4985523223876953,0.31072765588760376,-0.8962758779525757,0.8356495499610901,1.176214575767517,-0.6187448501586914,-0.43168485164642334,-0.5061744451522827,0.12188363820314407,0.016686882823705673,-0.07994436472654343,-0.10559934377670288,-0.27529263496398926,0.08335833996534348,-1.0585511922836304,-0.4102180004119873,0.14738106727600098,0.7072323560714722,0.6431554555892944,0.9955660104751587,0.08645057678222656,-0.041436076164245605,0.30131030082702637,-0.5191010236740112,0.05113637447357178,1.01152503490448,-1.3169306516647339,-0.9763314723968506,-0.17712903022766113,0.6159924268722534,0.7645490169525146,-0.43845343589782715
17,0.11820881068706512,-0.8126097321510315,0.25448039174079895,0.3013487458229065,0.4905444085597992,0.3628188371658325,-0.8807262778282166,0.8067764043807983,1.2203974723815918,-0.6187448501586914,-0.43168485164642334,-0.5061744451522827,0.09859032183885574,0.0366801954805851,-0.0703381597995758,-0.10492900758981705,-0.28197741508483887,0.06905397027730942,-1.0871758460998535,-0.41228264570236206,0.14738106727600098,0.7072323560714722,0.6431554555892944,0.9955660104751587,0.08645057678222656,-0.041436076164245605,0.30131030082702637,-0.5191010236740112,0.05113637447357178,1.020796537399292,-1.3126143217086792,-0.9763314723968506,-0.17712903022766113,0.6159924268722534,0.7645490169525146,-0.43845343589782715
18,0.09345266968011856,-0.763903021812439,0.22174294292926788,0.3129948377609253,0.4943651854991913,0.3914467394351959,-0.8685507774353027,0.7719224095344543,1.2625091075897217,-0.6187448501586914,-0.43168485164642334,-0.5061744451522827,0.07547064125537872,0.013157084584236145,-0.06664648652076721,-0.10157334804534912,-0.29225748777389526,0.11391396075487137,-1.1174041032791138,-0.4106029272079468,0.14738106727600098,0.7072323560714722,0.6431554555892944,0.9955660104751587,0.08645057678222656,-0.041436076164245605,0.30131030082702637,-0.5191010236740112,0.05113637447357178,1.0261017084121704,-1.3364264965057373,-0.9763314723968506,-0.17712903022766113,0.6159924268722534,0.7645490169525146,-0.43845343589782715
19,0.06980481743812561,-0.6897410750389099,0.19098103046417236,0.3210431635379791,0.49998384714126587,0.44090160727500916,-0.8606854677200317,0.7485268712043762,1.3026400804519653,-0.6187448501586914,-0.43168485164642334,-0.5061744451522827,0.053141817450523376,0.03208271414041519,-0.05833514779806137,-0.09711743891239166,-0.3141375184059143,0.10992585122585297,-1.1559888124465942,-0.40437355637550354,0.14738106727600098,0.7072323560714722,0.6431554555892944,0.9955660104751587,0.08645057678222656,-0.041436076164245605,0.30131030082702637,-0.5191010236740112,0.05113637447357178,1.0251152515411377,-1.3361924886703491,-0.9763314723968506,-0.17712903022766113,0.6159924268722534,0.7645490169525146,-0.43845343589782715
20,0.047375231981277466,-0.6166861057281494,0.16218721866607666,0.3264223337173462,0.5201032161712646,0.47006547451019287,-0.8559076189994812,0.717976987361908,1.3406020402908325,-0.6187448501586914,-0.43168485164642334,-0.5061744451522827,0.03271555155515671,0.0073134684935212135,-0.054727841168642044,-0.09097208827733994,-0.3414340019226074,0.16564270853996277,-1.2009539604187012,-0.39567267894744873,0.14738106727600098,0.7072323560714722,0.6431554555892944,0.9955660104751587,0.08645057678222656,-0.041436076164245605,0.30131030082702637,-0.5191010236740112,0.05113637447357178,1.0202714204788208,-1.3734933137893677,-0.9763314723968506,-0.17712903022766113,0.6159924268722534,0.7645490169525146,-0.43845343589782715
21,0.026956625282764435,-0.5283120274543762,0.13545644283294678,0.32454821467399597,0.5439378619194031,0.5309693813323975,-0.853201687335968,0.7003819942474365,1.376509666442871,-0.6187448501586914,-0.43168485164642334,-0.5061744451522827,0.015144049189984798,0.02853560447692871,-0.04531777650117874,-0.08443884551525116,-0.3849696218967438,0.17290915548801422,-1.2571781873703003,-0.38302668929100037,0.14738106727600098,0.7072323560714722,0.6431554555892944,0.9955660104751587,0.08645057678222656,-0.041436076164245605,0.30131030082702637,-0.5191010236740112,0.05113637447357178,1.0080673694610596,-1.3824563026428223,-0.9763314723968506,-0.17712903022766113,0.6159924268722534,0.7645490169525146,-0.43845343589782715
22,0.009187053889036179,-0.4436272084712982,0.11068636178970337,0.31633275747299194,0.5847286581993103,0.5721139311790466,-0.8542642593383789,0.6698768734931946,1.4101675748825073,-0.6187448501586914,-0.43168485164642334,-0.5061744451522827,0.0018884018063545227,-0.00275246798992157,-0.03993093967437744,-0.07632868736982346,-0.4355809688568115,0.2513633072376251,-1.3218662738800049,-0.36921170353889465,0.14738106727600098,0.7072323560714722,0.6431554555892944,0.9955660104751587,0.08645057678222656,-0.041436076164245605,0.30131030082702637,-0.5191010236740112,0.05113637447357178,0.9915230870246887,-1.4387266635894775,-0.9763314723968506,-0.17712903022766113,0.6159924268722534,0.7645490169525146,-0.43845343589782715
23,-0.005025792866945267,-0.35152512788772583,0.08767595887184143,0.2959069609642029,0.6273998618125916,0.6551222801208496,-0.8549448847770691,0.653861403465271,1.441652536392212,-0.6187448501586914,-0.43168485164642334,-0.5061744451522827,-0.006508944556117058,0.027633873745799065,-0.028174253180623055,-0.06761469691991806,-0.5049489140510559,0.2830910384654999,-1.3962738513946533,-0.3517216444015503,0.14738106727600098,0.7072323560714722,0.6431554555892944,0.9955660104751587,0.08645057678222656,-0.041436076164245605,0.30131030082702637,-0.5191010236740112,0.05113637447357178,0.9652214646339417,-1.4555078744888306,-0.9763314723968506,-0.17712903022766113,0.6159924268722534,0.7645490169525146,-0.43845343589782715
24,-0.01498590037226677,-0.26625725626945496,0.06632770597934723,0.2664574086666107,0.6837806105613708,0.7197808623313904,-0.8603005409240723,0.6180636286735535,1.470733642578125,-0.6187448501586914,-0.43168485164642334,-0.5061744451522827,-0.009825093671679497,-0.021343693137168884,-0.0219096802175045,-0.05721616372466087,-0.5794297456741333,0.385928750038147,-1.4755706787109375,-0.3345169126987457,0.14738106727600098,0.7072323560714722,0.6431554555892944,0.9955660104751587,0.08645057678222656,-0.041436076164245605,0.30131030082702637,-0.5191010236740112,0.05113637447357178,0.9336298704147339,-1.5207551717758179,-0.9763314723968506,-0.17712903022766113,0.6159924268722534,0.7645490169525146,-0.43845343589782715
25,-0.020119061693549156,-0.18323570489883423,0.04626582935452461,0.2264813333749771,0.7361506819725037,0.8199149966239929,-0.8611314296722412,0.597524881362915,1.497367262840271,-0.6187448501586914,-0.43168485164642334,-0.5061744451522827,-0.009039584547281265,0.04017143324017525,-0.010000262409448624,-0.04666838049888611,-0.6669620275497437,0.45967715978622437,-1.5549970865249634,-0.3147031366825104,0.14738106727600098,0.7072323560714722,0.6431554555892944,0.9955660104751587,0.08645057678222656,-0.041436076164245605,0.30131030082702637,-0.5191010236740112,0.05113637447357178,0.8908588886260986,-1.5320215225219727,-0.9763314723968506,-0.17712903022766113,0.6159924268722534,0.7645490169525146,-0.43845343589782715
26,-0.020259825512766838,-0.11280801892280579,0.027937792241573334,0.1829605996608734,0.7945894598960876,0.9080124497413635,-0.8641135096549988,0.5584273934364319,1.5212990045547485,-0.6187448501586914,-0.43168485164642334,-0.5061744451522827,-0.006377164274454117,-0.049072809517383575,-0.00771670276299119,-0.03604406490921974,-0.7551326751708984,0.5708452463150024,-1.6297565698623657,-0.2963631749153137,0.14738106727600098,0.7072323560714722,0.6431554555892944,0.9955660104751587,0.08645057678222656,-0.041436076164245605,0.30131030082702637,-0.5191010236740112,0.05113637447357178,0.843038022518158,-1.5828474760055542,-0.9763314723968506,-0.17712903022766113,0.6159924268722534,0.7645490169525146,-0.43845343589782715
27,-0.016517402604222298,-0.055532775819301605,0.011465806514024734,0.14006707072257996,0.845319390296936,1.0105055570602417,-0.860162615776062,0.5295568704605103,1.54233980178833,-0.6187448501586914,-0.43168485164642334,-0.5061744451522827,-0.003545148763805628,0.05057617276906967,0.0012538598384708166,-0.02703288197517395,-0.8467684984207153,0.6700538992881775,-1.6878080368041992,-0.2781248986721039,0.14738106727600098,0.7072323560714722,0.6431554555892944,0.9955660104751587,0.08645057678222656,-0.041436076164245605,0.30131030082702637,-0.5191010236740112,0.05113637447357178,0.787382185459137,-1.5737236738204956,-0.9763314723968506,-0.17712903022766113,0.6159924268722534,0.7645490169525146,-0.43845343589782715
28,-0.010997996665537357,-0.01494159922003746,-0.0020997198298573494,0.10188809782266617,0.9004294276237488,1.1052786111831665,-0.8545958399772644,0.4880060851573944,1.5602779388427734,-0.6187448501586914,-0.43168485164642334,-0.5061744451522827,-0.001900657545775175,-0.04393159970641136,-0.0018930633086711168,-0.018887393176555634,-0.935627281665802,0.7779544591903687,-1.7259180545806885,-0.2622995972633362,0.14738106727600098,0.7072323560714722,0.6431554555892944,0.9955660104751587,0.08645057678222656,-0.041436076164245605,0.30131030082702637,-0.5191010236740112,0.05113637447357178,0.729354739189148,-1.6075727939605713,-0.9763314723968506,-0.17712903022766113,0.6159924268722534,0.7645490169525146,-0.43845343589782715
29,-0.00631241500377655,0.011119253933429718,-0.012014918029308319,0.0704662948846817,0.9483634233474731,1.2023210525512695,-0.8462346792221069,0.4507615864276886,1.574979543685913,-0.6187448501586914,-0.43168485164642334,-0.5061744451522827,-0.0009755506180226803,0.03683082014322281,0.004865436814725399,-0.011674086563289165,-1.0222543478012085,0.8794758915901184,-1.733144998550415,-0.24809110164642334,0.14738106727600098,0.7072323560714722,0.6431554555892944,0.9955660104751587,0.08645057678222656,-0.041436076164245605,0.30131030082702637,-0.5191010236740112,0.05113637447357178,0.6680742502212524,-1.582451343536377,-0.9763314723968506,-0.17712903022766113,0.6159924268722534,0.7645490169525146,-0.43845343589782715
30,-0.0035073335748165846,0.026531856507062912,-0.01808474212884903,0.0452403724193573,1.0032962560653687,1.2932921648025513,-0.839240550994873,0.40541839599609375,1.586419939994812,-0.6187448501586914,-0.43168485164642334,-0.5061744451522827,-0.0008337046019732952,-0.03375210240483284,-0.003266499610617757,-0.005262542515993118,-1.1043336391448975,0.9815877079963684,-1.722278356552124,-0.23518815636634827,0.14738106727600098,0.7072323560714722,0.6431554555892944,0.9955660104751587,0.08645057678222656,-0.041436076164245605,0.30131030082702637,-0.5191010236740112,0.05113637447357178,0.6072391867637634,-1.621946096420288,-0.9763314723968506,-0.17712903022766113,0.6159924268722534,0.7645490169525146,-0.43845343589782715
31,-0.00222612707875669,0.03527751564979553,-0.020286953076720238,0.025564640760421753,1.0501453876495361,1.382718563079834,-0.8352742195129395,0.3648059368133545,1.5947002172470093,-0.6187448501586914,-0.43168485164642334,-0.5061744451522827,-0.00019656913354992867,0.032607678323984146,0.009659657254815102,-0.00112726422958076,-1.182028889656067,1.0793994665145874,-1.6952255964279175,-0.22168493270874023,0.14738106727600098,0.7072323560714722,0.6431554555892944,0.9955660104751587,0.08645057678222656,-0.041436076164245605,0.30131030082702637,-0.5191010236740112,0.05113637447357178,0.5456518530845642,-1.5770959854125977,-0.9763314723968506,-0.17712903022766113,0.6159924268722534,0.7645490169525146,-0.43845343589782715
32,-0.0015763705596327782,0.04010455682873726,-0.019754767417907715,0.01067971158772707,1.1090208292007446,1.4650174379348755,-0.833052396774292,0.3201722204685211,1.6000401973724365,-0.6187448501586914,-0.43168485164642334,-0.5061744451522827,-0.0012238905765116215,-0.03360120952129364,-0.01772197335958481,0.0007725011091679335,-1.2541625499725342,1.1760004758834839,-1.669871211051941,-0.20593951642513275,0.14738106727600098,0.7072323560714722,0.6431554555892944,0.9955660104751587,0.08645057678222656,-0.041436076164245605,0.30131030082702637,-0.5191010236740112,0.05113637447357178,0.48719701170921326,-1.6413341760635376,-0.9763314723968506,-0.17712903022766113,0.6159924268722534,0.7645490169525146,-0.43845343589782715
33,-0.0011120637645944953,0.04338155686855316,-0.01729511469602585,-0.0015242649242281914,1.1552327871322632,1.5424420833587646,-0.8331617116928101,0.2836524248123169,1.6028083562850952,-0.6187448501586914,-0.43168485164642334,-0.5061744451522827,0.0023789070546627045,0.034231096506118774,0.04121966287493706,0.0011566618923097849,-1.3204264640808105,1.2668291330337524,-1.6397150754928589,-0.18690866231918335,0.14738106727600098,0.7072323560714722,0.6431554555892944,0.9955660104751587,0.08645057678222656,-0.041436076164245605,0.30131030082702637,-0.5191010236740112,0.05113637447357178,0.42913591861724854,-1.5685746669769287,-0.9763314723968506,-0.17712903022766113,0.6159924268722534,0.7645490169525146,-0.43845343589782715
34,-0.0010798724833875895,0.04464828968048096,-0.014164634048938751,-0.008769355714321136,1.2155393362045288,1.6098195314407349,-0.8314478397369385,0.24558091163635254,1.603420376777649,-0.6187448501586914,-0.43168485164642334,-0.5061744451522827,-0.009653359651565552,-0.03474665433168411,-0.06840255856513977,0.0010147744324058294,-1.3792543411254883,1.3542211055755615,-1.6182397603988647,-0.16423533856868744,0.14738106727600098,0.7072323560714722,0.6431554555892944,0.9955660104751587,0.08645057678222656,-0.041436076164245605,0.30131030082702637,-0.5191010236740112,0.05113637447357178,0.3773139417171478,-1.650923252105713,-0.9763314723968506,-0.17712903022766113,0.6159924268722534,0.7645490169525146,-0.43845343589782715
35,9.342562407255173e-05,0.04546976834535599,-0.011447569355368614,-0.017783652991056442,1.257749319076538,1.6695722341537476,-0.8299940824508667,0.21743059158325195,1.6024192571640015,-0.6187448501586914,-0.43168485164642334,-0.5061744451522827,0.034264322370290756,0.03299766033887863,0.05879596993327141,0.0007717758417129517,-1.4306126832962036,1.4329577684402466,-1.5963953733444214,-0.13857291638851166,0.14738106727600098,0.7072323560714722,0.6431554555892944,0.9955660104751587,0.08645057678222656,-0.041436076164245605,0.30131030082702637,-0.5191010236740112,0.05113637447357178,0.3263976573944092,-1.581942081451416,-0.9763314723968506,-0.17712903022766113,0.6159924268722534,0.7645490169525146,-0.43845343589782715
36,-0.0037609899882227182,0.04445173218846321,-0.00818150956183672,-0.021121764555573463,1.3049564361572266,1.7177555561065674,-0.8261765241622925,0.1883585900068283,1.6002339124679565,-0.6187448501586914,-0.43168485164642334,-0.5061744451522827,-0.08786939829587936,-0.03063395246863365,-0.0355595201253891,0.000500247348099947,-1.47301185131073,1.5062311887741089,-1.5805951356887817,-0.11073451489210129,0.14738106727600098,0.7072323560714722,0.6431554555892944,0.9955660104751587,0.08645057678222656,-0.041436076164245605,0.30131030082702637,-0.5191010236740112,0.05113637447357178,0.2831278145313263,-1.6460020542144775,-0.9763314723968506,-0.17712903022766113,0.6159924268722534,0.7645490169525146,-0.43845343589782715
37,0.008767353370785713,0.04170515760779381,-0.006666996516287327,-0.025694431737065315,1.3330258131027222,1.7580887079238892,-0.8228190541267395,0.16852432489395142,1.5973695516586304,-0.6187448501586914,-0.43168485164642334,-0.5061744451522827,0.06547029316425323,0.026925889775156975,0.020531289279460907,0.0004617891972884536,-1.5075972080230713,1.5692089796066284,-1.568748116493225,-0.08163212984800339,0.14738106727600098,0.7072323560714722,0.6431554555892944,0.9955660104751587,0.08645057678222656,-0.041436076164245605,0.30131030082702637,-0.5191010236740112,0.05113637447357178,0.24171151220798492,-1.6052360534667969,-0.9763314723968506,-0.17712903022766113,0.6159924268722534,0.7645490169525146,-0.43845343589782715
38,-0.012570678256452084,0.03680269420146942,-0.00472021009773016,-0.027786999940872192,1.3544832468032837,1.7881355285644531,-0.8204782009124756,0.14748817682266235,1.5941174030303955,-0.6187448501586914,-0.43168485164642334,-0.5061744451522827,-0.029529960826039314,-0.02357441745698452,-0.012462446466088295,0.0004188690800219774,-1.5338327884674072,1.6256587505340576,-1.557421326637268,-0.05247672274708748,0.14738106727600098,0.7072323560714722,0.6431554555892944,0.9955660104751587,0.08645057678222656,-0.041436076164245605,0.30131030082702637,-0.5191010236740112,0.05113637447357178,0.20718710124492645,-1.6459764242172241,-0.9763314723968506,-0.17712903022766113,0.6159924268722534,0.7645490169525146,-0.43845343589782715
39,0.011398648843169212,0.032423488795757294,-0.0038030175492167473,-0.029370326548814774,1.3576656579971313,1.8122820854187012,-0.8205788731575012,0.1336919516324997,1.5907909870147705,-0.6187448501586914,-0.43168485164642334,-0.5061744451522827,0.015077178366482258,0.02036515437066555,0.008153134025633335,0.0004695716197602451,-1.5536103248596191,1.673158884048462,-1.5516643524169922,-0.023828823119401932,0.14738106727600098,0.7072323560714722,0.6431554555892944,0.9955660104751587,0.08645057678222656,-0.041436076164245605,0.30131030082702637,-0.5191010236740112,0.05113637447357178,0.17509572207927704,-1.624200463294983,-0.9763314723968506,-0.17712903022766113,0.6159924268722534,0.7645490169525146,-0.43845343589782715
40,-0.010634725913405418,0.02831278368830681,-0.002760216360911727,-0.02959638461470604,1.3501240015029907,1.829647421836853,-0.8246465921401978,0.11958829313516617,1.5875680446624756,-0.6187448501586914,-0.43168485164642334,-0.5061744451522827,-0.006938314996659756,-0.017738202586770058,-0.005551346577703953,0.0006326467264443636,-1.5673644542694092,1.7147890329360962,-1.5436698198318481,0.003376683220267296,0.14738106727600098,0.7072323560714722,0.6431554555892944,0.9955660104751587,0.08645057678222656,-0.041436076164245605,0.30131030082702637,-0.5191010236740112,0.05113637447357178,0.14880627393722534,-1.6518778800964355,-0.9763314723968506,-0.17712903022766113,0.6159924268722534,0.7645490169525146,-0.43845343589782715
41,0.00857979990541935,0.024424631148576736,-0.00223225774243474,-0.02910921908915043,1.328540563583374,1.8437033891677856,-0.831577479839325,0.1106911227107048,1.5845911502838135,-0.6187448501586914,-0.43168485164642334,-0.5061744451522827,0.0046922871842980385,0.0154759855940938,0.004078210331499577,0.0005353130982257426,-1.5768476724624634,1.7502837181091309,-1.5409318208694458,0.028859492391347885,0.14738106727600098,0.7072323560714722,0.6431554555892944,0.9955660104751587,0.08645057678222656,-0.041436076164245605,0.30131030082702637,-0.5191010236740112,0.05113637447357178,0.12523530423641205,-1.6391022205352783,-0.9763314723968506,-0.17712903022766113,0.6159924268722534,0.7645490169525146,-0.43845343589782715
42,-0.007610941771417856,0.020475726574659348,-0.0016624756390228868,-0.02771192230284214,1.298959732055664,1.8541488647460938,-0.8422593474388123,0.10157464444637299,1.5819146633148193,-0.6187448501586914,-0.43168485164642334,-0.5061744451522827,-0.002251642756164074,-0.013722365722060204,-0.003012436907738447,0.0008613936370238662,-1.5828360319137573,1.781672716140747,-1.535284161567688,0.05238835886120796,0.14738106727600098,0.7072323560714722,0.6431554555892944,0.9955660104751587,0.08645057678222656,-0.041436076164245605,0.30131030082702637,-0.5191010236740112,0.05113637447357178,0.10629422217607498,-1.658608078956604,-0.9763314723968506,-0.17712903022766113,0.6159924268722534,0.7645490169525146,-0.43845343589782715
43,0.006084657274186611,0.016667651012539864,-0.0013512815348803997,-0.025742080062627792,1.2614489793777466,1.8632254600524902,-0.8538394570350647,0.09617209434509277,1.579579472541809,-0.6187448501586914,-0.43168485164642334,-0.5061744451522827,0.002007098635658622,0.012299825437366962,0.0024318324867635965,0.0004722468147519976,-1.586530089378357,1.809014916419983,-1.5339293479919434,0.07395067065954208,0.14738106727600098,0.7072323560714722,0.6431554555892944,0.9955660104751587,0.08645057678222656,-0.041436076164245605,0.30131030082702637,-0.5191010236740112,0.05113637447357178,0.08977454900741577,-1.6495401859283447,-0.9763314723968506,-0.17712903022766113,0.6159924268722534,0.7645490169525146,-0.43845343589782715
44,-0.005394564010202885,0.013026513159275055,-0.001025077304802835,-0.023187268525362015,1.2204475402832031,1.8704493045806885,-0.8667054772377014,0.09034563601016998,1.577581524848938,-0.6187448501586914,-0.43168485164642334,-0.5061744451522827,-0.0009309453889727592,-0.011243936605751514,-0.0019110660068690777,0.0010162374237552285,-1.588531494140625,1.8332456350326538,-1.5299931764602661,0.09362424910068512,0.14738106727600098,0.7072323560714722,0.6431554555892944,0.9955660104751587,0.08645057678222656,-0.041436076164245605,0.30131030082702637,-0.5191010236740112,0.05113637447357178,0.07677295804023743,-1.6638457775115967,-0.9763314723968506,-0.17712903022766113,0.6159924268722534,0.7645490169525146,-0.43845343589782715
45,0.004371871240437031,0.009747534990310669,-0.000835307058878243,-0.020360946655273438,1.1765943765640259,1.8769646883010864,-0.8775821328163147,0.08698572218418121,1.575912356376648,-0.6187448501586914,-0.43168485164642334,-0.5061744451522827,0.0010271237697452307,0.01042666845023632,0.001667212462052703,0.00021518600988201797,-1.5895005464553833,1.8542577028274536,-1.5292152166366577,0.11139922589063644,0.14738106727600098,0.7072323560714722,0.6431554555892944,0.9955660104751587,0.08645057678222656,-0.041436076164245605,0.30131030082702637,-0.5191010236740112,0.05113637447357178,0.06565746665000916,-1.656233310699463,-0.9763314723968506,-0.17712903022766113,0.6159924268722534,0.7645490169525146,-0.43845343589782715
46,-0.00392452348023653,0.006904176436364651,-0.0006409152410924435,-0.01729140430688858,1.1327991485595703,1.8821061849594116,-0.8869767785072327,0.08297878503799438,1.57454252243042,-0.6187448501586914,-0.43168485164642334,-0.5061744451522827,-0.00043642809032462537,-0.00986324530094862,-0.0013829799136146903,0.001166734378784895,-1.5897783041000366,1.872441291809082,-1.5264661312103271,0.12734229862689972,0.14738106727600098,0.7072323560714722,0.6431554555892944,0.9955660104751587,0.08645057678222656,-0.041436076164245605,0.30131030082702637,-0.5191010236740112,0.05113637447357178,0.05707697197794914,-1.6674398183822632,-0.9763314723968506,-0.17712903022766113,0.6159924268722534,0.7645490169525146,-0.43845343589782715
47,0.003257418517023325,0.004584988579154015,-0.0005224640481173992,-0.014337127096951008,1.0893614292144775,1.8864675760269165,-0.8922149538993835,0.08064638823270798,1.573443055152893,-0.6187448501586914,-0.43168485164642334,-0.5061744451522827,0.0005703509086742997,0.009466437622904778,0.0012837478425353765,-0.0002818578213918954,-1.5896713733673096,1.8876535892486572,-1.5256143808364868,0.141367107629776,0.14738106727600098,0.7072323560714722,0.6431554555892944,0.9955660104751587,0.08645057678222656,-0.041436076164245605,0.30131030082702637,-0.5191010236740112,0.05113637447357178,0.04982512444257736,-1.6604523658752441,-0.9763314723968506,-0.17712903022766113,0.6159924268722534,0.7645490169525146,-0.43845343589782715
48,-0.002979845739901066,0.00278455950319767,-0.0004033077275380492,-0.011407244019210339,1.0480024814605713,1.8894505500793457,-0.894363522529602,0.0776163637638092,1.5725772380828857,-0.6187448501586914,-0.43168485164642334,-0.5061744451522827,-0.00021388556342571974,-0.009254153817892075,-0.0011228366056457162,0.0015042105223983526,-1.5893226861953735,1.9002354145050049,-1.5235645771026611,0.15348482131958008,0.14738106727600098,0.7072323560714722,0.6431554555892944,0.9955660104751587,0.08645057678222656,-0.041436076164245605,0.30131030082702637,-0.5191010236740112,0.05113637447357178,0.04435548931360245,-1.6700931787490845,-0.9763314723968506,-0.17712903022766113,0.6159924268722534,0.7645490169525146,-0.43845343589782715
49,0.0025538327172398567,0.0014696759171783924,-0.0003284573904238641,-0.008937361650168896,1.0085252523422241,1.8915519714355469,-0.8918009400367737,0.07589703053236008,1.5719116926193237,-0.6187448501586914,-0.43168485164642334,-0.5061744451522827,0.00032922386890277267,0.009166689589619637,0.0010936690960079432,-0.0011663526529446244,-1.5888704061508179,1.9100927114486694,-1.5220612287521362,0.16365601122379303,0.14738106727600098,0.7072323560714722,0.6431554555892944,0.9955660104751587,0.08645057678222656,-0.041436076164245605,0.30131030082702637,-0.5191010236740112,0.05113637447357178,0.0397956445813179,-1.663317322731018,-0.9763314723968506,-0.17712903022766113,0.6159924268722534,0.7645490169525146,-0.43845343589782715
50,-0.0023928084410727024,0.0005631720996461809,-0.00025422792532481253,-0.0065321060828864574,0.9718490242958069,1.8923264741897583,-0.8860702514648438,0.07351286709308624,1.5714125633239746,-0.6187448501586914,-0.43168485164642334,-0.5061744451522827,-0.00010582667891867459,-0.009228749200701714,-0.0010093479650095105,0.0024023083969950676,-1.5883231163024902,1.9177429676055908,-1.5204776525497437,0.17190702259540558,0.14738106727600098,0.7072323560714722,0.6431554555892944,0.9955660104751587,0.08645057678222656,-0.041436076164245605,0.30131030082702637,-0.5191010236740112,0.05113637447357178,0.036531660705804825,-1.6724776029586792,-0.9763314723968506,-0.17712903022766113,0.6159924268722534,0.7645490169525146,-0.43845343589782715
51,0.0021320737432688475,-1.9666709704324603e-05,-0.00020665809279307723,-0.004877463448792696,0.9374204874038696,1.8923616409301758,-0.876473605632782,0.07232144474983215,1.571049690246582,-0.6187448501586914,-0.43168485164642334,-0.5061744451522827,0.000195381318917498,0.009396878071129322,0.0010212208144366741,-0.0028905111830681562,-1.5877827405929565,1.9230268001556396,-1.517965316772461,0.1783774495124817,0.14738106727600098,0.7072323560714722,0.6431554555892944,0.9955660104751587,0.08645057678222656,-0.041436076164245605,0.30131030082702637,-0.5191010236740112,0.05113637447357178,0.03391886502504349,-1.6654289960861206,-0.9763314723968506,-0.17712903022766113,0.6159924268722534,0.7645490169525146,-0.43845343589782715
52,-0.002054443582892418,-0.00036283349618315697,-0.0001601891708560288,-0.003000750672072172,0.9057462811470032,1.8912501335144043,-0.864556074142456,0.07043402642011642,1.5707958936691284,-0.6187448501586914,-0.43168485164642334,-0.5061744451522827,-5.2770374168176204e-05,-0.009702637791633606,-0.0009936259593814611,0.004672914277762175,-1.5871461629867554,1.9267278909683228,-1.5170326232910156,0.18310187757015228,0.14738106727600098,0.7072323560714722,0.6431554555892944,0.9955660104751587,0.08645057678222656,-0.041436076164245605,0.30131030082702637,-0.5191010236740112,0.05113637447357178,0.03231019899249077,-1.674971103668213,-0.9763314723968506,-0.17712903022766113,0.6159924268722534,0.7645490169525146,-0.43845343589782715
53,0.0019121328368782997,-0.0005389663856476545,-0.00012983562191948295,-0.002308774273842573,0.8761129379272461,1.8897268772125244,-0.8502181172370911,0.0697629302740097,1.5706275701522827,-0.6187448501586914,-0.43168485164642334,-0.5061744451522827,0.00011927656305488199,0.01010867115110159,0.0010384796187281609,-0.006662772502750158,-1.5865739583969116,1.9284008741378784,-1.5133026838302612,0.1864483654499054,0.14738106727600098,0.7072323560714722,0.6431554555892944,0.9955660104751587,0.08645057678222656,-0.041436076164245605,0.30131030082702637,-0.5191010236740112,0.05113637447357178,0.031182147562503815,-1.6669024229049683,-0.9763314723968506,-0.17712903022766113,0.6159924268722534,0.7645490169525146,-0.43845343589782715
54,-0.0019008092349395156,-0.0006043176399543881,-0.00010087231930810958,-0.0006150940898805857,0.8489124178886414,1.887238621711731,-0.8345401287078857,0.06822942197322845,1.5705249309539795,-0.6187448501586914,-0.43168485164642334,-0.5061744451522827,-2.7012356440536678e-05,-0.010653248988091946,-0.001061946270056069,0.010245639830827713,-1.5858302116394043,1.9292449951171875,-1.513600468635559,0.18834200501441956,0.14738106727600098,0.7072323560714722,0.6431554555892944,0.9955660104751587,0.08645057678222656,-0.041436076164245605,0.30131030082702637,-0.5191010236740112,0.05113637447357178,0.030862249433994293,-1.6777926683425903,-0.9763314723968506,-0.17712903022766113,0.6159924268722534,0.7645490169525146,-0.43845343589782715
55,0.0018515855772420764,-0.0006018768763169646,-8.13576698419638e-05,-0.0011419106740504503,0.8233693838119507,1.884756088256836,-0.8178792595863342,0.06808783859014511,1.570470929145813,-0.6187448501586914,-0.43168485164642334,-0.5061744451522827,7.50352191971615e-05,0.011293097399175167,0.0011439977679401636,-0.015380405820906162,-1.585224986076355,1.928227186203003,-1.5082826614379883,0.18941226601600647,0.14738106727600098,0.7072323560714722,0.6431554555892944,0.9955660104751587,0.08645057678222656,-0.041436076164245605,0.30131030082702637,-0.5191010236740112,0.05113637447357178,0.030871883034706116,-1.667537808418274,-0.9763314723968506,-0.17712903022766113,0.6159924268722534,0.7645490169525146,-0.43845343589782715
56,-0.0019028973765671253,-0.0005604174803011119,-6.348918395815417e-05,0.0011054937494918704,0.7999471426010132,1.8813716173171997,-0.8005250096321106,0.06672922521829605,1.5704522132873535,-0.6187448501586914,-0.43168485164642334,-0.5061744451522827,-1.464071829104796e-05,-0.012072985991835594,-0.0012239788193255663,0.023064732551574707,-1.584319829940796,1.9272900819778442,-1.510798454284668,0.1892869472503662,0.14738106727600098,0.7072323560714722,0.6431554555892944,0.9955660104751587,0.08645057678222656,-0.041436076164245605,0.30131030082702637,-0.5191010236740112,0.05113637447357178,0.031530290842056274,-1.68124258518219,-0.9763314723968506,-0.17712903022766113,0.6159924268722534,0.7645490169525146,-0.43845343589782715
57,0.0019384570186957717,-0.0005001372774131596,-5.074102955404669e-05,-0.0013965452089905739,0.777785062789917,1.878492832183838,-0.7834470868110657,0.06717053800821304,1.5704575777053833,-0.6187448501586914,-0.43168485164642334,-0.5061744451522827,4.8631129175191745e-05,0.012924452312290668,0.0013579011429101229,-0.03290819749236107,-1.5836994647979736,1.92431640625,-1.5029394626617432,0.18897688388824463,0.14738106727600098,0.7072323560714722,0.6431554555892944,0.9955660104751587,0.08645057678222656,-0.041436076164245605,0.30131030082702637,-0.5191010236740112,0.05113637447357178,0.03236013650894165,-1.6669036149978638,-0.9763314723968506,-0.17712903022766113,0.6159924268722534,0.7645490169525146,-0.43845343589782715
58,-0.0020612683147192,-0.00043316191295161843,-3.9642080082558095e-05,0.0025167581625282764,0.757559597492218,1.8745557069778442,-0.7657991051673889,0.06574025750160217,1.5704790353775024,-0.6187448501586914,-0.43168485164642334,-0.5061744451522827,-8.67761264089495e-06,-0.013898869976401329,-0.0015123175689950585,0.04257429018616676,-1.5825731754302979,1.9226436614990234,-1.5093351602554321,0.18753746151924133,0.14738106727600098,0.7072323560714722,0.6431554555892944,0.9955660104751587,0.08645057678222656,-0.041436076164245605,0.30131030082702637,-0.5191010236740112,0.05113637447357178,0.03369929641485214,-1.6859171390533447,-0.9763314723968506,-0.17712903022766113,0.6159924268722534,0.7645490169525146,-0.43845343589782715
59,0.002188880695030093,-0.0003668880963232368,-3.1177485652733594e-05,-0.0028121136128902435,0.7381929755210876,1.8717948198318481,-0.7496504783630371,0.06691423803567886,1.5705093145370483,-0.6187448501586914,-0.43168485164642334,-0.5061744451522827,3.239015131839551e-05,0.014874530024826527,0.0017258140724152327,-0.04679667204618454,-1.582016944885254,1.9181454181671143,-1.496871829032898,0.18666508793830872,0.14738106727600098,0.7072323560714722,0.6431554555892944,0.9955660104751587,0.08645057678222656,-0.041436076164245605,0.30131030082702637,-0.5191010236740112,0.05113637447357178,0.03504909202456474,-1.6642751693725586,-0.9763314723968506,-0.17712903022766113,0.6159924268722534,0.7645490169525146,-0.43845343589782715
60,-0.002409223932772875,-0.00030579540180042386,-2.3180729840532877e-05,0.002377682365477085,0.720757782459259,1.8674474954605103,-0.7323960065841675,0.06502214074134827,1.5705443620681763,-0.6187448501586914,-0.43168485164642334,-0.5061744451522827,-5.740408596466295e-06,-0.015933247283101082,-0.001992480829358101,0.04321936145424843,-1.5805913209915161,1.9168286323547363,-1.510120153427124,0.1843697428703308,0.14738106727600098,0.7072323560714722,0.6431554555892944,0.9955660104751587,0.08645057678222656,-0.041436076164245605,0.30131030082702637,-0.5191010236740112,0.05113637447357178,0.03678536042571068,-1.6926566362380981,-0.9763314723968506,-0.17712903022766113,0.6159924268722534,0.7645490169525146,-0.43845343589782715
61,0.002660595579072833,-0.0002508426259737462,-1.8715851183515042e-05,-0.00342683051712811,0.7037028670310974,1.865327000617981,-0.7181445360183716,0.06726044416427612,1.5705803632736206,-0.6187448501586914,-0.43168485164642334,-0.5061744451522827,2.211408718721941e-05,0.016878420487046242,0.0023393845185637474,-0.03462325781583786,-1.5802644491195679,1.9107977151870728,-1.4893128871917725,0.18366581201553345,0.14738106727600098,0.7072323560714722,0.6431554555892944,0.9955660104751587,0.08645057678222656,-0.041436076164245605,0.30131030082702637,-0.5191010236740112,0.05113637447357178,0.0383789986371994,-1.6585427522659302,-0.9763314723968506,-0.17712903022766113,0.6159924268722534,0.7645490169525146,-0.43845343589782715
62,-0.003036617301404476,-0.0002041910047410056,-1.1288613677606918e-05,0.0002462618867866695,0.6888223886489868,1.8604559898376465,-0.7013715505599976,0.06425172090530396,1.5706154108047485,-0.6187448501586914,-0.43168485164642334,-0.5061744451522827,-4.2646970541682094e-06,-0.01785813644528389,-0.0027963484171777964,0.025933189317584038,-1.5784000158309937,1.9111390113830566,-1.5144226551055908,0.18065595626831055,0.14738106727600098,0.7072323560714722,0.6431554555892944,0.9955660104751587,0.08645057678222656,-0.041436076164245605,0.30131030082702637,-0.5191010236740112,0.05113637447357178,0.04025159403681755,-1.7020596265792847,-0.9763314723968506,-0.17712903022766113,0.6159924268722534,0.7645490169525146,-0.43845343589782715
63,0.0034759314730763435,-0.00016385430353693664,-1.2828058970626444e-05,-0.0033667241223156452,0.6736801862716675,1.8596223592758179,-0.6899108290672302,0.06827396899461746,1.5706474781036377,-0.6187448501586914,-0.43168485164642334,-0.5061744451522827,1.546827297715936e-05,0.01853390596807003,0.0033756326884031296,-0.018521463498473167,-1.5786020755767822,1.9028739929199219,-1.4790420532226562,0.1808553785085678,0.14738106727600098,0.7072323560714722,0.6431554555892944,0.9955660104751587,0.08645057678222656,-0.041436076164245605,0.30131030082702637,-0.5191010236740112,0.05113637447357178,0.04186452925205231,-1.6501072645187378,-0.9763314723968506,-0.17712903022766113,0.6159924268722534,0.7645490169525146,-0.43845343589782715
64,-0.004106597043573856,-0.00013149702863302082,-3.172849574184511e-06,-0.0014344153460115194,0.6612311601638794,1.8537471294403076,-0.673252284526825,0.06304947286844254,1.570676326751709,-0.6187448501586914,-0.43168485164642334,-0.5061744451522827,-3.429008756938856e-06,-0.019181786105036736,-0.004163110163062811,0.013400076888501644,-1.5760329961776733,1.9066182374954224,-1.5224934816360474,0.17689067125320435,0.14738106727600098,0.7072323560714722,0.6431554555892944,0.9955660104751587,0.08645057678222656,-0.041436076164245605,0.30131030082702637,-0.5191010236740112,0.05113637447357178,0.04369894415140152,-1.7119959592819214,-0.9763314723968506,-0.17712903022766113,0.6159924268722534,0.7645490169525146,-0.43845343589782715
65,0.0048456136137247086,-0.00010403353371657431,-1.1654523405013606e-05,-0.003253953531384468,0.6477205157279968,1.8550676107406616,-0.6653215289115906,0.07016783952713013,1.5707011222839355,-0.6187448501586914,-0.43168485164642334,-0.5061744451522827,1.1019663361366838e-05,0.01932954415678978,0.005150053184479475,-0.009413245134055614,-1.5771924257278442,1.8947086334228516,-1.4673597812652588,0.17876309156417847,0.14738106727600098,0.7072323560714722,0.6431554555892944,0.9955660104751587,0.08645057678222656,-0.041436076164245605,0.30131030082702637,-0.5191010236740112,0.05113637447357178,0.04513338580727577,-1.6441351175308228,-0.9763314723968506,-0.17712903022766113,0.6159924268722534,0.7645490169525146,-0.43845343589782715
66,-0.005900532938539982,-8.311672718264163e-05,3.4466199849703116e-06,-0.0021522156894207,0.6374825239181519,1.8473738431930542,-0.6486349105834961,0.06099482998251915,1.5707223415374756,-0.6187448501586914,-0.43168485164642334,-0.5061744451522827,-2.81757775155711e-06,-0.0194438137114048,-0.006517041474580765,0.006943555548787117,-1.5735962390899658,1.9035946130752563,-1.5295182466506958,0.17342112958431244,0.14738106727600098,0.7072323560714722,0.6431554555892944,0.9955660104751587,0.08645057678222656,-0.041436076164245605,0.30131030082702637,-0.5191010236740112,0.05113637447357178,0.046923279762268066,-1.7154465913772583,-0.9763314723968506,-0.17712903022766113,0.6159924268722534,0.7645490169525146,-0.43845343589782715
67,0.007147542666643858,-6.540409958688542e-05,-1.3156159184291027e-05,-0.002898744773119688,0.6254103183746338,1.8516929149627686,-0.6437922716140747,0.07314509898424149,1.5707396268844604,-0.6187448501586914,-0.43168485164642334,-0.5061744451522827,7.893711881479248e-06,0.01901928335428238,0.008234059438109398,-0.004873869940638542,-1.575990080833435,1.8873021602630615,-1.461890459060669,0.17732705175876617,0.14738106727600098,0.7072323560714722,0.6431554555892944,0.9955660104751587,0.08645057678222656,-0.041436076164245605,0.30131030082702637,-0.5191010236740112,0.05113637447357178,0.04789120703935623,-1.6467598676681519,-0.9763314723968506,-0.17712903022766113,0.6159924268722534,0.7645490169525146,-0.43845343589782715
68,-0.0089108282700181,-5.260712714516558e-05,9.531012437946629e-06,-0.0020824538078159094,0.6170362830162048,1.8416706323623657,-0.6284141540527344,0.05786893889307976,1.5707539319992065,-0.6187448501586914,-0.43168485164642334,-0.5061744451522827,-2.219218004029244e-06,-0.018608495593070984,-0.010602084919810295,0.003706397023051977,-1.5714458227157593,1.9008413553237915,-1.5277079343795776,0.1708953082561493,0.14738106727600098,0.7072323560714722,0.6431554555892944,0.9955660104751587,0.08645057678222656,-0.041436076164245605,0.30131030082702637,-0.5191010236740112,0.05113637447357178,0.04980950057506561,-1.7104583978652954,-0.9763314723968506,-0.17712903022766113,0.6159924268722534,0.7645490169525146,-0.43845343589782715
69,0.011022952385246754,-4.163069388596341e-05,-1.5629928384441882e-05,-0.0022248970344662666,0.6060707569122314,1.8489717245101929,-0.6246612668037415,0.07699892669916153,1.5707652568817139,-0.6187448501586914,-0.43168485164642334,-0.5061744451522827,5.525420419871807e-06,0.01780718006193638,0.013569168746471405,-0.0026127800811082125,-1.5746960639953613,1.8823764324188232,-1.4658559560775757,0.17593348026275635,0.14738106727600098,0.7072323560714722,0.6431554555892944,0.9955660104751587,0.08645057678222656,-0.041436076164245605,0.30131030082702637,-0.5191010236740112,0.05113637447357178,0.050034455955028534,-1.654943585395813,-0.9763314723968506,-0.17712903022766113,0.6159924268722534,0.7645490169525146,-0.43845343589782715
70,-0.013900471851229668,-3.3984706533374265e-05,1.4278117305366322e-05,-0.0015552759869024158,0.599449098110199,1.8371139764785767,-0.6122475266456604,0.0541023313999176,1.5707740783691406,-0.6187448501586914,-0.43168485164642334,-0.5061744451522827,-1.4846523299638648e-06,-0.017067741602659225,-0.01747550629079342,0.0020681223832070827,-1.5698728561401367,1.8973050117492676,-1.5198450088500977,0.16975891590118408,0.14738106727600098,0.7072323560714722,0.6431554555892944,0.9955660104751587,0.08645057678222656,-0.041436076164245605,0.30131030082702637,-0.5191010236740112,0.05113637447357178,0.0521746389567852,-1.7029284238815308,-0.9763314723968506,-0.17712903022766113,0.6159924268722534,0.7645490169525146,-0.43845343589782715
71,0.01728685200214386,-2.7207021048525348e-05,-1.7118565665441565e-05,-0.0014589650090783834,0.5892801880836487,1.8465371131896973,-0.6082997918128967,0.08088313043117523,1.570780873298645,-0.6187448501586914,-0.43168485164642334,-0.5061744451522827,3.496581257422804e-06,0.016130199655890465,0.022071512416005135,-0.0014920346438884735,-1.5732941627502441,1.8798692226409912,-1.4725384712219238,0.17450235784053802,0.14738106727600098,0.7072323560714722,0.6431554555892944,0.9955660104751587,0.08645057678222656,-0.041436076164245605,0.30131030082702637,-0.5191010236740112,0.05113637447357178,0.05162981152534485,-1.6629241704940796,-0.9763314723968506,-0.17712903022766113,0.6159924268722534,0.7645490169525146,-0.43845343589782715
72,-0.021490398794412613,-2.2443531634053215e-05,1.608867933100555e-05,-0.0009502264438197017,0.584402859210968,1.8336278200149536,-0.5990309119224548,0.050630196928977966,1.5707859992980957,-0.6187448501586914,-0.43168485164642334,-0.5061744451522827,-4.5802767090208363e-07,-0.015283252112567425,-0.027284901589155197,0.0012327727163210511,-1.5687220096588135,1.8938101530075073,-1.5124223232269287,0.16955502331256866,0.14738106727600098,0.7072323560714722,0.6431554555892944,0.9955660104751587,0.08645057678222656,-0.041436076164245605,0.30131030082702637,-0.5191010236740112,0.05113637447357178,0.053936783224344254,-1.6968834400177002,-0.9763314723968506,-0.17712903022766113,0.6159924268722534,0.7645490169525146,-0.43845343589782715
73,0.025881418958306313,-1.7867347196443006e-05,-1.5444149539689533e-05,-0.0008209756342694163,0.574918270111084,1.8444796800613403,-0.5949185490608215,0.08393050730228424,1.5707898139953613,-0.6187448501586914,-0.43168485164642334,-0.5061744451522827,1.4827331824562862e-06,0.014378860592842102,0.032050251960754395,-0.0009295879863202572,-1.5720206499099731,1.8785120248794556,-1.4776421785354614,0.1734391301870346,0.14738106727600098,0.7072323560714722,0.6431554555892944,0.9955660104751587,0.08645057678222656,-0.041436076164245605,0.30131030082702637,-0.5191010236740112,0.05113637447357178,0.05275590717792511,-1.6686755418777466,-0.9763314723968506,-0.17712903022766113,0.6159924268722534,0.7645490169525146,-0.43845343589782715
74,-0.03017553873360157,-1.4388936506293248e-05,1.3067717191006523e-05,-0.00046780204866081476,0.5716455578804016,1.8309320211410522,-0.5882151126861572,0.04815685749053955,1.570792555809021,-0.6187448501586914,-0.43168485164642334,-0.5061744451522827,9.59103317654808e-07,-0.013577406294643879,-0.035380490124225616,0.0007938445778563619,-1.56779146194458,1.8911497592926025,-1.507298231124878,0.16973139345645905,0.14738106727600098,0.7072323560714722,0.6431554555892944,0.9955660104751587,0.08645057678222656,-0.041436076164245605,0.30131030082702637,-0.5191010236740112,0.05113637447357178,0.05515001341700554,-1.69297194480896,-0.9763314723968506,-0.17712903022766113,0.6159924268722534,0.7645490169525146,-0.43845343589782715
75,0.033114880323410034,-1.0722855222411454e-05,-9.434766980120912e-06,-0.00037785133463330567,0.5628588199615479,1.842819333076477,-0.5842915177345276,0.08568648993968964,1.5707943439483643,-0.6187448501586914,-0.43168485164642334,-0.5061744451522827,-6.344366738630924e-07,0.012798982672393322,0.036003950983285904,-0.0006342296837829053,-1.5709799528121948,1.8776285648345947,-1.480743646621704,0.17289039492607117,0.14738106727600098,0.7072323560714722,0.6431554555892944,0.9955660104751587,0.08645057678222656,-0.041436076164245605,0.30131030082702637,-0.5191010236740112,0.05113637447357178,0.05350097641348839,-1.672371745109558,-0.9763314723968506,-0.17712903022766113,0.6159924268722534,0.7645490169525146,-0.43845343589782715
76,-0.03417272865772247,-7.764221663819626e-06,6.2037634052103385e-06,-0.00014979243860580027,0.5609420537948608,1.8289058208465576,-0.5795276761054993,0.046955469995737076,1.5707955360412598,-0.6187448501586914,-0.43168485164642334,-0.5061744451522827,2.621271278258064e-06,-0.01212827768176794,-0.033997587859630585,0.0005529563059099019,-1.5670228004455566,1.8893810510635376,-1.504126787185669,0.17004187405109406,0.14738106727600098,0.7072323560714722,0.6431554555892944,0.9955660104751587,0.08645057678222656,-0.041436076164245605,0.30131030082702637,-0.5191010236740112,0.05113637447357178,0.05590038001537323,-1.690637230873108,-0.9763314723968506,-0.17712903022766113,0.6159924268722534,0.7645490169525146,-0.43845343589782715
77,0.03285533934831619,-4.792781055584783e-06,-2.8435329113563057e-06,-0.00011023954721167684,0.5529258251190186,1.841426968574524,-0.5760625600814819,0.08609556406736374,1.5707963705062866,-0.6187448501586914,-0.43168485164642334,-0.5061744451522827,-2.6688653633755166e-06,0.011521391570568085,0.03005811758339405,-0.00047036175965331495,-1.5701625347137451,1.8770126104354858,-1.4824143648147583,0.172770693898201,0.14738106727600098,0.7072323560714722,0.6431554555892944,0.9955660104751587,0.08645057678222656,-0.041436076164245605,0.30131030082702637,-0.5191010236740112,0.05113637447357178,0.05395589396357536,-1.6745684146881104,-0.9763314723968506,-0.17712903022766113,0.6159924268722534,0.7645490169525146,-0.43845343589782715
78,-0.02989639900624752,-2.575494136181078e-06,9.925535096044769e-07,2.872241020668298e-05,0.5520773530006409,1.8274613618850708,-0.5727166533470154,0.04690801352262497,1.5707968473434448,-0.6187448501586914,-0.43168485164642334,-0.5061744451522827,4.270297267794376e-06,-0.011020038276910782,-0.02545902132987976,0.0004162676923442632,-1.566412091255188,1.8882445096969604,-1.5022966861724854,0.17038790881633759,0.14738106727600098,0.7072323560714722,0.6431554555892944,0.9955660104751587,0.08645057678222656,-0.041436076164245605,0.30131030082702637,-0.5191010236740112,0.05113637447357178,0.056281741708517075,-1.68928861618042,-0.9763314723968506,-0.17712903022766113,0.6159924268722534,0.7645490169525146,-0.43845343589782715
79,0.025974804535508156,-6.698853098896507e-07,2.3588589215250977e-07,2.823114482453093e-05,0.5449062585830688,1.8401798009872437,-0.5698553323745728,0.08545960485935211,1.5707972049713135,-0.6187448501586914,-0.43168485164642334,-0.5061744451522827,-4.611776603269391e-06,0.010593561455607414,0.02097054198384285,-0.0003754875506274402,-1.5695271492004395,1.8765687942504883,-1.4832018613815308,0.17291811108589172,0.14738106727600098,0.7072323560714722,0.6431554555892944,0.9955660104751587,0.08645057678222656,-0.041436076164245605,0.30131030082702637,-0.5191010236740112,0.05113637447357178,0.05420389398932457,-1.6757749319076538,-0.9763314723968506,-0.17712903022766113,0.6159924268722534,0.7645490169525146,-0.43845343589782715
80,-0.021992510184645653,5.556610176427057e-07,-7.891509881119418e-07,0.00010988593567162752,0.5448607206344604,1.826490879058838,-0.567517876625061,0.047663088887929916,1.570797324180603,-0.6187448501586914,-0.43168485164642334,-0.5061744451522827,6.159751592349494e-06,-0.01026145089417696,-0.017076855525374413,0.0003376136883161962,-1.5659433603286743,1.887498378753662,-1.5013216733932495,0.17070730030536652,0.14738106727600098,0.7072323560714722,0.6431554555892944,0.9955660104751587,0.08645057678222656,-0.041436076164245605,0.30131030082702637,-0.5191010236740112,0.05113637447357178,0.05640232563018799,-1.6885898113250732,-0.9763314723968506,-0.17712903022766113,0.6159924268722534,0.7645490169525146,-0.43845343589782715
81,0.018293488770723343,1.4640704648627434e-06,8.188889637494867e-07,8.347470429725945e-05,0.5385681986808777,1.8390593528747559,-0.5653067827224731,0.08422885090112686,1.570797324180603,-0.6187448501586914,-0.43168485164642334,-0.5061744451522827,-7.065046702336986e-06,0.009999405592679977,0.013848870061337948,-0.000319440383464098,-1.5690304040908813,1.876263976097107,-1.4834697246551514,0.17318527400493622,0.14738106727600098,0.7072323560714722,0.6431554555892944,0.9955660104751587,0.08645057678222656,-0.041436076164245605,0.30131030082702637,-0.5191010236740112,0.05113637447357178,0.05431683734059334,-1.6763782501220703,-0.9763314723968506,-0.17712903022766113,0.6159924268722534,0.7645490169525146,-0.43845343589782715
82,-0.015159082598984241,1.955453171831323e-06,-9.232693400917924e-07,0.00013145996490493417,0.5391234755516052,1.825890064239502,-0.5636687278747559,0.04881347343325615,1.5707972049713135,-0.6187448501586914,-0.43168485164642334,-0.5061744451522827,9.075881280296016e-06,-0.009820373728871346,-0.011275704018771648,0.000293140095891431,-1.5655890703201294,1.887020230293274,-1.500870943069458,0.17097315192222595,0.14738106727600098,0.7072323560714722,0.6431554555892944,0.9955660104751587,0.08645057678222656,-0.041436076164245605,0.30131030082702637,-0.5191010236740112,0.05113637447357178,0.05636223778128624,-1.6883310079574585,-0.9763314723968506,-0.17712903022766113,0.6159924268722534,0.7645490169525146,-0.43845343589782715
83,0.012540007010102272,2.2821593574917642e-06,6.38641154182551e-07,9.06269924598746e-05,0.5336876511573792,1.8381084203720093,-0.5620869994163513,0.08280578255653381,1.570797085762024,-0.6187448501586914,-0.43168485164642334,-0.5061744451522827,-1.1004376574419439e-05,0.009703945368528366,0.009235401637852192,-0.0002872563782148063,-1.5686490535736084,1.8760720491409302,-1.4834294319152832,0.17349006235599518,0.14738106727600098,0.7072323560714722,0.6431554555892944,0.9955660104751587,0.08645057678222656,-0.041436076164245605,0.30131030082702637,-0.5191010236740112,0.05113637447357178,0.05434408783912659,-1.6765940189361572,-0.9763314723968506,-0.17712903022766113,0.6159924268722534,0.7645490169525146,-0.43845343589782715
84,-0.010446795262396336,2.425208549539093e-06,-6.540069534821669e-07,0.00012108201190130785,0.5347105264663696,1.825543999671936,-0.560922384262085,0.05002226680517197,1.5707969665527344,-0.6187448501586914,-0.43168485164642334,-0.5061744451522827,1.4162666047923267e-05,-0.009663661941885948,-0.007640684023499489,0.00027043072623200715,-1.565325140953064,1.8867502212524414,-1.5007588863372803,0.17118322849273682,0.14738106727600098,0.7072323560714722,0.6431554555892944,0.9955660104751587,0.08645057678222656,-0.041436076164245605,0.30131030082702637,-0.5191010236740112,0.05113637447357178,0.056237511336803436,-1.6883689165115356,-0.9763314723968506,-0.17712903022766113,0.6159924268722534,0.7645490169525146,-0.43845343589782715
85,0.00874755997210741,2.530540314182872e-06,3.8126114532133215e-07,7.356477726716548e-05,0.5300570726394653,1.8373653888702393,-0.5599120259284973,0.08147375285625458,1.5707968473434448,-0.6187448501586914,-0.43168485164642334,-0.5061744451522827,-1.7896309145726264e-05,0.009680171497166157,0.006382511463016272,-0.0002716072485782206,-1.5683739185333252,1.8759430646896362,-1.483188271522522,0.1737954467535019,0.14738106727600098,0.7072323560714722,0.6431554555892944,0.9955660104751587,0.08645057678222656,-0.041436076164245605,0.30131030082702637,-0.5191010236740112,0.05113637447357178,0.054317209869623184,-1.6765326261520386,-0.9763314723968506,-0.17712903022766113,0.6159924268722534,0.7645490169525146,-0.43845343589782715
86,-0.0074113281443715096,2.594529178168159e-06,-3.89742069728527e-07,9.691776358522475e-05,0.5314661860466003,1.8253440856933594,-0.559057891368866,0.05107620730996132,1.5707967281341553,-0.6187448501586914,-0.43168485164642334,-0.5061744451522827,2.3360167688224465e-05,-0.009770308621227741,-0.005397583823651075,0.0002632336982060224,-1.5651283264160156,1.8866562843322754,-1.5008981227874756,0.17133468389511108,0.14738106727600098,0.7072323560714722,0.6431554555892944,0.9955660104751587,0.08645057678222656,-0.041436076164245605,0.30131030082702637,-0.5191010236740112,0.05113637447357178,0.056081075221300125,-1.6886228322982788,-0.9763314723968506,-0.17712903022766113,0.6159924268722534,0.7645490169525146,-0.43845343589782715
87,0.006327024195343256,2.696967158044572e-06,1.9841969844947016e-07,4.7013199946377426e-05,0.5274834632873535,1.8368489742279053,-0.558547854423523,0.08039391785860062,1.5707967281341553,-0.6187448501586914,-0.43168485164642334,-0.5061744451522827,-3.0436056476901285e-05,0.009913299232721329,0.004614017903804779,-0.0002692227717489004,-1.568198561668396,1.8758206367492676,-1.4827849864959717,0.17408564686775208,0.14738106727600098,0.7072323560714722,0.6431554555892944,0.9955660104751587,0.08645057678222656,-0.041436076164245605,0.30131030082702637,-0.5191010236740112,0.05113637447357178,0.05425793677568436,-1.676249384880066,-0.9763314723968506,-0.17712903022766113,0.6159924268722534,0.7645490169525146,-0.43845343589782715
88,-0.00547644542530179,2.8414360713213682e-06,-2.0632381847462966e-07,6.967746594455093e-05,0.5292308926582336,1.8252068758010864,-0.5578848719596863,0.05186782777309418,1.5707967281341553,-0.6187448501586914,-0.43168485164642334,-0.5061744451522827,4.045887908432633e-05,-0.010130614042282104,-0.0039963386952877045,0.00026890073786489666,-1.5649768114089966,1.8867223262786865,-1.5012582540512085,0.17142058908939362,0.14738106727600098,0.7072323560714722,0.6431554555892944,0.9955660104751587,0.08645057678222656,-0.041436076164245605,0.30131030082702637,-0.5191010236740112,0.05113637447357178,0.055927254259586334,-1.6890581846237183,-0.9763314723968506,-0.17712903022766113,0.6159924268722534,0.7645490169525146,-0.43845343589782715
89,0.004779149312525988,3.077722794841975e-06,8.991162303573219e-08,1.8933873434434645e-05,0.5257880091667175,1.8365620374679565,-0.5578064918518066,0.07963819056749344,1.5707966089248657,-0.6187448501586914,-0.43168485164642334,-0.5061744451522827,-5.4038009693613276e-05,0.010397693142294884,0.003499118145555258,-0.00027930125361308455,-1.5681161880493164,1.875654697418213,-1.48222017288208,0.1743575632572174,0.14738106727600098,0.7072323560714722,0.6431554555892944,0.9955660104751587,0.08645057678222656,-0.041436076164245605,0.30131030082702637,-0.5191010236740112,0.05113637447357178,0.054181355983018875,-1.6757662296295166,-0.9763314723968506,-0.17712903022766113,0.6159924268722534,0.7645490169525146,-0.43845343589782715
90,-0.004232766572386026,3.42483508575242e-06,-9.170982195882971e-08,4.4752934627467766e-05,0.527846097946167,1.8250727653503418,-0.5572433471679688,0.052355218678712845,1.5707964897155762,-0.6187448501586914,-0.43168485164642334,-0.5061744451522827,7.325125625357032e-05,-0.010741609148681164,-0.003105100244283676,0.0002872407785616815,-1.5648504495620728,1.8869433403015137,-1.5018380880355835,0.17143365740776062,0.14738106727600098,0.7072323560714722,0.6431554555892944,0.9955660104751587,0.08645057678222656,-0.041436076164245605,0.30131030082702637,-0.5191010236740112,0.05113637447357178,0.05579651519656181,-1.6896697282791138,-0.9763314723968506,-0.17712903022766113,0.6159924268722534,0.7645490169525146,-0.43845343589782715
91,0.0037787093315273523,3.929778358724434e-06,3.0182555121882615e-08,-7.356363312283065e-06,0.524806022644043,1.8364988565444946,-0.5575390458106995,0.07922843843698502,1.5707964897155762,-0.6187448501586914,-0.43168485164642334,-0.5061744451522827,-0.00010000058682635427,0.01113117765635252,0.0027845625299960375,-0.00030294389580376446,-1.568120002746582,1.8754042387008667,-1.4814739227294922,0.17461705207824707,0.14738106727600098,0.7072323560714722,0.6431554555892944,0.9955660104751587,0.08645057678222656,-0.041436076164245605,0.30131030082702637,-0.5191010236740112,0.05113637447357178,0.054096855223178864,-1.6750836372375488,-0.9763314723968506,-0.17712903022766113,0.6159924268722534,0.7645490169525146,-0.43845343589782715
92,-0.003425573231652379,4.645482022169745e-06,-2.169526602813221e-08,2.404837687208783e-05,0.5271604657173157,1.8248980045318604,-0.5570017695426941,0.05252827703952789,1.5707964897155762,-0.6187448501586914,-0.43168485164642334,-0.5061744451522827,0.00013825965288560838,-0.011599812656641006,-0.00253100274130702,0.0003201690851710737,-1.564731478691101,1.8873220682144165,-1.5026519298553467,0.17136834561824799,0.14738106727600098,0.7072323560714722,0.6431554555892944,0.9955660104751587,0.08645057678222656,-0.041436076164245605,0.30131030082702637,-0.5191010236740112,0.05113637447357178,0.05569971725344658,-1.6904703378677368,-0.9763314723968506,-0.17712903022766113,0.6159924268722534,0.7645490169525146,-0.43845343589782715
93,0.003128083422780037,5.644115390168736e-06,-1.892752621301952e-09,-3.15743891405873e-05,0.5243872404098511,1.8366508483886719,-0.5576281547546387,0.0791642963886261,1.5707964897155762,-0.6187448501586914,-0.43168485164642334,-0.5061744451522827,-0.0001926182012539357,0.012105877511203289,0.0023235429544001818,-0.0003432094817981124,-1.568204402923584,1.875035047531128,-1.48051917552948,0.17487585544586182,0.14738106727600098,0.7072323560714722,0.6431554555892944,0.9955660104751587,0.08645057678222656,-0.041436076164245605,0.30131030082702637,-0.5191010236740112,0.05113637447357178,0.05400890111923218,-1.6741881370544434,-0.9763314723968506,-0.17712903022766113,0.6159924268722534,0.7645490169525146,-0.43845343589782715
94,-0.0029019778594374657,7.052640739857452e-06,2.2923488884885046e-08,7.333801931963535e-06,0.5270341038703918,1.8246480226516724,-0.5570535063743591,0.05238872766494751,1.5707963705062866,-0.6187448501586914,-0.43168485164642334,-0.5061744451522827,0.0002715492737479508,-0.012689940631389618,-0.0021621023770421743,0.00037192844320088625,-1.5646038055419922,1.8878673315048218,-1.5037178993225098,0.1712207943201065,0.14738106727600098,0.7072323560714722,0.6431554555892944,0.9955660104751587,0.08645057678222656,-0.041436076164245605,0.30131030082702637,-0.5191010236740112,0.05113637447357178,0.0556415431201458,-1.6914812326431274,-0.9763314723968506,-0.17712903022766113,0.6159924268722534,0.7645490169525146,-0.43845343589782715
95,0.0027093496173620224,9.01616567716701e-06,-1.9735674428034145e-08,-5.54400248802267e-05,0.524395763874054,1.8370108604431152,-0.5579813122749329,0.07943714410066605,1.5707963705062866,-0.6187448501586914,-0.43168485164642334,-0.5061744451522827,-0.00038568078889511526,0.013294669799506664,0.0020306298974901438,-0.0004056907200720161,-1.5683653354644775,1.8745181560516357,-1.479331374168396,0.1751490980386734,0.14738106727600098,0.7072323560714722,0.6431554555892944,0.9955660104751587,0.08645057678222656,-0.041436076164245605,0.30131030082702637,-0.5191010236740112,0.05113637447357178,0.0539180189371109,-1.6730625629425049,-0.9763314723968506,-0.17712903022766113,0.6159924268722534,0.7645490169525146,-0.43845343589782715
96,-0.0025710761547088623,1.1831366464321036e-05,5.515025236491056e-08,-6.907107945153257e-06,0.5273404121398926,1.824293613433838,-0.5573137998580933,0.051943082362413406,1.5707963705062866,-0.6187448501586914,-0.43168485164642334,-0.5061744451522827,0.0005541584687307477,-0.013968884944915771,-0.0019331818912178278,0.0004499034257605672,-1.5644527673721313,1.8885908126831055,-1.5050462484359741,0.17098835110664368,0.14738106727600098,0.7072323560714722,0.6431554555892944,0.9955660104751587,0.08645057678222656,-0.041436076164245605,0.30131030082702637,-0.5191010236740112,0.05113637447357178,0.05562299117445946,-1.6927212476730347,-0.9763314723968506,-0.17712903022766113,0.6159924268722534,0.7645490169525146,-0.43845343589782715
97,0.0024526433553546667,1.58263101184275e-05,-3.104671364440037e-08,-8.223023178288713e-05,0.5247105360031128,1.8375723361968994,-0.5585243701934814,0.08003309369087219,1.5707963705062866,-0.6187448501586914,-0.43168485164642334,-0.5061744451522827,-0.0008017748477868736,0.01463339477777481,0.0018561506876721978,-0.0004997306386940181,-1.568599820137024,1.873830795288086,-1.4779022932052612,0.17545273900032043,0.14738106727600098,0.7072323560714722,0.6431554555892944,0.9955660104751587,0.08645057678222656,-0.041436076164245605,0.30131030082702637,-0.5191010236740112,0.05113637447357178,0.05382206290960312,-1.671697974205017,-0.9763314723968506,-0.17712903022766113,0.6159924268722534,0.7645490169525146,-0.43845343589782715
98,-0.0023794653825461864,2.1710082364734262e-05,8.369534043595195e-08,-2.1100235244375654e-05,0.5279663801193237,1.823811650276184,-0.5577169060707092,0.05120482295751572,1.5707963705062866,-0.6187448501586914,-0.43168485164642334,-0.5061744451522827,0.001173465047031641,-0.015347547829151154,-0.0018066766206175089,0.0005662437761202455,-1.5642664432525635,1.8895014524459839,-1.5066243410110474,0.1706702560186386,0.14738106727600098,0.7072323560714722,0.6431554555892944,0.9955660104751587,0.08645057678222656,-0.041436076164245605,0.30131030082702637,-0.5191010236740112,0.05113637447357178,0.055642858147621155,-1.6941924095153809,-0.9763314723968506,-0.17712903022766113,0.6159924268722534,0.7645490169525146,-0.43845343589782715
99,0.0023175806272774935,3.0278284611995332e-05,-3.957543270871611e-08,-0.00011691856343531981,0.525225818157196,1.8383262157440186,-0.5591963529586792,0.0809270516037941,1.5707963705062866,-0.6187448501586914,-0.43168485164642334,-0.5061744451522827,-0.001728230738081038,0.01600455865263939,0.0017721012700349092,-0.0006406114553101361,-1.5689043998718262,1.8729615211486816,-1.4762572050094604,0.17580042779445648,0.14738106727600098,0.7072323560714722,0.6431554555892944,0.9955660104751587,0.08645057678222656,-0.041436076164245605,0.30131030082702637,-0.5191010236740112,0.05113637447357178,0.05371759086847305,-1.6701123714447021,-0.9763314723968506,-0.17712903022766113,0.6159924268722534,0.7645490169525146,-0.43845343589782715
