,0,1,2,3,4,5,6,7,8,9,10,11,12,13,14,15,16,17,18,19,20,21,22,23
0,-0.5717313289642334,-0.6434875726699829,0.45266008377075195,0.2208855152130127,-0.23057866096496582,-0.9263980388641357,0.33101892471313477,0.7861505746841431,0.7963649034500122,-0.27676963806152344,-0.7392116785049438,-0.1985403299331665,-0.8109019994735718,0.598229169845581,0.3080587387084961,-0.1403259038925171,-0.7021580934524536,0.3784620761871338,0.6092919111251831,-0.5827693939208984,-0.4142099618911743,0.7097400426864624,-0.7085754871368408,-0.007538914680480957
1,-0.6242079138755798,-0.6959633827209473,0.5051364898681641,0.16840900480747223,-0.17810212075710297,-0.9788745641708374,0.38349542021751404,0.7861505746841431,0.8488414287567139,-0.3292459547519684,-0.7916882038116455,-0.2510167062282562,-0.7584255337715149,0.5457526445388794,0.3080587387084961,-0.1403259038925171,-0.7021580934524536,0.3784620761871338,0.6092919111251831,-0.6352459192276001,-0.3617335259914398,0.7097400426864624,-0.7085754871368408,-0.007538914680480957
2,-0.659420907497406,-0.646753191947937,0.4905514717102051,0.13084276020526886,-0.14771975576877594,-1.0136635303497314,0.4196779131889343,0.7861505746841431,0.8830934166908264,-0.36705631017684937,-0.8250712156295776,-0.27158474922180176,-0.713598370552063,0.5151276588439941,0.3080587387084961,-0.1403259038925171,-0.7021580934524536,0.3784620761871338,0.6092919111251831,-0.6712186336517334,-0.3905521333217621,0.7097400426864624,-0.7085754871368408,-0.007538914680480957
3,-0.6929539442062378,-0.6074789762496948,0.4538641571998596,0.09701692312955856,-0.1264151781797409,-1.0443840026855469,0.4566929042339325,0.7861505746841431,0.9149885177612305,-0.41314902901649475,-0.8573099374771118,-0.29207277297973633,-0.6769149303436279,0.4867094159126282,0.3080587387084961,-0.1403259038925171,-0.7021580934524536,0.3784620761871338,0.6092919111251831,-0.7042108178138733,-0.4367234706878662,0.7097400426864624,-0.7085754871368408,-0.007538914680480957
4,-0.7281209826469421,-0.5748026371002197,0.41027209162712097,0.06529765576124191,-0.11697287857532501,-1.0733933448791504,0.49714648723602295,0.7861505746841431,0.9478685259819031,-0.46325111389160156,-0.8903078436851501,-0.31750771403312683,-0.6474910974502563,0.4590657353401184,0.3080587387084961,-0.1403259038925171,-0.7021580934524536,0.3784620761871338,0.6092919111251831,-0.7361271381378174,-0.4876089096069336,0.7097400426864624,-0.7085754871368408,-0.007538914680480957
5,-0.7657005190849304,-0.5509796738624573,0.3642536401748657,0.03480975329875946,-0.12453571707010269,-1.1016231775283813,0.5419568419456482,0.7861505746841431,0.9825119972229004,-0.5163321495056152,-0.9238684177398682,-0.35100266337394714,-0.6272201538085938,0.4326384961605072,0.3080587387084961,-0.1403259038925171,-0.7021580934524536,0.3784620761871338,0.6092919111251831,-0.7666652798652649,-0.5416306853294373,0.7097400426864624,-0.7085754871368408,-0.007538914680480957
6,-0.8059225082397461,-0.5384188294410706,0.3172301948070526,0.004467430524528027,-0.15140722692012787,-1.1299443244934082,0.5916526317596436,0.7861505746841431,1.0192744731903076,-0.5720661878585815,-0.9571384787559509,-0.391819030046463,-0.6185593605041504,0.40798741579055786,0.3080587387084961,-0.1403259038925171,-0.7021580934524536,0.3784620761871338,0.6092919111251831,-0.7946634888648987,-0.5987802147865295,0.7097400426864624,-0.7085754871368408,-0.007538914680480957
7,-0.8487673997879028,-0.5355938673019409,0.26993730664253235,-0.026746056973934174,-0.19368228316307068,-1.1592825651168823,0.646264910697937,0.7861505746841431,1.0584205389022827,-0.6302924156188965,-0.9889682531356812,-0.4342552721500397,-0.6212353706359863,0.38536781072616577,0.3080587387084961,-0.1403259038925171,-0.7021580934524536,0.3784620761871338,0.6092919111251831,-0.818117082118988,-0.6590099334716797,0.7097400426864624,-0.7085754871368408,-0.007538914680480957
8,-0.8939425945281982,-0.5369421243667603,0.223578542470932,-0.05874044820666313,-0.24517139792442322,-1.1903365850448608,0.7050917744636536,0.7861505746841431,1.100054383277893,-0.6909055113792419,-1.018135666847229,-0.4689358174800873,-0.630483865737915,0.3646186292171478,0.3080587387084961,-0.1403259038925171,-0.7021580934524536,0.3784620761871338,0.6092919111251831,-0.833733320236206,-0.7217749357223511,0.7097400426864624,-0.7085754871368408,-0.007538914680480957
9,-0.940963089466095,-0.5391009449958801,0.18043474853038788,-0.08999691903591156,-0.30116742849349976,-1.2234458923339844,0.7669771313667297,0.7861505746841431,1.1440880298614502,-0.7537264227867126,-1.0436054468154907,-0.48749569058418274,-0.6393715739250183,0.34517353773117065,0.3080587387084961,-0.1403259038925171,-0.7021580934524536,0.3784620761871338,0.6092919111251831,-0.8375091552734375,-0.7862565517425537,0.7097400426864624,-0.7085754871368408,-0.007538914680480957
10,-0.9893885850906372,-0.5463503003120422,0.14350663125514984,-0.11811301112174988,-0.3586415648460388,-1.258605718612671,0.8307662010192871,0.7861505746841431,1.1904058456420898,-0.818253755569458,-1.0646203756332397,-0.49727675318717957,-0.6423616409301758,0.32632768154144287,0.3080587387084961,-0.1403259038925171,-0.7021580934524536,0.3784620761871338,0.6092919111251831,-0.827390193939209,-0.851692259311676,0.7097400426864624,-0.7085754871368408,-0.007538914680480957
11,-1.0390177965164185,-0.5644733905792236,0.11529499292373657,-0.14038266241550446,-0.41530367732048035,-1.295189380645752,0.8954674601554871,0.7861505746841431,1.2390484809875488,-0.8839251399040222,-1.0808354616165161,-0.5198354125022888,-0.6335799694061279,0.30799031257629395,0.3080587387084961,-0.1403259038925171,-0.7021580934524536,0.3784620761871338,0.6092919111251831,-0.8047133088111877,-0.9174157977104187,0.7097400426864624,-0.7085754871368408,-0.007538914680480957
12,-1.0899012088775635,-0.5929511785507202,0.09725490212440491,-0.15443626046180725,-0.46892279386520386,-1.3318454027175903,0.9602301120758057,0.7861505746841431,1.2902122735977173,-0.9506897330284119,-1.093148946762085,-0.5612289905548096,-0.6017624735832214,0.2916921377182007,0.3080587387084961,-0.1403259038925171,-0.7021580934524536,0.3784620761871338,0.6092919111251831,-0.771372377872467,-0.9827954173088074,0.7097400426864624,-0.7085754871368408,-0.007538914680480957
13,-1.1421375274658203,-0.6367860436439514,0.09010866284370422,-0.15939679741859436,-0.5174542665481567,-1.3672128915786743,1.0243830680847168,0.7861505746841431,1.3440622091293335,-1.0182578563690186,-1.10404634475708,-0.6256458759307861,-0.5449967980384827,0.2796526849269867,0.3080587387084961,-0.1403259038925171,-0.7021580934524536,0.3784620761871338,0.6092919111251831,-0.7287017703056335,-1.047279953956604,0.7097400426864624,-0.7085754871368408,-0.007538914680480957
14,-1.1957224607467651,-0.6976230144500732,0.09311512857675552,-0.1561589539051056,-0.5591489672660828,-1.4004597663879395,1.0874210596084595,0.7861505746841431,1.400605320930481,-1.0860130786895752,-1.1181626319885254,-0.7051845788955688,-0.47176453471183777,0.2737977206707001,0.3080587387084961,-0.1403259038925171,-0.7021580934524536,0.3784620761871338,0.6092919111251831,-0.6762679219245911,-1.1104525327682495,0.7097400426864624,-0.7085754871368408,-0.007538914680480957
15,-1.2500544786453247,-0.7721406817436218,0.10393991321325302,-0.1461472511291504,-0.5928238034248352,-1.431384563446045,1.1489380598068237,0.7861505746841431,1.4589818716049194,-1.1525222063064575,-1.140744924545288,-0.7954904437065125,-0.39343348145484924,0.27257463335990906,0.3080587387084961,-0.1403259038925171,-0.7021580934524536,0.3784620761871338,0.6092919111251831,-0.6150880455970764,-1.1719623804092407,0.7097400426864624,-0.7085754871368408,-0.007538914680480957
16,-1.3036483526229858,-0.852750301361084,0.1193094402551651,-0.1301109939813614,-0.618198812007904,-1.460070013999939,1.2085174322128296,0.7861505746841431,1.5171202421188354,-1.2160159349441528,-1.1753220558166504,-0.8899743556976318,-0.3169662356376648,0.2701275646686554,0.3080587387084961,-0.1403259038925171,-0.7021580934524536,0.3784620761871338,0.6092919111251831,-0.5476345419883728,-1.231367826461792,0.7097400426864624,-0.7085754871368408,-0.007538914680480957
17,-1.3541648387908936,-0.9331457614898682,0.1356140524148941,-0.10872185230255127,-0.6362977027893066,-1.4865933656692505,1.2656664848327637,0.7861505746841431,1.5718700885772705,-1.274466872215271,-1.221139907836914,-0.9850861430168152,-0.24806854128837585,0.25889986753463745,0.3080587387084961,-0.1403259038925171,-0.7021580934524536,0.3784620761871338,0.6092919111251831,-0.477695107460022,-1.288037896156311,0.7097400426864624,-0.7085754871368408,-0.007538914680480957
18,-1.3989083766937256,-1.0082108974456787,0.1495509147644043,-0.0842604786157608,-0.6491636633872986,-1.5109144449234009,1.319778323173523,0.7861505746841431,1.6196330785751343,-1.3265728950500488,-1.2746107578277588,-1.0765454769134521,-0.18996980786323547,0.23677121102809906,0.3080587387084961,-0.1403259038925171,-0.7021580934524536,0.3784620761871338,0.6092919111251831,-0.40864723920822144,-1.3411922454833984,0.7097400426864624,-0.7085754871368408,-0.007538914680480957
19,-1.4355342388153076,-1.074655532836914,0.15942257642745972,-0.05957360193133354,-0.6590296030044556,-1.5328131914138794,1.3701585531234741,0.7861505746841431,1.6572033166885376,-1.3719884157180786,-1.33034086227417,-1.1615705490112305,-0.14368639886379242,0.20656999945640564,0.3080587387084961,-0.1403259038925171,-0.7021580934524536,0.3784620761871338,0.6092919111251831,-0.34305232763290405,-1.3900535106658936,0.7097400426864624,-0.7085754871368408,-0.007538914680480957
20,-1.4628223180770874,-1.13104248046875,0.16538353264331818,-0.03691880404949188,-0.6675166487693787,-1.5521296262741089,1.4161370992660522,0.7861505746841431,1.6828007698059082,-1.4112504720687866,-1.3832207918167114,-1.23839271068573,-0.10756219178438187,0.17264243960380554,0.3080587387084961,-0.1403259038925171,-0.7021580934524536,0.3784620761871338,0.6092919111251831,-0.2823942005634308,-1.4340126514434814,0.7097400426864624,-0.7085754871368408,-0.007538914680480957
21,-1.481111764907837,-1.1777325868606567,0.16855236887931824,-0.017558500170707703,-0.6754745244979858,-1.568925380706787,1.4572051763534546,0.7861505746841431,1.6967943906784058,-1.4451943635940552,-1.4298206567764282,-1.3066052198410034,-0.07914624363183975,0.13839255273342133,0.3080587387084961,-0.1403259038925171,-0.7021580934524536,0.3784620761871338,0.6092919111251831,-0.22734513878822327,-1.4727213382720947,0.7097400426864624,-0.7085754871368408,-0.007538914680480957
22,-1.4920390844345093,-1.2162597179412842,0.17008280754089355,-0.0019430606625974178,-0.6832095980644226,-1.5834628343582153,1.4930821657180786,0.7861505746841431,1.7014307975769043,-1.4746067523956299,-1.4688458442687988,-1.3665788173675537,-0.05650957673788071,0.10620123893022537,0.3080587387084961,-0.1403259038925171,-0.7021580934524536,0.3784620761871338,0.6092919111251831,-0.17803166806697845,-1.5060850381851196,0.7097400426864624,-0.7085754871368408,-0.007538914680480957
23,-1.4977670907974243,-1.2485177516937256,0.17080193758010864,0.010127363726496696,-0.6907474398612976,-1.596097707748413,1.5237059593200684,0.7861505746841431,1.69972562789917,-1.5000874996185303,-1.500455617904663,-1.4189064502716064,-0.03846205770969391,0.07735960185527802,0.3080587387084961,-0.1403259038925171,-0.7021580934524536,0.3784620761871338,0.6092919111251831,-0.13432075083255768,-1.5342042446136475,0.7097400426864624,-0.7085754871368408,-0.007538914680480957
24,-1.5002814531326294,-1.276174783706665,0.17118290066719055,0.01922518014907837,-0.6980058550834656,-1.6071890592575073,1.5491973161697388,0.7861505746841431,1.6944215297698975,-1.5220838785171509,-1.5255837440490723,-1.4640856981277466,-0.024165939539670944,0.05244369059801102,0.3080587387084961,-0.1403259038925171,-0.7021580934524536,0.3784620761871338,0.6092919111251831,-0.09601028263568878,-1.5573214292526245,0.7097400426864624,-0.7085754871368408,-0.007538914680480957
25,-1.5010648965835571,-1.300473928451538,0.17144818603992462,0.026078205555677414,-0.7048891186714172,-1.6170481443405151,1.56982421875,0.7861505746841431,1.6875228881835938,-1.5409119129180908,-1.5453368425369263,-1.5025665760040283,-0.013009193353354931,0.031463876366615295,0.3080587387084961,-0.1403259038925171,-0.7021580934524536,0.3784620761871338,0.6092919111251831,-0.06290478259325027,-1.5757845640182495,0.7097400426864624,-0.7085754871368408,-0.007538914680480957
26,-1.501077651977539,-1.322262167930603,0.17167338728904724,0.031389180570840836,-0.7113234400749207,-1.6259204149246216,1.5859663486480713,0.7861505746841431,1.6802890300750732,-1.556825041770935,-1.5607521533966064,-1.5347867012023926,-0.004448428750038147,0.014200594276189804,0.3080587387084961,-0.1403259038925171,-0.7021580934524536,0.3784620761871338,0.6092919111251831,-0.03479655086994171,-1.5900194644927979,0.7097400426864624,-0.7085754871368408,-0.007538914680480957
27,-1.5008718967437744,-1.3420941829681396,0.1718653291463852,0.03574874624609947,-0.7172664999961853,-1.6339868307113647,1.598078966140747,0.7861505746841431,1.67341148853302,-1.5700368881225586,-1.5726546049118042,-1.5612314939498901,0.0019580451771616936,0.0002712234854698181,0.3080587387084961,-0.1403259038925171,-0.7021580934524536,0.3784620761871338,0.6092919111251831,-0.011437725275754929,-1.6005016565322876,0.7097400426864624,-0.7085754871368408,-0.007538914680480957
28,-1.5007259845733643,-1.3603265285491943,0.17200683057308197,0.039596982300281525,-0.7227031588554382,-1.6413747072219849,1.6066583395004272,0.7861505746841431,1.6672096252441406,-1.5807613134384155,-1.5817004442214966,-1.582412600517273,0.006614828947931528,-0.010695114731788635,0.3080587387084961,-0.1403259038925171,-0.7021580934524536,0.3784620761871338,0.6092919111251831,0.007482031360268593,-1.607729196548462,0.7097400426864624,-0.7085754871368408,-0.007538914680480957
29,-1.5007538795471191,-1.3771878480911255,0.17207969725131989,0.04322915896773338,-0.7276396751403809,-1.6481714248657227,1.6122124195098877,0.7861505746841431,1.6617833375930786,-1.5892080068588257,-1.5883800983428955,-1.5988759994506836,0.009839680045843124,-0.019099324941635132,0.3080587387084961,-0.1403259038925171,-0.7021580934524536,0.3784620761871338,0.6092919111251831,0.022330330684781075,-1.6121995449066162,0.7097400426864624,-0.7085754871368408,-0.007538914680480957
30,-1.5009794235229492,-1.3928258419036865,0.17207372188568115,0.0468176007270813,-0.7320971488952637,-1.6544369459152222,1.615238070487976,0.7861505746841431,1.6571154594421387,-1.5956019163131714,-1.5931029319763184,-1.6111654043197632,0.011927736923098564,-0.025271348655223846,0.3080587387084961,-0.1403259038925171,-0.7021580934524536,0.3784620761871338,0.6092919111251831,0.03352150693535805,-1.6143907308578491,0.7097400426864624,-0.7085754871368408,-0.007538914680480957
31,-1.5013830661773682,-1.4073392152786255,0.17198817431926727,0.05043985694646835,-0.736106812953949,-1.6602144241333008,1.6162055730819702,0.7861505746841431,1.6531347036361694,-1.6001648902893066,-1.5961889028549194,-1.6198301315307617,0.013100551441311836,-0.02955665811896324,0.3080587387084961,-0.1403259038925171,-0.7021580934524536,0.3784620761871338,0.6092919111251831,0.041492946445941925,-1.6147487163543701,0.7097400426864624,-0.7085754871368408,-0.007538914680480957
32,-1.5019280910491943,-1.4207994937896729,0.1718309074640274,0.054109126329422,-0.7397059798240662,-1.6655373573303223,1.6155471801757812,0.7861505746841431,1.6497509479522705,-1.6031306982040405,-1.597935676574707,-1.625389814376831,0.013576442375779152,-0.03221922367811203,0.3080587387084961,-0.1403259038925171,-0.7021580934524536,0.3784620761871338,0.6092919111251831,0.046690259128808975,-1.6136785745620728,0.7097400426864624,-0.7085754871368408,-0.007538914680480957
33,-1.5025748014450073,-1.4332643747329712,0.171614870429039,0.05779573693871498,-0.74293452501297,-1.6704341173171997,1.6136513948440552,0.7861505746841431,1.6468738317489624,-1.6047199964523315,-1.5985794067382812,-1.6283507347106934,0.013504214584827423,-0.03355411812663078,0.3080587387084961,-0.1403259038925171,-0.7021580934524536,0.3784620761871338,0.6092919111251831,0.04954615980386734,-1.6115409135818481,0.7097400426864624,-0.7085754871368408,-0.007538914680480957
34,-1.5032871961593628,-1.4447863101959229,0.1713564097881317,0.06145121157169342,-0.7458329200744629,-1.6749310493469238,1.610859990119934,0.7861505746841431,1.6444207429885864,-1.6051594018936157,-1.598360300064087,-1.6291693449020386,0.013048749417066574,-0.03376292064785957,0.3080587387084961,-0.1403259038925171,-0.7021580934524536,0.3784620761871338,0.6092919111251831,0.05047379806637764,-1.6086490154266357,0.7097400426864624,-0.7085754871368408,-0.007538914680480957
35,-1.5040347576141357,-1.4554170370101929,0.1710715889930725,0.06501692533493042,-0.7484394907951355,-1.6790531873703003,1.6074672937393188,0.7861505746841431,1.642320156097412,-1.6046496629714966,-1.5974531173706055,-1.628280758857727,0.012298112735152245,-0.033107057213783264,0.3080587387084961,-0.1403259038925171,-0.7021580934524536,0.3784620761871338,0.6092919111251831,0.049851804971694946,-1.6052700281143188,0.7097400426864624,-0.7085754871368408,-0.007538914680480957
36,-1.5047937631607056,-1.465209722518921,0.17077618837356567,0.06844157725572586,-0.750789999961853,-1.6828253269195557,1.6037213802337646,0.7861505746841431,1.6405123472213745,-1.6033966541290283,-1.5960564613342285,-1.6260557174682617,0.011382450349628925,-0.031723327934741974,0.3080587387084961,-0.1403259038925171,-0.7021580934524536,0.3784620761871338,0.6092919111251831,0.04802684113383293,-1.6016258001327515,0.7097400426864624,-0.7085754871368408,-0.007538914680480957
37,-1.5055460929870605,-1.4742183685302734,0.17048242688179016,0.07167762517929077,-0.7529158592224121,-1.686272144317627,1.5998257398605347,0.7861505746841431,1.638947606086731,-1.6015650033950806,-1.5942836999893188,-1.6228477954864502,0.010332074947655201,-0.029858257621526718,0.3080587387084961,-0.1403259038925171,-0.7021580934524536,0.3784620761871338,0.6092919111251831,0.04530147835612297,-1.5978962182998657,0.7097400426864624,-0.7085754871368408,-0.007538914680480957
38,-1.50627863407135,-1.4824984073638916,0.17020118236541748,0.07469635456800461,-0.7548450231552124,-1.6894172430038452,1.5959428548812866,0.7861505746841431,1.6375856399536133,-1.5993329286575317,-1.5923045873641968,-1.6189337968826294,0.009265672415494919,-0.02756800316274166,0.3080587387084961,-0.1403259038925171,-0.7021580934524536,0.3784620761871338,0.6092919111251831,0.041945427656173706,-1.5942225456237793,0.7097400426864624,-0.7085754871368408,-0.007538914680480957
39,-1.5069825649261475,-1.490104079246521,0.16993844509124756,0.07747331261634827,-0.7566003799438477,-1.692284107208252,1.5921975374221802,0.7861505746841431,1.6363939046859741,-1.5968164205551147,-1.590162992477417,-1.614590048789978,0.00814916379749775,-0.02511465735733509,0.3080587387084961,-0.1403259038925171,-0.7021580934524536,0.3784620761871338,0.6092919111251831,0.03818139806389809,-1.5907115936279297,0.7097400426864624,-0.7085754871368408,-0.007538914680480957
40,-1.507651925086975,-1.4970886707305908,0.16969992220401764,0.0800066813826561,-0.7582024335861206,-1.6948950290679932,1.5886813402175903,0.7861505746841431,1.6353455781936646,-1.5941696166992188,-1.5880259275436401,-1.6099969148635864,0.007125066593289375,-0.02243371494114399,0.3080587387084961,-0.1403259038925171,-0.7021580934524536,0.3784620761871338,0.6092919111251831,0.034206267446279526,-1.5874390602111816,0.7097400426864624,-0.7085754871368408,-0.007538914680480957
41,-1.5082831382751465,-1.503502368927002,0.16948585212230682,0.08229107409715652,-0.7596665620803833,-1.697271466255188,1.5854566097259521,0.7861505746841431,1.6344190835952759,-1.591446876525879,-1.5858454704284668,-1.605372428894043,0.0060657174326479435,-0.019869143143296242,0.3080587387084961,-0.1403259038925171,-0.7021580934524536,0.3784620761871338,0.6092919111251831,0.03016757220029831,-1.5844553709030151,0.7097400426864624,-0.7085754871368408,-0.007538914680480957
42,-1.5088746547698975,-1.5093930959701538,0.16929861903190613,0.08434631675481796,-0.7610076665878296,-1.6994333267211914,1.5825611352920532,0.7861505746841431,1.6335971355438232,-1.5887975692749023,-1.5838384628295898,-1.6007949113845825,0.0052048759534955025,-0.017140798270702362,0.3080587387084961,-0.1403259038925171,-0.7021580934524536,0.3784620761871338,0.6092919111251831,0.026202375069260597,-1.5817880630493164,0.7097400426864624,-0.7085754871368408,-0.007538914680480957
43,-1.5094258785247803,-1.5148043632507324,0.1691342294216156,0.08617539703845978,-0.7622355222702026,-1.7013994455337524,1.5800124406814575,0.7861505746841431,1.632865309715271,-1.5861897468566895,-1.581803560256958,-1.5964598655700684,0.004236205015331507,-0.014830581843852997,0.3080587387084961,-0.1403259038925171,-0.7021580934524536,0.3784620761871338,0.6092919111251831,0.022389503195881844,-1.5794486999511719,0.7097400426864624,-0.7085754871368408,-0.007538914680480957
44,-1.5099376440048218,-1.5197769403457642,0.16899429261684418,0.08781327307224274,-0.7633618712425232,-1.703187108039856,1.577811598777771,0.7861505746841431,1.632211685180664,-1.5838172435760498,-1.5801256895065308,-1.5923203229904175,0.003635888686403632,-0.012207156978547573,0.3080587387084961,-0.1403259038925171,-0.7021580934524536,0.3784620761871338,0.6092919111251831,0.018826138228178024,-1.5774322748184204,0.7097400426864624,-0.7085754871368408,-0.007538914680480957
45,-1.5104109048843384,-1.5243470668792725,0.16887161135673523,0.0892593264579773,-0.7643923163414001,-1.7048124074935913,1.5759472846984863,0.7861505746841431,1.6316263675689697,-1.5814964771270752,-1.5782805681228638,-1.5886205434799194,0.002692362992092967,-0.01048200111836195,0.3080587387084961,-0.1403259038925171,-0.7021580934524536,0.3784620761871338,0.6092919111251831,0.015523421578109264,-1.5757275819778442,0.7097400426864624,-0.7085754871368408,-0.007538914680480957
46,-1.5108474493026733,-1.5285484790802002,0.16876962780952454,0.09056086838245392,-0.7653376460075378,-1.7062900066375732,1.5743991136550903,0.7861505746841431,1.631101131439209,-1.5795882940292358,-1.577115535736084,-1.5851095914840698,0.002504839329048991,-0.007850551046431065,0.3080587387084961,-0.1403259038925171,-0.7021580934524536,0.3784620761871338,0.6092919111251831,0.012570577673614025,-1.574309229850769,0.7097400426864624,-0.7085754871368408,-0.007538914680480957
47,-1.51124906539917,-1.5324108600616455,0.16867782175540924,0.09170226752758026,-0.766200065612793,-1.7076332569122314,1.5731401443481445,0.7861505746841431,1.630629062652588,-1.5775730609893799,-1.5753146409988403,-1.5822457075119019,0.0013400817988440394,-0.007197869475930929,0.3080587387084961,-0.1403259038925171,-0.7021580934524536,0.3784620761871338,0.6092919111251831,0.009892442263662815,-1.573157787322998,0.7097400426864624,-0.7085754871368408,-0.007538914680480957
48,-1.51161789894104,-1.5359619855880737,0.16860395669937134,0.09274622797966003,-0.7669912576675415,-1.7088545560836792,1.5721402168273926,0.7861505746841431,1.630204200744629,-1.576305866241455,-1.5749893188476562,-1.5793354511260986,0.0019604044500738382,-0.003915097564458847,0.3080587387084961,-0.1403259038925171,-0.7021580934524536,0.3784620761871338,0.6092919111251831,0.007634181063622236,-1.5722335577011108,0.7097400426864624,-0.7085754871368408,-0.007538914680480957
49,-1.5119560956954956,-1.5392265319824219,0.16853265464305878,0.09365096688270569,-0.7677097916603088,-1.709964394569397,1.5713671445846558,0.7861505746841431,1.6298213005065918,-1.5743954181671143,-1.572685718536377,-1.5774874687194824,-0.00014585768803954124,-0.005520685575902462,0.3080587387084961,-0.1403259038925171,-0.7021580934524536,0.3784620761871338,0.6092919111251831,0.005558056756854057,-1.5715246200561523,0.7097400426864624,-0.7085754871368408,-0.007538914680480957
50,-1.512265682220459,-1.5422264337539673,0.1684781014919281,0.09450297802686691,-0.7683702707290649,-1.7109739780426025,1.5707886219024658,0.7861505746841431,1.6294759511947632,-1.5741318464279175,-1.5741115808486938,-1.5748553276062012,0.002474922686815262,0.00047740829177200794,0.3080587387084961,-0.1403259038925171,-0.7021580934524536,0.3784620761871338,0.6092919111251831,0.004025285132229328,-1.570971965789795,0.7097400426864624,-0.7085754871368408,-0.007538914680480957
51,-1.512548804283142,-1.5449841022491455,0.16841675341129303,0.09522543102502823,-0.7689672112464905,-1.7118914127349854,1.570373773574829,0.7861505746841431,1.6291639804840088,-1.571628451347351,-1.5696160793304443,-1.5744589567184448,-0.002740926807746291,-0.006950033362954855,0.3080587387084961,-0.1403259038925171,-0.7021580934524536,0.3784620761871338,0.6092919111251831,0.0023860556539148092,-1.5705980062484741,0.7097400426864624,-0.7085754871368408,-0.007538914680480957
52,-1.5128073692321777,-1.5475139617919922,0.16836656630039215,0.09593621641397476,-0.7695202827453613,-1.7127280235290527,1.5700933933258057,0.7861505746841431,1.6288824081420898,-1.5734965801239014,-1.5756877660751343,-1.5711132287979126,0.005663798190653324,0.00820692628622055,0.3080587387084961,-0.1403259038925171,-0.7021580934524536,0.3784620761871338,0.6092919111251831,0.0016815090784803033,-1.570289969444275,0.7097400426864624,-0.7085754871368408,-0.007538914680480957
53,-1.5130431652069092,-1.5498417615890503,0.16828413307666779,0.09653660655021667,-0.7700255513191223,-1.713491678237915,1.5699212551116943,0.7861505746841431,1.6286275386810303,-1.5682140588760376,-1.5636762380599976,-1.5736664533615112,-0.009513651952147484,-0.016289236024022102,0.3080587387084961,-0.1403259038925171,-0.7021580934524536,0.3784620761871338,0.6092919111251831,4.560814704746008e-05,-1.5701755285263062,0.7097400426864624,-0.7085754871368408,-0.007538914680480957
54,-1.513258457183838,-1.551965355873108,0.168144091963768,0.09716492891311646,-0.7705188393592834,-1.7142030000686646,1.569833755493164,0.7861505746841431,1.6283979415893555,-1.5759576559066772,-1.5837050676345825,-1.5665501356124878,0.01676126942038536,0.027426552027463913,0.3080587387084961,-0.1403259038925171,-0.7021580934524536,0.3784620761871338,0.6092919111251831,0.0006708172732032835,-1.56996750831604,0.7097400426864624,-0.7085754871368408,-0.007538914680480957
55,-1.5134543180465698,-1.5539288520812988,0.16778451204299927,0.09785093367099762,-0.7710536122322083,-1.7148939371109009,1.5698106288909912,0.7861505746841431,1.6281890869140625,-1.5611629486083984,-1.5483542680740356,-1.5773200988769531,-0.028783563524484634,-0.043171320110559464,0.3080587387084961,-0.1403259038925171,-0.7021580934524536,0.3784620761871338,0.6092919111251831,-0.002194031374529004,-1.5701208114624023,0.7097400426864624,-0.7085754871368408,-0.007538914680480957
56,-1.5136330127716064,-1.555680513381958,0.16683286428451538,0.09873601794242859,-0.7717658877372742,-1.7156603336334229,1.5698341131210327,0.7861505746841431,1.6280019283294678,-1.585132360458374,-1.6043944358825684,-1.55644953250885,0.04394059255719185,0.058891262859106064,0.3080587387084961,-0.1403259038925171,-0.7021580934524536,0.3784620761871338,0.6092919111251831,0.0017105675069615245,-1.5697882175445557,0.7097400426864624,-0.7085754871368408,-0.007538914680480957
57,-1.5137951374053955,-1.5573259592056274,0.16492906212806702,0.10055761784315109,-0.7729272246360779,-1.7166582345962524,1.569889783859253,0.7861505746841431,1.627829909324646,-1.5489115715026855,-1.5284364223480225,-1.591900110244751,-0.054833535104990005,-0.05944276601076126,0.3080587387084961,-0.1403259038925171,-0.7021580934524536,0.3784620761871338,0.6092919111251831,-0.006207138765603304,-1.5703493356704712,0.7097400426864624,-0.7085754871368408,-0.007538914680480957
58,-1.5139435529708862,-1.5587198734283447,0.16231957077980042,0.1031154915690422,-0.7744740843772888,-1.7179603576660156,1.569966197013855,0.7861505746841431,1.6276779174804688,-1.593007206916809,-1.6088851690292358,-1.5368692874908447,0.052067920565605164,0.0518028549849987,0.3080587387084961,-0.1403259038925171,-0.7021580934524536,0.3784620761871338,0.6092919111251831,0.006920415908098221,-1.569724202156067,0.7097400426864624,-0.7085754871368408,-0.007538914680480957
59,-1.5140771865844727,-1.560086965560913,0.16016997396945953,0.10689134895801544,-0.7762047648429871,-1.71934175491333,1.570054531097412,0.7861505746841431,1.6275359392166138,-1.548674464225769,-1.5396815538406372,-1.6050527095794678,-0.04342079907655716,-0.03711553290486336,0.3080587387084961,-0.1403259038925171,-0.7021580934524536,0.3784620761871338,0.6092919111251831,-0.012903167866170406,-1.5704783201217651,0.7097400426864624,-0.7085754871368408,-0.007538914680480957
60,-1.5142003297805786,-1.5612678527832031,0.1586356908082962,0.11001157760620117,-0.7776352763175964,-1.7205466032028198,1.5701478719711304,0.7861505746841431,1.6274114847183228,-1.5871912240982056,-1.592548131942749,-1.5358479022979736,0.03369304537773132,0.028047189116477966,0.3080587387084961,-0.1403259038925171,-0.7021580934524536,0.3784620761871338,0.6092919111251831,0.01048960629850626,-1.5699474811553955,0.7097400426864624,-0.7085754871368408,-0.007538914680480957
61,-1.5143104791641235,-1.5624040365219116,0.15763841569423676,0.11274386942386627,-0.7788131833076477,-1.7215299606323242,1.57024085521698,0.7861505746841431,1.6272953748703003,-1.556097149848938,-1.5540282726287842,-1.5968949794769287,-0.02631828375160694,-0.0183790884912014,0.3080587387084961,-0.1403259038925171,-0.7021580934524536,0.3784620761871338,0.6092919111251831,-0.012026379816234112,-1.5705233812332153,0.7097400426864624,-0.7085754871368408,-0.007538914680480957
62,-1.5144121646881104,-1.5634225606918335,0.15687675774097443,0.11457161605358124,-0.7796971201896667,-1.7223166227340698,1.5703296661376953,0.7861505746841431,1.6271928548812866,-1.5804543495178223,-1.5818638801574707,-1.5473504066467285,0.019777191802859306,0.014888057485222816,0.3080587387084961,-0.1403259038925171,-0.7021580934524536,0.3784620761871338,0.6092919111251831,0.007380093447864056,-1.570197343826294,0.7097400426864624,-0.7085754871368408,-0.007538914680480957
63,-1.5145032405853271,-1.5643694400787354,0.15629209578037262,0.11613372713327408,-0.7804297804832458,-1.7229678630828857,1.5704115629196167,0.7861505746841431,1.6270982027053833,-1.561804175376892,-1.561613917350769,-1.5863938331604004,-0.015447166748344898,-0.009480873122811317,0.3080587387084961,-0.1403259038925171,-0.7021580934524536,0.3784620761871338,0.6092919111251831,-0.008078520186245441,-1.5705790519714355,0.7097400426864624,-0.7085754871368408,-0.007538914680480957
64,-1.5145868062973022,-1.5652270317077637,0.15578606724739075,0.117273710668087,-0.7810171246528625,-1.7235150337219238,1.570485234260559,0.7861505746841431,1.6270136833190918,-1.576267957687378,-1.576719045639038,-1.5563554763793945,0.011570039205253124,0.008560869842767715,0.3080587387084961,-0.1403259038925171,-0.7021580934524536,0.3784620761871338,0.6092919111251831,0.0042758844792842865,-1.5703983306884766,0.7097400426864624,-0.7085754871368408,-0.007538914680480957
65,-1.5146621465682983,-1.5660134553909302,0.155357226729393,0.11830924451351166,-0.7815303206443787,-1.723990797996521,1.5705498456954956,0.7861505746841431,1.6269363164901733,-1.5652216672897339,-1.5653728246688843,-1.579893946647644,-0.00925904605537653,-0.005252251401543617,0.3080587387084961,-0.1403259038925171,-0.7021580934524536,0.3784620761871338,0.6092919111251831,-0.0051833251491189,-1.5706435441970825,0.7097400426864624,-0.7085754871368408,-0.007538914680480957
66,-1.5147309303283691,-1.5667266845703125,0.15497112274169922,0.11914170533418655,-0.7819676995277405,-1.7244075536727905,1.5706052780151367,0.7861505746841431,1.6268668174743652,-1.5739984512329102,-1.5742133855819702,-1.5617185831069946,0.007032747846096754,0.005283880513161421,0.3080587387084961,-0.1403259038925171,-0.7021580934524536,0.3784620761871338,0.6092919111251831,0.0024675684981048107,-1.5705429315567017,0.7097400426864624,-0.7085754871368408,-0.007538914680480957
67,-1.514793038368225,-1.567376732826233,0.15463130176067352,0.11991306394338608,-0.7823604345321655,-1.7247796058654785,1.5706520080566406,0.7861505746841431,1.6268035173416138,-1.567196249961853,-1.5673699378967285,-1.5763514041900635,-0.005825025029480457,-0.0031381482258439064,0.3080587387084961,-0.1403259038925171,-0.7021580934524536,0.3784620761871338,0.6092919111251831,-0.0034024270717054605,-1.5707024335861206,0.7097400426864624,-0.7085754871368408,-0.007538914680480957
68,-1.5148495435714722,-1.5679657459259033,0.15432262420654297,0.12056878954172134,-0.7827060222625732,-1.7251118421554565,1.5706905126571655,0.7861505746841431,1.626746416091919,-1.5728017091751099,-1.5729308128356934,-1.5648353099822998,0.004527795594185591,0.0034536190796643496,0.3080587387084961,-0.1403259038925171,-0.7021580934524536,0.3784620761871338,0.6092919111251831,0.0015229640994220972,-1.5706416368484497,0.7097400426864624,-0.7085754871368408,-0.007538914680480957
69,-1.5149006843566895,-1.5685003995895386,0.15404674410820007,0.121175616979599,-0.7830191850662231,-1.7254115343093872,1.5707216262817383,0.7861505746841431,1.6266944408416748,-1.5683681964874268,-1.5685086250305176,-1.5744439363479614,-0.003880624193698168,-0.0020390166901052,0.3080587387084961,-0.1403259038925171,-0.7021580934524536,0.3784620761871338,0.6092919111251831,-0.0023079365491867065,-1.5707478523254395,0.7097400426864624,-0.7085754871368408,-0.007538914680480957
70,-1.5149471759796143,-1.568984031677246,0.15379586815834045,0.12170680612325668,-0.783298909664154,-1.7256813049316406,1.5707463026046753,0.7861505746841431,1.6266474723815918,-1.5721664428710938,-1.5722463130950928,-1.5666996240615845,0.0031068408861756325,0.0023676396813243628,0.3080587387084961,-0.1403259038925171,-0.7021580934524536,0.3784620761871338,0.6092919111251831,0.0010426660301163793,-1.5707063674926758,0.7097400426864624,-0.7085754871368408,-0.007538914680480957
71,-1.5149893760681152,-1.569421410560608,0.15357011556625366,0.1221955418586731,-0.7835529446601868,-1.7259254455566406,1.5707653760910034,0.7861505746841431,1.6266050338745117,-1.5690910816192627,-1.569193720817566,-1.5733989477157593,-0.002741738921031356,-0.001449108705855906,0.3080587387084961,-0.1403259038925171,-0.7021580934524536,0.3784620761871338,0.6092919111251831,-0.0016151249874383211,-1.5707789659500122,0.7097400426864624,-0.7085754871368408,-0.007538914680480957
72,-1.5150275230407715,-1.569815993309021,0.15336495637893677,0.12263010442256927,-0.7837814688682556,-1.7261461019515991,1.570779800415039,0.7861505746841431,1.6265664100646973,-1.571823000907898,-1.5718680620193481,-1.5678532123565674,0.0022733721416443586,0.0016943886876106262,0.3080587387084961,-0.1403259038925171,-0.7021580934524536,0.3784620761871338,0.6092919111251831,0.0007996108615770936,-1.5707467794418335,0.7097400426864624,-0.7085754871368408,-0.007538914680480957
73,-1.5150620937347412,-1.570171594619751,0.15317972004413605,0.12302784621715546,-0.7839890122413635,-1.7263460159301758,1.5707902908325195,0.7861505746841431,1.6265316009521484,-1.5695501565933228,-1.569621205329895,-1.5728113651275635,-0.0020533485803753138,-0.0011230835225433111,0.3080587387084961,-0.1403259038925171,-0.7021580934524536,0.3784620761871338,0.6092919111251831,-0.0011662137694656849,-1.5707979202270508,0.7097400426864624,-0.7085754871368408,-0.007538914680480957
74,-1.5150935649871826,-1.570491075515747,0.1530115306377411,0.12338460981845856,-0.7841764092445374,-1.7265269756317139,1.5707976818084717,0.7861505746841431,1.6265000104904175,-1.5716328620910645,-1.5716522932052612,-1.5685832500457764,0.0017704804195091128,0.0012664045207202435,0.3080587387084961,-0.1403259038925171,-0.7021580934524536,0.3784620761871338,0.6092919111251831,0.0006755458889529109,-1.570770502090454,0.7097400426864624,-0.7085754871368408,-0.007538914680480957
75,-1.5151220560073853,-1.5707777738571167,0.1528593897819519,0.12370988726615906,-0.7843465209007263,-1.7266910076141357,1.5708025693893433,0.7861505746841431,1.6264712810516357,-1.5698449611663818,-1.5698922872543335,-1.5724724531173706,-0.0016290589701384306,-0.0009377935784868896,0.3080587387084961,-0.1403259038925171,-0.7021580934524536,0.3784620761871338,0.6092919111251831,-0.0008737671887502074,-1.570807933807373,0.7097400426864624,-0.7085754871368408,-0.007538914680480957
76,-1.5151479244232178,-1.57103431224823,0.1527213454246521,0.12400315701961517,-0.7845004200935364,-1.7268396615982056,1.570805549621582,0.7861505746841431,1.6264452934265137,-1.5715253353118896,-1.5715264081954956,-1.569046139717102,0.0014629423385486007,0.0009936916176229715,0.3080587387084961,-0.1403259038925171,-0.7021580934524536,0.3784620761871338,0.6092919111251831,0.0006109927198849618,-1.570783019065857,0.7097400426864624,-0.7085754871368408,-0.007538914680480957
77,-1.5151712894439697,-1.571263313293457,0.1525963544845581,0.12426984310150146,-0.7846400141716003,-1.726974368095398,1.5708070993423462,0.7861505746841431,1.6264218091964722,-1.5700318813323975,-1.5700623989105225,-1.5722748041152954,-0.0013685398735105991,-0.0008309266413562,0.3080587387084961,-0.1403259038925171,-0.7021580934524536,0.3784620761871338,0.6092919111251831,-0.0006870369543321431,-1.5708119869232178,0.7097400426864624,-0.7085754871368408,-0.007538914680480957
78,-1.5151925086975098,-1.5714669227600098,0.1524830013513565,0.12451106309890747,-0.7847664952278137,-1.727096438407898,1.5708075761795044,0.7861505746841431,1.6264004707336426,-1.5714646577835083,-1.571453332901001,-1.5693312883377075,0.0012781632831320167,0.000825006456580013,0.3080587387084961,-0.1403259038925171,-0.7021580934524536,0.3784620761871338,0.6092919111251831,0.0005772431613877416,-1.5707887411117554,0.7097400426864624,-0.7085754871368408,-0.007538914680480957
79,-1.5152117013931274,-1.5716474056243896,0.1523803174495697,0.12473002821207047,-0.7848812341690063,-1.7272071838378906,1.5708074569702148,0.7861505746841431,1.626381278038025,-1.5701438188552856,-1.5701637268066406,-1.5721641778945923,-0.001216355012729764,-0.000771361228544265,0.3080587387084961,-0.1403259038925171,-0.7021580934524536,0.3784620761871338,0.6092919111251831,-0.0005746689857915044,-1.570812702178955,0.7097400426864624,-0.7085754871368408,-0.007538914680480957
80,-1.5152291059494019,-1.571806788444519,0.15228721499443054,0.1249285340309143,-0.7849852442741394,-1.7273075580596924,1.5708067417144775,0.7861505746841431,1.6263638734817505,-1.5714341402053833,-1.571414589881897,-1.569490909576416,0.0011773802107200027,0.0007299012504518032,0.3080587387084961,-0.1403259038925171,-0.7021580934524536,0.3784620761871338,0.6092919111251831,0.000561961904168129,-1.570790410041809,0.7097400426864624,-0.7085754871368408,-0.007538914680480957
81,-1.5152448415756226,-1.5719468593597412,0.15220282971858978,0.125108540058136,-0.7850795388221741,-1.7273985147476196,1.5708056688308716,0.7861505746841431,1.6263480186462402,-1.5702009201049805,-1.570215106010437,-1.5721149444580078,-0.0011425850680097938,-0.0007448262767866254,0.3080587387084961,-0.1403259038925171,-0.7021580934524536,0.3784620761871338,0.6092919111251831,-0.0005169656942598522,-1.5708117485046387,0.7097400426864624,-0.7085754871368408,-0.007538914680480957
82,-1.5152591466903687,-1.5720694065093994,0.15212634205818176,0.1252720206975937,-0.7851651310920715,-1.7274810075759888,1.5708045959472656,0.7861505746841431,1.6263337135314941,-1.5714271068572998,-1.5714020729064941,-1.5695555210113525,0.001140875625424087,0.0006903666071593761,0.3080587387084961,-0.1403259038925171,-0.7021580934524536,0.3784620761871338,0.6092919111251831,0.0005614333786070347,-1.5707896947860718,0.7097400426864624,-0.7085754871368408,-0.007538914680480957
83,-1.5152721405029297,-1.5721757411956787,0.1520569920539856,0.12542018294334412,-0.7852427363395691,-1.727555751800537,1.5708034038543701,0.7861505746841431,1.626320719718933,-1.5702147483825684,-1.570227026939392,-1.5721182823181152,-0.001132328761741519,-0.0007464913069270551,0.3080587387084961,-0.1403259038925171,-0.7021580934524536,0.3784620761871338,0.6092919111251831,-0.000501748058013618,-1.5708101987838745,0.7097400426864624,-0.7085754871368408,-0.007538914680480957
84,-1.5152839422225952,-1.5722675323486328,0.15199412405490875,0.12555499374866486,-0.7853132486343384,-1.727623701095581,1.5708023309707642,0.7861505746841431,1.6263089179992676,-1.5714426040649414,-1.5714142322540283,-1.5695407390594482,0.001161177409812808,0.0006968157831579447,0.3080587387084961,-0.1403259038925171,-0.7021580934524536,0.3784620761871338,0.6092919111251831,0.0005770966527052224,-1.5707876682281494,0.7097400426864624,-0.7085754871368408,-0.007538914680480957
85,-1.5152946710586548,-1.5723459720611572,0.1519370824098587,0.1256771981716156,-0.7853772640228271,-1.7276853322982788,1.5708012580871582,0.7861505746841431,1.626298189163208,-1.5701907873153687,-1.5702040195465088,-1.5721757411956787,-0.0011811347212642431,-0.0007776690763421357,0.3080587387084961,-0.1403259038925171,-0.7021580934524536,0.3784620761871338,0.6092919111251831,-0.000522686168551445,-1.5708086490631104,0.7097400426864624,-0.7085754871368408,-0.007538914680480957
86,-1.5153043270111084,-1.572412371635437,0.15188536047935486,0.1257886290550232,-0.7854354381561279,-1.7277412414550781,1.5708004236221313,0.7861505746841431,1.6262884140014648,-1.5714845657348633,-1.571453332901001,-1.5694506168365479,0.001239795470610261,0.0007463577785529196,0.3080587387084961,-0.1403259038925171,-0.7021580934524536,0.3784620761871338,0.6092919111251831,0.0006135843577794731,-1.5707850456237793,0.7097400426864624,-0.7085754871368408,-0.007538914680480957
87,-1.5153130292892456,-1.572467565536499,0.15183839201927185,0.12588976323604584,-0.7854883670806885,-1.7277920246124268,1.5707995891571045,0.7861505746841431,1.626279592514038,-1.5701287984848022,-1.5701453685760498,-1.5722979307174683,-0.0012939238222315907,-0.0008444171398878098,0.3080587387084961,-0.1403259038925171,-0.7021580934524536,0.3784620761871338,0.6092919111251831,-0.0005786368856206536,-1.570807933807373,0.7097400426864624,-0.7085754871368408,-0.007538914680480957
88,-1.5153210163116455,-1.5725127458572388,0.15179574489593506,0.12598232924938202,-0.7855365872383118,-1.727838158607483,1.5707988739013672,0.7861505746841431,1.6262717247009277,-1.5715606212615967,-1.5715264081954956,-1.5692777633666992,0.0013873702846467495,0.000842723879031837,0.3080587387084961,-0.1403259038925171,-0.7021580934524536,0.3784620761871338,0.6092919111251831,0.0006788830505684018,-1.5707820653915405,0.7097400426864624,-0.7085754871368408,-0.007538914680480957
89,-1.5153281688690186,-1.572548747062683,0.15175697207450867,0.12606662511825562,-0.785580575466156,-1.7278802394866943,1.5707982778549194,0.7861505746841431,1.6262644529342651,-1.5700230598449707,-1.5700448751449585,-1.572504997253418,-0.0014853483298793435,-0.0009584461804479361,0.3080587387084961,-0.1403259038925171,-0.7021580934524536,0.3784620761871338,0.6092919111251831,-0.0006740213721059263,-1.5708082914352417,0.7097400426864624,-0.7085754871368408,-0.007538914680480957
90,-1.5153347253799438,-1.572576642036438,0.15172168612480164,0.12614424526691437,-0.7856208682060242,-1.7279186248779297,1.5707978010177612,0.7861505746841431,1.6262580156326294,-1.5716837644577026,-1.5716452598571777,-1.5690014362335205,0.0016250681364908814,0.0009971520630642772,0.3080587387084961,-0.1403259038925171,-0.7021580934524536,0.3784620761871338,0.6092919111251831,0.0007851035334169865,-1.570778489112854,0.7097400426864624,-0.7085754871368408,-0.007538914680480957
91,-1.5153405666351318,-1.5725969076156616,0.15168948471546173,0.12621545791625977,-0.7856578826904297,-1.7279536724090576,1.570797324180603,0.7861505746841431,1.6262520551681519,-1.5698596239089966,-1.5698891878128052,-1.5728305578231812,-0.0017831203294917941,-0.0011386990081518888,0.3080587387084961,-0.1403259038925171,-0.7021580934524536,0.3784620761871338,0.6092919111251831,-0.0008201866876333952,-1.5708099603652954,0.7097400426864624,-0.7085754871368408,-0.007538914680480957
92,-1.5153459310531616,-1.57261061668396,0.1516600400209427,0.12628182768821716,-0.7856920957565308,-1.7279859781265259,1.570797085762024,0.7861505746841431,1.626246690750122,-1.571874737739563,-1.5718294382095337,-1.5685821771621704,0.0019899141043424606,0.0012316269567236304,0.3080587387084961,-0.1403259038925171,-0.7021580934524536,0.3784620761871338,0.6092919111251831,0.0009509619558230042,-1.570773959159851,0.7097400426864624,-0.7085754871368408,-0.007538914680480957
93,-1.5153508186340332,-1.5726181268692017,0.15163297951221466,0.12634369730949402,-0.7857239842414856,-1.7280157804489136,1.5707968473434448,0.7861505746841431,1.62624192237854,-1.5696139335632324,-1.5696543455123901,-1.5733294486999512,-0.002234642393887043,-0.001415939419530332,0.3080587387084961,-0.1403259038925171,-0.7021580934524536,0.3784620761871338,0.6092919111251831,-0.0010384381748735905,-1.5708131790161133,0.7097400426864624,-0.7085754871368408,-0.007538914680480957
94,-1.5153552293777466,-1.5726203918457031,0.1516079604625702,0.12640275061130524,-0.7857540845870972,-1.7280436754226685,1.5707967281341553,0.7861505746841431,1.626237392425537,-1.572167158126831,-1.5721114873886108,-1.567952036857605,0.0025432102847844362,0.001584078068844974,0.3080587387084961,-0.1403259038925171,-0.7021580934524536,0.3784620761871338,0.6092919111251831,0.0012062459718436003,-1.570767879486084,0.7097400426864624,-0.7085754871368408,-0.007538914680480957
95,-1.5153592824935913,-1.5726174116134644,0.15158459544181824,0.12645964324474335,-0.7857829332351685,-1.7280700206756592,1.5707966089248657,0.7861505746841431,1.626233458518982,-1.569244146347046,-1.5692994594573975,-1.5740904808044434,-0.0029185565654188395,-0.0018406956223770976,0.3080587387084961,-0.1403259038925171,-0.7021580934524536,0.3784620761871338,0.6092919111251831,-0.0013654858339577913,-1.5708190202713013,0.7097400426864624,-0.7085754871368408,-0.007538914680480957
96,-1.5153628587722778,-1.5726103782653809,0.15156245231628418,0.12651653587818146,-0.7858113050460815,-1.7280954122543335,1.5707964897155762,0.7861505746841431,1.6262297630310059,-1.5726157426834106,-1.5725442171096802,-1.5669986009597778,0.003386039286851883,0.002118754433467984,0.3080587387084961,-0.1403259038925171,-0.7021580934524536,0.3784620761871338,0.6092919111251831,0.0015990419778972864,-1.570759654045105,0.7097400426864624,-0.7085754871368408,-0.007538914680480957
97,-1.5153661966323853,-1.5725990533828735,0.15154105424880981,0.12657491862773895,-0.7858400940895081,-1.7281204462051392,1.5707964897155762,0.7861505746841431,1.626226544380188,-1.5686802864074707,-1.5687564611434937,-1.5752590894699097,-0.003964537754654884,-0.0024961477611213923,0.3080587387084961,-0.1403259038925171,-0.7021580934524536,0.3784620761871338,0.6092919111251831,-0.0018624239601194859,-1.5708286762237549,0.7097400426864624,-0.7085754871368408,-0.007538914680480957
98,-1.515369176864624,-1.572584629058838,0.15151970088481903,0.12663820385932922,-0.7858706116676331,-1.7281461954116821,1.5707964897155762,0.7861505746841431,1.6262234449386597,-1.5733109712600708,-1.573216438293457,-1.5655360221862793,0.004684970714151859,0.002942937659099698,0.3080587387084961,-0.1403259038925171,-0.7021580934524536,0.3784620761871338,0.6092919111251831,0.0022085821256041527,-1.5707471370697021,0.7097400426864624,-0.7085754871368408,-0.007538914680480957
99,-1.5153719186782837,-1.5725666284561157,0.15149755775928497,0.1267099529504776,-0.7859047055244446,-1.7281737327575684,1.5707964897155762,0.7861505746841431,1.6262208223342896,-1.5678057670593262,-1.5679106712341309,-1.5770728588104248,-0.0055859750136733055,-0.003521651029586792,0.3080587387084961,-0.1403259038925171,-0.7021580934524536,0.3784620761871338,0.6092919111251831,-0.0026309487875550985,-1.5708436965942383,0.7097400426864624,-0.7085754871368408,-0.007538914680480957
