,0,1,2,3,4,5,6,7,8,9,10,11,12,13,14,15,16,17,18,19,20,21,22,23,24,25,26,27,28,29,30,31,32,33,34,35
0,-0.6263710260391235,-0.748747706413269,-0.08599090576171875,0.8001894950866699,-0.3440988063812256,-0.793370246887207,-0.6879532337188721,-0.1996678113937378,0.9595026969909668,0.7912609577178955,-0.8429977893829346,0.27860093116760254,-0.358711838722229,-0.5953762531280518,0.5423119068145752,0.7862582206726074,0.8560607433319092,-0.4615914821624756,0.39296483993530273,-0.09199261665344238,-0.9189318418502808,-0.5285657644271851,-0.745192289352417,0.5266178846359253,-0.10462629795074463,0.5479964017868042,-0.09169042110443115,-0.3143596649169922,-0.30919432640075684,-0.27912962436676025,0.4984288215637207,0.21955204010009766,0.4274027347564697,-0.27687275409698486,-0.571898341178894,-0.7819046974182129
1,-0.6788473725318909,-0.6962711811065674,-0.03351438418030739,0.7477129697799683,-0.2916222810745239,-0.8458467721939087,-0.7404298186302185,-0.14719153940677643,0.9070261716842651,0.7912609577178955,-0.8429977893829346,0.27860093116760254,-0.3062354326248169,-0.6478527784347534,0.5947884321212769,0.8387348055839539,0.8035842180252075,-0.4091149568557739,0.4454413652420044,-0.03951606899499893,-0.9189318418502808,-0.5285657644271851,-0.745192289352417,0.5266178846359253,-0.10462629795074463,0.5479964017868042,-0.09169042110443115,-0.3143596649169922,-0.30919432640075684,-0.2266530692577362,0.44595229625701904,0.21955204010009766,0.4274027347564697,-0.27687275409698486,-0.571898341178894,-0.7819046974182129
2,-0.6323570609092712,-0.6567754149436951,-0.00029872916638851166,0.7083542943000793,-0.2557713985443115,-0.887795090675354,-0.7800782918930054,-0.10118721425533295,0.8751863837242126,0.7912609577178955,-0.8429977893829346,0.27860093116760254,-0.2659800350666046,-0.6838671565055847,0.6346256136894226,0.8751133680343628,0.76715087890625,-0.37213820219039917,0.4846561849117279,-0.0028323261067271233,-0.9189318418502808,-0.5285657644271851,-0.745192289352417,0.5266178846359253,-0.10462629795074463,0.5479964017868042,-0.09169042110443115,-0.3143596649169922,-0.30919432640075684,-0.1879410296678543,0.41228917241096497,0.21955204010009766,0.4274027347564697,-0.27687275409698486,-0.571898341178894,-0.7819046974182129
3,-0.5811570286750793,-0.6190758943557739,0.024017810821533203,0.6699801683425903,-0.2253919541835785,-0.9283403158187866,-0.818472683429718,-0.058943912386894226,0.8501253128051758,0.7912609577178955,-0.8429977893829346,0.27860093116760254,-0.24299848079681396,-0.7155876755714417,0.6707056164741516,0.9069023728370667,0.7348311543464661,-0.3386954665184021,0.5191053748130798,0.03011423721909523,-0.9189318418502808,-0.5285657644271851,-0.745192289352417,0.5266178846359253,-0.10462629795074463,0.5479964017868042,-0.09169042110443115,-0.3143596649169922,-0.30919432640075684,-0.15211544930934906,0.38393455743789673,0.21955204010009766,0.4274027347564697,-0.27687275409698486,-0.571898341178894,-0.7819046974182129
4,-0.5300620198249817,-0.5809476375579834,0.03936783969402313,0.6304863691329956,-0.19998158514499664,-0.9692931175231934,-0.8575358390808105,-0.018426116555929184,0.8300359845161438,0.7912609577178955,-0.8429977893829346,0.27860093116760254,-0.23642028868198395,-0.7446688413619995,0.7039470076560974,0.9358431100845337,0.7046251893043518,-0.30668699741363525,0.5500956773757935,0.06142662093043327,-0.9189318418502808,-0.5285657644271851,-0.745192289352417,0.5266178846359253,-0.10462629795074463,0.5479964017868042,-0.09169042110443115,-0.3143596649169922,-0.30919432640075684,-0.11698029935359955,0.3588338792324066,0.21955204010009766,0.4274027347564697,-0.27687275409698486,-0.571898341178894,-0.7819046974182129
5,-0.47925877571105957,-0.5418513417243958,0.04414476454257965,0.5893711447715759,-0.1814541518688202,-1.0110613107681274,-0.8977661728858948,0.020555343478918076,0.814906120300293,0.7912609577178955,-0.8429977893829346,0.27860093116760254,-0.2448471486568451,-0.7710278630256653,0.7338721752166748,0.9619389772415161,0.6762245893478394,-0.2756197452545166,0.5768236517906189,0.09155654162168503,-0.9189318418502808,-0.5285657644271851,-0.745192289352417,0.5266178846359253,-0.10462629795074463,0.5479964017868042,-0.09169042110443115,-0.3143596649169922,-0.30919432640075684,-0.08199036121368408,0.3367062509059906,0.21955204010009766,0.4274027347564697,-0.27687275409698486,-0.571898341178894,-0.7819046974182129
6,-0.4289819002151489,-0.5016952157020569,0.038054365664720535,0.5466441512107849,-0.1727578341960907,-1.053615927696228,-0.9392963647842407,0.057539597153663635,0.8049710392951965,0.7912609577178955,-0.8429977893829346,0.27860093116760254,-0.2630561292171478,-0.7939856648445129,0.7596503496170044,0.984722912311554,0.6497732400894165,-0.24540941417217255,0.5974760055541992,0.12053770571947098,-0.9189318418502808,-0.5285657644271851,-0.745192289352417,0.5266178846359253,-0.10462629795074463,0.5479964017868042,-0.09169042110443115,-0.3143596649169922,-0.30919432640075684,-0.047088105231523514,0.31763312220573425,0.21955204010009766,0.4274027347564697,-0.27687275409698486,-0.571898341178894,-0.7819046974182129
7,-0.3795197308063507,-0.46048131585121155,0.023167163133621216,0.5025022625923157,-0.17665846645832062,-1.0967895984649658,-0.9822283983230591,0.09194201231002808,0.800243616104126,0.7912609577178955,-0.8429977893829346,0.27860093116760254,-0.28450658917427063,-0.8125551342964172,0.780405580997467,1.0036367177963257,0.6255437135696411,-0.21608224511146545,0.6097039580345154,0.14831963181495667,-0.9189318418502808,-0.5285657644271851,-0.745192289352417,0.5266178846359253,-0.10462629795074463,0.5479964017868042,-0.09169042110443115,-0.3143596649169922,-0.30919432640075684,-0.012378164567053318,0.3016214668750763,0.21955204010009766,0.4274027347564697,-0.27687275409698486,-0.571898341178894,-0.7819046974182129
8,-0.3310733735561371,-0.4182126820087433,0.0030262083746492863,0.4571848511695862,-0.19410587847232819,-1.1403924226760864,-1.0267469882965088,0.123268723487854,0.8003990650177002,0.7912609577178955,-0.8429977893829346,0.27860093116760254,-0.303730845451355,-0.8255930542945862,0.7952396869659424,1.0181916952133179,0.6038174629211426,-0.18767784535884857,0.6112581491470337,0.1749042123556137,-0.9189318418502808,-0.5285657644271851,-0.745192289352417,0.5266178846359253,-0.10462629795074463,0.5479964017868042,-0.09169042110443115,-0.3143596649169922,-0.30919432640075684,0.02197989821434021,0.28845322132110596,0.21955204010009766,0.4274027347564697,-0.27687275409698486,-0.571898341178894,-0.7819046974182129
9,-0.2837630808353424,-0.37493860721588135,-0.018667707219719887,0.4109495282173157,-0.22349770367145538,-1.1842235326766968,-1.0730715990066528,0.15123283863067627,0.8048747777938843,0.7912609577178955,-0.8429977893829346,0.27860093116760254,-0.3166598975658417,-0.8319710493087769,0.8032048940658569,1.0280407667160034,0.5848190188407898,-0.16021601855754852,0.6009376645088196,0.20040413737297058,-0.9189318418502808,-0.5285657644271851,-0.745192289352417,0.5266178846359253,-0.10462629795074463,0.5479964017868042,-0.09169042110443115,-0.3143596649169922,-0.30919432640075684,0.05579700693488121,0.2777343988418579,0.21955204010009766,0.4274027347564697,-0.27687275409698486,-0.571898341178894,-0.7819046974182129
10,-0.23774462938308716,-0.33086591958999634,-0.03864271193742752,0.3641422390937805,-0.26171234250068665,-1.2279982566833496,-1.1213078498840332,0.17589952051639557,0.8130525946617126,0.7912609577178955,-0.8429977893829346,0.27860093116760254,-0.32043519616127014,-0.8307637572288513,0.8033742308616638,1.0329914093017578,0.5686813592910767,-0.13369591534137726,0.5793282389640808,0.22503745555877686,-0.9189318418502808,-0.5285657644271851,-0.745192289352417,0.5266178846359253,-0.10462629795074463,0.5479964017868042,-0.09169042110443115,-0.3143596649169922,-0.30919432640075684,0.08885128796100616,0.26906219124794006,0.21955204010009766,0.4274027347564697,-0.27687275409698486,-0.571898341178894,-0.7819046974182129
11,-0.19334477186203003,-0.28645649552345276,-0.054233793169260025,0.3172917664051056,-0.3055195212364197,-1.271238923072815,-1.1713178157806396,0.19785036146640778,0.8243998885154724,0.7912609577178955,-0.8429977893829346,0.27860093116760254,-0.3134951591491699,-0.821421205997467,0.7950214743614197,1.0329689979553223,0.5554375648498535,-0.1081090122461319,0.5486071705818176,0.24907857179641724,-0.9189318418502808,-0.5285657644271851,-0.745192289352417,0.5266178846359253,-0.10462629795074463,0.5479964017868042,-0.09169042110443115,-0.3143596649169922,-0.30919432640075684,0.12088969349861145,0.26218533515930176,0.21955204010009766,0.4274027347564697,-0.27687275409698486,-0.571898341178894,-0.7819046974182129
12,-0.1511397510766983,-0.24245335161685944,-0.06373432278633118,0.271162748336792,-0.3521760404109955,-1.3131953477859497,-1.2226831912994385,0.21824820339679718,0.8385314345359802,0.7912609577178955,-0.8429977893829346,0.27860093116760254,-0.2958017885684967,-0.8038797974586487,0.7778286337852478,1.0279479026794434,0.5450237393379211,-0.08345267176628113,0.5116340517997742,0.2728041410446167,-0.9189318418502808,-0.5285657644271851,-0.745192289352417,0.5266178846359253,-0.10462629795074463,0.5479964017868042,-0.09169042110443115,-0.3143596649169922,-0.30919432640075684,0.15164487063884735,0.25708669424057007,0.21955204010009766,0.4274027347564697,-0.27687275409698486,-0.571898341178894,-0.7819046974182129
13,-0.1119455024600029,-0.19982939958572388,-0.06694263219833374,0.226749986410141,-0.399411678314209,-1.352837085723877,-1.2747553586959839,0.23871752619743347,0.8552161455154419,0.7912609577178955,-0.8429977893829346,0.27860093116760254,-0.2687475383281708,-0.7785641551017761,0.7520200610160828,1.0178918838500977,0.5372818112373352,-0.05973786115646362,0.4711768925189972,0.29646068811416626,-0.9189318418502808,-0.5285657644271851,-0.745192289352417,0.5266178846359253,-0.10462629795074463,0.5479964017868042,-0.09169042110443115,-0.3143596649169922,-0.30919432640075684,0.18086349964141846,0.2539891302585602,0.21955204010009766,0.4274027347564697,-0.27687275409698486,-0.571898341178894,-0.7819046974182129
14,-0.07671934366226196,-0.15968340635299683,-0.06530690938234329,0.18522822856903076,-0.44526395201683044,-1.388924479484558,-1.3267444372177124,0.261040598154068,0.8743594884872437,0.7912609577178955,-0.8429977893829346,0.27860093116760254,-0.2346085011959076,-0.7462666630744934,0.7183492183685303,1.0027323961257935,0.5319703817367554,-0.0369902141392231,0.42960846424102783,0.32025694847106934,-0.9189318418502808,-0.5285657644271851,-0.745192289352417,0.5266178846359253,-0.10462629795074463,0.5479964017868042,-0.09169042110443115,-0.3143596649169922,-0.30919432640075684,0.20834170281887054,0.2533055245876312,0.21955204010009766,0.4274027347564697,-0.27687275409698486,-0.571898341178894,-0.7819046974182129
15,-0.04638265073299408,-0.12310267984867096,-0.061209775507450104,0.14786723256111145,-0.4879569411277771,-1.420151710510254,-1.377809762954712,0.28671789169311523,0.8959744572639465,0.7912609577178955,-0.8429977893829346,0.27860093116760254,-0.1959107220172882,-0.707953929901123,0.6779339909553528,0.982388436794281,0.5287898182868958,-0.015246250666677952,0.38889387249946594,0.3443758487701416,-0.9189318418502808,-0.5285657644271851,-0.745192289352417,0.5266178846359253,-0.10462629795074463,0.5479964017868042,-0.09169042110443115,-0.3143596649169922,-0.30919432640075684,0.23396210372447968,0.2555491328239441,0.21955204010009766,0.4274027347564697,-0.27687275409698486,-0.571898341178894,-0.7819046974182129
16,-0.02160247415304184,-0.09100387990474701,-0.05682847648859024,0.11590752750635147,-0.5258632898330688,-1.4453521966934204,-1.4271363019943237,0.3165004849433899,0.9201438426971436,0.7912609577178955,-0.8429977893829346,0.27860093116760254,-0.15506207942962646,-0.6645846962928772,0.6320191025733948,0.9568071961402893,0.5274146199226379,0.005450041964650154,0.35066041350364685,0.36900004744529724,-0.9189318418502808,-0.5285657644271851,-0.745192289352417,0.5266178846359253,-0.10462629795074463,0.5479964017868042,-0.09169042110443115,-0.3143596649169922,-0.30919432640075684,0.25772151350975037,0.2612219750881195,0.21955204010009766,0.4274027347564697,-0.27687275409698486,-0.571898341178894,-0.7819046974182129
17,-0.0026124101132154465,-0.06397788226604462,-0.053385380655527115,0.09040001779794693,-0.5575370788574219,-1.463729739189148,-1.4739865064620972,0.35008424520492554,0.9469767212867737,0.7912609577178955,-0.8429977893829346,0.27860093116760254,-0.11428418010473251,-0.6169995665550232,0.5817724466323853,0.9259995222091675,0.527515172958374,0.025046642869710922,0.3162706196308136,0.3943410813808441,-0.9189318418502808,-0.5285657644271851,-0.745192289352417,0.5266178846359253,-0.10462629795074463,0.5479964017868042,-0.09169042110443115,-0.3143596649169922,-0.30919432640075684,0.2797359228134155,0.2707117199897766,0.21955204010009766,0.4274027347564697,-0.27687275409698486,-0.571898341178894,-0.7819046974182129
18,0.010841228067874908,-0.04218611866235733,-0.051091741770505905,0.07203887403011322,-0.5817915797233582,-1.475030779838562,-1.517723560333252,0.3861238658428192,0.976565957069397,0.7912609577178955,-0.8429977893829346,0.27860093116760254,-0.07571390271186829,-0.5658937692642212,0.5281835794448853,0.8900591135025024,0.5287617444992065,0.0434831865131855,0.2868909537792206,0.4206632375717163,-0.9189318418502808,-0.5285657644271851,-0.745192289352417,0.5266178846359253,-0.10462629795074463,0.5479964017868042,-0.09169042110443115,-0.3143596649169922,-0.30919432640075684,0.30021795630455017,0.2842375338077545,0.21955204010009766,0.4274027347564697,-0.27687275409698486,-0.571898341178894,-0.7819046974182129
19,0.019406411796808243,-0.025349987670779228,-0.04951363056898117,0.06103472784161568,-0.5977997779846191,-1.479577660560608,-1.557807207107544,0.42253953218460083,1.0089550018310547,0.7912609577178955,-0.8429977893829346,0.27860093116760254,-0.041529785841703415,-0.5118508338928223,0.4720609784126282,0.8491714596748352,0.5308188199996948,0.060701511800289154,0.26355457305908203,0.448296457529068,-0.9189318418502808,-0.5285657644271851,-0.745192289352417,0.5266178846359253,-0.10462629795074463,0.5479964017868042,-0.09169042110443115,-0.3143596649169922,-0.30919432640075684,0.3194356858730316,0.30186840891838074,0.21955204010009766,0.4274027347564697,-0.27687275409698486,-0.571898341178894,-0.7819046974182129
20,0.02394815906882286,-0.012837802059948444,-0.0479692667722702,0.05706926807761192,-0.6051899790763855,-1.4781416654586792,-1.593778133392334,0.45694655179977417,1.04412043094635,0.7912609577178955,-0.8429977893829346,0.27860093116760254,-0.0139482906088233,-0.45540502667427063,0.41409239172935486,0.8036171197891235,0.5333429574966431,0.07667625695466995,0.24719485640525818,0.4776362180709839,-0.9189318418502808,-0.5285657644271851,-0.745192289352417,0.5266178846359253,-0.10462629795074463,0.5479964017868042,-0.09169042110443115,-0.3143596649169922,-0.30919432640075684,0.3376694917678833,0.32360178232192993,0.21955204010009766,0.4274027347564697,-0.27687275409698486,-0.571898341178894,-0.7819046974182129
21,0.025379261001944542,-0.0038141561672091484,-0.0457838699221611,0.05934359133243561,-0.6040971279144287,-1.4717172384262085,-1.6252466440200806,0.48706814646720886,1.0819687843322754,0.7912609577178955,-0.8429977893829346,0.27860093116760254,0.005101130809634924,-0.3971143662929535,0.35493311285972595,0.7537709474563599,0.535998523235321,0.09146520495414734,0.23862288892269135,0.5091248750686646,-0.9189318418502808,-0.5285657644271851,-0.745192289352417,0.5266178846359253,-0.10462629795074463,0.5479964017868042,-0.09169042110443115,-0.3143596649169922,-0.30919432640075684,0.3551792800426483,0.34945550560951233,0.21955204010009766,0.4274027347564697,-0.27687275409698486,-0.571898341178894,-0.7819046974182129
22,0.024556158110499382,0.002599041908979416,-0.042428791522979736,0.0666947066783905,-0.5951330065727234,-1.4612981081008911,-1.6518961191177368,0.5110761523246765,1.1223375797271729,0.7912609577178955,-0.8429977893829346,0.27860093116760254,0.014744775369763374,-0.33764058351516724,0.29531151056289673,0.700101912021637,0.538501501083374,0.10526659339666367,0.2384401112794876,0.543204665184021,-0.9189318418502808,-0.5285657644271851,-0.745192289352417,0.5266178846359253,-0.10462629795074463,0.5479964017868042,-0.09169042110443115,-0.3143596649169922,-0.30919432640075684,0.37218213081359863,0.3795146942138672,0.21955204010009766,0.4274027347564697,-0.27687275409698486,-0.571898341178894,-0.7819046974182129
23,0.022242285311222076,0.007189144846051931,-0.03760877996683121,0.07773184776306152,-0.5792813897132874,-1.4477293491363525,-1.6735025644302368,0.5278172492980957,1.1649802923202515,0.7912609577178955,-0.8429977893829346,0.27860093116760254,0.016078045591711998,-0.2778415083885193,0.23615315556526184,0.6431834697723389,0.5406963229179382,0.11845971643924713,0.2469082623720169,0.5802304744720459,-0.9189318418502808,-0.5285657644271851,-0.745192289352417,0.5266178846359253,-0.10462629795074463,0.5479964017868042,-0.09169042110443115,-0.3143596649169922,-0.30919432640075684,0.388828307390213,0.4138841927051544,0.21955204010009766,0.4274027347564697,-0.27687275409698486,-0.571898341178894,-0.7819046974182129
24,0.019103124737739563,0.010564550757408142,-0.031324002891778946,0.09095363318920135,-0.5577700734138489,-1.4316612482070923,-1.6899645328521729,0.5368693470954895,1.2095191478729248,0.7912609577178955,-0.8429977893829346,0.27860093116760254,0.012316212058067322,-0.2188728004693985,0.17871738970279694,0.5837200880050659,0.5426564812660217,0.13159941136837006,0.2638240158557892,0.6203408241271973,-0.9189318418502808,-0.5285657644271851,-0.745192289352417,0.5266178846359253,-0.10462629795074463,0.5479964017868042,-0.09169042110443115,-0.3143596649169922,-0.30919432640075684,0.4051662087440491,0.4525373578071594,0.21955204010009766,0.4274027347564697,-0.27687275409698486,-0.571898341178894,-0.7819046974182129
25,0.015692880377173424,0.013115741312503815,-0.02390727400779724,0.10484226047992706,-0.5319755673408508,-1.4135879278182983,-1.7013342380523682,0.5384364724159241,1.255379319190979,0.7912609577178955,-0.8429977893829346,0.27860093116760254,0.0074719712138175964,-0.16227120161056519,0.1247062161564827,0.5225786566734314,0.544776439666748,0.14533986151218414,0.28845810890197754,0.6633082628250122,-0.9189318418502808,-0.5285657644271851,-0.745192289352417,0.5266178846359253,-0.10462629795074463,0.5479964017868042,-0.09169042110443115,-0.3143596649169922,-0.30919432640075684,0.4211015999317169,0.4951193630695343,0.21955204010009766,0.4274027347564697,-0.27687275409698486,-0.571898341178894,-0.7819046974182129
26,0.012423601001501083,0.015028048306703568,-0.016012419015169144,0.11796099692583084,-0.5033712387084961,-1.3939205408096313,-1.7078381776809692,0.5331849455833435,1.3017432689666748,0.7912609577178955,-0.8429977893829346,0.27860093116760254,0.004182536154985428,-0.10996335744857788,0.0762634202837944,0.46079814434051514,0.5478018522262573,0.1602846086025238,0.31960925459861755,0.708422064781189,-0.9189318418502808,-0.5285657644271851,-0.745192289352417,0.5266178846359253,-0.10462629795074463,0.5479964017868042,-0.09169042110443115,-0.3143596649169922,-0.30919432640075684,0.4363737106323242,0.5408176779747009,0.21955204010009766,0.4274027347564697,-0.27687275409698486,-0.571898341178894,-0.7819046974182129
27,0.009545937180519104,0.016344256699085236,-0.008512580767273903,0.12907272577285767,-0.4734927713871002,-1.3730555772781372,-1.7098780870437622,0.5220732092857361,1.3475724458694458,0.7912609577178955,-0.8429977893829346,0.27860093116760254,0.0026129106990993023,-0.06412286311388016,0.035742536187171936,0.3995555639266968,0.5527529716491699,0.1767999231815338,0.35578155517578125,0.7544628381729126,-0.9189318418502808,-0.5285657644271851,-0.745192289352417,0.5266178846359253,-0.10462629795074463,0.5479964017868042,-0.09169042110443115,-0.3143596649169922,-0.30919432640075684,0.45057135820388794,0.588387668132782,0.21955204010009766,0.4274027347564697,-0.27687275409698486,-0.571898341178894,-0.7819046974182129
28,0.00716815609484911,0.017056673765182495,-0.0022930684499442577,0.13725943863391876,-0.4438932240009308,-1.3514060974121094,-1.7080130577087402,0.5061501860618591,1.391709566116333,0.7912609577178955,-0.8429977893829346,0.27860093116760254,0.001778279198333621,-0.02680153399705887,0.005139375105500221,0.3400856852531433,0.5607446432113647,0.19487439095973969,0.3954365849494934,0.7997971773147583,-0.9189318418502808,-0.5285657644271851,-0.745192289352417,0.5266178846359253,-0.10462629795074463,0.5479964017868042,-0.09169042110443115,-0.3143596649169922,-0.30919432640075684,0.46319594979286194,0.6363351941108704,0.21955204010009766,0.4274027347564697,-0.27687275409698486,-0.571898341178894,-0.7819046974182129
29,0.005298796575516462,0.01718940958380699,0.002019984181970358,0.14199519157409668,-0.41607892513275146,-1.3293877840042114,-1.702919363975525,0.4863513708114624,1.4330297708511353,0.7912609577178955,-0.8429977893829346,0.27860093116760254,0.0012644247617572546,0.0006480403244495392,-0.014711948111653328,0.2835744023323059,0.5727817416191101,0.2141159176826477,0.43723803758621216,0.8425666689872742,-0.9189318418502808,-0.5285657644271851,-0.745192289352417,0.5266178846359253,-0.10462629795074463,0.5479964017868042,-0.09169042110443115,-0.3143596649169922,-0.30919432640075684,0.4737544655799866,0.6831828355789185,0.21955204010009766,0.4274027347564697,-0.27687275409698486,-0.571898341178894,-0.7819046974182129
30,0.0038849608972668648,0.016834435984492302,0.0042844293639063835,0.1431397944688797,-0.3914452791213989,-1.307382583618164,-1.6953392028808594,0.46334198117256165,1.4705802202224731,0.7912609577178955,-0.8429977893829346,0.27860093116760254,0.0009427855256944895,0.018123647198081017,-0.024694761261343956,0.23106075823307037,0.5896416902542114,0.23391284048557281,0.4802122414112091,0.8809075951576233,-0.9189318418502808,-0.5285657644271851,-0.745192289352417,0.5266178846359253,-0.10462629795074463,0.5479964017868042,-0.09169042110443115,-0.3143596649169922,-0.30919432640075684,0.48184898495674133,0.7277156114578247,0.21955204010009766,0.4274027347564697,-0.27687275409698486,-0.571898341178894,-0.7819046974182129
31,0.0028449133969843388,0.016132287681102753,0.004864507354795933,0.14086970686912537,-0.3712356984615326,-1.2857203483581543,-1.686029076576233,0.4374432861804962,1.5036637783050537,0.7912609577178955,-0.8429977893829346,0.27860093116760254,0.0007112701423466206,0.02690853178501129,-0.027174783870577812,0.1833726018667221,0.611897349357605,0.2536974847316742,0.523798406124115,0.9131418466567993,-0.9189318418502808,-0.5285657644271851,-0.745192289352417,0.5266178846359253,-0.10462629795074463,0.5479964017868042,-0.09169042110443115,-0.3143596649169922,-0.30919432640075684,0.48723462224006653,0.769135594367981,0.21955204010009766,0.4274027347564697,-0.27687275409698486,-0.571898341178894,-0.7819046974182129
32,0.0020929453894495964,0.01522362045943737,0.004400631412863731,0.13558833301067352,-0.3565230071544647,-1.2646946907043457,-1.675726056098938,0.4087211489677429,1.5318554639816284,0.7912609577178955,-0.8429977893829346,0.27860093116760254,0.0005616963608190417,0.02922300063073635,-0.025073228403925896,0.14109385013580322,0.6400273442268372,0.27321940660476685,0.5678296685218811,0.9379184246063232,-0.9189318418502808,-0.5285657644271851,-0.745192289352417,0.5266178846359253,-0.10462629795074463,0.5479964017868042,-0.09169042110443115,-0.3143596649169922,-0.30919432640075684,0.4898350238800049,0.8071223497390747,0.21955204010009766,0.4274027347564697,-0.27687275409698486,-0.571898341178894,-0.7819046974182129
33,0.001553005538880825,0.014213918708264828,0.003501893486827612,0.12783853709697723,-0.3481939136981964,-1.2446011304855347,-1.6651380062103271,0.3771785497665405,1.5549696683883667,0.7912609577178955,-0.8429977893829346,0.27860093116760254,0.0004257531836628914,0.027484377846121788,-0.020927608013153076,0.10454927384853363,0.6745119094848633,0.29275551438331604,0.6125014424324036,0.9543031454086304,-0.9189318418502808,-0.5285657644271851,-0.745192289352417,0.5266178846359253,-0.10462629795074463,0.5479964017868042,-0.09169042110443115,-0.3143596649169922,-0.30919432640075684,0.4897181987762451,0.841831386089325,0.21955204010009766,0.4274027347564697,-0.27687275409698486,-0.571898341178894,-0.7819046974182129
34,0.001164690707810223,0.01316840946674347,0.0025717350654304028,0.11821990460157394,-0.34693753719329834,-1.225784182548523,-1.6549575328826904,0.3428686857223511,1.573004126548767,0.7912609577178955,-0.8429977893829346,0.27860093116760254,0.0003673783503472805,0.02371964417397976,-0.016430087387561798,0.0738048106431961,0.7158552408218384,0.31321656703948975,0.6583411693572998,0.9617982506752014,-0.9189318418502808,-0.5285657644271851,-0.745192289352417,0.5266178846359253,-0.10462629795074463,0.5479964017868042,-0.09169042110443115,-0.3143596649169922,-0.30919432640075684,0.48703911900520325,0.8738564252853394,0.21955204010009766,0.4274027347564697,-0.27687275409698486,-0.571898341178894,-0.7819046974182129
35,0.0008824716205708683,0.012124468572437763,0.0017974204383790493,0.10731789469718933,-0.3532654345035553,-1.2086811065673828,-1.6458895206451416,0.3059149980545044,1.586085319519043,0.7912609577178955,-0.8429977893829346,0.27860093116760254,0.00023184565361589193,0.01932712458074093,-0.01244131289422512,0.04868829995393753,0.7645522356033325,0.33614298701286316,0.7061576843261719,0.9602635502815247,-0.9189318418502808,-0.5285657644271851,-0.745192289352417,0.5266178846359253,-0.10462629795074463,0.5479964017868042,-0.09169042110443115,-0.3143596649169922,-0.30919432640075684,0.48196107149124146,0.904170036315918,0.21955204010009766,0.4274027347564697,-0.27687275409698486,-0.571898341178894,-0.7819046974182129
36,0.0006748766172677279,0.011105319485068321,0.0012214616872370243,0.09565681964159012,-0.36757153272628784,-1.193859338760376,-1.6386786699295044,0.26646777987480164,1.594435691833496,0.7912609577178955,-0.8429977893829346,0.27860093116760254,0.00031821453012526035,0.01511348132044077,-0.009240320883691311,0.02883034572005272,0.8210379481315613,0.36359867453575134,0.7569581270217896,0.9497416019439697,-0.9189318418502808,-0.5285657644271851,-0.745192289352417,0.5266178846359253,-0.10462629795074463,0.5479964017868042,-0.09169042110443115,-0.3143596649169922,-0.30919432640075684,0.47456979751586914,0.9340567588806152,0.21955204010009766,0.4274027347564697,-0.27687275409698486,-0.571898341178894,-0.7819046974182129
37,0.0005182549357414246,0.010127916932106018,0.0008183651370927691,0.08368008583784103,-0.39021071791648865,-1.1820423603057861,-1.6341242790222168,0.22472305595874786,1.598374366760254,0.7912609577178955,-0.8429977893829346,0.27860093116760254,-6.955739809200168e-05,0.011451594531536102,-0.006797258276492357,0.013717684894800186,0.8856193423271179,0.3979688584804535,0.811835527420044,0.9302414059638977,-0.9189318418502808,-0.5285657644271851,-0.745192289352417,0.5266178846359253,-0.10462629795074463,0.5479964017868042,-0.09169042110443115,-0.3143596649169922,-0.30919432640075684,0.4647916853427887,0.9650514125823975,0.21955204010009766,0.4274027347564697,-0.27687275409698486,-0.571898341178894,-0.7819046974182129
38,0.0004005873925052583,0.009206398390233517,0.000544343376532197,0.07175043970346451,-0.42153656482696533,-1.1741126775741577,-1.633061170578003,0.18109580874443054,1.5983576774597168,0.7912609577178955,-0.8429977893829346,0.27860093116760254,0.0007851042319089174,0.008448430337011814,-0.004968094639480114,0.0027492521330714226,0.9583303928375244,0.4416322410106659,0.8718194961547852,0.9015783071517944,-0.9189318418502808,-0.5285657644271851,-0.745192289352417,0.5266178846359253,-0.10462629795074463,0.5479964017868042,-0.09169042110443115,-0.3143596649169922,-0.30919432640075684,0.4523274004459381,0.9988688230514526,0.21955204010009766,0.4274027347564697,-0.27687275409698486,-0.571898341178894,-0.7819046974182129
39,0.0003037387505173683,0.008351871743798256,0.00035992515040561557,0.06016078591346741,-0.46181127429008484,-1.171061635017395,-1.6362770795822144,0.13669036328792572,1.5950658321380615,0.7912609577178955,-0.8429977893829346,0.27860093116760254,-0.0018108669901266694,0.006075219716876745,-0.003599621122702956,-0.004714301787316799,1.03863525390625,0.4964516758918762,0.9376473426818848,0.8633912205696106,-0.9189318418502808,-0.5285657644271851,-0.745192289352417,0.5266178846359253,-0.10462629795074463,0.5479964017868042,-0.09169042110443115,-0.3143596649169922,-0.30919432640075684,0.43662160634994507,1.037264347076416,0.21955204010009766,0.4274027347564697,-0.27687275409698486,-0.571898341178894,-0.7819046974182129
40,0.00024198631581384689,0.007573041133582592,0.00023612900986336172,0.04915054515004158,-0.5109021067619324,-1.173830509185791,-1.64432954788208,0.09378693997859955,1.5895235538482666,0.7912609577178955,-0.8429977893829346,0.27860093116760254,0.006400297395884991,0.004252432379871607,-0.002571599092334509,-0.00931465532630682,1.124956727027893,0.5630765557289124,1.0094062089920044,0.8154396414756775,-0.9189318418502808,-0.5285657644271851,-0.745192289352417,0.5266178846359253,-0.10462629795074463,0.5479964017868042,-0.09169042110443115,-0.3143596649169922,-0.30919432640075684,0.41691088676452637,1.0817182064056396,0.21955204010009766,0.4274027347564697,-0.27687275409698486,-0.571898341178894,-0.7819046974182129
41,0.00014555790403392166,0.006872320547699928,0.00015363872807938606,0.0389258936047554,-0.5678042769432068,-1.1829795837402344,-1.6572622060775757,0.05597199499607086,1.5831692218780518,0.7912609577178955,-0.8429977893829346,0.27860093116760254,-0.023304210975766182,0.0028965752571821213,-0.0018049225909635425,-0.011676233261823654,1.2141692638397217,0.6403009295463562,1.0860782861709595,0.7581607103347778,-0.9189318418502808,-0.5285657644271851,-0.745192289352417,0.5266178846359253,-0.10462629795074463,0.5479964017868042,-0.09169042110443115,-0.3143596649169922,-0.30919432640075684,0.3924175202846527,1.1328736543655396,0.21955204010009766,0.4274027347564697,-0.27687275409698486,-0.571898341178894,-0.7819046974182129
42,0.00024075103283394128,0.006254357751458883,9.99238109216094e-05,0.029675431549549103,-0.6302518844604492,-1.1982539892196655,-1.6743390560150146,0.026373617351055145,1.5776489973068237,0.7912609577178955,-0.8429977893829346,0.27860093116760254,0.07955662906169891,0.0019357011187821627,-0.001251934445463121,-0.012396023608744144,1.3012983798980713,0.7249177098274231,1.1651909351348877,0.693191409111023,-0.9189318418502808,-0.5285657644271851,-0.745192289352417,0.5266178846359253,-0.10462629795074463,0.5479964017868042,-0.09169042110443115,-0.3143596649169922,-0.30919432640075684,0.36272624135017395,1.189862608909607,0.21955204010009766,0.4274027347564697,-0.27687275409698486,-0.571898341178894,-0.7819046974182129
43,-0.00029867931152693927,0.005698440596461296,6.646978727076203e-05,0.021566305309534073,-0.6947447061538696,-1.2182486057281494,-1.6940152645111084,0.006838909350335598,1.5741437673568726,0.7912609577178955,-0.8429977893829346,0.27860093116760254,-0.09084352105855942,0.0013033740688115358,-0.0008787537226453424,-0.01203962229192257,1.379725694656372,0.8123404383659363,1.2427171468734741,0.6235397458076477,-0.9189318418502808,-0.5285657644271851,-0.745192289352417,0.5266178846359253,-0.10462629795074463,0.5479964017868042,-0.09169042110443115,-0.3143596649169922,-0.30919432640075684,0.3283771276473999,1.249814748764038,0.21955204010009766,0.4274027347564697,-0.27687275409698486,-0.571898341178894,-0.7819046974182129
44,0.0005042940611019731,0.005208081100136042,4.510145663516596e-05,0.014671003445982933,-0.7577659487724304,-1.2404584884643555,-1.7145767211914062,-0.0008821608498692513,1.5725688934326172,0.7912609577178955,-0.8429977893829346,0.27860093116760254,0.04858463257551193,0.0009051944361999631,-0.0006316776853054762,-0.011038308963179588,1.442827582359314,0.898472011089325,1.3146191835403442,0.5526853203773499,-0.9189318418502808,-0.5285657644271851,-0.745192289352417,0.5266178846359253,-0.10462629795074463,0.5479964017868042,-0.09169042110443115,-0.3143596649169922,-0.30919432640075684,0.2905346155166626,1.309227466583252,0.21955204010009766,0.4274027347564697,-0.27687275409698486,-0.571898341178894,-0.7819046974182129
45,-0.00019166177662555128,0.004783742129802704,3.201053914381191e-05,0.008946715854108334,-0.8166468739509583,-1.2627164125442505,-1.7347395420074463,-0.010142594575881958,1.571960210800171,0.7912609577178955,-0.8429977893829346,0.27860093116760254,-0.026033569127321243,0.0006536595174111426,-0.0004668090841732919,-0.009693758562207222,1.4862180948257446,0.9799061417579651,1.3775936365127563,0.4834141135215759,-0.9189318418502808,-0.5285657644271851,-0.745192289352417,0.5266178846359253,-0.10462629795074463,0.5479964017868042,-0.09169042110443115,-0.3143596649169922,-0.30919432640075684,0.250559538602829,1.3646172285079956,0.21955204010009766,0.4274027347564697,-0.27687275409698486,-0.571898341178894,-0.7819046974182129
46,0.00018320039089303464,0.004432647954672575,2.2708874894306064e-05,0.004264635033905506,-0.8697366118431091,-1.281696081161499,-1.7538514137268066,0.03610069677233696,1.5716347694396973,0.7912609577178955,-0.8429977893829346,0.27860093116760254,0.016476254910230637,0.0004941126680932939,-0.00035934773040935397,-0.008252271451056004,1.5110834836959839,1.0563652515411377,1.429221272468567,0.41923433542251587,-0.9189318418502808,-0.5285657644271851,-0.745192289352417,0.5266178846359253,-0.10462629795074463,0.5479964017868042,-0.09169042110443115,-0.3143596649169922,-0.30919432640075684,0.21112161874771118,1.412850260734558,0.21955204010009766,0.4274027347564697,-0.27687275409698486,-0.571898341178894,-0.7819046974182129
47,-7.065762474667281e-05,0.004132303409278393,1.8301925592822954e-05,0.00041093025356531143,-0.9167872667312622,-1.3064279556274414,-1.7713056802749634,-0.11962755024433136,1.5714150667190552,0.7912609577178955,-0.8429977893829346,0.27860093116760254,-0.011560386046767235,0.00038117211079224944,-0.0002786751720122993,-0.006817201152443886,1.5186731815338135,1.1156647205352783,1.4696122407913208,0.3547718822956085,-0.9189318418502808,-0.5285657644271851,-0.745192289352417,0.5266178846359253,-0.10462629795074463,0.5479964017868042,-0.09169042110443115,-0.3143596649169922,-0.30919432640075684,0.16869135200977325,1.451966643333435,0.21955204010009766,0.4274027347564697,-0.27687275409698486,-0.571898341178894,-0.7819046974182129
48,9.573923307470977e-05,0.0038627164904028177,1.0656898666638881e-05,-0.0027429377660155296,-0.9577592611312866,-1.2928214073181152,-1.7891135215759277,0.06882263720035553,1.5713098049163818,0.7912609577178955,-0.8429977893829346,0.27860093116760254,0.008790082298219204,0.0003135528531856835,-0.00023465967387892306,-0.005584321916103363,1.532233476638794,1.2047017812728882,1.498258113861084,0.32169148325920105,-0.9189318418502808,-0.5285657644271851,-0.745192289352417,0.5266178846359253,-0.10462629795074463,0.5479964017868042,-0.09169042110443115,-0.3143596649169922,-0.30919432640075684,0.14681337773799896,1.4827207326889038,0.21955204010009766,0.4274027347564697,-0.27687275409698486,-0.571898341178894,-0.7819046974182129
49,-3.925797500414774e-05,0.0036356274504214525,1.607447484275326e-05,-0.005478254985064268,-0.9937353730201721,-1.3340106010437012,-1.8032584190368652,-0.01706286147236824,1.571152687072754,0.7912609577178955,-0.8429977893829346,0.27860093116760254,-0.007215808145701885,0.00023793673608452082,-0.0001709923380985856,-0.00440869340673089,1.521564245223999,1.224239468574524,1.5210822820663452,0.2560308277606964,-0.9189318418502808,-0.5285657644271851,-0.745192289352417,0.5266178846359253,-0.10462629795074463,0.5479964017868042,-0.09169042110443115,-0.3143596649169922,-0.30919432640075684,0.10036920756101608,1.5044825077056885,0.21955204010009766,0.4274027347564697,-0.27687275409698486,-0.571898341178894,-0.7819046974182129
50,6.22903899056837e-05,0.0034148285631090403,-7.66902303439565e-06,-0.007766530849039555,-1.0272420644760132,-1.3290122747421265,-1.8179577589035034,0.05228934809565544,1.5711239576339722,0.7912609577178955,-0.8429977893829346,0.27860093116760254,0.006409101653844118,0.0002002333349082619,-0.0001563809928484261,-0.003411733079701662,1.5232934951782227,1.2824087142944336,1.5350227355957031,0.22420285642147064,-0.9189318418502808,-0.5285657644271851,-0.745192289352417,0.5266178846359253,-0.10462629795074463,0.5479964017868042,-0.09169042110443115,-0.3143596649169922,-0.30919432640075684,0.07554599642753601,1.520106554031372,0.21955204010009766,0.4274027347564697,-0.27687275409698486,-0.571898341178894,-0.7819046974182129
51,-3.0826857255306095e-05,0.003210288006812334,4.727438499685377e-05,-0.009755861014127731,-1.0579116344451904,-1.3461133241653442,-1.8305665254592896,0.03524124622344971,1.5710198879241943,0.7912609577178955,-0.8429977893829346,0.27860093116760254,-0.005783927161246538,0.00015770405298098922,-0.0001104090188164264,-0.002612753538414836,1.5176162719726562,1.3093069791793823,1.545076608657837,0.18252846598625183,-0.9189318418502808,-0.5285657644271851,-0.745192289352417,0.5266178846359253,-0.10462629795074463,0.5479964017868042,-0.09169042110443115,-0.3143596649169922,-0.30919432640075684,0.04269731044769287,1.530051827430725,0.21955204010009766,0.4274027347564697,-0.27687275409698486,-0.571898341178894,-0.7819046974182129
52,4.735865513794124e-05,0.0030148683581501245,-0.00010825719073181972,-0.011457686312496662,-1.0869684219360352,-1.3466321229934692,-1.8423898220062256,0.06501460075378418,1.5710158348083496,0.7912609577178955,-0.8429977893829346,0.27860093116760254,0.005529983900487423,0.00013195723295211792,-0.00010674397344700992,-0.001966573530808091,1.516957402229309,1.3445210456848145,1.5506529808044434,0.15527796745300293,-0.9189318418502808,-0.5285657644271851,-0.745192289352417,0.5266178846359253,-0.10462629795074463,0.5479964017868042,-0.09169042110443115,-0.3143596649169922,-0.30919432640075684,0.019098011776804924,1.5360147953033447,0.21955204010009766,0.4274027347564697,-0.27687275409698486,-0.571898341178894,-0.7819046974182129
53,-2.785430842777714e-05,0.002827078104019165,0.00032264061155728996,-0.012914249673485756,-1.1146841049194336,-1.3539588451385498,-1.8527390956878662,0.06598035991191864,1.570938229560852,0.7912609577178955,-0.8429977893829346,0.27860093116760254,-0.00529006402939558,0.0001063175150193274,-7.457124593202025e-05,-0.001478926744312048,1.514066457748413,1.3659067153930664,1.5539727210998535,0.1278492510318756,-0.9189318418502808,-0.5285657644271851,-0.745192289352417,0.5266178846359253,-0.10462629795074463,0.5479964017868042,-0.09169042110443115,-0.3143596649169922,-0.30919432640075684,-0.0053289541974663734,1.539038896560669,0.21955204010009766,0.4274027347564697,-0.27687275409698486,-0.571898341178894,-0.7819046974182129
54,3.9372196624754e-05,0.0026452483143657446,-0.0009149162797257304,-0.014138287864625454,-1.1415817737579346,-1.3547033071517944,-1.8620349168777466,0.08275088667869568,1.5709497928619385,0.7912609577178955,-0.8429977893829346,0.27860093116760254,0.005272943060845137,8.83810716914013e-05,-6.440932338591665e-05,-0.001101541449315846,1.5132050514221191,1.3872538805007935,1.555160403251648,0.10825145244598389,-0.9189318418502808,-0.5285657644271851,-0.745192289352417,0.5266178846359253,-0.10462629795074463,0.5479964017868042,-0.09169042110443115,-0.3143596649169922,-0.30919432640075684,-0.02462564967572689,1.5400810241699219,0.21955204010009766,0.4274027347564697,-0.27687275409698486,-0.571898341178894,-0.7819046974182129
55,-2.6817804609891027e-05,0.002467444399371743,0.0026937362272292376,-0.015142783522605896,-1.1678557395935059,-1.3576613664627075,-1.8701390027999878,0.08783886581659317,1.5708835124969482,0.7912609577178955,-0.8429977893829346,0.27860093116760254,-0.005251883529126644,7.217978418339044e-05,-8.413924660999328e-05,-0.0008258254383690655,1.5114942789077759,1.4010149240493774,1.5552656650543213,0.0908956304192543,-0.9189318418502808,-0.5285657644271851,-0.745192289352417,0.5266178846359253,-0.10462629795074463,0.5479964017868042,-0.09169042110443115,-0.3143596649169922,-0.30919432640075684,-0.042669858783483505,1.5398608446121216,0.21955204010009766,0.4274027347564697,-0.27687275409698486,-0.571898341178894,-0.7819046974182129
56,3.479678343865089e-05,0.0022934162989258766,-0.008003211580216885,-0.015937963500618935,-1.193692684173584,-1.3576072454452515,-1.8772586584091187,0.09861060976982117,1.5709091424942017,0.7912609577178955,-0.8429977893829346,0.27860093116760254,0.005388322286307812,5.935792432865128e-05,7.254400406964123e-05,-0.0006191172869876027,1.5106550455093384,1.4129019975662231,1.5544607639312744,0.07861512899398804,-0.9189318418502808,-0.5285657644271851,-0.745192289352417,0.5266178846359253,-0.10462629795074463,0.5479964017868042,-0.09169042110443115,-0.3143596649169922,-0.30919432640075684,-0.05721386522054672,1.5388779640197754,0.21955204010009766,0.4274027347564697,-0.27687275409698486,-0.571898341178894,-0.7819046974182129
57,-2.6621175493346527e-05,0.0021222918294370174,0.023811185732483864,-0.016531454399228096,-1.2191367149353027,-1.3583009243011475,-1.883409023284912,0.1036849096417427,1.570844292640686,0.7912609577178955,-0.8429977893829346,0.27860093116760254,-0.005537244491279125,4.988786531612277e-05,-0.0004386650107335299,-0.00047111519961617887,1.5094455480575562,1.4201480150222778,1.5532593727111816,0.06883448362350464,-0.9189318418502808,-0.5285657644271851,-0.745192289352417,0.5266178846359253,-0.10462629795074463,0.5479964017868042,-0.09169042110443115,-0.3143596649169922,-0.30919432640075684,-0.0700303316116333,1.5375205278396606,0.21955204010009766,0.4274027347564697,-0.27687275409698486,-0.571898341178894,-0.7819046974182129
58,3.2179370464291424e-05,0.001954461680725217,-0.06371033191680908,-0.01692437380552292,-1.2441977262496948,-1.35747230052948,-1.888721227645874,0.11074606329202652,1.5708857774734497,0.7912609577178955,-0.8429977893829346,0.27860093116760254,0.0058158887550234795,3.7797988625243306e-05,0.0012624991359189153,-0.00036193797132000327,1.508650302886963,1.4255059957504272,1.5517691373825073,0.06252739578485489,-0.9189318418502808,-0.5285657644271851,-0.745192289352417,0.5266178846359253,-0.10462629795074463,0.5479964017868042,-0.09169042110443115,-0.3143596649169922,-0.30919432640075684,-0.0802435651421547,1.536015272140503,0.21955204010009766,0.4274027347564697,-0.27687275409698486,-0.571898341178894,-0.7819046974182129
59,-2.6767766030388884e-05,0.0017901243409141898,0.09688874334096909,-0.01706015318632126,-1.268810749053955,-1.3568751811981201,-1.8932384252548218,0.11466924101114273,1.5708136558532715,0.7912609577178955,-0.8429977893829346,0.27860093116760254,-0.006115574389696121,4.009090116596781e-05,-0.0038176015950739384,-0.00028463895432651043,1.5076371431350708,1.4278638362884521,1.5502400398254395,0.058273445814847946,-0.9189318418502808,-0.5285657644271851,-0.745192289352417,0.5266178846359253,-0.10462629795074463,0.5479964017868042,-0.09169042110443115,-0.3143596649169922,-0.30919432640075684,-0.08878977596759796,1.5345165729522705,0.21955204010009766,0.4274027347564697,-0.27687275409698486,-0.571898341178894,-0.7819046974182129
60,3.049323095183354e-05,0.0016298034461215138,-0.06530121713876724,-0.016706598922610283,-1.2928979396820068,-1.355453372001648,-1.8970409631729126,0.11921178549528122,1.570875644683838,0.7912609577178955,-0.8429977893829346,0.27860093116760254,0.006511306390166283,1.6057259927038103e-05,0.007889857515692711,-0.0002281471824971959,1.5068070888519287,1.428702712059021,1.548704743385315,0.056339990347623825,-0.9189318418502808,-0.5285657644271851,-0.745192289352417,0.5266178846359253,-0.10462629795074463,0.5479964017868042,-0.09169042110443115,-0.3143596649169922,-0.30919432640075684,-0.09536120295524597,1.5331028699874878,0.21955204010009766,0.4274027347564697,-0.27687275409698486,-0.571898341178894,-0.7819046974182129
61,-2.704936014197301e-05,0.0014741249615326524,0.030990641564130783,-0.01602259837090969,-1.3164020776748657,-1.3543274402618408,-1.9001675844192505,0.12150190025568008,1.5707855224609375,0.7912609577178955,-0.8429977893829346,0.27860093116760254,-0.007014372851699591,3.4654487535590306e-05,-0.011519551277160645,-0.00018592012929730117,1.5061824321746826,1.4280015230178833,1.5472416877746582,0.05596122890710831,-0.9189318418502808,-0.5285657644271851,-0.745192289352417,0.5266178846359253,-0.10462629795074463,0.5479964017868042,-0.09169042110443115,-0.3143596649169922,-0.30919432640075684,-0.10062281042337418,1.53192937374115,0.21955204010009766,0.4274027347564697,-0.27687275409698486,-0.571898341178894,-0.7819046974182129
62,2.9980674298712984e-05,0.0013239739928394556,-0.015260904096066952,-0.01536574773490429,-1.3392258882522583,-1.3528069257736206,-1.9026755094528198,0.12385278195142746,1.570878028869629,0.7912609577178955,-0.8429977893829346,0.27860093116760254,0.00769005948677659,8.404473192058504e-06,0.01438604760915041,-0.00015266677655745298,1.5057930946350098,1.4265650510787964,1.5459047555923462,0.057065077126026154,-0.9189318418502808,-0.5285657644271851,-0.745192289352417,0.5266178846359253,-0.10462629795074463,0.5479964017868042,-0.09169042110443115,-0.3143596649169922,-0.30919432640075684,-0.10444153100252151,1.5309492349624634,0.21955204010009766,0.4274027347564697,-0.27687275409698486,-0.571898341178894,-0.7819046974182129
63,-2.8016533178742975e-05,0.0011801214423030615,0.006907253991812468,-0.014743325300514698,-1.3612653017044067,-1.3514150381088257,-1.9045850038528442,0.12490294873714447,1.570753812789917,0.7912609577178955,-0.8429977893829346,0.27860093116760254,-0.008498352020978928,2.30633177125128e-05,-0.017130646854639053,-0.00012636315659619868,1.5053924322128296,1.4241325855255127,1.5447443723678589,0.05901489406824112,-0.9189318418502808,-0.5285657644271851,-0.745192289352417,0.5266178846359253,-0.10462629795074463,0.5479964017868042,-0.09169042110443115,-0.3143596649169922,-0.30919432640075684,-0.10721807181835175,1.5301387310028076,0.21955204010009766,0.4274027347564697,-0.27687275409698486,-0.571898341178894,-0.7819046974182129
64,3.02831413137028e-05,0.0010433067800477147,-0.004132780712097883,-0.014140830375254154,-1.3824390172958374,-1.3498409986495972,-1.9059207439422607,0.12591883540153503,1.5708966255187988,0.7912609577178955,-0.8429977893829346,0.27860093116760254,0.009496045298874378,6.921978638274595e-06,0.019732443615794182,-0.00010404829663457349,1.505126714706421,1.4212738275527954,1.5437326431274414,0.06174802407622337,-0.9189318418502808,-0.5285657644271851,-0.745192289352417,0.5266178846359253,-0.10462629795074463,0.5479964017868042,-0.09169042110443115,-0.3143596649169922,-0.30919432640075684,-0.10896806418895721,1.5294817686080933,0.21955204010009766,0.4274027347564697,-0.27687275409698486,-0.571898341178894,-0.7819046974182129
65,-2.9209979402367026e-05,0.0009139934554696083,0.002075312891975045,-0.013505588285624981,-1.4026758670806885,-1.3484182357788086,-1.906690239906311,0.12609750032424927,1.5707098245620728,0.7912609577178955,-0.8429977893829346,0.27860093116760254,-0.010673820972442627,1.4305610420706216e-05,-0.022227298468351364,-8.525851444574073e-05,1.5049114227294922,1.41795015335083,1.5428721904754639,0.0648830458521843,-0.9189318418502808,-0.5285657644271851,-0.745192289352417,0.5266178846359253,-0.10462629795074463,0.5479964017868042,-0.09169042110443115,-0.3143596649169922,-0.30919432640075684,-0.10999134927988052,1.5289629697799683,0.21955204010009766,0.4274027347564697,-0.27687275409698486,-0.571898341178894,-0.7819046974182129
66,3.093660416197963e-05,0.0007926867110654712,-0.0018153274431824684,-0.012853020802140236,-1.4219250679016113,-1.3469511270523071,-1.906907081604004,0.12622645497322083,1.570939540863037,0.7912609577178955,-0.8429977893829346,0.27860093116760254,0.012075629085302353,5.848228283866774e-06,0.024265773594379425,-6.895733531564474e-05,1.504821538925171,1.4145336151123047,1.542140007019043,0.068348728120327,-0.9189318418502808,-0.5285657644271851,-0.745192289352417,0.5266178846359253,-0.10462629795074463,0.5479964017868042,-0.09169042110443115,-0.3143596649169922,-0.30919432640075684,-0.11033885926008224,1.5285552740097046,0.21955204010009766,0.4274027347564697,-0.27687275409698486,-0.571898341178894,-0.7819046974182129
67,-3.030737570952624e-05,0.0006796052330173552,0.001161246094852686,-0.012159176170825958,-1.4401495456695557,-1.3456395864486694,-1.9065756797790527,0.1258290410041809,1.5706385374069214,0.7912609577178955,-0.8429977893829346,0.27860093116760254,-0.013687998056411743,8.719870493223425e-06,-0.02564455196261406,-5.51657285541296e-05,1.504792332649231,1.4110040664672852,1.541533350944519,0.07189024239778519,-0.9189318418502808,-0.5285657644271851,-0.745192289352417,0.5266178846359253,-0.10462629795074463,0.5479964017868042,-0.09169042110443115,-0.3143596649169922,-0.30919432640075684,-0.11022845655679703,1.5282363891601562,0.21955204010009766,0.4274027347564697,-0.27687275409698486,-0.571898341178894,-0.7819046974182129
68,3.141269917250611e-05,0.000574967940337956,-0.0013133164029568434,-0.01145083550363779,-1.457331895828247,-1.344348669052124,-1.9057064056396484,0.1254289299249649,1.5710258483886719,0.7912609577178955,-0.8429977893829346,0.27860093116760254,0.015514825470745564,4.732657544082031e-06,0.026075324043631554,-4.336669007898308e-05,1.5048612356185913,1.4075909852981567,1.5410339832305908,0.07545501738786697,-0.9189318418502808,-0.5285657644271851,-0.745192289352417,0.5266178846359253,-0.10462629795074463,0.5479964017868042,-0.09169042110443115,-0.3143596649169922,-0.30919432640075684,-0.10971379280090332,1.5279816389083862,0.21955204010009766,0.4274027347564697,-0.27687275409698486,-0.571898341178894,-0.7819046974182129
69,-3.069725426030345e-05,0.0004787510260939598,0.0010010004043579102,-0.010717300698161125,-1.47346830368042,-1.3432031869888306,-1.9043048620224,0.1247209757566452,1.570510745048523,0.7912609577178955,-0.8429977893829346,0.27860093116760254,-0.01749301888048649,5.303942089085467e-06,-0.025569643825292587,-3.358182584634051e-05,1.504979133605957,1.4042670726776123,1.5406371355056763,0.07888185977935791,-0.9189318418502808,-0.5285657644271851,-0.745192289352417,0.5266178846359253,-0.10462629795074463,0.5479964017868042,-0.09169042110443115,-0.3143596649169922,-0.30919432640075684,-0.10895263403654099,1.5277730226516724,0.21955204010009766,0.4274027347564697,-0.27687275409698486,-0.571898341178894,-0.7819046974182129
70,3.08468152070418e-05,0.0003909264924004674,-0.001132117467932403,-0.009983844123780727,-1.4885716438293457,-1.3421028852462769,-1.902382493019104,0.12406674772500992,1.5711958408355713,0.7912609577178955,-0.8429977893829346,0.27860093116760254,0.01953655108809471,3.652362011052901e-06,0.024226436391472816,-2.5457178708165884e-05,1.5051665306091309,1.4011703729629517,1.5403282642364502,0.08214789628982544,-0.9189318418502808,-0.5285657644271851,-0.745192289352417,0.5266178846359253,-0.10462629795074463,0.5479964017868042,-0.09169042110443115,-0.3143596649169922,-0.30919432640075684,-0.10798803716897964,1.5275927782058716,0.21955204010009766,0.4274027347564697,-0.27687275409698486,-0.571898341178894,-0.7819046974182129
71,-2.9386847018031403e-05,0.000311288982629776,0.000900298182386905,-0.00924672745168209,-1.5026655197143555,-1.3411279916763306,-1.8999489545822144,0.12325278669595718,1.5702658891677856,0.7912609577178955,-0.8429977893829346,0.27860093116760254,-0.021480627357959747,3.268412456236547e-06,-0.022349495440721512,-1.8948156139231287e-05,1.505386233329773,1.398262858390808,1.5401028394699097,0.08515965193510056,-0.9189318418502808,-0.5285657644271851,-0.745192289352417,0.5266178846359253,-0.10462629795074463,0.5479964017868042,-0.09169042110443115,-0.3143596649169922,-0.30919432640075684,-0.10693194717168808,1.527428150177002,0.21955204010009766,0.4274027347564697,-0.27687275409698486,-0.571898341178894,-0.7819046974182129
72,2.8093552828067914e-05,0.00023964591673575342,-0.0009482419118285179,-0.008524354547262192,-1.5157862901687622,-1.3401994705200195,-1.8970190286636353,0.12253642082214355,1.571537733078003,0.7912609577178955,-0.8429977893829346,0.27860093116760254,0.023132437840104103,2.6982779672835022e-06,0.020195582881569862,-1.3760776710114442e-05,1.5056506395339966,1.395624041557312,1.5399494171142578,0.0879208967089653,-0.9189318418502808,-0.5285657644271851,-0.745192289352417,0.5266178846359253,-0.10462629795074463,0.5479964017868042,-0.09169042110443115,-0.3143596649169922,-0.30919432640075684,-0.10581223666667938,1.5272676944732666,0.21955204010009766,0.4274027347564697,-0.27687275409698486,-0.571898341178894,-0.7819046974182129
73,-2.5319575797766447e-05,0.0001756893761921674,0.0007483833469450474,-0.007815535180270672,-1.5279775857925415,-1.339371681213379,-1.8936066627502441,0.12175411731004715,1.5697721242904663,0.7912609577178955,-0.8429977893829346,0.27860093116760254,-0.024275481700897217,2.0604893506970257e-06,-0.018022557720541954,-9.797365237318445e-06,1.505932092666626,1.3932074308395386,1.5398638248443604,0.09038448333740234,-0.9189318418502808,-0.5285657644271851,-0.745192289352417,0.5266178846359253,-0.10462629795074463,0.5479964017868042,-0.09169042110443115,-0.3143596649169922,-0.30919432640075684,-0.10470517724752426,1.527104139328003,0.21955204010009766,0.4274027347564697,-0.27687275409698486,-0.571898341178894,-0.7819046974182129
74,2.2379264919436537e-05,0.00011913409252883866,-0.0007432700367644429,-0.00713131669908762,-1.539291501045227,-1.3385804891586304,-1.8897298574447632,0.12109394371509552,1.572248101234436,0.7912609577178955,-0.8429977893829346,0.27860093116760254,0.024755708873271942,1.931034375957097e-06,0.015965361148118973,-6.805207704019267e-06,1.5062403678894043,1.3910558223724365,1.53983736038208,0.09257339686155319,-0.9189318418502808,-0.5285657644271851,-0.745192289352417,0.5266178846359253,-0.10462629795074463,0.5479964017868042,-0.09169042110443115,-0.3143596649169922,-0.30919432640075684,-0.1036224514245987,1.5269309282302856,0.21955204010009766,0.4274027347564697,-0.27687275409698486,-0.571898341178894,-0.7819046974182129
75,-1.8355891370447353e-05,6.961238977964967e-05,0.0005792708252556622,-0.0064711738377809525,-1.5497839450836182,-1.3378657102584839,-1.8854057788848877,0.12042035162448883,1.5687317848205566,0.7912609577178955,-0.8429977893829346,0.27860093116760254,-0.024512112140655518,1.325402308793855e-06,-0.014121709391474724,-4.666509084927384e-06,1.506554365158081,1.38911771774292,1.539866328239441,0.09447015076875687,-0.9189318418502808,-0.5285657644271851,-0.745192289352417,0.5266178846359253,-0.10462629795074463,0.5479964017868042,-0.09169042110443115,-0.3143596649169922,-0.30919432640075684,-0.10261231660842896,1.5267446041107178,0.21955204010009766,0.4274027347564697,-0.27687275409698486,-0.571898341178894,-0.7819046974182129
76,1.4373042176885065e-05,2.67618233920075e-05,-0.0005550670903176069,-0.005841170437633991,-1.5595157146453857,-1.3371737003326416,-1.8806546926498413,0.11987621337175369,1.5737793445587158,0.7912609577178955,-0.8429977893829346,0.27860093116760254,0.023613495752215385,1.3583767213276587e-06,0.012509199790656567,-3.1731633498566225e-06,1.5068835020065308,1.3874143362045288,1.5399433374404907,0.09610933810472488,-0.9189318418502808,-0.5285657644271851,-0.745192289352417,0.5266178846359253,-0.10462629795074463,0.5479964017868042,-0.09169042110443115,-0.3143596649169922,-0.30919432640075684,-0.10167215019464493,1.5265424251556396,0.21955204010009766,0.4274027347564697,-0.27687275409698486,-0.571898341178894,-0.7819046974182129
77,-1.0013828614319209e-05,-9.851926733972505e-06,0.00043010315857827663,-0.0052410149946808815,-1.5685480833053589,-1.3365364074707031,-1.8754957914352417,0.11934243887662888,1.5664522647857666,0.7912609577178955,-0.8429977893829346,0.27860093116760254,-0.022214215248823166,8.604481536167441e-07,-0.011136585846543312,-2.218874215031974e-06,1.5072119235992432,1.3858927488327026,1.5400656461715698,0.09749054908752441,-0.9189318418502808,-0.5285657644271851,-0.745192289352417,0.5266178846359253,-0.10462629795074463,0.5479964017868042,-0.09169042110443115,-0.3143596649169922,-0.30919432640075684,-0.10083013027906418,1.5263231992721558,0.21955204010009766,0.4274027347564697,-0.27687275409698486,-0.571898341178894,-0.7819046974182129
78,6.150811259431066e-06,-4.067048939759843e-05,-0.00040439399890601635,-0.0046739112585783005,-1.5769445896148682,-1.3359081745147705,-1.8699500560760498,0.11893344670534134,1.5771934986114502,0.7912609577178955,-0.8429977893829346,0.27860093116760254,0.020512497052550316,9.515438250673469e-07,0.009977729059755802,-1.6431222320534289e-06,1.5075490474700928,1.3845628499984741,1.540226697921753,0.09865360707044601,-0.9189318418502808,-0.5285657644271851,-0.745192289352417,0.5266178846359253,-0.10462629795074463,0.5479964017868042,-0.09169042110443115,-0.3143596649169922,-0.30919432640075684,-0.1000734344124794,1.526085615158081,0.21955204010009766,0.4274027347564697,-0.27687275409698486,-0.571898341178894,-0.7819046974182129
79,-2.5087426820391556e-06,-6.617832696065307e-05,0.0003138137108180672,-0.004139555152505636,-1.58476722240448,-1.33531653881073,-1.8640371561050415,0.11854031682014465,1.5613120794296265,0.7912609577178955,-0.8429977893829346,0.27860093116760254,-0.01868857629597187,5.557892563956557e-07,-0.009014674462378025,-1.3649782886204775e-06,1.5078827142715454,1.3833729028701782,1.5404237508773804,0.09960637241601944,-0.9189318418502808,-0.5285657644271851,-0.745192289352417,0.5266178846359253,-0.10462629795074463,0.5479964017868042,-0.09169042110443115,-0.3143596649169922,-0.30919432640075684,-0.09941727668046951,1.525829792022705,0.21955204010009766,0.4274027347564697,-0.27687275409698486,-0.571898341178894,-0.7819046974182129
80,-3.959775654038822e-07,-8.685127249918878e-05,-0.0002923823776654899,-0.003639460541307926,-1.5920779705047607,-1.334721565246582,-1.8577778339385986,0.11825995147228241,1.5849123001098633,0.7912609577178955,-0.8429977893829346,0.27860093116760254,0.01688450202345848,6.713941047564731e-07,0.008216332644224167,-1.2718244306597626e-06,1.5082226991653442,1.3823277950286865,1.540651559829712,0.10038973391056061,-0.9189318418502808,-0.5285657644271851,-0.745192289352417,0.5266178846359253,-0.10462629795074463,0.5479964017868042,-0.09169042110443115,-0.3143596649169922,-0.30919432640075684,-0.09884245693683624,1.5255550146102905,0.21955204010009766,0.4274027347564697,-0.27687275409698486,-0.571898341178894,-0.7819046974182129
81,2.8596077754627913e-06,-0.00010317020496586338,0.00022835555137135088,-0.0031731200870126486,-1.5989360809326172,-1.3341495990753174,-1.8511908054351807,0.11798899620771408,1.5499112606048584,0.7912609577178955,-0.8429977893829346,0.27860093116760254,-0.015189793892204762,3.504997039271984e-07,-0.0075629097409546375,-1.3095220765535487e-06,1.5085588693618774,1.381377935409546,1.5409075021743774,0.10101492702960968,-0.9189318418502808,-0.5285657644271851,-0.745192289352417,0.5266178846359253,-0.10462629795074463,0.5479964017868042,-0.09169042110443115,-0.3143596649169922,-0.30919432640075684,-0.09835649281740189,1.525261640548706,0.21955204010009766,0.4274027347564697,-0.27687275409698486,-0.571898341178894,-0.7819046974182129
82,-4.641686246031895e-06,-0.00011559130507521331,-0.00021180413023103029,-0.002740965224802494,-1.605399489402771,-1.3335636854171753,-1.844295859336853,0.1178145632147789,1.6009504795074463,0.7912609577178955,-0.8429977893829346,0.27860093116760254,0.01365403551608324,4.829058184441237e-07,0.0070294225588440895,-1.4050467598281102e-06,1.5089017152786255,1.3805261850357056,1.5411863327026367,0.10152313858270645,-0.9189318418502808,-0.5285657644271851,-0.745192289352417,0.5266178846359253,-0.10462629795074463,0.5479964017868042,-0.09169042110443115,-0.3143596649169922,-0.30919432640075684,-0.09793631732463837,1.5249483585357666,0.21955204010009766,0.4274027347564697,-0.27687275409698486,-0.571898341178894,-0.7819046974182129
83,6.029042197042145e-06,-0.00012455521209631115,0.00016682631394360214,-0.0023422050289809704,-1.6115223169326782,-1.3329895734786987,-1.8371106386184692,0.1176341101527214,1.5297961235046387,0.7912609577178955,-0.8429977893829346,0.27860093116760254,-0.012293384410440922,2.0864825955868582e-07,-0.006599979940801859,-1.5293444448616356e-06,1.5092425346374512,1.379723072052002,1.5414855480194092,0.10192838311195374,-0.9189318418502808,-0.5285657644271851,-0.745192289352417,0.5266178846359253,-0.10462629795074463,0.5479964017868042,-0.09169042110443115,-0.3143596649169922,-0.30919432640075684,-0.0975852906703949,1.5246139764785767,0.21955204010009766,0.4274027347564697,-0.27687275409698486,-0.571898341178894,-0.7819046974182129
84,-6.917817245266633e-06,-0.00013047382526565343,-0.00015414890367537737,-0.0019765289034694433,-1.6173570156097412,-1.3323910236358643,-1.8296533823013306,0.11753294616937637,1.620669960975647,0.7912609577178955,-0.8429977893829346,0.27860093116760254,0.011106847785413265,3.5931526554122684e-07,0.006256630178540945,-1.6389677739425679e-06,1.5095925331115723,1.3789713382720947,1.5418002605438232,0.1022719219326973,-0.9189318418502808,-0.5285657644271851,-0.745192289352417,0.5266178846359253,-0.10462629795074463,0.5479964017868042,-0.09169042110443115,-0.3143596649169922,-0.30919432640075684,-0.09727779030799866,1.524256706237793,0.21955204010009766,0.4274027347564697,-0.27687275409698486,-0.571898341178894,-0.7819046974182129
85,7.539780654042261e-06,-0.00013373472029343247,0.00012235587928444147,-0.0016428256640210748,-1.622951626777649,-1.3317946195602417,-1.8219387531280518,0.11741391569375992,1.5188485383987427,0.7912609577178955,-0.8429977893829346,0.27860093116760254,-0.01008488517254591,1.0739412914517743e-07,-0.005990325007587671,-1.721894477668684e-06,1.509942650794983,1.378229022026062,1.5421292781829834,0.1025560051202774,-0.9189318418502808,-0.5285657644271851,-0.745192289352417,0.5266178846359253,-0.10462629795074463,0.5479964017868042,-0.09169042110443115,-0.3143596649169922,-0.30919432640075684,-0.09701595455408096,1.5238808393478394,0.21955204010009766,0.4274027347564697,-0.27687275409698486,-0.571898341178894,-0.7819046974182129
86,-7.851275768189225e-06,-0.00013469395344145596,-0.00011259698658250272,-0.001340208575129509,-1.628352165222168,-1.3311665058135986,-1.8139796257019043,0.11737655103206635,1.6171165704727173,0.7912609577178955,-0.8429977893829346,0.27860093116760254,0.009219964034855366,2.815954758261796e-07,0.005794765427708626,-1.7551388964420767e-06,1.5103033781051636,1.3775205612182617,1.5424728393554688,0.10279126465320587,-0.9189318418502808,-0.5285657644271851,-0.745192289352417,0.5266178846359253,-0.10462629795074463,0.5479964017868042,-0.09169042110443115,-0.3143596649169922,-0.30919432640075684,-0.09677589684724808,1.5234978199005127,0.21955204010009766,0.4274027347564697,-0.27687275409698486,-0.571898341178894,-0.7819046974182129
87,8.025594070204534e-06,-0.00013368167856242508,9.008155029732734e-05,-0.0010673038195818663,-1.6335996389389038,-1.330544352531433,-1.8057856559753418,0.11731546372175217,1.5339144468307495,0.7912609577178955,-0.8429977893829346,0.27860093116760254,-0.00850107055157423,3.0707184350831085e-08,-0.005669006146490574,-1.7377069525537081e-06,1.5106635093688965,1.3768208026885986,1.5428354740142822,0.10295668989419937,-0.9189318418502808,-0.5285657644271851,-0.745192289352417,0.5266178846359253,-0.10462629795074463,0.5479964017868042,-0.09169042110443115,-0.3143596649169922,-0.30919432640075684,-0.0965672954916954,1.5231165885925293,0.21955204010009766,0.4274027347564697,-0.27687275409698486,-0.571898341178894,-0.7819046974182129
88,-8.034315214899834e-06,-0.0001310052612097934,-8.252730185631663e-05,-0.0008229318191297352,-1.638734221458435,-1.3298964500427246,-1.7973686456680298,0.11732450127601624,1.5983587503433228,0.7912609577178955,-0.8429977893829346,0.27860093116760254,0.007912018336355686,2.3827253414765437e-07,0.005608441773802042,-1.6601309198449599e-06,1.5110355615615845,1.3761539459228516,1.5432175397872925,0.10308084636926651,-0.9189318418502808,-0.5285657644271851,-0.745192289352417,0.5266178846359253,-0.10462629795074463,0.5479964017868042,-0.09169042110443115,-0.3143596649169922,-0.30919432640075684,-0.09637041389942169,1.522733211517334,0.21955204010009766,0.4274027347564697,-0.27687275409698486,-0.571898341178894,-0.7819046974182129
89,7.98609744379064e-06,-0.00012695010809693485,6.629378185607493e-05,-0.0006056072888895869,-1.6437913179397583,-1.329258918762207,-1.7887392044067383,0.11728371679782867,1.5507692098617554,0.7912609577178955,-0.8429977893829346,0.27860093116760254,-0.007434290833771229,-3.284040417383949e-08,-0.005609861575067043,-1.5293740034394432e-06,1.511409878730774,1.3754771947860718,1.5436185598373413,0.10317038744688034,-0.9189318418502808,-0.5285657644271851,-0.745192289352417,0.5266178846359253,-0.10462629795074463,0.5479964017868042,-0.09169042110443115,-0.3143596649169922,-0.30919432640075684,-0.09619617462158203,1.5223404169082642,0.21955204010009766,0.4274027347564697,-0.27687275409698486,-0.571898341178894,-0.7819046974182129
90,-7.853758688725065e-06,-0.00012177804455859587,-6.008303535054438e-05,-0.000413943431340158,-1.6488056182861328,-1.3285881280899048,-1.7799086570739746,0.11730681359767914,1.5852380990982056,0.7912609577178955,-0.8429977893829346,0.27860093116760254,0.007052560802549124,2.2291843038146908e-07,0.005670150741934776,-1.3471598094838555e-06,1.51180100440979,1.3748096227645874,1.5440341234207153,0.10326173156499863,-0.9189318418502808,-0.5285657644271851,-0.745192289352417,0.5266178846359253,-0.10462629795074463,0.5479964017868042,-0.09169042110443115,-0.3143596649169922,-0.30919432640075684,-0.0960201844573021,1.521933913230896,0.21955204010009766,0.4274027347564697,-0.27687275409698486,-0.571898341178894,-0.7819046974182129
91,7.7058302849764e-06,-0.00011572615039767697,4.7913723392412066e-05,-0.00024634040892124176,-1.6538070440292358,-1.3279247283935547,-1.7708854675292969,0.11726086586713791,1.5603528022766113,0.7912609577178955,-0.8429977893829346,0.27860093116760254,-0.006754349917173386,-9.27995102983914e-08,-0.00578951183706522,-1.1250949683017097e-06,1.5121958255767822,1.3741035461425781,1.5444636344909668,0.10334893316030502,-0.9189318418502808,-0.5285657644271851,-0.745192289352417,0.5266178846359253,-0.10462629795074463,0.5479964017868042,-0.09169042110443115,-0.3143596649169922,-0.30919432640075684,-0.0958552360534668,1.52151358127594,0.21955204010009766,0.4274027347564697,-0.27687275409698486,-0.571898341178894,-0.7819046974182129
92,-7.5205039138381835e-06,-0.00010900853521889076,-4.2443134589120746e-05,-0.00010128083522431552,-1.6588248014450073,-1.327217936515808,-1.7616780996322632,0.11728531867265701,1.5784114599227905,0.7912609577178955,-0.8429977893829346,0.27860093116760254,0.006530584301799536,2.3312023245125602e-07,0.005969120189547539,-8.690396953170421e-07,1.5126115083694458,1.373389720916748,1.5449044704437256,0.10346119105815887,-0.9189318418502808,-0.5285657644271851,-0.745192289352417,0.5266178846359253,-0.10462629795074463,0.5479964017868042,-0.09169042110443115,-0.3143596649169922,-0.30919432640075684,-0.09567441791296005,1.5210801362991333,0.21955204010009766,0.4274027347564697,-0.27687275409698486,-0.571898341178894,-0.7819046974182129
93,7.3412902565905824e-06,-0.00010181573452427983,3.285393540863879e-05,2.2875268768984824e-05,-1.663882851600647,-1.326520323753357,-1.7522920370101929,0.11721912026405334,1.5651843547821045,0.7912609577178955,-0.8429977893829346,0.27860093116760254,-0.006374134682118893,-1.587570466199395e-07,-0.006212693173438311,-5.892284207220655e-07,1.5130311250686646,1.3726179599761963,1.5453580617904663,0.10358187556266785,-0.9189318418502808,-0.5285657644271851,-0.745192289352417,0.5266178846359253,-0.10462629795074463,0.5479964017868042,-0.09169042110443115,-0.3143596649169922,-0.30919432640075684,-0.09549671411514282,1.5206350088119507,0.21955204010009766,0.4274027347564697,-0.27687275409698486,-0.571898341178894,-0.7819046974182129
94,-7.150935743993614e-06,-9.431762009626254e-05,-2.770162609522231e-05,0.00012768276792485267,-1.6690056324005127,-1.325770378112793,-1.7427337169647217,0.11723809689283371,1.5749821662902832,0.7912609577178955,-0.8429977893829346,0.27860093116760254,0.0062802014872431755,2.7130681701237336e-07,0.006524971686303616,-2.9296148795765475e-07,1.5134754180908203,1.3718334436416626,1.5458232164382935,0.1037411019206047,-0.9189318418502808,-0.5285657644271851,-0.745192289352417,0.5266178846359253,-0.10462629795074463,0.5479964017868042,-0.09169042110443115,-0.3143596649169922,-0.30919432640075684,-0.09529180824756622,1.520179033279419,0.21955204010009766,0.4274027347564697,-0.27687275409698486,-0.571898341178894,-0.7819046974182129
95,6.976674740144517e-06,-8.666222856845707e-05,1.9647946828627028e-05,0.00021475538960658014,-1.6742119789123535,-1.3250370025634766,-1.7330061197280884,0.11713775247335434,1.5676356554031372,0.7912609577178955,-0.8429977893829346,0.27860093116760254,-0.006245331838726997,-2.4242575591415516e-07,-0.006912742741405964,1.1674401889649744e-08,1.5139222145080566,1.3709769248962402,1.5463025569915771,0.1039135530591011,-0.9189318418502808,-0.5285657644271851,-0.745192289352417,0.5266178846359253,-0.10462629795074463,0.5479964017868042,-0.09169042110443115,-0.3143596649169922,-0.30919432640075684,-0.09508713334798813,1.5197129249572754,0.21955204010009766,0.4274027347564697,-0.27687275409698486,-0.571898341178894,-0.7819046974182129
96,-6.805018983868649e-06,-7.897933392086998e-05,-1.4465442291111685e-05,0.0002856175124179572,-1.6795223951339722,-1.3242404460906982,-1.723114252090454,0.11714885383844376,1.5732134580612183,0.7912609577178955,-0.8429977893829346,0.27860093116760254,0.006267869379371405,3.4598241427374887e-07,0.007384026423096657,3.16224429752765e-07,1.5143991708755493,1.370111107826233,1.5467947721481323,0.10413481295108795,-0.9189318418502808,-0.5285657644271851,-0.745192289352417,0.5266178846359253,-0.10462629795074463,0.5479964017868042,-0.09169042110443115,-0.3143596649169922,-0.30919432640075684,-0.09484580904245377,1.5192371606826782,0.21955204010009766,0.4274027347564697,-0.27687275409698486,-0.571898341178894,-0.7819046974182129
97,6.652836873399792e-06,-7.137882494134828e-05,7.163847385527333e-06,0.00034180592047050595,-1.684950828552246,-1.3234732151031494,-1.7130590677261353,0.11700010299682617,1.5689247846603394,0.7912609577178955,-0.8429977893829346,0.27860093116760254,-0.00634726881980896,-3.607285634643631e-07,-0.00794848334044218,6.15494911926362e-07,1.5148755311965942,1.3691591024398804,1.5473027229309082,0.10436882078647614,-0.9189318418502808,-0.5285657644271851,-0.745192289352417,0.5266178846359253,-0.10462629795074463,0.5479964017868042,-0.09169042110443115,-0.3143596649169922,-0.30919432640075684,-0.0946066752076149,1.5187523365020752,0.21955204010009766,0.4274027347564697,-0.27687275409698486,-0.571898341178894,-0.7819046974182129
98,-6.509712875413243e-06,-6.395486707333475e-05,-1.6281813941532164e-06,0.0003847635816782713,-1.6905155181884766,-1.3226267099380493,-1.702844262123108,0.11700686067342758,1.5722638368606567,0.7912609577178955,-0.8429977893829346,0.27860093116760254,0.006484555546194315,4.748105197904806e-07,0.00861695408821106,9.003226750792237e-07,1.515389323234558,1.368208646774292,1.5478254556655884,0.10466145724058151,-0.9189318418502808,-0.5285657644271851,-0.745192289352417,0.5266178846359253,-0.10462629795074463,0.5479964017868042,-0.09169042110443115,-0.3143596649169922,-0.30919432640075684,-0.09432132542133331,1.5182582139968872,0.21955204010009766,0.4274027347564697,-0.27687275409698486,-0.571898341178894,-0.7819046974182129
99,6.385883807524806e-06,-5.6783839681884274e-05,-5.545440671994584e-06,0.0004159103846177459,-1.6962252855300903,-1.321830153465271,-1.6924690008163452,0.11679299175739288,1.5696316957473755,0.7912609577178955,-0.8429977893829346,0.27860093116760254,-0.0066817086189985275,-5.409813184087398e-07,-0.00940109882503748,1.1693055057548918e-06,1.5158960819244385,1.3671538829803467,1.548365831375122,0.10496141016483307,-0.9189318418502808,-0.5285657644271851,-0.745192289352417,0.5266178846359253,-0.10462629795074463,0.5479964017868042,-0.09169042110443115,-0.3143596649169922,-0.30919432640075684,-0.09404521435499191,1.517755150794983,0.21955204010009766,0.4274027347564697,-0.27687275409698486,-0.571898341178894,-0.7819046974182129
