,0,1,2,3,4,5,6,7,8,9,10,11,12,13,14,15,16,17,18,19,20,21,22,23
0,-0.14902234077453613,-0.7657842636108398,0.23293888568878174,-0.9242562055587769,0.2678241729736328,0.05338180065155029,-0.1035698652267456,-0.9431730508804321,0.06505167484283447,-0.10370337963104248,-0.2687488794326782,0.7553021907806396,0.03882420063018799,-0.7105212211608887,0.6149610280990601,0.565880298614502,-0.22166728973388672,0.6361387968063354,-0.7951045036315918,-0.7789075374603271,-0.3413572311401367,0.5823332071304321,0.11958730220794678,-0.7598340511322021
1,-0.09654606878757477,-0.713307797908783,0.2854154109954834,-0.9767327308654785,0.3203006982803345,0.10585834085941315,-0.15604636073112488,-0.9431730508804321,0.012575279921293259,-0.051226843148469925,-0.3212254047393799,0.702825665473938,-0.013652283698320389,-0.7629977464675903,0.6149610280990601,0.565880298614502,-0.22166728973388672,0.6361387968063354,-0.7951045036315918,-0.8313835859298706,-0.3938337564468384,0.5823332071304321,0.11958730220794678,-0.7598340511322021
2,-0.053524233400821686,-0.6729131937026978,0.3233376443386078,-1.0049021244049072,0.3601706624031067,0.14706221222877502,-0.19796660542488098,-0.9431730508804321,-0.021222859621047974,-0.011355927214026451,-0.35919374227523804,0.6622365117073059,-0.06048773601651192,-0.8050398826599121,0.6149610280990601,0.565880298614502,-0.22166728973388672,0.6361387968063354,-0.7951045036315918,-0.881798267364502,-0.4344381093978882,0.5823332071304321,0.11958730220794678,-0.7598340511322021
3,-0.027715114876627922,-0.6360719203948975,0.3575291931629181,-1.0211424827575684,0.39874884486198425,0.1860571652650833,-0.2382243126630783,-0.9431730508804321,-0.028813406825065613,0.02455475926399231,-0.3942354619503021,0.6243430376052856,-0.10478413105010986,-0.84482342004776,0.6149610280990601,0.565880298614502,-0.22166728973388672,0.6361387968063354,-0.7951045036315918,-0.9033040404319763,-0.47222188115119934,0.5823332071304321,0.11958730220794678,-0.7598340511322021
4,-0.015719786286354065,-0.602899432182312,0.3903905153274536,-1.0221896171569824,0.4371528625488281,0.2243104726076126,-0.27923497557640076,-0.9431730508804321,-0.017974626272916794,0.058460336178541183,-0.4276539087295532,0.5863564014434814,-0.14913590252399445,-0.8849107623100281,0.6149610280990601,0.565880298614502,-0.22166728973388672,0.6361387968063354,-0.7951045036315918,-0.8804371356964111,-0.5100694894790649,0.5823332071304321,0.11958730220794678,-0.7598340511322021
5,-0.005164500791579485,-0.5768877267837524,0.423030823469162,-1.0077053308486938,0.4749240577220917,0.2611200511455536,-0.3220190405845642,-0.9431730508804321,-0.008641265332698822,0.09088458120822906,-0.45901551842689514,0.5467377305030823,-0.19509030878543854,-0.9269208908081055,0.6149610280990601,0.565880298614502,-0.22166728973388672,0.6361387968063354,-0.7951045036315918,-0.8386487364768982,-0.5502804517745972,0.5823332071304321,0.11958730220794678,-0.7598340511322021
6,0.0009796125814318657,-0.5612481832504272,0.4556224048137665,-0.986109733581543,0.512485146522522,0.29542332887649536,-0.36666080355644226,-0.9431730508804321,-0.0019503216026350856,0.12128749489784241,-0.48845112323760986,0.5054160356521606,-0.2425372451543808,-0.9708928465843201,0.6149610280990601,0.565880298614502,-0.22166728973388672,0.6361387968063354,-0.7951045036315918,-0.7894077301025391,-0.5933492183685303,0.5823332071304321,0.11958730220794678,-0.7598340511322021
7,0.0033672309946268797,-0.5588068962097168,0.48786649107933044,-0.9669899940490723,0.5499430298805237,0.3259996175765991,-0.4127129316329956,-0.9431730508804321,0.0006508282385766506,0.14880318939685822,-0.5166783928871155,0.4629944860935211,-0.29088062047958374,-1.016223669052124,0.6149610280990601,0.565880298614502,-0.22166728973388672,0.6361387968063354,-0.7951045036315918,-0.7364442944526672,-0.6389593482017517,0.5823332071304321,0.11958730220794678,-0.7598340511322021
8,0.0024589954409748316,-0.5705172419548035,0.5192961096763611,-0.9585757851600647,0.58697110414505,0.3515866696834564,-0.4595697820186615,-0.9431730508804321,0.0015588904498144984,0.172700434923172,-0.5450794696807861,0.42040401697158813,-0.33958518505096436,-1.062135934829712,0.6149610280990601,0.565880298614502,-0.22166728973388672,0.6361387968063354,-0.7951045036315918,-0.6817657947540283,-0.68663489818573,0.5823332071304321,0.11958730220794678,-0.7598340511322021
9,0.0034653996117413044,-0.594406008720398,0.5494085550308228,-0.9664621353149414,0.6230319738388062,0.37106937170028687,-0.5066961646080017,-0.9431730508804321,-0.0002172156237065792,0.19258345663547516,-0.5755996108055115,0.3788319230079651,-0.3883735239505768,-1.1077709197998047,0.6149610280990601,0.565880298614502,-0.22166728973388672,0.6361387968063354,-0.7951045036315918,-0.6263653635978699,-0.7359575629234314,0.5823332071304321,0.11958730220794678,-0.7598340511322021
10,-0.0035821041092276573,-0.626555323600769,0.5777391195297241,-0.9910746216773987,0.6575472354888916,0.3835926949977875,-0.5537168979644775,-0.9431730508804321,0.004831806756556034,0.20839887857437134,-0.6103094816207886,0.33970311284065247,-0.4373012185096741,-1.1521732807159424,0.6149610280990601,0.565880298614502,-0.22166728973388672,0.6361387968063354,-0.7951045036315918,-0.5705484747886658,-0.7866395711898804,0.5823332071304321,0.11958730220794678,-0.7598340511322021
11,0.023902922868728638,-0.6626532077789307,0.6038756370544434,-1.0283840894699097,0.6900809407234192,0.38851213455200195,-0.600388765335083,-0.9431730508804321,-0.017671074718236923,0.2203802615404129,-0.6507347226142883,0.30462315678596497,-0.48668381571769714,-1.194231629371643,0.6149610280990601,0.565880298614502,-0.22166728973388672,0.6361387968063354,-0.7951045036315918,-0.5142110586166382,-0.8384872674942017,0.5823332071304321,0.11958730220794678,-0.7598340511322021
12,-0.05711566284298897,-0.6984630823135376,0.6274780631065369,-1.0737950801849365,0.720427930355072,0.38531962037086487,-0.6465144753456116,-0.9431730508804321,0.05726398155093193,0.2289564609527588,-0.6973329186439514,0.2752170264720917,-0.5369701385498047,-1.2326488494873047,0.6149610280990601,0.565880298614502,-0.22166728973388672,0.6361387968063354,-0.7951045036315918,-0.4573252499103546,-0.8913137912750244,0.5823332071304321,0.11958730220794678,-0.7598340511322021
13,0.03998244181275368,-0.7284168004989624,0.6483923196792603,-1.1240859031677246,0.7485539317131042,0.373756468296051,-0.6918669939041138,-0.9431730508804321,-0.039009883999824524,0.23443743586540222,-0.7494108080863953,0.2528305649757385,-0.5885680317878723,-1.2659510374069214,0.6149610280990601,0.565880298614502,-0.22166728973388672,0.6361387968063354,-0.7951045036315918,-0.400486022233963,-0.94480961561203,0.5823332071304321,0.11958730220794678,-0.7598340511322021
14,-0.018053028732538223,-0.7529037594795227,0.6665710806846619,-1.1776491403579712,0.774651825428009,0.35398590564727783,-0.7365186214447021,-0.9431730508804321,0.018840152770280838,0.237113818526268,-0.8059529662132263,0.2382393479347229,-0.6421590447425842,-1.2930644750595093,0.6149610280990601,0.565880298614502,-0.22166728973388672,0.6361387968063354,-0.7951045036315918,-0.3435315787792206,-0.9989773035049438,0.5823332071304321,0.11958730220794678,-0.7598340511322021
15,0.013059821911156178,-0.7680532336235046,0.682136595249176,-1.233142375946045,0.7988856434822083,0.3268101215362549,-0.780537486076355,-0.9431730508804321,-0.012227019295096397,0.2366454303264618,-0.8655145168304443,0.23152442276477814,-0.6978176236152649,-1.3128281831741333,0.6149610280990601,0.565880298614502,-0.22166728973388672,0.6361387968063354,-0.7951045036315918,-0.2882513403892517,-1.053493618965149,0.5823332071304321,0.11958730220794678,-0.7598340511322021
16,-0.007962912321090698,-0.7696637511253357,0.6953522562980652,-1.2890914678573608,0.8214662671089172,0.29374200105667114,-0.8242073655128479,-0.9431730508804321,0.00873159896582365,0.2320205122232437,-0.9264730215072632,0.2318842113018036,-0.7552683353424072,-1.3243604898452759,0.6149610280990601,0.565880298614502,-0.22166728973388672,0.6361387968063354,-0.7951045036315918,-0.23691432178020477,-1.1078641414642334,0.5823332071304321,0.11958730220794678,-0.7598340511322021
17,0.008667310699820518,-0.7557045221328735,0.7065150141716003,-1.343523621559143,0.842619001865387,0.2568150460720062,-0.8680886626243591,-0.9431730508804321,-0.008057721890509129,0.2219892293214798,-0.9871861338615417,0.23807092010974884,-0.8140382170677185,-1.3271911144256592,0.6149610280990601,0.565880298614502,-0.22166728973388672,0.6361387968063354,-0.7951045036315918,-0.19200657308101654,-1.161513328552246,0.5823332071304321,0.11958730220794678,-0.7598340511322021
18,-0.007441180292516947,-0.7264349460601807,0.7158666849136353,-1.3936922550201416,0.8625730872154236,0.21839170157909393,-0.9129438996315002,-0.9431730508804321,0.008045199327170849,0.20576617121696472,-1.046017050743103,0.2490435689687729,-0.8734837770462036,-1.3212238550186157,0.6149610280990601,0.565880298614502,-0.22166728973388672,0.6361387968063354,-0.7951045036315918,-0.15597064793109894,-1.213773488998413,0.5823332071304321,0.11958730220794678,-0.7598340511322021
19,0.009551536291837692,-0.6845592856407166,0.7235755324363708,-1.435881495475769,0.8815669417381287,0.18095217645168304,-0.9596628546714783,-0.9431730508804321,-0.009267346933484077,0.18359969556331635,-1.1014922857284546,0.2645205557346344,-0.9328343868255615,-1.3066238164901733,0.6149610280990601,0.565880298614502,-0.22166728973388672,0.6361387968063354,-0.7951045036315918,-0.13023069500923157,-1.2639509439468384,0.5823332071304321,0.11958730220794678,-0.7598340511322021
20,-0.010580997914075851,-0.6338947415351868,0.7298266291618347,-1.4653359651565552,0.8998882174491882,0.14686590433120728,-1.0091612339019775,-0.9431730508804321,0.011022071354091167,0.15683992207050323,-1.1525299549102783,0.28515368700027466,-0.9911865592002869,-1.2835910320281982,0.6149610280990601,0.565880298614502,-0.22166728973388672,0.6361387968063354,-0.7951045036315918,-0.11459070444107056,-1.3113877773284912,0.5823332071304321,0.11958730220794678,-0.7598340511322021
21,0.013910902664065361,-0.5782714486122131,0.7349759340286255,-1.4767069816589355,0.9179911017417908,0.11809597164392471,-1.0622928142547607,-0.9431730508804321,-0.013975624926388264,0.12752577662467957,-1.1986706256866455,0.3123234510421753,-1.0476038455963135,-1.252054214477539,0.6149610280990601,0.565880298614502,-0.22166728973388672,0.6361387968063354,-0.7951045036315918,-0.10755046457052231,-1.3555164337158203,0.5823332071304321,0.11958730220794678,-0.7598340511322021
22,-0.016817297786474228,-0.5207866430282593,0.7396864295005798,-1.4658490419387817,0.9367339015007019,0.09587615728378296,-1.119761347770691,-0.9431730508804321,0.017185905948281288,0.09787971526384354,-1.2401912212371826,0.347695916891098,-1.1013363599777222,-1.2114293575286865,0.6149610280990601,0.565880298614502,-0.22166728973388672,0.6361387968063354,-0.7951045036315918,-0.10722606629133224,-1.395875334739685,0.5823332071304321,0.11958730220794678,-0.7598340511322021
23,0.02069389447569847,-0.46370697021484375,0.7449830174446106,-1.4328536987304688,0.9576600790023804,0.08045606315135956,-1.1819746494293213,-0.9431730508804321,-0.02093302272260189,0.06997362524271011,-1.2780842781066895,0.3926544785499573,-1.1520781517028809,-1.1607673168182373,0.6149610280990601,0.565880298614502,-0.22166728973388672,0.6361387968063354,-0.7951045036315918,-0.11170066148042679,-1.4321085214614868,0.5823332071304321,0.11958730220794678,-0.7598340511322021
24,-0.02320437878370285,-0.4083348214626312,0.7521756291389465,-1.383358120918274,0.9830533266067505,0.07105722278356552,-1.2486907243728638,-0.9431730508804321,0.02348577044904232,0.04560024291276932,-1.313891053199768,0.44758835434913635,-1.200059413909912,-1.099576473236084,0.6149610280990601,0.565880298614502,-0.22166728973388672,0.6361387968063354,-0.7951045036315918,-0.11869043111801147,-1.4639548063278198,0.5823332071304321,0.11958730220794678,-0.7598340511322021
25,0.02461300790309906,-0.355155885219574,0.7626185417175293,-1.326427936553955,1.0154409408569336,0.06608984619379044,-1.318508267402649,-0.9431730508804321,-0.024844516068696976,0.026210829615592957,-1.3493257761001587,0.5113102793693542,-1.2458817958831787,-1.0288071632385254,0.6149610280990601,0.565880298614502,-0.22166728973388672,0.6361387968063354,-0.7951045036315918,-0.12507683038711548,-1.4912439584732056,0.5823332071304321,0.11958730220794678,-0.7598340511322021
26,-0.023851456120610237,-0.303814172744751,0.7773430347442627,-1.2721635103225708,1.056540608406067,0.06359676271677017,-1.3885329961776733,-0.9431730508804321,0.024188470095396042,0.012658186256885529,-1.3856233358383179,0.5811386704444885,-1.2901276350021362,-0.9510132074356079,0.6149610280990601,0.565880298614502,-0.22166728973388672,0.6361387968063354,-0.7951045036315918,-0.12738901376724243,-1.5138949155807495,0.5823332071304321,0.11958730220794678,-0.7598340511322021
27,0.022106943652033806,-0.25361740589141846,0.7966738939285278,-1.2302836179733276,1.1061887741088867,0.0619233101606369,-1.454562783241272,-0.9431730508804321,-0.02263210341334343,0.004707878455519676,-1.4228698015213013,0.6537750959396362,-1.332932472229004,-0.869544506072998,0.6149610280990601,0.565880298614502,-0.22166728973388672,0.6361387968063354,-0.7951045036315918,-0.1233496367931366,-1.531933069229126,0.5823332071304321,0.11958730220794678,-0.7598340511322021
28,-0.01951589249074459,-0.20430947840213776,0.820024311542511,-1.2069611549377441,1.1621336936950684,0.060406800359487534,-1.5117614269256592,-0.9431730508804321,0.020340459421277046,0.0008863294497132301,-1.4598329067230225,0.7263893485069275,-1.3738017082214355,-0.7875663638114929,0.6149610280990601,0.565880298614502,-0.22166728973388672,0.6361387968063354,-0.7951045036315918,-0.11338941007852554,-1.54551100730896,0.5823332071304321,0.11958730220794678,-0.7598340511322021
29,0.017029618844389915,-0.15688833594322205,0.8460562229156494,-1.2002472877502441,1.2210325002670288,0.059446997940540314,-1.5557588338851929,-0.9431730508804321,-0.01814105361700058,-0.0007707150653004646,-1.494539499282837,0.797199010848999,-1.411861777305603,-0.7074828743934631,0.6149610280990601,0.565880298614502,-0.22166728973388672,0.6361387968063354,-0.7951045036315918,-0.09968800097703934,-1.5549051761627197,0.5823332071304321,0.11958730220794678,-0.7598340511322021
30,-0.014549179002642632,-0.11312898248434067,0.8731980323791504,-1.202733039855957,1.2799012660980225,0.05962425470352173,-1.5841829776763916,-0.9431730508804321,0.015927938744425774,-0.001608982915058732,-1.5251661539077759,0.8651885986328125,-1.4462635517120361,-0.6308963298797607,0.6149610280990601,0.565880298614502,-0.22166728973388672,0.6361387968063354,-0.7951045036315918,-0.08377387374639511,-1.5605018138885498,0.5823332071304321,0.11958730220794678,-0.7598340511322021
31,0.012476686388254166,-0.07464076578617096,0.9001341462135315,-1.2095813751220703,1.336841344833374,0.0609663724899292,-1.5979844331741333,-0.9431730508804321,-0.014059074223041534,-0.002091120695695281,-1.550589680671692,0.9296212196350098,-1.4763697385787964,-0.5588268637657166,0.6149610280990601,0.565880298614502,-0.22166728973388672,0.6361387968063354,-0.7951045036315918,-0.0662289410829544,-1.562795639038086,0.5823332071304321,0.11958730220794678,-0.7598340511322021
32,-0.010612258687615395,-0.04235438257455826,0.9259274005889893,-1.218895435333252,1.3908107280731201,0.0632701888680458,-1.6010780334472656,-0.9431730508804321,0.012365199625492096,-0.0022991509176790714,-1.5704874992370605,0.990013062953949,-1.501834511756897,-0.49190962314605713,0.6149610280990601,0.565880298614502,-0.22166728973388672,0.6361387968063354,-0.7951045036315918,-0.0481426864862442,-1.562368392944336,0.5823332071304321,0.11958730220794678,-0.7598340511322021
33,0.0091578159481287,-0.01650605909526348,0.9499735832214355,-1.2295104265213013,1.4412956237792969,0.06630624830722809,-1.5982558727264404,-0.9431730508804321,-0.011034870520234108,-0.002272032666951418,-1.5852084159851074,1.0460361242294312,-1.5226771831512451,-0.43051227927207947,0.6149610280990601,0.565880298614502,-0.22166728973388672,0.6361387968063354,-0.7951045036315918,-0.03002333827316761,-1.5598270893096924,0.5823332071304321,0.11958730220794678,-0.7598340511322021
34,-0.007933024317026138,0.003302246332168579,0.9719606637954712,-1.2405067682266235,1.4881277084350586,0.06991197168827057,-1.5932822227478027,-0.9431730508804321,0.00991271436214447,-0.0020808407571166754,-1.595534086227417,1.0974785089492798,-1.539237380027771,-0.37482360005378723,0.6149610280990601,0.565880298614502,-0.22166728973388672,0.6361387968063354,-0.7951045036315918,-0.012695303186774254,-1.5557572841644287,0.5823332071304321,0.11958730220794678,-0.7598340511322021
35,0.007037805393338203,0.01785050705075264,0.9917970895767212,-1.251579999923706,1.531373381614685,0.07383410632610321,-1.5882998704910278,-0.9431730508804321,-0.009095675311982632,-0.001810060115531087,-1.6024219989776611,1.144140601158142,-1.5520528554916382,-0.32488131523132324,0.6149610280990601,0.565880298614502,-0.22166728973388672,0.6361387968063354,-0.7951045036315918,0.0038675195537507534,-1.5506800413131714,0.5823332071304321,0.11958730220794678,-0.7598340511322021
36,-0.006328746676445007,0.02807379513978958,1.0095423460006714,-1.2619092464447021,1.5712220668792725,0.0779794305562973,-1.5841612815856934,-0.9431730508804321,0.008454710245132446,-0.0015256630722433329,-1.6067936420440674,1.1860023736953735,-1.5617367029190063,-0.28060781955718994,0.6149610280990601,0.565880298614502,-0.22166728973388672,0.6361387968063354,-0.7951045036315918,0.018586594611406326,-1.5450410842895508,0.5823332071304321,0.11958730220794678,-0.7598340511322021
37,0.005861626472324133,0.034874819219112396,1.0253416299819946,-1.2721797227859497,1.6079543828964233,0.0819554552435875,-1.580996036529541,-0.9431730508804321,-0.00804407149553299,-0.001266063773073256,-1.6094186305999756,1.2229398488998413,-1.5688809156417847,-0.24181336164474487,0.6149610280990601,0.565880298614502,-0.22166728973388672,0.6361387968063354,-0.7951045036315918,0.032710786908864975,-1.5391860008239746,0.5823332071304321,0.11958730220794678,-0.7598340511322021
38,-0.005541658960282803,0.03903120383620262,1.0393786430358887,-1.2802211046218872,1.6418437957763672,0.08601832389831543,-1.5786484479904175,-0.9431730508804321,0.007770817261189222,-0.0010446110973134637,-1.610866904258728,1.2552963495254517,-1.5740288496017456,-0.20825925469398499,0.6149610280990601,0.565880298614502,-0.22166728973388672,0.6361387968063354,-0.7951045036315918,0.04325444623827934,-1.5333971977233887,0.5823332071304321,0.11958730220794678,-0.7598340511322021
39,0.005410110577940941,0.04118523746728897,1.0518494844436646,-1.2902828454971313,1.673223614692688,0.08915021270513535,-1.5769102573394775,-0.9431730508804321,-0.007674072869122028,-0.0008697172161191702,-1.6115522384643555,1.2826789617538452,-1.5776188373565674,-0.17959828674793243,0.6149610280990601,0.565880298614502,-0.22166728973388672,0.6361387968063354,-0.7951045036315918,0.05623595416545868,-1.5278337001800537,0.5823332071304321,0.11958730220794678,-0.7598340511322021
40,-0.005423534195870161,0.04180094599723816,1.06291925907135,-1.2923851013183594,1.7023022174835205,0.0932498574256897,-1.5756069421768188,-0.9431730508804321,0.007692478131502867,-0.0007246173336170614,-1.611696481704712,1.3065400123596191,-1.5800758600234985,-0.15556275844573975,0.6149610280990601,0.565880298614502,-0.22166728973388672,0.6361387968063354,-0.7951045036315918,0.05849529057741165,-1.522695541381836,0.5823332071304321,0.11958730220794678,-0.7598340511322021
41,0.005614427383989096,0.0413258820772171,1.072786808013916,-1.309505820274353,1.7294697761535645,0.09372925758361816,-1.5746132135391235,-0.9431730508804321,-0.007864847779273987,-0.00063199398573488,-1.6115691661834717,1.3243110179901123,-1.581619381904602,-0.13559052348136902,0.6149610280990601,0.565880298614502,-0.22166728973388672,0.6361387968063354,-0.7951045036315918,0.08001074939966202,-1.5178849697113037,0.5823332071304321,0.11958730220794678,-0.7598340511322021
42,-0.006011768244206905,0.03988400474190712,1.081458568572998,-1.2870893478393555,1.7546932697296143,0.10127528011798859,-1.5738441944122314,-0.9431730508804321,0.008139552548527718,-0.0005225940840318799,-1.6109832525253296,1.3429970741271973,-1.5827195644378662,-0.11974827945232391,0.6149610280990601,0.565880298614502,-0.22166728973388672,0.6361387968063354,-0.7951045036315918,0.05170860141515732,-1.513853669166565,0.5823332071304321,0.11958730220794678,-0.7598340511322021
43,0.006588784046471119,0.03811471536755562,1.089334487915039,-1.3525011539459229,1.7786802053451538,0.0903003066778183,-1.5732420682907104,-0.9431730508804321,-0.008585675619542599,-0.0005248383968137205,-1.610774040222168,1.346818208694458,-1.5830825567245483,-0.10655052214860916,0.6149610280990601,0.565880298614502,-0.22166728973388672,0.6361387968063354,-0.7951045036315918,0.130032479763031,-1.5095765590667725,0.5823332071304321,0.11958730220794678,-0.7598340511322021
44,-0.007564718835055828,0.035387542098760605,1.0954337120056152,-1.2418590784072876,1.8005882501602173,0.11993516236543655,-1.5727698802947998,-0.9431730508804321,0.009046447463333607,-0.00035148911410942674,-1.6088976860046387,1.3734997510910034,-1.5840202569961548,-0.09838224202394485,0.6149610280990601,0.565880298614502,-0.22166728973388672,0.6361387968063354,-0.7951045036315918,0.009474173188209534,-1.5074223279953003,0.5823332071304321,0.11958730220794678,-0.7598340511322021
45,0.0085801612585783,0.03341237083077431,1.1016746759414673,-1.3765310049057007,1.8220542669296265,0.07465778291225433,-1.5723974704742432,-0.9431730508804321,-0.00971481017768383,-0.0005125548923388124,-1.6107556819915771,1.3497122526168823,-1.5832602977752686,-0.08850076794624329,0.6149610280990601,0.565880298614502,-0.22166728973388672,0.6361387968063354,-0.7951045036315918,0.14569193124771118,-1.5027170181274414,0.5823332071304321,0.11958730220794678,-0.7598340511322021
46,-0.010354484431445599,0.030299082398414612,1.105101227760315,-1.2730194330215454,1.8418015241622925,0.1213143914937973,-1.572090983390808,-0.9431730508804321,0.010401207022368908,-0.0002867855946533382,-1.6051393747329712,1.3824644088745117,-1.5848580598831177,-0.0885850340127945,0.6149610280990601,0.565880298614502,-0.22166728973388672,0.6361387968063354,-0.7951045036315918,0.044013723731040955,-1.501761555671692,0.5823332071304321,0.11958730220794678,-0.7598340511322021
47,0.012530422769486904,0.0277111753821373,1.109849452972412,-1.340334415435791,1.8608953952789307,0.0897710844874382,-1.571838617324829,-0.9431730508804321,-0.011393846943974495,-0.0003821284044533968,-1.6081266403198242,1.363262414932251,-1.5839247703552246,-0.08239591866731644,0.6149610280990601,0.565880298614502,-0.22166728973388672,0.6361387968063354,-0.7951045036315918,0.11234737932682037,-1.4985408782958984,0.5823332071304321,0.11958730220794678,-0.7598340511322021
48,-0.015628276392817497,0.024640439078211784,1.1128212213516235,-1.2989299297332764,1.8791130781173706,0.11040446162223816,-1.571637511253357,-0.9431730508804321,0.01250349823385477,-0.0003105469804722816,-1.6042314767837524,1.3759151697158813,-1.5851243734359741,-0.0837378203868866,0.6149610280990601,0.565880298614502,-0.22166728973388672,0.6361387968063354,-0.7951045036315918,0.0717369094491005,-1.4974666833877563,0.5823332071304321,0.11958730220794678,-0.7598340511322021
49,0.01934020407497883,0.02199447527527809,1.1159287691116333,-1.323075294494629,1.8965224027633667,0.09813091903924942,-1.5714768171310425,-0.9431730508804321,-0.013821911066770554,-0.00030213253921829164,-1.604763388633728,1.366119146347046,-1.5850342512130737,-0.08261879533529282,0.6149610280990601,0.565880298614502,-0.22166728973388672,0.6361387968063354,-0.7951045036315918,0.09690450876951218,-1.4955288171768188,0.5823332071304321,0.11958730220794678,-0.7598340511322021
50,-0.023648058995604515,0.019489172846078873,1.1178479194641113,-1.3058775663375854,1.9132554531097412,0.10602083802223206,-1.5713478326797485,-0.9431730508804321,0.015236834064126015,-0.0002808893914334476,-1.6023609638214111,1.3681919574737549,-1.585986852645874,-0.08497412502765656,0.6149610280990601,0.565880298614502,-0.22166728973388672,0.6361387968063354,-0.7951045036315918,0.08076171576976776,-1.4945290088653564,0.5823332071304321,0.11958730220794678,-0.7598340511322021
51,0.027705959975719452,0.017459644004702568,1.1193993091583252,-1.3140507936477661,1.9292845726013184,0.1008821651339531,-1.5712438821792603,-0.9431730508804321,-0.016756154596805573,-0.0002574459358584136,-1.6017786264419556,1.3610143661499023,-1.5864185094833374,-0.08668462932109833,0.6149610280990601,0.565880298614502,-0.22166728973388672,0.6361387968063354,-0.7951045036315918,0.09007883816957474,-1.4932445287704468,0.5823332071304321,0.11958730220794678,-0.7598340511322021
52,-0.0305921770632267,0.015826459974050522,1.1200380325317383,-1.3051775693893433,1.944745659828186,0.10394852608442307,-1.5711597204208374,-0.9431730508804321,0.01827819086611271,-0.00024767586728557944,-1.5999274253845215,1.358426570892334,-1.5873851776123047,-0.09004514664411545,0.6149610280990601,0.565880298614502,-0.22166728973388672,0.6361387968063354,-0.7951045036315918,0.08240984380245209,-1.492398977279663,0.5823332071304321,0.11958730220794678,-0.7598340511322021
53,0.031247641891241074,0.014630618505179882,1.1201300621032715,-1.307181477546692,1.9596154689788818,0.10134200006723404,-1.5710915327072144,-0.9431730508804321,-0.01974795013666153,-0.00023204679018817842,-1.5988659858703613,1.3516871929168701,-1.5881414413452148,-0.09325920045375824,0.6149610280990601,0.565880298614502,-0.22166728973388672,0.6361387968063354,-0.7951045036315918,0.08565349876880646,-1.491455316543579,0.5823332071304321,0.11958730220794678,-0.7598340511322021
54,-0.0295729823410511,0.013693051412701607,1.119431972503662,-1.3014205694198608,1.9739964008331299,0.10242463648319244,-1.5710362195968628,-0.9431730508804321,0.02104555442929268,-0.00022915625595487654,-1.5971990823745728,1.346971869468689,-1.5891995429992676,-0.097272589802742,0.6149610280990601,0.565880298614502,-0.22166728973388672,0.6361387968063354,-0.7951045036315918,0.08115975558757782,-1.490730881690979,0.5823332071304321,0.11958730220794678,-0.7598340511322021
55,0.026202987879514694,0.012857375666499138,1.1181254386901855,-1.3008816242218018,1.9878759384155273,0.10077257454395294,-1.5709913969039917,-0.9431730508804321,-0.022068282589316368,-0.00022101393551565707,-1.595910668373108,1.3402966260910034,-1.5901671648025513,-0.10120990127325058,0.6149610280990601,0.565880298614502,-0.22166728973388672,0.6361387968063354,-0.7951045036315918,0.08188357949256897,-1.489966869354248,0.5823332071304321,0.11958730220794678,-0.7598340511322021
56,-0.02217157743871212,0.011945380829274654,1.116097092628479,-1.2964918613433838,2.001329183578491,0.10095634311437607,-1.5709549188613892,-0.9431730508804321,0.02268819324672222,-0.00021784944692626595,-1.5943149328231812,1.3347150087356567,-1.591314673423767,-0.10549067705869675,0.6149610280990601,0.565880298614502,-0.22166728973388672,0.6361387968063354,-0.7951045036315918,0.07874306291341782,-1.4893161058425903,0.5823332071304321,0.11958730220794678,-0.7598340511322021
57,0.018224259838461876,0.010885726660490036,1.1134521961212158,-1.2949119806289673,2.014350652694702,0.09969767928123474,-1.5709253549575806,-0.9431730508804321,-0.02282610908150673,-0.00020701499306596816,-1.5929335355758667,1.3282227516174316,-1.592416763305664,-0.10964342206716537,0.6149610280990601,0.565880298614502,-0.22166728973388672,0.6361387968063354,-0.7951045036315918,0.07837431877851486,-1.4886417388916016,0.5823332071304321,0.11958730220794678,-0.7598340511322021
58,-0.01477182935923338,0.009664461947977543,1.1101411581039429,-1.291290521621704,2.0269968509674072,0.09944634139537811,-1.5709013938903809,-0.9431730508804321,0.022452980279922485,-0.00019542935478966683,-1.5913975238800049,1.3224722146987915,-1.5936287641525269,-0.11387335509061813,0.6149610280990601,0.565880298614502,-0.22166728973388672,0.6361387968063354,-0.7951045036315918,0.07591574639081955,-1.4880247116088867,0.5823332071304321,0.11958730220794678,-0.7598340511322021
59,0.01192900538444519,0.008334504440426826,1.106237530708313,-1.2893649339675903,2.0392673015594482,0.09837041795253754,-1.5708818435668945,-0.9431730508804321,-0.021625330671668053,-0.00017659002332948148,-1.5900064706802368,1.3163570165634155,-1.594810962677002,-0.11791010946035385,0.6149610280990601,0.565880298614502,-0.22166728973388672,0.6361387968063354,-0.7951045036315918,0.07508620619773865,-1.4873881340026855,0.5823332071304321,0.11958730220794678,-0.7598340511322021
60,-0.00967477262020111,0.006963582243770361,1.1017265319824219,-1.28630793094635,2.051206350326538,0.0978986918926239,-1.5708659887313843,-0.9431730508804321,0.020451178774237633,-0.00015643051301594824,-1.588543176651001,1.3108469247817993,-1.5960602760314941,-0.12186930328607559,0.6149610280990601,0.565880298614502,-0.22166728973388672,0.6361387968063354,-0.7951045036315918,0.07304924726486206,-1.4867802858352661,0.5823332071304321,0.11958730220794678,-0.7598340511322021
61,0.007924484089016914,0.0056269667111337185,1.0966688394546509,-1.2843915224075317,2.0628163814544678,0.09692005813121796,-1.5708531141281128,-0.9431730508804321,-0.01906893029808998,-0.00013234384823590517,-1.5871937274932861,1.305273413658142,-1.597283959388733,-0.12558937072753906,0.6149610280990601,0.565880298614502,-0.22166728973388672,0.6361387968063354,-0.7951045036315918,0.07206374406814575,-1.4861558675765991,0.5823332071304321,0.11958730220794678,-0.7598340511322021
62,-0.00658226665109396,0.0043835993856191635,1.0910701751708984,-1.2818313837051392,2.074134349822998,0.09633462876081467,-1.5708425045013428,-0.9431730508804321,0.01760529913008213,-0.00010893773287534714,-1.5858196020126343,1.3002442121505737,-1.5985469818115234,-0.12914645671844482,0.6149610280990601,0.565880298614502,-0.22166728973388672,0.6361387968063354,-0.7951045036315918,0.0703391432762146,-1.485546588897705,0.5823332071304321,0.11958730220794678,-0.7598340511322021
63,0.005559766199439764,0.0032766868826001883,1.084985375404358,-1.2801098823547363,2.0851638317108154,0.0954168289899826,-1.5708340406417847,-0.9431730508804321,-0.016162775456905365,-8.52190496516414e-05,-1.5845452547073364,1.2953170537948608,-1.5997841358184814,-0.13244174420833588,0.6149610280990601,0.565880298614502,-0.22166728973388672,0.6361387968063354,-0.7951045036315918,0.06935030966997147,-1.4849244356155396,0.5823332071304321,0.11958730220794678,-0.7598340511322021
64,-0.00478225015103817,0.0023288875818252563,1.078432559967041,-1.2780156135559082,2.0959362983703613,0.09477458149194717,-1.5708270072937012,-0.9431730508804321,0.014808915555477142,-6.41063234070316e-05,-1.5832756757736206,1.2908935546875,-1.6010422706604004,-0.13553349673748016,0.6149610280990601,0.565880298614502,-0.22166728973388672,0.6361387968063354,-0.7951045036315918,0.06788301467895508,-1.4843120574951172,0.5823332071304321,0.11958730220794678,-0.7598340511322021
65,0.004191816784441471,0.0015476687112823129,1.0714634656906128,-1.276579737663269,2.1064560413360596,0.09390122443437576,-1.5708214044570923,-0.9431730508804321,-0.013583720661699772,-4.497372719924897e-05,-1.5820990800857544,1.2866549491882324,-1.6022731065750122,-0.13836124539375305,0.6149610280990601,0.565880298614502,-0.22166728973388672,0.6361387968063354,-0.7951045036315918,0.06696517020463943,-1.4836912155151367,0.5823332071304321,0.11958730220794678,-0.7598340511322021
66,-0.0037430962547659874,0.0009275054326280951,1.0641030073165894,-1.2749228477478027,2.116750478744507,0.09323414415121078,-1.5708167552947998,-0.9431730508804321,0.012504005804657936,-2.92537242785329e-05,-1.5809446573257446,1.2828795909881592,-1.6035128831863403,-0.14097493886947632,0.6149610280990601,0.565880298614502,-0.22166728973388672,0.6361387968063354,-0.7951045036315918,0.06571817398071289,-1.4830787181854248,0.5823332071304321,0.11958730220794678,-0.7598340511322021
67,0.003403374459594488,0.0004549474106170237,1.0564004182815552,-1.273806095123291,2.126824140548706,0.09239710867404938,-1.5708129405975342,-0.9431730508804321,-0.011573046445846558,-1.6300467905239202e-05,-1.5798779726028442,1.2793203592300415,-1.604724407196045,-0.1433381289243698,0.6149610280990601,0.565880298614502,-0.22166728973388672,0.6361387968063354,-0.7951045036315918,0.0649028792977333,-1.4824618101119995,0.5823332071304321,0.11958730220794678,-0.7598340511322021
68,-0.003147750161588192,0.00011151301441714168,1.0483835935592651,-1.27255117893219,2.1367008686065674,0.09172368049621582,-1.5708098411560059,-0.9431730508804321,0.010784966871142387,-6.551170372404158e-06,-1.578843116760254,1.2761790752410889,-1.6059372425079346,-0.14549638330936432,0.6149610280990601,0.565880298614502,-0.22166728973388672,0.6361387968063354,-0.7951045036315918,0.06384506076574326,-1.4818533658981323,0.5823332071304321,0.11958730220794678,-0.7598340511322021
69,0.0029590607155114412,-0.00012319152301643044,1.0400984287261963,-1.2717514038085938,2.1463847160339355,0.09091842919588089,-1.5708073377609253,-0.9431730508804321,-0.010130290873348713,6.550492344103986e-07,-1.5778911113739014,1.2732528448104858,-1.6071208715438843,-0.14742819964885712,0.6149610280990601,0.565880298614502,-0.22166728973388672,0.6361387968063354,-0.7951045036315918,0.06314018368721008,-1.4812438488006592,0.5823332071304321,0.11958730220794678,-0.7598340511322021
70,-0.0028244599234312773,-0.0002696175070013851,1.0315728187561035,-1.2708550691604614,2.1558969020843506,0.0902496725320816,-1.570805311203003,-0.9431730508804321,0.009597628377377987,5.405019692261703e-06,-1.5769743919372559,1.2706958055496216,-1.6083009243011475,-0.14917612075805664,0.6149610280990601,0.565880298614502,-0.22166728973388672,0.6361387968063354,-0.7951045036315918,0.06224291771650314,-1.4806435108184814,0.5823332071304321,0.11958730220794678,-0.7598340511322021
71,0.002735571935772896,-0.0003468535724096,1.0228493213653564,-1.2703496217727661,2.1652400493621826,0.08947326987981796,-1.5708037614822388,-0.9431730508804321,-0.009176257997751236,8.280675501737278e-06,-1.5761349201202393,1.2683336734771729,-1.6094515323638916,-0.1507275253534317,0.6149610280990601,0.565880298614502,-0.22166728973388672,0.6361387968063354,-0.7951045036315918,0.061644140630960464,-1.4800448417663574,0.5823332071304321,0.11958730220794678,-0.7598340511322021
72,-0.0026864137034863234,-0.00037181092193350196,1.0139541625976562,-1.2697640657424927,2.1744322776794434,0.08881612867116928,-1.5708023309707642,-0.9431730508804321,0.008856234140694141,9.56161329668248e-06,-1.5753306150436401,1.2662912607192993,-1.6105955839157104,-0.15212216973304749,0.6149610280990601,0.565880298614502,-0.22166728973388672,0.6361387968063354,-0.7951045036315918,0.060880910605192184,-1.4794559478759766,0.5823332071304321,0.11958730220794678,-0.7598340511322021
73,0.0026736583095043898,-0.0003588611725717783,1.0049253702163696,-1.2695189714431763,2.1834752559661865,0.08806680887937546,-1.5708011388778687,-0.9431730508804321,-0.008629491552710533,9.68445328908274e-06,-1.5745975971221924,1.2644134759902954,-1.6117100715637207,-0.1533520668745041,0.6149610280990601,0.565880298614502,-0.22166728973388672,0.6361387968063354,-0.7951045036315918,0.06037813425064087,-1.4788705110549927,0.5823332071304321,0.11958730220794678,-0.7598340511322021
74,-0.0026955297216773033,-0.00031968276016414165,0.9957864880561829,-1.2691949605941772,2.1923844814300537,0.08742610365152359,-1.5708003044128418,-0.9431730508804321,0.008489424362778664,8.93626747711096e-06,-1.573897123336792,1.262807846069336,-1.6128164529800415,-0.15445421636104584,0.6149610280990601,0.565880298614502,-0.22166728973388672,0.6361387968063354,-0.7951045036315918,0.059725094586610794,-1.4782953262329102,0.5823332071304321,0.11958730220794678,-0.7598340511322021
75,0.002752019325271249,-0.00026341999182477593,0.9865713119506836,-1.2691717147827148,2.2011594772338867,0.08670283108949661,-1.5707995891571045,-0.9431730508804321,-0.008431392721831799,7.593478130729636e-06,-1.5732619762420654,1.2613327503204346,-1.6138932704925537,-0.1554224193096161,0.6149610280990601,0.565880298614502,-0.22166728973388672,0.6361387968063354,-0.7951045036315918,0.05930634215474129,-1.4777246713638306,0.5823332071304321,0.11958730220794678,-0.7598340511322021
76,-0.0028444703202694654,-0.000196843349840492,0.977299690246582,-1.2690610885620117,2.2098145484924316,0.08608219027519226,-1.5707989931106567,-0.9431730508804321,0.008452201262116432,5.871289431524929e-06,-1.5726553201675415,1.2600865364074707,-1.6149611473083496,-0.1562909334897995,0.6149610280990601,0.565880298614502,-0.22166728973388672,0.6361387968063354,-0.7951045036315918,0.05874264985322952,-1.477164626121521,0.5823332071304321,0.11958730220794678,-0.7598340511322021
77,0.002975693205371499,-0.00012467590568121523,0.9680011868476868,-1.2692219018936157,2.21834659576416,0.08538433164358139,-1.5707985162734985,-0.9431730508804321,-0.00855035986751318,3.9078950067050755e-06,-1.572108268737793,1.2589365243911743,-1.6159995794296265,-0.15705342590808868,0.6149610280990601,0.565880298614502,-0.22166728973388672,0.6361387968063354,-0.7951045036315918,0.05839655548334122,-1.4766100645065308,0.5823332071304321,0.11958730220794678,-0.7598340511322021
78,-0.00315007078461349,-4.983420149073936e-05,0.9586918950080872,-1.2692804336547852,2.2267680168151855,0.08478699624538422,-1.5707981586456299,-0.9431730508804321,0.008725559338927269,1.8272802435603808e-06,-1.5715850591659546,1.2579785585403442,-1.6170289516448975,-0.15774156153202057,0.6149610280990601,0.565880298614502,-0.22166728973388672,0.6361387968063354,-0.7951045036315918,0.05790412053465843,-1.4760663509368896,0.5823332071304321,0.11958730220794678,-0.7598340511322021
79,0.003373573301360011,2.6277539291186258e-05,0.9493973851203918,-1.2695902585983276,2.235074281692505,0.08411412686109543,-1.5707978010177612,-0.9431730508804321,-0.008978880010545254,-3.344733556787105e-07,-1.57111656665802,1.2570847272872925,-1.6180285215377808,-0.15834751725196838,0.6149610280990601,0.565880298614502,-0.22166728973388672,0.6361387968063354,-0.7951045036315918,0.05762111023068428,-1.4755288362503052,0.5823332071304321,0.11958730220794678,-0.7598340511322021
80,-0.003654331201687455,0.00010357718565501273,0.9401299357414246,-1.2697786092758179,2.243276357650757,0.08354295045137405,-1.5707975625991821,-0.9431730508804321,0.009312092326581478,-2.5398499019502196e-06,-1.570666790008545,1.2563529014587402,-1.6190195083618164,-0.15890084207057953,0.6149610280990601,0.565880298614502,-0.22166728973388672,0.6361387968063354,-0.7951045036315918,0.05718490481376648,-1.4750025272369385,0.5823332071304321,0.11958730220794678,-0.7598340511322021
81,0.004002561792731285,0.00018314157205168158,0.9309117794036865,-1.2702076435089111,2.2513673305511475,0.08289474248886108,-1.570797324180603,-0.9431730508804321,-0.009727820754051208,-4.82206132801366e-06,-1.5702682733535767,1.2556564807891846,-1.6199803352355957,-0.1593913435935974,0.6149610280990601,0.565880298614502,-0.22166728973388672,0.6361387968063354,-0.7951045036315918,0.05695752054452896,-1.4744828939437866,0.5823332071304321,0.11958730220794678,-0.7598340511322021
82,-0.004431607201695442,0.0002671297697816044,0.9217514395713806,-1.2704920768737793,2.2593576908111572,0.08235258609056473,-1.570797085762024,-0.9431730508804321,0.01022860687226057,-7.225503850349924e-06,-1.5698829889297485,1.2550997734069824,-1.6209332942962646,-0.15984708070755005,0.6149610280990601,0.565880298614502,-0.22166728973388672,0.6361387968063354,-0.7951045036315918,0.05656476691365242,-1.4739748239517212,0.5823332071304321,0.11958730220794678,-0.7598340511322021
83,0.004957776051014662,0.0003588021208997816,0.9126683473587036,-1.2710156440734863,2.2672383785247803,0.0817285105586052,-1.5707969665527344,-0.9431730508804321,-0.010816761292517185,-9.832151590671856e-06,-1.5695465803146362,1.2545530796051025,-1.6218551397323608,-0.16025474667549133,0.6149610280990601,0.565880298614502,-0.22166728973388672,0.6361387968063354,-0.7951045036315918,0.056388143450021744,-1.473474144935608,0.5823332071304321,0.11958730220794678,-0.7598340511322021
84,-0.005601824261248112,0.00046258093789219856,0.9036673903465271,-1.2713677883148193,2.275019645690918,0.08121809363365173,-1.5707968473434448,-0.9431730508804321,0.011492983438074589,-1.2779135431628674e-05,-1.5692180395126343,1.2541310787200928,-1.6227701902389526,-0.16064181923866272,0.6149610280990601,0.565880298614502,-0.22166728973388672,0.6361387968063354,-0.7951045036315918,0.056028131395578384,-1.4729853868484497,0.5823332071304321,0.11958730220794678,-0.7598340511322021
85,0.00638846680521965,0.0005842734244652092,0.8947658538818359,-1.2719674110412598,2.2826898097991943,0.08061738312244415,-1.5707967281341553,-0.9431730508804321,-0.012255821377038956,-1.619164686417207e-05,-1.5689373016357422,1.2536965608596802,-1.623652696609497,-0.1609913855791092,0.6149610280990601,0.565880298614502,-0.22166728973388672,0.6361387968063354,-0.7951045036315918,0.055899519473314285,-1.4725043773651123,0.5823332071304321,0.11958730220794678,-0.7598340511322021
86,-0.007348093669861555,0.0007312434026971459,0.8859653472900391,-1.2723627090454102,2.2902603149414062,0.0801415890455246,-1.5707966089248657,-0.9431730508804321,0.013099579140543938,-2.0335484805400483e-05,-1.5686589479446411,1.2533788681030273,-1.6245301961898804,-0.16133137047290802,0.6149610280990601,0.565880298614502,-0.22166728973388672,0.6361387968063354,-0.7951045036315918,0.05556253343820572,-1.4720357656478882,0.5823332071304321,0.11958730220794678,-0.7598340511322021
87,0.00851497519761324,0.0009127891389653087,0.877281665802002,-1.273025393486023,2.2977170944213867,0.07956265658140182,-1.5707966089248657,-0.9431730508804321,-0.014013239182531834,-2.5382061721757054e-05,-1.5684287548065186,1.2530279159545898,-1.6253728866577148,-0.16164064407348633,0.6149610280990601,0.565880298614502,-0.22166728973388672,0.6361387968063354,-0.7951045036315918,0.055481716990470886,-1.471575140953064,0.5823332071304321,0.11958730220794678,-0.7598340511322021
88,-0.009927923791110516,0.0011402158997952938,0.8687129616737366,-1.2734426259994507,2.305072784423828,0.07912466675043106,-1.5707964897155762,-0.9431730508804321,0.014977938495576382,-3.1791052606422454e-05,-1.5681949853897095,1.2527927160263062,-1.6262130737304688,-0.16194887459278107,0.6149610280990601,0.565880298614502,-0.22166728973388672,0.6361387968063354,-0.7951045036315918,0.055158186703920364,-1.4711275100708008,0.5823332071304321,0.11958730220794678,-0.7598340511322021
89,0.011624191887676716,0.0014270215760916471,0.8602745532989502,-1.2741605043411255,2.312309980392456,0.07856503129005432,-1.5707964897155762,-0.9431730508804321,-0.015966087579727173,-3.9759241190040484e-05,-1.5680115222930908,1.2525032758712769,-1.627015233039856,-0.16222995519638062,0.6149610280990601,0.565880298614502,-0.22166728973388672,0.6361387968063354,-0.7951045036315918,0.05512720346450806,-1.470687985420227,0.5823332071304321,0.11958730220794678,-0.7598340511322021
90,-0.013634982518851757,0.001788084744475782,0.8519611358642578,-1.2745798826217651,2.319444179534912,0.07816851884126663,-1.5707964897155762,-0.9431730508804321,0.016939440742135048,-5.001349200028926e-05,-1.5678170919418335,1.2523354291915894,-1.62781822681427,-0.1625170260667801,0.6149610280990601,0.565880298614502,-0.22166728973388672,0.6361387968063354,-0.7951045036315918,0.054806388914585114,-1.470261812210083,0.5823332071304321,0.11958730220794678,-0.7598340511322021
91,0.015967821702361107,0.0022384868934750557,0.8437881469726562,-1.2753500938415527,2.3264546394348145,0.07762428373098373,-1.5707963705062866,-0.9431730508804321,-0.017850609496235847,-6.262358510866761e-05,-1.56767737865448,1.2520899772644043,-1.628579020500183,-0.16277770698070526,0.6149610280990601,0.565880298614502,-0.22166728973388672,0.6361387968063354,-0.7951045036315918,0.054829664528369904,-1.469843864440918,0.5823332071304321,0.11958730220794678,-0.7598340511322021
92,-0.018590236082673073,0.002789813093841076,0.835746705532074,-1.275750994682312,2.333360195159912,0.07727375626564026,-1.5707964897155762,-0.9431730508804321,0.01864428073167801,-7.857145828893408e-05,-1.5675177574157715,1.2519794702529907,-1.6293455362319946,-0.1630508154630661,0.6149610280990601,0.565880298614502,-0.22166728973388672,0.6361387968063354,-0.7951045036315918,0.05449840426445007,-1.469439148902893,0.5823332071304321,0.11958730220794678,-0.7598340511322021
93,0.02139534056186676,0.0034454683773219585,0.8278534412384033,-1.276576042175293,2.3401355743408203,0.07673884183168411,-1.5707963705062866,-0.9431730508804321,-0.01926356926560402,-9.724681149236858e-05,-1.567419409751892,1.2517632246017456,-1.6300641298294067,-0.1632958948612213,0.6149610280990601,0.565880298614502,-0.22166728973388672,0.6361387968063354,-0.7951045036315918,0.05458375811576843,-1.4690425395965576,0.5823332071304321,0.11958730220794678,-0.7598340511322021
94,-0.02418520487844944,0.004192044958472252,0.8200950026512146,-1.2769365310668945,2.3468053340911865,0.07644002139568329,-1.5707964897155762,-0.9431730508804321,0.019655866548419,-0.0001196188386529684,-1.5672894716262817,1.2517039775848389,-1.6307950019836426,-0.163560152053833,0.6149610280990601,0.565880298614502,-0.22166728973388672,0.6361387968063354,-0.7951045036315918,0.05422518774867058,-1.4686596393585205,0.5823332071304321,0.11958730220794678,-0.7598340511322021
95,0.026658549904823303,0.004992532543838024,0.812490701675415,-1.2778269052505493,2.353337287902832,0.07590549439191818,-1.5707963705062866,-0.9431730508804321,-0.019783955067396164,-0.00014311146514955908,-1.5672305822372437,1.2515040636062622,-1.6314700841903687,-0.1637924611568451,0.6149610280990601,0.565880298614502,-0.22166728973388672,0.6361387968063354,-0.7951045036315918,0.05438584089279175,-1.4682847261428833,0.5823332071304321,0.11958730220794678,-0.7598340511322021
96,-0.028471501544117928,0.0057799299247562885,0.8050218224525452,-1.278123378753662,2.359764337539673,0.07566624879837036,-1.5707964897155762,-0.9431730508804321,0.019632786512374878,-0.00016837820294313133,-1.5671242475509644,1.2514973878860474,-1.6321669816970825,-0.16405199468135834,0.6149610280990601,0.565880298614502,-0.22166728973388672,0.6361387968063354,-0.7951045036315918,0.053979482501745224,-1.4679242372512817,0.5823332071304321,0.11958730220794678,-0.7598340511322021
97,0.02932209149003029,0.006465375889092684,0.7977119088172913,-1.2791038751602173,2.3660449981689453,0.07511927932500839,-1.570796251296997,-0.9431730508804321,-0.019218290224671364,-0.00018938550783786923,-1.5671038627624512,1.2513065338134766,-1.6327967643737793,-0.1642722338438034,0.6149610280990601,0.565880298614502,-0.22166728973388672,0.6361387968063354,-0.7951045036315918,0.05423929542303085,-1.467572569847107,0.5823332071304321,0.11958730220794678,-0.7598340511322021
98,-0.029084254056215286,0.006953578907996416,0.7905351519584656,-1.279309630393982,2.3722243309020996,0.07495246082544327,-1.5707963705062866,-0.9431730508804321,0.018584562465548515,-0.00020800450874958187,-1.567014217376709,1.2513656616210938,-1.6334614753723145,-0.1645289957523346,0.6149610280990601,0.565880298614502,-0.22166728973388672,0.6361387968063354,-0.7951045036315918,0.053759414702653885,-1.467237114906311,0.5823332071304321,0.11958730220794678,-0.7598340511322021
99,0.02783600427210331,0.007175153121352196,0.7835217714309692,-1.2804205417633057,2.3782477378845215,0.0743761658668518,-1.5707963705062866,-0.9431730508804321,-0.017799165099859238,-0.00021500095317605883,-1.5670340061187744,1.2511813640594482,-1.6340421438217163,-0.16473349928855896,0.6149610280990601,0.565880298614502,-0.22166728973388672,0.6361387968063354,-0.7951045036315918,0.054156046360731125,-1.466912031173706,0.5823332071304321,0.11958730220794678,-0.7598340511322021
