,0,1,2,3,4,5,6,7,8,9,10,11,12,13,14,15,16,17,18,19,20,21,22,23,24,25,26,27,28,29,30,31,32,33,34,35
0,0.05635690689086914,0.695500373840332,0.015123367309570312,0.9891067743301392,-0.12115728855133057,0.36938583850860596,0.9833029508590698,-0.07724440097808838,-0.751784086227417,0.8161517381668091,-0.1717374324798584,0.43532752990722656,-0.03325355052947998,-0.17630207538604736,0.9417731761932373,-0.38836777210235596,-0.7287920713424683,0.7547745704650879,-0.35869085788726807,0.9336133003234863,0.7987856864929199,0.9243916273117065,0.6466907262802124,0.4833616018295288,-0.4370957612991333,0.46372902393341064,0.9218478202819824,0.9552948474884033,0.8427819013595581,0.7553308010101318,-0.3056049346923828,-0.36784613132476807,-0.2750641107559204,0.85498046875,-0.5144870281219482,0.06791174411773682
1,0.10883261263370514,0.7479695081710815,0.06759990751743317,0.9366302490234375,-0.1736336350440979,0.4218623638153076,0.9308264255523682,-0.024767884984612465,-0.6993081569671631,0.8161517381668091,-0.1717374324798584,0.43532752990722656,-0.0857282355427742,-0.22877861559391022,0.9942497611045837,-0.44084426760673523,-0.7812685966491699,0.8072510957717896,-0.3062143623828888,0.8811367750167847,0.7987856864929199,0.9243916273117065,0.6466907262802124,0.4833616018295288,-0.4370957612991333,0.46372902393341064,0.9218478202819824,0.9552948474884033,0.8427819013595581,0.7028542160987854,-0.25312840938568115,-0.36784613132476807,-0.2750641107559204,0.85498046875,-0.5144870281219482,0.06791174411773682
2,0.09748664498329163,0.6959577798843384,0.10036784410476685,0.8945489525794983,-0.21310152113437653,0.460712194442749,0.9607817530632019,0.011084705591201782,-0.6614301800727844,0.8161517381668091,-0.1717374324798584,0.43532752990722656,-0.13637103140354156,-0.26420286297798157,1.0301262140274048,-0.4754412770271301,-0.810021698474884,0.8353171348571777,-0.26872017979621887,0.8520223498344421,0.7987856864929199,0.9243916273117065,0.6466907262802124,0.4833616018295288,-0.4370957612991333,0.46372902393341064,0.9218478202819824,0.9552948474884033,0.8427819013595581,0.665232241153717,-0.2193169742822647,-0.36784613132476807,-0.2750641107559204,0.85498046875,-0.5144870281219482,0.06791174411773682
3,0.050742778927087784,0.6454617381095886,0.1307138353586197,0.848748505115509,-0.2538532316684723,0.4993380904197693,1.008323073387146,0.044225454330444336,-0.62446528673172,0.8161517381668091,-0.1717374324798584,0.43532752990722656,-0.188617542386055,-0.295527845621109,1.0632975101470947,-0.5077377557754517,-0.8339288830757141,0.8540921807289124,-0.23764385282993317,0.8302842378616333,0.7987856864929199,0.9243916273117065,0.6466907262802124,0.4833616018295288,-0.4370957612991333,0.46372902393341064,0.9218478202819824,0.9552948474884033,0.8427819013595581,0.6290408968925476,-0.18942970037460327,-0.36784613132476807,-0.2750641107559204,0.85498046875,-0.5144870281219482,0.06791174411773682
4,0.007028928957879543,0.5939261317253113,0.15995104610919952,0.7996425628662109,-0.29904526472091675,0.5398513078689575,1.0584704875946045,0.07660552859306335,-0.5859238505363464,0.8161517381668091,-0.1717374324798584,0.43532752990722656,-0.2397450953722,-0.3250695466995239,1.095788836479187,-0.5393479466438293,-0.8554660081863403,0.8659600019454956,-0.21189060807228088,0.8135383129119873,0.7987856864929199,0.9243916273117065,0.6466907262802124,0.4833616018295288,-0.4370957612991333,0.46372902393341064,0.9218478202819824,0.9552948474884033,0.8427819013595581,0.5924602150917053,-0.16059084236621857,-0.36784613132476807,-0.2750641107559204,0.85498046875,-0.5144870281219482,0.06791174411773682
5,-0.011642631143331528,0.5410491824150085,0.18727579712867737,0.7478997707366943,-0.3475918173789978,0.582692563533783,1.109124779701233,0.10813530534505844,-0.5455605387687683,0.8161517381668091,-0.1717374324798584,0.43532752990722656,-0.2873936593532562,-0.3528905212879181,1.1276570558547974,-0.5700830817222595,-0.8749096989631653,0.8724151253700256,-0.19182142615318298,0.800910234451294,0.7987856864929199,0.9243916273117065,0.6466907262802124,0.4833616018295288,-0.4370957612991333,0.46372902393341064,0.9218478202819824,0.9552948474884033,0.8427819013595581,0.5552075505256653,-0.1317947506904602,-0.36784613132476807,-0.2750641107559204,0.85498046875,-0.5144870281219482,0.06791174411773682
6,0.006727473810315132,0.4869675040245056,0.21112200617790222,0.6940915584564209,-0.39756831526756287,0.6278221011161804,1.1594094038009644,0.1382337361574173,-0.5047705173492432,0.8161517381668091,-0.1717374324798584,0.43532752990722656,-0.3300188183784485,-0.3788028955459595,1.1585639715194702,-0.599587082862854,-0.8926684260368347,0.8754010796546936,-0.17823068797588348,0.7912881374359131,0.7987856864929199,0.9243916273117065,0.6466907262802124,0.4833616018295288,-0.4370957612991333,0.46372902393341064,0.9218478202819824,0.9552948474884033,0.8427819013595581,0.517296314239502,-0.10262271761894226,-0.36784613132476807,-0.2750641107559204,0.85498046875,-0.5144870281219482,0.06791174411773682
7,0.020601633936166763,0.4320853650569916,0.22947674989700317,0.6387894153594971,-0.44682058691978455,0.674999475479126,1.2085988521575928,0.16618360579013824,-0.4654962122440338,0.8161517381668091,-0.1717374324798584,0.43532752990722656,-0.3673039674758911,-0.40276095271110535,1.1881077289581299,-0.6276805400848389,-0.9094707369804382,0.8769970536231995,-0.1714233011007309,0.7834517359733582,0.7987856864929199,0.9243916273117065,0.6466907262802124,0.4833616018295288,-0.4370957612991333,0.46372902393341064,0.9218478202819824,0.9552948474884033,0.8427819013595581,0.47880420088768005,-0.0729505643248558,-0.36784613132476807,-0.2750641107559204,0.85498046875,-0.5144870281219482,0.06791174411773682
8,0.018726203590631485,0.377200722694397,0.24025718867778778,0.5825191736221313,-0.4929407835006714,0.7238593697547913,1.2559118270874023,0.191299706697464,-0.43045574426651,0.8161517381668091,-0.1717374324798584,0.43532752990722656,-0.3987250030040741,-0.42452770471572876,1.2157632112503052,-0.6543570756912231,-0.9262632131576538,0.87882399559021,-0.17055906355381012,0.7763627767562866,0.7987856864929199,0.9243916273117065,0.6466907262802124,0.4833616018295288,-0.4370957612991333,0.46372902393341064,0.9218478202819824,0.9552948474884033,0.8427819013595581,0.43980807065963745,-0.04301223158836365,-0.36784613132476807,-0.2750641107559204,0.85498046875,-0.5144870281219482,0.06791174411773682
9,0.02619459107518196,0.32313773036003113,0.2419530302286148,0.5257921814918518,-0.5332564115524292,0.7740001082420349,1.300470232963562,0.2131160944700241,-0.4027828574180603,0.8161517381668091,-0.1717374324798584,0.43532752990722656,-0.4231664836406708,-0.44393235445022583,1.2410775423049927,-0.6797575354576111,-0.9439865946769714,0.8816697597503662,-0.17353731393814087,0.7695184350013733,0.7987856864929199,0.9243916273117065,0.6466907262802124,0.4833616018295288,-0.4370957612991333,0.46372902393341064,0.9218478202819824,0.9552948474884033,0.8427819013595581,0.40034472942352295,-0.013348770327866077,-0.36784613132476807,-0.2750641107559204,0.85498046875,-0.5144870281219482,0.06791174411773682
10,0.007316071540117264,0.2706776559352875,0.2343890517950058,0.4691840410232544,-0.5650404691696167,0.8249737024307251,1.341312289237976,0.23138748109340668,-0.38509705662727356,0.8161517381668091,-0.1717374324798584,0.43532752990722656,-0.4409143626689911,-0.4611404240131378,1.263802409172058,-0.70405113697052,-0.9631586074829102,0.8854928016662598,-0.17779703438282013,0.7631443738937378,0.7987856864929199,0.9243916273117065,0.6466907262802124,0.4833616018295288,-0.4370957612991333,0.46372902393341064,0.9218478202819824,0.9552948474884033,0.8427819013595581,0.36056438088417053,0.015333356335759163,-0.36784613132476807,-0.2750641107559204,0.85498046875,-0.5144870281219482,0.06791174411773682
11,0.05559120699763298,0.22077032923698425,0.21893958747386932,0.4132031500339508,-0.5866167545318604,0.8763511776924133,1.3773651123046875,0.2461465299129486,-0.3788954019546509,0.8161517381668091,-0.1717374324798584,0.43532752990722656,-0.4505120813846588,-0.4761546850204468,1.2837905883789062,-0.7271041870117188,-0.9837490916252136,0.8897725939750671,-0.1811390370130539,0.757964015007019,0.7987856864929199,0.9243916273117065,0.6466907262802124,0.4833616018295288,-0.4370957612991333,0.46372902393341064,0.9218478202819824,0.9552948474884033,0.8427819013595581,0.32060906291007996,0.04186607897281647,-0.36784613132476807,-0.2750641107559204,0.85498046875,-0.5144870281219482,0.06791174411773682
12,-0.030369922518730164,0.1743406057357788,0.1981666386127472,0.3585452437400818,-0.5986548662185669,0.9276084303855896,1.4075790643692017,0.25743165612220764,-0.38442906737327576,0.8161517381668091,-0.1717374324798584,0.43532752990722656,-0.4571305215358734,-0.48967012763023376,1.3011655807495117,-0.7490997314453125,-1.0053393840789795,0.893895149230957,-0.18257810175418854,0.7547669410705566,0.7987856864929199,0.9243916273117065,0.6466907262802124,0.4833616018295288,-0.4370957612991333,0.46372902393341064,0.9218478202819824,0.9552948474884033,0.8427819013595581,0.28110843896865845,0.06575296819210052,-0.36784613132476807,-0.2750641107559204,0.85498046875,-0.5144870281219482,0.06791174411773682
13,0.05021804943680763,0.13260506093502045,0.17472414672374725,0.3056195378303528,-0.6043682098388672,0.978432834148407,1.4310013055801392,0.2657357454299927,-0.3959119915962219,0.8161517381668091,-0.1717374324798584,0.43532752990722656,-0.4517650306224823,-0.5009787082672119,1.315962314605713,-0.7686556577682495,-1.0266132354736328,0.8979838490486145,-0.18219245970249176,0.7543182373046875,0.7987856864929199,0.9243916273117065,0.6466907262802124,0.4833616018295288,-0.4370957612991333,0.46372902393341064,0.9218478202819824,0.9552948474884033,0.8427819013595581,0.24199503660202026,0.08418634533882141,-0.36784613132476807,-0.2750641107559204,0.85498046875,-0.5144870281219482,0.06791174411773682
14,-0.0008908167947083712,0.09640318155288696,0.15107570588588715,0.2551453709602356,-0.6077015995979309,1.0283877849578857,1.4470854997634888,0.2712916433811188,-0.41564974188804626,0.8161517381668091,-0.1717374324798584,0.43532752990722656,-0.4487951993942261,-0.5114001035690308,1.328540325164795,-0.7869337201118469,-1.047512412071228,0.9012598991394043,-0.17993955314159393,0.7564207911491394,0.7987856864929199,0.9243916273117065,0.6466907262802124,0.4833616018295288,-0.4370957612991333,0.46372902393341064,0.9218478202819824,0.9552948474884033,0.8427819013595581,0.20446647703647614,0.09880615770816803,-0.36784613132476807,-0.2750641107559204,0.85498046875,-0.5144870281219482,0.06791174411773682
15,0.03170636296272278,0.06662967056035995,0.12900632619857788,0.20758751034736633,-0.6112277507781982,1.0772547721862793,1.4557068347930908,0.2746562659740448,-0.4348685145378113,0.8161517381668091,-0.1717374324798584,0.43532752990722656,-0.4385642409324646,-0.5201636552810669,1.3390733003616333,-0.8023321628570557,-1.0664623975753784,0.904584527015686,-0.17702817916870117,0.7608903646469116,0.7987856864929199,0.9243916273117065,0.6466907262802124,0.4833616018295288,-0.4370957612991333,0.46372902393341064,0.9218478202819824,0.9552948474884033,0.8427819013595581,0.1685120016336441,0.10668180882930756,-0.36784613132476807,-0.2750641107559204,0.85498046875,-0.5144870281219482,0.06791174411773682
16,0.006577704567462206,0.04348159581422806,0.10949024558067322,0.1634954810142517,-0.6162856221199036,1.1247767210006714,1.4574018716812134,0.2763216495513916,-0.45653051137924194,0.8161517381668091,-0.1717374324798584,0.43532752990722656,-0.4303387403488159,-0.5280134081840515,1.3478823900222778,-0.8158648014068604,-1.0837019681930542,0.9071013927459717,-0.17284177243709564,0.7668153643608093,0.7987856864929199,0.9243916273117065,0.6466907262802124,0.4833616018295288,-0.4370957612991333,0.46372902393341064,0.9218478202819824,0.9552948474884033,0.8427819013595581,0.1350080519914627,0.10996732860803604,-0.36784613132476807,-0.2750641107559204,0.85498046875,-0.5144870281219482,0.06791174411773682
17,0.02723989635705948,0.026688944548368454,0.0929151177406311,0.1232834979891777,-0.62287437915802,1.1708214282989502,1.4530878067016602,0.2767511308193207,-0.4760221242904663,0.8161517381668091,-0.1717374324798584,0.43532752990722656,-0.41934841871261597,-0.5346618890762329,1.3552216291427612,-0.827001690864563,-1.0985666513442993,0.909308910369873,-0.16789492964744568,0.7734643220901489,0.7987856864929199,0.9243916273117065,0.6466907262802124,0.4833616018295288,-0.4370957612991333,0.46372902393341064,0.9218478202819824,0.9552948474884033,0.8427819013595581,0.1041291207075119,0.10787582397460938,-0.36784613132476807,-0.2750641107559204,0.85498046875,-0.5144870281219482,0.06791174411773682
18,0.00489310035482049,0.015345926396548748,0.07900897413492203,0.08728836476802826,-0.6308384537696838,1.2152525186538696,1.4440275430679321,0.27632859349250793,-0.4966636002063751,0.8161517381668091,-0.1717374324798584,0.43532752990722656,-0.41128766536712646,-0.5406363606452942,1.361395001411438,-0.8367636203765869,-1.1116411685943604,0.9104938507080078,-0.16168543696403503,0.7800867557525635,0.7987856864929199,0.9243916273117065,0.6466907262802124,0.4833616018295288,-0.4370957612991333,0.46372902393341064,0.9218478202819824,0.9552948474884033,0.8427819013595581,0.07642623782157898,0.10309803485870361,-0.36784613132476807,-0.2750641107559204,0.85498046875,-0.5144870281219482,0.06791174411773682
19,0.02630501426756382,0.008373776450753212,0.06743960827589035,0.055751606822013855,-0.6396918892860413,1.2579755783081055,1.4314794540405273,0.2753003239631653,-0.5155216455459595,0.8161517381668091,-0.1717374324798584,0.43532752990722656,-0.40167754888534546,-0.5457649230957031,1.3666326999664307,-0.844981849193573,-1.1227468252182007,0.9112071394920349,-0.15508563816547394,0.7862630486488342,0.7987856864929199,0.9243916273117065,0.6466907262802124,0.4833616018295288,-0.4370957612991333,0.46372902393341064,0.9218478202819824,0.9552948474884033,0.8427819013595581,0.05193083733320236,0.09539622068405151,-0.36784613132476807,-0.2750641107559204,0.85498046875,-0.5144870281219482,0.06791174411773682
20,-0.0016817728755995631,0.004507915116846561,0.05759541690349579,0.02878355048596859,-0.6491437554359436,1.2988818883895874,1.4167157411575317,0.27382156252861023,-0.5359058380126953,0.8161517381668091,-0.1717374324798584,0.43532752990722656,-0.39552515745162964,-0.5505270957946777,1.371179461479187,-0.852569580078125,-1.1326218843460083,0.9109210968017578,-0.14793042838573456,0.791700005531311,0.7987856864929199,0.9243916273117065,0.6466907262802124,0.4833616018295288,-0.4370957612991333,0.46372902393341064,0.9218478202819824,0.9552948474884033,0.8427819013595581,0.030974645167589188,0.08766025304794312,-0.36784613132476807,-0.2750641107559204,0.85498046875,-0.5144870281219482,0.06791174411773682
21,0.028694525361061096,0.002795657142996788,0.04925549030303955,0.006384208798408508,-0.6587505340576172,1.3378872871398926,1.4007648229599,0.2719581723213196,-0.5545312762260437,0.8161517381668091,-0.1717374324798584,0.43532752990722656,-0.38743871450424194,-0.5546784400939941,1.3751685619354248,-0.8591827154159546,-1.1410932540893555,0.9104161858558655,-0.14121171832084656,0.7963616251945496,0.7987856864929199,0.9243916273117065,0.6466907262802124,0.4833616018295288,-0.4370957612991333,0.46372902393341064,0.9218478202819824,0.9552948474884033,0.8427819013595581,0.013304712250828743,0.07868286967277527,-0.36784613132476807,-0.2750641107559204,0.85498046875,-0.5144870281219482,0.06791174411773682
22,-0.01146642491221428,0.002284363843500614,0.04192144051194191,-0.01160509418696165,-0.6683273911476135,1.374898076057434,1.3845633268356323,0.2697361409664154,-0.5748144388198853,0.8161517381668091,-0.1717374324798584,0.43532752990722656,-0.38334590196609497,-0.5586876273155212,1.3787623643875122,-0.8655937314033508,-1.1488991975784302,0.9091343283653259,-0.13448768854141235,0.8002227544784546,0.7987856864929199,0.9243916273117065,0.6466907262802124,0.4833616018295288,-0.4370957612991333,0.46372902393341064,0.9218478202819824,0.9552948474884033,0.8427819013595581,-0.0008855368942022324,0.07169497758150101,-0.36784613132476807,-0.2750641107559204,0.85498046875,-0.5144870281219482,0.06791174411773682
23,0.033192090690135956,0.002577308565378189,0.03576960414648056,-0.025447554886341095,-0.6775374412536621,1.4098503589630127,1.3687334060668945,0.2671748101711273,-0.5926938652992249,0.8161517381668091,-0.1717374324798584,0.43532752990722656,-0.37634557485580444,-0.5621728301048279,1.3819879293441772,-0.8712030053138733,-1.1556771993637085,0.9080199003219604,-0.12877707183361053,0.8034378886222839,0.7987856864929199,0.9243916273117065,0.6466907262802124,0.4833616018295288,-0.4370957612991333,0.46372902393341064,0.9218478202819824,0.9552948474884033,0.8427819013595581,-0.01219826377928257,0.06360230594873428,-0.36784613132476807,-0.2750641107559204,0.85498046875,-0.5144870281219482,0.06791174411773682
24,-0.01892908290028572,0.003048722632229328,0.030277550220489502,-0.035525739192962646,-0.6863479018211365,1.4426755905151367,1.3538426160812378,0.26426246762275696,-0.6121319532394409,0.8161517381668091,-0.1717374324798584,0.43532752990722656,-0.37386608123779297,-0.5656346082687378,1.384960651397705,-0.8767738938331604,-1.1621659994125366,0.9063231348991394,-0.12311775237321854,0.8060330748558044,0.7987856864929199,0.9243916273117065,0.6466907262802124,0.4833616018295288,-0.4370957612991333,0.46372902393341064,0.9218478202819824,0.9552948474884033,0.8427819013595581,-0.02042481303215027,0.05884397029876709,-0.36784613132476807,-0.2750641107559204,0.85498046875,-0.5144870281219482,0.06791174411773682
25,0.03257651999592781,0.0038294242694973946,0.026000432670116425,-0.04229166358709335,-0.6944915652275085,1.4733402729034424,1.3401397466659546,0.26104816794395447,-0.6287556886672974,0.8161517381668091,-0.1717374324798584,0.43532752990722656,-0.36785179376602173,-0.568604052066803,1.3876338005065918,-0.8815867900848389,-1.167842149734497,0.9050272107124329,-0.11883425712585449,0.8082224130630493,0.7987856864929199,0.9243916273117065,0.6466907262802124,0.4833616018295288,-0.4370957612991333,0.46372902393341064,0.9218478202819824,0.9552948474884033,0.8427819013595581,-0.026485975831747055,0.05215659737586975,-0.36784613132476807,-0.2750641107559204,0.85498046875,-0.5144870281219482,0.06791174411773682
26,-0.017669517546892166,0.00437407661229372,0.022149192169308662,-0.04621637612581253,-0.702078640460968,1.5018069744110107,1.3279061317443848,0.2574986219406128,-0.6465192437171936,0.8161517381668091,-0.1717374324798584,0.43532752990722656,-0.36604687571525574,-0.5715683698654175,1.3901119232177734,-0.8863686919212341,-1.1733907461166382,0.9033249616622925,-0.11432990431785583,0.8099913597106934,0.7987856864929199,0.9243916273117065,0.6466907262802124,0.4833616018295288,-0.4370957612991333,0.46372902393341064,0.9218478202819824,0.9552948474884033,0.8427819013595581,-0.030064290389418602,0.04936542734503746,-0.36784613132476807,-0.2750641107559204,0.85498046875,-0.5144870281219482,0.06791174411773682
27,0.0257490873336792,0.005144829396158457,0.019520830363035202,-0.04781865328550339,-0.7088664770126343,1.5280730724334717,1.3171197175979614,0.25370359420776367,-0.6618028283119202,0.8161517381668091,-0.1717374324798584,0.43532752990722656,-0.36122798919677734,-0.5741121768951416,1.392319917678833,-0.8904989361763,-1.1783020496368408,0.9020185470581055,-0.11143641918897629,0.8115463852882385,0.7987856864929199,0.9243916273117065,0.6466907262802124,0.4833616018295288,-0.4370957612991333,0.46372902393341064,0.9218478202819824,0.9552948474884033,0.8427819013595581,-0.03220193833112717,0.044204600155353546,-0.36784613132476807,-0.2750641107559204,0.85498046875,-0.5144870281219482,0.06791174411773682
28,-0.012352047488093376,0.005591146647930145,0.017139296978712082,-0.047538742423057556,-0.7150768637657166,1.552134394645691,1.307881474494934,0.24961067736148834,-0.6775578856468201,0.8161517381668091,-0.1717374324798584,0.43532752990722656,-0.35945576429367065,-0.5766071677207947,1.3943520784378052,-0.8945301175117493,-1.1830929517745972,0.9004894495010376,-0.10803598165512085,0.8128440976142883,0.7987856864929199,0.9243916273117065,0.6466907262802124,0.4833616018295288,-0.4370957612991333,0.46372902393341064,0.9218478202819824,0.9552948474884033,0.8427819013595581,-0.032565269619226456,0.04249510169029236,-0.36784613132476807,-0.2750641107559204,0.85498046875,-0.5144870281219482,0.06791174411773682
29,0.01911579817533493,0.006248572841286659,0.015789004042744637,-0.045853253453969955,-0.7204691767692566,1.5740188360214233,1.3000074625015259,0.2453238070011139,-0.6914194822311401,0.8161517381668091,-0.1717374324798584,0.43532752990722656,-0.355644553899765,-0.5787718296051025,1.3961447477340698,-0.8980472683906555,-1.1873886585235596,0.8992573618888855,-0.10627183318138123,0.8140486478805542,0.7987856864929199,0.9243916273117065,0.6466907262802124,0.4833616018295288,-0.4370957612991333,0.46372902393341064,0.9218478202819824,0.9552948474884033,0.8427819013595581,-0.03207704424858093,0.03869825601577759,-0.36784613132476807,-0.2750641107559204,0.85498046875,-0.5144870281219482,0.06791174411773682
30,-0.00808365922421217,0.006624264642596245,0.014550190418958664,-0.04311593994498253,-0.725342333316803,1.5937570333480835,1.2935048341751099,0.24078769981861115,-0.70526123046875,0.8161517381668091,-0.1717374324798584,0.43532752990722656,-0.35382968187332153,-0.580851674079895,1.3977717161178589,-0.901416540145874,-1.1915310621261597,0.8979288339614868,-0.10384698957204819,0.815112292766571,0.7987856864929199,0.9243916273117065,0.6466907262802124,0.4833616018295288,-0.4370957612991333,0.46372902393341064,0.9218478202819824,0.9552948474884033,0.8427819013595581,-0.030473165214061737,0.037546444684267044,-0.36784613132476807,-0.2750641107559204,0.85498046875,-0.5144870281219482,0.06791174411773682
31,0.014865693636238575,0.007185341790318489,0.014068866148591042,-0.039702415466308594,-0.7294413447380066,1.6114075183868408,1.2881194353103638,0.2360977977514267,-0.7176365852355957,0.8161517381668091,-0.1717374324798584,0.43532752990722656,-0.3506568968296051,-0.5826708078384399,1.3991914987564087,-0.9043799638748169,-1.1952687501907349,0.896818995475769,-0.10291706770658493,0.8161585927009583,0.7987856864929199,0.9243916273117065,0.6466907262802124,0.4833616018295288,-0.4370957612991333,0.46372902393341064,0.9218478202819824,0.9552948474884033,0.8427819013595581,-0.028476106002926826,0.034730251878499985,-0.36784613132476807,-0.2750641107559204,0.85498046875,-0.5144870281219482,0.06791174411773682
32,-0.005519042257219553,0.007515595760196447,0.013573048636317253,-0.03586369752883911,-0.7331234812736511,1.6270341873168945,1.2838263511657715,0.23120558261871338,-0.7297549843788147,0.8161517381668091,-0.1717374324798584,0.43532752990722656,-0.34885573387145996,-0.5843947529792786,1.400460124015808,-0.9071855545043945,-1.198831558227539,0.8956770896911621,-0.10125625878572464,0.8171382546424866,0.7987856864929199,0.9243916273117065,0.6466907262802124,0.4833616018295288,-0.4370957612991333,0.46372902393341064,0.9218478202819824,0.9552948474884033,0.8427819013595581,-0.0258747860789299,0.03392823413014412,-0.36784613132476807,-0.2750641107559204,0.85498046875,-0.5144870281219482,0.06791174411773682
33,0.012499621137976646,0.008003094233572483,0.013599458150565624,-0.031864289194345474,-0.7360969185829163,1.6407235860824585,1.2803624868392944,0.22619274258613586,-0.7406740188598633,0.8161517381668091,-0.1717374324798584,0.43532752990722656,-0.3460581600666046,-0.5859062075614929,1.4015519618988037,-0.9096612930297852,-1.2020444869995117,0.8947071433067322,-0.10092265158891678,0.8181480765342712,0.7987856864929199,0.9243916273117065,0.6466907262802124,0.4833616018295288,-0.4370957612991333,0.46372902393341064,0.9218478202819824,0.9552948474884033,0.8427819013595581,-0.02322058379650116,0.03175519406795502,-0.36784613132476807,-0.2750641107559204,0.85498046875,-0.5144870281219482,0.06791174411773682
34,-0.004162930883467197,0.008286911062896252,0.013503280468285084,-0.027857718989253044,-0.7387780547142029,1.6525665521621704,1.2777124643325806,0.22101764380931854,-0.7512571811676025,0.8161517381668091,-0.1717374324798584,0.43532752990722656,-0.3443060517311096,-0.5873281955718994,1.4025107622146606,-0.9119914770126343,-1.205078125,0.8937338590621948,-0.09979856014251709,0.8191338777542114,0.7987856864929199,0.9243916273117065,0.6466907262802124,0.4833616018295288,-0.4370957612991333,0.46372902393341064,0.9218478202819824,0.9552948474884033,0.8427819013595581,-0.02031485177576542,0.03121444582939148,-0.36784613132476807,-0.2750641107559204,0.85498046875,-0.5144870281219482,0.06791174411773682
35,0.011340595781803131,0.008707010187208652,0.013770617544651031,-0.024011872708797455,-0.7408078908920288,1.662671685218811,1.275631070137024,0.215751051902771,-0.7608192563056946,0.8161517381668091,-0.1717374324798584,0.43532752990722656,-0.3417282700538635,-0.5885721445083618,1.4033194780349731,-0.9140456914901733,-1.2077997922897339,0.8929052352905273,-0.09988675266504288,0.8201776146888733,0.7987856864929199,0.9243916273117065,0.6466907262802124,0.4833616018295288,-0.4370957612991333,0.46372902393341064,0.9218478202819824,0.9552948474884033,0.8427819013595581,-0.017587482929229736,0.02945791184902191,-0.36784613132476807,-0.2750641107559204,0.85498046875,-0.5144870281219482,0.06791174411773682
36,-0.0036233009304851294,0.008931715972721577,0.013835959136486053,-0.02039908803999424,-0.7426831126213074,1.671148657798767,1.2741354703903198,0.21035516262054443,-0.7700527906417847,0.8161517381668091,-0.1717374324798584,0.43532752990722656,-0.3400411307811737,-0.5897395610809326,1.4040144681930542,-0.9159761071205139,-1.2103512287139893,0.8920835852622986,-0.09910048544406891,0.8212172985076904,0.7987856864929199,0.9243916273117065,0.6466907262802124,0.4833616018295288,-0.4370957612991333,0.46372902393341064,0.9218478202819824,0.9552948474884033,0.8427819013595581,-0.014824563637375832,0.02914407104253769,-0.36784613132476807,-0.2750641107559204,0.85498046875,-0.5144870281219482,0.06791174411773682
37,0.010991387069225311,0.0092855766415596,0.014180970378220081,-0.0171136986464262,-0.7439365983009338,1.678120493888855,1.273000717163086,0.20489418506622314,-0.7783970832824707,0.8161517381668091,-0.1717374324798584,0.43532752990722656,-0.33758848905563354,-0.590753972530365,1.404581904411316,-0.9176696538925171,-1.2126214504241943,0.8913900256156921,-0.09949488937854767,0.8223292827606201,0.7987856864929199,0.9243916273117065,0.6466907262802124,0.4833616018295288,-0.4370957612991333,0.46372902393341064,0.9218478202819824,0.9552948474884033,0.8427819013595581,-0.012379186227917671,0.027662158012390137,-0.36784613132476807,-0.2750641107559204,0.85498046875,-0.5144870281219482,0.06791174411773682
38,-0.003713273908942938,0.009441688656806946,0.014269916340708733,-0.014166833832859993,-0.7451902627944946,1.6837064027786255,1.2722872495651245,0.19933061301708221,-0.7864693999290466,0.8161517381668091,-0.1717374324798584,0.43532752990722656,-0.3359772861003876,-0.591707706451416,1.4050534963607788,-0.919264554977417,-1.2147406339645386,0.8907032012939453,-0.09888612478971481,0.823441207408905,0.7987856864929199,0.9243916273117065,0.6466907262802124,0.4833616018295288,-0.4370957612991333,0.46372902393341064,0.9218478202819824,0.9552948474884033,0.8427819013595581,-0.010006525553762913,0.027576224878430367,-0.36784613132476807,-0.2750641107559204,0.85498046875,-0.5144870281219482,0.06791174411773682
39,0.011286333203315735,0.009737575426697731,0.014616497792303562,-0.011603430844843388,-0.7458052635192871,1.6880358457565308,1.2717781066894531,0.19372637569904327,-0.7937548756599426,0.8161517381668091,-0.1717374324798584,0.43532752990722656,-0.3335840106010437,-0.592526376247406,1.4054161310195923,-0.9206506609916687,-1.216605305671692,0.8901342749595642,-0.09952671080827713,0.8246322274208069,0.7987856864929199,0.9243916273117065,0.6466907262802124,0.4833616018295288,-0.4370957612991333,0.46372902393341064,0.9218478202819824,0.9552948474884033,0.8427819013595581,-0.008021557703614235,0.026276303455233574,-0.36784613132476807,-0.2750641107559204,0.85498046875,-0.5144870281219482,0.06791174411773682
40,-0.00439011724665761,0.009825284592807293,0.014665385708212852,-0.009392310865223408,-0.7466108202934265,1.6912286281585693,1.2715853452682495,0.18804048001766205,-0.8008561730384827,0.8161517381668091,-0.1717374324798584,0.43532752990722656,-0.33206242322921753,-0.5933015942573547,1.4056990146636963,-0.9219651222229004,-1.2183458805084229,0.8895647525787354,-0.09896340221166611,0.82581627368927,0.7987856864929199,0.9243916273117065,0.6466907262802124,0.4833616018295288,-0.4370957612991333,0.46372902393341064,0.9218478202819824,0.9552948474884033,0.8427819013595581,-0.006137513555586338,0.02644556388258934,-0.36784613132476807,-0.2750641107559204,0.85498046875,-0.5144870281219482,0.06791174411773682
41,0.012215054593980312,0.010083048604428768,0.014999337494373322,-0.007550895679742098,-0.7466869354248047,1.6934137344360352,1.271477460861206,0.18233703076839447,-0.8072476387023926,0.8161517381668091,-0.1717374324798584,0.43532752990722656,-0.3296722173690796,-0.5939534306526184,1.4058873653411865,-0.9230896830558777,-1.219854712486267,0.889107882976532,-0.09984329342842102,0.8270838260650635,0.7987856864929199,0.9243916273117065,0.6466907262802124,0.4833616018295288,-0.4370957612991333,0.46372902393341064,0.9218478202819824,0.9552948474884033,0.8427819013595581,-0.004666963126510382,0.0252547450363636,-0.36784613132476807,-0.2750641107559204,0.85498046875,-0.5144870281219482,0.06791174411773682
42,-0.005708766635507345,0.01011074148118496,0.014989321120083332,-0.006020712200552225,-0.7472168207168579,1.6947041749954224,1.2716319561004639,0.17656724154949188,-0.8135661482810974,0.8161517381668091,-0.1717374324798584,0.43532752990722656,-0.32826054096221924,-0.5945802927017212,1.4060099124908447,-0.9241717457771301,-1.2212719917297363,0.8886369466781616,-0.09920110553503036,0.8283300995826721,0.7987856864929199,0.9243916273117065,0.6466907262802124,0.4833616018295288,-0.4370957612991333,0.46372902393341064,0.9218478202819824,0.9552948474884033,0.8427819013595581,-0.003268424654379487,0.02572746016085148,-0.36784613132476807,-0.2750641107559204,0.85498046875,-0.5144870281219482,0.06791174411773682
43,0.013865223154425621,0.010360312648117542,0.015334635972976685,-0.004809993784874678,-0.7468030452728271,1.6952238082885742,1.271769642829895,0.17080284655094147,-0.8192237615585327,0.8161517381668091,-0.1717374324798584,0.43532752990722656,-0.32581305503845215,-0.5950891971588135,1.4060485363006592,-0.9250738024711609,-1.2224746942520142,0.8882787227630615,-0.10037001967430115,0.8296665549278259,0.7987856864929199,0.9243916273117065,0.6466907262802124,0.4833616018295288,-0.4370957612991333,0.46372902393341064,0.9218478202819824,0.9552948474884033,0.8427819013595581,-0.0022880919277668,0.024570025503635406,-0.36784613132476807,-0.2750641107559204,0.85498046875,-0.5144870281219482,0.06791174411773682
44,-0.007775359321385622,0.010338650085031986,0.015266251750290394,-0.0038427342660725117,-0.7472517490386963,1.6950721740722656,1.2721623182296753,0.16498145461082458,-0.8249419927597046,0.8161517381668091,-0.1717374324798584,0.43532752990722656,-0.3245407044887543,-0.5955936312675476,1.4060336351394653,-0.9259657859802246,-1.2236237525939941,0.8878867626190186,-0.09950277954339981,0.8309611082077026,0.7987856864929199,0.9243916273117065,0.6466907262802124,0.4833616018295288,-0.4370957612991333,0.46372902393341064,0.9218478202819824,0.9552948474884033,0.8427819013595581,-0.0013106028782203794,0.025413667783141136,-0.36784613132476807,-0.2750641107559204,0.85498046875,-0.5144870281219482,0.06791174411773682
45,0.01634175144135952,0.010616195388138294,0.015667349100112915,-0.0031328226905316114,-0.7463192939758301,1.6943659782409668,1.2724322080612183,0.1591901034116745,-0.8300147652626038,0.8161517381668091,-0.1717374324798584,0.43532752990722656,-0.3219621181488037,-0.5959785580635071,1.4059416055679321,-0.9266781806945801,-1.2245676517486572,0.8876139521598816,-0.10108298063278198,0.8323585987091064,0.7987856864929199,0.9243916273117065,0.6466907262802124,0.4833616018295288,-0.4370957612991333,0.46372902393341064,0.9218478202819824,0.9552948474884033,0.8427819013595581,-0.0007550603477284312,0.024195944890379906,-0.36784613132476807,-0.2750641107559204,0.85498046875,-0.5144870281219482,0.06791174411773682
46,-0.01063517015427351,0.010551558807492256,0.015541999600827694,-0.0025907964445650578,-0.7469491362571716,1.693184733390808,1.2730019092559814,0.15334399044513702,-0.8353071808815002,0.8161517381668091,-0.1717374324798584,0.43532752990722656,-0.3208678066730499,-0.5963826775550842,1.4058070182800293,-0.9274179935455322,-1.2255010604858398,0.8872807025909424,-0.09978152811527252,0.8336867094039917,0.7987856864929199,0.9243916273117065,0.6466907262802124,0.4833616018295288,-0.4370957612991333,0.46372902393341064,0.9218478202819824,0.9552948474884033,0.8427819013595581,-0.00010405760258436203,0.025495346635580063,-0.36784613132476807,-0.2750641107559204,0.85498046875,-0.5144870281219482,0.06791174411773682
47,0.019579900428652763,0.010895468294620514,0.016051802784204483,-0.002248355420306325,-0.7453297972679138,1.6916402578353882,1.2733088731765747,0.14755721390247345,-0.8399306535720825,0.8161517381668091,-0.1717374324798584,0.43532752990722656,-0.31806936860084534,-0.5966584086418152,1.4055988788604736,-0.9279686212539673,-1.2262283563613892,0.8870807886123657,-0.10200393944978714,0.8351396918296814,0.7987856864929199,0.9243916273117065,0.6466907262802124,0.4833616018295288,-0.4370957612991333,0.46372902393341064,0.9218478202819824,0.9552948474884033,0.8427819013595581,0.0001070744328899309,0.024103712290525436,-0.36784613132476807,-0.2750641107559204,0.85498046875,-0.5144870281219482,0.06791174411773682
48,-0.014010757207870483,0.010786260478198528,0.015862181782722473,-0.00200140499509871,-0.7465681433677673,1.6897839307785034,1.2740366458892822,0.1417084038257599,-0.8449600338935852,0.8161517381668091,-0.1717374324798584,0.43532752990722656,-0.3171915113925934,-0.5969809889793396,1.405357837677002,-0.9285894632339478,-1.2269941568374634,0.8867860436439514,-0.09993428736925125,0.8364876508712769,0.7987856864929199,0.9243916273117065,0.6466907262802124,0.4833616018295288,-0.4370957612991333,0.46372902393341064,0.9218478202819824,0.9552948474884033,0.8427819013595581,0.0005326112732291222,0.025947175920009613,-0.36784613132476807,-0.2750641107559204,0.85498046875,-0.5144870281219482,0.06791174411773682
49,0.023010674864053726,0.011232061311602592,0.016531776636838913,-0.0019095874158665538,-0.7438127994537354,1.6877304315567017,1.2742795944213867,0.13595737516880035,-0.8492605090141296,0.8161517381668091,-0.1717374324798584,0.43532752990722656,-0.31408748030662537,-0.5971595048904419,1.4050441980361938,-0.9290032982826233,-1.2275428771972656,0.8866462707519531,-0.10320644825696945,0.8379927277565002,0.7987856864929199,0.9243916273117065,0.6466907262802124,0.4833616018295288,-0.4370957612991333,0.46372902393341064,0.9218478202819824,0.9552948474884033,0.8427819013595581,0.0004801790346391499,0.024273717775940895,-0.36784613132476807,-0.2750641107559204,0.85498046875,-0.5144870281219482,0.06791174411773682
50,-0.01697867177426815,0.011071790009737015,0.016264915466308594,-0.0018495070980861783,-0.7464696168899536,1.6854894161224365,1.275197982788086,0.13012301921844482,-0.8541709184646606,0.8161517381668091,-0.1717374324798584,0.43532752990722656,-0.3134327232837677,-0.5974145531654358,1.404705286026001,-0.9295321106910706,-1.2281821966171265,0.8863720893859863,-0.0998118594288826,0.8393495678901672,0.7987856864929199,0.9243916273117065,0.6466907262802124,0.4833616018295288,-0.4370957612991333,0.46372902393341064,0.9218478202819824,0.9552948474884033,0.8427819013595581,0.0007685344316996634,0.02670832723379135,-0.36784613132476807,-0.2750641107559204,0.85498046875,-0.5144870281219482,0.06791174411773682
51,0.025405779480934143,0.011642574332654476,0.017127661034464836,-0.001915996428579092,-0.7415202856063843,1.6831979751586914,1.2752368450164795,0.12444069981575012,-0.8582771420478821,0.8161517381668091,-0.1717374324798584,0.43532752990722656,-0.30999088287353516,-0.5975078344345093,1.4042950868606567,-0.9298365712165833,-1.2285882234573364,0.8862767815589905,-0.10483560711145401,0.8409026861190796,0.7987856864929199,0.9243916273117065,0.6466907262802124,0.4833616018295288,-0.4370957612991333,0.46372902393341064,0.9218478202819824,0.9552948474884033,0.8427819013595581,0.0005311540444381535,0.02471483126282692,-0.36784613132476807,-0.2750641107559204,0.85498046875,-0.5144870281219482,0.06791174411773682
52,-0.01819922961294651,0.011431962251663208,0.0167827345430851,-0.001962153473868966,-0.7472944855690002,1.6807957887649536,1.2764630317687988,0.11863227188587189,-0.8631856441497803,0.8161517381668091,-0.1717374324798584,0.43532752990722656,-0.309487521648407,-0.5977031588554382,1.4038623571395874,-0.9302906394004822,-1.2291324138641357,0.8860102295875549,-0.09917917102575302,0.842262327671051,0.7987856864929199,0.9243916273117065,0.6466907262802124,0.4833616018295288,-0.4370957612991333,0.46372902393341064,0.9218478202819824,0.9552948474884033,0.8427819013595581,0.0007421729387715459,0.027678631246089935,-0.36784613132476807,-0.2750641107559204,0.85498046875,-0.5144870281219482,0.06791174411773682
53,0.02563212811946869,0.012125799432396889,0.01783432438969612,-0.002119221491739154,-0.737709105014801,1.6784863471984863,1.2760570049285889,0.11305605620145798,-0.8672381639480591,0.8161517381668091,-0.1717374324798584,0.43532752990722656,-0.3057821989059448,-0.5977263450622559,1.403364658355713,-0.9305204749107361,-1.2294331789016724,0.8859376907348633,-0.10715693980455399,0.8438553810119629,0.7987856864929199,0.9243916273117065,0.6466907262802124,0.4833616018295288,-0.4370957612991333,0.46372902393341064,0.9218478202819824,0.9552948474884033,0.8427819013595581,0.0003989070828538388,0.025451265275478363,-0.36784613132476807,-0.2750641107559204,0.85498046875,-0.5144870281219482,0.06791174411773682
54,-0.017085395753383636,0.011883538216352463,0.017438944429159164,-0.002218059031292796,-0.7503771185874939,1.6760751008987427,1.2778764963150024,0.10727685689926147,-0.8722397089004517,0.8161517381668091,-0.1717374324798584,0.43532752990722656,-0.3052736818790436,-0.5978635549545288,1.4028364419937134,-0.9309065341949463,-1.229904294013977,0.8856711983680725,-0.09763814508914948,0.8452165722846985,0.7987856864929199,0.9243916273117065,0.6466907262802124,0.4833616018295288,-0.4370957612991333,0.46372902393341064,0.9218478202819824,0.9552948474884033,0.8427819013595581,0.0005589629290625453,0.028771331533789635,-0.36784613132476807,-0.2750641107559204,0.85498046875,-0.5144870281219482,0.06791174411773682
55,0.023817408829927444,0.012675552628934383,0.018640462309122086,-0.0024195045698434114,-0.7305582761764526,1.6739331483840942,1.2765536308288574,0.10185270011425018,-0.8763763308525085,0.8161517381668091,-0.1717374324798584,0.43532752990722656,-0.3014559745788574,-0.5978337526321411,1.4022624492645264,-0.9311045408248901,-1.2301385402679443,0.885595977306366,-0.1106807142496109,0.8468390703201294,0.7987856864929199,0.9243916273117065,0.6466907262802124,0.4833616018295288,-0.4370957612991333,0.46372902393341064,0.9218478202819824,0.9552948474884033,0.8427819013595581,0.00018442125292494893,0.026454368606209755,-0.36784613132476807,-0.2750641107559204,0.85498046875,-0.5144870281219482,0.06791174411773682
56,-0.014421811327338219,0.012425265274941921,0.018230721354484558,-0.0025388889480382204,-0.7584385275840759,1.671581506729126,1.2796111106872559,0.09609163552522659,-0.8815686106681824,0.8161517381668091,-0.1717374324798584,0.43532752990722656,-0.30077052116394043,-0.5979114770889282,1.401631236076355,-0.9314216375350952,-1.2305529117584229,0.8853234648704529,-0.09446842968463898,0.8481993079185486,0.7987856864929199,0.9243916273117065,0.6466907262802124,0.4833616018295288,-0.4370957612991333,0.46372902393341064,0.9218478202819824,0.9552948474884033,0.8427819013595581,0.0002976180403493345,0.029989425092935562,-0.36784613132476807,-0.2750641107559204,0.85498046875,-0.5144870281219482,0.06791174411773682
57,0.02112453058362007,0.013298515230417252,0.019556207582354546,-0.0027575884014368057,-0.7168393731117249,1.66978919506073,1.276404619216919,0.09088191390037537,-0.8858901262283325,0.8161517381668091,-0.1717374324798584,0.43532752990722656,-0.2969634234905243,-0.5978437662124634,1.400996446609497,-0.9316356182098389,-1.230756163597107,0.8852231502532959,-0.11636767536401749,0.8498465418815613,0.7987856864929199,0.9243916273117065,0.6466907262802124,0.4833616018295288,-0.4370957612991333,0.46372902393341064,0.9218478202819824,0.9552948474884033,0.8427819013595581,-4.9434795073466375e-05,0.027605798095464706,-0.36784613132476807,-0.2750641107559204,0.85498046875,-0.5144870281219482,0.06791174411773682
58,-0.01144137978553772,0.013035236857831478,0.019124729558825493,-0.0028785632457584143,-0.7739389538764954,1.6674660444259644,1.2820017337799072,0.08510184288024902,-0.8913978338241577,0.8161517381668091,-0.1717374324798584,0.43532752990722656,-0.29598334431648254,-0.5978604555130005,1.4002478122711182,-0.931876003742218,-1.2311294078826904,0.8849359154701233,-0.08849802613258362,0.8511924147605896,0.7987856864929199,0.9243916273117065,0.6466907262802124,0.4833616018295288,-0.4370957612991333,0.46372902393341064,0.9218478202819824,0.9552948474884033,0.8427819013595581,1.1664638805086724e-05,0.031427428126335144,-0.36784613132476807,-0.2750641107559204,0.85498046875,-0.5144870281219482,0.06791174411773682
59,0.01861269772052765,0.01401844248175621,0.020619064569473267,-0.0031044455245137215,-0.6989569664001465,1.66620671749115,1.2753338813781738,0.08019483834505081,-0.8959462642669678,0.8161517381668091,-0.1717374324798584,0.43532752990722656,-0.2922270596027374,-0.5977668166160583,1.3995749950408936,-0.9321616888046265,-1.231330394744873,0.8847942352294922,-0.12545333802700043,0.8528737425804138,0.7987856864929199,0.9243916273117065,0.6466907262802124,0.4833616018295288,-0.4370957612991333,0.46372902393341064,0.9218478202819824,0.9552948474884033,0.8427819013595581,-0.0002680454053916037,0.028752917423844337,-0.36784613132476807,-0.2750641107559204,0.85498046875,-0.5144870281219482,0.06791174411773682
60,-0.008931578136980534,0.013686778023838997,0.02008049376308918,-0.003214494092389941,-0.7843908071517944,1.6638816595077515,1.2848032712936401,0.0743282288312912,-0.9019266366958618,0.8161517381668091,-0.1717374324798584,0.43532752990722656,-0.29089653491973877,-0.5977210998535156,1.3986872434616089,-0.9323097467422485,-1.2316888570785522,0.8844820857048035,-0.0791623666882515,0.854175329208374,0.7987856864929199,0.9243916273117065,0.6466907262802124,0.4833616018295288,-0.4370957612991333,0.46372902393341064,0.9218478202819824,0.9552948474884033,0.8427819013595581,-0.000262932269833982,0.03319668024778366,-0.36784613132476807,-0.2750641107559204,0.85498046875,-0.5144870281219482,0.06791174411773682
61,0.01679832488298416,0.014856701716780663,0.021863017231225967,-0.0034503380302339792,-0.6982325911521912,1.6630960702896118,1.2745726108551025,0.0698138102889061,-0.9067046046257019,0.8161517381668091,-0.1717374324798584,0.43532752990722656,-0.2871626019477844,-0.5976102352142334,1.3980019092559814,-0.932727575302124,-1.2318841218948364,0.8842835426330566,-0.13640879094600677,0.8559161424636841,0.7987856864929199,0.9243916273117065,0.6466907262802124,0.4833616018295288,-0.4370957612991333,0.46372902393341064,0.9218478202819824,0.9552948474884033,0.8427819013595581,-0.0004726507468149066,0.029831258580088615,-0.36784613132476807,-0.2750641107559204,0.85498046875,-0.5144870281219482,0.06791174411773682
62,-0.007214683573693037,0.014367892406880856,0.02108001336455345,-0.0035403475631028414,-0.7734332084655762,1.6610677242279053,1.285999059677124,0.06384647637605667,-0.9132901430130005,0.8161517381668091,-0.1717374324798584,0.43532752990722656,-0.2854851186275482,-0.5975042581558228,1.3969650268554688,-0.9327868819236755,-1.2322877645492554,0.8839365839958191,-0.07148191332817078,0.857138454914093,0.7987856864929199,0.9243916273117065,0.6466907262802124,0.4833616018295288,-0.4370957612991333,0.46372902393341064,0.9218478202819824,0.9552948474884033,0.8427819013595581,-0.0004779510200023651,0.03520089015364647,-0.36784613132476807,-0.2750641107559204,0.85498046875,-0.5144870281219482,0.06791174411773682
63,0.015800638124346733,0.015773436054587364,0.023228159174323082,-0.003791156690567732,-0.7122184038162231,1.6603955030441284,1.275584101676941,0.05966809019446373,-0.9183777570724487,0.8161517381668091,-0.1717374324798584,0.43532752990722656,-0.28167763352394104,-0.5973748564720154,1.3962584733963013,-0.9333463907241821,-1.2324492931365967,0.883672297000885,-0.14034880697727203,0.8589487075805664,0.7987856864929199,0.9243916273117065,0.6466907262802124,0.4833616018295288,-0.4370957612991333,0.46372902393341064,0.9218478202819824,0.9552948474884033,0.8427819013595581,-0.0006832230719737709,0.031072357669472694,-0.36784613132476807,-0.2750641107559204,0.85498046875,-0.5144870281219482,0.06791174411773682
64,-0.0062649487517774105,0.015128404833376408,0.022201385349035263,-0.003862720215693116,-0.7591883540153503,1.658896803855896,1.2855639457702637,0.05382100120186806,-0.9255450963973999,0.8161517381668091,-0.1717374324798584,0.43532752990722656,-0.2797377109527588,-0.5972233414649963,1.3951127529144287,-0.9334005117416382,-1.2329267263412476,0.8832716345787048,-0.07432760298252106,0.8601042628288269,0.7987856864929199,0.9243916273117065,0.6466907262802124,0.4833616018295288,-0.4370957612991333,0.46372902393341064,0.9218478202819824,0.9552948474884033,0.8427819013595581,-0.0006336772348731756,0.03696279972791672,-0.36784613132476807,-0.2750641107559204,0.85498046875,-0.5144870281219482,0.06791174411773682
65,0.015392506495118141,0.01665949448943138,0.024547338485717773,-0.004121202509850264,-0.722817599773407,1.6582703590393066,1.2773593664169312,0.049719665199518204,-0.9312248229980469,0.8161517381668091,-0.1717374324798584,0.43532752990722656,-0.2757059931755066,-0.5970577597618103,1.394311785697937,-0.9340097308158875,-1.2330992221832275,0.8829456567764282,-0.13405106961727142,0.8619109392166138,0.7987856864929199,0.9243916273117065,0.6466907262802124,0.4833616018295288,-0.4370957612991333,0.46372902393341064,0.9218478202819824,0.9552948474884033,0.8427819013595581,-0.0008642901666462421,0.03289612755179405,-0.36784613132476807,-0.2750641107559204,0.85498046875,-0.5144870281219482,0.06791174411773682
66,-0.005732047371566296,0.016056345775723457,0.023582596331834793,-0.004195347428321838,-0.7505905032157898,1.6572120189666748,1.284651756286621,0.04426117241382599,-0.938895046710968,0.8161517381668091,-0.1717374324798584,0.43532752990722656,-0.27360135316848755,-0.5968784093856812,1.3931105136871338,-0.9341743588447571,-1.2336312532424927,0.8824738264083862,-0.08366668969392776,0.8630549311637878,0.7987856864929199,0.9243916273117065,0.6466907262802124,0.4833616018295288,-0.4370957612991333,0.46372902393341064,0.9218478202819824,0.9552948474884033,0.8427819013595581,-0.0007726021576672792,0.03834932669997215,-0.36784613132476807,-0.2750641107559204,0.85498046875,-0.5144870281219482,0.06791174411773682
67,0.015221512876451015,0.017511192709207535,0.025813592597842216,-0.004448212217539549,-0.7285428047180176,1.656701683998108,1.2790180444717407,0.04010876640677452,-0.9454038739204407,0.8161517381668091,-0.1717374324798584,0.43532752990722656,-0.2692466080188751,-0.5966643691062927,1.3921643495559692,-0.9347746968269348,-1.2338805198669434,0.8820827007293701,-0.1257474571466446,0.8647744059562683,0.7987856864929199,0.9243916273117065,0.6466907262802124,0.4833616018295288,-0.4370957612991333,0.46372902393341064,0.9218478202819824,0.9552948474884033,0.8427819013595581,-0.0010049390839412808,0.035134658217430115,-0.36784613132476807,-0.2750641107559204,0.85498046875,-0.5144870281219482,0.06791174411773682
68,-0.005328197963535786,0.017111076042056084,0.02516189031302929,-0.004543162416666746,-0.7458282709121704,1.6559654474258423,1.283940315246582,0.03507927432656288,-0.9536201357841492,0.8161517381668091,-0.1717374324798584,0.43532752990722656,-0.2670002281665802,-0.5964623093605042,1.3909168243408203,-0.9350990653038025,-1.2344672679901123,0.8815330862998962,-0.09194637089967728,0.865921139717102,0.7987856864929199,0.9243916273117065,0.6466907262802124,0.4833616018295288,-0.4370957612991333,0.46372902393341064,0.9218478202819824,0.9552948474884033,0.8427819013595581,-0.0009038703283295035,0.039768874645233154,-0.36784613132476807,-0.2750641107559204,0.85498046875,-0.5144870281219482,0.06791174411773682
69,0.01514783501625061,0.018433159217238426,0.02718825452029705,-0.004791059531271458,-0.7316278219223022,1.6555980443954468,1.2802246809005737,0.030929112806916237,-0.9610339999198914,0.8161517381668091,-0.1717374324798584,0.43532752990722656,-0.26228684186935425,-0.5962004065513611,1.3898266553878784,-0.935719907283783,-1.2348264455795288,0.8810685873031616,-0.11991436034440994,0.867525577545166,0.7987856864929199,0.9243916273117065,0.6466907262802124,0.4833616018295288,-0.4370957612991333,0.46372902393341064,0.9218478202819824,0.9552948474884033,0.8427819013595581,-0.001123141380958259,0.037476129829883575,-0.36784613132476807,-0.2750641107559204,0.85498046875,-0.5144870281219482,0.06791174411773682
70,-0.0050095459446311,0.01824682205915451,0.026867248117923737,-0.0049127014353871346,-0.7430773973464966,1.6551034450531006,1.2835488319396973,0.02626272477209568,-0.9699166417121887,0.8161517381668091,-0.1717374324798584,0.43532752990722656,-0.2598763406276703,-0.5959732532501221,1.3885180950164795,-0.9362162351608276,-1.2354934215545654,0.8804381489753723,-0.09751387685537338,0.8686468601226807,0.7987856864929199,0.9243916273117065,0.6466907262802124,0.4833616018295288,-0.4370957612991333,0.46372902393341064,0.9218478202819824,0.9552948474884033,0.8427819013595581,-0.0010259978007525206,0.0414704903960228,-0.36784613132476807,-0.2750641107559204,0.85498046875,-0.5144870281219482,0.06791174411773682
71,0.015196221880614758,0.019486889243125916,0.0287664532661438,-0.00516563281416893,-0.7333722114562988,1.6548707485198975,1.2810419797897339,0.022196687757968903,-0.9782742857933044,0.8161517381668091,-0.1717374324798584,0.43532752990722656,-0.2547713816165924,-0.5956663489341736,1.3872967958450317,-0.9369138479232788,-1.2359834909439087,0.8798947334289551,-0.11654572933912277,0.8701282143592834,0.7987856864929199,0.9243916273117065,0.6466907262802124,0.4833616018295288,-0.4370957612991333,0.46372902393341064,0.9218478202819824,0.9552948474884033,0.8427819013595581,-0.0012335448991507292,0.03987843170762062,-0.36784613132476807,-0.2750641107559204,0.85498046875,-0.5144870281219482,0.06791174411773682
72,-0.004821266513317823,0.01947675459086895,0.028717800974845886,-0.005316358525305986,-0.7414229512214661,1.6545584201812744,1.2833826541900635,0.01783531904220581,-0.9879652261734009,0.8161517381668091,-0.1717374324798584,0.43532752990722656,-0.2521718442440033,-0.5954105257987976,1.3859102725982666,-0.9375975728034973,-1.2367674112319946,0.8791804313659668,-0.1010805144906044,0.8711798787117004,0.7987856864929199,0.9243916273117065,0.6466907262802124,0.4833616018295288,-0.4370957612991333,0.46372902393341064,0.9218478202819824,0.9552948474884033,0.8427819013595581,-0.0011423553805798292,0.04351647570729256,-0.36784613132476807,-0.2750641107559204,0.85498046875,-0.5144870281219482,0.06791174411773682
73,0.015416422858834267,0.02070380002260208,0.030596328899264336,-0.0055862125009298325,-0.7343994379043579,1.6544383764266968,1.2816044092178345,0.013911549933254719,-0.9973323941230774,0.8161517381668091,-0.1717374324798584,0.43532752990722656,-0.2466197907924652,-0.5950592756271362,1.384564995765686,-0.9384304285049438,-1.2374142408370972,0.8785554766654968,-0.1147986426949501,0.872522234916687,0.7987856864929199,0.9243916273117065,0.6466907262802124,0.4833616018295288,-0.4370957612991333,0.46372902393341064,0.9218478202819824,0.9552948474884033,0.8427819013595581,-0.0013446040684357285,0.042423319071531296,-0.36784613132476807,-0.2750641107559204,0.85498046875,-0.5144870281219482,0.06791174411773682
74,-0.004803338088095188,0.020841160789132118,0.030774973332881927,-0.00576984416693449,-0.7404019236564636,1.6542607545852661,1.2833530902862549,0.009821578860282898,-1.0079853534698486,0.8161517381668091,-0.1717374324798584,0.43532752990722656,-0.243816077709198,-0.5947713255882263,1.383085012435913,-0.9393324851989746,-1.2383595705032349,0.8777544498443604,-0.10344251990318298,0.8734520077705383,0.7987856864929199,0.9243916273117065,0.6466907262802124,0.4833616018295288,-0.4370957612991333,0.46372902393341064,0.9218478202819824,0.9552948474884033,0.8427819013595581,-0.0012585582444444299,0.04594014585018158,-0.36784613132476807,-0.2750641107559204,0.85498046875,-0.5144870281219482,0.06791174411773682
75,0.015843089669942856,0.022118497639894485,0.03273075073957443,-0.006068915128707886,-0.7350196242332458,1.6542272567749023,1.2820144891738892,0.006076354067772627,-1.0184683799743652,0.8161517381668091,-0.1717374324798584,0.43532752990722656,-0.23773419857025146,-0.594373881816864,1.381616234779358,-0.9403635263442993,-1.2392005920410156,0.8770476579666138,-0.11405132710933685,0.8746227025985718,0.7987856864929199,0.9243916273117065,0.6466907262802124,0.4833616018295288,-0.4370957612991333,0.46372902393341064,0.9218478202819824,0.9552948474884033,0.8427819013595581,-0.0014623539755120873,0.0452200211584568,-0.36784613132476807,-0.2750641107559204,0.85498046875,-0.5144870281219482,0.06791174411773682
76,-0.004977700300514698,0.022393453866243362,0.03312060609459877,-0.0062920390628278255,-0.7397636771202087,1.6541447639465332,1.2834125757217407,0.0022409814409911633,-1.0302585363388062,0.8161517381668091,-0.1717374324798584,0.43532752990722656,-0.23472021520137787,-0.5940501689910889,1.380028486251831,-0.9415342807769775,-1.2403630018234253,0.8761588931083679,-0.10511617362499237,0.8753660917282104,0.7987856864929199,0.9243916273117065,0.6466907262802124,0.4833616018295288,-0.4370957612991333,0.46372902393341064,0.9218478202819824,0.9552948474884033,0.8427819013595581,-0.00138032843824476,0.048801980912685394,-0.36784613132476807,-0.2750641107559204,0.85498046875,-0.5144870281219482,0.06791174411773682
77,0.01649671047925949,0.023781420662999153,0.035247012972831726,-0.00663400674238801,-0.7353919744491577,1.6541721820831299,1.2823418378829956,-0.0013024567160755396,-1.042009711265564,0.8161517381668091,-0.1717374324798584,0.43532752990722656,-0.22799497842788696,-0.5936022996902466,1.3784313201904297,-0.9428393840789795,-1.2414519786834717,0.875373363494873,-0.11395193636417389,0.8763106465339661,0.7987856864929199,0.9243916273117065,0.6466907262802124,0.4833616018295288,-0.4370957612991333,0.46372902393341064,0.9218478202819824,0.9552948474884033,0.8427819013595581,-0.0015921462327241898,0.048393189907073975,-0.36784613132476807,-0.2750641107559204,0.85498046875,-0.5144870281219482,0.06791174411773682
78,-0.0053526246920228004,0.024202335625886917,0.03586021810770035,-0.0069067999720573425,-0.7393654584884644,1.654152512550354,1.2835431098937988,-0.004890188109129667,-1.0551484823226929,0.8161517381668091,-0.1717374324798584,0.43532752990722656,-0.22477158904075623,-0.5932384729385376,1.3767205476760864,-0.9443538188934326,-1.242904782295227,0.8743993043899536,-0.10640669614076614,0.8767819404602051,0.7987856864929199,0.9243916273117065,0.6466907262802124,0.4833616018295288,-0.4370957612991333,0.46372902393341064,0.9218478202819824,0.9552948474884033,0.8427819013595581,-0.0015133526176214218,0.05220429599285126,-0.36784613132476807,-0.2750641107559204,0.85498046875,-0.5144870281219482,0.06791174411773682
79,0.01738676056265831,0.02576622925698757,0.038258448243141174,-0.007308514788746834,-0.7355988025665283,1.654218316078186,1.2826353311538696,-0.008215301670134068,-1.0683770179748535,0.8161517381668091,-0.1717374324798584,0.43532752990722656,-0.21725139021873474,-0.5927334427833557,1.3749855756759644,-0.946032702922821,-1.244319200515747,0.873543381690979,-0.11432481557130814,0.8774157762527466,0.7987856864929199,0.9243916273117065,0.6466907262802124,0.4833616018295288,-0.4370957612991333,0.46372902393341064,0.9218478202819824,0.9552948474884033,0.8427819013595581,-0.001739628380164504,0.052096594125032425,-0.36784613132476807,-0.2750641107559204,0.85498046875,-0.5144870281219482,0.06791174411773682
80,-0.005923409480601549,0.026360701769590378,0.03913690522313118,-0.007646194193512201,-0.7391236424446106,1.654234766960144,1.283745288848877,-0.011556239798665047,-1.0831317901611328,0.8161517381668091,-0.1717374324798584,0.43532752990722656,-0.21382510662078857,-0.5923236012458801,1.373133897781372,-0.9479999542236328,-1.2461644411087036,0.8724931478500366,-0.10749823600053787,0.8774942755699158,0.7987856864929199,0.9243916273117065,0.6466907262802124,0.4833616018295288,-0.4370957612991333,0.46372902393341064,0.9218478202819824,0.9552948474884033,0.8427819013595581,-0.0016640850808471441,0.05630383640527725,-0.36784613132476807,-0.2750641107559204,0.85498046875,-0.5144870281219482,0.06791174411773682
81,0.018508976325392723,0.028180385008454323,0.0419309176504612,-0.008130214177072048,-0.7356804609298706,1.6543198823928833,1.282932162284851,-0.014649164862930775,-1.098120927810669,0.8161517381668091,-0.1717374324798584,0.43532752990722656,-0.20530818402767181,-0.5917520523071289,1.3712471723556519,-0.9501930475234985,-1.2480182647705078,0.8715846538543701,-0.11510302871465683,0.8776877522468567,0.7987856864929199,0.9243916273117065,0.6466907262802124,0.4833616018295288,-0.4370957612991333,0.46372902393341064,0.9218478202819824,0.9552948474884033,0.8427819013595581,-0.0019118633354082704,0.05653739720582962,-0.36784613132476807,-0.2750641107559204,0.85498046875,-0.5144870281219482,0.06791174411773682
82,-0.006666870787739754,0.029000988230109215,0.04315527155995369,-0.008555731736123562,-0.7389889359474182,1.6543514728546143,1.2840328216552734,-0.017739439383149147,-1.1148403882980347,0.8161517381668091,-0.1717374324798584,0.43532752990722656,-0.20169031620025635,-0.5912877321243286,1.3692325353622437,-0.9527741074562073,-1.2504034042358398,0.870480477809906,-0.10851320624351501,0.8771954774856567,0.7987856864929199,0.9243916273117065,0.6466907262802124,0.4833616018295288,-0.4370957612991333,0.46372902393341064,0.9218478202819824,0.9552948474884033,0.8427819013595581,-0.0018411835189908743,0.06133545935153961,-0.36784613132476807,-0.2750641107559204,0.85498046875,-0.5144870281219482,0.06791174411773682
83,0.019836734980344772,0.03118388168513775,0.046512193977832794,-0.009154270403087139,-0.7356526851654053,1.6544405221939087,1.2832666635513306,-0.020586134865880013,-1.1319764852523804,0.8161517381668091,-0.1717374324798584,0.43532752990722656,-0.19190660119056702,-0.5906366109848022,1.3671752214431763,-0.9556892514228821,-1.2528690099716187,0.8695552349090576,-0.11629375070333481,0.8767468333244324,0.7987856864929199,0.9243916273117065,0.6466907262802124,0.4833616018295288,-0.4370957612991333,0.46372902393341064,0.9218478202819824,0.9552948474884033,0.8427819013595581,-0.0021190119441598654,0.06201464682817459,-0.36784613132476807,-0.2750641107559204,0.85498046875,-0.5144870281219482,0.06791174411773682
84,-0.00753153208643198,0.03232156112790108,0.048222847282886505,-0.009703247807919979,-0.7389337420463562,1.6544702053070068,1.2844313383102417,-0.023416917771100998,-1.151126742362976,0.8161517381668091,-0.1717374324798584,0.43532752990722656,-0.18811197578907013,-0.5901050567626953,1.364969253540039,-0.9591280221939087,-1.256018042564392,0.8684451580047607,-0.10954976081848145,0.8754104375839233,0.7987856864929199,0.9243916273117065,0.6466907262802124,0.4833616018295288,-0.4370957612991333,0.46372902393341064,0.9218478202819824,0.9552948474884033,0.8427819013595581,-0.002057745587080717,0.06765738129615784,-0.36784613132476807,-0.2750641107559204,0.85498046875,-0.5144870281219482,0.06791174411773682
85,0.021309588104486465,0.03502368927001953,0.05238610506057739,-0.010464978404343128,-0.7355154752731323,1.6545509099960327,1.283675193786621,-0.026000473648309708,-1.170941710472107,0.8161517381668091,-0.1717374324798584,0.43532752990722656,-0.1766960769891739,-0.589356541633606,1.3627171516418457,-0.9630871415138245,-1.2593669891357422,0.8675749897956848,-0.11796828359365463,0.8739960789680481,0.7987856864929199,0.9243916273117065,0.6466907262802124,0.4833616018295288,-0.4370957612991333,0.46372902393341064,0.9218478202819824,0.9552948474884033,0.8427819013595581,-0.002377160592004657,0.06898556649684906,-0.36784613132476807,-0.2750641107559204,0.85498046875,-0.5144870281219482,0.06791174411773682
86,-0.008429202251136303,0.03663494065403938,0.054826028645038605,-0.011194974184036255,-0.7389456629753113,1.6545647382736206,1.28498113155365,-0.0285562202334404,-1.193156123161316,0.8161517381668091,-0.1717374324798584,0.43532752990722656,-0.17274130880832672,-0.5887378454208374,1.3602821826934814,-0.9677688479423523,-1.263635516166687,0.8665602803230286,-0.11070997267961502,0.8713768720626831,0.7987856864929199,0.9243916273117065,0.6466907262802124,0.4833616018295288,-0.4370957612991333,0.46372902393341064,0.9218478202819824,0.9552948474884033,0.8427819013595581,-0.0023352440912276506,0.0758378654718399,-0.36784613132476807,-0.2750641107559204,0.85498046875,-0.5144870281219482,0.06791174411773682
87,0.022825025022029877,0.04009980335831642,0.06017690524458885,-0.012197772040963173,-0.7352570295333862,1.6546273231506348,1.2842046022415161,-0.03085348568856716,-1.2163869142532349,0.8161517381668091,-0.1717374324798584,0.43532752990722656,-0.15918989479541779,-0.5878668427467346,1.3578046560287476,-0.9732968211174011,-1.2683156728744507,0.8658927083015442,-0.12027136981487274,0.8684573173522949,0.7987856864929199,0.9243916273117065,0.6466907262802124,0.4833616018295288,-0.4370957612991333,0.46372902393341064,0.9218478202819824,0.9552948474884033,0.8427819013595581,-0.002713651629164815,0.07818923890590668,-0.36784613132476807,-0.2750641107559204,0.85498046875,-0.5144870281219482,0.06791174411773682
88,-0.009239722043275833,0.04246170073747635,0.06377877295017242,-0.01320663746446371,-0.7390247583389282,1.65461266040802,1.2857444286346436,-0.033108100295066833,-1.2425308227539062,0.8161517381668091,-0.1717374324798584,0.43532752990722656,-0.15509574115276337,-0.5871288776397705,1.355090618133545,-0.979861855506897,-1.274301290512085,0.8651902079582214,-0.11213355511426926,0.8638155460357666,0.7987856864929199,0.9243916273117065,0.6466907262802124,0.4833616018295288,-0.4370957612991333,0.46372902393341064,0.9218478202819824,0.9552948474884033,0.8427819013595581,-0.0027108846697956324,0.08682797104120255,-0.36784613132476807,-0.2750641107559204,0.85498046875,-0.5144870281219482,0.06791174411773682
89,0.02424396388232708,0.04709950089454651,0.07096268236637115,-0.014583416283130646,-0.7348563075065613,1.6546474695205688,1.2849241495132446,-0.03508422151207924,-1.2701880931854248,0.8161517381668091,-0.1717374324798584,0.43532752990722656,-0.13869331777095795,-0.5860980749130249,1.3523510694503784,-0.9878638982772827,-1.2810943126678467,0.8650447726249695,-0.12345477193593979,0.8584462404251099,0.7987856864929199,0.9243916273117065,0.6466907262802124,0.4833616018295288,-0.4370957612991333,0.46372902393341064,0.9218478202819824,0.9552948474884033,0.8427819013595581,-0.003177790204063058,0.09089589864015579,-0.36784613132476807,-0.2750641107559204,0.85498046875,-0.5144870281219482,0.06791174411773682
90,-0.009848705492913723,0.050727155059576035,0.0765364021062851,-0.016048213467001915,-0.7391827702522278,1.654590368270874,1.2868210077285767,-0.036993514746427536,-1.3014106750488281,0.8161517381668091,-0.1717374324798584,0.43532752990722656,-0.13451288640499115,-0.585186243057251,1.3492918014526367,-0.997446596622467,-1.289870023727417,0.8651408553123474,-0.11404988914728165,0.8504597544670105,0.7987856864929199,0.9243916273117065,0.6466907262802124,0.4833616018295288,-0.4370957612991333,0.46372902393341064,0.9218478202819824,0.9552948474884033,0.8427819013595581,-0.003252617549151182,0.10232791304588318,-0.36784613132476807,-0.2750641107559204,0.85498046875,-0.5144870281219482,0.06791174411773682
91,0.025415796786546707,0.05729088559746742,0.08674632757902145,-0.01804386079311371,-0.7342883944511414,1.654585599899292,1.2859468460083008,-0.038591623306274414,-1.334784746170044,0.8161517381668091,-0.1717374324798584,0.43532752990722656,-0.11418864876031876,-0.583935558795929,1.3462517261505127,-1.0095915794372559,-1.300236701965332,0.8662604689598083,-0.1279509961605072,0.8408884406089783,0.7987856864929199,0.9243916273117065,0.6466907262802124,0.4833616018295288,-0.4370957612991333,0.46372902393341064,0.9218478202819824,0.9552948474884033,0.8427819013595581,-0.003863680176436901,0.10945305228233337,-0.36784613132476807,-0.2750641107559204,0.85498046875,-0.5144870281219482,0.06791174411773682
92,-0.010249599814414978,0.06320921331644058,0.09591785818338394,-0.02031087502837181,-0.7394444346427917,1.6544662714004517,1.2883750200271606,-0.04007800295948982,-1.3723852634429932,0.8161517381668091,-0.1717374324798584,0.43532752990722656,-0.11015141755342484,-0.5827508568763733,1.342765212059021,-1.024354100227356,-1.3138822317123413,0.8683316707611084,-0.11687792092561722,0.8270370364189148,0.7987856864929199,0.9243916273117065,0.6466907262802124,0.4833616018295288,-0.4370957612991333,0.46372902393341064,0.9218478202819824,0.9552948474884033,0.8427819013595581,-0.004091816488653421,0.1256260871887207,-0.36784613132476807,-0.2750641107559204,0.85498046875,-0.5144870281219482,0.06791174411773682
93,0.026211561635136604,0.07322043180465698,0.11158882081508636,-0.023419855162501335,-0.733545184135437,1.654401421546936,1.287467360496521,-0.041196972131729126,-1.4126044511795044,0.8161517381668091,-0.1717374324798584,0.43532752990722656,-0.08418536931276321,-0.5811718702316284,1.3394064903259277,-1.0439586639404297,-1.3307734727859497,0.8726190328598022,-0.13452580571174622,0.8098079562187195,0.7987856864929199,0.9243916273117065,0.6466907262802124,0.4833616018295288,-0.4370957612991333,0.46372902393341064,0.9218478202819824,0.9552948474884033,0.8427819013595581,-0.004960805177688599,0.13859696686267853,-0.36784613132476807,-0.2750641107559204,0.85498046875,-0.5144870281219482,0.06791174411773682
94,-0.010795504786074162,0.08365394175052643,0.12793245911598206,-0.02723461017012596,-0.7398476600646973,1.6541850566864014,1.2906723022460938,-0.04211623966693878,-1.4568452835083008,0.8161517381668091,-0.1717374324798584,0.43532752990722656,-0.08134989440441132,-0.5795180797576904,1.3354216814041138,-1.0683434009552002,-1.3536573648452759,0.8798076510429382,-0.12140974402427673,0.7849903106689453,0.7987856864929199,0.9243916273117065,0.6466907262802124,0.4833616018295288,-0.4370957612991333,0.46372902393341064,0.9218478202819824,0.9552948474884033,0.8427819013595581,-0.0054956660605967045,0.16369344294071198,-0.36784613132476807,-0.2750641107559204,0.85498046875,-0.5144870281219482,0.06791174411773682
95,0.026548035442829132,0.10051217675209045,0.1545887440443039,-0.032567813992500305,-0.73270183801651,1.654017686843872,1.2898030281066895,-0.042556390166282654,-1.502073884010315,0.8161517381668091,-0.1717374324798584,0.43532752990722656,-0.046725284308195114,-0.5773860216140747,1.3318413496017456,-1.1024447679519653,-1.38345468044281,0.892702043056488,-0.14455248415470123,0.7529968619346619,0.7987856864929199,0.9243916273117065,0.6466907262802124,0.4833616018295288,-0.4370957612991333,0.46372902393341064,0.9218478202819824,0.9552948474884033,0.8427819013595581,-0.006860832683742046,0.188884899020195,-0.36784613132476807,-0.2750641107559204,0.85498046875,-0.5144870281219482,0.06791174411773682
96,-0.012980543076992035,0.12074688822031021,0.18676434457302094,-0.03972145915031433,-0.7404019832611084,1.6536341905593872,1.2940421104431152,-0.04261932149529457,-1.5457453727722168,0.8161517381668091,-0.1717374324798584,0.43532752990722656,-0.05016977712512016,-0.5748295783996582,1.327465534210205,-1.1458323001861572,-1.4251070022583008,0.9142011404037476,-0.12897609174251556,0.7067950963973999,0.7987856864929199,0.9243916273117065,0.6466907262802124,0.4833616018295288,-0.4370957612991333,0.46372902393341064,0.9218478202819824,0.9552948474884033,0.8427819013595581,-0.008000284433364868,0.23274298012256622,-0.36784613132476807,-0.2750641107559204,0.85498046875,-0.5144870281219482,0.06791174411773682
97,0.026826515793800354,0.15256395936012268,0.2378983199596405,-0.05004912614822388,-0.7320581078529358,1.6532739400863647,1.2931954860687256,-0.041929859668016434,-1.5776689052581787,0.8161517381668091,-0.1717374324798584,0.43532752990722656,-0.00021048542112112045,-0.5716275572776794,1.3243170976638794,-1.208666205406189,-1.4808999300003052,0.9521510004997253,-0.16003835201263428,0.6465761065483093,0.7987856864929199,0.9243916273117065,0.6466907262802124,0.4833616018295288,-0.4370957612991333,0.46372902393341064,0.9218478202819824,0.9552948474884033,0.8427819013595581,-0.01027318462729454,0.28572604060173035,-0.36784613132476807,-0.2750641107559204,0.85498046875,-0.5144870281219482,0.06791174411773682
98,-0.022566333413124084,0.19508272409439087,0.3069606423377991,-0.06515760719776154,-0.7405584454536438,1.6526031494140625,1.297951340675354,-0.040495745837688446,-1.5838335752487183,0.8161517381668091,-0.1717374324798584,0.43532752990722656,-0.03721453994512558,-0.5672481656074524,1.3208286762237549,-1.2855095863342285,-1.556849718093872,1.0115745067596436,-0.1392756551504135,0.5624569654464722,0.7987856864929199,0.9243916273117065,0.6466907262802124,0.4833616018295288,-0.4370957612991333,0.46372902393341064,0.9218478202819824,0.9552948474884033,0.8427819013595581,-0.012260444462299347,0.3707229197025299,-0.36784613132476807,-0.2750641107559204,0.85498046875,-0.5144870281219482,0.06791174411773682
99,0.03633556142449379,0.2571377158164978,0.40923747420310974,-0.08710610121488571,-0.7316988706588745,1.6519724130630493,1.2954901456832886,-0.03751138225197792,-1.5672823190689087,0.8161517381668091,-0.1717374324798584,0.43532752990722656,0.06809792667627335,-0.5623287558555603,1.3216395378112793,-1.3877274990081787,-1.6449476480484009,1.1051652431488037,-0.17732977867126465,0.46421539783477783,0.7987856864929199,0.9243916273117065,0.6466907262802124,0.4833616018295288,-0.4370957612991333,0.46372902393341064,0.9218478202819824,0.9552948474884033,0.8427819013595581,-0.015049083158373833,0.48113498091697693,-0.36784613132476807,-0.2750641107559204,0.85498046875,-0.5144870281219482,0.06791174411773682
