,0,1,2,3,4,5,6,7,8,9,10,11,12,13,14,15,16,17,18,19,20,21,22,23,24,25,26,27,28,29,30,31,32,33,34,35
0,-0.8440301418304443,-0.043357014656066895,-0.015952706336975098,-0.8140861988067627,-0.3630106449127197,0.9376753568649292,0.7814650535583496,-0.8607410192489624,0.8771086931228638,0.5670886039733887,-0.6841400861740112,-0.4947906732559204,0.8154375553131104,-0.3643836975097656,0.9980789422988892,0.17101776599884033,0.4825398921966553,0.8883867263793945,-0.7261554002761841,0.5038608312606812,0.7191379070281982,0.12137126922607422,-0.45125389099121094,-0.15521705150604248,-0.2157832384109497,0.9603356122970581,-0.14053750038146973,-0.11817872524261475,-0.3334493637084961,0.6544708013534546,-0.22726190090179443,0.06438398361206055,0.9799641370773315,-0.07394468784332275,0.5330022573471069,0.9320358037948608
1,-0.7915536165237427,-0.09583351016044617,-0.06842921674251556,-0.7616096138954163,-0.4154871702194214,0.9901518821716309,0.8339415192604065,-0.8082646131515503,0.9295850992202759,0.5670886039733887,-0.6841400861740112,-0.4947906732559204,0.8679128289222717,-0.31190723180770874,1.0505553483963013,0.22349411249160767,0.5350164175033569,0.9408593773841858,-0.6736788749694824,0.4513843357563019,0.7191379070281982,0.12137126922607422,-0.45125389099121094,-0.15521705150604248,-0.2157832384109497,0.9603356122970581,-0.14053750038146973,-0.11817872524261475,-0.3334493637084961,0.6019942760467529,-0.17478539049625397,0.06438398361206055,0.9799641370773315,-0.07394468784332275,0.5330022573471069,0.9320358037948608
2,-0.7490663528442383,-0.12162478268146515,-0.09768862277269363,-0.7210056185722351,-0.4522979259490967,1.0358147621154785,0.8839914202690125,-0.779270589351654,0.9619019031524658,0.5670886039733887,-0.6841400861740112,-0.4947906732559204,0.8881428837776184,-0.2745993137359619,1.0838274955749512,0.2636381983757019,0.5698283314704895,0.9929105639457703,-0.6318414211273193,0.41965481638908386,0.7191379070281982,0.12137126922607422,-0.45125389099121094,-0.15521705150604248,-0.2157832384109497,0.9603356122970581,-0.14053750038146973,-0.11817872524261475,-0.3334493637084961,0.5613011717796326,-0.14498217403888702,0.06438398361206055,0.9799641370773315,-0.07394468784332275,0.5330022573471069,0.9320358037948608
3,-0.7080269455909729,-0.13224992156028748,-0.11562958359718323,-0.6820915937423706,-0.48602744936943054,1.0800915956497192,0.9309279918670654,-0.7531429529190063,0.9889618158340454,0.5670886039733887,-0.6841400861740112,-0.4947906732559204,0.9160537719726562,-0.24216359853744507,1.1157339811325073,0.29898467659950256,0.6001627445220947,1.0407350063323975,-0.5917739272117615,0.3933463394641876,0.7191379070281982,0.12137126922607422,-0.45125389099121094,-0.15521705150604248,-0.2157832384109497,0.9603356122970581,-0.14053750038146973,-0.11817872524261475,-0.3334493637084961,0.5219249725341797,-0.12202460318803787,0.06438398361206055,0.9799641370773315,-0.07394468784332275,0.5330022573471069,0.9320358037948608
4,-0.6661220192909241,-0.12674814462661743,-0.11936772614717484,-0.6425080895423889,-0.5189691781997681,1.12492036819458,0.9773123860359192,-0.7268800139427185,1.0135316848754883,0.5670886039733887,-0.6841400861740112,-0.4947906732559204,0.9545267820358276,-0.21254616975784302,1.1469717025756836,0.3314937353134155,0.6281245350837708,1.0865743160247803,-0.5512983202934265,0.3698907196521759,0.7191379070281982,0.12137126922607422,-0.45125389099121094,-0.15521705150604248,-0.2157832384109497,0.9603356122970581,-0.14053750038146973,-0.11817872524261475,-0.3334493637084961,0.48167890310287476,-0.10492163151502609,0.06438398361206055,0.9799641370773315,-0.07394468784332275,0.5330022573471069,0.9320358037948608
5,-0.6226431727409363,-0.10770556330680847,-0.10697182267904282,-0.6014565229415894,-0.5517317652702332,1.1708287000656128,1.0237433910369873,-0.6994194388389587,1.0367271900177002,0.5670886039733887,-0.6841400861740112,-0.4947906732559204,1.003754734992981,-0.1856948286294937,1.1777139902114868,0.36260971426963806,0.6541875004768372,1.1315193176269531,-0.5097739696502686,0.34829381108283997,0.7191379070281982,0.12137126922607422,-0.45125389099121094,-0.15521705150604248,-0.2157832384109497,0.9603356122970581,-0.14053750038146973,-0.11817872524261475,-0.3334493637084961,0.4399171769618988,-0.0942339152097702,0.06438398361206055,0.9799641370773315,-0.07394468784332275,0.5330022573471069,0.9320358037948608
6,-0.577518105506897,-0.0813344419002533,-0.08247238397598267,-0.558749258518219,-0.5842280983924866,1.217736840248108,1.0700932741165161,-0.6707491874694824,1.0594158172607422,0.5670886039733887,-0.6841400861740112,-0.4947906732559204,1.0602949857711792,-0.16240966320037842,1.2081019878387451,0.39385995268821716,0.678339421749115,1.1765286922454834,-0.46716684103012085,0.32783809304237366,0.7191379070281982,0.12137126922607422,-0.45125389099121094,-0.15521705150604248,-0.2157832384109497,0.9603356122970581,-0.14053750038146973,-0.11817872524261475,-0.3334493637084961,0.39671048521995544,-0.09014254063367844,0.06438398361206055,0.9799641370773315,-0.07394468784332275,0.5330022573471069,0.9320358037948608
7,-0.5310539603233337,-0.05366229638457298,-0.05297040939331055,-0.5145938992500305,-0.6158494353294373,1.2652020454406738,1.1158006191253662,-0.6418853998184204,1.082400918006897,0.5670886039733887,-0.6841400861740112,-0.4947906732559204,1.1194734573364258,-0.1439736932516098,1.238199234008789,0.4262210428714752,0.7003728151321411,1.222621202468872,-0.4238271713256836,0.30792829394340515,0.7191379070281982,0.12137126922607422,-0.45125389099121094,-0.15521705150604248,-0.2157832384109497,0.9603356122970581,-0.14053750038146973,-0.11817872524261475,-0.3334493637084961,0.35263991355895996,-0.09124805778265,0.06438398361206055,0.9799641370773315,-0.07394468784332275,0.5330022573471069,0.9320358037948608
8,-0.4837948679924011,-0.02946070395410061,-0.02478741854429245,-0.46946433186531067,-0.6455957889556885,1.3125817775726318,1.1599371433258057,-0.6143308281898499,1.1062278747558594,0.5670886039733887,-0.6841400861740112,-0.4947906732559204,1.1772537231445312,-0.13172149658203125,1.267736554145813,0.45980632305145264,0.7201253175735474,1.2703286409378052,-0.38038700819015503,0.28824087977409363,0.7191379070281982,0.12137126922607422,-0.45125389099121094,-0.15521705150604248,-0.2157832384109497,0.9603356122970581,-0.14053750038146973,-0.11817872524261475,-0.3334493637084961,0.30858319997787476,-0.09452766925096512,0.06438398361206055,0.9799641370773315,-0.07394468784332275,0.5330022573471069,0.9320358037948608
9,-0.43639373779296875,-0.011955675669014454,-0.0026465519331395626,-0.42396488785743713,-0.672275960445404,1.3591827154159546,1.201295256614685,-0.5890172719955444,1.1309062242507935,0.5670886039733887,-0.6841400861740112,-0.4947906732559204,1.230137825012207,-0.12646976113319397,1.2959578037261963,0.4939911961555481,0.737665057182312,1.3190882205963135,-0.33765679597854614,0.2688613533973694,0.7191379070281982,0.12137126922607422,-0.45125389099121094,-0.15521705150604248,-0.2157832384109497,0.9603356122970581,-0.14053750038146973,-0.11817872524261475,-0.3334493637084961,0.26548516750335693,-0.09665539860725403,0.06438398361206055,0.9799641370773315,-0.07394468784332275,0.5330022573471069,0.9320358037948608
10,-0.38950642943382263,-0.001926204189658165,0.010923992842435837,-0.3787218928337097,-0.694777250289917,1.404344081878662,1.2385209798812866,-0.5656414031982422,1.1558256149291992,0.5670886039733887,-0.6841400861740112,-0.4947906732559204,1.2751985788345337,-0.12798207998275757,1.3219075202941895,0.5277011394500732,0.7532838582992554,1.3673269748687744,-0.29651203751564026,0.2502139210700989,0.7191379070281982,0.12137126922607422,-0.45125389099121094,-0.15521705150604248,-0.2157832384109497,0.9603356122970581,-0.14053750038146973,-0.11817872524261475,-0.3334493637084961,0.22419163584709167,-0.0953182578086853,0.06438398361206055,0.9799641370773315,-0.07394468784332275,0.5330022573471069,0.9320358037948608
11,-0.34372466802597046,0.0024173660203814507,0.016440294682979584,-0.3343189060688019,-0.7123590707778931,1.4474539756774902,1.2702951431274414,-0.5429345369338989,1.1799733638763428,0.5670886039733887,-0.6841400861740112,-0.4947906732559204,1.3110100030899048,-0.13484422862529755,1.3449244499206543,0.5598105192184448,0.7673439979553223,1.4130744934082031,-0.2577868402004242,0.23283301293849945,0.7191379070281982,0.12137126922607422,-0.45125389099121094,-0.15521705150604248,-0.2157832384109497,0.9603356122970581,-0.14053750038146973,-0.11817872524261475,-0.3334493637084961,0.18535932898521423,-0.08974572271108627,0.06438398361206055,0.9799641370773315,-0.07394468784332275,0.5330022573471069,0.9320358037948608
12,-0.29955053329467773,0.0037385837640613317,0.016719387844204903,-0.2912735641002655,-0.724871814250946,1.487936019897461,1.2955663204193115,-0.5195338726043701,1.2023389339447021,0.5670886039733887,-0.6841400861740112,-0.4947906732559204,1.3383030891418457,-0.14491602778434753,1.3648693561553955,0.5894647240638733,0.7801327705383301,1.4545902013778687,-0.22220060229301453,0.21713250875473022,0.7191379070281982,0.12137126922607422,-0.45125389099121094,-0.15521705150604248,-0.2157832384109497,0.9603356122970581,-0.14053750038146973,-0.11817872524261475,-0.3334493637084961,0.14944034814834595,-0.0805462896823883,0.06438398361206055,0.9799641370773315,-0.07394468784332275,0.5330022573471069,0.9320358037948608
13,-0.2573959529399872,0.0038513331674039364,0.014664174988865852,-0.2500348687171936,-0.7328068017959595,1.5252498388290405,1.3137966394424438,-0.4947265088558197,1.2222604751586914,0.5670886039733887,-0.6841400861740112,-0.4947906732559204,1.359157919883728,-0.15602906048297882,1.3819955587387085,0.6161685585975647,0.791815996170044,1.4907711744308472,-0.19031605124473572,0.2032822221517563,0.7191379070281982,0.12137126922607422,-0.45125389099121094,-0.15521705150604248,-0.2157832384109497,0.9603356122970581,-0.14053750038146973,-0.11817872524261475,-0.3334493637084961,0.11672478169202805,-0.06904258579015732,0.06438398361206055,0.9799641370773315,-0.07394468784332275,0.5330022573471069,0.9320358037948608
14,-0.21759016811847687,0.0035135336220264435,0.011956647969782352,-0.2109842598438263,-0.7371459007263184,1.5589239597320557,1.3251142501831055,-0.46861380338668823,1.2395306825637817,0.5670886039733887,-0.6841400861740112,-0.4947906732559204,1.3757120370864868,-0.1664910912513733,1.3967338800430298,0.639726459980011,0.8024706840515137,1.521279215812683,-0.16250860691070557,0.19121861457824707,0.7191379070281982,0.12137126922607422,-0.45125389099121094,-0.15521705150604248,-0.2157832384109497,0.9603356122970581,-0.14053750038146973,-0.11817872524261475,-0.3334493637084961,0.08739612251520157,-0.05653814971446991,0.06438398361206055,0.9799641370773315,-0.07394468784332275,0.5330022573471069,0.9320358037948608
15,-0.18039093911647797,0.002991007175296545,0.009256160818040371,-0.17443715035915375,-0.7390779852867126,1.58860445022583,1.3302773237228394,-0.44181495904922485,1.2542973756790161,0.5670886039733887,-0.6841400861740112,-0.4947906732559204,1.389604926109314,-0.17525850236415863,1.4095561504364014,0.6601759195327759,0.8121388554573059,1.5464316606521606,-0.138946071267128,0.18073317408561707,0.7191379070281982,0.12137126922607422,-0.45125389099121094,-0.15521705150604248,-0.2157832384109497,0.9603356122970581,-0.14053750038146973,-0.11817872524261475,-0.3334493637084961,0.06156209856271744,-0.04403568059206009,0.06438398361206055,0.9799641370773315,-0.07394468784332275,0.5330022573471069,0.9320358037948608
16,-0.14599609375,0.0024130104575306177,0.006787974387407303,-0.14064505696296692,-0.739716112613678,1.614091396331787,1.33046293258667,-0.41511070728302,1.2669076919555664,0.5670886039733887,-0.6841400861740112,-0.4947906732559204,1.4019651412963867,-0.18189343810081482,1.4209051132202148,0.6777457594871521,0.8208682537078857,1.5669922828674316,-0.11958970129489899,0.17156171798706055,0.7191379070281982,0.12137126922607422,-0.45125389099121094,-0.15521705150604248,-0.2157832384109497,0.9603356122970581,-0.14053750038146973,-0.11817872524261475,-0.3334493637084961,0.039262574166059494,-0.032273419201374054,0.06438398361206055,0.9799641370773315,-0.07394468784332275,0.5330022573471069,0.9320358037948608
17,-0.11455249786376953,0.0018585467478260398,0.004652893636375666,-0.10979664325714111,-0.7399145364761353,1.6353548765182495,1.3269952535629272,-0.38922223448753357,1.2777777910232544,0.5670886039733887,-0.6841400861740112,-0.4947906732559204,1.4134920835494995,-0.1864290088415146,1.431152582168579,0.6928080320358276,0.8287308216094971,1.5839444398880005,-0.10422015190124512,0.16344480216503143,0.7191379070281982,0.12137126922607422,-0.45125389099121094,-0.15521705150604248,-0.2157832384109497,0.9603356122970581,-0.14053750038146973,-0.11817872524261475,-0.3334493637084961,0.02046816796064377,-0.02175745740532875,0.06438398361206055,0.9799641370773315,-0.07394468784332275,0.5330022573471069,0.9320358037948608
18,-0.08616011589765549,0.001372828963212669,0.0029007981065660715,-0.08201742172241211,-0.7402071952819824,1.6525306701660156,1.3211292028427124,-0.36470580101013184,1.2873014211654663,0.5670886039733887,-0.6841400861740112,-0.4947906732559204,1.424540400505066,-0.18919876217842102,1.4405739307403564,0.7058049440383911,0.835820198059082,1.5982787609100342,-0.09248200803995132,0.156161367893219,0.7191379070281982,0.12137126922607422,-0.45125389099121094,-0.15521705150604248,-0.2157832384109497,0.9603356122970581,-0.14053750038146973,-0.11817872524261475,-0.3334493637084961,0.005074371583759785,-0.01276065781712532,0.06438398361206055,0.9799641370773315,-0.07394468784332275,0.5330022573471069,0.9320358037948608
19,-0.06087137758731842,0.0009749809978529811,0.001537520787678659,-0.05736921727657318,-0.7408375144004822,1.6658966541290283,1.3139312267303467,-0.34191733598709106,1.2958016395568848,0.5670886039733887,-0.6841400861740112,-0.4947906732559204,1.4352202415466309,-0.19067099690437317,1.4493435621261597,0.7171719074249268,0.8422381281852722,1.6108392477035522,-0.0839356929063797,0.1495414525270462,0.7191379070281982,0.12137126922607422,-0.45125389099121094,-0.15521705150604248,-0.2157832384109497,0.9603356122970581,-0.14053750038146973,-0.11817872524261475,-0.3334493637084961,-0.007103329990059137,-0.005345971789211035,0.06438398361206055,0.9799641370773315,-0.07394468784332275,0.5330022573471069,0.9320358037948608
20,-0.03868873417377472,0.000665155821479857,0.0005318323383107781,-0.035851046442985535,-0.7418356537818909,1.6758352518081665,1.3062416315078735,-0.32102182507514954,1.303516149520874,0.5670886039733887,-0.6841400861740112,-0.4947906732559204,1.4454939365386963,-0.19132153689861298,1.457548975944519,0.7272834777832031,0.8480808734893799,1.6222513914108276,-0.07810621708631516,0.14346429705619812,0.7191379070281982,0.12137126922607422,-0.45125389099121094,-0.15521705150604248,-0.2157832384109497,0.9603356122970581,-0.14053750038146973,-0.11817872524261475,-0.3334493637084961,-0.016325894743204117,0.0005751168355345726,0.06438398361206055,0.9799641370773315,-0.07394468784332275,0.5330022573471069,0.9320358037948608
21,-0.019563304260373116,0.0004327560309320688,-0.00017023150576278567,-0.01740233227610588,-0.7431042790412903,1.6827903985977173,1.2986836433410645,-0.30202972888946533,1.3106073141098022,0.5670886039733887,-0.6841400861740112,-0.4947906732559204,1.4552552700042725,-0.1915578991174698,1.4652177095413208,0.7364307641983032,0.8534307479858398,1.6329208612442017,-0.07452190667390823,0.1378486305475235,0.7191379070281982,0.12137126922607422,-0.45125389099121094,-0.15521705150604248,-0.2157832384109497,0.9603356122970581,-0.14053750038146973,-0.11817872524261475,-0.3334493637084961,-0.02291588857769966,0.005173600744456053,0.06438398361206055,0.9799641370773315,-0.07394468784332275,0.5330022573471069,0.9320358037948608
22,-0.0033961795270442963,0.0002631782554090023,-0.0006304880371317267,-0.001908550038933754,-0.7444912195205688,1.6872273683547974,1.2916913032531738,-0.28484347462654114,1.317179799079895,0.5670886039733887,-0.6841400861740112,-0.4947906732559204,1.4643845558166504,-0.1916881799697876,1.4723460674285889,0.7448237538337708,0.8583540916442871,1.6430729627609253,-0.07274100929498672,0.13264113664627075,0.7191379070281982,0.12137126922607422,-0.45125389099121094,-0.15521705150604248,-0.2157832384109497,0.9603356122970581,-0.14053750038146973,-0.11817872524261475,-0.3334493637084961,-0.02723461575806141,0.008646368980407715,0.06438398361206055,0.9799641370773315,-0.07394468784332275,0.5330022573471069,0.9320358037948608
23,0.009957106783986092,0.00014207139611244202,-0.0009079086594283581,0.010791183449327946,-0.7458399534225464,1.689600944519043,1.2855414152145386,-0.26930126547813416,1.3232996463775635,0.5670886039733887,-0.6841400861740112,-0.4947906732559204,1.4727821350097656,-0.19191913306713104,1.4789221286773682,0.7526053786277771,0.8629022240638733,1.6528058052062988,-0.07236697524785995,0.12780636548995972,0.7191379070281982,0.12137126922607422,-0.45125389099121094,-0.15521705150604248,-0.2157832384109497,0.9603356122970581,-0.14053750038146973,-0.11817872524261475,-0.3334493637084961,-0.02965705096721649,0.011181743815541267,0.06438398361206055,0.9799641370773315,-0.07394468784332275,0.5330022573471069,0.9320358037948608
24,0.020679662004113197,5.7242054026573896e-05,-0.0010530869476497173,0.020895112305879593,-0.7470192313194275,1.690333604812622,1.2803844213485718,-0.2552119195461273,1.3290085792541504,0.5670886039733887,-0.6841400861740112,-0.4947906732559204,1.480385184288025,-0.19236935675144196,1.4849401712417603,0.759868860244751,0.8671144247055054,1.6621379852294922,-0.07305514812469482,0.12331930547952652,0.7191379070281982,0.12137126922607422,-0.45125389099121094,-0.15521705150604248,-0.2157832384109497,0.9603356122970581,-0.14053750038146973,-0.11817872524261475,-0.3334493637084961,-0.03054961934685707,0.01294400729238987,0.06438398361206055,0.9799641370773315,-0.07394468784332275,0.5330022573471069,0.9320358037948608
25,0.028984734788537025,-8.816714398562908e-07,-0.0011064322898164392,0.028629254549741745,-0.7479361891746521,1.6898036003112793,1.2762720584869385,-0.24237975478172302,1.3343340158462524,0.5670886039733887,-0.6841400861740112,-0.4947906732559204,1.4871715307235718,-0.19308793544769287,1.490407109260559,0.7666727304458618,0.8710207939147949,1.6710467338562012,-0.07451355457305908,0.11916054785251617,0.7191379070281982,0.12137126922607422,-0.45125389099121094,-0.15521705150604248,-0.2157832384109497,0.9603356122970581,-0.14053750038146973,-0.11817872524261475,-0.3334493637084961,-0.030253440141677856,0.014070430770516396,0.06438398361206055,0.9799641370773315,-0.07394468784332275,0.5330022573471069,0.9320358037948608
26,0.035106636583805084,-3.9508420741185546e-05,-0.001098619308322668,0.03423784673213959,-0.7485390305519104,1.6883392333984375,1.2731812000274658,-0.2306208312511444,1.3392952680587769,0.5670886039733887,-0.6841400861740112,-0.4947906732559204,1.493155837059021,-0.19407343864440918,1.4953430891036987,0.7730528712272644,0.8746447563171387,1.6794930696487427,-0.07650019228458405,0.11531329154968262,0.7191379070281982,0.12137126922607422,-0.45125389099121094,-0.15521705150604248,-0.2157832384109497,0.9603356122970581,-0.14053750038146973,-0.11817872524261475,-0.3334493637084961,-0.029073568060994148,0.014674323610961437,0.06438398361206055,0.9799641370773315,-0.07394468784332275,0.5330022573471069,0.9320358037948608
27,0.03929184377193451,-6.395531818270683e-05,-0.0010519977658987045,0.03797442466020584,-0.7488129138946533,1.6862188577651978,1.27103590965271,-0.2197728157043457,1.3439077138900757,0.5670886039733887,-0.6841400861740112,-0.4947906732559204,1.4983817338943481,-0.19529099762439728,1.4997786283493042,0.779030978679657,0.8780050873756409,1.687438726425171,-0.07881840318441391,0.11176171153783798,0.7191379070281982,0.12137126922607422,-0.45125389099121094,-0.15521705150604248,-0.2157832384109497,0.9603356122970581,-0.14053750038146973,-0.11817872524261475,-0.3334493637084961,-0.02727343514561653,0.014850074425339699,0.06438398361206055,0.9799641370773315,-0.07394468784332275,0.5330022573471069,0.9320358037948608
28,0.041790880262851715,-7.812256808392704e-05,-0.0009823181899264455,0.04009384289383888,-0.7487724423408508,1.6836732625961304,1.2697256803512573,-0.20969989895820618,1.3481849431991577,0.5670886039733887,-0.6841400861740112,-0.4947906732559204,1.502912163734436,-0.19668661057949066,1.5037511587142944,0.7846205234527588,0.8811174035072327,1.6948548555374146,-0.08131153881549835,0.10849012434482574,0.7191379070281982,0.12137126922607422,-0.45125389099121094,-0.15521705150604248,-0.2157832384109497,0.9603356122970581,-0.14053750038146973,-0.11817872524261475,-0.3334493637084961,-0.025073383003473282,0.014677921310067177,0.06438398361206055,0.9799641370773315,-0.07394468784332275,0.5330022573471069,0.9320358037948608
29,0.0428512766957283,-8.487828017678112e-05,-0.0009003642480820417,0.04084552079439163,-0.7484537363052368,1.6808898448944092,1.2691211700439453,-0.20029431581497192,1.352140188217163,0.5670886039733887,-0.6841400861740112,-0.4947906732559204,1.506820559501648,-0.19819840788841248,1.5073018074035645,0.7898311614990234,0.8839954137802124,1.7017260789871216,-0.08385752141475677,0.10548266023397446,0.7191379070281982,0.12137126922607422,-0.45125389099121094,-0.15521705150604248,-0.2157832384109497,0.9603356122970581,-0.14053750038146973,-0.11817872524261475,-0.3334493637084961,-0.022652052342891693,0.014227532781660557,0.06438398361206055,0.9799641370773315,-0.07394468784332275,0.5330022573471069,0.9320358037948608
30,0.0427117720246315,-8.634808182250708e-05,-0.000813326973002404,0.04046795517206192,-0.7479060292243958,1.6780171394348145,1.269086480140686,-0.19147522747516632,1.3557876348495483,0.5670886039733887,-0.6841400861740112,-0.4947906732559204,1.5101839303970337,-0.19976501166820526,1.5104721784591675,0.794671356678009,0.8866515159606934,1.7080515623092651,-0.08636365085840225,0.10272318869829178,0.7191379070281982,0.12137126922607422,-0.45125389099121094,-0.15521705150604248,-0.2157832384109497,0.9603356122970581,-0.14053750038146973,-0.11817872524261475,-0.3334493637084961,-0.020149627700448036,0.013560459017753601,0.06438398361206055,0.9799641370773315,-0.07394468784332275,0.5330022573471069,0.9320358037948608
31,0.04159779101610184,-8.412048919126391e-05,-0.000725888938177377,0.03918449208140373,-0.7471849322319031,1.675169825553894,1.26948881149292,-0.1831859052181244,1.3591418266296387,0.5670886039733887,-0.6841400861740112,-0.4947906732559204,1.5130776166915894,-0.2013312578201294,1.5133026838302612,0.7991504073143005,0.8890975713729858,1.7138429880142212,-0.08876191824674606,0.10019546747207642,0.7191379070281982,0.12137126922607422,-0.45125389099121094,-0.15521705150604248,-0.2157832384109497,0.9603356122970581,-0.14053750038146973,-0.11817872524261475,-0.3334493637084961,-0.017672138288617134,0.012731369584798813,0.06438398361206055,0.9799641370773315,-0.07394468784332275,0.5330022573471069,0.9320358037948608
32,0.03971805050969124,-7.939089846331626e-05,-0.0006410161731764674,0.037200216203927994,-0.7463464140892029,1.6724337339401245,1.2702056169509888,-0.1753896027803421,1.3622186183929443,0.5670886039733887,-0.6841400861740112,-0.4947906732559204,1.5155717134475708,-0.2028515785932541,1.5158315896987915,0.803279459476471,0.8913453817367554,1.7191226482391357,-0.09100469201803207,0.09788332134485245,0.7191379070281982,0.12137126922607422,-0.45125389099121094,-0.15521705150604248,-0.2157832384109497,0.9603356122970581,-0.14053750038146973,-0.11817872524261475,-0.3334493637084961,-0.015296251513063908,0.011788764968514442,0.06438398361206055,0.9799641370773315,-0.07394468784332275,0.5330022573471069,0.9320358037948608
33,0.037262264639139175,-7.306470797630027e-05,-0.0005605449550785124,0.03469995781779289,-0.745442807674408,1.6698700189590454,1.2711284160614014,-0.16806522011756897,1.3650343418121338,0.5670886039733887,-0.6841400861740112,-0.4947906732559204,1.5177289247512817,-0.20429140329360962,1.5180938243865967,0.807072103023529,0.8934065103530884,1.723920226097107,-0.09306106716394424,0.09577082842588425,0.7191379070281982,0.12137126922607422,-0.45125389099121094,-0.15521705150604248,-0.2157832384109497,0.9603356122970581,-0.14053750038146973,-0.11817872524261475,-0.3334493637084961,-0.013074140064418316,0.010775126516819,0.06438398361206055,0.9799641370773315,-0.07394468784332275,0.5330022573471069,0.9320358037948608
34,0.03439973667263985,-6.58254575682804e-05,-0.000485552562167868,0.03184711933135986,-0.7445200085639954,1.6675193309783936,1.2721654176712036,-0.16120266914367676,1.367606282234192,0.5670886039733887,-0.6841400861740112,-0.4947906732559204,1.519603967666626,-0.2056272327899933,1.520120620727539,0.8105441331863403,0.8952928185462952,1.7282699346542358,-0.094913549721241,0.09384256601333618,0.7191379070281982,0.12137126922607422,-0.45125389099121094,-0.15521705150604248,-0.2157832384109497,0.9603356122970581,-0.14053750038146973,-0.11817872524261475,-0.3334493637084961,-0.011038104072213173,0.009727129712700844,0.06438398361206055,0.9799641370773315,-0.07394468784332275,0.5330022573471069,0.9320358037948608
35,0.03127871826291084,-5.8188576076645404e-05,-0.00041662895819172263,0.028783347457647324,-0.7436160445213318,1.6654052734375,1.2732423543930054,-0.15479880571365356,1.3699517250061035,0.5670886039733887,-0.6841400861740112,-0.4947906732559204,1.521243691444397,-0.20684561133384705,1.5219402313232422,0.8137136101722717,0.8970160484313965,1.7322083711624146,-0.09655527025461197,0.09208374470472336,0.7191379070281982,0.12137126922607422,-0.45125389099121094,-0.15521705150604248,-0.2157832384109497,0.9603356122970581,-0.14053750038146973,-0.11817872524261475,-0.3334493637084961,-0.009204822592437267,0.008675577118992805,0.06438398361206055,0.9799641370773315,-0.07394468784332275,0.5330022573471069,0.9320358037948608
36,0.028026433661580086,-5.0530383305158466e-05,-0.0003540132020134479,0.025628773495554924,-0.7427602410316467,1.6635380983352661,1.2743018865585327,-0.14885388314723969,1.372087836265564,0.5670886039733887,-0.6841400861740112,-0.4947906732559204,1.5226869583129883,-0.20794153213500977,1.5235772132873535,0.81659996509552,0.8985879421234131,1.7357722520828247,-0.09798754751682281,0.09048037230968475,0.7191379070281982,0.12137126922607422,-0.45125389099121094,-0.15521705150604248,-0.2157832384109497,0.9603356122970581,-0.14053750038146973,-0.11817872524261475,-0.3334493637084961,-0.007579073775559664,0.007645787205547094,0.06438398361206055,0.9799641370773315,-0.07394468784332275,0.5330022573471069,0.9320358037948608
37,0.024749629199504852,-4.313042518333532e-05,-0.0002977477270178497,0.02248283661901951,-0.7419736385345459,1.6619174480438232,1.2753020524978638,-0.14336878061294556,1.3740314245224,0.5670886039733887,-0.6841400861740112,-0.4947906732559204,1.5239660739898682,-0.20891660451889038,1.5250531435012817,0.8192237019538879,0.9000200629234314,1.7389971017837524,-0.09921783953905106,0.0890193060040474,0.7191379070281982,0.12137126922607422,-0.45125389099121094,-0.15521705150604248,-0.2157832384109497,0.9603356122970581,-0.14053750038146973,-0.11817872524261475,-0.3334493637084961,-0.006156936753541231,0.006657646037638187,0.06438398361206055,0.9799641370773315,-0.07394468784332275,0.5330022573471069,0.9320358037948608
38,0.021535532549023628,-3.6169265513308346e-05,-0.0002476736844982952,0.01942547596991062,-0.7412695288658142,1.6605347394943237,1.276214599609375,-0.1383429765701294,1.3757988214492798,0.5670886039733887,-0.6841400861740112,-0.4947906732559204,1.5251076221466064,-0.20977714657783508,1.5263869762420654,0.8216055035591125,0.901323676109314,1.741916298866272,-0.10025807470083237,0.08768832683563232,0.7191379070281982,0.12137126922607422,-0.45125389099121094,-0.15521705150604248,-0.2157832384109497,0.9603356122970581,-0.14053750038146973,-0.11817872524261475,-0.3334493637084961,-0.004928418435156345,0.005726357456296682,0.06438398361206055,0.9799641370773315,-0.07394468784332275,0.5330022573471069,0.9320358037948608
39,0.01845315471291542,-2.9779977921862155e-05,-0.00020356866298243403,0.016518643125891685,-0.7406549453735352,1.6593756675720215,1.2770224809646606,-0.13377323746681213,1.3774052858352661,0.5670886039733887,-0.6841400861740112,-0.4947906732559204,1.5261329412460327,-0.2105325162410736,1.527594804763794,0.8237658143043518,0.9025094509124756,1.7445604801177979,-0.10112316906452179,0.08647611737251282,0.7191379070281982,0.12137126922607422,-0.45125389099121094,-0.15521705150604248,-0.2157832384109497,0.9603356122970581,-0.14053750038146973,-0.11817872524261475,-0.3334493637084961,-0.003879604861140251,0.004862488247454166,0.06438398361206055,0.9799641370773315,-0.07394468784332275,0.5330022573471069,0.9320358037948608
40,0.015554825775325298,-2.4016138922888786e-05,-0.00016506896645296365,0.013808030635118484,-0.7401312589645386,1.6584219932556152,1.2777185440063477,-0.12965287268161774,1.378865122795105,0.5670886039733887,-0.6841400861740112,-0.4947906732559204,1.527059555053711,-0.21119368076324463,1.5286909341812134,0.8257243633270264,0.9035875797271729,1.7469573020935059,-0.10182987153530121,0.08537226915359497,0.7191379070281982,0.12137126922607422,-0.45125389099121094,-0.15521705150604248,-0.2157832384109497,0.9603356122970581,-0.14053750038146973,-0.11817872524261475,-0.3334493637084961,-0.0029943096451461315,0.004073151852935553,0.06438398361206055,0.9799641370773315,-0.07394468784332275,0.5330022573471069,0.9320358037948608
41,0.01287791971117258,-1.8929462385131046e-05,-0.00013183848932385445,0.011324930004775524,-0.7396958470344543,1.6576530933380127,1.2783020734786987,-0.1259714663028717,1.3801915645599365,0.5670886039733887,-0.6841400861740112,-0.4947906732559204,1.5279014110565186,-0.2117720991373062,1.5296874046325684,0.8274998664855957,0.9045676589012146,1.7491315603256226,-0.10239578783512115,0.08436723798513412,0.7191379070281982,0.12137126922607422,-0.45125389099121094,-0.15521705150604248,-0.2157832384109497,0.9603356122970581,-0.14053750038146973,-0.11817872524261475,-0.3334493637084961,-0.0022553789895027876,0.003361680079251528,0.06438398361206055,0.9799641370773315,-0.07394468784332275,0.5330022573471069,0.9320358037948608
42,0.010446636006236076,-1.4485205610981211e-05,-0.00010339113941881806,0.009088147431612015,-0.739342987537384,1.6570470333099365,1.2787779569625854,-0.12271501868963242,1.3813968896865845,0.5670886039733887,-0.6841400861740112,-0.4947906732559204,1.5286699533462524,-0.21227890253067017,1.530594825744629,0.8291096091270447,0.9054584503173828,1.7511054277420044,-0.10283871740102768,0.08345228433609009,0.7191379070281982,0.12137126922607422,-0.45125389099121094,-0.15521705150604248,-0.2157832384109497,0.9603356122970581,-0.14053750038146973,-0.11817872524261475,-0.3334493637084961,-0.0016455785371363163,0.002729479456320405,0.06438398361206055,0.9799641370773315,-0.07394468784332275,0.5330022573471069,0.9320358037948608
43,0.008273866027593613,-1.0711160939536057e-05,-7.939346687635407e-05,0.007105912081897259,-0.7390649914741516,1.656581997871399,1.2791547775268555,-0.11986622214317322,1.3824923038482666,0.5670886039733887,-0.6841400861740112,-0.4947906732559204,1.529374361038208,-0.21272438764572144,1.5314222574234009,0.8305696845054626,0.9062681794166565,1.7528984546661377,-0.10317593067884445,0.08261944353580475,0.7191379070281982,0.12137126922607422,-0.45125389099121094,-0.15521705150604248,-0.2157832384109497,0.9603356122970581,-0.14053750038146973,-0.11817872524261475,-0.3334493637084961,-0.001148315379396081,0.0021746456623077393,0.06438398361206055,0.9799641370773315,-0.07394468784332275,0.5330022573471069,0.9320358037948608
44,0.006362969055771828,-7.491600626963191e-06,-5.9252492064842954e-05,0.00537773035466671,-0.7388530969619751,1.6562366485595703,1.2794430255889893,-0.1174049824476242,1.3834880590438843,0.5670886039733887,-0.6841400861740112,-0.4947906732559204,1.5300219058990479,-0.21311770379543304,1.5321776866912842,0.83189457654953,0.907004177570343,1.7545279264450073,-0.10342387109994888,0.08186142891645432,0.7191379070281982,0.12137126922607422,-0.45125389099121094,-0.15521705150604248,-0.2157832384109497,0.9603356122970581,-0.14053750038146973,-0.11817872524261475,-0.3334493637084961,-0.000747972575481981,0.001695294980891049,0.06438398361206055,0.9799641370773315,-0.07394468784332275,0.5330022573471069,0.9320358037948608
45,0.0047095781192183495,-4.9004811444319785e-06,-4.27736813435331e-05,0.0038961353711783886,-0.7386979460716248,1.6559909582138062,1.2796542644500732,-0.11530894786119461,1.3843932151794434,0.5670886039733887,-0.6841400861740112,-0.4947906732559204,1.5306187868118286,-0.21346674859523773,1.5328681468963623,0.8330973982810974,0.9076732993125916,1.7560094594955444,-0.10359776020050049,0.08117160946130753,0.7191379070281982,0.12137126922607422,-0.45125389099121094,-0.15521705150604248,-0.2157832384109497,0.9603356122970581,-0.14053750038146973,-0.11817872524261475,-0.3334493637084961,-0.0004303104942664504,0.0012856656685471535,0.06438398361206055,0.9799641370773315,-0.07394468784332275,0.5330022573471069,0.9320358037948608
46,0.003303148318082094,-2.692414454941172e-06,-2.91683118121e-05,0.0026482990942895412,-0.73859041929245,1.6558268070220947,1.279800534248352,-0.11355412751436234,1.385216236114502,0.5670886039733887,-0.6841400861740112,-0.4947906732559204,1.5311700105667114,-0.21377812325954437,1.5334995985031128,0.8341898918151855,0.908281683921814,1.7573567628860474,-0.10371144115924835,0.08054393529891968,0.7191379070281982,0.12137126922607422,-0.45125389099121094,-0.15521705150604248,-0.2157832384109497,0.9603356122970581,-0.14053750038146973,-0.11817872524261475,-0.3334493637084961,-0.00018237381300423294,0.0009431577636860311,0.06438398361206055,0.9799641370773315,-0.07394468784332275,0.5330022573471069,0.9320358037948608
47,0.0021286015398800373,-1.1210713637410663e-06,-1.8628563339007087e-05,0.0016174925258383155,-0.7385216951370239,1.6557276248931885,1.279893398284912,-0.11211538314819336,1.3859646320343018,0.5670886039733887,-0.6841400861740112,-0.4947906732559204,1.531679391860962,-0.2140573263168335,1.5340772867202759,0.8351826071739197,0.9088348746299744,1.7585822343826294,-0.10377725213766098,0.07997288554906845,0.7191379070281982,0.12137126922607422,-0.45125389099121094,-0.15521705150604248,-0.2157832384109497,0.9603356122970581,-0.14053750038146973,-0.11817872524261475,-0.3334493637084961,7.134614861570299e-06,0.000658166129142046,0.06438398361206055,0.9799641370773315,-0.07394468784332275,0.5330022573471069,0.9320358037948608
48,0.0011674577835947275,3.728146111825481e-07,-9.83747304417193e-06,0.0007843686616979539,-0.7384839057922363,1.6556787490844727,1.279943585395813,-0.11096697300672531,1.3866451978683472,0.5670886039733887,-0.6841400861740112,-0.4947906732559204,1.5321507453918457,-0.21430879831314087,1.5346062183380127,0.8360849618911743,0.9093378186225891,1.7596968412399292,-0.10380595177412033,0.07945343852043152,0.7191379070281982,0.12137126922607422,-0.45125389099121094,-0.15521705150604248,-0.2157832384109497,0.9603356122970581,-0.14053750038146973,-0.11817872524261475,-0.3334493637084961,0.0001484429812990129,0.0004311482480261475,0.06438398361206055,0.9799641370773315,-0.07394468784332275,0.5330022573471069,0.9320358037948608
49,0.00039937515975907445,1.0074427336803637e-06,-4.004142283520196e-06,0.0001280723954550922,-0.7384698987007141,1.655667781829834,1.2799605131149292,-0.11008297652006149,1.3872640132904053,0.5670886039733887,-0.6841400861740112,-0.4947906732559204,1.5325864553451538,-0.2145361602306366,1.5350902080535889,0.8369053602218628,0.9097951650619507,1.7607107162475586,-0.10380683839321136,0.07898100465536118,0.7191379070281982,0.12137126922607422,-0.45125389099121094,-0.15521705150604248,-0.2157832384109497,0.9603356122970581,-0.14053750038146973,-0.11817872524261475,-0.3334493637084961,0.0002498895628377795,0.0002453800989314914,0.06438398361206055,0.9799641370773315,-0.07394468784332275,0.5330022573471069,0.9320358037948608
50,-0.00019743377924896777,2.2402800823329017e-06,1.7695838323561475e-06,-0.00037283357232809067,-0.7384735345840454,1.655684471130371,1.279952883720398,-0.10943768918514252,1.3878268003463745,0.5670886039733887,-0.6841400861740112,-0.4947906732559204,1.5329896211624146,-0.21474230289459229,1.5355331897735596,0.8376513719558716,0.9102110266685486,1.7616326808929443,-0.10378768295049667,0.07855139672756195,0.7191379070281982,0.12137126922607422,-0.45125389099121094,-0.15521705150604248,-0.2157832384109497,0.9603356122970581,-0.14053750038146973,-0.11817872524261475,-0.3334493637084961,0.00031953133293427527,0.00011281596380285919,0.06438398361206055,0.9799641370773315,-0.07394468784332275,0.5330022573471069,0.9320358037948608
51,-0.0006443477468565106,1.711452114250278e-06,3.3773503673728555e-06,-0.0007396053406409919,-0.7384896278381348,1.6557199954986572,1.279927372932434,-0.10900592803955078,1.3883384466171265,0.5670886039733887,-0.6841400861740112,-0.4947906732559204,1.5333611965179443,-0.21492958068847656,1.5359381437301636,0.8383297324180603,0.9105891585350037,1.7624711990356445,-0.1037549376487732,0.07816080003976822,0.7191379070281982,0.12137126922607422,-0.45125389099121094,-0.15521705150604248,-0.2157832384109497,0.9603356122970581,-0.14053750038146973,-0.11817872524261475,-0.3334493637084961,0.00036272371653467417,-3.090026439167559e-06,0.06438398361206055,0.9799641370773315,-0.07394468784332275,0.5330022573471069,0.9320358037948608
52,-0.0009634003508836031,3.6457499845710117e-06,8.637593964522239e-06,-0.000992731424048543,-0.7385140061378479,1.6557674407958984,1.2798902988433838,-0.10876336693763733,1.3888036012649536,0.5670886039733887,-0.6841400861740112,-0.4947906732559204,1.5337051153182983,-0.21509996056556702,1.5363088846206665,0.8389465808868408,0.9109329581260681,1.7632335424423218,-0.1037137433886528,0.07780573517084122,0.7191379070281982,0.12137126922607422,-0.45125389099121094,-0.15521705150604248,-0.2157832384109497,0.9603356122970581,-0.14053750038146973,-0.11817872524261475,-0.3334493637084961,0.0003866181941702962,-5.424570554168895e-05,0.06438398361206055,0.9799641370773315,-0.07394468784332275,0.5330022573471069,0.9320358037948608
53,-0.0011736946180462837,7.034805094008334e-07,4.504049684328493e-06,-0.0011514665093272924,-0.7385431528091431,1.6558213233947754,1.27984619140625,-0.10868654400110245,1.3892264366149902,0.5670886039733887,-0.6841400861740112,-0.4947906732559204,1.5340193510055542,-0.215255007147789,1.5366466045379639,0.8395073413848877,0.9112454652786255,1.7639265060424805,-0.1036682203412056,0.07748300582170486,0.7191379070281982,0.12137126922607422,-0.45125389099121094,-0.15521705150604248,-0.2157832384109497,0.9603356122970581,-0.14053750038146973,-0.11817872524261475,-0.3334493637084961,0.00039262149948626757,-0.00014054348866920918,0.06438398361206055,0.9799641370773315,-0.07394468784332275,0.5330022573471069,0.9320358037948608
54,-0.001296455622650683,6.133703664090717e-06,1.4805851606070064e-05,-0.0012335447827354074,-0.7385745644569397,1.6558774709701538,1.2797986268997192,-0.10875339061021805,1.3896106481552124,0.5670886039733887,-0.6841400861740112,-0.4947906732559204,1.5343118906021118,-0.2153962254524231,1.5369564294815063,0.8400172591209412,0.9115294814109802,1.7645564079284668,-0.10362143814563751,0.07718975096940994,0.7191379070281982,0.12137126922607422,-0.45125389099121094,-0.15521705150604248,-0.2157832384109497,0.9603356122970581,-0.14053750038146973,-0.11817872524261475,-0.3334493637084961,0.0003901434247381985,-9.62066333158873e-05,0.06438398361206055,0.9799641370773315,-0.07394468784332275,0.5330022573471069,0.9320358037948608
55,-0.0013449200196191669,-4.057310434291139e-06,-3.0630653782282025e-06,-0.0012549242237582803,-0.7386062741279602,1.655932903289795,1.2797505855560303,-0.10894277691841125,1.3899598121643066,0.5670886039733887,-0.6841400861740112,-0.4947906732559204,1.5345726013183594,-0.2155245691537857,1.5372358560562134,0.8404805064201355,0.9117875695228577,1.7651286125183105,-0.10357572883367538,0.07692326605319977,0.7191379070281982,0.12137126922607422,-0.45125389099121094,-0.15521705150604248,-0.2157832384109497,0.9603356122970581,-0.14053750038146973,-0.11817872524261475,-0.3334493637084961,0.00037203700048848987,-0.0002364896354265511,0.06438398361206055,0.9799641370773315,-0.07394468784332275,0.5330022573471069,0.9320358037948608
56,-0.0013422408374026418,1.4471110262093134e-05,2.9639686545124277e-05,-0.0012297790963202715,-0.73863685131073,1.6559854745864868,1.2797038555145264,-0.10923559963703156,1.3902770280838013,0.5670886039733887,-0.6841400861740112,-0.4947906732559204,1.5348238945007324,-0.21564169228076935,1.5374958515167236,0.8409017324447632,0.912022054195404,1.765648603439331,-0.1035325825214386,0.0766812264919281,0.7191379070281982,0.12137126922607422,-0.45125389099121094,-0.15521705150604248,-0.2157832384109497,0.9603356122970581,-0.14053750038146973,-0.11817872524261475,-0.3334493637084961,0.00035998731618747115,1.1191463272552937e-05,0.06438398361206055,0.9799641370773315,-0.07394468784332275,0.5330022573471069,0.9320358037948608
57,-0.001287757302634418,-2.1188681785133667e-05,-3.358773756190203e-05,-0.0011702993651852012,-0.7386654019355774,1.6560337543487549,1.2796601057052612,-0.10961295664310455,1.3905651569366455,0.5670886039733887,-0.6841400861740112,-0.4947906732559204,1.5350278615951538,-0.21574744582176208,1.5377216339111328,0.8412838578224182,0.9122350215911865,1.7661209106445312,-0.10349317640066147,0.07646127045154572,0.7191379070281982,0.12137126922607422,-0.45125389099121094,-0.15521705150604248,-0.2157832384109497,0.9603356122970581,-0.14053750038146973,-0.11817872524261475,-0.3334493637084961,0.0003201217041350901,-0.000439664872828871,0.06438398361206055,0.9799641370773315,-0.07394468784332275,0.5330022573471069,0.9320358037948608
58,-0.0012206091778352857,4.638044993043877e-05,8.49147472763434e-05,-0.001087059616111219,-0.7386912107467651,1.6560769081115723,1.2796199321746826,-0.11005958914756775,1.3908268213272095,0.5670886039733887,-0.6841400861740112,-0.4947906732559204,1.5352600812911987,-0.21584485471248627,1.5379467010498047,0.8416320085525513,0.9124284982681274,1.7665499448776245,-0.10345775634050369,0.07626169919967651,0.7191379070281982,0.12137126922607422,-0.45125389099121094,-0.15521705150604248,-0.2157832384109497,0.9603356122970581,-0.14053750038146973,-0.11817872524261475,-0.3334493637084961,0.0003229278954677284,0.00047359158634208143,0.06438398361206055,0.9799641370773315,-0.07394468784332275,0.5330022573471069,0.9320358037948608
59,-0.0010978559730574489,-8.572053775424138e-05,-0.0001477989280829206,-0.000988488900475204,-0.7387141585350037,1.6561148166656494,1.2795836925506592,-0.11055775731801987,1.3910644054412842,0.5670886039733887,-0.6841400861740112,-0.4947906732559204,1.5353796482086182,-0.21593083441257477,1.5381118059158325,0.8419461250305176,0.9126040935516357,1.766939401626587,-0.1034272313117981,0.07608009874820709,0.7191379070281982,0.12137126922607422,-0.45125389099121094,-0.15521705150604248,-0.2157832384109497,0.9603356122970581,-0.14053750038146973,-0.11817872524261475,-0.3334493637084961,0.000236445470363833,-0.0012444914318621159,0.06438398361206055,0.9799641370773315,-0.07394468784332275,0.5330022573471069,0.9320358037948608
60,-0.0010315680410712957,0.00017349371046293527,0.0003065259661525488,-0.0008821871015243232,-0.7387340068817139,1.6561473608016968,1.2795519828796387,-0.11109813302755356,1.3912802934646606,0.5670886039733887,-0.6841400861740112,-0.4947906732559204,1.5356669425964355,-0.2160133272409439,1.538337230682373,0.8422350883483887,0.9127637147903442,1.767293095588684,-0.10340018570423126,0.07591595500707626,0.7191379070281982,0.12137126922607422,-0.45125389099121094,-0.15521705150604248,-0.2157832384109497,0.9603356122970581,-0.14053750038146973,-0.11817872524261475,-0.3334493637084961,0.00032372368150390685,0.0022293333895504475,0.06438398361206055,0.9799641370773315,-0.07394468784332275,0.5330022573471069,0.9320358037948608
61,-0.0008221316966228187,-0.00034439790761098266,-0.0006018733256496489,-0.0007727525080554187,-0.7387511134147644,1.6561750173568726,1.2795239686965942,-0.11165959388017654,1.3914759159088135,0.5670886039733887,-0.6841400861740112,-0.4947906732559204,1.5355826616287231,-0.21607984602451324,1.5383899211883545,0.8424899578094482,0.9129082560539246,1.767613410949707,-0.10337908565998077,0.07576547563076019,0.7191379070281982,0.12137126922607422,-0.45125389099121094,-0.15521705150604248,-0.2157832384109497,0.9603356122970581,-0.14053750038146973,-0.11817872524261475,-0.3334493637084961,6.390711496351287e-05,-0.0046421680599451065,0.06438398361206055,0.9799641370773315,-0.07394468784332275,0.5330022573471069,0.9320358037948608
62,-0.0008900159155018628,0.0007014200673438609,0.0012296215863898396,-0.0006665518740192056,-0.7387652397155762,1.656197428703308,1.2795004844665527,-0.11224387586116791,1.3916531801223755,0.5670886039733887,-0.6841400861740112,-0.4947906732559204,1.5362526178359985,-0.21615435183048248,1.5387415885925293,0.8427346348762512,0.9130396842956543,1.7679016590118408,-0.10335833579301834,0.0756320059299469,0.7191379070281982,0.12137126922607422,-0.45125389099121094,-0.15521705150604248,-0.2157832384109497,0.9603356122970581,-0.14053750038146973,-0.11817872524261475,-0.3334493637084961,0.0005096257664263248,0.009349650703370571,0.06438398361206055,0.9799641370773315,-0.07394468784332275,0.5330022573471069,0.9320358037948608
63,-0.0003942672337871045,-0.0014369351556524634,-0.0025088530965149403,-0.0005626643542200327,-0.7387776374816895,1.6562172174453735,1.2794792652130127,-0.11280438303947449,1.3918125629425049,0.5670886039733887,-0.6841400861740112,-0.4947906732559204,1.5355850458145142,-0.21619300544261932,1.5384446382522583,0.8429276347160339,0.9131578803062439,1.7681546211242676,-0.10334807634353638,0.07550514489412308,0.7191379070281982,0.12137126922607422,-0.45125389099121094,-0.15521705150604248,-0.2157832384109497,0.9603356122970581,-0.14053750038146973,-0.11817872524261475,-0.3334493637084961,-0.00048417630023323,-0.018979623913764954,0.06438398361206055,0.9799641370773315,-0.07394468784332275,0.5330022573471069,0.9320358037948608
64,-0.0010674057994037867,0.002985753118991852,0.005205805413424969,-0.00047184439608827233,-0.7387874126434326,1.6562327146530151,1.2794634103775024,-0.11334149539470673,1.3919482231140137,0.5670886039733887,-0.6841400861740112,-0.4947906732559204,1.5386147499084473,-0.2162644863128662,1.539442777633667,0.8431445956230164,0.9132622480392456,1.7683391571044922,-0.10332656651735306,0.07540474086999893,0.7191379070281982,0.12137126922607422,-0.45125389099121094,-0.15521705150604248,-0.2157832384109497,0.9603356122970581,-0.14053750038146973,-0.11817872524261475,-0.3334493637084961,0.0014845780096948147,0.03730054199695587,0.06438398361206055,0.9799641370773315,-0.07394468784332275,0.5330022573471069,0.9320358037948608
65,0.0005794249591417611,-0.006160967983305454,-0.010471105575561523,-0.00037929503014311194,-0.7387997508049011,1.656256914138794,1.2794445753097534,-0.11359734833240509,1.3920471668243408,0.5670886039733887,-0.6841400861740112,-0.4947906732559204,1.5383859872817993,-0.21620874106884003,1.5379489660263062,0.8432098031044006,0.9133469462394714,1.7683502435684204,-0.10333549231290817,0.07529672235250473,0.7191379070281982,0.12137126922607422,-0.45125389099121094,-0.15521705150604248,-0.2157832384109497,0.9603356122970581,-0.14053750038146973,-0.11817872524261475,-0.3334493637084961,-0.0024974511470645666,-0.06261959671974182,0.06438398361206055,0.9799641370773315,-0.07394468784332275,0.5330022573471069,0.9320358037948608
66,-0.0019714650698006153,0.012534407898783684,0.020151039585471153,-0.0003163575893267989,-0.7388147115707397,1.6562929153442383,1.2794333696365356,-0.11326631158590317,1.392034888267517,0.5670886039733887,-0.6841400861740112,-0.4947906732559204,1.5577317476272583,-0.21614708006381989,1.5407615900039673,0.8433020114898682,0.9133842587471008,1.7678238153457642,-0.10330092906951904,0.07526473701000214,0.7191379070281982,0.12137126922607422,-0.45125389099121094,-0.15521705150604248,-0.2157832384109497,0.9603356122970581,-0.14053750038146973,-0.11817872524261475,-0.3334493637084961,0.004305563867092133,0.07355428487062454,0.06438398361206055,0.9799641370773315,-0.07394468784332275,0.5330022573471069,0.9320358037948608
67,0.0012765799183398485,-0.023567456752061844,-0.03136230260133743,-0.00024493789533153176,-0.7388396859169006,1.656358242034912,1.2794132232666016,-0.11197413504123688,1.391933798789978,0.5670886039733887,-0.6841400861740112,-0.4947906732559204,1.578874945640564,-0.2157999724149704,1.5396190881729126,0.8431673049926758,0.9133983254432678,1.7665884494781494,-0.10332360118627548,0.07522757351398468,0.7191379070281982,0.12137126922607422,-0.45125389099121094,-0.15521705150604248,-0.2157832384109497,0.9603356122970581,-0.14053750038146973,-0.11817872524261475,-0.3334493637084961,-0.004107761196792126,-0.05752522498369217,0.06438398361206055,0.9799641370773315,-0.07394468784332275,0.5330022573471069,0.9320358037948608
68,-0.0011904711136594415,0.040999479591846466,0.04132154583930969,-0.00018394408107269555,-0.7388529181480408,1.6563886404037476,1.2794145345687866,-0.11115360260009766,1.391914963722229,0.5670886039733887,-0.6841400861740112,-0.4947906732559204,1.6217349767684937,-0.2156362235546112,1.5390629768371582,0.8432567715644836,0.9134665727615356,1.765515685081482,-0.10334882140159607,0.07518744468688965,0.7191379070281982,0.12137126922607422,-0.45125389099121094,-0.15521705150604248,-0.2157832384109497,0.9603356122970581,-0.14053750038146973,-0.11817872524261475,-0.3334493637084961,0.0027148323133587837,0.03550101816654205,0.06438398361206055,0.9799641370773315,-0.07394468784332275,0.5330022573471069,0.9320358037948608
69,0.0004368158697616309,-0.06048734858632088,-0.04575442895293236,-0.00014231201203074306,-0.7388479709625244,1.6563756465911865,1.2794404029846191,-0.1111852377653122,1.3920328617095947,0.5670886039733887,-0.6841400861740112,-0.4947906732559204,1.6518094539642334,-0.21566824615001678,1.541709303855896,0.8437793850898743,0.9136186838150024,1.76483952999115,-0.10336896777153015,0.07515672594308853,0.7191379070281982,0.12137126922607422,-0.45125389099121094,-0.15521705150604248,-0.2157832384109497,0.9603356122970581,-0.14053750038146973,-0.11817872524261475,-0.3334493637084961,-0.0017394209280610085,-0.018135521560907364,0.06438398361206055,0.9799641370773315,-0.07394468784332275,0.5330022573471069,0.9320358037948608
70,-0.0003391837817616761,0.0664825290441513,0.04448462277650833,-8.964369772002101e-05,-0.7388368844985962,1.65635347366333,1.279470443725586,-0.11160741746425629,1.392212986946106,0.5670886039733887,-0.6841400861740112,-0.4947906732559204,1.6773911714553833,-0.2158181518316269,1.5398173332214355,0.8442165851593018,0.9137930274009705,1.7644890546798706,-0.10347238928079605,0.07507447153329849,0.7191379070281982,0.12137126922607422,-0.45125389099121094,-0.15521705150604248,-0.2157832384109497,0.9603356122970581,-0.14053750038146973,-0.11817872524261475,-0.3334493637084961,0.0007301730802282691,0.0035721755120903254,0.06438398361206055,0.9799641370773315,-0.07394468784332275,0.5330022573471069,0.9320358037948608
71,-0.00012684534885920584,-0.053797561675310135,-0.03954671323299408,-5.869549931958318e-05,-0.7388215065002441,1.6563254594802856,1.2795075178146362,-0.11222196370363235,1.39230215549469,0.5670886039733887,-0.6841400861740112,-0.4947906732559204,1.6875416040420532,-0.21587282419204712,1.540456771850586,0.8444551229476929,0.913881242275238,1.7643235921859741,-0.10353904217481613,0.07502718269824982,0.7191379070281982,0.12137126922607422,-0.45125389099121094,-0.15521705150604248,-0.2157832384109497,0.9603356122970581,-0.14053750038146973,-0.11817872524261475,-0.3334493637084961,-0.00026110000908374786,0.005357249174267054,0.06438398361206055,0.9799641370773315,-0.07394468784332275,0.5330022573471069,0.9320358037948608
72,0.0001366984797641635,0.03654172644019127,0.03345412015914917,-3.789471884374507e-05,-0.7388057112693787,1.6563016176223755,1.2795227766036987,-0.11286133527755737,1.3923085927963257,0.5670886039733887,-0.6841400861740112,-0.4947906732559204,1.6891459226608276,-0.21580761671066284,1.5414055585861206,0.8444516658782959,0.9138942360877991,1.7642613649368286,-0.10354890674352646,0.0749964714050293,0.7191379070281982,0.12137126922607422,-0.45125389099121094,-0.15521705150604248,-0.2157832384109497,0.9603356122970581,-0.14053750038146973,-0.11817872524261475,-0.3334493637084961,-0.0005156816332601011,-0.012502456083893776,0.06438398361206055,0.9799641370773315,-0.07394468784332275,0.5330022573471069,0.9320358037948608
73,-0.00038865726673975587,-0.02350493334233761,-0.028061825782060623,-1.163873093901202e-05,-0.7387969493865967,1.6562870740890503,1.2795162200927734,-0.11343798041343689,1.3922796249389648,0.5670886039733887,-0.6841400861740112,-0.4947906732559204,1.6876059770584106,-0.21568915247917175,1.5393911600112915,0.8442187905311584,0.9138713479042053,1.7642626762390137,-0.10354409366846085,0.07494610548019409,0.7191379070281982,0.12137126922607422,-0.45125389099121094,-0.15521705150604248,-0.2157832384109497,0.9603356122970581,-0.14053750038146973,-0.11817872524261475,-0.3334493637084961,0.0005500635015778244,0.013390685431659222,0.06438398361206055,0.9799641370773315,-0.07394468784332275,0.5330022573471069,0.9320358037948608
74,0.00024778558872640133,0.015029258094727993,0.023165037855505943,-8.515871741110459e-06,-0.7387912273406982,1.6562727689743042,1.2795084714889526,-0.11400709301233292,1.3922221660614014,0.5670886039733887,-0.6841400861740112,-0.4947906732559204,1.6833964586257935,-0.2156047374010086,1.5416401624679565,0.8441049456596375,0.9138333797454834,1.7641980648040771,-0.10347622632980347,0.07494372874498367,0.7191379070281982,0.12137126922607422,-0.45125389099121094,-0.15521705150604248,-0.2157832384109497,0.9603356122970581,-0.14053750038146973,-0.11817872524261475,-0.3334493637084961,-0.0008899412932805717,-0.014673355966806412,0.06438398361206055,0.9799641370773315,-0.07394468784332275,0.5330022573471069,0.9320358037948608
75,-0.0003948098164983094,-0.009876949712634087,-0.019278042018413544,1.100352073990507e-05,-0.738791823387146,1.6562682390213013,1.2794864177703857,-0.1145092099905014,1.392195463180542,0.5670886039733887,-0.6841400861740112,-0.4947906732559204,1.6820762157440186,-0.21553511917591095,1.5393221378326416,0.8438888788223267,0.913814127445221,1.764168381690979,-0.10345800220966339,0.07489793002605438,0.7191379070281982,0.12137126922607422,-0.45125389099121094,-0.15521705150604248,-0.2157832384109497,0.9603356122970581,-0.14053750038146973,-0.11817872524261475,-0.3334493637084961,0.0006454887916333973,0.012245366349816322,0.06438398361206055,0.9799641370773315,-0.07394468784332275,0.5330022573471069,0.9320358037948608
76,0.00019852881086990237,0.006638281513005495,0.015886589884757996,8.960312698036432e-06,-0.7387929558753967,1.6562609672546387,1.2794740200042725,-0.11503329873085022,1.3921552896499634,0.5670886039733887,-0.6841400861740112,-0.4947906732559204,1.6791982650756836,-0.215492844581604,1.5412954092025757,0.8438287377357483,0.9137908816337585,1.764087200164795,-0.10339690744876862,0.0748969092965126,0.7191379070281982,0.12137126922607422,-0.45125389099121094,-0.15521705150604248,-0.2157832384109497,0.9603356122970581,-0.14053750038146973,-0.11817872524261475,-0.3334493637084961,-0.0008026368450373411,-0.011948700062930584,0.06438398361206055,0.9799641370773315,-0.07394468784332275,0.5330022573471069,0.9320358037948608
77,-0.0003307144797872752,-0.004663593135774136,-0.013330151326954365,2.149225474568084e-05,-0.7387968301773071,1.6562607288360596,1.279453158378601,-0.11550962179899216,1.3921451568603516,0.5670886039733887,-0.6841400861740112,-0.4947906732559204,1.6792417764663696,-0.2154557704925537,1.5394400358200073,0.8436904549598694,0.9137858748435974,1.764047622680664,-0.1033860296010971,0.07485838979482651,0.7191379070281982,0.12137126922607422,-0.45125389099121094,-0.15521705150604248,-0.2157832384109497,0.9603356122970581,-0.14053750038146973,-0.11817872524261475,-0.3334493637084961,0.000509243574924767,0.009202100336551666,0.06438398361206055,0.9799641370773315,-0.07394468784332275,0.5330022573471069,0.9320358037948608
78,0.00012756031355820596,0.003343375865370035,0.01109769195318222,1.7540860426379368e-05,-0.7387997508049011,1.6562577486038208,1.279442310333252,-0.11599833518266678,1.3921226263046265,0.5670886039733887,-0.6841400861740112,-0.4947906732559204,1.6778196096420288,-0.21543151140213013,1.5408949851989746,0.8436651825904846,0.9137755632400513,1.7639765739440918,-0.10334430634975433,0.07485467195510864,0.7191379070281982,0.12137126922607422,-0.45125389099121094,-0.15521705150604248,-0.2157832384109497,0.9603356122970581,-0.14053750038146973,-0.11817872524261475,-0.3334493637084961,-0.0006384991575032473,-0.009006135165691376,0.06438398361206055,0.9799641370773315,-0.07394468784332275,0.5330022573471069,0.9320358037948608
79,-0.0002717548341024667,-0.002524728188291192,-0.009498749859631062,2.4781769752735272e-05,-0.7388037443161011,1.656259536743164,1.2794264554977417,-0.11644110828638077,1.3921208381652832,0.5670886039733887,-0.6841400861740112,-0.4947906732559204,1.6784776449203491,-0.2154078334569931,1.5394829511642456,0.8435753583908081,0.9137771725654602,1.7639409303665161,-0.10334118455648422,0.07482310384511948,0.7191379070281982,0.12137126922607422,-0.45125389099121094,-0.15521705150604248,-0.2157832384109497,0.9603356122970581,-0.14053750038146973,-0.11817872524261475,-0.3334493637084961,0.0003634312597569078,0.006648419890552759,0.06438398361206055,0.9799641370773315,-0.07394468784332275,0.5330022573471069,0.9320358037948608
80,7.07165090716444e-05,0.0019239468965679407,0.008043475449085236,1.992926627281122e-05,-0.7388064861297607,1.6562587022781372,1.2794189453125,-0.1168806180357933,1.3921078443527222,0.5670886039733887,-0.6841400861740112,-0.4947906732559204,1.6778331995010376,-0.21539102494716644,1.5405280590057373,0.8435641527175903,0.9137730598449707,1.7638837099075317,-0.10331475734710693,0.07481790333986282,0.7191379070281982,0.12137126922607422,-0.45125389099121094,-0.15521705150604248,-0.2157832384109497,0.9603356122970581,-0.14053750038146973,-0.11817872524261475,-0.3334493637084961,-0.0005057895323261619,-0.006844362709671259,0.06438398361206055,0.9799641370773315,-0.07394468784332275,0.5330022573471069,0.9320358037948608
81,-0.00023100375256035477,-0.001555830705910921,-0.007067399099469185,2.376287739025429e-05,-0.7388097047805786,1.6562610864639282,1.2794077396392822,-0.11727382987737656,1.3921092748641968,0.5670886039733887,-0.6841400861740112,-0.4947906732559204,1.6786390542984009,-0.21537373960018158,1.5394264459609985,0.8435006141662598,0.9137767553329468,1.7638541460037231,-0.10331681370735168,0.0747920423746109,0.7191379070281982,0.12137126922607422,-0.45125389099121094,-0.15521705150604248,-0.2157832384109497,0.9603356122970581,-0.14053750038146973,-0.11817872524261475,-0.3334493637084961,0.0002544224844314158,0.004871297162026167,0.06438398361206055,0.9799641370773315,-0.07394468784332275,0.5330022573471069,0.9320358037948608
82,3.0185216019162908e-05,0.0012494886759668589,0.0061037251725792885,1.862827775767073e-05,-0.7388117909431458,1.6562612056732178,1.2794030904769897,-0.11765369772911072,1.3921011686325073,0.5670886039733887,-0.6841400861740112,-0.4947906732559204,1.6783491373062134,-0.2153608202934265,1.5401885509490967,0.8434942364692688,0.9137752056121826,1.7638083696365356,-0.10330025106668472,0.07478655874729156,0.7191379070281982,0.12137126922607422,-0.45125389099121094,-0.15521705150604248,-0.2157832384109497,0.9603356122970581,-0.14053750038146973,-0.11817872524261475,-0.3334493637084961,-0.00041431523277424276,-0.005400736350566149,0.06438398361206055,0.9799641370773315,-0.07394468784332275,0.5330022573471069,0.9320358037948608
83,-0.00020537214004434645,-0.0010743007296696305,-0.005521062295883894,2.0534305804176256e-05,-0.738814115524292,1.6562637090682983,1.279395580291748,-0.1179884672164917,1.3921035528182983,0.5670886039733887,-0.6841400861740112,-0.4947906732559204,1.6791225671768188,-0.21534733474254608,1.5392887592315674,0.843445360660553,0.9137791991233826,1.763784408569336,-0.10330508649349213,0.0747651532292366,0.7191379070281982,0.12137126922607422,-0.45125389099121094,-0.15521705150604248,-0.2157832384109497,0.9603356122970581,-0.14053750038146973,-0.11817872524261475,-0.3334493637084961,0.00018000723503064364,0.0036958931013941765,0.06438398361206055,0.9799641370773315,-0.07394468784332275,0.5330022573471069,0.9320358037948608
84,2.0217057681293227e-06,0.0009007216431200504,0.004866565112024546,1.5555893696728162e-05,-0.7388154864311218,1.6562641859054565,1.279392957687378,-0.11830512434244156,1.3920978307724,0.5670886039733887,-0.6841400861740112,-0.4947906732559204,1.6789801120758057,-0.21533697843551636,1.5398610830307007,0.843440592288971,0.9137786626815796,1.7637475728988647,-0.10329435765743256,0.0747600644826889,0.7191379070281982,0.12137126922607422,-0.45125389099121094,-0.15521705150604248,-0.2157832384109497,0.9603356122970581,-0.14053750038146973,-0.11817872524261475,-0.3334493637084961,-0.000354273448465392,-0.00446374760940671,0.06438398361206055,0.9799641370773315,-0.07394468784332275,0.5330022573471069,0.9320358037948608
85,-0.00019008158415090293,-0.0008167678024619818,-0.004535495303571224,1.6545847756788135e-05,-0.738817036151886,1.656266212463379,1.2793878316879272,-0.11857929825782776,1.3921003341674805,0.5670886039733887,-0.6841400861740112,-0.4947906732559204,1.679669976234436,-0.21532608568668365,1.5390887260437012,0.8434002995491028,0.9137823581695557,1.763728380203247,-0.10330037772655487,0.07474205642938614,0.7191379070281982,0.12137126922607422,-0.45125389099121094,-0.15521705150604248,-0.2157832384109497,0.9603356122970581,-0.14053750038146973,-0.11817872524261475,-0.3334493637084961,0.00013076486357022077,0.002931607887148857,0.06438398361206055,0.9799641370773315,-0.07394468784332275,0.5330022573471069,0.9320358037948608
86,-1.738725222821813e-05,0.0007092439336702228,0.004080365411937237,1.1984433513134718e-05,-0.7388178706169128,1.656266450881958,1.2793865203857422,-0.11883419752120972,1.3920958042144775,0.5670886039733887,-0.6841400861740112,-0.4947906732559204,1.6795778274536133,-0.21531762182712555,1.5395348072052002,0.8433961868286133,0.913782000541687,1.7636983394622803,-0.10329283773899078,0.07473767548799515,0.7191379070281982,0.12137126922607422,-0.45125389099121094,-0.15521705150604248,-0.2157832384109497,0.9603356122970581,-0.14053750038146973,-0.11817872524261475,-0.3334493637084961,-0.0003159546758979559,-0.003866777755320072,0.06438398361206055,0.9799641370773315,-0.07394468784332275,0.5330022573471069,0.9320358037948608
87,-0.00018158582679461688,-0.0006731405155733228,-0.003916489891707897,1.2687268281297293e-05,-0.738818883895874,1.6562681198120117,1.2793829441070557,-0.11905016750097275,1.392098307609558,0.5670886039733887,-0.6841400861740112,-0.4947906732559204,1.6801801919937134,-0.21530868113040924,1.5388400554656982,0.8433610796928406,0.9137851595878601,1.7636833190917969,-0.10329916328191757,0.07472223043441772,0.7191379070281982,0.12137126922607422,-0.45125389099121094,-0.15521705150604248,-0.2157832384109497,0.9603356122970581,-0.14053750038146973,-0.11817872524261475,-0.3334493637084961,9.903200407279655e-05,0.002445249818265438,0.06438398361206055,0.9799641370773315,-0.07394468784332275,0.5330022573471069,0.9320358037948608
88,-3.050128543691244e-05,0.0006020329892635345,0.0035962648689746857,8.645833986520302e-06,-0.7388193607330322,1.6562681198120117,1.279382586479187,-0.11924796551465988,1.392094373703003,0.5670886039733887,-0.6841400861740112,-0.4947906732559204,1.6800912618637085,-0.2153017222881317,1.5392035245895386,0.843357264995575,0.9137847423553467,1.7636585235595703,-0.10329322516918182,0.07471869885921478,0.7191379070281982,0.12137126922607422,-0.45125389099121094,-0.15521705150604248,-0.2157832384109497,0.9603356122970581,-0.14053750038146973,-0.11817872524261475,-0.3334493637084961,-0.0002927095629274845,-0.003502274164929986,0.06438398361206055,0.9799641370773315,-0.07394468784332275,0.5330022573471069,0.9320358037948608
89,-0.00017767153622116894,-0.0005940237315371633,-0.00355045055039227,9.418166882824153e-06,-0.7388200163841248,1.6562693119049072,1.2793798446655273,-0.11941081285476685,1.3920966386795044,0.5670886039733887,-0.6841400861740112,-0.4947906732559204,1.6806172132492065,-0.21529428660869598,1.5385520458221436,0.8433253169059753,0.9137873649597168,1.7636470794677734,-0.10329945385456085,0.07470517605543137,0.7191379070281982,0.12137126922607422,-0.45125389099121094,-0.15521705150604248,-0.2157832384109497,0.9603356122970581,-0.14053750038146973,-0.11817872524261475,-0.3334493637084961,7.978238863870502e-05,0.0021541498135775328,0.06438398361206055,0.9799641370773315,-0.07394468784332275,0.5330022573471069,0.9320358037948608
90,-3.885898331645876e-05,0.0005454376805573702,0.003328395774587989,5.880493517906871e-06,-0.7388201951980591,1.6562690734863281,1.2793800830841064,-0.11955802142620087,1.3920929431915283,0.5670886039733887,-0.6841400861740112,-0.4947906732559204,1.6805063486099243,-0.21528853476047516,1.5388646125793457,0.8433218598365784,0.9137867093086243,1.7636264562606812,-0.10329417884349823,0.07470254600048065,0.7191379070281982,0.12137126922607422,-0.45125389099121094,-0.15521705150604248,-0.2157832384109497,0.9603356122970581,-0.14053750038146973,-0.11817872524261475,-0.3334493637084961,-0.0002804859832394868,-0.0033060426358133554,0.06438398361206055,0.9799641370773315,-0.07394468784332275,0.5330022573471069,0.9320358037948608
91,-0.00017710038810037076,-0.0005562215228565037,-0.0033733730670064688,6.904088877490722e-06,-0.7388206124305725,1.6562700271606445,1.279378056526184,-0.11967433989048004,1.3920949697494507,0.5670886039733887,-0.6841400861740112,-0.4947906732559204,1.6809700727462769,-0.21528227627277374,1.5382306575775146,0.8432916402816772,0.913788914680481,1.7636181116104126,-0.10330025851726532,0.07469042390584946,0.7191379070281982,0.12137126922607422,-0.45125389099121094,-0.15521705150604248,-0.2157832384109497,0.9603356122970581,-0.14053750038146973,-0.11817872524261475,-0.3334493637084961,7.005048973951489e-05,0.0020106518641114235,0.06438398361206055,0.9799641370773315,-0.07394468784332275,0.5330022573471069,0.9320358037948608
92,-4.335675112088211e-05,0.0005236194119788706,0.003230335656553507,3.7753738979517948e-06,-0.7388206124305725,1.6562696695327759,1.2793787717819214,-0.1197783425450325,1.3920912742614746,0.5670886039733887,-0.6841400861740112,-0.4947906732559204,1.6808202266693115,-0.2152775228023529,1.5385171175003052,0.8432885408401489,0.9137879014015198,1.7636005878448486,-0.10329515486955643,0.07468871027231216,0.7191379070281982,0.12137126922607422,-0.45125389099121094,-0.15521705150604248,-0.2157832384109497,0.9603356122970581,-0.14053750038146973,-0.11817872524261475,-0.3334493637084961,-0.0002770585415419191,-0.003243039594963193,0.06438398361206055,0.9799641370773315,-0.07394468784332275,0.5330022573471069,0.9320358037948608
93,-0.00017930391186382622,-0.0005490381154231727,-0.0033532327506691217,5.1331739996385295e-06,-0.7388209104537964,1.6562703847885132,1.2793769836425781,-0.11985526233911514,1.3920931816101074,0.5670886039733887,-0.6841400861740112,-0.4947906732559204,1.6812344789505005,-0.21527217328548431,1.5378795862197876,0.843258798122406,0.9137897491455078,1.7635948657989502,-0.10330119729042053,0.07467754930257797,0.7191379070281982,0.12137126922607422,-0.45125389099121094,-0.15521705150604248,-0.2157832384109497,0.9603356122970581,-0.14053750038146973,-0.11817872524261475,-0.3334493637084961,6.835717067588121e-05,0.001990951830521226,0.06438398361206055,0.9799641370773315,-0.07394468784332275,0.5330022573471069,0.9320358037948608
94,-4.4419935875339434e-05,0.0005297845927998424,0.00328228366561234,2.2723511392541695e-06,-0.7388208508491516,1.656269907951355,1.279377818107605,-0.11992364376783371,1.3920892477035522,0.5670886039733887,-0.6841400861740112,-0.4947906732559204,1.6810297966003418,-0.21526822447776794,1.5381615161895752,0.8432561755180359,0.9137883186340332,1.7635797262191772,-0.10329592227935791,0.07467680424451828,0.7191379070281982,0.12137126922607422,-0.45125389099121094,-0.15521705150604248,-0.2157832384109497,0.9603356122970581,-0.14053750038146973,-0.11817872524261475,-0.3334493637084961,-0.00028150033904239535,-0.00329858111217618,0.06438398361206055,0.9799641370773315,-0.07394468784332275,0.5330022573471069,0.9320358037948608
95,-0.00018419684784021229,-0.0005686313379555941,-0.0034809315111488104,4.003829417342786e-06,-0.7388211488723755,1.6562706232070923,1.2793763875961304,-0.11996829509735107,1.392091155052185,0.5670886039733887,-0.6841400861740112,-0.4947906732559204,1.6814042329788208,-0.21526357531547546,1.5375009775161743,0.8432258367538452,0.9137897491455078,1.7635765075683594,-0.10330212116241455,0.07466622442007065,0.7191379070281982,0.12137126922607422,-0.45125389099121094,-0.15521705150604248,-0.2157832384109497,0.9603356122970581,-0.14053750038146973,-0.11817872524261475,-0.3334493637084961,7.436519808834419e-05,0.002088911598548293,0.06438398361206055,0.9799641370773315,-0.07394468784332275,0.5330022573471069,0.9320358037948608
96,-4.207546589896083e-05,0.0005625886260531843,0.0034850179217755795,1.243704787157185e-06,-0.7388209104537964,1.656269907951355,1.2793775796890259,-0.12000833451747894,1.3920867443084717,0.5670886039733887,-0.6841400861740112,-0.4947906732559204,1.6811244487762451,-0.21526026725769043,1.5377997159957886,0.8432238101959229,0.9137877225875854,1.7635629177093506,-0.10329639911651611,0.07466653734445572,0.7191379070281982,0.12137126922607422,-0.45125389099121094,-0.15521705150604248,-0.2157832384109497,0.9603356122970581,-0.14053750038146973,-0.11817872524261475,-0.3334493637084961,-0.00029392767464742064,-0.003474045777693391,0.06438398361206055,0.9799641370773315,-0.07394468784332275,0.5330022573471069,0.9320358037948608
97,-0.00019209184392821044,-0.0006157800671644509,-0.0037666866555809975,3.383770263098995e-06,-0.7388211488723755,1.6562707424163818,1.2793761491775513,-0.12002728879451752,1.3920884132385254,0.5670886039733887,-0.6841400861740112,-0.4947906732559204,1.6814641952514648,-0.21525610983371735,1.537095546722412,0.8431915640830994,0.9137887954711914,1.7635619640350342,-0.10330306738615036,0.0746561661362648,0.7191379070281982,0.12137126922607422,-0.45125389099121094,-0.15521705150604248,-0.2157832384109497,0.9603356122970581,-0.14053750038146973,-0.11817872524261475,-0.3334493637084961,8.875325147528201e-05,0.0023136925883591175,0.06438398361206055,0.9799641370773315,-0.07394468784332275,0.5330022573471069,0.9320358037948608
98,-3.594632653403096e-05,0.0006248750723898411,0.003858411917462945,5.385376198319136e-07,-0.7388209104537964,1.6562700271606445,1.2793775796890259,-0.12004560232162476,1.3920831680297852,0.5670886039733887,-0.6841400861740112,-0.4947906732559204,1.6810798645019531,-0.2152533233165741,1.537434697151184,0.8431900143623352,0.913785994052887,1.7635493278503418,-0.10329663008451462,0.07465770840644836,0.7191379070281982,0.12137126922607422,-0.45125389099121094,-0.15521705150604248,-0.2157832384109497,0.9603356122970581,-0.14053750038146973,-0.11817872524261475,-0.3334493637084961,-0.000315457844408229,-0.0037859873846173286,0.06438398361206055,0.9799641370773315,-0.07394468784332275,0.5330022573471069,0.9320358037948608
99,-0.00020370190031826496,-0.0006953372503630817,-0.004240364767611027,3.1452536859433167e-06,-0.7388211488723755,1.656270980834961,1.2793760299682617,-0.12004456669092178,1.3920844793319702,0.5670886039733887,-0.6841400861740112,-0.4947906732559204,1.6813831329345703,-0.21524947881698608,1.5366625785827637,0.8431541919708252,0.9137865900993347,1.7635504007339478,-0.10330410301685333,0.07464718818664551,0.7191379070281982,0.12137126922607422,-0.45125389099121094,-0.15521705150604248,-0.2157832384109497,0.9603356122970581,-0.14053750038146973,-0.11817872524261475,-0.3334493637084961,0.00011328297114232555,0.002690326189622283,0.06438398361206055,0.9799641370773315,-0.07394468784332275,0.5330022573471069,0.9320358037948608
