,0,1,2,3,4,5,6,7,8,9,10,11,12,13,14,15,16,17,18,19,20,21,22,23
0,-0.7599480152130127,-0.6273418664932251,-0.19254708290100098,-0.5072673559188843,-0.7301168441772461,0.47081470489501953,0.9976241588592529,-0.07552289962768555,-0.7636350393295288,-0.0038661956787109375,-0.7845028638839722,0.8436360359191895,0.327978253364563,0.5657795667648315,0.592303991317749,-0.9165352582931519,-0.3978976011276245,0.6197748184204102,0.09815526008605957,-0.05068206787109375,0.30098581314086914,0.43266451358795166,-0.018844008445739746,-0.7250268459320068
1,-0.707471489906311,-0.5748653411865234,-0.1400705724954605,-0.5597439408302307,-0.7825933694839478,0.5232912302017212,1.0501004457473755,-0.07552289962768555,-0.7111586928367615,0.048610348254442215,-0.7320263385772705,0.7911595106124878,0.3804547190666199,0.6182544231414795,0.592303991317749,-0.9165352582931519,-0.3978976011276245,0.6197748184204102,0.09815526008605957,0.0017944758292287588,0.35346221923828125,0.43266451358795166,-0.018844008445739746,-0.7250268459320068
2,-0.6652160882949829,-0.5403174757957458,-0.09892497211694717,-0.6005669236183167,-0.8235452771186829,0.5636064410209656,1.0929750204086304,-0.07552289962768555,-0.670048713684082,0.08816152811050415,-0.6838913559913635,0.750309407711029,0.38154661655426025,0.6703856587409973,0.592303991317749,-0.9165352582931519,-0.3978976011276245,0.6197748184204102,0.09815526008605957,0.04228069633245468,0.40283364057540894,0.43266451358795166,-0.018844008445739746,-0.7250268459320068
3,-0.6238548755645752,-0.512854814529419,-0.06043853238224983,-0.6405569314956665,-0.8628166913986206,0.6003979444503784,1.1351964473724365,-0.07552289962768555,-0.6239611506462097,0.12483876943588257,-0.6373485326766968,0.7108745574951172,0.35204508900642395,0.7230226397514343,0.592303991317749,-0.9165352582931519,-0.3978976011276245,0.6197748184204102,0.09815526008605957,0.08126052469015121,0.45335498452186584,0.43266451358795166,-0.018844008445739746,-0.7250268459320068
4,-0.580767035484314,-0.4920250177383423,-0.023622164502739906,-0.6823919415473938,-0.903062105178833,0.6334433555603027,1.1775288581848145,-0.07552289962768555,-0.572948157787323,0.16010546684265137,-0.5908283591270447,0.6706563830375671,0.3120272159576416,0.7776234149932861,0.592303991317749,-0.9165352582931519,-0.3978976011276245,0.6197748184204102,0.09815526008605957,0.12090939283370972,0.5055609345436096,0.43266451358795166,-0.018844008445739746,-0.7250268459320068
5,-0.5353724360466003,-0.4782131612300873,0.010530486702919006,-0.7264652848243713,-0.9449779987335205,0.660567581653595,1.2187271118164062,-0.07552289962768555,-0.5186263918876648,0.19336457550525665,-0.543841540813446,0.6291577816009521,0.26967594027519226,0.834240198135376,0.592303991317749,-0.9165352582931519,-0.3978976011276245,0.6197748184204102,0.09815526008605957,0.16178308427333832,0.5585275888442993,0.43266451358795166,-0.018844008445739746,-0.7250268459320068
6,-0.48790931701660156,-0.4704098403453827,0.03973512351512909,-0.7723918557167053,-0.9886348843574524,0.6782063841819763,1.2573623657226562,-0.07552289962768555,-0.46242374181747437,0.22304002940654755,-0.4965009391307831,0.5864958763122559,0.22850967943668365,0.8924738168716431,0.592303991317749,-0.9165352582931519,-0.3978976011276245,0.6197748184204102,0.09815526008605957,0.2037944197654724,0.6113495230674744,0.43266451358795166,-0.018844008445739746,-0.7250268459320068
7,-0.43896257877349854,-0.4654690623283386,0.06073799729347229,-0.8194723725318909,-1.0339022874832153,0.68277508020401,1.2924079895019531,-0.07552289962768555,-0.40559178590774536,0.2469523549079895,-0.44919517636299133,0.5430130958557129,0.19075243175029755,0.9516835808753967,0.592303991317749,-0.9165352582931519,-0.3978976011276245,0.6197748184204102,0.09815526008605957,0.24648988246917725,0.6629942059516907,0.43266451358795166,-0.018844008445739746,-0.7250268459320068
8,-0.3892033100128174,-0.45867544412612915,0.07016310095787048,-0.8668630719184875,-1.080589771270752,0.6734129190444946,1.3236308097839355,-0.07552289962768555,-0.34920060634613037,0.2626522183418274,-0.40237051248550415,0.49909138679504395,0.1577954888343811,1.0110219717025757,0.592303991317749,-0.9165352582931519,-0.3978976011276245,0.6197748184204102,0.09815526008605957,0.28917235136032104,0.712159276008606,0.43266451358795166,-0.018844008445739746,-0.7250268459320068
9,-0.339240700006485,-0.44495445489883423,0.06636200100183487,-0.9136667847633362,-1.1284555196762085,0.6534748673439026,1.3516948223114014,-0.07552289962768555,-0.2940543591976166,0.26803329586982727,-0.3563956618309021,0.4550713896751404,0.13017447292804718,1.0694653987884521,0.592303991317749,-0.9165352582931519,-0.3978976011276245,0.6197748184204102,0.09815526008605957,0.3309471011161804,0.7571929693222046,0.43266451358795166,-0.018844008445739746,-0.7250268459320068
10,-0.2895989716053009,-0.42037060856819153,0.05091029405593872,-0.9589924812316895,-1.1771334409713745,0.628681480884552,1.3778183460235596,-0.07552289962768555,-0.24069008231163025,0.26220864057540894,-0.31151068210601807,0.4112992584705353,0.10802023857831955,1.1258468627929688,0.592303991317749,-0.9165352582931519,-0.3978976011276245,0.6197748184204102,0.09815526008605957,0.3707520365715027,0.7960643172264099,0.43266451358795166,-0.018844008445739746,-0.7250268459320068
11,-0.24080821871757507,-0.38374775648117065,0.027651077136397362,-1.0019865036010742,-1.2260677814483643,0.6048969626426697,1.4031769037246704,-0.07552289962768555,-0.18956977128982544,0.2460993230342865,-0.2678471803665161,0.3682718575000763,0.09168120473623276,1.17887544631958,0.592303991317749,-0.9165352582931519,-0.3978976011276245,0.6197748184204102,0.09815526008605957,0.4074524939060211,0.8265141844749451,0.43266451358795166,-0.018844008445739746,-0.7250268459320068
12,-0.19353944063186646,-0.3371174931526184,0.0005835945485159755,-1.041879653930664,-1.2745368480682373,0.5874642729759216,1.4283422231674194,-0.07552289962768555,-0.1414138674736023,0.22214467823505402,-0.22549176216125488,0.32674354314804077,0.08194012194871902,1.22721266746521,0.592303991317749,-0.9165352582931519,-0.3978976011276245,0.6197748184204102,0.09815526008605957,0.43999794125556946,0.8465461134910583,0.43266451358795166,-0.018844008445739746,-0.7250268459320068
13,-0.14868322014808655,-0.2843339741230011,-0.027152864262461662,-1.078081727027893,-1.321750521659851,0.5809988975524902,1.4530789852142334,-0.07552289962768555,-0.09741798788309097,0.19338618218898773,-0.1845334768295288,0.28767094016075134,0.07987478375434875,1.2696685791015625,0.592303991317749,-0.9165352582931519,-0.3978976011276245,0.6197748184204102,0.09815526008605957,0.4676032066345215,0.8551890850067139,0.43266451358795166,-0.018844008445739746,-0.7250268459320068
14,-0.10730650275945663,-0.2294304519891739,-0.05327656492590904,-1.1102873086929321,-1.3669438362121582,0.5885685086250305,1.4766430854797363,-0.07552289962768555,-0.059118662029504776,0.16265499591827393,-0.14504386484622955,0.25201812386512756,0.08632830530405045,1.3054687976837158,0.592303991317749,-0.9165352582931519,-0.3978976011276245,0.6197748184204102,0.09815526008605957,0.4899021089076996,0.8530551791191101,0.43266451358795166,-0.018844008445739746,-0.7250268459320068
15,-0.07050003111362457,-0.1758631467819214,-0.07616142183542252,-1.1385241746902466,-1.409414529800415,0.6104145050048828,1.498292088508606,-0.07552289962768555,-0.02795877493917942,0.1321762204170227,-0.10704493522644043,0.2205432653427124,0.1010269969701767,1.3344544172286987,0.592303991317749,-0.9165352582931519,-0.3978976011276245,0.6197748184204102,0.09815526008605957,0.5069975256919861,0.8422012329101562,0.43266451358795166,-0.018844008445739746,-0.7250268459320068
16,-0.03917422145605087,-0.12635378539562225,-0.09483306854963303,-1.1631008386611938,-1.4485243558883667,0.6436882019042969,1.5176072120666504,-0.07552289962768555,-0.0047828517854213715,0.10349518805742264,-0.07056465744972229,0.19366350769996643,0.12212473899126053,1.3570778369903564,0.592303991317749,-0.9165352582931519,-0.3978976011276245,0.6197748184204102,0.09815526008605957,0.5193723440170288,0.8254660367965698,0.43266451358795166,-0.018844008445739746,-0.7250268459320068
17,-0.01386694423854351,-0.08288824558258057,-0.10908100008964539,-1.184478759765625,-1.4837180376052856,0.6838594675064087,1.5345163345336914,-0.07552289962768555,0.010497812181711197,0.07757794857025146,-0.03575096279382706,0.17142242193222046,0.14671337604522705,1.374186396598816,0.592303991317749,-0.9165352582931519,-0.3978976011276245,0.6197748184204102,0.09815526008605957,0.5277137756347656,0.805797278881073,0.43266451358795166,-0.018844008445739746,-0.7250268459320068
18,0.005371607840061188,-0.04672311246395111,-0.11938410997390747,-1.2031502723693848,-1.5145801305770874,0.726363480091095,1.549159288406372,-0.07552289962768555,0.018902411684393883,0.054970260709524155,-0.0029219556599855423,0.15354600548744202,0.17180754244327545,1.386746883392334,0.592303991317749,-0.9165352582931519,-0.3978976011276245,0.6197748184204102,0.09815526008605957,0.5327442288398743,0.7857809662818909,0.43266451358795166,-0.018844008445739746,-0.7250268459320068
19,0.018967101350426674,-0.018386416137218475,-0.12661035358905792,-1.2195594310760498,-1.5408990383148193,0.7674208283424377,1.561753273010254,-0.07552289962768555,0.02205272577702999,0.0359274223446846,0.027494605630636215,0.13955563306808472,0.195079043507576,1.395643711090088,0.592303991317749,-0.9165352582931519,-0.3978976011276245,0.6197748184204102,0.09815526008605957,0.5351151823997498,0.7673699855804443,0.43266451358795166,-0.018844008445739746,-0.7250268459320068
20,0.027689242735505104,0.0022885147482156754,-0.13170114159584045,-1.2340606451034546,-1.5626932382583618,0.8042508363723755,1.5725139379501343,-0.07552289962768555,0.021718744188547134,0.020483359694480896,0.055077552795410156,0.12889185547828674,0.21515719592571259,1.4015815258026123,0.592303991317749,-0.9165352582931519,-0.3978976011276245,0.6197748184204102,0.09815526008605957,0.535364031791687,0.751789927482605,0.43266451358795166,-0.018844008445739746,-0.7250268459320068
21,0.03246739134192467,0.016050253063440323,-0.13547483086585999,-1.246903657913208,-1.5801864862442017,0.8350952863693237,1.5816224813461304,-0.07552289962768555,0.0194539837539196,0.008482289500534534,0.07951723039150238,0.12100888043642044,0.2315995693206787,1.405070185661316,0.592303991317749,-0.9165352582931519,-0.3978976011276245,0.6197748184204102,0.09815526008605957,0.5339158773422241,0.7395884394645691,0.43266451358795166,-0.018844008445739746,-0.7250268459320068
22,0.03423069790005684,0.024035435169935226,-0.13854198157787323,-1.258241057395935,-1.5937484502792358,0.8591713309288025,1.5892179012298584,-0.07552289962768555,0.016412802040576935,-0.000390451867133379,0.10067592561244965,0.11542384326457977,0.24464747309684753,1.4064605236053467,0.592303991317749,-0.9165352582931519,-0.3978976011276245,0.6197748184204102,0.09815526008605957,0.5311093330383301,0.7307844161987305,0.43266451358795166,-0.018844008445739746,-0.7250268459320068
23,0.03381095081567764,0.02754431590437889,-0.14128951728343964,-1.2681539058685303,-1.6038302183151245,0.8765208125114441,1.5954017639160156,-0.07552289962768555,0.013328147120773792,-0.0065611000172793865,0.11859791725873947,0.11172828823328018,0.25489935278892517,1.4060012102127075,0.592303991317749,-0.9165352582931519,-0.3978976011276245,0.6197748184204102,0.09815526008605957,0.5272287130355835,0.7250590920448303,0.43266451358795166,-0.018844008445739746,-0.7250268459320068
24,0.03190375864505768,0.02784798853099346,-0.14390914142131805,-1.2766855955123901,-1.6109117269515991,0.8877555131912231,1.6002475023269653,-0.07552289962768555,0.010583838447928429,-0.01050909236073494,0.1334811896085739,0.1095791608095169,0.2630332410335541,1.4038944244384766,0.592303991317749,-0.9165352582931519,-0.3978976011276245,0.6197748184204102,0.09815526008605957,0.5225305557250977,0.7219316363334656,0.43266451358795166,-0.018844008445739746,-0.7250268459320068
25,0.029065823182463646,0.02606193535029888,-0.14645302295684814,-1.2838718891143799,-1.6154677867889404,0.8937745690345764,1.603813648223877,-0.07552289962768555,0.008320662193000317,-0.012712600640952587,0.1456308364868164,0.10868455469608307,0.26964494585990906,1.4003371000289917,0.592303991317749,-0.9165352582931519,-0.3978976011276245,0.6197748184204102,0.09815526008605957,0.5172585844993591,0.7208837866783142,0.43266451358795166,-0.018844008445739746,-0.7250268459320068
26,0.025728069245815277,0.023086410015821457,-0.14889675378799438,-1.2897599935531616,-1.6179476976394653,0.8955421447753906,1.6061558723449707,-0.07552289962768555,0.006536420434713364,-0.013608981855213642,0.15541130304336548,0.10879170149564743,0.27519136667251587,1.3955402374267578,0.592303991317749,-0.9165352582931519,-0.3978976011276245,0.6197748184204102,0.09815526008605957,0.5116480588912964,0.7214295864105225,0.43266451358795166,-0.018844008445739746,-0.7250268459320068
27,0.02221323922276497,0.01959596946835518,-0.15119045972824097,-1.2944148778915405,-1.618762493133545,0.8939571380615234,1.607338309288025,-0.07552289962768555,0.005161810666322708,-0.013572991825640202,0.16320738196372986,0.10967915505170822,0.2799966037273407,1.3897311687469482,0.592303991317749,-0.9165352582931519,-0.3978976011276245,0.6197748184204102,0.09815526008605957,0.5059225559234619,0.7231431603431702,0.43266451358795166,-0.018844008445739746,-0.7250268459320068
28,0.0187532976269722,0.016058510169386864,-0.1532902866601944,-1.2979185581207275,-1.618277907371521,0.8897997140884399,1.6074416637420654,-0.07552289962768555,0.004108855966478586,-0.012909702956676483,0.16939659416675568,0.11115214973688126,0.2842816710472107,1.3831461668014526,0.592303991317749,-0.9165352582931519,-0.3978976011276245,0.6197748184204102,0.09815526008605957,0.5002874135971069,0.7256637215614319,0.43266451358795166,-0.018844008445739746,-0.7250268459320068
29,0.01550544984638691,0.012768808752298355,-0.15517207980155945,-1.3003641366958618,-1.6168102025985718,0.8837222456932068,1.6065692901611328,-0.07552289962768555,0.0032964807469397783,-0.011857178062200546,0.1743314415216446,0.11303998529911041,0.2881958782672882,1.3760173320770264,0.592303991317749,-0.9165352582931519,-0.3978976011276245,0.6197748184204102,0.09815526008605957,0.49492302536964417,0.728691041469574,0.43266451358795166,-0.018844008445739746,-0.7250268459320068
30,0.012566754594445229,0.009886921383440495,-0.15683312714099884,-1.301850438117981,-1.614626169204712,0.8762586116790771,1.604848861694336,-0.07552289962768555,0.002660431433469057,-0.010594374500215054,0.17832916975021362,0.1151944100856781,0.29184237122535706,1.368561863899231,0.592303991317749,-0.9165352582931519,-0.3978976011276245,0.6197748184204102,0.09815526008605957,0.48997920751571655,0.7319787740707397,0.43266451358795166,-0.018844008445739746,-0.7250268459320068
31,0.009987340308725834,0.007475429214537144,-0.15828894078731537,-1.302475929260254,-1.611944556236267,0.8678388595581055,1.6024298667907715,-0.07552289962768555,0.0021541425958275795,-0.009250997565686703,0.18166691064834595,0.11748835444450378,0.2952955365180969,1.3609720468521118,0.592303991317749,-0.9165352582931519,-0.3978976011276245,0.6197748184204102,0.09815526008605957,0.48557227849960327,0.7353284955024719,0.43266451358795166,-0.018844008445739746,-0.7250268459320068
32,0.007782175671309233,0.005532004404813051,-0.15956762433052063,-1.3023346662521362,-1.60893976688385,0.8588021397590637,1.5994782447814941,-0.07552289962768555,0.0017455676570534706,-0.007917365990579128,0.18458031117916107,0.11981485784053802,0.2986133098602295,1.353409767150879,0.592303991317749,-0.9165352582931519,-0.3978976011276245,0.6197748184204102,0.09815526008605957,0.4817843437194824,0.7385855913162231,0.43266451358795166,-0.018844008445739746,-0.7250268459320068
33,0.005941255483776331,0.004015663173049688,-0.16070474684238434,-1.3015137910842896,-1.6057462692260742,0.8494088649749756,1.5961679220199585,-0.07552289962768555,0.001412988523952663,-0.006653252989053726,0.18726497888565063,0.12208589166402817,0.3018440902233124,1.3460031747817993,0.592303991317749,-0.9165352582931519,-0.3978976011276245,0.6197748184204102,0.09815526008605957,0.4786646068096161,0.7416349649429321,0.43266451358795166,-0.018844008445739746,-0.7250268459320068
34,0.004438119009137154,0.0028662881813943386,-0.16173911094665527,-1.3000917434692383,-1.6024643182754517,0.8398503661155701,1.5926711559295654,-0.07552289962768555,0.0011413488537073135,-0.005495324730873108,0.1898794323205948,0.12423105537891388,0.3050306737422943,1.3388456106185913,0.592303991317749,-0.9165352582931519,-0.3978976011276245,0.6197748184204102,0.09815526008605957,0.4762323498725891,0.7443973422050476,0.43266451358795166,-0.018844008445739746,-0.7250268459320068
35,0.003236657939851284,0.0020180311985313892,-0.1627095490694046,-1.2981374263763428,-1.599164366722107,0.8302586674690247,1.589148759841919,-0.07552289962768555,0.0009196365717798471,-0.004463172052055597,0.19254925847053528,0.1261962205171585,0.30821290612220764,1.3319981098175049,0.592303991317749,-0.9165352582931519,-0.3978976011276245,0.6197748184204102,0.09815526008605957,0.47448092699050903,0.7468251585960388,0.43266451358795166,-0.018844008445739746,-0.7250268459320068
36,0.0022963518276810646,0.0014076544903218746,-0.16365282237529755,-1.295710802078247,-1.5958925485610962,0.8207150101661682,1.585741639137268,-0.07552289962768555,0.0007392512052319944,-0.0035640744026750326,0.19537176191806793,0.12794192135334015,0.311428040266037,1.3254921436309814,0.592303991317749,-0.9165352582931519,-0.3978976011276245,0.6197748184204102,0.09815526008605957,0.47338253259658813,0.748897910118103,0.43266451358795166,-0.018844008445739746,-0.7250268459320068
37,0.0015760601963847876,0.000979081611149013,-0.1646023839712143,-1.292863368988037,-1.5926755666732788,0.8112590312957764,1.5825647115707397,-0.07552289962768555,0.0005931135383434594,-0.002796708606183529,0.19842088222503662,0.12944172322750092,0.3147115111351013,1.3193336725234985,0.592303991317749,-0.9165352582931519,-0.3978976011276245,0.6197748184204102,0.09815526008605957,0.47289320826530457,0.7506169676780701,0.43266451358795166,-0.018844008445739746,-0.7250268459320068
38,0.0010366077767685056,0.000685292761772871,-0.16558796167373657,-1.289638876914978,-1.5895243883132935,0.8018972277641296,1.5797030925750732,-0.07552289962768555,0.00047522838576696813,-0.002154003130272031,0.20175181329250336,0.1306806057691574,0.31809717416763306,1.3135082721710205,0.592303991317749,-0.9165352582931519,-0.3978976011276245,0.6197748184204102,0.09815526008605957,0.4729575514793396,0.7520010471343994,0.43266451358795166,-0.018844008445739746,-0.7250268459320068
39,0.0006423891172744334,0.0004885400412604213,-0.16663534939289093,-1.2860743999481201,-1.5864384174346924,0.7926113605499268,1.5772114992141724,-0.07552289962768555,0.00038048383430577815,-0.001625319942831993,0.20540538430213928,0.13165313005447388,0.32161712646484375,1.3079856634140015,0.592303991317749,-0.9165352582931519,-0.3978976011276245,0.6197748184204102,0.09815526008605957,0.4735134541988373,0.7530814409255981,0.43266451358795166,-0.018844008445739746,-0.7250268459320068
40,0.0003622082294896245,0.000359608035068959,-0.167766734957695,-1.2822012901306152,-1.5834084749221802,0.7833654284477234,1.5751160383224487,-0.07552289962768555,0.00030454929219558835,-0.0011980872368440032,0.20941175520420074,0.13236196339130402,0.3253023028373718,1.302724003791809,0.592303991317749,-0.9165352582931519,-0.3978976011276245,0.6197748184204102,0.09815526008605957,0.47449585795402527,0.753897488117218,0.43266451358795166,-0.018844008445739746,-0.7250268459320068
41,0.00016956606123130769,0.00027661409694701433,-0.16900119185447693,-1.2780457735061646,-1.5804195404052734,0.7741124629974365,1.5734176635742188,-0.07552289962768555,0.00024380137620028108,-0.0008590040379203856,0.21379372477531433,0.13281624019145966,0.32918229699134827,1.2976741790771484,0.592303991317749,-0.9165352582931519,-0.3978976011276245,0.6197748184204102,0.09815526008605957,0.47584012150764465,0.7544934153556824,0.43266451358795166,-0.018844008445739746,-0.7250268459320068
42,4.25600228481926e-05,0.00022367481142282486,-0.17035506665706635,-1.2736302614212036,-1.5774528980255127,0.7647994160652161,1.5720967054367065,-0.07552289962768555,0.00019524971139617264,-0.0005948985344730318,0.2185693234205246,0.13303032517433167,0.33328577876091003,1.292783498764038,0.592303991317749,-0.9165352582931519,-0.3978976011276245,0.6197748184204102,0.09815526008605957,0.4774845838546753,0.7549149990081787,0.43266451358795166,-0.018844008445739746,-0.7250268459320068
43,-3.646238474175334e-05,0.00018962324247695506,-0.17184270918369293,-1.2689733505249023,-1.5744878053665161,0.7553718090057373,1.5711183547973633,-0.07552289962768555,0.00015645654639229178,-0.00039331326843239367,0.22375382483005524,0.13302253186702728,0.33764079213142395,1.2879977226257324,0.592303991317749,-0.9165352582931519,-0.3978976011276245,0.6197748184204102,0.09815526008605957,0.47937238216400146,0.7552077770233154,0.43266451358795166,-0.018844008445739746,-0.7250268459320068
44,-8.138903649523854e-05,0.00016687577590346336,-0.17347675561904907,-1.264090657234192,-1.5715031623840332,0.7457767128944397,1.5704381465911865,-0.07552289962768555,0.00012545377830974758,-0.00024287161068059504,0.2293613851070404,0.13281424343585968,0.3422747254371643,1.283263921737671,0.592303991317749,-0.9165352582931519,-0.3978976011276245,0.6197748184204102,0.09815526008605957,0.4814527928829193,0.7554149031639099,0.43266451358795166,-0.018844008445739746,-0.7250268459320068
45,-0.00010288749763276428,0.0001504842657595873,-0.17526867985725403,-1.2589954137802124,-1.5684784650802612,0.7359647750854492,1.5700063705444336,-0.07552289962768555,0.00010066360118798912,-0.00013348048378247768,0.23540611565113068,0.13242913782596588,0.34721478819847107,1.2785316705703735,0.592303991317749,-0.9165352582931519,-0.3978976011276245,0.6197748184204102,0.09815526008605957,0.4836818277835846,0.755576491355896,0.43266451358795166,-0.018844008445739746,-0.7250268459320068
46,-0.00010895247396547347,0.00013737851986661553,-0.17722928524017334,-1.2536983489990234,-1.5653940439224243,0.7258921265602112,1.5697726011276245,-0.07552289962768555,8.082709246082231e-05,-5.640571180265397e-05,0.24190281331539154,0.1318926364183426,0.35248759388923645,1.273754596710205,0.592303991317749,-0.9165352582931519,-0.3978976011276245,0.6197748184204102,0.09815526008605957,0.4860225021839142,0.7557290196418762,0.43266451358795166,-0.018844008445739746,-0.7250268459320068
47,-0.00010542009840719402,0.0001257799449376762,-0.17936863005161285,-1.2482085227966309,-1.5622323751449585,0.7155207991600037,1.5696884393692017,-0.07552289962768555,6.494175613624975e-05,-4.258139597368427e-06,0.24886742234230042,0.13123159110546112,0.35812005400657654,1.268890619277954,0.592303991317749,-0.9165352582931519,-0.3978976011276245,0.6197748184204102,0.09815526008605957,0.48844459652900696,0.7559049129486084,0.43266451358795166,-0.018844008445739746,-0.7250268459320068
48,-9.642768418416381e-05,0.00011476346116978675,-0.1816968023777008,-1.2425332069396973,-1.5589778423309326,0.70481938123703,1.569710373878479,-0.07552289962768555,5.2210445574019104e-05,2.908300666604191e-05,0.2563171982765198,0.13047412037849426,0.36413830518722534,1.2639023065567017,0.592303991317749,-0.9165352582931519,-0.3978976011276245,0.6197748184204102,0.09815526008605957,0.49092426896095276,0.7561328411102295,0.43266451358795166,-0.018844008445739746,-0.7250268459320068
49,-8.480909309582785e-05,0.00010394016862846911,-0.18422363698482513,-1.236678123474121,-1.5556169748306274,0.6937628388404846,1.5698009729385376,-0.07552289962768555,4.1999141103588045e-05,4.8585196054773405e-05,0.26427075266838074,0.12964951992034912,0.3705689311027527,1.258757472038269,0.592303991317749,-0.9165352582931519,-0.3978976011276245,0.6197748184204102,0.09815526008605957,0.49344339966773987,0.7564379572868347,0.43266451358795166,-0.018844008445739746,-0.7250268459320068
50,-7.242364517878741e-05,9.323473204858601e-05,-0.18695929646492004,-1.230648159980774,-1.5521385669708252,0.6823322772979736,1.569930076599121,-0.07552289962768555,3.380300768185407e-05,5.819858779432252e-05,0.2727479636669159,0.12878847122192383,0.37743765115737915,1.2534286975860596,0.592303991317749,-0.9165352582931519,-0.3978976011276245,0.6197748184204102,0.09815526008605957,0.49598875641822815,0.7568424344062805,0.43266451358795166,-0.018844008445739746,-0.7250268459320068
51,-6.042171298759058e-05,8.273509592982009e-05,-0.1899140328168869,-1.224447250366211,-1.5485340356826782,0.6705150604248047,1.570074200630188,-0.07552289962768555,2.7219888579566032e-05,6.099935490055941e-05,0.28176969289779663,0.12792320549488068,0.38477060198783875,1.2478935718536377,0.592303991317749,-0.9165352582931519,-0.3978976011276245,0.6197748184204102,0.09815526008605957,0.49855124950408936,0.7573657631874084,0.43266451358795166,-0.018844008445739746,-0.7250268459320068
52,-4.945340333506465e-05,7.259585981955752e-05,-0.1930985152721405,-1.2180790901184082,-1.5447969436645508,0.6583042144775391,1.5702166557312012,-0.07552289962768555,2.192896863562055e-05,5.933039938099682e-05,0.2913576364517212,0.12708780169487,0.3925926089286804,1.2421343326568604,0.592303991317749,-0.9165352582931519,-0.3978976011276245,0.6197748184204102,0.09815526008605957,0.501124918460846,0.758025586605072,0.43266451358795166,-0.018844008445739746,-0.7250268459320068
53,-3.9828253648011014e-05,6.297972868196666e-05,-0.1965237855911255,-1.2115471363067627,-1.5409232378005981,0.6456984281539917,1.570346713066101,-0.07552289962768555,1.7674035916570574e-05,5.4933138017077e-05,0.30153387784957886,0.1263185739517212,0.4009290337562561,1.2361371517181396,0.592303991317749,-0.9165352582931519,-0.3978976011276245,0.6197748184204102,0.09815526008605957,0.5037059187889099,0.7588381171226501,0.43266451358795166,-0.018844008445739746,-0.7250268459320068
54,-3.1633950129617006e-05,5.4025440476834774e-05,-0.20020131766796112,-1.20485520362854,-1.5369113683700562,0.6327009797096252,1.5704584121704102,-0.07552289962768555,1.42503013194073e-05,4.9066205974668264e-05,0.312320739030838,0.12565447390079498,0.4098038375377655,1.229892611503601,0.592303991317749,-0.9165352582931519,-0.3978976011276245,0.6197748184204102,0.09815526008605957,0.506291925907135,0.7598186135292053,0.43266451358795166,-0.018844008445739746,-0.7250268459320068
55,-2.482231502654031e-05,4.583338159136474e-05,-0.20414303243160248,-1.1980079412460327,-1.5327622890472412,0.6193199157714844,1.570549726486206,-0.07552289962768555,1.1493943020468578e-05,4.260905188857578e-05,0.3237404525279999,0.12513749301433563,0.4192411005496979,1.2233946323394775,0.592303991317749,-0.9165352582931519,-0.3978976011276245,0.6197748184204102,0.09815526008605957,0.5088810920715332,0.7609822154045105,0.43266451358795166,-0.018844008445739746,-0.7250268459320068
56,-1.926940785779152e-05,3.846213439828716e-05,-0.20836152136325836,-1.1910111904144287,-1.528479814529419,0.6055673360824585,1.5706210136413574,-0.07552289962768555,9.273750038119033e-06,3.614996967371553e-05,0.3358151316642761,0.12481308728456497,0.42926397919654846,1.2166399955749512,0.592303991317749,-0.9165352582931519,-0.3978976011276245,0.6197748184204102,0.09815526008605957,0.5114710927009583,0.7623441815376282,0.43266451358795166,-0.018844008445739746,-0.7250268459320068
57,-1.4816231669101398e-05,3.1931391276884824e-05,-0.2128698080778122,-1.1838728189468384,-1.5240705013275146,0.5914584398269653,1.5706745386123657,-0.07552289962768555,7.484593425033381e-06,3.0059121854719706e-05,0.3485666513442993,0.12473057955503464,0.43989598751068115,1.2096281051635742,0.592303991317749,-0.9165352582931519,-0.3978976011276245,0.6197748184204102,0.09815526008605957,0.5140585899353027,0.7639206647872925,0.43266451358795166,-0.018844008445739746,-0.7250268459320068
58,-1.1294857358734589e-05,2.622829742904287e-05,-0.2176821082830429,-1.1766029596328735,-1.5195441246032715,0.5770115852355957,1.5707131624221802,-0.07552289962768555,6.042150289431447e-06,2.4547549401177093e-05,0.36201685667037964,0.12494359165430069,0.4511602222919464,1.2023597955703735,0.592303991317749,-0.9165352582931519,-0.3978976011276245,0.6197748184204102,0.09815526008605957,0.5166382789611816,0.7657291889190674,0.43266451358795166,-0.018844008445739746,-0.7250268459320068
59,-8.544200682081282e-06,2.1314890545909293e-05,-0.2228134423494339,-1.1692146062850952,-1.5149141550064087,0.5622459053993225,1.5707402229309082,-0.07552289962768555,4.878771505900659e-06,1.9713916117325425e-05,0.37618792057037354,0.12551036477088928,0.4630812108516693,1.1948366165161133,0.592303991317749,-0.9165352582931519,-0.3978976011276245,0.6197748184204102,0.09815526008605957,0.5192021727561951,0.7677892446517944,0.43266451358795166,-0.018844008445739746,-0.7250268459320068
60,-6.41861970507307e-06,1.7135478628915735e-05,-0.22828081250190735,-1.161724328994751,-1.5101981163024902,0.5471814870834351,1.570758581161499,-0.07552289962768555,3.940120222978294e-06,1.5580586477881297e-05,0.39110323786735535,0.12649425864219666,0.47568464279174805,1.1870590448379517,0.592303991317749,-0.9165352582931519,-0.3978976011276245,0.6197748184204102,0.09815526008605957,0.5217388272285461,0.770123302936554,0.43266451358795166,-0.018844008445739746,-0.7250268459320068
61,-4.791714218299603e-06,1.362336115562357e-05,-0.2341032773256302,-1.1541526317596436,-1.505417823791504,0.5318365097045898,1.5707707405090332,-0.07552289962768555,3.1825304631638573e-06,1.2120884093747009e-05,0.40678834915161133,0.12796415388584137,0.48900049924850464,1.1790252923965454,0.592303991317749,-0.9165352582931519,-0.3978976011276245,0.6197748184204102,0.09815526008605957,0.5242326855659485,0.772757351398468,0.43266451358795166,-0.018844008445739746,-0.7250268459320068
62,-3.55708380084252e-06,1.0706299690355081e-05,-0.24030360579490662,-1.1465249061584473,-1.5006002187728882,0.5162264704704285,1.5707788467407227,-0.07552289962768555,2.5708955035952386e-06,9.27904784475686e-06,0.423272967338562,0.1299951821565628,0.5030627250671387,1.1707290410995483,0.592303991317749,-0.9165352582931519,-0.3978976011276245,0.6197748184204102,0.09815526008605957,0.5266631841659546,0.7757225632667542,0.43266451358795166,-0.018844008445739746,-0.7250268459320068
63,-2.6272750801581424e-06,8.310921657539438e-06,-0.24690906703472137,-1.1388717889785767,-1.495778203010559,0.5003610849380493,1.570784091949463,-0.07552289962768555,2.0769643924722914e-06,6.9844882091274485e-06,0.4405929744243622,0.13266964256763458,0.5179144740104675,1.162156581878662,0.592303991317749,-0.9165352582931519,-0.3978976011276245,0.6197748184204102,0.09815526008605957,0.5290040373802185,0.7790564894676208,0.43266451358795166,-0.018844008445739746,-0.7250268459320068
64,-1.9318056274642004e-06,6.36592540104175e-06,-0.2539539933204651,-1.1312297582626343,-1.490991234779358,0.48424237966537476,1.5707876682281494,-0.07552289962768555,1.6779907809905126e-06,5.16154250362888e-06,0.4587939977645874,0.13607855141162872,0.5336090326309204,1.1532844305038452,0.592303991317749,-0.9165352582931519,-0.3978976011276245,0.6197748184204102,0.09815526008605957,0.5312222242355347,0.7828052639961243,0.43266451358795166,-0.018844008445739746,-0.7250268459320068
65,-1.4147913134365808e-06,4.804320269613527e-06,-0.2614821493625641,-1.1236424446105957,-1.4862868785858154,0.46786126494407654,1.5707900524139404,-0.07552289962768555,1.3556491467170417e-06,3.735851123565226e-06,0.47793513536453247,0.14032389223575592,0.5502170920372009,1.1440743207931519,0.592303991317749,-0.9165352582931519,-0.3978976011276245,0.6197748184204102,0.09815526008605957,0.5332767963409424,0.7870259284973145,0.43266451358795166,-0.018844008445739746,-0.7250268459320068
66,-1.0325346693207393e-06,3.5648056382342475e-06,-0.26955080032348633,-1.1161614656448364,-1.4817222356796265,0.4511944651603699,1.5707917213439941,-0.07552289962768555,1.095168272513547e-06,2.638241539898445e-06,0.49809497594833374,0.14552223682403564,0.5678296089172363,1.1344695091247559,0.592303991317749,-0.9165352582931519,-0.3978976011276245,0.6197748184204102,0.09815526008605957,0.535117506980896,0.7917908430099487,0.43266451358795166,-0.018844008445739746,-0.7250268459320068
67,-7.512787760788342e-07,2.5925196496245917e-06,-0.27823561429977417,-1.1088478565216064,-1.4773668050765991,0.4341999292373657,1.5707930326461792,-0.07552289962768555,8.846363357406517e-07,1.8068296867568279e-06,0.5193783044815063,0.1518099159002304,0.5865703821182251,1.1243882179260254,0.592303991317749,-0.9165352582931519,-0.3978976011276245,0.6197748184204102,0.09815526008605957,0.5366830825805664,0.7971916794776917,0.43266451358795166,-0.018844008445739746,-0.7250268459320068
68,-5.452197342492582e-07,1.839268179537612e-06,-0.28763797879219055,-1.1017744541168213,-1.4733054637908936,0.416812002658844,1.570793867111206,-0.07552289962768555,7.144369078559976e-07,1.1878746590809897e-06,0.5419263243675232,0.15935096144676208,0.6066009998321533,1.1137155294418335,0.592303991317749,-0.9165352582931519,-0.3978976011276245,0.6197748184204102,0.09815526008605957,0.5378984808921814,0.8033469915390015,0.43266451358795166,-0.018844008445739746,-0.7250268459320068
69,-3.9481463431911834e-07,1.263411604668363e-06,-0.29789578914642334,-1.0950287580490112,-1.4696435928344727,0.3989337980747223,1.5707944631576538,-0.07552289962768555,5.768071673628583e-07,7.358308948823833e-07,0.5659283995628357,0.1683485358953476,0.6281434893608093,1.102293848991394,0.592303991317749,-0.9165352582931519,-0.3978976011276245,0.6197748184204102,0.09815526008605957,0.5386713147163391,0.810411274433136,0.43266451358795166,-0.018844008445739746,-0.7250268459320068
70,-2.8538389074128645e-07,8.294971962641284e-07,-0.30919820070266724,-1.0887175798416138,-1.466513991355896,0.3804292678833008,1.570794939994812,-0.07552289962768555,4.6547515353267954e-07,4.1288689089924446e-07,0.5916402339935303,0.1790619045495987,0.6514918804168701,1.0899077653884888,0.592303991317749,-0.9165352582931519,-0.3978976011276245,0.6197748184204102,0.09815526008605957,0.5388862490653992,0.8185895681381226,0.43266451358795166,-0.018844008445739746,-0.7250268459320068
71,-2.0598011474248779e-07,5.077469040770666e-07,-0.32180798053741455,-1.0829734802246094,-1.4640874862670898,0.36110806465148926,1.5707952976226807,-0.07552289962768555,3.7536966601692257e-07,1.8822406389062962e-07,0.6194064021110535,0.19183117151260376,0.6770534515380859,1.0762646198272705,0.592303991317749,-0.9165352582931519,-0.3978976011276245,0.6197748184204102,0.09815526008605957,0.5383968949317932,0.8281568288803101,0.43266451358795166,-0.018844008445739746,-0.7250268459320068
72,-1.484908693782927e-07,2.7346135311745456e-07,-0.33609679341316223,-1.0779646635055542,-1.4625873565673828,0.34071141481399536,1.5707956552505493,-0.07552289962768555,3.0238476256272406e-07,3.714539786869864e-08,0.6496940851211548,0.2071140557527542,0.7053773999214172,1.0609651803970337,0.592303991317749,-0.9165352582931519,-0.3978976011276245,0.6197748184204102,0.09815526008605957,0.5370132327079773,0.8394899964332581,0.43266451358795166,-0.018844008445739746,-0.7250268459320068
73,-1.0693807439565717e-07,1.0639551817348547e-07,-0.3525966703891754,-1.0739102363586426,-1.4623126983642578,0.3188825249671936,1.5707957744598389,-0.07552289962768555,2.431926873214252e-07,-5.981800654808467e-08,0.6831371188163757,0.2255399227142334,0.7372342348098755,1.0434620380401611,0.592303991317749,-0.9165352582931519,-0.3978976011276245,0.6197748184204102,0.09815526008605957,0.5344821214675903,0.8531122803688049,0.43266451358795166,-0.018844008445739746,-0.7250268459320068
74,-7.693744663583857e-08,-9.85907888662041e-09,-0.37208613753318787,-1.071102261543274,-1.4636696577072144,0.2951439619064331,1.5707958936691284,-0.07552289962768555,1.9508686932567798e-07,-1.1776197794688414e-07,0.7206007838249207,0.2479913979768753,0.7736794352531433,1.0229960680007935,0.592303991317749,-0.9165352582931519,-0.3978976011276245,0.6197748184204102,0.09815526008605957,0.5304567217826843,0.8697673082351685,0.43266451358795166,-0.018844008445739746,-0.7250268459320068
75,-5.528643498564634e-08,-8.846021870567711e-08,-0.39571866393089294,-1.0699396133422852,-1.4672205448150635,0.2688504159450531,1.570796012878418,-0.07552289962768555,1.5585632695547247e-07,-1.481785574242167e-07,0.7632606029510498,0.27572187781333923,0.816203236579895,0.9985089302062988,0.592303991317749,-0.9165352582931519,-0.3978976011276245,0.6197748184204102,0.09815526008605957,0.5244467258453369,0.8905234932899475,0.43266451358795166,-0.018844008445739746,-0.7250268459320068
76,-3.965275041650784e-08,-1.3984499958041852e-07,-0.4252290427684784,-1.070975661277771,-1.4737459421157837,0.2391899973154068,1.5707961320877075,-0.07552289962768555,1.2368185764444206e-07,-1.596202423570503e-07,0.8127006888389587,0.3105221390724182,0.8668165802955627,0.9685182571411133,0.592303991317749,-0.9165352582931519,-0.3978976011276245,0.6197748184204102,0.09815526008605957,0.5157392024993896,0.9169400930404663,0.43266451358795166,-0.018844008445739746,-0.7250268459320068
77,-2.83409349322028e-08,-1.721871569770883e-07,-0.4632057547569275,-1.074982762336731,-1.4843231439590454,0.2052145153284073,1.570796251296997,-0.07552289962768555,9.70557110235859e-08,-1.5824014099052874e-07,0.8709731101989746,0.35491102933883667,0.9281848669052124,0.9309839010238647,0.592303991317749,-0.9165352582931519,-0.3978976011276245,0.6197748184204102,0.09815526008605957,0.5032710433006287,0.9512661695480347,0.43266451358795166,-0.018844008445739746,-0.7250268459320068
78,-2.0119175658805943e-08,-1.9171864096279023e-07,-0.5133728384971619,-1.0830070972442627,-1.500360369682312,0.16620691120624542,1.5707961320877075,-0.07552289962768555,7.473548180314538e-08,-1.4819590887782397e-07,0.9405044317245483,0.41224873065948486,1.0032622814178467,0.8832435011863708,0.592303991317749,-0.9165352582931519,-0.3978976011276245,0.6197748184204102,0.09815526008605957,0.48544543981552124,0.9966265559196472,0.43266451358795166,-0.018844008445739746,-0.7250268459320068
79,-1.4093690658967262e-08,-2.02835082063757e-07,-0.5804111361503601,-1.096339464187622,-1.5234564542770386,0.12256681174039841,1.5707966089248657,-0.07552289962768555,5.57810508894363e-08,-1.3194420489526237e-07,1.023484706878662,0.48635825514793396,1.0941859483718872,0.8223365545272827,0.592303991317749,-0.9165352582931519,-0.3978976011276245,0.6197748184204102,0.09815526008605957,0.459930419921875,1.0567636489868164,0.43266451358795166,-0.018844008445739746,-0.7250268459320068
80,-9.624968377863752e-09,-2.078253231729832e-07,-0.6682887077331543,-1.1161621809005737,-1.554700493812561,0.07805395126342773,1.570794939994812,-0.07552289962768555,3.975262785615996e-08,-1.1055807647153415e-07,1.1202532052993774,0.5799051523208618,1.1989059448242188,0.7463048696517944,0.592303991317749,-0.9165352582931519,-0.3978976011276245,0.6197748184204102,0.09815526008605957,0.4237278401851654,1.1345127820968628,0.43266451358795166,-0.018844008445739746,-0.7250268459320068
81,-6.286708931213525e-09,-2.064978303906173e-07,-0.7760641574859619,-1.142641305923462,-1.5931553840637207,0.041279613971710205,1.5708038806915283,-0.07552289962768555,2.7024345428117158e-08,-8.464348155712287e-08,1.2265758514404297,0.6910625696182251,1.3068211078643799,0.6567720770835876,0.592303991317749,-0.9165352582931519,-0.3978976011276245,0.6197748184204102,0.09815526008605957,0.37424349784851074,1.2278896570205688,0.43266451358795166,-0.018844008445739746,-0.7250268459320068
82,-3.849821794688069e-09,-1.9722116917364474e-07,-0.8944438695907593,-1.1738382577896118,-1.6345590353012085,0.021129481494426727,1.5707378387451172,-0.07552289962768555,1.8401259183065122e-08,-5.6557247773980635e-08,1.331882357597351,0.8111677169799805,1.3972796201705933,0.560663104057312,0.592303991317749,-0.9165352582931519,-0.3978976011276245,0.6197748184204102,0.09815526008605957,0.311963826417923,1.3259763717651367,0.43266451358795166,-0.018844008445739746,-0.7250268459320068
83,-2.2147075284806306e-09,-1.80763393586858e-07,-1.0093836784362793,-1.2058883905410767,-1.6733094453811646,0.016076572239398956,1.5713839530944824,-0.07552289962768555,1.3305740509395036e-08,-3.241829915623384e-08,1.4220736026763916,0.9278944730758667,1.4574393033981323,0.46738240122795105,0.592303991317749,-0.9165352582931519,-0.3978976011276245,0.6197748184204102,0.09815526008605957,0.24241627752780914,1.4100946187973022,0.43266451358795166,-0.018844008445739746,-0.7250268459320068
84,-1.257098869444917e-09,-1.6149951420629804e-07,-1.1111750602722168,-1.234727382659912,-1.7056175470352173,0.02745644375681877,1.5636885166168213,-0.07552289962768555,1.0071401490563403e-08,-1.7303179333794105e-08,1.4873530864715576,1.0329298973083496,1.4928090572357178,0.3837624490261078,0.592303991317749,-0.9165352582931519,-0.3978976011276245,0.6197748184204102,0.09815526008605957,0.1739521473646164,1.4663773775100708,0.43266451358795166,-0.018844008445739746,-0.7250268459320068
85,-7.611365426818395e-10,-1.43177913969339e-07,-1.1978278160095215,-1.259811282157898,-1.7300519943237305,0.025033069774508476,1.6606910228729248,-0.07552289962768555,8.027061682014391e-09,-9.80958603236104e-09,1.526795744895935,1.1216323375701904,1.508686900138855,0.3103006184101105,0.592303991317749,-0.9165352582931519,-0.3978976011276245,0.6197748184204102,0.09815526008605957,0.11104766279459,1.4967689514160156,0.43266451358795166,-0.018844008445739746,-0.7250268459320068
86,-5.125845858877653e-10,-1.2717313779830874e-07,-1.2711567878723145,-1.2775620222091675,-1.748277187347412,0.0976296216249466,1.3997105360031128,-0.07552289962768555,6.460259882601349e-09,-6.570194610588942e-09,1.5471123456954956,1.1997087001800537,1.5239911079406738,0.2535102069377899,0.592303991317749,-0.9165352582931519,-0.3978976011276245,0.6197748184204102,0.09815526008605957,0.06037602946162224,1.5099214315414429,0.43266451358795166,-0.018844008445739746,-0.7250268459320068
87,-3.8157929593829465e-10,-1.1266926236430663e-07,-1.3349547386169434,-1.30289888381958,-1.7595393657684326,-0.06742975115776062,1.6311124563217163,-0.07552289962768555,5.45830047826712e-09,-4.718206270126757e-09,1.5521035194396973,1.2448973655700684,1.5165963172912598,0.19105473160743713,0.592303991317749,-0.9165352582931519,-0.3978976011276245,0.6197748184204102,0.09815526008605957,0.0041550397872924805,1.5177572965621948,0.43266451358795166,-0.018844008445739746,-0.7250268459320068
88,-2.8966842813282767e-10,-1.0177566167612895e-07,-1.3904492855072021,-1.287095308303833,-1.7718271017074585,0.17120128870010376,1.5585976839065552,-0.07552289962768555,4.187209690087457e-09,-3.9895762249386735e-09,1.5596295595169067,1.3377654552459717,1.5559031963348389,0.19387614727020264,0.592303991317749,-0.9165352582931519,-0.3978976011276245,0.6197748184204102,0.09815526008605957,0.004895992577075958,1.5169835090637207,0.43266451358795166,-0.018844008445739746,-0.7250268459320068
89,-2.2946820832370207e-10,-9.114901189377633e-08,-1.4398808479309082,-1.3352808952331543,-1.7751513719558716,0.017376380041241646,1.5782493352890015,-0.07552289962768555,3.9023593245701704e-09,-1.8061561135596094e-09,1.5487806797027588,1.3158296346664429,1.4829622507095337,0.10317251831293106,0.592303991317749,-0.9165352582931519,-0.3978976011276245,0.6197748184204102,0.09815526008605957,-0.06583705544471741,1.5302438735961914,0.43266451358795166,-0.018844008445739746,-0.7250268459320068
90,-1.813362376923422e-10,-8.012092678200133e-08,-1.485888123512268,-1.3151068687438965,-1.7828983068466187,0.13876450061798096,1.5712127685546875,-0.07552289962768555,2.428127032771954e-09,-5.874208230949307e-09,1.5495661497116089,1.3878943920135498,1.6430015563964844,0.12486744672060013,0.592303991317749,-0.9165352582931519,-0.3978976011276245,0.6197748184204102,0.09815526008605957,-0.059589684009552,1.5089739561080933,0.43266451358795166,-0.018844008445739746,-0.7250268459320068
91,-1.4613363297222293e-10,-6.893900206250692e-08,-1.5296107530593872,-1.340900182723999,-1.7791115045547485,0.08230305463075638,1.5730762481689453,-0.07552289962768555,3.385891567120325e-09,4.897287908534054e-09,1.53704035282135,1.386852502822876,1.4446964263916016,0.07792150974273682,0.592303991317749,-0.9165352582931519,-0.3978976011276245,0.6197748184204102,0.09815526008605957,-0.09785877913236618,1.5563640594482422,0.43266451358795166,-0.018844008445739746,-0.7250268459320068
92,-1.1732023685873116e-10,-5.7743129389109527e-08,-1.5657439231872559,-1.3349511623382568,-1.7851755619049072,0.1296093761920929,1.5719491243362427,-0.07552289962768555,4.0522252220398514e-10,-8.111106453156935e-09,1.5374476909637451,1.4119973182678223,1.6070464849472046,0.07855771481990814,0.592303991317749,-0.9165352582931519,-0.3978976011276245,0.6197748184204102,0.09815526008605957,-0.10238039493560791,1.5027475357055664,0.43266451358795166,-0.018844008445739746,-0.7250268459320068
93,-9.471326500865018e-11,-4.7360703803178694e-08,-1.601068377494812,-1.3441706895828247,-1.780011534690857,0.11545445770025253,1.5720022916793823,-0.07552289962768555,4.497235472911143e-09,2.656552755553321e-09,1.528564691543579,1.4198095798492432,1.5147271156311035,0.06281732767820358,0.592303991317749,-0.9165352582931519,-0.3978976011276245,0.6197748184204102,0.09815526008605957,-0.11824875324964523,1.5430742502212524,0.43266451358795166,-0.018844008445739746,-0.7250268459320068
94,-7.634757409613613e-11,-3.8399502244601535e-08,-1.6304775476455688,-1.3439831733703613,-1.7795830965042114,0.12992137670516968,1.5716763734817505,-0.07552289962768555,-3.611763554900449e-09,-3.0510307613695886e-09,1.5263139009475708,1.428188443183899,1.5684928894042969,0.05985656753182411,0.592303991317749,-0.9165352582931519,-0.3978976011276245,0.6197748184204102,0.09815526008605957,-0.12344140559434891,1.521633505821228,0.43266451358795166,-0.018844008445739746,-0.7250268459320068
95,-6.193556778555376e-11,-3.038888252149263e-08,-1.6576220989227295,-1.3466962575912476,-1.7749289274215698,0.1280440390110016,1.5715612173080444,-0.07552289962768555,9.997552119500597e-09,1.0143674789020451e-10,1.5216578245162964,1.4319747686386108,1.542614221572876,0.055704809725284576,0.592303991317749,-0.9165352582931519,-0.3978976011276245,0.6197748184204102,0.09815526008605957,-0.12923085689544678,1.533370852470398,0.43266451358795166,-0.018844008445739746,-0.7250268459320068
96,-5.024334073788772e-11,-2.336573956540633e-08,-1.6810215711593628,-1.3468787670135498,-1.7708631753921509,0.13165758550167084,1.5714049339294434,-0.07552289962768555,-1.4903271505772864e-08,-1.091369883354787e-09,1.5194370746612549,1.433482050895691,1.5580244064331055,0.055341631174087524,0.592303991317749,-0.9165352582931519,-0.3978976011276245,0.6197748184204102,0.09815526008605957,-0.1313195675611496,1.527337908744812,0.43266451358795166,-0.018844008445739746,-0.7250268459320068
97,-4.0832753844810554e-11,-1.7234235372143303e-08,-1.7018609046936035,-1.3471189737319946,-1.7649298906326294,0.1312764585018158,1.571303367614746,-0.07552289962768555,2.9332632323075813e-08,-3.7012537479341745e-10,1.5170575380325317,1.4331512451171875,1.551239252090454,0.056087277829647064,0.592303991317749,-0.9165352582931519,-0.3978976011276245,0.6197748184204102,0.09815526008605957,-0.1322029083967209,1.5300425291061401,0.43266451358795166,-0.018844008445739746,-0.7250268459320068
98,-3.3186137865515164e-11,-1.1990787918136903e-08,-1.7198138236999512,-1.3465572595596313,-1.7584352493286133,0.1312955915927887,1.5712088346481323,-0.07552289962768555,-5.1256513700081996e-08,-5.199041752668165e-10,1.5157233476638794,1.4310182332992554,1.5556551218032837,0.05816403403878212,0.592303991317749,-0.9165352582931519,-0.3978976011276245,0.6197748184204102,0.09815526008605957,-0.13152529299259186,1.5279215574264526,0.43266451358795166,-0.018844008445739746,-0.7250268459320068
99,-2.6990699605877744e-11,-7.575271965265529e-09,-1.7353975772857666,-1.3456212282180786,-1.7507011890411377,0.13038231432437897,1.571136474609375,-0.07552289962768555,9.566674918914941e-08,-3.346436461271196e-10,1.5146925449371338,1.4279533624649048,1.5538307428359985,0.061143334954977036,0.592303991317749,-0.9165352582931519,-0.3978976011276245,0.6197748184204102,0.09815526008605957,-0.12984609603881836,1.5280122756958008,0.43266451358795166,-0.018844008445739746,-0.7250268459320068
