,0,1,2,3,4,5,6,7,8,9,10,11,12,13,14,15,16,17,18,19,20,21,22,23,24,25,26,27,28,29,30,31,32,33,34,35
0,0.9742159843444824,0.5725066661834717,-0.9450696706771851,0.5331553220748901,-0.1638166904449463,0.8066279888153076,-0.7395066022872925,-0.5556967258453369,-0.03214704990386963,-0.6504009962081909,0.8348275423049927,0.6320966482162476,0.07787811756134033,0.825708270072937,-0.29619109630584717,0.13394391536712646,0.06208908557891846,-0.40135037899017334,-0.33988070487976074,0.7660925388336182,-0.2964075803756714,-0.2124781608581543,0.44679534435272217,-0.7865079641342163,-0.733788013458252,0.7104500532150269,0.23700392246246338,-0.3340491056442261,-0.3613758087158203,0.24372732639312744,-0.4309641122817993,-0.7228788137435913,0.4636112451553345,0.7181028127670288,0.37339186668395996,-0.29189038276672363
1,1.026692509651184,0.6249831914901733,-0.9975461959838867,0.5856318473815918,-0.11134087294340134,0.754151463508606,-0.6870300769805908,-0.6081732511520386,0.020329322665929794,-0.6504009962081909,0.8348275423049927,0.6320966482162476,0.025402337312698364,0.8781837821006775,-0.34866753220558167,0.18641243875026703,0.11456551402807236,-0.45382678508758545,-0.2874041795730591,0.713616132736206,-0.2964075803756714,-0.2124781608581543,0.44679534435272217,-0.7865079641342163,-0.733788013458252,0.7104500532150269,0.23700392246246338,-0.3340491056442261,-0.3613758087158203,0.2962038516998291,-0.48344001173973083,-0.7228788137435913,0.4636112451553345,0.7181028127670288,0.37339186668395996,-0.29189038276672363
2,1.0591071844100952,0.6581261157989502,-1.0309631824493408,0.6174085140228271,-0.06881209462881088,0.7235279679298401,-0.6508119106292725,-0.640580952167511,0.05212528631091118,-0.6504009962081909,0.8348275423049927,0.6320966482162476,-0.02378903329372406,0.8416372537612915,-0.37926948070526123,0.2378118336200714,0.14748544991016388,-0.4908355474472046,-0.24714936316013336,0.690485954284668,-0.2964075803756714,-0.2124781608581543,0.44679534435272217,-0.7865079641342163,-0.733788013458252,0.7104500532150269,0.23700392246246338,-0.3340491056442261,-0.3613758087158203,0.32710525393486023,-0.535190999507904,-0.7228788137435913,0.4636112451553345,0.7181028127670288,0.37339186668395996,-0.29189038276672363
3,1.0872831344604492,0.6850370168685913,-1.0609749555587769,0.6441047191619873,-0.030185462906956673,0.6992828845977783,-0.6177030205726624,-0.6657297015190125,0.07218584418296814,-0.6504009962081909,0.8348275423049927,0.6320966482162476,-0.0662606954574585,0.8092642426490784,-0.41352447867393494,0.2903025150299072,0.16838794946670532,-0.5276856422424316,-0.20985081791877747,0.6832201480865479,-0.2964075803756714,-0.2124781608581543,0.44679534435272217,-0.7865079641342163,-0.733788013458252,0.7104500532150269,0.23700392246246338,-0.3340491056442261,-0.3613758087158203,0.3524094820022583,-0.5817403197288513,-0.7228788137435913,0.4636112451553345,0.7181028127670288,0.37339186668395996,-0.29189038276672363
4,1.1137663125991821,0.7073682546615601,-1.0906637907028198,0.6691941022872925,0.013859308324754238,0.6786201596260071,-0.5845857858657837,-0.6866897940635681,0.0729629248380661,-0.6504009962081909,0.8348275423049927,0.6320966482162476,-0.10751110315322876,0.7877668738365173,-0.4561070203781128,0.34642452001571655,0.169063001871109,-0.5659202337265015,-0.1727122664451599,0.7053319811820984,-0.2964075803756714,-0.2124781608581543,0.44679534435272217,-0.7865079641342163,-0.733788013458252,0.7104500532150269,0.23700392246246338,-0.3340491056442261,-0.3613758087158203,0.3714090585708618,-0.6295963525772095,-0.7228788137435913,0.4636112451553345,0.7181028127670288,0.37339186668395996,-0.29189038276672363
5,1.1397145986557007,0.7228832244873047,-1.1229294538497925,0.6979047060012817,0.06908239424228668,0.6600186824798584,-0.5503575205802917,-0.7078614830970764,0.047327492386102676,-0.6504009962081909,0.8348275423049927,0.6320966482162476,-0.15127521753311157,0.7995738387107849,-0.5116244554519653,0.4083934426307678,0.1355629712343216,-0.6061530113220215,-0.13485898077487946,0.7552651762962341,-0.2964075803756714,-0.2124781608581543,0.44679534435272217,-0.7865079641342163,-0.733788013458252,0.7104500532150269,0.23700392246246338,-0.3340491056442261,-0.3613758087158203,0.3791751563549042,-0.6825560331344604,-0.7228788137435913,0.4636112451553345,0.7181028127670288,0.37339186668395996,-0.29189038276672363
6,1.1645081043243408,0.7253839373588562,-1.1609667539596558,0.7374717593193054,0.1335703730583191,0.6423386931419373,-0.5143837928771973,-0.7367777228355408,0.0020459401421248913,-0.6504009962081909,0.8348275423049927,0.6320966482162476,-0.20712818205356598,0.8438863158226013,-0.5768344402313232,0.4758096933364868,0.07837032526731491,-0.6470031142234802,-0.09624039381742477,0.8179678916931152,-0.2964075803756714,-0.2124781608581543,0.44679534435272217,-0.7865079641342163,-0.733788013458252,0.7104500532150269,0.23700392246246338,-0.3340491056442261,-0.3613758087158203,0.36672884225845337,-0.7429580688476562,-0.7228788137435913,0.4636112451553345,0.7181028127670288,0.37339186668395996,-0.29189038276672363
7,1.1838443279266357,0.7076849341392517,-1.206323504447937,0.7908252477645874,0.2011134922504425,0.6255534887313843,-0.4760376513004303,-0.7766924500465393,-0.05192409083247185,-0.6504009962081909,0.8348275423049927,0.6320966482162476,-0.2774866223335266,0.8833670616149902,-0.646686315536499,0.5459064841270447,0.012919502332806587,-0.685520589351654,-0.05780208855867386,0.8857018351554871,-0.2964075803756714,-0.2124781608581543,0.44679534435272217,-0.7865079641342163,-0.733788013458252,0.7104500532150269,0.23700392246246338,-0.3340491056442261,-0.3613758087158203,0.3319423496723175,-0.8087718486785889,-0.7228788137435913,0.4636112451553345,0.7181028127670288,0.37339186668395996,-0.29189038276672363
8,1.1913800239562988,0.6693461537361145,-1.2585957050323486,0.8539544939994812,0.26665475964546204,0.6121904850006104,-0.4351304769515991,-0.8237994313240051,-0.1074744462966919,-0.6504009962081909,0.8348275423049927,0.6320966482162476,-0.3536818325519562,0.8497757911682129,-0.7186082601547241,0.6161144375801086,-0.0545622780919075,-0.7183851003646851,-0.0215555801987648,0.9556171894073486,-0.2964075803756714,-0.2124781608581543,0.44679534435272217,-0.7865079641342163,-0.733788013458252,0.7104500532150269,0.23700392246246338,-0.3340491056442261,-0.3613758087158203,0.28333815932273865,-0.8771575689315796,-0.7228788137435913,0.4636112451553345,0.7181028127670288,0.37339186668395996,-0.29189038276672363
9,1.1874444484710693,0.6125545501708984,-1.317819356918335,0.9214861392974854,0.3246113657951355,0.6096213459968567,-0.3921705186367035,-0.8723104596138,-0.15902264416217804,-0.6504009962081909,0.8348275423049927,0.6320966482162476,-0.4273199737071991,0.791842520236969,-0.791519284248352,0.6843939423561096,-0.12121979147195816,-0.7443101406097412,0.00931109581142664,1.026463508605957,-0.2964075803756714,-0.2124781608581543,0.44679534435272217,-0.7865079641342163,-0.733788013458252,0.7104500532150269,0.23700392246246338,-0.3340491056442261,-0.3613758087158203,0.22968976199626923,-0.9463486075401306,-0.7228788137435913,0.4636112451553345,0.7181028127670288,0.37339186668395996,-0.29189038276672363
10,1.1758410930633545,0.5478993654251099,-1.3812633752822876,0.9895749688148499,0.36525145173072815,0.6291940808296204,-0.34825754165649414,-0.9176349639892578,-0.20076453685760498,-0.6504009962081909,0.8348275423049927,0.6320966482162476,-0.494202196598053,0.7636746168136597,-0.863795816898346,0.747832715511322,-0.18510085344314575,-0.7631409168243408,0.030602488666772842,1.0972614288330078,-0.2964075803756714,-0.2124781608581543,0.44679534435272217,-0.7865079641342163,-0.733788013458252,0.7104500532150269,0.23700392246246338,-0.3340491056442261,-0.3613758087158203,0.17652380466461182,-1.0151339769363403,-0.7228788137435913,0.4636112451553345,0.7181028127670288,0.37339186668395996,-0.29189038276672363
11,1.1593434810638428,0.4870590567588806,-1.4445537328720093,1.0558842420578003,0.37612760066986084,0.6751932501792908,-0.30521056056022644,-0.9568471312522888,-0.2268485277891159,-0.6504009962081909,0.8348275423049927,0.6320966482162476,-0.5540922284126282,0.7378025054931641,-0.9338461756706238,0.8032171130180359,-0.24548345804214478,-0.7741667628288269,0.03849967196583748,1.1668928861618042,-0.2964075803756714,-0.2124781608581543,0.44679534435272217,-0.7865079641342163,-0.733788013458252,0.7104500532150269,0.23700392246246338,-0.3340491056442261,-0.3613758087158203,0.12753748893737793,-1.0824135541915894,-0.7228788137435913,0.4636112451553345,0.7181028127670288,0.37339186668395996,-0.29189038276672363
12,1.143350601196289,0.43408203125,-1.5056627988815308,1.1191678047180176,0.36073020100593567,0.7382839322090149,-0.26510947942733765,-0.9889362454414368,-0.23297183215618134,-0.6504009962081909,0.8348275423049927,0.6320966482162476,-0.6012966632843018,0.7693750262260437,-1.0009528398513794,0.8479880094528198,-0.30346643924713135,-0.7705873250961304,0.03256787359714508,1.2343755960464478,-0.2964075803756714,-0.2124781608581543,0.44679534435272217,-0.7865079641342163,-0.733788013458252,0.7104500532150269,0.23700392246246338,-0.3340491056442261,-0.3613758087158203,0.08507874608039856,-1.147413730621338,-0.7228788137435913,0.4636112451553345,0.7181028127670288,0.37339186668395996,-0.29189038276672363
13,1.129671335220337,0.40240979194641113,-1.5614323616027832,1.1789807081222534,0.3379684388637543,0.8081994652748108,-0.23003198206424713,-1.0143814086914062,-0.21919800341129303,-0.6504009962081909,0.8348275423049927,0.6320966482162476,-0.6463799476623535,0.6759797930717468,-1.064467191696167,0.8784904479980469,-0.36099866032600403,-0.7495362758636475,0.016314418986439705,1.2987653017044067,-0.2964075803756714,-0.2124781608581543,0.44679534435272217,-0.7865079641342163,-0.733788013458252,0.7104500532150269,0.23700392246246338,-0.3340491056442261,-0.3613758087158203,0.05090636387467384,-1.2095211744308472,-0.7228788137435913,0.4636112451553345,0.7181028127670288,0.37339186668395996,-0.29189038276672363
14,1.123525857925415,0.3655676245689392,-1.6149784326553345,1.2350561618804932,0.3186549246311188,0.879436731338501,-0.20175878703594208,-1.0347803831100464,-0.19119751453399658,-0.6504009962081909,0.8348275423049927,0.6320966482162476,-0.6424159407615662,0.7742770910263062,-1.124188780784607,0.8929985761642456,-0.4193542003631592,-0.7186378836631775,-0.005549895577132702,1.358931303024292,-0.2964075803756714,-0.2124781608581543,0.44679534435272217,-0.7865079641342163,-0.733788013458252,0.7104500532150269,0.23700392246246338,-0.3340491056442261,-0.3613758087158203,0.026356514543294907,-1.2681323289871216,-0.7228788137435913,0.4636112451553345,0.7181028127670288,0.37339186668395996,-0.29189038276672363
15,1.1184989213943481,0.37029027938842773,-1.659327507019043,1.2872878313064575,0.3041565716266632,0.9492946863174438,-0.18090620636940002,-1.0521761178970337,-0.15568572282791138,-0.6504009962081909,0.8348275423049927,0.6320966482162476,-0.6745715141296387,0.7066791653633118,-1.1797797679901123,0.8970082402229309,-0.4778868556022644,-0.6809369325637817,-0.02917245589196682,1.4139944314956665,-0.2964075803756714,-0.2124781608581543,0.44679534435272217,-0.7865079641342163,-0.733788013458252,0.7104500532150269,0.23700392246246338,-0.3340491056442261,-0.3613758087158203,0.0114479074254632,-1.3229502439498901,-0.7228788137435913,0.4636112451553345,0.7181028127670288,0.37339186668395996,-0.29189038276672363
16,1.115206241607666,0.3644871115684509,-1.6992402076721191,1.3352715969085693,0.2932569980621338,1.0164039134979248,-0.1667533814907074,-1.067591667175293,-0.11895447224378586,-0.6504009962081909,0.8348275423049927,0.6320966482162476,-0.6608240008354187,0.7538447380065918,-1.2308207750320435,0.8978568911552429,-0.5349080562591553,-0.6427042484283447,-0.05172190070152283,1.4628872871398926,-0.2964075803756714,-0.2124781608581543,0.44679534435272217,-0.7865079641342163,-0.733788013458252,0.7104500532150269,0.23700392246246338,-0.3340491056442261,-0.3613758087158203,0.004958314821124077,-1.3735404014587402,-0.7228788137435913,0.4636112451553345,0.7181028127670288,0.37339186668395996,-0.29189038276672363
17,1.1087974309921265,0.380174458026886,-1.7309651374816895,1.3784496784210205,0.28576573729515076,1.0799028873443604,-0.15774321556091309,-1.080764651298523,-0.08568814396858215,-0.6504009962081909,0.8348275423049927,0.6320966482162476,-0.6730992794036865,0.7210366725921631,-1.2773865461349487,0.902036190032959,-0.5885712504386902,-0.6080012321472168,-0.07112763822078705,1.5047450065612793,-0.2964075803756714,-0.2124781608581543,0.44679534435272217,-0.7865079641342163,-0.733788013458252,0.7104500532150269,0.23700392246246338,-0.3340491056442261,-0.3613758087158203,0.004723445512354374,-1.4195083379745483,-0.7228788137435913,0.4636112451553345,0.7181028127670288,0.37339186668395996,-0.29189038276672363
18,1.1006734371185303,0.3863353729248047,-1.7562389373779297,1.416483998298645,0.2815779447555542,1.139167308807373,-0.1521831452846527,-1.0909137725830078,-0.05930190905928612,-0.6504009962081909,0.8348275423049927,0.6320966482162476,-0.6601250767707825,0.7562059164047241,-1.318867802619934,0.9122830629348755,-0.6376590728759766,-0.579677164554596,-0.08589833229780197,1.5390315055847168,-0.2964075803756714,-0.2124781608581543,0.44679534435272217,-0.7865079641342163,-0.733788013458252,0.7104500532150269,0.23700392246246338,-0.3340491056442261,-0.3613758087158203,0.00837831012904644,-1.4605112075805664,-0.7228788137435913,0.4636112451553345,0.7181028127670288,0.37339186668395996,-0.29189038276672363
19,1.089700698852539,0.40602219104766846,-1.7738827466964722,1.4493128061294556,0.2801697254180908,1.193681240081787,-0.14875660836696625,-1.097636342048645,-0.04183182492852211,-0.6504009962081909,0.8348275423049927,0.6320966482162476,-0.6701841354370117,0.7345568537712097,-1.355760097503662,0.9283992052078247,-0.6816519498825073,-0.5567752122879028,-0.09529007971286774,1.5657744407653809,-0.2964075803756714,-0.2124781608581543,0.44679534435272217,-0.7865079641342163,-0.733788013458252,0.7104500532150269,0.23700392246246338,-0.3340491056442261,-0.3613758087158203,0.013933690264821053,-1.496347427368164,-0.7228788137435913,0.4636112451553345,0.7181028127670288,0.37339186668395996,-0.29189038276672363
20,1.0793018341064453,0.41502493619918823,-1.7852329015731812,1.477295160293579,0.28039056062698364,1.2430884838104248,-0.1465453952550888,-1.101332664489746,-0.034045860171318054,-0.6504009962081909,0.8348275423049927,0.6320966482162476,-0.6593594551086426,0.771649956703186,-1.3876219987869263,0.9479156732559204,-0.7207203507423401,-0.5382499098777771,-0.09932384639978409,1.5855698585510254,-0.2964075803756714,-0.2124781608581543,0.44679534435272217,-0.7865079641342163,-0.733788013458252,0.7104500532150269,0.23700392246246338,-0.3340491056442261,-0.3613758087158203,0.01994692161679268,-1.526963710784912,-0.7228788137435913,0.4636112451553345,0.7181028127670288,0.37339186668395996,-0.29189038276672363
21,1.0677727460861206,0.43694445490837097,-1.7904157638549805,1.5009219646453857,0.28114667534828186,1.287102460861206,-0.14497792720794678,-1.1028014421463013,-0.035531286150217056,-0.6504009962081909,0.8348275423049927,0.6320966482162476,-0.6724356412887573,0.7528850436210632,-1.4153915643692017,0.9687851071357727,-0.7552060484886169,-0.5217686891555786,-0.09875795245170593,1.5994789600372314,-0.2964075803756714,-0.2124781608581543,0.44679534435272217,-0.7865079641342163,-0.733788013458252,0.7104500532150269,0.23700392246246338,-0.3340491056442261,-0.3613758087158203,0.02553601935505867,-1.5524637699127197,-0.7228788137435913,0.4636112451553345,0.7181028127670288,0.37339186668395996,-0.29189038276672363
22,1.0588696002960205,0.445573091506958,-1.7907227277755737,1.520796775817871,0.28157299757003784,1.325623631477356,-0.1436762660741806,-1.1029587984085083,-0.045090820640325546,-0.6504009962081909,0.8348275423049927,0.6320966482162476,-0.6626725196838379,0.794741690158844,-1.4386634826660156,0.989204466342926,-0.7856862545013428,-0.507544755935669,-0.09464063495397568,1.608783483505249,-0.2964075803756714,-0.2124781608581543,0.44679534435272217,-0.7865079641342163,-0.733788013458252,0.7104500532150269,0.23700392246246338,-0.3340491056442261,-0.3613758087158203,0.03022349439561367,-1.5730814933776855,-0.7228788137435913,0.4636112451553345,0.7181028127670288,0.37339186668395996,-0.29189038276672363
23,1.0489388704299927,0.46886640787124634,-1.786856770515442,1.5374138355255127,0.28140395879745483,1.3586047887802124,-0.14242620766162872,-1.1024495363235474,-0.061280738562345505,-0.6504009962081909,0.8348275423049927,0.6320966482162476,-0.6796606183052063,0.7741948962211609,-1.4587334394454956,1.0088037252426147,-0.812445878982544,-0.4938538670539856,-0.08821510523557663,1.6147774457931519,-0.2964075803756714,-0.2124781608581543,0.44679534435272217,-0.7865079641342163,-0.733788013458252,0.7104500532150269,0.23700392246246338,-0.3340491056442261,-0.3613758087158203,0.03388405218720436,-1.5891612768173218,-0.7228788137435913,0.4636112451553345,0.7181028127670288,0.37339186668395996,-0.29189038276672363
24,1.04276704788208,0.47520560026168823,-1.779801845550537,1.5512553453445435,0.2804886996746063,1.3862764835357666,-0.14108288288116455,-1.101837396621704,-0.08266200870275497,-0.6504009962081909,0.8348275423049927,0.6320966482162476,-0.6692889928817749,0.820448100566864,-1.4750542640686035,1.0266467332839966,-0.8360757827758789,-0.48272013664245605,-0.08040392398834229,1.6186050176620483,-0.2964075803756714,-0.2124781608581543,0.44679534435272217,-0.7865079641342163,-0.733788013458252,0.7104500532150269,0.23700392246246338,-0.3340491056442261,-0.3613758087158203,0.036527108401060104,-1.6011321544647217,-0.7228788137435913,0.4636112451553345,0.7181028127670288,0.37339186668395996,-0.29189038276672363
25,1.034509539604187,0.4990827739238739,-1.7703839540481567,1.562670350074768,0.2790943384170532,1.408840298652649,-0.1395999789237976,-1.1013325452804565,-0.10825475305318832,-0.6504009962081909,0.8348275423049927,0.6320966482162476,-0.6896146535873413,0.7958927154541016,-1.4891579151153564,1.043357491493225,-0.8565321564674377,-0.471097469329834,-0.07224809378385544,1.62123441696167,-0.2964075803756714,-0.2124781608581543,0.44679534435272217,-0.7865079641342163,-0.733788013458252,0.7104500532150269,0.23700392246246338,-0.3340491056442261,-0.3613758087158203,0.038351647555828094,-1.6094774007797241,-0.7228788137435913,0.4636112451553345,0.7181028127670288,0.37339186668395996,-0.29189038276672363
26,1.0309652090072632,0.5022061467170715,-1.7591726779937744,1.5720044374465942,0.27713170647621155,1.4269027709960938,-0.13793222606182098,-1.1012269258499146,-0.13716809451580048,-0.6504009962081909,0.8348275423049927,0.6320966482162476,-0.6774347424507141,0.8447719216346741,-1.5002785921096802,1.0575309991836548,-0.8746370673179626,-0.4638689160346985,-0.06406340003013611,1.623379111289978,-0.2964075803756714,-0.2124781608581543,0.44679534435272217,-0.7865079641342163,-0.733788013458252,0.7104500532150269,0.23700392246246338,-0.3340491056442261,-0.3613758087158203,0.03945121914148331,-1.614713430404663,-0.7228788137435913,0.4636112451553345,0.7181028127670288,0.37339186668395996,-0.29189038276672363
27,1.0237839221954346,0.5258622169494629,-1.7469260692596436,1.5794970989227295,0.275103360414505,1.4407235383987427,-0.13611440360546112,-1.1013914346694946,-0.16930483281612396,-0.6504009962081909,0.8348275423049927,0.6320966482162476,-0.6998896598815918,0.8164163827896118,-1.5100507736206055,1.071111798286438,-0.8896977305412292,-0.45328328013420105,-0.05684022977948189,1.6256951093673706,-0.2964075803756714,-0.2124781608581543,0.44679534435272217,-0.7865079641342163,-0.733788013458252,0.7104500532150269,0.23700392246246338,-0.3340491056442261,-0.3613758087158203,0.04014533758163452,-1.617354393005371,-0.7228788137435913,0.4636112451553345,0.7181028127670288,0.37339186668395996,-0.29189038276672363
28,1.0223824977874756,0.525827944278717,-1.7338873147964478,1.585402488708496,0.27247926592826843,1.4513061046600342,-0.13410788774490356,-1.102069616317749,-0.20408785343170166,-0.6504009962081909,0.8348275423049927,0.6320966482162476,-0.6857327222824097,0.8653640151023865,-1.517539620399475,1.080688238143921,-0.9035101532936096,-0.4524923264980316,-0.049933068454265594,1.6284364461898804,-0.2964075803756714,-0.2124781608581543,0.44679534435272217,-0.7865079641342163,-0.733788013458252,0.7104500532150269,0.23700392246246338,-0.3340491056442261,-0.3613758087158203,0.040350914001464844,-1.6179051399230957,-0.7228788137435913,0.4636112451553345,0.7181028127670288,0.37339186668395996,-0.29189038276672363
29,1.0157444477081299,0.5484077334403992,-1.7206764221191406,1.58989417552948,0.2703772485256195,1.4584436416625977,-0.13199542462825775,-1.1028121709823608,-0.24251458048820496,-0.6504009962081909,0.8348275423049927,0.6320966482162476,-0.7088732719421387,0.8350094556808472,-1.524332880973816,1.092054009437561,-0.9135176539421082,-0.4388626217842102,-0.04514719173312187,1.632331132888794,-0.2964075803756714,-0.2124781608581543,0.44679534435272217,-0.7865079641342163,-0.733788013458252,0.7104500532150269,0.23700392246246338,-0.3340491056442261,-0.3613758087158203,0.04062040522694588,-1.6168233156204224,-0.7228788137435913,0.4636112451553345,0.7181028127670288,0.37339186668395996,-0.29189038276672363
30,1.0159629583358765,0.5459152460098267,-1.7073537111282349,1.5931651592254639,0.26684120297431946,1.463972806930542,-0.12963959574699402,-1.1041427850723267,-0.2833392918109894,-0.6504009962081909,0.8348275423049927,0.6320966482162476,-0.6933818459510803,0.8816170692443848,-1.5294502973556519,1.0949820280075073,-0.9249306917190552,-0.4529263973236084,-0.03955106437206268,1.636776089668274,-0.2964075803756714,-0.2124781608581543,0.44679534435272217,-0.7865079641342163,-0.733788013458252,0.7104500532150269,0.23700392246246338,-0.3340491056442261,-0.3613758087158203,0.04030415415763855,-1.6145424842834473,-0.7228788137435913,0.4636112451553345,0.7181028127670288,0.37339186668395996,-0.29189038276672363
31,1.009591817855835,0.5667343139648438,-1.6943751573562622,1.5953600406646729,0.2654533088207245,1.4658807516098022,-0.1272483617067337,-1.1050139665603638,-0.3299442231655121,-0.6504009962081909,0.8348275423049927,0.6320966482162476,-0.7159863710403442,0.8511738777160645,-1.5342984199523926,1.1083465814590454,-0.9287355542182922,-0.42114579677581787,-0.03866470605134964,1.6439087390899658,-0.2964075803756714,-0.2124781608581543,0.44679534435272217,-0.7865079641342163,-0.733788013458252,0.7104500532150269,0.23700392246246338,-0.3340491056442261,-0.3613758087158203,0.04088365659117699,-1.6114084720611572,-0.7228788137435913,0.4636112451553345,0.7181028127670288,0.37339186668395996,-0.29189038276672363
32,1.0109809637069702,0.5625774264335632,-1.6817277669906616,1.596617341041565,0.25914478302001953,1.4690163135528564,-0.12431161105632782,-1.106994390487671,-0.3771524429321289,-0.6504009962081909,0.8348275423049927,0.6320966482162476,-0.6999428272247314,0.8940836787223816,-1.5379681587219238,1.0971390008926392,-0.9425450563430786,-0.47624775767326355,-0.031984347850084305,1.6497399806976318,-0.2964075803756714,-0.2124781608581543,0.44679534435272217,-0.7865079641342163,-0.733788013458252,0.7104500532150269,0.23700392246246338,-0.3340491056442261,-0.3613758087158203,0.03981511667370796,-1.6077795028686523,-0.7228788137435913,0.4636112451553345,0.7181028127670288,0.37339186668395996,-0.29189038276672363
33,1.0047798156738281,0.5813506245613098,-1.6697100400924683,1.5970925092697144,0.2607817053794861,1.465367078781128,-0.12165728211402893,-1.1072330474853516,-0.4361557066440582,-0.6504009962081909,0.8348275423049927,0.6320966482162476,-0.72135990858078,0.8646294474601746,-1.5416122674942017,1.1268106698989868,-0.9344851970672607,-0.3946020305156708,-0.03898242115974426,1.6634235382080078,-0.2964075803756714,-0.2124781608581543,0.44679534435272217,-0.7865079641342163,-0.733788013458252,0.7104500532150269,0.23700392246246338,-0.3340491056442261,-0.3613758087158203,0.04195930436253548,-1.6038380861282349,-0.7228788137435913,0.4636112451553345,0.7181028127670288,0.37339186668395996,-0.29189038276672363
34,1.0070148706436157,0.5760969519615173,-1.6582911014556885,1.5968818664550781,0.24804814159870148,1.468922734260559,-0.11740480363368988,-1.1107182502746582,-0.4886056184768677,-0.6504009962081909,0.8348275423049927,0.6320966482162476,-0.7052600979804993,0.9036328792572021,-1.5444508790969849,1.0829092264175415,-0.9604915976524353,-0.4987083077430725,-0.024918563663959503,1.6677783727645874,-0.2964075803756714,-0.2124781608581543,0.44679534435272217,-0.7865079641342163,-0.733788013458252,0.7104500532150269,0.23700392246246338,-0.3340491056442261,-0.3613758087158203,0.03924065828323364,-1.5999464988708496,-0.7228788137435913,0.4636112451553345,0.7181028127670288,0.37339186668395996,-0.29189038276672363
35,1.0009468793869019,0.5929195880889893,-1.6476255655288696,1.5960578918457031,0.2506910562515259,1.4603339433670044,-0.11443378776311874,-1.1097924709320068,-0.5616311430931091,-0.6504009962081909,0.8348275423049927,0.6320966482162476,-0.7253846526145935,0.87542325258255,-1.5473854541778564,1.1405280828475952,-0.9388217926025391,-0.4100005626678467,-0.043477773666381836,1.6910943984985352,-0.2964075803756714,-0.2124781608581543,0.44679534435272217,-0.7865079641342163,-0.733788013458252,0.7104500532150269,0.23700392246246338,-0.3340491056442261,-0.3613758087158203,0.04311257600784302,-1.5960041284561157,-0.7228788137435913,0.4636112451553345,0.7181028127670288,0.37339186668395996,-0.29189038276672363
36,1.0038498640060425,0.5868435502052307,-1.637670874595642,1.594907283782959,0.2373971939086914,1.4618459939956665,-0.10815663635730743,-1.1146752834320068,-0.6248087286949158,-0.6504009962081909,0.8348275423049927,0.6320966482162476,-0.7093178033828735,0.9111751317977905,-1.549752116203308,1.0807605981826782,-0.9694826006889343,-0.4970962107181549,-0.02504901960492134,1.697191834449768,-0.2964075803756714,-0.2124781608581543,0.44679534435272217,-0.7865079641342163,-0.733788013458252,0.7104500532150269,0.23700392246246338,-0.3340491056442261,-0.3613758087158203,0.04070710390806198,-1.5924897193908691,-0.7228788137435913,0.4636112451553345,0.7181028127670288,0.37339186668395996,-0.29189038276672363
37,0.9978039860725403,0.6021851301193237,-1.6284863948822021,1.5932401418685913,0.2337402105331421,1.4529712200164795,-0.10345032811164856,-1.113122582435608,-0.7083280682563782,-0.6504009962081909,0.8348275423049927,0.6320966482162476,-0.7286209464073181,0.8835844397544861,-1.5522547960281372,1.1300420761108398,-0.9515953660011292,-0.4455093443393707,-0.044569820165634155,1.7262884378433228,-0.2964075803756714,-0.2124781608581543,0.44679534435272217,-0.7865079641342163,-0.733788013458252,0.7104500532150269,0.23700392246246338,-0.3340491056442261,-0.3613758087158203,0.04410083219408989,-1.5890562534332275,-0.7228788137435913,0.4636112451553345,0.7181028127670288,0.37339186668395996,-0.29189038276672363
38,1.0014008283615112,0.5951676368713379,-1.6200454235076904,1.5914461612701416,0.21802745759487152,1.4506481885910034,-0.09478533267974854,-1.1161019802093506,-0.7861518859863281,-0.6504009962081909,0.8348275423049927,0.6320966482162476,-0.7120946645736694,0.9176057577133179,-1.5543526411056519,1.0863863229751587,-0.9762429594993591,-0.5091812610626221,-0.03227443993091583,1.7404897212982178,-0.2964075803756714,-0.2124781608581543,0.44679534435272217,-0.7865079641342163,-0.733788013458252,0.7104500532150269,0.23700392246246338,-0.3340491056442261,-0.3613758087158203,0.04313303157687187,-1.5861759185791016,-0.7228788137435913,0.4636112451553345,0.7181028127670288,0.37339186668395996,-0.29189038276672363
39,0.9951167702674866,0.6097754240036011,-1.6123443841934204,1.5893845558166504,0.21044175326824188,1.4412662982940674,-0.08675865828990936,-1.1132985353469849,-0.8786934018135071,-0.6504009962081909,0.8348275423049927,0.6320966482162476,-0.7315400242805481,0.889277458190918,-1.5565677881240845,1.117593765258789,-0.9686471223831177,-0.48718932271003723,-0.04764578118920326,1.7749825716018677,-0.2964075803756714,-0.2124781608581543,0.44679534435272217,-0.7865079641342163,-0.733788013458252,0.7104500532150269,0.23700392246246338,-0.3340491056442261,-0.3613758087158203,0.04611992835998535,-1.5835130214691162,-0.7228788137435913,0.4636112451553345,0.7181028127670288,0.37339186668395996,-0.29189038276672363
40,0.9996259212493896,0.6014320254325867,-1.6053649187088013,1.5873141288757324,0.18895235657691956,1.4351418018341064,-0.074742391705513,-1.1133226156234741,-0.9684375524520874,-0.6504009962081909,0.8348275423049927,0.6320966482162476,-0.7136477828025818,0.9235098361968994,-1.5584795475006104,1.0880920886993408,-0.9907293319702148,-0.5402714610099792,-0.04195738583803177,1.7996628284454346,-0.2964075803756714,-0.2124781608581543,0.44679534435272217,-0.7865079641342163,-0.733788013458252,0.7104500532150269,0.23700392246246338,-0.3340491056442261,-0.3613758087158203,0.046293895691633224,-1.5813826322555542,-0.7228788137435913,0.4636112451553345,0.7181028127670288,0.37339186668395996,-0.29189038276672363
41,0.9926784634590149,0.6162070035934448,-1.5990597009658813,1.5851881504058838,0.17612645030021667,1.4238672256469727,-0.06256801635026932,-1.1078126430511475,-1.066920518875122,-0.6504009962081909,0.8348275423049927,0.6320966482162476,-0.7345253825187683,0.8926925659179688,-1.5604692697525024,1.1101980209350586,-0.9931279420852661,-0.537555992603302,-0.055659499019384384,1.841652750968933,-0.2964075803756714,-0.2124781608581543,0.44679534435272217,-0.7865079641342163,-0.733788013458252,0.7104500532150269,0.23700392246246338,-0.3340491056442261,-0.3613758087158203,0.04914121329784393,-1.5795263051986694,-0.7228788137435913,0.4636112451553345,0.7181028127670288,0.37339186668395996,-0.29189038276672363
42,0.9985449314117432,0.605903148651123,-1.5934181213378906,1.5831669569015503,0.14811010658740997,1.4141110181808472,-0.04659869521856308,-1.1036670207977295,-1.162105917930603,-0.6504009962081909,0.8348275423049927,0.6320966482162476,-0.71393221616745,0.9294392466545105,-1.5622097253799438,1.09011971950531,-1.0179177522659302,-0.588643491268158,-0.054862312972545624,1.8774102926254272,-0.2964075803756714,-0.2124781608581543,0.44679534435272217,-0.7865079641342163,-0.733788013458252,0.7104500532150269,0.23700392246246338,-0.3340491056442261,-0.3613758087158203,0.04987899586558342,-1.5781433582305908,-0.7228788137435913,0.4636112451553345,0.7181028127670288,0.37339186668395996,-0.29189038276672363
43,0.9902395606040955,0.621967613697052,-1.588370442390442,1.581239938735962,0.12931197881698608,1.4004156589508057,-0.03064763732254505,-1.0929478406906128,-1.2594751119613647,-0.6504009962081909,0.8348275423049927,0.6320966482162476,-0.7380110621452332,0.8938510417938232,-1.563984751701355,1.110853672027588,-1.0300389528274536,-0.5977932810783386,-0.06931523233652115,1.9278324842453003,-0.2964075803756714,-0.2124781608581543,0.44679534435272217,-0.7865079641342163,-0.733788013458252,0.7104500532150269,0.23700392246246338,-0.3340491056442261,-0.3613758087158203,0.05246352404356003,-1.5770230293273926,-0.7228788137435913,0.4636112451553345,0.7181028127670288,0.37339186668395996,-0.29189038276672363
44,0.9982632994651794,0.6087412238121033,-1.5839130878448486,1.5795022249221802,0.09529320895671844,1.3877465724945068,-0.01184809859842062,-1.0823249816894531,-1.349573016166687,-0.6504009962081909,0.8348275423049927,0.6320966482162476,-0.7127744555473328,0.9358943104743958,-1.5655416250228882,1.0980631113052368,-1.0603257417678833,-0.6495587229728699,-0.07210001349449158,1.9730470180511475,-0.2964075803756714,-0.2124781608581543,0.44679534435272217,-0.7865079641342163,-0.733788013458252,0.7104500532150269,0.23700392246246338,-0.3340491056442261,-0.3613758087158203,0.05311153829097748,-1.5763158798217773,-0.7228788137435913,0.4636112451553345,0.7181028127670288,0.37339186668395996,-0.29189038276672363
45,0.987498939037323,0.6274370551109314,-1.5799686908721924,1.577940821647644,0.07156767696142197,1.372416615486145,0.005431154742836952,-1.063066005706787,-1.433402180671692,-0.6504009962081909,0.8348275423049927,0.6320966482162476,-0.7423672080039978,0.8928918838500977,-1.5670900344848633,1.1213748455047607,-1.080580472946167,-0.6640517115592957,-0.08836831152439117,2.0296547412872314,-0.2964075803756714,-0.2124781608581543,0.44679534435272217,-0.7865079641342163,-0.733788013458252,0.7104500532150269,0.23700392246246338,-0.3340491056442261,-0.3613758087158203,0.05511527135968208,-1.5758308172225952,-0.7228788137435913,0.4636112451553345,0.7181028127670288,0.37339186668395996,-0.29189038276672363
46,0.998909592628479,0.6102232336997986,-1.5765354633331299,1.5765972137451172,0.033697620034217834,1.3584758043289185,0.023799072951078415,-1.043243408203125,-1.5028233528137207,-0.6504009962081909,0.8348275423049927,0.6320966482162476,-0.7102169394493103,0.9427481889724731,-1.5684467554092407,1.1126586198806763,-1.1151782274246216,-0.7154122591018677,-0.09315299987792969,2.0796849727630615,-0.2964075803756714,-0.2124781608581543,0.44679534435272217,-0.7865079641342163,-0.733788013458252,0.7104500532150269,0.23700392246246338,-0.3340491056442261,-0.3613758087158203,0.055268432945013046,-1.575719952583313,-0.7228788137435913,0.4636112451553345,0.7181028127670288,0.37339186668395996,-0.29189038276672363
47,0.9842789769172668,0.632514238357544,-1.573540449142456,1.5754414796829224,0.007510586641728878,1.343188762664795,0.03847094252705574,-1.0123887062072754,-1.5562174320220947,-0.6504009962081909,0.8348275423049927,0.6320966482162476,-0.7472886443138123,0.890986979007721,-1.5697497129440308,1.1375632286071777,-1.1391968727111816,-0.7295006513595581,-0.11130482703447342,2.1375625133514404,-0.2964075803756714,-0.2124781608581543,0.44679534435272217,-0.7865079641342163,-0.733788013458252,0.7104500532150269,0.23700392246246338,-0.3340491056442261,-0.3613758087158203,0.05664081498980522,-1.5757865905761719,-0.7228788137435913,0.4636112451553345,0.7181028127670288,0.37339186668395996,-0.29189038276672363
48,1.0003148317337036,0.6112404465675354,-1.5709688663482666,1.5744773149490356,-0.0317063145339489,1.3296085596084595,0.05262218415737152,-0.9813868403434753,-1.5897653102874756,-0.6504009962081909,0.8348275423049927,0.6320966482162476,-0.7073605060577393,0.9482967853546143,-1.5708961486816406,1.1266415119171143,-1.174207329750061,-0.7794588804244995,-0.11645884811878204,2.1867032051086426,-0.2964075803756714,-0.2124781608581543,0.44679534435272217,-0.7865079641342163,-0.733788013458252,0.7104500532150269,0.23700392246246338,-0.3340491056442261,-0.3613758087158203,0.05639531463384628,-1.576224446296692,-0.7228788137435913,0.4636112451553345,0.7181028127670288,0.37339186668395996,-0.29189038276672363
49,0.9809831976890564,0.636218249797821,-1.5687718391418457,1.5736690759658813,-0.058212097734212875,1.3153489828109741,0.06140929087996483,-0.9366409778594971,-1.6052100658416748,-0.6504009962081909,0.8348275423049927,0.6320966482162476,-0.7510759234428406,0.8907647132873535,-1.5719389915466309,1.149911642074585,-1.1972054243087769,-0.7902132272720337,-0.1374133676290512,2.2417502403259277,-0.2964075803756714,-0.2124781608581543,0.44679534435272217,-0.7865079641342163,-0.733788013458252,0.7104500532150269,0.23700392246246338,-0.3340491056442261,-0.3613758087158203,0.05740600824356079,-1.5767970085144043,-0.7228788137435913,0.4636112451553345,0.7181028127670288,0.37339186668395996,-0.29189038276672363
50,1.0016469955444336,0.6131511926651001,-1.5669037103652954,1.5730057954788208,-0.09765778481960297,1.3023943901062012,0.06886327266693115,-0.892600417137146,-1.6076565980911255,-0.6504009962081909,0.8348275423049927,0.6320966482162476,-0.7062902450561523,0.9502107501029968,-1.5728713274002075,1.1300537586212158,-1.2299319505691528,-0.8406437039375305,-0.14261937141418457,2.286743640899658,-0.2964075803756714,-0.2124781608581543,0.44679534435272217,-0.7865079641342163,-0.733788013458252,0.7104500532150269,0.23700392246246338,-0.3340491056442261,-0.3613758087158203,0.05714116245508194,-1.577794075012207,-0.7228788137435913,0.4636112451553345,0.7181028127670288,0.37339186668395996,-0.29189038276672363
51,0.9786028265953064,0.6376445889472961,-1.5653623342514038,1.5724602937698364,-0.12312464416027069,1.2889002561569214,0.06985073536634445,-0.8306610584259033,-1.602293610572815,-0.6504009962081909,0.8348275423049927,0.6320966482162476,-0.7519888877868652,0.8938203454017639,-1.5736544132232666,1.1504786014556885,-1.249514102935791,-0.8465700745582581,-0.170225590467453,2.337965250015259,-0.2964075803756714,-0.2124781608581543,0.44679534435272217,-0.7865079641342163,-0.733788013458252,0.7104500532150269,0.23700392246246338,-0.3340491056442261,-0.3613758087158203,0.05815286189317703,-1.5788946151733398,-0.7228788137435913,0.4636112451553345,0.7181028127670288,0.37339186668395996,-0.29189038276672363
52,1.0019830465316772,0.616273045539856,-1.5640605688095093,1.5720196962356567,-0.16260428726673126,1.2762138843536377,0.06903460621833801,-0.7702839374542236,-1.5953017473220825,-0.6504009962081909,0.8348275423049927,0.6320966482162476,-0.7077670693397522,0.9485601186752319,-1.5743725299835205,1.1142525672912598,-1.2799233198165894,-0.9006906747817993,-0.17655548453330994,2.3777518272399902,-0.2964075803756714,-0.2124781608581543,0.44679534435272217,-0.7865079641342163,-0.733788013458252,0.7104500532150269,0.23700392246246338,-0.3340491056442261,-0.3613758087158203,0.05846608430147171,-1.5805997848510742,-0.7228788137435913,0.4636112451553345,0.7181028127670288,0.37339186668395996,-0.29189038276672363
53,0.9776310324668884,0.6373793482780457,-1.5630472898483276,1.5716668367385864,-0.18566866219043732,1.2638756036758423,0.06063780188560486,-0.6857686042785645,-1.588283896446228,-0.6504009962081909,0.8348275423049927,0.6320966482162476,-0.7504583597183228,0.8988308906555176,-1.5749155282974243,1.1319552659988403,-1.2955946922302246,-0.8979235887527466,-0.21890224516391754,2.4255919456481934,-0.2964075803756714,-0.2124781608581543,0.44679534435272217,-0.7865079641342163,-0.733788013458252,0.7104500532150269,0.23700392246246338,-0.3340491056442261,-0.3613758087158203,0.05992031469941139,-1.5824099779129028,-0.7228788137435913,0.4636112451553345,0.7181028127670288,0.37339186668395996,-0.29189038276672363
54,1.0013105869293213,0.6196643710136414,-1.5622020959854126,1.5713884830474854,-0.22609873116016388,1.2530468702316284,0.049772970378398895,-0.6046786904335022,-1.5834580659866333,-0.6504009962081909,0.8348275423049927,0.6320966482162476,-0.7105298638343811,0.9455177783966064,-1.575425624847412,1.0670121908187866,-1.3257386684417725,-0.9605580568313599,-0.22827786207199097,2.4591875076293945,-0.2964075803756714,-0.2124781608581543,0.44679534435272217,-0.7865079641342163,-0.733788013458252,0.7104500532150269,0.23700392246246338,-0.3340491056442261,-0.3613758087158203,0.06185353919863701,-1.5852885246276855,-0.7228788137435913,0.4636112451553345,0.7181028127670288,0.37339186668395996,-0.29189038276672363
55,0.9775440096855164,0.6366892457008362,-1.5616084337234497,1.5711747407913208,-0.24611444771289825,1.2464721202850342,0.030069023370742798,-0.49238303303718567,-1.5796486139297485,-0.6504009962081909,0.8348275423049927,0.6320966482162476,-0.7482235431671143,0.9036311507225037,-1.5757579803466797,1.0808539390563965,-1.3380714654922485,-0.942721962928772,-0.2998240888118744,2.504981517791748,-0.2964075803756714,-0.2124781608581543,0.44679534435272217,-0.7865079641342163,-0.733788013458252,0.7104500532150269,0.23700392246246338,-0.3340491056442261,-0.3613758087158203,0.0639963150024414,-1.5882991552352905,-0.7228788137435913,0.4636112451553345,0.7181028127670288,0.37339186668395996,-0.29189038276672363
56,1.0003876686096191,0.6224347352981567,-1.5611318349838257,1.5710082054138184,-0.2902756333351135,1.2458982467651367,0.006388683803379536,-0.38846006989479065,-1.5774345397949219,-0.6504009962081909,0.8348275423049927,0.6320966482162476,-0.7129747867584229,0.943024754524231,-1.5760767459869385,0.9729393124580383,-1.3717693090438843,-1.021781325340271,-0.31730401515960693,2.5316693782806396,-0.2964075803756714,-0.2124781608581543,0.44679534435272217,-0.7865079641342163,-0.733788013458252,0.7104500532150269,0.23700392246246338,-0.3340491056442261,-0.3613758087158203,0.0692039504647255,-1.5933809280395508,-0.7228788137435913,0.4636112451553345,0.7181028127670288,0.37339186668395996,-0.29189038276672363
57,0.9773458242416382,0.6364043354988098,-1.5608737468719482,1.5708812475204468,-0.308406800031662,1.2610794305801392,-0.026162058115005493,-0.2526417076587677,-1.5755054950714111,-0.6504009962081909,0.8348275423049927,0.6320966482162476,-0.7468315362930298,0.9067662954330444,-1.5762279033660889,0.9707123637199402,-1.3828035593032837,-0.9868288040161133,-0.43173518776893616,2.578709602355957,-0.2964075803756714,-0.2124781608581543,0.44679534435272217,-0.7865079641342163,-0.733788013458252,0.7104500532150269,0.23700392246246338,-0.3340491056442261,-0.3613758087158203,0.0706726461648941,-1.5985636711120605,-0.7228788137435913,0.4636112451553345,0.7181028127670288,0.37339186668395996,-0.29189038276672363
58,1.000327229499817,0.624090850353241,-1.560698390007019,1.5707647800445557,-0.3568150997161865,1.293854832649231,-0.06473099440336227,-0.13501481711864471,-1.5744272470474243,-0.6504009962081909,0.8348275423049927,0.6320966482162476,-0.7136887311935425,0.942474901676178,-1.5763787031173706,0.8263294100761414,-1.422777771949768,-1.0849806070327759,-0.4773324728012085,2.6017401218414307,-0.2964075803756714,-0.2124781608581543,0.44679534435272217,-0.7865079641342163,-0.733788013458252,0.7104500532150269,0.23700392246246338,-0.3340491056442261,-0.3613758087158203,0.07986955344676971,-1.607128381729126,-0.7228788137435913,0.4636112451553345,0.7181028127670288,0.37339186668395996,-0.29189038276672363
59,0.9755246043205261,0.6371267437934875,-1.5607231855392456,1.5706541538238525,-0.3755674660205841,1.356299877166748,-0.1072646826505661,-0.004889830946922302,-1.5732892751693726,-0.6504009962081909,0.8348275423049927,0.6320966482162476,-0.7480581402778625,0.9066703915596008,-1.5763680934906006,0.7741986513137817,-1.4377528429031372,-1.0570580959320068,-0.623340904712677,2.6567773818969727,-0.2964075803756714,-0.2124781608581543,0.44679534435272217,-0.7865079641342163,-0.733788013458252,0.7104500532150269,0.23700392246246338,-0.3340491056442261,-0.3613758087158203,0.07466721534729004,-1.6156257390975952,-0.7228788137435913,0.4636112451553345,0.7181028127670288,0.37339186668395996,-0.29189038276672363
60,1.0033302307128906,0.6238691210746765,-1.5608054399490356,1.5705233812332153,-0.4152413010597229,1.436460018157959,-0.15190966427326202,0.08205568045377731,-1.5726786851882935,-0.6504009962081909,0.8348275423049927,0.6320966482162476,-0.7101095914840698,0.9462851881980896,-1.5763747692108154,0.6248805522918701,-1.479221224784851,-1.161341667175293,-0.7238864898681641,2.693295478820801,-0.2964075803756714,-0.2124781608581543,0.44679534435272217,-0.7865079641342163,-0.733788013458252,0.7104500532150269,0.23700392246246338,-0.3340491056442261,-0.3613758087158203,0.0804465264081955,-1.6269010305404663,-0.7228788137435913,0.4636112451553345,0.7181028127670288,0.37339186668395996,-0.29189038276672363
61,0.9685668349266052,0.6400935649871826,-1.5610929727554321,1.5704340934753418,-0.4318409562110901,1.5266478061676025,-0.19139742851257324,0.11926685273647308,-1.5720255374908447,-0.6504009962081909,0.8348275423049927,0.6320966482162476,-0.7558876276016235,0.8995240926742554,-1.5762051343917847,0.5274499654769897,-1.5018699169158936,-1.1787470579147339,-0.873907744884491,2.7657439708709717,-0.2964075803756714,-0.2124781608581543,0.44679534435272217,-0.7865079641342163,-0.733788013458252,0.7104500532150269,0.23700392246246338,-0.3340491056442261,-0.3613758087158203,0.06165614351630211,-1.6374057531356812,-0.7228788137435913,0.4636112451553345,0.7181028127670288,0.37339186668395996,-0.29189038276672363
62,1.014538049697876,0.6196935772895813,-1.5613843202590942,1.570401906967163,-0.452168732881546,1.6088080406188965,-0.22374705970287323,0.09920667856931686,-1.5717551708221436,-0.6504009962081909,0.8348275423049927,0.6320966482162476,-0.6966134905815125,0.9596534967422485,-1.5761042833328247,0.4012488126754761,-1.5356992483139038,-1.2775050401687622,-1.0000734329223633,2.829031467437744,-0.2964075803756714,-0.2124781608581543,0.44679534435272217,-0.7865079641342163,-0.733788013458252,0.7104500532150269,0.23700392246246338,-0.3340491056442261,-0.3613758087158203,0.056292664259672165,-1.6474720239639282,-0.7228788137435913,0.4636112451553345,0.7181028127670288,0.37339186668395996,-0.29189038276672363
63,0.9500885009765625,0.6477155089378357,-1.561915636062622,1.5704734325408936,-0.4640572667121887,1.6754428148269653,-0.24994659423828125,0.07578757405281067,-1.5714341402053833,-0.6504009962081909,0.8348275423049927,0.6320966482162476,-0.776085376739502,0.8796308636665344,-1.575764536857605,0.3069722056388855,-1.5543491840362549,-1.33002769947052,-1.1325420141220093,2.907895088195801,-0.2964075803756714,-0.2124781608581543,0.44679534435272217,-0.7865079641342163,-0.733788013458252,0.7104500532150269,0.23700392246246338,-0.3340491056442261,-0.3613758087158203,0.036092668771743774,-1.655312418937683,-0.7228788137435913,0.4636112451553345,0.7181028127670288,0.37339186668395996,-0.29189038276672363
64,1.0355186462402344,0.6089574694633484,-1.562317132949829,1.5705569982528687,-0.47524476051330566,1.7167985439300537,-0.27126210927963257,0.062489740550518036,-1.5713633298873901,-0.6504009962081909,0.8348275423049927,0.6320966482162476,-0.6747442483901978,0.980076014995575,-1.575626254081726,0.21578693389892578,-1.5704402923583984,-1.4098725318908691,-1.2446985244750977,2.974200963973999,-0.2964075803756714,-0.2124781608581543,0.44679534435272217,-0.7865079641342163,-0.733788013458252,0.7104500532150269,0.23700392246246338,-0.3340491056442261,-0.3613758087158203,0.029619943350553513,-1.6610643863677979,-0.7228788137435913,0.4636112451553345,0.7181028127670288,0.37339186668395996,-0.29189038276672363
65,0.9365496039390564,0.6551510691642761,-1.5630333423614502,1.5706419944763184,-0.4849264621734619,1.7345166206359863,-0.2907056212425232,0.050654616206884384,-1.571160912513733,-0.6504009962081909,0.8348275423049927,0.6320966482162476,-0.7874596118927002,0.866741955280304,-1.5751360654830933,0.14954301714897156,-1.576520562171936,-1.457123875617981,-1.3454785346984863,3.036529064178467,-0.2964075803756714,-0.2124781608581543,0.44679534435272217,-0.7865079641342163,-0.733788013458252,0.7104500532150269,0.23700392246246338,-0.3340491056442261,-0.3613758087158203,0.01655854657292366,-1.664879322052002,-0.7228788137435913,0.4636112451553345,0.7181028127670288,0.37339186668395996,-0.29189038276672363
66,1.0312058925628662,0.6030675172805786,-1.5634846687316895,1.570702075958252,-0.4936184883117676,1.742428183555603,-0.30880236625671387,0.0516214519739151,-1.5711935758590698,-0.6504009962081909,0.8348275423049927,0.6320966482162476,-0.6816930770874023,0.9715643525123596,-1.5749824047088623,0.09224555641412735,-1.5805613994598389,-1.510373592376709,-1.4259107112884521,3.0828604698181152,-0.2964075803756714,-0.2124781608581543,0.44679534435272217,-0.7865079641342163,-0.733788013458252,0.7104500532150269,0.23700392246246338,-0.3340491056442261,-0.3613758087158203,0.012803771533071995,-1.6672194004058838,-0.7228788137435913,0.4636112451553345,0.7181028127670288,0.37339186668395996,-0.29189038276672363
67,0.9587220549583435,0.6494654417037964,-1.564231514930725,1.570748209953308,-0.5015889406204224,1.742406964302063,-0.3262389898300171,0.043569378554821014,-1.5709878206253052,-0.6504009962081909,0.8348275423049927,0.6320966482162476,-0.7658101916313171,0.8841908574104309,-1.5744867324829102,0.05184562876820564,-1.5806137323379517,-1.540505290031433,-1.4923721551895142,3.1208207607269287,-0.2964075803756714,-0.2124781608581543,0.44679534435272217,-0.7865079641342163,-0.733788013458252,0.7104500532150269,0.23700392246246338,-0.3340491056442261,-0.3613758087158203,0.004278426058590412,-1.668473243713379,-0.7228788137435913,0.4636112451553345,0.7181028127670288,0.37339186668395996,-0.29189038276672363
68,1.0101027488708496,0.6064929962158203,-1.5647610425949097,1.5707740783691406,-0.5086581110954285,1.744402527809143,-0.3429338335990906,0.052029386162757874,-1.5711270570755005,-0.6504009962081909,0.8348275423049927,0.6320966482162476,-0.7038879990577698,0.9498327374458313,-1.574245572090149,0.017899110913276672,-1.580702543258667,-1.5718544721603394,-1.5419307947158813,3.146240234375,-0.2964075803756714,-0.2124781608581543,0.44679534435272217,-0.7865079641342163,-0.733788013458252,0.7104500532150269,0.23700392246246338,-0.3340491056442261,-0.3613758087158203,0.0021209861151874065,-1.669006586074829,-0.7228788137435913,0.4636112451553345,0.7181028127670288,0.37339186668395996,-0.29189038276672363
69,0.9793390035629272,0.6426566243171692,-1.5654395818710327,1.5707954168319702,-0.5151710510253906,1.7396211624145508,-0.3589843213558197,0.03872028365731239,-1.5708352327346802,-0.6504009962081909,0.8348275423049927,0.6320966482162476,-0.7469024062156677,0.9007954001426697,-1.573825478553772,-0.00478455051779747,-1.5792434215545654,-1.5865681171417236,-1.5800201892852783,3.1654515266418457,-0.2964075803756714,-0.2124781608581543,0.44679534435272217,-0.7865079641342163,-0.733788013458252,0.7104500532150269,0.23700392246246338,-0.3340491056442261,-0.3613758087158203,-0.0033745216205716133,-1.6692801713943481,-0.7228788137435913,0.4636112451553345,0.7181028127670288,0.37339186668395996,-0.29189038276672363
70,0.9966679215431213,0.6096310615539551,-1.5659886598587036,1.5708009004592896,-0.5209879279136658,1.7432342767715454,-0.3744448125362396,0.05787046253681183,-1.5711474418640137,-0.6504009962081909,0.8348275423049927,0.6320966482162476,-0.7175999879837036,0.9371630549430847,-1.5735385417938232,-0.023301986977458,-1.5784705877304077,-1.6023504734039307,-1.6057738065719604,3.176284074783325,-0.2964075803756714,-0.2124781608581543,0.44679534435272217,-0.7865079641342163,-0.733788013458252,0.7104500532150269,0.23700392246246338,-0.3340491056442261,-0.3613758087158203,-0.004041179083287716,-1.6693053245544434,-0.7228788137435913,0.4636112451553345,0.7181028127670288,0.37339186668395996,-0.29189038276672363
71,0.9903441667556763,0.6393776535987854,-1.5665879249572754,1.5708091259002686,-0.5263379812240601,1.7342826128005981,-0.3892773687839508,0.03000720776617527,-1.5706450939178467,-0.6504009962081909,0.8348275423049927,0.6320966482162476,-0.7373944520950317,0.9091715812683105,-1.573183298110962,-0.033998943865299225,-1.5768136978149414,-1.6065404415130615,-1.6237744092941284,3.183527946472168,-0.2964075803756714,-0.2124781608581543,0.44679534435272217,-0.7865079641342163,-0.733788013458252,0.7104500532150269,0.23700392246246338,-0.3340491056442261,-0.3613758087158203,-0.007216783240437508,-1.6694667339324951,-0.7228788137435913,0.4636112451553345,0.7181028127670288,0.37339186668395996,-0.29189038276672363
72,0.9895557165145874,0.6104586720466614,-1.567103385925293,1.5708065032958984,-0.5311421751976013,1.744226336479187,-0.4036364257335663,0.07060245424509048,-1.5712887048721313,-0.6504009962081909,0.8348275423049927,0.6320966482162476,-0.7244828343391418,0.9313461184501648,-1.5729005336761475,-0.042248476296663284,-1.576056957244873,-1.6125115156173706,-1.633685827255249,3.1856460571289062,-0.2964075803756714,-0.2124781608581543,0.44679534435272217,-0.7865079641342163,-0.733788013458252,0.7104500532150269,0.23700392246246338,-0.3340491056442261,-0.3613758087158203,-0.006876138970255852,-1.66939377784729,-0.7228788137435913,0.4636112451553345,0.7181028127670288,0.37339186668395996,-0.29189038276672363
73,0.9965676069259644,0.6386722326278687,-1.5676237344741821,1.5708088874816895,-0.5355438590049744,1.727069616317749,-0.41736456751823425,0.013568730093538761,-1.5703294277191162,-0.6504009962081909,0.8348275423049927,0.6320966482162476,-0.7328187823295593,0.9127828478813171,-1.5725983381271362,-0.0451529435813427,-1.5744808912277222,-1.6108742952346802,-1.6390036344528198,3.1860110759735107,-0.2964075803756714,-0.2124781608581543,0.44679534435272217,-0.7865079641342163,-0.733788013458252,0.7104500532150269,0.23700392246246338,-0.3340491056442261,-0.3613758087158203,-0.008229734376072884,-1.6696999073028564,-0.7228788137435913,0.4636112451553345,0.7181028127670288,0.37339186668395996,-0.29189038276672363
74,0.9852517247200012,0.6095104217529297,-1.5680792331695557,1.570804238319397,-0.539511501789093,1.7495626211166382,-0.4307279884815216,0.08950767666101456,-1.5716608762741089,-0.6504009962081909,0.8348275423049927,0.6320966482162476,-0.7280874252319336,0.9289625883102417,-1.5723437070846558,-0.04695851355791092,-1.5740469694137573,-1.6111191511154175,-1.6395353078842163,3.1836724281311035,-0.2964075803756714,-0.2124781608581543,0.44679534435272217,-0.7865079641342163,-0.733788013458252,0.7104500532150269,0.23700392246246338,-0.3340491056442261,-0.3613758087158203,-0.007596083916723728,-1.669542670249939,-0.7228788137435913,0.4636112451553345,0.7181028127670288,0.37339186668395996,-0.29189038276672363
75,1.0009660720825195,0.6395948529243469,-1.5685200691223145,1.570804476737976,-0.5431305766105652,1.7180079221725464,-0.4434135854244232,-0.002004817593842745,-1.569701075553894,-0.6504009962081909,0.8348275423049927,0.6320966482162476,-0.7304462790489197,0.9140296578407288,-1.5720899105072021,-0.045350637286901474,-1.5726101398468018,-1.6071778535842896,-1.6376639604568481,3.1805336475372314,-0.2964075803756714,-0.2124781608581543,0.44679534435272217,-0.7865079641342163,-0.733788013458252,0.7104500532150269,0.23700392246246338,-0.3340491056442261,-0.3613758087158203,-0.007411320693790913,-1.6700752973556519,-0.7228788137435913,0.4636112451553345,0.7181028127670288,0.37339186668395996,-0.29189038276672363
76,0.9819489121437073,0.6073318719863892,-1.5689054727554321,1.57080078125,-0.546403169631958,1.7556838989257812,-0.45583653450012207,0.0951891615986824,-1.572540283203125,-0.6504009962081909,0.8348275423049927,0.6320966482162476,-0.7302659749984741,0.9282989501953125,-1.5718729496002197,-0.04347764700651169,-1.572535514831543,-1.6042426824569702,-1.633424162864685,3.1765410900115967,-0.2964075803756714,-0.2124781608581543,0.44679534435272217,-0.7865079641342163,-0.733788013458252,0.7104500532150269,0.23700392246246338,-0.3340491056442261,-0.3613758087158203,-0.007151307538151741,-1.6698232889175415,-0.7228788137435913,0.4636112451553345,0.7181028127670288,0.37339186668395996,-0.29189038276672363
77,1.0048563480377197,0.6415948271751404,-1.569267988204956,1.5708004236221313,-0.549375057220459,1.7145023345947266,-0.46756935119628906,0.0038742367178201675,-1.5683141946792603,-0.6504009962081909,0.8348275423049927,0.6320966482162476,-0.7290447354316711,0.9140480160713196,-1.5716651678085327,-0.03977137804031372,-1.5714036226272583,-1.6001743078231812,-1.62806236743927,3.172041177749634,-0.2964075803756714,-0.2124781608581543,0.44679534435272217,-0.7865079641342163,-0.733788013458252,0.7104500532150269,0.23700392246246338,-0.3340491056442261,-0.3613758087158203,-0.005770360119640827,-1.6704585552215576,-0.7228788137435913,0.4636112451553345,0.7181028127670288,0.37339186668395996,-0.29189038276672363
78,0.9788970351219177,0.6042819023132324,-1.5695816278457642,1.5707979202270508,-0.5520680546760559,1.7534706592559814,-0.47905921936035156,0.08174126595258713,-1.5746248960494995,-0.6504009962081909,0.8348275423049927,0.6320966482162476,-0.7318676710128784,0.928579568862915,-1.5714880228042603,-0.036014772951602936,-1.5714386701583862,-1.595755934715271,-1.6219791173934937,3.1679117679595947,-0.2964075803756714,-0.2124781608581543,0.44679534435272217,-0.7865079641342163,-0.733788013458252,0.7104500532150269,0.23700392246246338,-0.3340491056442261,-0.3613758087158203,-0.006008376367390156,-1.6702556610107422,-0.7228788137435913,0.4636112451553345,0.7181028127670288,0.37339186668395996,-0.29189038276672363
79,1.0087367296218872,0.6442378163337708,-1.5698695182800293,1.5707976818084717,-0.5545081496238708,1.7194042205810547,-0.48994046449661255,0.018824966624379158,-1.5650469064712524,-0.6504009962081909,0.8348275423049927,0.6320966482162476,-0.7280868291854858,0.913381040096283,-1.5713231563568115,-0.031798750162124634,-1.570805549621582,-1.592531442642212,-1.615480661392212,3.163400173187256,-0.2964075803756714,-0.2124781608581543,0.44679534435272217,-0.7865079641342163,-0.733788013458252,0.7104500532150269,0.23700392246246338,-0.3340491056442261,-0.3613758087158203,-0.004098107106983662,-1.6707724332809448,-0.7228788137435913,0.4636112451553345,0.7181028127670288,0.37339186668395996,-0.29189038276672363
80,0.9760063886642456,0.6008298993110657,-1.570115327835083,1.5707963705062866,-0.5567196607589722,1.7471648454666138,-0.5005315542221069,0.06810548156499863,-1.57969069480896,-0.6504009962081909,0.8348275423049927,0.6320966482162476,-0.733265221118927,0.9293644428253174,-1.5711841583251953,-0.02741815708577633,-1.5707728862762451,-1.5878205299377441,-1.6092883348464966,3.159838914871216,-0.2964075803756714,-0.2124781608581543,0.44679534435272217,-0.7865079641342163,-0.733788013458252,0.7104500532150269,0.23700392246246338,-0.3340491056442261,-0.3613758087158203,-0.004570570774376392,-1.6706937551498413,-0.7228788137435913,0.4636112451553345,0.7181028127670288,0.37339186668395996,-0.29189038276672363
81,1.0124579668045044,0.6467900276184082,-1.570334792137146,1.570796251296997,-0.5587233304977417,1.7249271869659424,-0.510608971118927,0.029767096042633057,-1.5571238994598389,-0.6504009962081909,0.8348275423049927,0.6320966482162476,-0.7274010181427002,0.9124376177787781,-1.5710586309432983,-0.023572731763124466,-1.570556640625,-1.5857489109039307,-1.6030646562576294,3.1559832096099854,-0.2964075803756714,-0.2124781608581543,0.44679534435272217,-0.7865079641342163,-0.733788013458252,0.7104500532150269,0.23700392246246338,-0.3340491056442261,-0.3613758087158203,-0.0026291406247764826,-1.6710740327835083,-0.7228788137435913,0.4636112451553345,0.7181028127670288,0.37339186668395996,-0.29189038276672363
82,0.9737958312034607,0.5978361368179321,-1.5705190896987915,1.5707957744598389,-0.5605379939079285,1.7423479557037354,-0.5203659534454346,0.059493131935596466,-1.5918408632278442,-0.6504009962081909,0.8348275423049927,0.6320966482162476,-0.7345360517501831,0.9302269816398621,-1.5709542036056519,-0.01937839947640896,-1.5704710483551025,-1.5813510417938232,-1.5977051258087158,3.1533024311065674,-0.2964075803756714,-0.2124781608581543,0.44679534435272217,-0.7865079641342163,-0.733788013458252,0.7104500532150269,0.23700392246246338,-0.3340491056442261,-0.3613758087158203,-0.0032706744968891144,-1.671090006828308,-0.7228788137435913,0.4636112451553345,0.7181028127670288,0.37339186668395996,-0.29189038276672363
83,1.0153400897979736,0.648207426071167,-1.5706782341003418,1.5707958936691284,-0.5621828436851501,1.7285189628601074,-0.5296785235404968,0.03621698543429375,-1.5393259525299072,-0.6504009962081909,0.8348275423049927,0.6320966482162476,-0.7270291447639465,0.9116660356521606,-1.5708633661270142,-0.016303664073348045,-1.570505976676941,-1.580471158027649,-1.5924338102340698,3.150279998779297,-0.2964075803756714,-0.2124781608581543,0.44679534435272217,-0.7865079641342163,-0.733788013458252,0.7104500532150269,0.23700392246246338,-0.3340491056442261,-0.3613758087158203,-0.0013991139130666852,-1.671383261680603,-0.7228788137435913,0.4636112451553345,0.7181028127670288,0.37339186668395996,-0.29189038276672363
84,0.9730588793754578,0.5962937474250793,-1.5708096027374268,1.5707956552505493,-0.563671350479126,1.7393909692764282,-0.5386651754379272,0.05453663319349289,-1.6148772239685059,-0.6504009962081909,0.8348275423049927,0.6320966482162476,-0.7355594635009766,0.9307160377502441,-1.5707887411117554,-0.012677127495408058,-1.5703953504562378,-1.57651948928833,-1.58828604221344,3.148526668548584,-0.2964075803756714,-0.2124781608581543,0.44679534435272217,-0.7865079641342163,-0.733788013458252,0.7104500532150269,0.23700392246246338,-0.3340491056442261,-0.3613758087158203,-0.002305848989635706,-1.6714603900909424,-0.7228788137435913,0.4636112451553345,0.7181028127670288,0.37339186668395996,-0.29189038276672363
85,1.016641616821289,0.6476715803146362,-1.5709176063537598,1.5707958936691284,-0.5650212168693542,1.7306162118911743,-0.547256350517273,0.03990834951400757,-1.5166685581207275,-0.6504009962081909,0.8348275423049927,0.6320966482162476,-0.727081835269928,0.9114739894866943,-1.5707272291183472,-0.010510987602174282,-1.5705689191818237,-1.5767933130264282,-1.5841591358184814,3.1462595462799072,-0.2964075803756714,-0.2124781608581543,0.44679534435272217,-0.7865079641342163,-0.733788013458252,0.7104500532150269,0.23700392246246338,-0.3340491056442261,-0.3613758087158203,-0.0004143715195823461,-1.671715259552002,-0.7228788137435913,0.4636112451553345,0.7181028127670288,0.37339186668395996,-0.29189038276672363
86,0.9742075800895691,0.5966969728469849,-1.5710047483444214,1.5707957744598389,-0.5662420988082886,1.7376240491867065,-0.5555297136306763,0.05167296901345253,-1.6262234449386597,-0.6504009962081909,0.8348275423049927,0.6320966482162476,-0.7361745238304138,0.9305357336997986,-1.570677638053894,-0.007531963288784027,-1.5704278945922852,-1.5731282234191895,-1.581263542175293,3.1453394889831543,-0.2964075803756714,-0.2124781608581543,0.44679534435272217,-0.7865079641342163,-0.733788013458252,0.7104500532150269,0.23700392246246338,-0.3340491056442261,-0.3613758087158203,-0.0017109753098338842,-1.6718307733535767,-0.7228788137435913,0.4636112451553345,0.7181028127670288,0.37339186668395996,-0.29189038276672363
87,1.0162373781204224,0.6452593207359314,-1.5710712671279907,1.5707958936691284,-0.5673494935035706,1.731831431388855,-0.5634443163871765,0.042057253420352936,-1.5231695175170898,-0.6504009962081909,0.8348275423049927,0.6320966482162476,-0.727561354637146,0.9119762182235718,-1.570639967918396,-0.0062715462408959866,-1.570684552192688,-1.5745257139205933,-1.5781906843185425,3.143629789352417,-0.2964075803756714,-0.2124781608581543,0.44679534435272217,-0.7865079641342163,-0.733788013458252,0.7104500532150269,0.23700392246246338,-0.3340491056442261,-0.3613758087158203,0.00036692037247121334,-1.672020673751831,-0.7228788137435913,0.4636112451553345,0.7181028127670288,0.37339186668395996,-0.29189038276672363
88,0.9767487645149231,0.5985552668571472,-1.571122646331787,1.570796012878418,-0.5683508515357971,1.7365611791610718,-0.5710532665252686,0.04998602345585823,-1.6072057485580444,-0.6504009962081909,0.8348275423049927,0.6320966482162476,-0.7363837361335754,0.9297798275947571,-1.570610523223877,-0.003834715113043785,-1.5704896450042725,-1.5708098411560059,-1.5764174461364746,3.143407106399536,-0.2964075803756714,-0.2124781608581543,0.44679534435272217,-0.7865079641342163,-0.733788013458252,0.7104500532150269,0.23700392246246338,-0.3340491056442261,-0.3613758087158203,-0.0014679757878184319,-1.6720688343048096,-0.7228788137435913,0.4636112451553345,0.7181028127670288,0.37339186668395996,-0.29189038276672363
89,1.0147922039031982,0.6419191360473633,-1.5711568593978882,1.570796012878418,-0.5692592263221741,1.7325412034988403,-0.5783298015594482,0.04332203045487404,-1.5445902347564697,-0.6504009962081909,0.8348275423049927,0.6320966482162476,-0.7282946705818176,0.9129052758216858,-1.5705915689468384,-0.0034279574174433947,-1.5708162784576416,-1.573409914970398,-1.5741695165634155,3.142015218734741,-0.2964075803756714,-0.2124781608581543,0.44679534435272217,-0.7865079641342163,-0.733788013458252,0.7104500532150269,0.23700392246246338,-0.3340491056442261,-0.3613758087158203,0.0010390070965513587,-1.6721569299697876,-0.7228788137435913,0.4636112451553345,0.7181028127670288,0.37339186668395996,-0.29189038276672363
90,0.9798024892807007,0.6009827852249146,-1.5711803436279297,1.570796012878418,-0.5700807571411133,1.7359135150909424,-0.5853140950202942,0.048968277871608734,-1.589239239692688,-0.6504009962081909,0.8348275423049927,0.6320966482162476,-0.7363364696502686,0.9287604093551636,-1.570577621459961,-0.001322242897003889,-1.5705344676971436,-1.569162368774414,-1.5733470916748047,3.14239501953125,-0.2964075803756714,-0.2124781608581543,0.44679534435272217,-0.7865079641342163,-0.733788013458252,0.7104500532150269,0.23700392246246338,-0.3340491056442261,-0.3613758087158203,-0.0015674341702833772,-1.672174096107483,-0.7228788137435913,0.4636112451553345,0.7181028127670288,0.37339186668395996,-0.29189038276672363
91,1.0129891633987427,0.638477623462677,-1.571190595626831,1.570796251296997,-0.57082599401474,1.7329702377319336,-0.5919894576072693,0.044089425355196,-1.5578749179840088,-0.6504009962081909,0.8348275423049927,0.6320966482162476,-0.7290990948677063,0.9139631390571594,-1.5705723762512207,-0.00173533009365201,-1.5709511041641235,-1.5732359886169434,-1.5716419219970703,3.1410679817199707,-0.2964075803756714,-0.2124781608581543,0.44679534435272217,-0.7865079641342163,-0.733788013458252,0.7104500532150269,0.23700392246246338,-0.3340491056442261,-0.3613758087158203,0.0017283553024753928,-1.6722455024719238,-0.7228788137435913,0.4636112451553345,0.7181028127670288,0.37339186668395996,-0.29189038276672363
92,0.9827706217765808,0.603386640548706,-1.571193814277649,1.570796012878418,-0.5715004205703735,1.7355072498321533,-0.5983893871307373,0.04833098500967026,-1.5799059867858887,-0.6504009962081909,0.8348275423049927,0.6320966482162476,-0.7361755967140198,0.9277194738388062,-1.5705701112747192,0.0003247049171477556,-1.570534586906433,-1.5677827596664429,-1.5716233253479004,3.142030715942383,-0.2964075803756714,-0.2124781608581543,0.44679534435272217,-0.7865079641342163,-0.733788013458252,0.7104500532150269,0.23700392246246338,-0.3340491056442261,-0.3613758087158203,-0.002037281170487404,-1.672275424003601,-0.7228788137435913,0.4636112451553345,0.7181028127670288,0.37339186668395996,-0.29189038276672363
93,1.011263370513916,0.6353967785835266,-1.5711872577667236,1.5707964897155762,-0.5721122622489929,1.7332398891448975,-0.6045020222663879,0.04457005113363266,-1.5643168687820435,-0.6504009962081909,0.8348275423049927,0.6320966482162476,-0.7298547625541687,0.9149547219276428,-1.5705742835998535,-0.0009477369021624327,-1.5710937976837158,-1.5739039182662964,-1.5701528787612915,3.140486717224121,-0.2964075803756714,-0.2124781608581543,0.44679534435272217,-0.7865079641342163,-0.733788013458252,0.7104500532150269,0.23700392246246338,-0.3340491056442261,-0.3613758087158203,0.002607362810522318,-1.672346591949463,-0.7228788137435913,0.4636112451553345,0.7181028127670288,0.37339186668395996,-0.29189038276672363
94,0.9853437542915344,0.6054533123970032,-1.5711764097213745,1.5707958936691284,-0.5726673007011414,1.735247254371643,-0.6103564500808716,0.04792025685310364,-1.5754640102386475,-0.6504009962081909,0.8348275423049927,0.6320966482162476,-0.735998809337616,0.9267988204956055,-1.570580005645752,0.0014363400405272841,-1.570468544960022,-1.5662423372268677,-1.5708683729171753,3.1421284675598145,-0.2964075803756714,-0.2124781608581543,0.44679534435272217,-0.7865079641342163,-0.733788013458252,0.7104500532150269,0.23700392246246338,-0.3340491056442261,-0.3613758087158203,-0.0029842036310583353,-1.6723827123641968,-0.7228788137435913,0.4636112451553345,0.7181028127670288,0.37339186668395996,-0.29189038276672363
95,1.0098257064819336,0.6328589916229248,-1.5711590051651,1.5707966089248657,-0.5731712579727173,1.7334136962890625,-0.6159427762031555,0.04487594589591026,-1.567395567893982,-0.6504009962081909,0.8348275423049927,0.6320966482162476,-0.73050457239151,0.9157863855361938,-1.5705903768539429,-0.0008804473909549415,-1.5712674856185913,-1.5754964351654053,-1.5692943334579468,3.1400134563446045,-0.2964075803756714,-0.2124781608581543,0.44679534435272217,-0.7865079641342163,-0.733788013458252,0.7104500532150269,0.23700392246246338,-0.3340491056442261,-0.3613758087158203,0.003931004554033279,-1.672447919845581,-0.7228788137435913,0.4636112451553345,0.7181028127670288,0.37339186668395996,-0.29189038276672363
96,0.9874290823936462,0.6070809364318848,-1.5711394548416138,1.5707958936691284,-0.573631227016449,1.7350807189941406,-0.6212870478630066,0.047652047127485275,-1.573309302330017,-0.6504009962081909,0.8348275423049927,0.6320966482162476,-0.735854983329773,0.9260520935058594,-1.570601224899292,0.0023402059450745583,-1.570308804512024,-1.5640212297439575,-1.570804238319397,3.1426076889038086,-0.2964075803756714,-0.2124781608581543,0.44679534435272217,-0.7865079641342163,-0.733788013458252,0.7104500532150269,0.23700392246246338,-0.3340491056442261,-0.3613758087158203,-0.004652673844248056,-1.6724823713302612,-0.7228788137435913,0.4636112451553345,0.7181028127670288,0.37339186668395996,-0.29189038276672363
97,1.0087307691574097,0.6308732032775879,-1.5711158514022827,1.5707968473434448,-0.5740508437156677,1.7335271835327148,-0.6263793110847473,0.045069947838783264,-1.5689183473587036,-0.6504009962081909,0.8348275423049927,0.6320966482162476,-0.7310355305671692,0.916436493396759,-1.5706148147583008,-0.0014554460067301989,-1.571517825126648,-1.5783616304397583,-1.5687141418457031,3.1394073963165283,-0.2964075803756714,-0.2124781608581543,0.44679534435272217,-0.7865079641342163,-0.733788013458252,0.7104500532150269,0.23700392246246338,-0.3340491056442261,-0.3613758087158203,0.006106573157012463,-1.6725398302078247,-0.7228788137435913,0.4636112451553345,0.7181028127670288,0.37339186668395996,-0.29189038276672363
98,0.9890488386154175,0.6082830429077148,-1.571091651916504,1.5707956552505493,-0.5744401812553406,1.7349774837493896,-0.6312434673309326,0.04747922345995903,-1.572219967842102,-0.6504009962081909,0.8348275423049927,0.6320966482162476,-0.7357602119445801,0.925480842590332,-1.57062828540802,0.003381749615073204,-1.5700069665908813,-1.5603941679000854,-1.5712780952453613,3.1435112953186035,-0.2964075803756714,-0.2124781608581543,0.44679534435272217,-0.7865079641342163,-0.733788013458252,0.7104500532150269,0.23700392246246338,-0.3340491056442261,-0.3613758087158203,-0.007513293996453285,-1.6725707054138184,-0.7228788137435913,0.4636112451553345,0.7181028127670288,0.37339186668395996,-0.29189038276672363
99,1.0079582929611206,0.6293755173683167,-1.5710655450820923,1.5707969665527344,-0.5748021602630615,1.733601450920105,-0.6358672976493835,0.045189425349235535,-1.5697054862976074,-0.6504009962081909,0.8348275423049927,0.6320966482162476,-0.7314561009407043,0.9169180393218994,-1.570643424987793,-0.002744413213804364,-1.571921706199646,-1.5832144021987915,-1.568092703819275,3.138399362564087,-0.2964075803756714,-0.2124781608581543,0.44679534435272217,-0.7865079641342163,-0.733788013458252,0.7104500532150269,0.23700392246246338,-0.3340491056442261,-0.3613758087158203,0.00979752279818058,-1.6726219654083252,-0.7228788137435913,0.4636112451553345,0.7181028127670288,0.37339186668395996,-0.29189038276672363
