,0,1,2,3,4,5,6,7,8,9,10,11,12,13,14,15,16,17,18,19,20,21,22,23,24,25,26,27,28,29,30,31,32,33,34,35,36,37,38,39,40,41,42,43,44,45,46,47,48,49,50,51,52,53,54,55,56,57,58,59,60,61,62,63,64,65,66,67,68,69,70,71,72,73,74,75,76,77,78,79,80,81,82,83,84,85,86,87,88,89,90,91,92,93,94,95,96,97,98,99,100,101,102,103,104,105,106,107,108,109,110,111,112,113
0,0.13626551628112793,-2.802621603012085,-5.987704277038574,-2.8432395458221436,-4.664347171783447,-3.1709747314453125,-5.76200008392334,-2.690237283706665,-2.2973361015319824,-0.9389317631721497,-3.2547388076782227,3.6118650436401367,-4.140435695648193,-3.2534024715423584,-4.998937606811523,-3.174854278564453,3.0002105236053467,5.035606861114502,0.31475773453712463,2.8237059116363525,3.7387895584106445,0.5915434956550598,3.5594887733459473,6.0830607414245605,-6.0830607414245605,6.031821250915527,-3.5594887733459473,-0.5915434956550598,-3.7387895584106445,-2.8237059116363525,-0.31475773453712463,-5.035606861114502,-3.0002105236053467,-3.6118650436401367,-1.313124418258667,-5.940038681030273,5.775986671447754,-5.989090919494629,-4.191682815551758,-2.6786816120147705,-2.074427843093872,-5.636524200439453,-5.775986671447754,-6.031821250915527,-0.13626551628112793,4.202195167541504,5.232294082641602,5.636524200439453,3.9687132835388184,5.564259052276611,3.0442166328430176,1.1816030740737915,1.4511120319366455,4.979974746704102,5.344141960144043,1.9501737356185913,2.1098122596740723,3.6132283210754395,2.074427843093872,1.363563895225525,5.125054359436035,5.39981746673584,1.459398627281189,3.941822052001953,0.48444756865501404,5.740432262420654,-5.740432262420654,-0.48444756865501404,-3.941822052001953,2.6786816120147705,-1.459398627281189,-5.39981746673584,-5.125054359436035,-1.363563895225525,-3.6132283210754395,-2.1098122596740723,-1.9501737356185913,-5.344141960144043,-4.979974746704102,-1.4511120319366455,4.191682815551758,-1.1816030740737915,-3.0442166328430176,-5.564259052276611,-3.9687132835388184,-5.232294082641602,-4.202195167541504,3.174854278564453,4.998937606811523,3.2534024715423584,4.140435695648193,5.989090919494629,3.2547388076782227,0.9389317631721497,2.2973361015319824,2.690237283706665,5.76200008392334,3.1709747314453125,4.664347171783447,2.8432395458221436,5.987704277038574,2.802621603012085,5.940038681030273,3.245692491531372,3.7833313941955566,5.373928546905518,3.7211711406707764,2.8666372299194336,-2.8666372299194336,-3.7211711406707764,-5.373928546905518,-3.7833313941955566,-3.245692491531372,1.313124418258667
1,0.13626551628112793,-2.855443239212036,-6.040526390075684,-2.790417194366455,-4.717140197753906,-3.1709747314453125,-5.76200008392334,-2.690237283706665,-2.2973361015319824,-0.886109471321106,-3.3075613975524902,3.66467547416687,-4.193257808685303,-3.306225061416626,-4.998937606811523,-3.174854278564453,2.947387933731079,4.982784271240234,0.3675802946090698,2.8237059116363525,3.7387895584106445,0.5915434956550598,3.612311363220215,6.135883331298828,-6.030238151550293,6.031821250915527,-3.5066661834716797,-0.5915434956550598,-3.7387895584106445,-2.8237059116363525,-0.26193517446517944,-5.0884294509887695,-3.0530331134796143,-3.5590546131134033,-1.313124418258667,-5.940038681030273,5.723164081573486,-5.989090919494629,-4.191682815551758,-2.625859260559082,-2.1272504329681396,-5.6893463134765625,-5.8288092613220215,-6.031821250915527,-0.13626551628112793,4.202195167541504,5.232294082641602,5.583702087402344,3.915890693664551,5.511436939239502,2.99139404296875,1.2344253063201904,1.4511120319366455,4.979974746704102,5.344141960144043,1.9501737356185913,2.0570337772369385,3.666050910949707,2.0216052532196045,1.3107413053512573,5.1778764724731445,5.39981746673584,1.459398627281189,3.941822052001953,0.4316271245479584,5.687610149383545,-5.793254375457764,-0.5372679829597473,-3.941822052001953,2.731503963470459,-1.459398627281189,-5.39981746673584,-5.072232246398926,-1.4163864850997925,-3.560405731201172,-2.162590742111206,-1.9501737356185913,-5.344141960144043,-4.979974746704102,-1.4511120319366455,4.191682815551758,-1.1287808418273926,-3.097039222717285,-5.617081165313721,-4.021535873413086,-5.232294082641602,-4.202195167541504,3.174854278564453,4.998937606811523,3.200579881668091,4.087613582611084,5.989090919494629,3.201916217803955,0.9917540550231934,2.2973361015319824,2.690237283706665,5.76200008392334,3.1709747314453125,4.611554145812988,2.896061897277832,5.934882164001465,2.749799966812134,5.940038681030273,3.245692491531372,3.7833313941955566,5.373928546905518,3.6683506965637207,2.91941237449646,-2.8138620853424072,-3.773991584777832,-5.373928546905518,-3.7833313941955566,-3.245692491531372,1.313124418258667
2,0.08401712775230408,-2.893286943435669,-6.081759452819824,-2.8420403003692627,-4.664897918701172,-3.1187267303466797,-5.709751129150391,-2.637988805770874,-2.245089292526245,-0.937990128993988,-3.337895154953003,3.6124308109283447,-4.245576858520508,-3.2924249172210693,-4.946688652038574,-3.2271029949188232,2.9825050830841064,4.989675045013428,0.32549694180488586,2.7714571952819824,3.6865408420562744,0.5392946600914001,3.57293963432312,6.101016521453857,-6.065104961395264,5.979572296142578,-3.5460379123687744,-0.6437923312187195,-3.7910382747650146,-2.8759546279907227,-0.3043396472930908,-5.088804721832275,-3.017915964126587,-3.6112992763519287,-1.2608758211135864,-5.887789726257324,5.737970352172852,-5.936842441558838,-4.139433860778809,-2.677769660949707,-2.1577939987182617,-5.741664886474609,-5.815800666809082,-5.979572296142578,-0.08401735872030258,4.254443645477295,5.284543037414551,5.531433582305908,3.9288992881774902,5.459118366241455,2.960850477218628,1.1825147867202759,1.503360629081726,5.032223224639893,5.396390914916992,1.8979257345199585,2.109280824661255,3.6153218746185303,1.990868330001831,1.2777562141418457,5.128454685211182,5.452066421508789,1.51164710521698,3.889573335647583,0.48330259323120117,5.738435745239258,-5.742428779602051,-0.4855925142765045,-3.9940707683563232,2.6796345710754395,-1.4071500301361084,-5.347568511962891,-5.121603012084961,-1.4486041069030762,-3.6111347675323486,-2.1103436946868896,-2.0024216175079346,-5.291893005371094,-4.9277262687683105,-1.3988635540008545,4.243931770324707,-1.1806920766830444,-3.1268253326416016,-5.669404029846191,-4.00612211227417,-5.180045127868652,-4.254444122314453,3.122605323791504,5.051186561584473,3.215993642807007,4.035290718078613,6.041337966918945,3.1721301078796387,0.9398428201675415,2.3495845794677734,2.742485523223877,5.814249038696289,3.2232227325439453,4.663796424865723,2.8444387912750244,5.896623611450195,2.7097702026367188,5.992287635803223,3.297940969467163,3.8355796337127686,5.42617654800415,3.720121383666992,2.8671669960021973,-2.86610746383667,-3.7222208976745605,-5.321680545806885,-3.8355753421783447,-3.1934449672698975,1.3653730154037476
3,0.14013440907001495,-2.9437477588653564,-6.129129886627197,-2.8511738777160645,-4.676112174987793,-3.064577341079712,-5.763261318206787,-2.694155693054199,-2.301485061645508,-0.8865825533866882,-3.3584861755371094,3.6096301078796387,-4.239067554473877,-3.293220281600952,-4.98772668838501,-3.175269842147827,2.956197738647461,4.945321083068848,0.3404790759086609,2.8266561031341553,3.7420570850372314,0.5931628942489624,3.5254883766174316,6.151676177978516,-6.0144453048706055,5.923370838165283,-3.593489170074463,-0.5899240970611572,-3.7354493141174316,-2.8207061290740967,-0.2876643240451813,-5.133560657501221,-3.0442233085632324,-3.6140999794006348,-1.2198233604431152,-5.929107666015625,5.722860813140869,-5.9930572509765625,-4.195607662200928,-2.626722812652588,-2.17765736579895,-5.734389781951904,-5.814220905303955,-6.033016204833984,-0.027469679713249207,4.310991287231445,5.2310991287231445,5.541011810302734,3.930479049682617,5.46639347076416,2.9409871101379395,1.233561635017395,1.447186827659607,4.976008415222168,5.3426289558410645,1.9524035453796387,2.1076996326446533,3.612929344177246,1.968705177307129,1.2932778596878052,5.131035327911377,5.4954447746276855,1.4620236158370972,3.945202350616455,0.4272475838661194,5.686816215515137,-5.794048309326172,-0.5416475534439087,-3.938441753387451,2.7309703826904297,-1.4513952732086182,-5.303272247314453,-5.1188812255859375,-1.432923436164856,-3.613527297973633,-2.111924886703491,-1.9479438066482544,-5.3456549644470215,-4.983993053436279,-1.455124020576477,4.187753200531006,-1.1297720670700073,-3.1467788219451904,-5.662674903869629,-4.005669593811035,-5.220246315002441,-4.202389240264893,3.1746602058410645,5.010985374450684,3.2164461612701416,4.042019844055176,5.98496675491333,3.15217661857605,0.9907628893852234,2.2933242321014404,2.6862189769744873,5.760738849639893,3.277372121810913,4.652582168579102,2.8353052139282227,5.847917079925537,2.6594841480255127,5.950969696044922,3.353471279144287,3.8718512058258057,5.443118095397949,3.6653409004211426,2.8782176971435547,-2.8550567626953125,-3.77700138092041,-5.304738998413086,-3.781141996383667,-3.137059211730957,1.4064254760742188
4,0.0976114496588707,-2.883974552154541,-6.1740264892578125,-2.8904953002929688,-4.637171268463135,-3.021786689758301,-5.720038414001465,-2.678122043609619,-2.2950544357299805,-0.8623136878013611,-3.3859050273895264,3.5907938480377197,-4.271485328674316,-3.2952616214752197,-5.014760971069336,-3.216715097427368,2.9833498001098633,4.927623271942139,0.3539029657840729,2.786876678466797,3.723618268966675,0.5508407950401306,3.507962465286255,6.182816982269287,-5.983304500579834,5.927781581878662,-3.6110150814056396,-0.632246196269989,-3.752418041229248,-2.852595090866089,-0.2736605107784271,-5.154228210449219,-3.01707124710083,-3.6329362392425537,-1.185420274734497,-5.936676025390625,5.735267162322998,-5.975491523742676,-4.186500549316406,-2.605950355529785,-2.2035396099090576,-5.768032073974609,-5.797885894775391,-5.984675407409668,-0.07711921632289886,4.261341571807861,5.279439926147461,5.506096839904785,3.9468142986297607,5.432751178741455,2.915104866027832,1.2543342113494873,1.4562939405441284,4.993574142456055,5.385228157043457,1.991530179977417,2.1280603408813477,3.5836493968963623,1.9423917531967163,1.2746151685714722,5.100788593292236,5.455926895141602,1.5048283338546753,3.925706624984741,0.4358588755130768,5.664392948150635,-5.816471576690674,-0.5330362319946289,-3.957937479019165,2.7540318965911865,-1.4164122343063354,-5.35112190246582,-5.150199890136719,-1.4537146091461182,-3.6428072452545166,-2.091564178466797,-1.908817172050476,-5.303055763244629,-4.966134071350098,-1.4468878507614136,4.200826644897461,-1.1084961891174316,-3.172431230545044,-5.694969177246094,-3.990356683731079,-5.2016377449035645,-4.2421345710754395,3.1349146366119385,5.0295939445495605,3.2317590713500977,4.009725570678711,6.0034027099609375,3.1265242099761963,1.0120388269424438,2.301560401916504,2.704077959060669,5.803961753845215,3.320162773132324,4.69152307510376,2.7959837913513184,5.8017706871032715,2.7191965579986572,5.943401336669922,3.303987503051758,3.8118159770965576,5.381746768951416,3.688774585723877,2.8602192401885986,-2.8730552196502686,-3.753567695617676,-5.366110324859619,-3.8422749042510986,-3.193342924118042,1.440828561782837
5,0.1415255218744278,-2.8419551849365234,-6.216139316558838,-2.912625789642334,-4.582945823669434,-2.976689100265503,-5.769402027130127,-2.6964547634124756,-2.313429832458496,-0.8256770372390747,-3.408468246459961,3.594318389892578,-4.302840709686279,-3.3149194717407227,-5.072428226470947,-3.164872646331787,3.015310525894165,4.893676280975342,0.3807046711444855,2.7698049545288086,3.7229058742523193,0.5335176587104797,3.534912586212158,6.224684715270996,-5.941436767578125,5.876198768615723,-3.5840649604797363,-0.6495693325996399,-3.748370409011841,-2.8564748764038086,-0.24966660141944885,-5.1874189376831055,-2.9851105213165283,-3.6294116973876953,-1.1307417154312134,-5.993053913116455,5.726733207702637,-5.99423885345459,-4.20498514175415,-2.5716285705566406,-2.225630760192871,-5.799763202667236,-5.795115947723389,-6.0204033851623535,-0.03540987893939018,4.303050994873047,5.243711948394775,5.473687648773193,3.949584484100342,5.401020050048828,2.8930137157440186,1.2886559963226318,1.4378091096878052,4.974826812744141,5.336119174957275,1.9750053882598877,2.12335205078125,3.568995952606201,1.9204257726669312,1.2766315937042236,5.071900367736816,5.4160614013671875,1.4551348686218262,3.9531965255737305,0.4187449514865875,5.636141777038574,-5.844722747802734,-0.5501500964164734,-3.930447578430176,2.791294574737549,-1.4697661399841309,-5.372280597686768,-5.177956581115723,-1.4579405784606934,-3.6574606895446777,-2.0962724685668945,-1.9253419637680054,-5.3521647453308105,-4.9857659339904785,-1.4662415981292725,4.188766956329346,-1.0759354829788208,-3.1947097778320312,-5.7264862060546875,-3.986976146697998,-5.249549388885498,-4.190885543823242,3.186163902282715,4.981682300567627,3.2351396083831787,3.978208541870117,5.987087249755859,3.104245662689209,1.0445995330810547,2.2822065353393555,2.684445858001709,5.754598140716553,3.365260362625122,4.745748519897461,2.773853302001953,5.760140419006348,2.7600600719451904,5.887023448944092,3.320418357849121,3.81449818611145,5.412243843078613,3.6541621685028076,2.843132734298706,-2.890141725540161,-3.788180112838745,-5.335613250732422,-3.8395955562591553,-3.174470901489258,1.4955071210861206
6,0.0903044268488884,-2.819849729537964,-6.255834102630615,-2.929405689239502,-4.5257415771484375,-2.9391098022460938,-5.713498115539551,-2.6531271934509277,-2.302074909210205,-0.7980522513389587,-3.417938470840454,3.613447666168213,-4.334677696228027,-3.3571054935455322,-5.078810691833496,-3.2061431407928467,3.0545618534088135,4.874460697174072,0.41476747393608093,2.749163866043091,3.709624767303467,0.509303629398346,3.528381586074829,6.253338813781738,-5.912782669067383,5.932160377502441,-3.5905959606170654,-0.6737833619117737,-3.7555341720581055,-2.8781697750091553,-0.21477925777435303,-5.204372406005859,-2.94585919380188,-3.6102824211120605,-1.1853619813919067,-5.9765777587890625,5.710751056671143,-5.95097541809082,-4.193549156188965,-2.5492172241210938,-2.2359750270843506,-5.835143089294434,-5.793430328369141,-5.95335054397583,-0.09335844218730927,4.245102405548096,5.310764789581299,5.442383289337158,3.9512696266174316,5.365640163421631,2.882669448852539,1.3110674619674683,1.4492450952529907,5.01809024810791,5.391327857971191,2.041400671005249,2.131713390350342,3.5361807346343994,1.91042959690094,1.2912579774856567,5.049807071685791,5.426692485809326,1.481060266494751,3.9091200828552246,0.4353097677230835,5.620303153991699,-5.860561370849609,-0.5335853099822998,-3.9745240211486816,2.81638765335083,-1.4687762260437012,-5.321457862854004,-5.199028491973877,-1.4464261531829834,-3.6902759075164795,-2.0879111289978027,-1.8589465618133545,-5.2969560623168945,-4.942567348480225,-1.4565297365188599,4.21146297454834,-1.0541424751281738,-3.2040958404541016,-5.757905006408691,-3.987474203109741,-5.190917491912842,-4.238267421722412,3.138782024383545,5.040314197540283,3.2346415519714355,3.9467897415161133,6.028712272644043,3.0948596000671387,1.0663925409317017,2.2919185161590576,2.727644681930542,5.810502052307129,3.4028396606445312,4.802952766418457,2.757073402404785,5.721796035766602,2.7860512733459473,5.903499603271484,3.2920982837677,3.7891836166381836,5.399750232696533,3.6684913635253906,2.8413469791412354,-2.891927480697632,-3.773850917816162,-5.348106861114502,-3.871560573577881,-3.1962220668792725,1.4408868551254272
7,0.12766137719154358,-2.8388595581054688,-6.268091678619385,-2.926140546798706,-4.486040115356445,-2.960416078567505,-5.745764255523682,-2.7021398544311523,-2.3305249214172363,-0.7738435864448547,-3.4231669902801514,3.639871597290039,-4.364160060882568,-3.3478291034698486,-5.148426532745361,-3.156951904296875,3.06845760345459,4.844601631164551,0.44584131240844727,2.732637405395508,3.7103328704833984,0.4856082499027252,3.5841376781463623,6.274622917175293,-5.891498565673828,5.876377582550049,-3.5348398685455322,-0.697478711605072,-3.74459171295166,-2.8557937145233154,-0.1867579072713852,-5.228238582611084,-2.9319634437561035,-3.5838584899902344,-1.1127169132232666,-6.015869617462158,5.686522483825684,-6.000654697418213,-4.221601963043213,-2.5271434783935547,-2.2419557571411133,-5.864710330963135,-5.770158767700195,-6.002106666564941,-0.06111381575465202,4.277347087860107,5.2620086669921875,5.418593406677246,3.974541425704956,5.33607292175293,2.8766887187957764,1.3331412076950073,1.4211925268173218,4.968410968780518,5.35918664932251,1.978446125984192,2.1247806549072266,3.5352799892425537,1.905277967453003,1.3025906085968018,5.038393497467041,5.365952014923096,1.4478089809417725,3.9601306915283203,0.4112302362918854,5.610457897186279,-5.870406627655029,-0.5576648116111755,-3.923513412475586,2.8376624584198,-1.5065081119537354,-5.378889083862305,-5.207275390625,-1.4453696012496948,-3.691176652908325,-2.094843864440918,-1.9219011068344116,-5.329097270965576,-4.991955757141113,-1.4860671758651733,4.192663669586182,-1.034245252609253,-3.2096173763275146,-5.7871928215026855,-3.9654576778411865,-5.245969295501709,-4.195059299468994,3.181990623474121,4.985262393951416,3.2566580772399902,3.917501926422119,5.97854471206665,3.0893380641937256,1.0862897634506226,2.262381076812744,2.6782562732696533,5.778235912322998,3.38153338432312,4.842654228210449,2.760338544845581,5.7097039222717285,2.7682955265045166,5.864207744598389,3.327798366546631,3.823593854904175,5.4341559410095215,3.612428665161133,2.8334217071533203,-2.899852752685547,-3.82991361618042,-5.313701152801514,-3.841897487640381,-3.1587390899658203,1.5135319232940674
8,0.10060086846351624,-2.814030885696411,-6.273499488830566,-2.9552199840545654,-4.452046871185303,-2.8974053859710693,-5.706234455108643,-2.6448984146118164,-2.286656379699707,-0.7586923241615295,-3.419524908065796,3.6682732105255127,-4.386743545532227,-3.398686170578003,-5.145092010498047,-3.173703908920288,3.076807737350464,4.811373233795166,0.5071383118629456,2.72248911857605,3.711630344390869,0.5139984488487244,3.5358023643493652,6.278218746185303,-5.887902736663818,5.909860134124756,-3.5831751823425293,-0.6690885424613953,-3.738107442855835,-2.888331890106201,-0.12689045071601868,-5.254721164703369,-2.9236133098602295,-3.5554568767547607,-1.150728464126587,-5.98093843460083,5.644113063812256,-5.943511486053467,-4.178957939147949,-2.523827314376831,-2.240978956222534,-5.89054012298584,-5.766789436340332,-5.959516525268555,-0.09814321249723434,4.240317344665527,5.304598808288574,5.412557601928711,3.9779109954833984,5.310243129730225,2.8776655197143555,1.3364572525024414,1.4638365507125854,5.025554180145264,5.399251461029053,2.026852607727051,2.122252941131592,3.549013376235962,1.9087803363800049,1.3383629322052002,5.057255268096924,5.388268947601318,1.4999359846115112,3.9022560119628906,0.45987629890441895,5.615916728973389,-5.86494779586792,-0.5090187191963196,-3.9813880920410156,2.8403372764587402,-1.4793899059295654,-5.3461408615112305,-5.1877970695495605,-1.4092106819152832,-3.677443265914917,-2.0973715782165527,-1.8734947443008423,-5.289032459259033,-4.93528938293457,-1.4448621273040771,4.245500087738037,-1.0313948392868042,-3.2063210010528564,-5.807059288024902,-3.9617059230804443,-5.201774597167969,-4.216951847076416,3.16009783744812,5.029457092285156,3.2604098320007324,3.8976356983184814,6.034666061401367,3.092634439468384,1.0891401767730713,2.30358624458313,2.7349228858947754,5.817765712738037,3.4445440769195557,4.876647472381592,2.7312591075897217,5.706179141998291,2.8102660179138184,5.899138927459717,3.2717857360839844,3.774765968322754,5.406815052032471,3.663205623626709,2.8464202880859375,-2.8868541717529297,-3.7791366577148438,-5.3410420417785645,-3.904139995574951,-3.201256513595581,1.475520372390747
9,0.12842634320259094,-2.860569477081299,-6.283465385437012,-2.934406042098999,-4.4280781745910645,-2.902390480041504,-5.725430965423584,-2.6941399574279785,-2.347067356109619,-0.737148642539978,-3.4150099754333496,3.6957600116729736,-4.41139554977417,-3.3949530124664307,-5.188024997711182,-3.1333186626434326,3.0666072368621826,4.781300067901611,0.537217915058136,2.7264602184295654,3.7195098400115967,0.502576470375061,3.5856409072875977,6.282131671905518,-5.8839898109436035,5.886408805847168,-3.533336639404297,-0.6805105209350586,-3.707399606704712,-2.8387091159820557,-0.09955018013715744,-5.275564670562744,-2.9338138103485107,-3.5279700756073,-1.0943313837051392,-5.9756903648376465,5.594445705413818,-5.99316930770874,-4.238831043243408,-2.5007333755493164,-2.2384955883026123,-5.911576271057129,-5.74375581741333,-5.986472129821777,-0.07073371112346649,4.267726898193359,5.277643203735352,5.415844440460205,4.0009446144104,5.2892069816589355,2.8801488876342773,1.359551191329956,1.403963565826416,4.97589635848999,5.3810906410217285,1.9825074672698975,2.133090019226074,3.5642507076263428,1.913191556930542,1.334658145904541,5.044707298278809,5.337738990783691,1.452038288116455,3.952579975128174,0.4050002992153168,5.604184150695801,-5.876680374145508,-0.5638946890830994,-3.9310641288757324,2.8560235500335693,-1.5388209819793701,-5.3929948806762695,-5.195971965789795,-1.41635000705719,-3.662205934524536,-2.0865345001220703,-1.9178398847579956,-5.307193279266357,-4.984696388244629,-1.505530834197998,4.200407981872559,-1.0080622434616089,-3.2028920650482178,-5.825800895690918,-3.941572427749634,-5.226861000061035,-4.18224573135376,3.1948041915893555,5.00437068939209,3.280543327331543,3.8788938522338867,5.985833168029785,3.0960633754730225,1.1124727725982666,2.242917537689209,2.685516119003296,5.798569202423096,3.439558982849121,4.90061616897583,2.752073049545288,5.694695949554443,2.7582015991210938,5.9043869972229,3.3154165744781494,3.8349194526672363,5.426628112792969,3.608881711959839,2.878596782684326,-2.854677677154541,-3.833460569381714,-5.321228981018066,-3.857471466064453,-3.153648853302002,1.5319174528121948
10,0.11618942022323608,-2.8075950145721436,-6.2357611656188965,-2.9883038997650146,-4.427455902099609,-2.8345770835876465,-5.702179431915283,-2.6597580909729004,-2.2885262966156006,-0.7442185282707214,-3.413435459136963,3.686981439590454,-4.446516990661621,-3.4297924041748047,-5.1781158447265625,-3.140599489212036,3.065812587738037,4.7585554122924805,0.6014255881309509,2.7080650329589844,3.7319533824920654,0.5160112380981445,3.5583841800689697,6.254490375518799,-5.911631107330322,5.896471977233887,-3.560593366622925,-0.6670757532119751,-3.6985373497009277,-2.865448236465454,-0.03635912388563156,-5.292712688446045,-2.9346084594726562,-3.5367486476898193,-1.1168609857559204,-5.940648078918457,5.5493483543396,-5.959021091461182,-4.180549621582031,-2.523451805114746,-2.2405543327331543,-5.9449310302734375,-5.7112016677856445,-5.968264579772949,-0.0926906168460846,4.24576997756958,5.29585075378418,5.416640758514404,4.033498764038086,5.255852222442627,2.8780901432037354,1.336832880973816,1.4622447490692139,5.010044574737549,5.405585289001465,2.0189523696899414,2.1602649688720703,3.559825897216797,1.9195677042007446,1.3541569709777832,5.037511348724365,5.367877960205078,1.5046945810317993,3.9148430824279785,0.465509295463562,5.640926837921143,-5.839937686920166,-0.5033857226371765,-3.9688010215759277,2.826894760131836,-1.4908322095870972,-5.367229461669922,-5.210813045501709,-1.3989986181259155,-3.666630744934082,-2.059359550476074,-1.8813949823379517,-5.282698631286621,-4.951487064361572,-1.4484342336654663,4.266610145568848,-1.0321297645568848,-3.2026779651641846,-5.856178283691406,-3.9074037075042725,-5.203750133514404,-4.189303874969482,3.187746047973633,5.027481555938721,3.3147120475769043,3.8485169410705566,6.0174455642700195,3.0962774753570557,1.0884052515029907,2.3000142574310303,2.7187256813049316,5.8218207359313965,3.5073723793029785,4.901238441467285,2.6981751918792725,5.743031024932861,2.828855037689209,5.93942928314209,3.268091917037964,3.7901155948638916,5.424610614776611,3.6595170497894287,2.8125827312469482,-2.920691728591919,-3.782825231552124,-5.323246479034424,-3.911311626434326,-3.203022003173828,1.5093878507614136
11,0.13747555017471313,-2.8757588863372803,-6.28950309753418,-2.9221889972686768,-4.415462017059326,-2.8372130393981934,-5.718147277832031,-2.690878391265869,-2.3453118801116943,-0.6999408602714539,-3.399089813232422,3.7242543697357178,-4.454215049743652,-3.4436469078063965,-5.197598457336426,-3.113415241241455,3.014413595199585,4.708393573760986,0.6526065468788147,2.7123050689697266,3.740205764770508,0.5334023833274841,3.6004395484924316,6.284129619598389,-5.881991863250732,5.907646179199219,-3.518537998199463,-0.6496846079826355,-3.667555093765259,-2.823901414871216,0.015604340471327305,-5.323533535003662,-2.9860074520111084,-3.4994757175445557,-1.0811858177185059,-5.915421962738037,5.47535514831543,-5.991168022155762,-4.236140727996826,-2.4720237255096436,-2.228174924850464,-5.945174217224121,-5.731630802154541,-5.985655784606934,-0.06646673381328583,4.271993637084961,5.278459548950195,5.455888748168945,4.0130696296691895,5.255609035491943,2.890469551086426,1.388260841369629,1.406653642654419,4.977897644042969,5.390573978424072,2.0050668716430664,2.1451263427734375,3.6170520782470703,1.9339079856872559,1.34502375125885,5.073770999908447,5.317907810211182,1.467091679573059,3.9482555389404297,0.4130522310733795,5.593960285186768,-5.886904239654541,-0.5558427572250366,-3.9353885650634766,2.869440793991089,-1.5423558950424194,-5.392674446105957,-5.171165943145752,-1.405036211013794,-3.6094045639038086,-2.074498176574707,-1.8952805995941162,-5.297709941864014,-4.983278274536133,-1.5045061111450195,4.243974208831787,-0.9793401956558228,-3.1892287731170654,-5.851711750030518,-3.929093599319458,-5.211968421936035,-4.1602277755737305,3.2168221473693848,5.01926326751709,3.2930221557617188,3.852983236312866,5.9903154373168945,3.109726667404175,1.1411948204040527,2.2439424991607666,2.68693470954895,5.805852890014648,3.5047364234924316,4.913232326507568,2.7642900943756104,5.689427852630615,2.767244815826416,5.96465539932251,3.296074628829956,3.8495097160339355,5.408080577850342,3.6154563426971436,2.897589921951294,-2.8356845378875732,-3.826885938644409,-5.339776515960693,-3.871791362762451,-3.1849493980407715,1.5450630187988281
12,0.12973211705684662,-2.8065006732940674,-6.216958999633789,-2.9807519912719727,-4.455132961273193,-2.749927043914795,-5.704010486602783,-2.6667685508728027,-2.3037242889404297,-0.7483357191085815,-3.4144206047058105,3.6689157485961914,-4.505825519561768,-3.4359259605407715,-5.176862716674805,-3.1128339767456055,3.043776750564575,4.7552170753479,0.6826156973838806,2.6895809173583984,3.759453773498535,0.5525959730148315,3.5683345794677734,6.212017059326172,-5.954104423522949,5.891323566436768,-3.550642967224121,-0.6304910182952881,-3.6690638065338135,-2.8515396118164062,0.04257857799530029,-5.279168128967285,-2.956644296646118,-3.554814338684082,-1.0454185009002686,-5.893225193023682,5.459392070770264,-5.967077732086182,-4.193159103393555,-2.5311875343322754,-2.2474365234375,-5.995486259460449,-5.66441011428833,-5.993332862854004,-0.07994037866592407,4.258520126342773,5.270782470703125,5.444268226623535,4.0802903175354,5.205296993255615,2.8712079524993896,1.3290969133377075,1.4496349096298218,5.001987934112549,5.405518531799316,2.020508289337158,2.200326442718506,3.5705692768096924,1.9358129501342773,1.333558440208435,5.011721611022949,5.349045753479004,1.5027295351028442,3.92073392868042,0.45744624733924866,5.6642842292785645,-5.816580295562744,-0.5114487409591675,-3.9629101753234863,2.8043060302734375,-1.4956859350204468,-5.41803503036499,-5.236205101013184,-1.4172347784042358,-3.6558873653411865,-2.0192980766296387,-1.8798394203186035,-5.2827653884887695,-4.96055269241333,-1.4629870653152466,4.299848556518555,-1.0393122434616089,-3.2069814205169678,-5.902425765991211,-3.861673355102539,-5.216125965118408,-4.162333965301514,3.2147157192230225,5.015105724334717,3.3604423999786377,3.802269458770752,6.009742736816406,3.0919740200042725,1.0812227725982666,2.28546142578125,2.709660053253174,5.8199896812438965,3.59202241897583,4.873561382293701,2.7057271003723145,5.763728141784668,2.836317300796509,5.986852169036865,3.2629034519195557,3.832165002822876,5.414801120758057,3.6657252311706543,2.836467981338501,-2.896806478500366,-3.7766170501708984,-5.3330559730529785,-3.9065301418304443,-3.2315125465393066,1.5808303356170654
13,0.14234086871147156,-2.8639516830444336,-6.264163970947266,-2.9242265224456787,-4.427970886230469,-2.7581183910369873,-5.718245506286621,-2.694222927093506,-2.349447727203369,-0.6807888150215149,-3.3910744190216064,3.720945358276367,-4.486156463623047,-3.502295732498169,-5.157566070556641,-3.1157665252685547,2.96551775932312,4.696254253387451,0.7558854818344116,2.700493097305298,3.7836503982543945,0.5377458930015564,3.620068073272705,6.262123107910156,-5.903998374938965,5.939136981964111,-3.4989094734191895,-0.6453410983085632,-3.63474702835083,-2.819777727127075,0.11715862154960632,-5.320412635803223,-3.0349032878875732,-3.5027847290039062,-1.0967048406600952,-5.866250514984131,5.383574962615967,-5.995974540710449,-4.2375898361206055,-2.4677529335021973,-2.2260348796844482,-5.972418785095215,-5.720703601837158,-5.966041564941406,-0.0628020390868187,4.27565860748291,5.298073768615723,5.496321201324463,4.023996829986572,5.22836446762085,2.8926095962524414,1.3925316333770752,1.4052040576934814,4.973091125488281,5.391270160675049,2.0619239807128906,2.1534972190856934,3.6317477226257324,1.9572498798370361,1.3772491216659546,5.079678535461426,5.33121395111084,1.476211428642273,3.9486095905303955,0.4150644540786743,5.60777473449707,-5.873089790344238,-0.5538305044174194,-3.9350345134735107,2.859267234802246,-1.5359597206115723,-5.377713203430176,-5.16828727722168,-1.37246572971344,-3.5947089195251465,-2.066127300262451,-1.8384238481521606,-5.297013759613037,-4.988964080810547,-1.5076593160629272,4.3041839599609375,-0.9749302864074707,-3.184321641921997,-5.872896671295166,-3.918999433517456,-5.171358585357666,-4.151180267333984,3.2258694171905518,5.059873104095459,3.3031163215637207,3.831799030303955,5.984228610992432,3.114633798599243,1.1456047296524048,2.2407891750335693,2.681248664855957,5.805754661560059,3.5838310718536377,4.900723457336426,2.7622525691986084,5.720085620880127,2.786036491394043,6.013826847076416,3.2826755046844482,3.8775947093963623,5.410869598388672,3.6248209476470947,2.8942060470581055,-2.8390684127807617,-3.817521333694458,-5.336987495422363,-3.881608486175537,-3.2227790355682373,1.5295439958572388
14,0.1435914933681488,-2.821303129196167,-6.2039384841918945,-2.9570062160491943,-4.48567533493042,-2.6883153915405273,-5.704354763031006,-2.669574022293091,-2.322110176086426,-0.7215766906738281,-3.4114460945129395,3.675701379776001,-4.534282207489014,-3.447435140609741,-5.197726249694824,-3.0761008262634277,2.9963085651397705,4.763843059539795,0.7581923007965088,2.653320550918579,3.7858893871307373,0.5706406235694885,3.5785226821899414,6.200799465179443,-5.965322017669678,5.897132396697998,-3.540454864501953,-0.6124463677406311,-3.655980348587036,-2.858163833618164,0.11543256044387817,-5.245572566986084,-3.004112482070923,-3.5480287075042725,-1.0072047710418701,-5.8258233070373535,5.377403736114502,-5.971513748168945,-4.208482265472412,-2.515591621398926,-2.2499120235443115,-6.019575595855713,-5.6600542068481445,-6.041021347045898,-0.05992213264107704,4.278538227081299,5.2230939865112305,5.486165523529053,4.084646224975586,5.181207656860352,2.868732452392578,1.3446929454803467,1.434312105178833,4.997551918029785,5.406510829925537,2.001338481903076,2.1957783699035645,3.5973973274230957,1.9572181701660156,1.3321861028671265,5.0365424156188965,5.332275867462158,1.5071041584014893,3.9223289489746094,0.44547587633132935,5.665045738220215,-5.815818786621094,-0.5234190821647644,-3.961315155029297,2.805377244949341,-1.495880365371704,-5.437001705169678,-5.212341785430908,-1.4219869375228882,-3.629059314727783,-2.02384614944458,-1.8990092277526855,-5.281773090362549,-4.96531867980957,-1.4797649383544922,4.349210739135742,-1.0223889350891113,-3.2068190574645996,-5.919552326202393,-3.855705738067627,-5.243358612060547,-4.142210960388184,3.2348387241363525,4.987873077392578,3.36641001701355,3.7851433753967285,6.0078816413879395,3.0921363830566406,1.0981460809707642,2.268683433532715,2.7048940658569336,5.819645404815674,3.6536340713500977,4.843019008636475,2.7294728755950928,5.782347679138184,2.829235315322876,6.054254055023193,3.251145124435425,3.8777031898498535,5.385025978088379,3.665529251098633,2.847107410430908,-2.886167049407959,-3.77681303024292,-5.362831115722656,-3.903963804244995,-3.266223669052124,1.6190440654754639
15,0.14470408856868744,-2.8752081394195557,-6.218253135681152,-2.909233331680298,-4.452174663543701,-2.6561927795410156,-5.727784156799316,-2.6985747814178467,-2.355987787246704,-0.6692487597465515,-3.3959720134735107,3.714470148086548,-4.5228271484375,-3.520817279815674,-5.130781173706055,-3.1106693744659424,2.9353976249694824,4.75241231918335,0.8193098902702332,2.6709237098693848,3.8224968910217285,0.5389644503593445,3.609579086303711,6.231652736663818,-5.934468746185303,5.963120937347412,-3.5093984603881836,-0.6441225409507751,-3.6198856830596924,-2.832078695297241,0.1772294044494629,-5.236354827880859,-3.065023422241211,-3.5092599391937256,-1.0759695768356323,-5.848010540008545,5.321749687194824,-6.0013861656188965,-4.2417988777160645,-2.4723904132843018,-2.235713243484497,-6.007996082305908,-5.695889949798584,-5.972748279571533,-0.06379959732294083,4.274660587310791,5.291367053985596,5.518589019775391,4.0488104820251465,5.192787170410156,2.8829312324523926,1.3878942728042603,1.4009953737258911,4.967679500579834,5.381519794464111,2.072894334793091,2.141705274581909,3.649061918258667,1.9765218496322632,1.3863445520401,5.097259521484375,5.355302810668945,1.476006269454956,3.950115919113159,0.4141451120376587,5.6308207511901855,-5.850043773651123,-0.5547498464584351,-3.933528184890747,2.840869903564453,-1.5343904495239258,-5.375046730041504,-5.151803493499756,-1.368783712387085,-3.577394723892212,-2.0779192447662354,-1.8274532556533813,-5.306764125823975,-4.995140075683594,-1.5130455493927002,4.362573623657227,-0.9783273339271545,-3.1919472217559814,-5.901629447937012,-3.895205497741699,-5.169328689575195,-4.150777339935303,3.2262723445892334,5.06190299987793,3.3269102573394775,3.8030660152435303,5.977923393249512,3.107008218765259,1.1422077417373657,2.235402822494507,2.67507266998291,5.796216011047363,3.6857566833496094,4.876519680023193,2.7772457599639893,5.770335674285889,2.782663345336914,6.032066822052002,3.2741527557373047,3.9061167240142822,5.441351890563965,3.62964129447937,2.8714330196380615,-2.8618414402008057,-3.8127009868621826,-5.30650520324707,-3.8979079723358154,-3.24192476272583,1.5502792596817017
16,0.14060483872890472,-2.8313114643096924,-6.16375207901001,-2.9405505657196045,-4.510308265686035,-2.616101026535034,-5.7059431076049805,-2.6662909984588623,-2.3328094482421875,-0.6892440319061279,-3.4132189750671387,3.675213575363159,-4.561997890472412,-3.489013910293579,-5.178308486938477,-3.0623936653137207,2.954650402069092,4.808961391448975,0.8133211135864258,2.6177659034729004,3.8156495094299316,0.5781366229057312,3.5729222297668457,6.19045877456665,-5.975662708282471,5.927410125732422,-3.546055316925049,-0.6049503684043884,-3.6397151947021484,-2.8710734844207764,0.16811227798461914,-5.169222354888916,-3.0457706451416016,-3.5485165119171143,-1.0193281173706055,-5.800839424133301,5.30204439163208,-5.969398498535156,-4.217918872833252,-2.501265048980713,-2.2556846141815186,-6.0427141189575195,-5.664947509765625,-6.038248538970947,-0.055978648364543915,4.2824811935424805,5.225866794586182,5.516091823577881,4.0797529220581055,5.158069133758545,2.862959861755371,1.3590197563171387,1.424875020980835,4.999667167663574,5.4048333168029785,2.017199993133545,2.1853580474853516,3.617375612258911,1.980135202407837,1.3523430824279785,5.067105293273926,5.3196282386779785,1.516835331916809,3.917501926422119,0.43985816836357117,5.669105529785156,-5.811758995056152,-0.5290367603302002,-3.966142177581787,2.8056371212005615,-1.4931584596633911,-5.431441783905029,-5.182220935821533,-1.4090474843978882,-3.6090810298919678,-2.034266471862793,-1.8831473588943481,-5.283450603485107,-4.963506698608398,-1.4901630878448486,4.403825283050537,-1.0063425302505493,-3.2105605602264404,-5.935039520263672,-3.8633358478546143,-5.23026704788208,-4.139595985412598,3.2374534606933594,5.000964641571045,3.3587799072265625,3.76965594291687,6.013674736022949,3.0883948802948,1.1141926050186157,2.2582852840423584,2.7067060470581055,5.818057060241699,3.725848436355591,4.818386077880859,2.7459285259246826,5.825229644775391,2.825256824493408,6.079237937927246,3.2335476875305176,3.9157936573028564,5.3692946434021,3.663059711456299,2.835080862045288,-2.898193597793579,-3.779282569885254,-5.3785624504089355,-3.8998470306396484,-3.2801625728607178,1.6069207191467285
17,0.1369093954563141,-2.8744935989379883,-6.159545421600342,-2.8990983963012695,-4.4922285079956055,-2.5831737518310547,-5.730295658111572,-2.7064294815063477,-2.3611490726470947,-0.6455414891242981,-3.404703140258789,3.7072103023529053,-4.550117492675781,-3.5366344451904297,-5.138270854949951,-3.089127779006958,2.904158353805542,4.821966648101807,0.8468900322914124,2.6423609256744385,3.852660655975342,0.5354888439178467,3.595048427581787,6.215098857879639,-5.951022624969482,5.978237152099609,-3.5239291191101074,-0.647598147392273,-3.6032543182373047,-2.8436942100524902,0.20164085924625397,-5.138465404510498,-3.0962626934051514,-3.516519784927368,-1.0592447519302368,-5.822653293609619,5.25555944442749,-6.009815692901611,-4.246063232421875,-2.4663820266723633,-2.2477705478668213,-6.030737400054932,-5.67686128616333,-6.001173496246338,-0.057029712945222855,4.281430244445801,5.262941837310791,5.543794631958008,4.0678391456604,5.170045852661133,2.8708739280700684,1.3939027786254883,1.3967307806015015,4.959249973297119,5.379727363586426,2.063249349594116,2.134873867034912,3.6561992168426514,1.996809959411621,1.3891159296035767,5.111275672912598,5.374168872833252,1.4729773998260498,3.9556400775909424,0.41416382789611816,5.643874645233154,-5.836989879608154,-0.5547310709953308,-3.928004026412964,2.835773468017578,-1.5385451316833496,-5.364404678344727,-5.137576103210449,-1.3753536939620972,-3.5702574253082275,-2.0847506523132324,-1.8370980024337769,-5.30855655670166,-5.004372596740723,-1.518417239189148,4.416428565979004,-0.9712218046188354,-3.202230453491211,-5.9192304611206055,-3.8800363540649414,-5.188902378082275,-4.143014430999756,3.2340352535247803,5.04232931137085,3.3420794010162354,3.7854652404785156,5.971609115600586,3.0967249870300293,1.1493133306503296,2.2300310134887695,2.665839910507202,5.793704509735107,3.7587757110595703,4.836465835571289,2.7873806953430176,5.8321533203125,2.7870614528656006,6.057424068450928,3.2583372592926025,3.920652151107788,5.439197540283203,3.629391670227051,2.8560070991516113,-2.877267360687256,-3.812950611114502,-5.308659553527832,-3.9183948040008545,-3.246917486190796,1.5670040845870972
18,0.1262369453907013,-2.838884115219116,-6.1140456199646,-2.926400899887085,-4.5386528968811035,-2.55765438079834,-5.705289363861084,-2.660984992980957,-2.3381688594818115,-0.6652455925941467,-3.4230594635009766,3.669586658477783,-4.585822582244873,-3.5262694358825684,-5.1564555168151855,-3.053004264831543,2.920180320739746,4.862215995788574,0.8231613636016846,2.5912222862243652,3.8413076400756836,0.5876243114471436,3.557511329650879,6.177676200866699,-5.988445281982422,5.963229656219482,-3.5614662170410156,-0.5954626798629761,-3.6226966381073,-2.886099100112915,0.17551471292972565,-5.090825080871582,-3.0802407264709473,-3.5541434288024902,-1.0290874242782593,-5.789102554321289,5.232714653015137,-5.964566707611084,-4.222831726074219,-2.4929683208465576,-2.268353223800659,-6.061592102050781,-5.664584636688232,-6.035109996795654,-0.06067420542240143,4.277785778045654,5.229005336761475,5.539475440979004,4.080115795135498,5.139191150665283,2.8502912521362305,1.367316484451294,1.4199621677398682,5.0044989585876465,5.405269145965576,2.0275421142578125,2.1672205924987793,3.6277966499328613,2.001979351043701,1.3708758354187012,5.0850958824157715,5.333704471588135,1.5251377820968628,3.910250663757324,0.4392826557159424,5.679119110107422,-5.801745414733887,-0.5296122431755066,-3.973393440246582,2.8040802478790283,-1.4874895811080933,-5.4150285720825195,-5.163975238800049,-1.3986128568649292,-3.5986599922180176,-2.0524039268493652,-1.8728052377700806,-5.28301477432251,-4.959094524383545,-1.4959930181503296,4.45231819152832,-0.9970806837081909,-3.221808671951294,-5.948528289794922,-3.8698275089263916,-5.2181196212768555,-4.1457953453063965,3.2312545776367188,5.0131120681762695,3.352288246154785,3.756167411804199,6.022237300872803,3.0771467685699463,1.1234545707702637,2.252455234527588,2.711118221282959,5.818710803985596,3.784295082092285,4.790041446685791,2.760078191757202,5.877431869506836,2.823347568511963,6.090974807739258,3.216201066970825,3.943222761154175,5.375171661376953,3.6593899726867676,2.8251049518585205,-2.9081695079803467,-3.782952308654785,-5.372685432434082,-3.899177074432373,-3.2734551429748535,1.5971614122390747
19,0.12779438495635986,-2.87070631980896,-6.109548568725586,-2.889578342437744,-4.526815414428711,-2.5222349166870117,-5.737907409667969,-2.7110202312469482,-2.3638460636138916,-0.6216601133346558,-3.413757801055908,3.7008767127990723,-4.567944526672363,-3.555208683013916,-5.141402244567871,-3.0714590549468994,2.8671875,4.878738880157471,0.8361063599586487,2.624835729598999,3.8772926330566406,0.5361409783363342,3.5851335525512695,6.205838203430176,-5.960283279418945,6.004190921783447,-3.533843994140625,-0.6469460129737854,-3.5849575996398926,-2.855752468109131,0.18771801888942719,-5.059828281402588,-3.1332335472106934,-3.522853374481201,-1.0517443418502808,-5.805203914642334,5.190432071685791,-6.014853477478027,-4.248610973358154,-2.45682692527771,-2.2596964836120605,-6.043740749359131,-5.6616644859313965,-6.018880367279053,-0.042848166078329086,4.29561185836792,5.245234966278076,5.570927619934082,4.083035945892334,5.157042503356934,2.858947992324829,1.4034581184387207,1.3941833972930908,4.954212188720703,5.373140811920166,2.057340383529663,2.122598648071289,3.657848596572876,2.017510414123535,1.3960827589035034,5.116581439971924,5.381579399108887,1.4769107103347778,3.9587302207946777,0.41608718037605286,5.6517205238342285,-5.82914400100708,-0.5528077483177185,-3.9249138832092285,2.8378570079803467,-1.5349459648132324,-5.364490032196045,-5.131603717803955,-1.376776099205017,-3.568608045578003,-2.0970258712768555,-1.8430070877075195,-5.31514310836792,-5.0099382400512695,-1.522047519683838,4.461601257324219,-0.960965096950531,-3.2126541137695312,-5.928544998168945,-3.8700315952301025,-5.199398994445801,-4.1265740394592285,3.250476121902466,5.031832695007324,3.352084159851074,3.7761504650115967,5.970860958099365,3.086301326751709,1.1595702171325684,2.226400852203369,2.6602742671966553,5.786092758178711,3.8197145462036133,4.801878929138184,2.796900749206543,5.885518550872803,2.794114589691162,6.074873447418213,3.2342984676361084,3.9247403144836426,5.428605079650879,3.6259853839874268,2.85341739654541,-2.879857063293457,-3.816356897354126,-5.319252014160156,-3.9371511936187744,-3.248399257659912,1.5745044946670532
20,0.10071476548910141,-2.8392679691314697,-6.07239294052124,-2.9122226238250732,-4.5649566650390625,-2.514535903930664,-5.693153381347656,-2.663621425628662,-2.3406643867492676,-0.6479750871658325,-3.433316230773926,3.6628243923187256,-4.607649803161621,-3.555081844329834,-5.136699676513672,-3.0413615703582764,2.8823447227478027,4.905070781707764,0.7958158254623413,2.5732133388519287,3.858635425567627,0.5892679691314697,3.543152093887329,6.166197776794434,-5.9999237060546875,5.997363567352295,-3.5758254528045654,-0.5938190221786499,-3.6110148429870605,-2.9026083946228027,0.14577728509902954,-5.03054141998291,-3.1180763244628906,-3.560905694961548,-1.032932996749878,-5.771529197692871,5.163567066192627,-5.967423915863037,-4.225065231323242,-2.487490177154541,-2.28139591217041,-6.079364776611328,-5.664385795593262,-6.030946254730225,-0.07814960181713104,4.260310173034668,5.233169078826904,5.558547019958496,4.080314636230469,5.121418476104736,2.8372485637664795,1.3727949857711792,1.4177290201187134,5.001641750335693,5.4174299240112305,2.03234601020813,2.153770923614502,3.6305651664733887,2.0213475227355957,1.384216547012329,5.0884833335876465,5.355337142944336,1.5218425989151,3.9118740558624268,0.44146493077278137,5.6902055740356445,-5.790658950805664,-0.52742999792099,-3.9717700481414795,2.8035342693328857,-1.4892629384994507,-5.404858112335205,-5.159757137298584,-1.3919999599456787,-3.5958914756774902,-2.0658535957336426,-1.8680015802383423,-5.2708539962768555,-4.9623541831970215,-1.49925696849823,4.491759300231934,-0.9911189079284668,-3.2337260246276855,-5.962684154510498,-3.8778069019317627,-5.206332683563232,-4.1657209396362305,3.211329221725464,5.024899005889893,3.344308853149414,3.7420108318328857,6.0230183601379395,3.0652294158935547,1.1294164657592773,2.2491915225982666,2.7078588008880615,5.830846786499023,3.827413558959961,4.763737678527832,2.774256467819214,5.922274589538574,2.8270270824432373,6.108548164367676,3.204411029815674,3.9671542644500732,5.378480434417725,3.6571855545043945,2.823084831237793,-2.910189628601074,-3.785156726837158,-5.3693766593933105,-3.8936994075775146,-3.2556850910186768,1.593315839767456
21,0.1280784010887146,-2.8627657890319824,-6.071187973022461,-2.8764090538024902,-4.554070472717285,-2.4734761714935303,-5.756814956665039,-2.7075302600860596,-2.3659942150115967,-0.6025907397270203,-3.41945219039917,3.695509672164917,-4.582291126251221,-3.571194887161255,-5.156137943267822,-3.060199737548828,2.8209996223449707,4.917881488800049,0.7983216047286987,2.6142868995666504,3.897185802459717,0.5483787655830383,3.575899600982666,6.199934959411621,-5.9661865234375,6.0326080322265625,-3.5430779457092285,-0.6347082257270813,-3.5707054138183594,-2.86897349357605,0.147066131234169,-5.005925178527832,-3.1794214248657227,-3.5282204151153564,-1.0452226400375366,-5.792717456817627,5.124054431915283,-6.0115766525268555,-4.250550746917725,-2.448291778564453,-2.2683184146881104,-6.055039882659912,-5.645654201507568,-6.037081718444824,-0.015008548274636269,4.323451519012451,5.227033615112305,5.595941066741943,4.099046230316162,5.145743370056152,2.8503260612487793,1.4119932651519775,1.39224374294281,4.957489013671875,5.355165481567383,2.053297281265259,2.1082794666290283,3.6543264389038086,2.036484956741333,1.404005765914917,5.1147685050964355,5.391356945037842,1.4847612380981445,3.954501152038574,0.4183526635169983,5.658204078674316,-5.822660446166992,-0.5505422353744507,-3.929142951965332,2.8416242599487305,-1.5267565250396729,-5.368093490600586,-5.1326470375061035,-1.3751730918884277,-3.5721302032470703,-2.111345052719116,-1.8470503091812134,-5.333118438720703,-5.007006645202637,-1.5251528024673462,4.495611667633057,-0.951996922492981,-3.2199928760528564,-5.937177658081055,-3.8580269813537598,-5.214267730712891,-4.097195148468018,3.2798550128936768,5.016963958740234,3.364088773727417,3.76751708984375,5.9794111251831055,3.078962564468384,1.1685385704040527,2.2232956886291504,2.663206100463867,5.767185211181641,3.8684732913970947,4.774623870849609,2.810070037841797,5.927862644195557,2.8041563034057617,6.08735990524292,3.2127468585968018,3.9249637126922607,5.420544624328613,3.625336170196533,2.8568081855773926,-2.8764662742614746,-3.8170061111450195,-5.327312469482422,-3.949218988418579,-3.244591474533081,1.5810261964797974
22,0.06429796665906906,-2.8341903686523438,-6.040679454803467,-2.892404079437256,-4.584198474884033,-2.477742910385132,-5.681420803070068,-2.6711878776550293,-2.341837167739868,-0.6353714466094971,-3.439833641052246,3.6555957794189453,-4.629535675048828,-3.587045431137085,-5.117516994476318,-3.0263590812683105,2.833404779434204,4.932673931121826,0.749496340751648,2.561231851577759,3.8655588626861572,0.5888379216194153,3.53623104095459,6.15736198425293,-6.008759498596191,6.035177707672119,-3.5827465057373047,-0.5942490696907043,-3.6088578701019287,-2.9155945777893066,0.09728846698999405,-4.992402076721191,-3.1670162677764893,-3.568134307861328,-1.0332056283950806,-5.755107879638672,5.089385986328125,-5.975268840789795,-4.225914001464844,-2.4832544326782227,-2.2908365726470947,-6.099177360534668,-5.6641926765441895,-6.014913558959961,-0.0932907909154892,4.245169639587402,5.249201774597168,5.570887565612793,4.080507755279541,5.1016058921813965,2.827807903289795,1.3770307302474976,1.4168802499771118,4.9937968254089355,5.428790092468262,2.0416338443756104,2.1449666023254395,3.63000750541687,2.0372798442840576,1.3958414793014526,5.087048053741455,5.378079891204834,1.5170278549194336,3.918813943862915,0.44489365816116333,5.699894905090332,-5.780969619750977,-0.5240012407302856,-3.964830160140991,2.803802728652954,-1.492169737815857,-5.399406909942627,-5.160438060760498,-1.3850421905517578,-3.596449136734009,-2.074657917022705,-1.8587137460708618,-5.259493827819824,-4.970527172088623,-1.5011640787124634,4.523469924926758,-0.9866423010826111,-3.242213010787964,-5.979981899261475,-3.888143539428711,-5.18826961517334,-4.179194927215576,3.197855234146118,5.042962074279785,3.333972215652466,3.724712610244751,6.018733024597168,3.0567424297332764,1.1338932514190674,2.247284412384033,2.69968581199646,5.842579364776611,3.864206552505493,4.744495868682861,2.7940750122070312,5.958218574523926,2.834635019302368,6.124969482421875,3.1974642276763916,3.9740307331085205,5.379043102264404,3.656468391418457,2.8265321254730225,-2.9067423343658447,-3.7858738899230957,-5.368813991546631,-3.8988630771636963,-3.2392752170562744,1.5930432081222534
23,0.11287189275026321,-2.8493926525115967,-6.042492866516113,-2.860931873321533,-4.572948455810547,-2.427128791809082,-5.750218391418457,-2.7025249004364014,-2.3674380779266357,-0.5902451872825623,-3.4219892024993896,3.6889851093292236,-4.5995378494262695,-3.588291883468628,-5.18242073059082,-3.0525898933410645,2.7659153938293457,4.943547248840332,0.7460494041442871,2.611001968383789,3.916520118713379,0.5610278844833374,3.565166473388672,6.194242477416992,-5.971879005432129,6.0565505027771,-3.5538110733032227,-0.6220591068267822,-3.5595853328704834,-2.876716136932373,0.09260477870702744,-4.972052574157715,-3.2345056533813477,-3.53474497795105,-1.0278034210205078,-5.778939723968506,5.052339553833008,-6.006903171539307,-4.251546382904053,-2.4432995319366455,-2.2740674018859863,-6.07034158706665,-5.628821849822998,-6.057780742645264,-0.015238242223858833,4.3232221603393555,5.206334590911865,5.612658977508545,4.115878582000732,5.130441665649414,2.8445770740509033,1.4169856309890747,1.3912476301193237,4.962162494659424,5.359862804412842,2.0543041229248047,2.1046361923217773,3.6431057453155518,2.0511975288391113,1.409726619720459,5.109761714935303,5.401748180389404,1.4933429956436157,3.9492790699005127,0.4212455451488495,5.665696620941162,-5.8151679039001465,-0.5476493835449219,-3.9343650341033936,2.8431601524353027,-1.5178537368774414,-5.373757362365723,-5.1370720863342285,-1.3735710382461548,-3.583350896835327,-2.114988327026367,-1.8460434675216675,-5.328421115875244,-5.002495765686035,-1.5272341966629028,4.519980430603027,-0.9467198848724365,-3.224656105041504,-5.950589179992676,-3.846315383911133,-5.236618518829346,-4.098095893859863,3.278954029083252,4.994613170623779,3.375800371170044,3.7541050910949707,5.988349437713623,3.0742993354797363,1.1738156080245972,2.2212142944335938,2.667717218399048,5.773781776428223,3.914820671081543,4.755745887756348,2.825547218322754,5.96092414855957,2.818174362182617,6.101137638092041,3.20037841796875,3.9348373413085938,5.4096503257751465,3.6303317546844482,2.8607897758483887,-2.8724846839904785,-3.8120105266571045,-5.338206768035889,-3.9461896419525146,-3.2356748580932617,1.5984454154968262
24,0.0545925572514534,-2.8233816623687744,-6.012850284576416,-2.8719191551208496,-4.597131729125977,-2.483170747756958,-5.696048259735107,-2.676640272140503,-2.341966152191162,-0.6247711181640625,-3.443477153778076,3.649857521057129,-4.650856971740723,-3.618744373321533,-5.118474960327148,-3.0161821842193604,2.77034330368042,4.947129726409912,0.6951592564582825,2.5509212017059326,3.8636820316314697,0.5940621495246887,3.5330727100372314,6.1529412269592285,-6.013180255889893,6.086170673370361,-3.585904836654663,-0.5890248417854309,-3.615102529525757,-2.92736554145813,0.04130890220403671,-4.9732279777526855,-3.2300777435302734,-3.5738725662231445,-1.0394231081008911,-5.7791266441345215,5.006585597991943,-5.981169700622559,-4.225642204284668,-2.4785752296447754,-2.297642469406128,-6.119778633117676,-5.6638970375061035,-6.002067565917969,-0.07532911747694016,4.263131141662598,5.26204776763916,5.577879905700684,4.080803394317627,5.081004619598389,2.8210020065307617,1.3817100524902344,1.417151927947998,4.987895965576172,5.410460472106934,2.0434398651123047,2.1357879638671875,3.625164270401001,2.0471811294555664,1.3987150192260742,5.085623264312744,5.39262056350708,1.5145946741104126,3.92429518699646,0.4489883780479431,5.706867694854736,-5.773996829986572,-0.5199065208435059,-3.9593489170074463,2.8052732944488525,-1.4931386709213257,-5.400777816772461,-5.161547660827637,-1.3858976364135742,-3.601292371749878,-2.083836555480957,-1.856907606124878,-5.277823448181152,-4.976648330688477,-1.5018459558486938,4.548395156860352,-0.9817225337028503,-3.2479496002197266,-5.998870849609375,-3.892606735229492,-5.180382251739502,-4.158964157104492,3.218085765838623,5.050849437713623,3.3295090198516846,3.7058229446411133,6.016355991363525,3.0510058403015137,1.1388130187988281,2.2466025352478027,2.6935644149780273,5.827951908111572,3.858778715133667,4.731562614440918,2.8145599365234375,5.9908833503723145,2.8465452194213867,6.100950717926025,3.188825845718384,3.969022035598755,5.377354621887207,3.660008430480957,2.8336901664733887,-2.8995842933654785,-3.7823338508605957,-5.370502471923828,-3.9100961685180664,-3.2345566749572754,1.5868257284164429
25,0.08374083787202835,-2.839571714401245,-6.028812408447266,-2.839998722076416,-4.578657150268555,-2.369018316268921,-5.731433868408203,-2.7013378143310547,-2.371202230453491,-0.5819582343101501,-3.420189619064331,3.6866841316223145,-4.619607448577881,-3.5985777378082275,-5.183483123779297,-3.034501552581787,2.7002625465393066,4.960263729095459,0.6863723993301392,2.6157119274139404,3.934292793273926,0.5695829391479492,3.559321880340576,6.189887523651123,-5.976233959197998,6.086482048034668,-3.5596556663513184,-0.6135040521621704,-3.5503311157226562,-2.8772599697113037,0.03134971112012863,-4.952442169189453,-3.3001585006713867,-3.537045955657959,-1.00559401512146,-5.779231548309326,4.976590156555176,-6.006103992462158,-4.254840850830078,-2.4400224685668945,-2.275428533554077,-6.089395999908447,-5.5973219871521,-6.057987689971924,-0.028086870908737183,4.310373306274414,5.206127643585205,5.621584415435791,4.147378444671631,5.111387252807617,2.8432159423828125,1.4202628135681152,1.387953281402588,4.962961673736572,5.374480247497559,2.068509340286255,2.1031036376953125,3.6409692764282227,2.0606400966644287,1.41825532913208,5.109379768371582,5.407904148101807,1.4960719347000122,3.948253631591797,0.4216454029083252,5.673917293548584,-5.806947231292725,-0.5472494959831238,-3.9353904724121094,2.8433125019073486,-1.5135735273361206,-5.382732391357422,-5.137203216552734,-1.3683239221572876,-3.5854873657226562,-2.116520881652832,-1.8318382501602173,-5.313803672790527,-5.0017828941345215,-1.5314891338348389,4.535247802734375,-0.9431054592132568,-3.225109100341797,-5.968066215515137,-3.8256452083587646,-5.236798286437988,-4.109488010406494,3.267561912536621,4.994433403015137,3.396470546722412,3.7366278171539307,5.992613792419434,3.0738463401794434,1.1774300336837769,2.2169594764709473,2.6684298515319824,5.792566299438477,3.972931146621704,4.75003719329834,2.846480369567871,5.978773593902588,2.8285939693450928,6.100845813751221,3.195277690887451,3.9445221424102783,5.401371479034424,3.6361773014068604,2.8654987812042236,-2.8677756786346436,-3.8061649799346924,-5.346485614776611,-3.940364360809326,-3.2252321243286133,1.620654821395874
26,0.050870392471551895,-2.808166027069092,-5.985818862915039,-2.8606789112091064,-4.612368583679199,-2.468848943710327,-5.705117702484131,-2.6791939735412598,-2.3384127616882324,-0.6144646406173706,-3.4486284255981445,3.641052722930908,-4.6733808517456055,-3.6271235942840576,-5.131979465484619,-3.0005576610565186,2.698141574859619,4.949426651000977,0.6373382806777954,2.5461814403533936,3.8647515773773193,0.6047453284263611,3.5317201614379883,6.1524786949157715,-6.01364278793335,6.123569965362549,-3.5872573852539062,-0.5783416628837585,-3.619703769683838,-2.936843156814575,-0.017854169011116028,-4.971024036407471,-3.302279472351074,-3.5826773643493652,-1.0478034019470215,-5.792925834655762,4.910262107849121,-5.98411226272583,-4.22172212600708,-2.4729506969451904,-2.3057284355163574,-6.141796112060547,-5.660374164581299,-6.011135578155518,-0.058040957897901535,4.28041934967041,5.252979755401611,5.579808235168457,4.084326267242432,5.058987140655518,2.8129160404205322,1.3873345851898193,1.421072244644165,4.9849534034729,5.398159503936768,2.0309531688690186,2.1369152069091797,3.6185014247894287,2.046736717224121,1.3922631740570068,5.083383083343506,5.399771690368652,1.5148987770080566,3.9268691539764404,0.45629918575286865,5.712700843811035,-5.768163681030273,-0.5125957131385803,-3.956774950027466,2.807464838027954,-1.4912137985229492,-5.406836986541748,-5.164247512817383,-1.3966643810272217,-3.60795521736145,-2.082709312438965,-1.8693941831588745,-5.290124416351318,-4.979742050170898,-1.49878990650177,4.572186470031738,-0.9756213426589966,-3.255125045776367,-6.019413471221924,-3.8932361602783203,-5.190121650695801,-4.141077518463135,3.2359721660614014,5.041110038757324,3.3288795948028564,3.6852805614471436,6.01741886138916,3.043830394744873,1.144914150238037,2.2496585845947266,2.6904704570770264,5.818882465362549,3.873100519180298,4.716325759887695,2.8258001804351807,6.0227179527282715,2.8628087043762207,6.087151527404785,3.1801016330718994,3.962693214416504,5.375610828399658,3.6706762313842773,2.8412277698516846,-2.8920466899871826,-3.7716660499572754,-5.372246265411377,-3.9169116020202637,-3.234229564666748,1.5784454345703125
27,0.0617285817861557,-2.8359951972961426,-6.015919208526611,-2.821899652481079,-4.584326267242432,-2.3628780841827393,-5.719923973083496,-2.70282244682312,-2.377997636795044,-0.5764595866203308,-3.41772198677063,3.6787848472595215,-4.6443772315979,-3.6068403720855713,-5.178479194641113,-3.026789426803589,2.628108263015747,4.970630168914795,0.6260882616043091,2.614509344100952,3.9380033016204834,0.5796118974685669,3.5575151443481445,6.185810565948486,-5.980310916900635,6.125777721405029,-3.56146240234375,-0.6034750938415527,-3.5529308319091797,-2.8821871280670166,-0.030468616634607315,-4.943212985992432,-3.3723127841949463,-3.544945240020752,-1.00802481174469,-5.776464939117432,4.891291618347168,-6.007833957672119,-4.261170387268066,-2.438478469848633,-2.2754859924316406,-6.113417148590088,-5.58109712600708,-6.054409980773926,-0.03508920595049858,4.303371429443359,5.209705352783203,5.620791435241699,4.16360330581665,5.087366104125977,2.843158483505249,1.421806812286377,1.3816241025924683,4.961231708526611,5.38340425491333,2.089099407196045,2.096092939376831,3.650043487548828,2.061475992202759,1.4325313568115234,5.117398738861084,5.41534948348999,1.4925897121429443,3.9500205516815186,0.4187031090259552,5.683274745941162,-5.7975897789001465,-0.5501917600631714,-3.9336235523223877,2.8414173126220703,-1.5139858722686768,-5.390760898590088,-5.130133628845215,-1.3577287197113037,-3.576413154602051,-2.1235315799713135,-1.8112479448318481,-5.304879665374756,-5.00363826751709,-1.5387367010116577,4.542163372039795,-0.9409500956535339,-3.224496364593506,-5.990479469299316,-3.8194479942321777,-5.232212066650391,-4.116774082183838,3.2602758407592773,4.999019622802734,3.402667760848999,3.714214563369751,5.99503231048584,3.0744590759277344,1.1795854568481445,2.209711790084839,2.666574001312256,5.804076194763184,3.9790713787078857,4.744368076324463,2.864579439163208,5.995302200317383,2.8346712589263916,6.103612422943115,3.194658041000366,3.9509854316711426,5.400277614593506,3.642441987991333,2.87083101272583,-2.862443447113037,-3.7999002933502197,-5.347579479217529,-3.935065984725952,-3.213402509689331,1.618224024772644
28,0.04727336764335632,-2.7954258918762207,-5.9708781242370605,-2.858278512954712,-4.619443416595459,-2.434880256652832,-5.708987712860107,-2.678740978240967,-2.333346366882324,-0.6064216494560242,-3.4489150047302246,3.6375346183776855,-4.693511486053467,-3.6233787536621094,-5.142938137054443,-2.9859187602996826,2.6207046508789062,4.951348304748535,0.5823509693145752,2.5546696186065674,3.879227876663208,0.6185956597328186,3.5356051921844482,6.151651382446289,-6.014470100402832,6.155393123626709,-3.5833723545074463,-0.564491331577301,-3.6116437911987305,-2.9353525638580322,-0.07429324835538864,-4.97088623046875,-3.379716396331787,-3.586195468902588,-1.0438917875289917,-5.791113376617432,4.8266754150390625,-5.9839324951171875,-4.216134548187256,-2.468921661376953,-2.308065176010132,-6.1615753173828125,-5.63241720199585,-6.021994590759277,-0.04698203131556511,4.291478633880615,5.242120742797852,5.57994270324707,4.112283229827881,5.039207935333252,2.810579299926758,1.3913636207580566,1.4266599416732788,4.985133171081543,5.3925065994262695,2.03346848487854,2.136349678039551,3.61409592628479,2.0432381629943848,1.3873542547225952,5.082831382751465,5.397435188293457,1.5176502466201782,3.9265847206115723,0.4645645320415497,5.7194294929504395,-5.761435031890869,-0.5043303370475769,-3.957059383392334,2.8083553314208984,-1.4864475727081299,-5.4194016456604,-5.167031764984131,-1.4054495096206665,-3.612360715866089,-2.0832748413085938,-1.8668791055679321,-5.295777320861816,-4.97970724105835,-1.4940862655639648,4.59627103805542,-0.9706336259841919,-3.256934881210327,-6.037618637084961,-3.8747763633728027,-5.200135231018066,-4.130170822143555,3.2468786239624023,5.031096458435059,3.347339391708374,3.6670749187469482,6.021911144256592,3.042020559310913,1.1499019861221313,2.254362106323242,2.690504550933838,5.815012454986572,3.907069206237793,4.7092509269714355,2.828200578689575,6.041782855987549,2.8786401748657227,6.088963985443115,3.1704301834106445,3.957197427749634,5.3701090812683105,3.6859123706817627,2.8476853370666504,-2.885589122772217,-3.75642991065979,-5.377748012542725,-3.9176647663116455,-3.2359893321990967,1.5823570489883423
29,0.04742054641246796,-2.837157726287842,-6.000974178314209,-2.8154962062835693,-4.59719705581665,-2.361786365509033,-5.713536739349365,-2.7078495025634766,-2.3860201835632324,-0.5697500109672546,-3.421184539794922,3.6635701656341553,-4.669135093688965,-3.617326259613037,-5.174564361572266,-3.015383005142212,2.5536985397338867,4.971329689025879,0.5706620812416077,2.610752582550049,3.937121868133545,0.5881695747375488,3.5583040714263916,6.183696746826172,-5.982424736022949,6.1648478507995605,-3.560673475265503,-0.5949174165725708,-3.5587453842163086,-2.8901968002319336,-0.08762284368276596,-4.945400714874268,-3.4467225074768066,-3.560159921646118,-1.0201987028121948,-5.772975921630859,4.804155349731445,-6.013000965118408,-4.268441677093506,-2.435842990875244,-2.280324935913086,-6.137705326080322,-5.573363304138184,-6.053002834320068,-0.035860031843185425,4.302600383758545,5.2111124992370605,5.61525297164917,4.171337127685547,5.063077926635742,2.8383195400238037,1.4244420528411865,1.3743528127670288,4.956064701080322,5.3881025314331055,2.0903213024139404,2.0957329273223877,3.654099941253662,2.054332971572876,1.4284641742706299,5.126238822937012,5.43223237991333,1.4819426536560059,3.9552886486053467,0.4142853915691376,5.691525459289551,-5.789339065551758,-0.5546094179153442,-3.9283554553985596,2.8409926891326904,-1.5200530290603638,-5.391894340515137,-5.1242899894714355,-1.3656320571899414,-3.572356700897217,-2.123891592025757,-1.8100262880325317,-5.3001813888549805,-5.008979797363281,-1.5471044778823853,4.5461273193359375,-0.937199056148529,-3.2291371822357178,-6.013023376464844,-3.821120023727417,-5.2298784255981445,-4.118794918060303,3.258254289627075,5.0013532638549805,3.4009957313537598,3.6916706562042236,5.994365215301514,3.0698182582855225,1.183336615562439,2.2013437747955322,2.6612322330474854,5.8104634284973145,3.980163097381592,4.731497287750244,2.8709828853607178,6.013697147369385,2.8396763801574707,6.1071014404296875,3.198781728744507,3.955580949783325,5.404335975646973,3.650691509246826,2.879234552383423,-2.8540399074554443,-3.7916507720947266,-5.3435211181640625,-3.926725387573242,-3.1956558227539062,1.6060501337051392
30,0.041534844785928726,-2.7969398498535156,-5.965033531188965,-2.857900857925415,-4.626853942871094,-2.406266927719116,-5.7103471755981445,-2.6747167110443115,-2.3315913677215576,-0.6003493070602417,-3.448011636734009,3.631179094314575,-4.7123847007751465,-3.6256654262542725,-5.149651050567627,-2.9777135848999023,2.5471534729003906,4.9572553634643555,0.5316859483718872,2.5617220401763916,3.893359422683716,0.6318162679672241,3.5419137477874756,6.149492263793945,-6.016629219055176,6.186936855316162,-3.577063798904419,-0.5512707233428955,-3.6032605171203613,-2.934796094894409,-0.12674197554588318,-4.967569351196289,-3.4532675743103027,-3.5925509929656982,-1.0402120351791382,-5.78862190246582,4.753005504608154,-5.9801411628723145,-4.213231086730957,-2.466446876525879,-2.3078041076660156,-6.180809020996094,-5.605700969696045,-6.030189514160156,-0.041254058480262756,4.297206401824951,5.233925819396973,5.575788497924805,4.1389994621276855,5.019974231719971,2.810840368270874,1.3938379287719727,1.4295634031295776,4.988924503326416,5.3898515701293945,2.0440011024475098,2.1299386024475098,3.6130833625793457,2.03857159614563,1.3872575759887695,5.090595245361328,5.384633541107178,1.5288177728652954,3.9224483966827393,0.46985363960266113,5.727053642272949,-5.753810882568359,-0.49904119968414307,-3.961195707321167,2.8084025382995605,-1.472942590713501,-5.441391944885254,-5.164321422576904,-1.408726453781128,-3.613373279571533,-2.0896859169006348,-1.8563464879989624,-5.298432350158691,-4.97605562210083,-1.4922027587890625,4.614150524139404,-0.9671093821525574,-3.2567758560180664,-6.0551533699035645,-3.8564460277557373,-5.207425594329834,-4.1249566078186035,3.2520925998687744,5.023806095123291,3.3656697273254395,3.649540662765503,6.030278205871582,3.042179584503174,1.1534262895584106,2.2562453746795654,2.6941561698913574,5.813652992248535,3.935682535171509,4.701840400695801,2.828578233718872,6.0516357421875,2.8857100009918213,6.091455459594727,3.1514370441436768,3.9402642250061035,5.363489151000977,3.700495958328247,2.855020046234131,-2.8782544136047363,-3.7418463230133057,-5.384367942810059,-3.927952766418457,-3.246002435684204,1.5860368013381958
31,0.03627947345376015,-2.842698097229004,-5.990460395812988,-2.819366931915283,-4.611459732055664,-2.3585216999053955,-5.710685729980469,-2.714350700378418,-2.3893179893493652,-0.5632752776145935,-3.42683744430542,3.6484625339508057,-4.689679145812988,-3.6266140937805176,-5.172492027282715,-3.002225160598755,2.486097812652588,4.968251705169678,0.5225826501846313,2.606674909591675,3.9380764961242676,0.5886582732200623,3.560483932495117,6.18157434463501,-5.984547138214111,6.199225902557373,-3.5584936141967773,-0.5944287180900574,-3.5624663829803467,-2.9006717205047607,-0.13741859793663025,-4.952367782592773,-3.5143232345581055,-3.5752675533294678,-1.0270987749099731,-5.775235176086426,4.7270073890686035,-6.019860744476318,-4.270606517791748,-2.433314085006714,-2.2861714363098145,-6.158585548400879,-5.5665283203125,-6.053548812866211,-0.03522361442446709,4.303236961364746,5.210566520690918,5.608425617218018,4.1781721115112305,5.0421977043151855,2.832473039627075,1.4269707202911377,1.3721879720687866,4.949204921722412,5.389535427093506,2.086003065109253,2.097250461578369,3.6500556468963623,2.045079469680786,1.4181886911392212,5.133782863616943,5.453483581542969,1.4631268978118896,3.9631166458129883,0.41443535685539246,5.699745178222656,-5.781119346618652,-0.5544594526290894,-3.920527458190918,2.8410706520080566,-1.5325020551681519,-5.390378952026367,-5.122493743896484,-1.3791054487228394,-3.5764009952545166,-2.1223740577697754,-1.8143446445465088,-5.29874849319458,-5.01582670211792,-1.550368070602417,4.555440902709961,-0.9333718419075012,-3.2353873252868652,-6.032008171081543,-3.8213682174682617,-5.230062484741211,-4.119174003601074,3.2578749656677246,5.001169204711914,3.400747537612915,3.6726858615875244,5.991461277008057,3.063568115234375,1.1871638298034668,2.198080062866211,2.6543853282928467,5.813314437866211,3.9834277629852295,4.7172346115112305,2.867112159729004,6.027711868286133,2.8456969261169434,6.104842185974121,3.2111499309539795,3.9798583984375,5.404963493347168,3.6626224517822266,2.8865647315979004,-2.846709728240967,-3.779719829559326,-5.342893600463867,-3.893324136734009,-3.165689468383789,1.5991500616073608
32,0.032719727605581284,-2.8091611862182617,-5.9647536277771,-2.8568947315216064,-4.63701868057251,-2.3840959072113037,-5.710445880889893,-2.669542074203491,-2.33811616897583,-0.5943091511726379,-3.446775436401367,3.6223294734954834,-4.72817850112915,-3.631913900375366,-5.1533684730529785,-2.972090244293213,2.484121322631836,4.961189270019531,0.48838871717453003,2.566025733947754,3.9065144062042236,0.6377143263816833,3.5480644702911377,6.146637916564941,-6.01948356628418,6.216481685638428,-3.570913076400757,-0.5453726649284363,-3.595478057861328,-2.9387552738189697,-0.17195719480514526,-4.9671430587768555,-3.5162997245788574,-3.60140061378479,-1.0378438234329224,-5.788746356964111,4.688035488128662,-5.975762844085693,-4.21809196472168,-2.4643678665161133,-2.307049512863159,-6.197451591491699,-5.584537982940674,-6.036202430725098,-0.0384020172059536,4.300058364868164,5.227912902832031,5.569614410400391,4.160162448883057,5.003331661224365,2.8115949630737305,1.3959169387817383,1.4247021675109863,4.993302822113037,5.388532638549805,2.0532493591308594,2.1236772537231445,3.6139988899230957,2.033363103866577,1.3877149820327759,5.102725028991699,5.379809379577637,1.5452433824539185,3.9159696102142334,0.4675705134868622,5.733957767486572,-5.746906757354736,-0.5013242959976196,-3.967674493789673,2.8085527420043945,-1.4535847902297974,-5.461078643798828,-5.158580303192139,-1.4108577966690063,-3.612457752227783,-2.095947265625,-1.847098469734192,-5.299751281738281,-4.971471309661865,-1.4980173110961914,4.619739532470703,-0.963599681854248,-3.25650691986084,-6.069602966308594,-3.8419888019561768,-5.212865352630615,-4.123481750488281,3.2535672187805176,5.01836633682251,3.380126953125,3.6350910663604736,6.039122581481934,3.0424485206604004,1.1569359302520752,2.2504308223724365,2.6987409591674805,5.813554286956787,3.9578535556793213,4.691675662994385,2.8295843601226807,6.0557780265808105,2.8859188556671143,6.0913310050964355,3.1248691082000732,3.896256923675537,5.370280742645264,3.711139440536499,2.8643484115600586,-2.8689260482788086,-3.7312028408050537,-5.3775763511657715,-3.9704720973968506,-3.257025957107544,1.5884050130844116
33,0.026260899379849434,-2.851440191268921,-5.983853816986084,-2.8273065090179443,-4.625276565551758,-2.3567919731140137,-5.710224151611328,-2.7170796394348145,-2.3876211643218994,-0.5572995543479919,-3.4300460815429688,3.6357903480529785,-4.706120014190674,-3.632340669631958,-5.17110013961792,-2.992203712463379,2.4310760498046875,4.963502883911133,0.48330140113830566,2.600567579269409,3.9384243488311768,0.5870703458786011,3.563692808151245,6.177454471588135,-5.988667011260986,6.226288795471191,-3.5552847385406494,-0.5960166454315186,-3.5664243698120117,-2.9160337448120117,-0.17814728617668152,-4.9616875648498535,-3.569344997406006,-3.587939739227295,-1.0312952995300293,-5.777731418609619,4.661069869995117,-6.024381160736084,-4.266900062561035,-2.4323933124542236,-2.291701078414917,-6.175622463226318,-5.561522006988525,-6.055107116699219,-0.03296182304620743,4.3054986000061035,5.20900821685791,5.600588798522949,4.183178424835205,5.025160789489746,2.8269433975219727,1.4278913736343384,1.3758941888809204,4.9446845054626465,5.388703346252441,2.0806844234466553,2.099421739578247,3.6439549922943115,2.0363476276397705,1.40882408618927,5.139209747314453,5.4582390785217285,1.455686092376709,3.9686636924743652,0.42055875062942505,5.708649635314941,-5.772214889526367,-0.5483360290527344,-3.914980411529541,2.840056896209717,-1.5364426374435425,-5.401319980621338,-5.123369216918945,-1.3909883499145508,-3.5825016498565674,-2.1202027797698975,-1.8196632862091064,-5.2995805740356445,-5.019594669342041,-1.547196626663208,4.5697808265686035,-0.9301328063011169,-3.2411985397338867,-6.04606819152832,-3.8218982219696045,-5.231613636016846,-4.119698524475098,3.257350206375122,4.999618053436279,3.4002175331115723,3.658625841140747,5.990898132324219,3.0577569007873535,1.1904027462005615,2.20125150680542,2.6506175994873047,5.813776016235352,3.9851574897766113,4.703417778015137,2.8591725826263428,6.03751277923584,2.851423740386963,6.102345943450928,3.2130014896392822,3.9985334873199463,5.390188694000244,3.67753267288208,2.890306234359741,-2.842968225479126,-3.7648096084594727,-5.357668399810791,-3.866614818572998,-3.15423846244812,1.5949535369873047
34,0.02321392297744751,-2.823697566986084,-5.968095302581787,-2.856283187866211,-4.6470947265625,-2.3671987056732178,-5.70875883102417,-2.667569637298584,-2.3489418029785156,-0.5865468978881836,-3.4421937465667725,3.614574670791626,-4.740189552307129,-3.6371543407440186,-5.153719902038574,-2.96854567527771,2.4336907863616943,4.96257209777832,0.4535360038280487,2.5728211402893066,3.9216623306274414,0.6381565928459167,3.5534839630126953,6.143527507781982,-6.022593975067139,6.238354206085205,-3.565493583679199,-0.5449303984642029,-3.585897207260132,-2.944079875946045,-0.20845270156860352,-4.9692487716674805,-3.566730260848999,-3.6091554164886475,-1.0369528532028198,-5.785767555236816,4.631804466247559,-5.975592136383057,-4.226429462432861,-2.462289333343506,-2.3063316345214844,-6.209972381591797,-5.568347454071045,-6.039794921875,-0.037072960287332535,4.301387310028076,5.224320411682129,5.563904762268066,4.1763529777526855,4.990810871124268,2.8123128414154053,1.3979954719543457,1.4163647890090942,4.993473529815674,5.388978004455566,2.0605430603027344,2.1195390224456787,3.616464614868164,2.028611898422241,1.3885488510131836,5.113649368286133,5.398950576782227,1.536049246788025,3.915527105331421,0.462203711271286,5.7399582862854,-5.740906238555908,-0.506691038608551,-3.9681169986724854,2.8091113567352295,-1.458622694015503,-5.461759567260742,-5.152578353881836,-1.4119937419891357,-3.609992027282715,-2.100085496902466,-1.8398046493530273,-5.2993059158325195,-4.970350742340088,-1.5066497325897217,4.619372367858887,-0.9589902758598328,-3.255789279937744,-6.078885555267334,-3.8317410945892334,-5.21592378616333,-4.125654220581055,3.251394271850586,5.015307903289795,3.3903746604919434,3.6258084774017334,6.043399333953857,3.043166160583496,1.1615451574325562,2.2417984008789062,2.699861526489258,5.81524133682251,3.9747507572174072,4.6815996170043945,2.830195903778076,6.055547714233398,2.883204460144043,6.0943098068237305,3.133025884628296,3.907351016998291,5.380514144897461,3.717648506164551,2.871068239212036,-2.862206220626831,-3.724693775177002,-5.367342948913574,-3.9571077823638916,-3.23691987991333,1.5892959833145142
35,0.01955127902328968,-2.859590768814087,-5.981904029846191,-2.833696126937866,-4.6361083984375,-2.3575215339660645,-5.711350440979004,-2.7161285877227783,-2.385920763015747,-0.5502364039421082,-3.4302573204040527,3.6272521018981934,-4.7171173095703125,-3.6350173950195312,-5.169206142425537,-2.98559832572937,2.3877925872802734,4.960169315338135,0.45187363028526306,2.5972390174865723,3.94064998626709,0.59242844581604,3.5652549266815186,6.173961162567139,-5.992160320281982,6.245213985443115,-3.553722620010376,-0.5906585454940796,-3.5679314136505127,-2.9310121536254883,-0.21078532934188843,-4.968717098236084,-3.61262845993042,-3.59647798538208,-1.0327173471450806,-5.776150226593018,4.6060051918029785,-6.024899482727051,-4.263001441955566,-2.430530309677124,-2.29599666595459,-6.186779499053955,-5.55923318862915,-6.056741237640381,-0.028841406106948853,4.3096184730529785,5.207374095916748,5.59514856338501,4.18546724319458,5.014003753662109,2.8226478099823,1.429754614830017,1.37979257106781,4.94416618347168,5.386407375335693,2.0749709606170654,2.101357936859131,3.639568328857422,2.029728412628174,1.4004100561141968,5.142887592315674,5.453916072845459,1.4705854654312134,3.9666543006896973,0.42761731147766113,5.714332580566406,-5.766531944274902,-0.5412774085998535,-3.916989803314209,2.840381622314453,-1.5198843479156494,-5.422135353088379,-5.124164581298828,-1.4011096954345703,-3.586888313293457,-2.1182665824890137,-1.8253767490386963,-5.301876544952393,-5.019464492797852,-1.5435006618499756,4.582775592803955,-0.9259562492370605,-3.24531626701355,-6.054506301879883,-3.823606252670288,-5.232712745666504,-4.119661331176758,3.257387399673462,4.998518943786621,3.3985095024108887,3.6501874923706055,5.994769096374512,3.0536391735076904,1.1945792436599731,2.2049472332000732,2.650747537612915,5.812649726867676,3.9844279289245605,4.6925859451293945,2.852782964706421,6.042121410369873,2.855414390563965,6.103927135467529,3.1921026706695557,3.970456838607788,5.38593053817749,3.6918396949768066,2.8939385414123535,-2.8393359184265137,-3.750502586364746,-5.361926555633545,-3.8920528888702393,-3.1720144748687744,1.5935314893722534
36,0.013595270924270153,-2.834719657897949,-5.973453521728516,-2.856684684753418,-4.655364036560059,-2.3534934520721436,-5.705377578735352,-2.6706767082214355,-2.3569722175598145,-0.5810615420341492,-3.4382786750793457,3.6088006496429443,-4.749626159667969,-3.6445436477661133,-5.150624752044678,-2.966681718826294,2.396571159362793,4.963729381561279,0.4252883493900299,2.578228235244751,3.9317502975463867,0.639874279499054,3.557671308517456,6.1392292976379395,-6.026892185211182,6.256567001342773,-3.5613062381744385,-0.5432127118110657,-3.5809779167175293,-2.951807975769043,-0.2379136085510254,-4.971444129943848,-3.6038498878479004,-3.614929437637329,-1.0351029634475708,-5.783555030822754,4.5853047370910645,-5.979646682739258,-4.232870578765869,-2.4611740112304688,-2.305469274520874,-6.219483375549316,-5.5561909675598145,-6.040919780731201,-0.03822387009859085,4.300236225128174,5.223195552825928,5.558671474456787,4.188509464263916,4.981299877166748,2.8131752014160156,1.3991107940673828,1.4099234342575073,4.989418983459473,5.3910627365112305,2.0677778720855713,2.1172096729278564,3.6169936656951904,2.0254223346710205,1.3897147178649902,5.121281147003174,5.424686908721924,1.517716407775879,3.9215638637542725,0.4590880572795868,5.746317386627197,-5.734547138214111,-0.5098066926002502,-3.962080240249634,2.808929920196533,-1.4732060432434082,-5.45819091796875,-5.147957801818848,-1.412234902381897,-3.6094629764556885,-2.102414846420288,-1.8325698375701904,-5.2972211837768555,-4.973918914794922,-1.5133976936340332,4.620340824127197,-0.9560755491256714,-3.2548086643218994,-6.086219787597656,-3.8240983486175537,-5.215991497039795,-4.129750728607178,3.247298240661621,5.01524019241333,3.398017406463623,3.618473768234253,6.043228626251221,3.044146776199341,1.1644600629806519,2.2350502014160156,2.6962928771972656,5.818622589111328,3.9884560108184814,4.673330307006836,2.829794406890869,6.053435802459717,2.8809292316436768,6.096522331237793,3.1517584323883057,3.9253480434417725,5.375443935394287,3.7219512462615967,2.869899034500122,-2.863375425338745,-3.720391035079956,-5.372413158416748,-3.9366090297698975,-3.212200880050659,1.5911458730697632
37,0.013054040260612965,-2.8656721115112305,-5.982754230499268,-2.837709665298462,-4.643585205078125,-2.3636133670806885,-5.715630531311035,-2.7122249603271484,-2.3857219219207764,-0.5434634685516357,-3.431227922439575,3.622191905975342,-4.723511695861816,-3.6373958587646484,-5.168816566467285,-2.981931209564209,2.35567307472229,4.956742763519287,0.4284507632255554,2.597975730895996,3.946202278137207,0.6023908257484436,3.5655922889709473,6.171887397766113,-5.994234085083008,6.2621307373046875,-3.5533852577209473,-0.580696165561676,-3.566364049911499,-2.9421370029449463,-0.2352064698934555,-4.975107192993164,-3.6447479724884033,-3.6015381813049316,-1.0313026905059814,-5.7757792472839355,4.560853004455566,-6.021546840667725,-4.261510848999023,-2.427173614501953,-2.298966884613037,-6.193211078643799,-5.561042308807373,-6.060365200042725,-0.02202860452234745,4.316431522369385,5.203750133514404,5.59250020980835,4.183658123016357,5.007572174072266,2.8196775913238525,1.4331114292144775,1.381283164024353,4.947518825531006,5.3810505867004395,2.067091703414917,2.1029837131500244,3.6353578567504883,2.0253870487213135,1.3912017345428467,5.145507335662842,5.457948684692383,1.479522705078125,3.962205171585083,0.43269914388656616,5.717446804046631,-5.763417720794678,-0.5361956357955933,-3.9214389324188232,2.8424668312072754,-1.5085933208465576,-5.437796592712402,-5.124250888824463,-1.4112838506698608,-3.5910987854003906,-2.11664080619812,-1.8332558870315552,-5.3072333335876465,-5.0160040855407715,-1.5423351526260376,4.592482089996338,-0.9213640689849854,-3.2482519149780273,-6.059460639953613,-3.8271827697753906,-5.2352800369262695,-4.116216659545898,3.2608320713043213,4.9959516525268555,3.394932985305786,3.645233154296875,6.0022478103637695,3.050703525543213,1.199171543121338,2.206112861633301,2.654207229614258,5.8083696365356445,3.9783360958099365,4.6851091384887695,2.848769426345825,6.044574737548828,2.8575894832611084,6.104298114776611,3.1808907985687256,3.9506802558898926,5.384843826293945,3.7022080421447754,2.8968896865844727,-2.8363847732543945,-3.7401342391967773,-5.36301326751709,-3.9100141525268555,-3.1789848804473877,1.5949461460113525
38,-0.0012187156826257706,-2.843217372894287,-5.980801105499268,-2.855353355407715,-4.661308288574219,-2.3387396335601807,-5.69783878326416,-2.675816535949707,-2.362755537033081,-0.578130841255188,-3.4346237182617188,3.604771614074707,-4.756989479064941,-3.656198740005493,-5.145195007324219,-2.9669408798217773,2.3719546794891357,4.965352535247803,0.4042913019657135,2.581672430038452,3.937159538269043,0.6407694220542908,3.561443567276001,6.1334228515625,-6.032698631286621,6.274537563323975,-3.5575339794158936,-0.5423175692558289,-3.5803682804107666,-2.960305690765381,-0.25984638929367065,-4.973088264465332,-3.6284663677215576,-3.6189584732055664,-1.0322257280349731,-5.784111022949219,4.549028396606445,-5.985263347625732,-4.237554550170898,-2.4612555503845215,-2.303145408630371,-6.226942539215088,-5.544693470001221,-6.0403666496276855,-0.04376498982310295,4.2946953773498535,5.223748683929443,5.55401086807251,4.20000696182251,4.973840713500977,2.8154990673065186,1.3990293741226196,1.4052397012710571,4.983802318572998,5.396907329559326,2.0794036388397217,2.115370512008667,3.617053508758545,2.0245413780212402,1.3937740325927734,5.126753807067871,5.443183898925781,1.50799560546875,3.9277374744415283,0.4581754803657532,5.752251625061035,-5.728612899780273,-0.5107192993164062,-3.955906629562378,2.8077402114868164,-1.479422688484192,-5.46143913269043,-5.144340515136719,-1.4090163707733154,-3.609403133392334,-2.1042540073394775,-1.820943832397461,-5.29137659072876,-4.979513645172119,-1.5184282064437866,4.622990608215332,-0.9551773071289062,-3.2525129318237305,-6.09244966506958,-3.8163700103759766,-5.213895797729492,-4.1376051902771,3.23944354057312,5.017335891723633,3.4057457447052,3.612244129180908,6.040873050689697,3.0464425086975098,1.165358304977417,2.230020046234131,2.69069766998291,5.8261613845825195,4.003209590911865,4.667386054992676,2.8311257362365723,6.050252914428711,2.879223585128784,6.095966339111328,3.1619575023651123,3.9307446479797363,5.371033191680908,3.7252776622772217,2.8675684928894043,-2.865705966949463,-3.717064619064331,-5.376823902130127,-3.9296836853027344,-3.1968700885772705,1.5940231084823608
39,0.002320173429325223,-2.8688430786132812,-5.983048915863037,-2.8417768478393555,-4.64818811416626,-2.377532958984375,-5.7254719734191895,-2.707876205444336,-2.3866186141967773,-0.5374534130096436,-3.433502197265625,3.6193864345550537,-4.7270050048828125,-3.637404680252075,-5.1718525886535645,-2.9797892570495605,2.3341643810272217,4.952025413513184,0.4127783179283142,2.599700450897217,3.9518070220947266,0.6106016039848328,3.5654263496398926,6.169663429260254,-5.996458053588867,6.278370380401611,-3.553551197052002,-0.5724853873252869,-3.5651538372039795,-2.950488805770874,-0.25170692801475525,-4.98274564743042,-3.6662566661834717,-3.6043436527252197,-1.0280182361602783,-5.77852201461792,4.524713516235352,-6.0175275802612305,-4.261347770690918,-2.4237327575683594,-2.302212953567505,-6.196895599365234,-5.567965030670166,-6.066689491271973,-0.009427102282643318,4.329033374786377,5.197425842285156,5.5914411544799805,4.1767354011535645,5.00388765335083,2.8164315223693848,1.4365522861480713,1.3814467191696167,4.9515380859375,5.369887828826904,2.053086519241333,2.105717658996582,3.62914776802063,2.0230915546417236,1.377010464668274,5.145781517028809,5.46610689163208,1.4839954376220703,3.9579830169677734,0.4367998540401459,5.71925687789917,-5.761607646942139,-0.5320948958396912,-3.925661087036133,2.8448524475097656,-1.5009198188781738,-5.450515270233154,-5.125532627105713,-1.4255051612854004,-3.597308874130249,-2.1139068603515625,-1.8472610712051392,-5.318396091461182,-5.012022495269775,-1.5424914360046387,4.600285053253174,-0.9171867370605469,-3.2515673637390137,-6.062195301055908,-3.8335862159729004,-5.24090051651001,-4.106723308563232,3.270324945449829,4.990331172943115,3.3885295391082764,3.642498016357422,6.009518146514893,3.0473880767822266,1.2033488750457764,2.2059566974639893,2.658189058303833,5.79852819442749,3.964416265487671,4.680506229400635,2.8447022438049316,6.048726558685303,2.8602445125579834,6.101555347442627,3.175776958465576,3.939312696456909,5.382348537445068,3.709972381591797,2.8997347354888916,-2.8335397243499756,-3.732369899749756,-5.365508556365967,-3.9202325344085693,-3.1797118186950684,1.5982306003570557
40,-0.02896038256585598,-2.8520469665527344,-5.991621971130371,-2.850884437561035,-4.664076328277588,-2.3222708702087402,-5.682859897613525,-2.6801791191101074,-2.367799997329712,-0.5755789279937744,-3.4292914867401123,3.6029655933380127,-4.761590480804443,-3.6730148792266846,-5.137935161590576,-2.9712250232696533,2.3565378189086914,4.968895435333252,0.3904550075531006,2.5850253105163574,3.941634178161621,0.6398626565933228,3.5644052028656006,6.127700328826904,-6.038421154022217,6.293369770050049,-3.554572343826294,-0.5432243347167969,-3.5809552669525146,-2.967571258544922,-0.27443623542785645,-4.972678184509277,-3.643883228302002,-3.6207644939422607,-1.0286669731140137,-5.790828704833984,4.523593425750732,-5.989992141723633,-4.241593837738037,-2.461214542388916,-2.298457384109497,-6.231748580932617,-5.5330119132995605,-6.036429405212402,-0.05527906119823456,4.283181190490723,5.227685928344727,5.551366806030273,4.21168851852417,4.969034671783447,2.8201870918273926,1.3990705013275146,1.4012006521224976,4.979073524475098,5.409090995788574,2.098496675491333,2.112840414047241,3.6179120540618896,2.027076005935669,1.4034407138824463,5.132064342498779,5.459658622741699,1.5023512840270996,3.9324662685394287,0.45827537775039673,5.756400108337402,-5.724464416503906,-0.5106193423271179,-3.9511778354644775,2.8068792819976807,-1.481169581413269,-5.466869354248047,-5.140229225158691,-1.399431586265564,-3.6085445880889893,-2.1067841053009033,-1.8018509149551392,-5.279192924499512,-4.9843363761901855,-1.5227419137954712,4.626030445098877,-0.9544589519500732,-3.247868061065674,-6.096412658691406,-3.807380199432373,-5.209460735321045,-4.15136194229126,3.225686550140381,5.02177095413208,3.4147355556488037,3.608280897140503,6.038527488708496,3.0510873794555664,1.1660765409469604,2.225706100463867,2.685875177383423,5.841140270233154,4.019678592681885,4.664618015289307,2.835594654083252,6.0447998046875,2.876236915588379,6.0892486572265625,3.168544054031372,3.9324262142181396,5.368127346038818,3.7269561290740967,2.866041898727417,-2.86723256111145,-3.715386152267456,-5.379729747772217,-3.927337169647217,-3.1862926483154297,1.5975818634033203
41,-0.01936577446758747,-2.868476152420044,-5.982284069061279,-2.848135471343994,-4.650719165802002,-2.3925647735595703,-5.738160133361816,-2.704061269760132,-2.387511730194092,-0.5336956977844238,-3.4376068115234375,3.617849349975586,-4.730067729949951,-3.635117530822754,-5.180677890777588,-2.980356216430664,2.3220129013061523,4.946151256561279,0.4025586247444153,2.601278066635132,3.9561989307403564,0.616113007068634,3.5649914741516113,6.165400981903076,-6.000720500946045,6.294682502746582,-3.553986072540283,-0.5669739842414856,-3.5657927989959717,-2.957655429840088,-0.26262548565864563,-4.992002010345459,-3.678408145904541,-3.6058807373046875,-1.021003007888794,-5.788565158843994,4.4988508224487305,-6.013999938964844,-4.26121711730957,-2.422074556350708,-2.306959867477417,-6.200333118438721,-5.57872200012207,-6.073977947235107,0.0069845980033278465,4.345444679260254,5.1901373863220215,5.589595794677734,4.16597843170166,5.000450134277344,2.8116846084594727,1.438210368156433,1.381577491760254,4.955065727233887,5.3544535636901855,2.0367419719696045,2.1107876300811768,3.6183619499206543,2.023740530014038,1.356765627861023,5.142368316650391,5.475842475891113,1.4866982698440552,3.9544951915740967,0.4410629868507385,5.721421241760254,-5.759443283081055,-0.5278316736221313,-3.9291489124298096,2.845654010772705,-1.4942597150802612,-5.46242094039917,-5.129660129547119,-1.4446479082107544,-3.6080946922302246,-2.1088368892669678,-1.8636057376861572,-5.3338303565979,-5.008585453033447,-1.5426195859909058,4.607630252838135,-0.914973258972168,-3.2563657760620117,-6.064923286437988,-3.8405849933624268,-5.250442028045654,-4.092551231384277,3.284496784210205,4.980789661407471,3.38153076171875,3.639770269393921,6.015326499938965,3.0425896644592285,1.2055622339248657,2.2058284282684326,2.661626100540161,5.785840034484863,3.9493846893310547,4.677975177764893,2.838343620300293,6.055209636688232,2.864595413208008,6.091512203216553,3.1728436946868896,3.9322729110717773,5.378880500793457,3.7165377140045166,2.9009783267974854,-2.832296133041382,-3.725804567337036,-5.368976593017578,-3.9269556999206543,-3.179534435272217,1.60524582862854
42,-0.07100550830364227,-2.863344669342041,-6.005222320556641,-2.8436732292175293,-4.664797782897949,-2.316636562347412,-5.669816017150879,-2.683640718460083,-2.372941732406616,-0.570672869682312,-3.422990322113037,3.6034653186798096,-4.762160301208496,-3.6923584938049316,-5.13629674911499,-2.980942726135254,2.3457682132720947,4.973120212554932,0.3832937180995941,2.588901996612549,3.946166515350342,0.6380181908607483,3.5662765502929688,6.1245646476745605,-6.0415568351745605,6.31466817855835,-3.552700996398926,-0.5450688004493713,-3.581413984298706,-2.9729344844818115,-0.2822178900241852,-4.970799922943115,-3.6546528339385986,-3.620264768600464,-1.0259759426116943,-5.812460422515869,4.507915496826172,-5.99378776550293,-4.245862007141113,-2.458782911300659,-2.292663335800171,-6.232694149017334,-5.528949737548828,-6.029808044433594,-0.06140555441379547,4.277054786682129,5.234307289123535,5.552463531494141,4.215750694274902,4.9680891036987305,2.8259811401367188,1.401502251625061,1.396932601928711,4.975277900695801,5.417596340179443,2.1117594242095947,2.1100025177001953,3.6186351776123047,2.0335819721221924,1.4115492105484009,5.138768196105957,5.475452423095703,1.4986459016799927,3.9360756874084473,0.45837828516960144,5.75685453414917,-5.724009990692139,-0.5105164051055908,-3.947568416595459,2.808605432510376,-1.4807294607162476,-5.472788333892822,-5.134291648864746,-1.3903529644012451,-3.607821464538574,-2.109622001647949,-1.788588285446167,-5.270687580108643,-4.98825740814209,-1.5271872282028198,4.628252029418945,-0.9513141512870789,-3.2419636249542236,-6.096643447875977,-3.8008813858032227,-5.207740783691406,-4.159642219543457,3.2174057960510254,5.023490905761719,3.421234369277954,3.6080496311187744,6.03640604019165,3.0569918155670166,1.16922128200531,2.2212607860565186,2.6819541454315186,5.854184150695801,4.025312423706055,4.663896560668945,2.842805862426758,6.037166595458984,2.8703248500823975,6.067616939544678,3.173337697982788,3.9332809448242188,5.3664655685424805,3.726266622543335,2.8670146465301514,-2.866259813308716,-3.7160756587982178,-5.381391525268555,-3.9264345169067383,-3.1787421703338623,1.6002728939056396
43,-0.0570468045771122,-2.865504741668701,-5.984099388122559,-2.855534076690674,-4.651906490325928,-2.392488718032837,-5.734918117523193,-2.7011265754699707,-2.387922763824463,-0.5335085391998291,-3.4414255619049072,3.618042469024658,-4.734602928161621,-3.640944004058838,-5.189620494842529,-2.984001636505127,2.3171701431274414,4.940485000610352,0.3960390090942383,2.60302734375,3.9595797061920166,0.6206070184707642,3.564190626144409,6.15768575668335,-6.0084357261657715,6.312511920928955,-3.5547869205474854,-0.5624799728393555,-3.5676827430725098,-2.963765859603882,-0.2697393298149109,-5.001064300537109,-3.683250904083252,-3.6056876182556152,-1.008625864982605,-5.81082820892334,4.483863353729248,-6.0113525390625,-4.260741710662842,-2.423846960067749,-2.3115131855010986,-6.2052788734436035,-5.584893226623535,-6.073282718658447,0.009680014103651047,4.348140239715576,5.190832614898682,5.5853376388549805,4.159807205200195,4.995504379272461,2.807131290435791,1.4364383220672607,1.3820533752441406,4.9577131271362305,5.35249662399292,2.036553382873535,2.115384101867676,3.6045162677764893,2.028670310974121,1.3468091487884521,5.1377272605896,5.484416484832764,1.4885509014129639,3.951993703842163,0.44575703144073486,5.725665092468262,-5.755199432373047,-0.5231376886367798,-3.931650400161743,2.843217134475708,-1.4885023832321167,-5.473846435546875,-5.134454727172852,-1.4531700611114502,-3.6219403743743896,-2.1042404174804688,-1.8637945652008057,-5.335787296295166,-5.006019115447998,-1.5423005819320679,4.6147589683532715,-0.9160380959510803,-3.2607975006103516,-6.069173812866211,-3.840721607208252,-5.257347583770752,-4.090760231018066,3.286287784576416,4.973884105682373,3.381394147872925,3.63551926612854,6.019589424133301,3.0381579399108887,1.2044973373413086,2.2061474323272705,2.6641924381256104,5.789082050323486,3.94946026802063,4.676787853240967,2.8309450149536133,6.059472560882568,2.8700222969055176,6.069249153137207,3.171471118927002,3.928274393081665,5.375300884246826,3.721980571746826,2.8982510566711426,-2.8350234031677246,-3.7203617095947266,-5.372556209564209,-3.9311535358428955,-3.1788246631622314,1.617622971534729
44,-0.10741577297449112,-2.8744428157806396,-6.013439178466797,-2.8371999263763428,-4.668316841125488,-2.3248348236083984,-5.673661231994629,-2.685774087905884,-2.3770751953125,-0.563868522644043,-3.418424606323242,3.6039376258850098,-4.760023593902588,-3.70369553565979,-5.147338390350342,-2.9869065284729004,2.3382914066314697,4.975957870483398,0.3812299966812134,2.5922036170959473,3.9494261741638184,0.6383354663848877,3.5673725605010986,6.123641490936279,-6.042479991912842,6.335387706756592,-3.551604986190796,-0.5447515249252319,-3.5820372104644775,-2.9768266677856445,-0.28480398654937744,-4.968716621398926,-3.6621296405792236,-3.6197924613952637,-1.0250006914138794,-5.845389366149902,4.496454238891602,-5.996169567108154,-4.249401569366455,-2.4543871879577637,-2.288729190826416,-6.230984210968018,-5.535205364227295,-6.028573989868164,-0.04973405599594116,4.288725852966309,5.235541343688965,5.556102275848389,4.2094950675964355,4.969799041748047,2.8299152851104736,1.405898094177246,1.3933933973312378,4.972896099090576,5.408349990844727,2.106328010559082,2.1102097034454346,3.617222547531128,2.0417850017547607,1.4058054685592651,5.147067546844482,5.487147331237793,1.496020793914795,3.9384844303131104,0.459372878074646,5.754827976226807,-5.726036548614502,-0.5095217823982239,-3.945159673690796,2.8124606609344482,-1.4797532558441162,-5.479548454284668,-5.1264543533325195,-1.3945977687835693,-3.609234094619751,-2.10941481590271,-1.7940200567245483,-5.279933929443359,-4.9907450675964355,-1.5307987928390503,4.6305952072143555,-0.9460981488227844,-3.2377357482910156,-6.094223976135254,-3.7991788387298584,-5.216132640838623,-4.148575782775879,3.2284719944000244,5.015099048614502,3.4229369163513184,3.6104695796966553,6.035506725311279,3.0612196922302246,1.1744372844696045,2.217649221420288,2.679466485977173,5.850338935852051,4.017114162445068,4.660377502441406,2.8492791652679443,6.034122467041016,2.863743305206299,6.0346879959106445,3.1760857105255127,3.9325313568115234,5.366912841796875,3.7242939472198486,2.869802951812744,-2.863471508026123,-3.718048334121704,-5.38094425201416,-3.9270339012145996,-3.1736090183258057,1.6012481451034546
45,-0.09641093760728836,-2.862365245819092,-5.987464427947998,-2.8592529296875,-4.652355194091797,-2.3848419189453125,-5.720276355743408,-2.699988603591919,-2.3891236782073975,-0.5335456132888794,-3.443742036819458,3.621203660964966,-4.7373480796813965,-3.6545467376708984,-5.190110683441162,-2.9806265830993652,2.3161239624023438,4.935577392578125,0.3939218521118164,2.6059703826904297,3.9631354808807373,0.6242064237594604,3.5629196166992188,6.150066375732422,-6.016055107116699,6.329749584197998,-3.556057929992676,-0.5588805675506592,-3.568537712097168,-2.9676616191864014,-0.2723595201969147,-5.007967948913574,-3.6842970848083496,-3.6025264263153076,-0.9991999268531799,-5.839661121368408,4.473893642425537,-6.010439872741699,-4.261346817016602,-2.425809383392334,-2.3146109580993652,-6.2084736824035645,-5.584226131439209,-6.064525127410889,0.0006006627809256315,4.339060306549072,5.19959020614624,5.58280086517334,4.1604743003845215,4.9923095703125,2.8040335178375244,1.4344758987426758,1.3814477920532227,4.958625793457031,5.3618574142456055,2.0441765785217285,2.1155593395233154,3.59448504447937,2.0360162258148193,1.3502527475357056,5.1377272605896,5.489299774169922,1.4890002012252808,3.95133376121521,0.44962865114212036,5.729551315307617,-5.751313209533691,-0.5192660093307495,-3.9323103427886963,2.8407516479492188,-1.4848681688308716,-5.484899997711182,-5.134437084197998,-1.4486024379730225,-3.631971597671509,-2.104065179824829,-1.8561716079711914,-5.3264265060424805,-5.005165100097656,-1.5429404973983765,4.6200456619262695,-0.9172219038009644,-3.2636380195617676,-6.07158088684082,-3.8360037803649902,-5.256370544433594,-4.100279808044434,3.276768207550049,4.974861145019531,3.3861119747161865,3.633112668991089,6.021876335144043,3.0353174209594727,1.2033135890960693,2.205507516860962,2.665046215057373,5.8037238121032715,3.9571070671081543,4.676339149475098,2.827226161956787,6.0611467361450195,2.874769926071167,6.040416240692139,3.171351671218872,3.926042318344116,5.373691558837891,3.72499680519104,2.893923282623291,-2.839351177215576,-3.7173454761505127,-5.3741655349731445,-3.93323016166687,-3.176922559738159,1.6270489692687988
