,0,1,2,3,4,5,6,7,8,9,10,11,12,13,14,15,16,17,18,19,20,21,22,23,24,25,26,27,28,29,30,31,32,33,34,35,36,37,38,39,40,41,42,43,44,45,46,47,48,49,50,51,52,53,54,55,56,57,58,59,60,61,62,63,64,65,66,67,68,69,70,71,72,73,74,75,76,77,78,79,80,81,82,83,84,85,86,87,88,89,90,91,92,93,94,95,96,97,98,99,100,101,102,103,104,105,106,107,108,109,110,111,112,113
0,0.2369043529033661,-2.757002830505371,-0.57076495885849,-1.876853585243225,-0.08115269988775253,-4.07448148727417,-1.0412476062774658,-1.8839328289031982,-2.5042502880096436,-4.013933181762695,-2.477417230606079,0.274075984954834,-4.369514465332031,-4.898228168487549,-1.6649739742279053,-6.2796630859375,0.9617934823036194,5.535144329071045,5.565826892852783,1.1564950942993164,5.195582866668701,2.5383124351501465,4.554159641265869,5.024839401245117,-5.024839401245117,0.3767244517803192,-4.554159641265869,-2.5383124351501465,-5.195582866668701,-1.1564950942993164,-5.565826892852783,-5.535144329071045,-0.9617934823036194,-0.274075984954834,-4.303187847137451,-5.638123035430908,4.041690826416016,-5.255607604980469,-1.310686707496643,-6.219409942626953,-1.324700117111206,-4.428601264953613,-4.041690826416016,-0.3767244517803192,-0.2369043529033661,1.3396059274673462,5.736111164093018,4.428601264953613,5.989534378051758,2.0506253242492676,3.3426427841186523,5.220091342926025,3.782956600189209,3.8695321083068848,1.475574254989624,5.282807350158691,5.040423393249512,0.7080771327018738,1.324700117111206,0.10197382420301437,2.477010488510132,4.8942646980285645,1.6983366012573242,5.129617214202881,2.079437494277954,0.1709848940372467,-0.1709848940372467,-2.079437494277954,-5.129617214202881,6.219409942626953,-1.6983366012573242,-4.8942646980285645,-2.477010488510132,-0.10197382420301437,-0.7080771327018738,-5.040423393249512,-5.282807350158691,-1.475574254989624,-3.8695321083068848,-3.782956600189209,1.310686707496643,-5.220091342926025,-3.3426427841186523,-2.0506253242492676,-5.989534378051758,-5.736111164093018,-1.3396059274673462,6.2796630859375,1.6649739742279053,4.898228168487549,4.369514465332031,5.255607604980469,2.477417230606079,4.013933181762695,2.5042502880096436,1.8839328289031982,1.0412476062774658,4.07448148727417,0.08115269988775253,1.876853585243225,0.57076495885849,2.757002830505371,5.638123035430908,1.5188851356506348,0.15562890470027924,3.87522554397583,0.07166267186403275,0.9136236906051636,-0.9136236906051636,-0.07166267186403275,-3.87522554397583,-0.15562890470027924,-1.5188851356506348,4.303187847137451
1,0.2369043529033661,-2.7041831016540527,-0.517942488193512,-1.824031114578247,-0.1338958740234375,-4.07448148727417,-1.0412476062774658,-1.8839328289031982,-2.5042502880096436,-3.961110830307007,-2.5302398204803467,0.3268904685974121,-4.422336578369141,-4.951050758361816,-1.6649739742279053,-6.2796630859375,1.0146161317825317,5.482321739196777,5.618649005889893,1.1564950942993164,5.195582866668701,2.5383124351501465,4.6069817543029785,4.97201681137085,-5.077661991119385,0.3767244517803192,-4.50133752822876,-2.5383124351501465,-5.195582866668701,-1.1564950942993164,-5.513004779815674,-5.5879669189453125,-0.9089709520339966,-0.22126150131225586,-4.303187847137451,-5.638123035430908,3.988868236541748,-5.255607604980469,-1.310686707496643,-6.166587829589844,-1.3775227069854736,-4.481423377990723,-4.094513416290283,-0.3767244517803192,-0.2369043529033661,1.3396059274673462,5.736111164093018,4.375779151916504,5.93671178817749,1.997802734375,3.2898201942443848,5.272913455963135,3.782956600189209,3.8695321083068848,1.475574254989624,5.282807350158691,4.987641334533691,0.6552550792694092,1.2718775272369385,0.15479633212089539,2.4241888523101807,4.8942646980285645,1.6983366012573242,5.129617214202881,2.026615619659424,0.22380727529525757,-0.11816251277923584,-2.1322593688964844,-5.129617214202881,6.2722320556640625,-1.6983366012573242,-4.8942646980285645,-2.529832124710083,-0.04915131255984306,-0.7608991861343384,-5.093205451965332,-5.282807350158691,-1.475574254989624,-3.8695321083068848,-3.782956600189209,1.310686707496643,-5.167269229888916,-3.39546537399292,-2.103447914123535,-6.042356967926025,-5.736111164093018,-1.3396059274673462,6.2796630859375,1.6649739742279053,4.845405578613281,4.316692352294922,5.255607604980469,2.4245946407318115,4.066755294799805,2.5042502880096436,1.8839328289031982,1.0412476062774658,4.07448148727417,0.028409535065293312,1.9296760559082031,0.623587429523468,2.8098225593566895,5.638123035430908,1.5188851356506348,0.15562890470027924,3.87522554397583,0.018855072557926178,0.9664459228515625,-0.8608014583587646,-0.12447027117013931,-3.87522554397583,-0.15562890470027924,-1.5188851356506348,4.303187847137451
2,0.18465550243854523,-2.756218910217285,-0.47875261306762695,-1.7718771696090698,-0.08165015280246735,-4.126730442047119,-1.0934960842132568,-1.8316869735717773,-2.5564956665039062,-3.9521450996398926,-2.5631301403045654,0.27464544773101807,-4.473254680633545,-4.969329357147217,-1.6127251386642456,-6.331911563873291,1.016024112701416,5.436986446380615,5.5710320472717285,1.2087438106536865,5.143333911895752,2.4861395359039307,4.557984828948975,4.932186603546143,-5.117492198944092,0.42897316813468933,-4.550334453582764,-2.5904853343963623,-5.247828006744385,-1.2087428569793701,-5.5603928565979,-5.634904861450195,-0.9075630307197571,-0.2735065221786499,-4.3554368019104,-5.585875511169434,3.9906115531921387,-5.203362464904785,-1.3629348278045654,-6.150540828704834,-1.41020929813385,-4.53192138671875,-4.112266540527344,-0.4289722442626953,-0.28915196657180786,1.287358283996582,5.683863639831543,4.324057102203369,5.91895866394043,1.9473044872283936,3.2571334838867188,5.2889604568481445,3.730708360671997,3.9217772483825684,1.527822732925415,5.2305588722229,5.0398736000061035,0.6768885850906372,1.2409638166427612,0.16167239844799042,2.47145414352417,4.842017650604248,1.646090030670166,5.077370643615723,1.984602451324463,0.17677642405033112,-0.1651933640241623,-2.174272298812866,-5.181863784790039,6.223016262054443,-1.7505848407745361,-4.946512222290039,-2.483795642852783,-0.04272116348147392,-0.7392656803131104,-5.04097318649292,-5.335055828094482,-1.423325777053833,-3.817286491394043,-3.835204839706421,1.2584682703018188,-5.171383380889893,-3.428783893585205,-2.154083251953125,-6.058949947357178,-5.683862209320068,-1.2873612642288208,6.331907749176025,1.7172226905822754,4.828812599182129,4.266057014465332,5.203360080718994,2.3912761211395264,4.062641143798828,2.4520020484924316,1.9361785650253296,0.9889990091323853,4.022232532501221,0.08065525442361832,1.9818300008773804,0.6608327031135559,2.7578179836273193,5.690370559692383,1.5711338520050049,0.20787762105464935,3.9274728298187256,0.0710727795958519,0.9442865252494812,-0.882960855960846,-0.07225256413221359,-3.8229782581329346,-0.10338035225868225,-1.4666364192962646,4.250938892364502
3,0.23801162838935852,-2.7023606300354004,-0.5306991338729858,-1.7207728624343872,-0.09683919697999954,-4.072605133056641,-1.0375535488128662,-1.8880774974822998,-2.5001163482666016,-3.895639181137085,-2.5791327953338623,0.25601017475128174,-4.467321395874023,-4.969357013702393,-1.664431095123291,-6.275737762451172,1.0526164770126343,5.442409515380859,5.546311378479004,1.233822226524353,5.183165073394775,2.42970871925354,4.509794235229492,4.928833484649658,-5.120845317840576,0.3747352659702301,-4.598525047302246,-2.646916151046753,-5.19163179397583,-1.2405242919921875,-5.585718154907227,-5.6501922607421875,-0.870970606803894,-0.29214179515838623,-4.300600051879883,-5.529338836669922,4.001413345336914,-5.259760856628418,-1.3067519664764404,-6.09402322769165,-1.4290372133255005,-4.514614105224609,-4.108853816986084,-0.4855196475982666,-0.23283633589744568,1.3436739444732666,5.627316474914551,4.318840980529785,5.9223713874816895,1.9646116495132446,3.2383055686950684,5.345478057861328,3.786891222000122,3.8653790950775146,1.4721300601959229,5.274313449859619,4.993317127227783,0.7272272706031799,1.2207425832748413,0.1950017511844635,2.4180197715759277,4.897563934326172,1.6995127201080322,5.13374137878418,1.9279875755310059,0.12491108477115631,-0.2170587033033371,-2.230886936187744,-5.125493049621582,6.278835296630859,-1.6996995210647583,-4.892378330230713,-2.529010534286499,-0.0055990153923630714,-0.6889269948005676,-5.08752965927124,-5.291301250457764,-1.4790184497833252,-3.8736801147460938,-3.7790637016296387,1.314892292022705,-5.114901542663574,-3.4475274085998535,-2.1380441188812256,-6.05548620223999,-5.7380218505859375,-1.230902910232544,6.388365745544434,1.663063406944275,4.832276344299316,4.2820963859558105,5.146853923797607,2.372532606124878,4.1191229820251465,2.508143186569214,1.8797849416732788,1.0449415445327759,4.076357841491699,0.06546621024608612,2.0329341888427734,0.6085527539253235,2.8120763301849365,5.7469072341918945,1.5610945224761963,0.17607438564300537,3.8711183071136475,0.01990184560418129,0.9996433854103088,-0.8276039958000183,-0.1234235018491745,-3.8793327808380127,-0.1552431881427765,-1.491973876953125,4.3057756423950195
4,0.18480490148067474,-2.705371141433716,-0.49699699878692627,-1.7037194967269897,-0.055465877056121826,-4.1022467613220215,-1.08750319480896,-1.8387298583984375,-2.549421548843384,-3.868807792663574,-2.6006789207458496,0.21595121920108795,-4.521792411804199,-4.951232433319092,-1.6089540719985962,-6.325943470001221,1.0901292562484741,5.3999528884887695,5.562987327575684,1.241700530052185,5.13381814956665,2.4777307510375977,4.562385082244873,4.915948390960693,-5.133730411529541,0.4278036653995514,-4.545934200286865,-2.5988941192626953,-5.24269437789917,-1.2950425148010254,-5.572249889373779,-5.696303367614746,-0.833457887172699,-0.3322007656097412,-4.32553768157959,-5.579556465148926,4.03732967376709,-5.211297988891602,-1.357240915298462,-6.0689311027526855,-1.4495822191238403,-4.568749904632568,-4.077881336212158,-0.4275064766407013,-0.28421807289123535,1.2922922372817993,5.685329437255859,4.269711494445801,5.953343868255615,1.9104753732681274,3.2177605628967285,5.370570182800293,3.7364022731781006,3.91384220123291,1.5203323364257812,5.215705394744873,5.034005641937256,0.6675192713737488,1.201410174369812,0.1934758424758911,2.4520184993743896,4.858990669250488,1.759131669998169,5.085579872131348,1.9836015701293945,0.1280110776424408,-0.2139587104320526,-2.1752731800079346,-5.173654556274414,6.303398609161377,-1.6770415306091309,-4.931992530822754,-2.5735840797424316,-0.024346977472305298,-0.7486349940299988,-5.046841144561768,-5.34990930557251,-1.4308161735534668,-3.8248701095581055,-3.8291385173797607,1.2643603086471558,-5.089210510253906,-3.468893527984619,-2.191991090774536,-6.028338432312012,-5.680366039276123,-1.282365083694458,6.336904048919678,1.7207190990447998,4.859424114227295,4.2281494140625,5.195275783538818,2.3511664867401123,4.1448140144348145,2.458068370819092,1.9285951852798462,0.9949918389320374,4.046716213226318,0.10683953016996384,2.049987554550171,0.6416869759559631,2.812324047088623,5.696689605712891,1.5877622365951538,0.13102008402347565,3.9199607372283936,0.04987264797091484,0.960882842540741,-0.8663645386695862,-0.09345269948244095,-3.8304903507232666,-0.20225651562213898,-1.4735634326934814,4.2808380126953125
5,0.21563467383384705,-2.675281524658203,-0.5052027702331543,-1.6720439195632935,-0.05013955384492874,-4.064792156219482,-1.0498096942901611,-1.8809757232666016,-2.5079329013824463,-3.8171308040618896,-2.616513252258301,0.17805621027946472,-4.535991668701172,-4.971539497375488,-1.60696542263031,-6.290365695953369,1.1367580890655518,5.385764122009277,5.585436820983887,1.2562928199768066,5.175020217895508,2.4360175132751465,4.534209251403809,4.936349391937256,-5.1133294105529785,0.40137729048728943,-4.57411003112793,-2.6406073570251465,-5.2054314613342285,-1.2474466562271118,-5.549801349639893,-5.726199150085449,-0.7868291139602661,-0.37009575963020325,-4.285529136657715,-5.530473232269287,4.035975456237793,-5.252842426300049,-1.319079041481018,-6.01728630065918,-1.4671785831451416,-4.57907772064209,-4.087744235992432,-0.4366675913333893,-0.24481822550296783,1.331692099571228,5.676167964935303,4.251141548156738,5.943480968475342,1.900147557258606,3.200164318084717,5.422214984893799,3.774564027786255,3.872297763824463,1.4817086458206177,5.241576671600342,4.98325252532959,0.6730241775512695,1.1839922666549683,0.25190114974975586,2.491881847381592,4.919414043426514,1.6973453760147095,5.126846790313721,1.9583852291107178,0.08449255675077438,-0.2574772238731384,-2.2004897594451904,-5.132387638092041,6.356686592102051,-1.7404932975769043,-4.871351718902588,-2.511507511138916,0.010090606287121773,-0.743130087852478,-5.097594261169434,-5.324038028717041,-1.4694398641586304,-3.8665342330932617,-3.791354179382324,1.3040804862976074,-5.037550449371338,-3.4863686561584473,-2.202901601791382,-6.039064407348633,-5.689581871032715,-1.2454478740692139,6.373821258544922,1.711503267288208,4.848698139190674,4.217238903045654,5.154639720916748,2.333691358566284,4.196474075317383,2.4958527088165283,1.88693106174469,1.032685399055481,4.084170818328857,0.11216585338115692,2.081663131713867,0.6350359320640564,2.8435654640197754,5.745772838592529,1.5748761892318726,0.1833437979221344,3.878246307373047,0.0019569983705878258,0.9727419018745422,-0.8545054793357849,-0.1413683444261551,-3.8722047805786133,-0.1923019289970398,-1.4881563186645508,4.3208465576171875
6,0.17745715379714966,-2.6995127201080322,-0.4626365900039673,-1.6714826822280884,-0.03406824916601181,-4.073709011077881,-1.0883487462997437,-1.8333208560943604,-2.5442545413970947,-3.782029390335083,-2.6320080757141113,0.1359352469444275,-4.5679931640625,-4.988070964813232,-1.563589334487915,-6.327563285827637,1.1850244998931885,5.349819183349609,5.638669013977051,1.22673499584198,5.142758369445801,2.4832658767700195,4.581459999084473,4.950847148895264,-5.098831653594971,0.39117488265037537,-4.526859283447266,-2.5933589935302734,-5.254145622253418,-1.254941701889038,-5.4963812828063965,-5.76447868347168,-0.7385626435279846,-0.4122167229652405,-4.288366317749023,-5.532225131988525,4.044638156890869,-5.2053327560424805,-1.3599188327789307,-5.9849748611450195,-1.4792871475219727,-4.609203815460205,-4.08741569519043,-0.4064595103263855,-0.2774825990200043,1.299027681350708,5.706376075744629,4.216896057128906,5.943809509277344,1.8700215816497803,3.1880555152893066,5.454526424407959,3.733724355697632,3.9198074340820312,1.5236722230911255,5.188269138336182,5.0157551765441895,0.6580883264541626,1.1779813766479492,0.27230221033096313,2.4860267639160156,4.8660407066345215,1.7437050342559814,5.0795111656188965,2.010507822036743,0.08448304235935211,-0.2574867308139801,-2.148367166519165,-5.179723262786865,6.391213893890381,-1.703194499015808,-4.9235334396362305,-2.5447919368743896,-0.016527123749256134,-0.758065938949585,-5.065091609954834,-5.377345561981201,-1.4274762868881226,-3.8188247680664062,-3.831509828567505,1.2647069692611694,-5.00466775894165,-3.4991250038146973,-2.2346341609954834,-6.0442657470703125,-5.656689167022705,-1.2836825847625732,6.3355865478515625,1.7443957328796387,4.843496799468994,4.185506343841553,5.202937602996826,2.320935010910034,4.22935676574707,2.4556970596313477,1.9346402883529663,0.9941462874412537,4.075253963470459,0.12823715806007385,2.082224130630493,0.6781222820281982,2.8227832317352295,5.744020938873291,1.5883171558380127,0.15825390815734863,3.925912380218506,0.04041633382439613,0.9337775111198425,-0.8934698700904846,-0.10290901362895966,-3.8245387077331543,-0.23960885405540466,-1.4785261154174805,4.318009376525879
7,0.2119041532278061,-2.6912121772766113,-0.450198233127594,-1.6728712320327759,-0.050218600779771805,-4.036066055297852,-1.0442297458648682,-1.880934238433838,-2.4915945529937744,-3.7505147457122803,-2.6367075443267822,0.1057443842291832,-4.554798126220703,-4.995416164398193,-1.5743845701217651,-6.284332275390625,1.207633137702942,5.34772253036499,5.682980060577393,1.2204670906066895,5.195071697235107,2.4357635974884033,4.54491662979126,4.971746444702148,-5.077932357788086,0.34061339497566223,-4.5634026527404785,-2.6408612728118896,-5.207895278930664,-1.2382378578186035,-5.45322322845459,-5.772888660430908,-0.7159538865089417,-0.44240760803222656,-4.247801780700684,-5.483362197875977,4.046001434326172,-5.252486228942871,-1.3102705478668213,-5.954949855804443,-1.4813815355300903,-4.588695526123047,-4.090612411499023,-0.4369654953479767,-0.228731170296669,1.3477791547775269,5.675869941711426,4.21596622467041,5.94061279296875,1.8905296325683594,3.1859610080718994,5.484551429748535,3.783372640609741,3.8726539611816406,1.477410078048706,5.221547603607178,4.979007720947266,0.7033019661903381,1.179850697517395,0.3313279449939728,2.5160534381866455,4.897287368774414,1.7138220071792603,5.126406669616699,1.9750328063964844,0.06209869682788849,-0.2798710763454437,-2.183842182159424,-5.1328277587890625,6.4241719245910645,-1.7315571308135986,-4.891414642333984,-2.497027635574341,0.02677082270383835,-0.7128522992134094,-5.101839065551758,-5.344067096710205,-1.473738431930542,-3.8660058975219727,-3.7817296981811523,1.315189003944397,-4.973658084869385,-3.5014803409576416,-2.218036413192749,-6.049968242645264,-5.684173583984375,-1.2390646934509277,6.380204677581787,1.7169113159179688,4.837794303894043,4.202104091644287,5.156249046325684,2.31857967376709,4.260366439819336,2.505476951599121,1.8874590396881104,1.038265347480774,4.112896919250488,0.11208680272102356,2.0808355808258057,0.6914413571357727,2.8313257694244385,5.79288387298584,1.5524296760559082,0.21836459636688232,3.878690004348755,-0.007339916191995144,0.9389493465423584,-0.8882980346679688,-0.1506652683019638,-3.8717610836029053,-0.1933378130197525,-1.5059391260147095,4.358573913574219
8,0.17157210409641266,-2.72821044921875,-0.405492901802063,-1.6860231161117554,-0.06394509226083755,-4.060310363769531,-1.0834470987319946,-1.8385475873947144,-2.5332043170928955,-3.7394027709960938,-2.648861885070801,0.07310888916254044,-4.5641303062438965,-5.017719268798828,-1.5244725942611694,-6.327266216278076,1.244497299194336,5.3302717208862305,5.726606369018555,1.2524909973144531,5.153132438659668,2.477733850479126,4.597436904907227,4.981093883514404,-5.06858491897583,0.346414715051651,-4.510882377624512,-2.598891019821167,-5.257470607757568,-1.1677199602127075,-5.409107208251953,-5.789235591888428,-0.6790897846221924,-0.47504308819770813,-4.270498275756836,-5.488340377807617,4.050364971160889,-5.210130214691162,-1.353832721710205,-5.950131416320801,-1.4887127876281738,-4.592723369598389,-4.1064252853393555,-0.38527846336364746,-0.2684312164783478,1.3080791234970093,5.727557182312012,4.193849563598633,5.924799919128418,1.8865019083023071,3.1786298751831055,5.489369869232178,3.7398104667663574,3.9150094985961914,1.5221326351165771,5.169074058532715,5.016334533691406,0.6849215030670166,1.1883559226989746,0.29986146092414856,2.5102710723876953,4.856074333190918,1.7520719766616821,5.0839457511901855,2.0284602642059326,0.10010610520839691,-0.2418636679649353,-2.1304147243499756,-5.175288677215576,6.4330220222473145,-1.7082546949386597,-4.930781841278076,-2.5325372219085693,-0.017929233610630035,-0.731232762336731,-5.064512252807617,-5.396540641784668,-1.429015874862671,-3.8235089778900146,-3.8252413272857666,1.2757686376571655,-4.967843055725098,-3.509154796600342,-2.2275843620300293,-6.0731682777404785,-5.632538318634033,-1.2815966606140137,6.337672710418701,1.7685467004776,4.814594268798828,4.192555904388428,5.1990966796875,2.3109052181243896,4.266181468963623,2.461965322494507,1.9299558401107788,0.9990479350090027,4.088652610778809,0.09836030751466751,2.067683696746826,0.7359416484832764,2.7983226776123047,5.787905693054199,1.5520118474960327,0.1810351312160492,3.921151638031006,0.0393933430314064,0.8939308524131775,-0.9333165287971497,-0.10393200814723969,-3.8292994499206543,-0.23215708136558533,-1.502670168876648,4.335877418518066
9,0.20410047471523285,-2.718024492263794,-0.40584301948547363,-1.6896376609802246,-0.08705233782529831,-4.020364284515381,-1.0421251058578491,-1.8728978633880615,-2.488873243331909,-3.7223761081695557,-2.649393081665039,0.05468012019991875,-4.530783653259277,-4.984333515167236,-1.5443739891052246,-6.284695148468018,1.2601865530014038,5.359721660614014,5.761509895324707,1.1805229187011719,5.205613136291504,2.441601276397705,4.557091236114502,4.995474338531494,-5.05420446395874,0.2947441339492798,-4.551228046417236,-2.635023593902588,-5.210079193115234,-1.2403931617736816,-5.376469135284424,-5.767312526702881,-0.6634005308151245,-0.49347183108329773,-4.230776309967041,-5.448906898498535,4.083229064941406,-5.244089603424072,-1.3108762502670288,-5.93540096282959,-1.4874982833862305,-4.549178600311279,-4.0788187980651855,-0.42666760087013245,-0.22156976163387299,1.3549405336380005,5.6861677169799805,4.205615043640137,5.952406406402588,1.9300470352172852,3.179844379425049,5.504100322723389,3.782766819000244,3.8810503482818604,1.4807624816894531,5.215479373931885,4.9958906173706055,0.7402063608169556,1.2008999586105347,0.35351234674453735,2.5204241275787354,4.89380407333374,1.7159390449523926,5.117674350738525,1.998435616493225,0.0868622362613678,-0.2551075220108032,-2.1604392528533936,-5.141560077667236,6.451643466949463,-1.7583709955215454,-4.890533447265625,-2.5061283111572266,0.038810811936855316,-0.675947904586792,-5.084956169128418,-5.350135326385498,-1.470386028289795,-3.857658863067627,-3.781965970993042,1.3182146549224854,-4.951884746551514,-3.508174419403076,-2.19048810005188,-6.047329902648926,-5.6709303855896,-1.2370655536651611,6.382204055786133,1.7301548719406128,4.840432643890381,4.229651927947998,5.1641974449157715,2.3118855953216553,4.282139778137207,2.5052406787872314,1.895806074142456,1.0403698682785034,4.128598690032959,0.07525306195020676,2.0640690326690674,0.7350332736968994,2.8083794116973877,5.827339172363281,1.5289520025253296,0.21702703833580017,3.8870999813079834,0.013856787234544754,0.923356294631958,-0.9038910865783691,-0.12946856021881104,-3.8633511066436768,-0.2050083577632904,-1.516140103340149,4.375599384307861
10,0.17263078689575195,-2.7521471977233887,-0.35873961448669434,-1.697692632675171,-0.10605926811695099,-4.059638023376465,-1.0754742622375488,-1.8445879220962524,-2.520660400390625,-3.7352688312530518,-2.6698858737945557,0.033407650887966156,-4.55454158782959,-5.040332317352295,-1.4942576885223389,-6.322416305541992,1.3109720945358276,5.361027240753174,5.7904767990112305,1.2400473356246948,5.162130832672119,2.470059633255005,4.598330497741699,4.9939117431640625,-5.055767059326172,0.3056793808937073,-4.509988784790039,-2.606565237045288,-5.256246089935303,-1.1743931770324707,-5.34677791595459,-5.766583442687988,-0.6126149296760559,-0.5147442817687988,-4.272909164428711,-5.440187931060791,4.069371223449707,-5.215761661529541,-1.3434703350067139,-5.954315185546875,-1.5060207843780518,-4.563918590545654,-4.140591621398926,-0.3809724450111389,-0.25607508420944214,1.3204351663589478,5.731863021850586,4.1716413497924805,5.890633583068848,1.9153071641921997,3.1613218784332275,5.4851861000061035,3.7501728534698486,3.9093782901763916,1.521746039390564,5.174040794372559,5.009942531585693,0.7115790843963623,1.2142865657806396,0.3023039400577545,2.5352306365966797,4.857485771179199,1.7545249462127686,5.0894951820373535,2.044267416000366,0.13947565853595734,-0.20249409973621368,-2.114607572555542,-5.169739246368408,6.436068058013916,-1.7226831912994385,-4.924492359161377,-2.5195205211639404,-0.01033767405897379,-0.7045751810073853,-5.07090425491333,-5.391573905944824,-1.429402470588684,-3.829277276992798,-3.814716339111328,1.2918390035629272,-4.96980619430542,-3.5265414714813232,-2.213925361633301,-6.11161470413208,-5.623950958251953,-1.2719156742095947,6.347353935241699,1.7771344184875488,4.776147842407227,4.206214904785156,5.192392826080322,2.293518543243408,4.264218330383301,2.4724903106689453,1.9241876602172852,1.0070207118988037,4.089324951171875,0.056246135383844376,2.0560142993927,0.7821527123451233,2.7765092849731445,5.836058139801025,1.5540955066680908,0.19671790301799774,3.9154958724975586,0.05013542249798775,0.8765501379966736,-0.9506972432136536,-0.09318992495536804,-3.8349552154541016,-0.22459906339645386,-1.4870280027389526,4.333466529846191
11,0.1985202133655548,-2.7196478843688965,-0.38289645314216614,-1.6938806772232056,-0.09855546802282333,-4.017711162567139,-1.0454241037368774,-1.869136095046997,-2.4865682125091553,-3.7011260986328125,-2.6639580726623535,0.04068288207054138,-4.490665435791016,-4.9737324714660645,-1.518940806388855,-6.2838873863220215,1.3000285625457764,5.401622772216797,5.802860260009766,1.190171718597412,5.203057289123535,2.443568229675293,4.566242694854736,5.029956340789795,-5.0197224617004395,0.27070683240890503,-4.542076587677002,-2.633056640625,-5.220483303070068,-1.2169947624206543,-5.337040424346924,-5.735008716583252,-0.6235585808753967,-0.5074690580368042,-4.2328596115112305,-5.410358905792236,4.1248674392700195,-5.240142345428467,-1.3098183870315552,-5.9203948974609375,-1.5004974603652954,-4.494637966156006,-4.079891681671143,-0.41781121492385864,-0.21907515823841095,1.3574349880218506,5.695024013519287,4.218482494354248,5.951333522796631,1.9845879077911377,3.1668453216552734,5.519106388092041,3.7838246822357178,3.884997606277466,1.4939063787460327,5.21182107925415,5.0303473472595215,0.7664777636528015,1.232322096824646,0.3467729091644287,2.520545721054077,4.893775939941406,1.7217150926589966,5.113895416259766,2.0213592052459717,0.09968365728855133,-0.2422861009836197,-2.1375157833099365,-5.145339012145996,6.476736545562744,-1.7686806917190552,-4.886733055114746,-2.5154976844787598,0.036354273557662964,-0.649676501750946,-5.050499439239502,-5.353793621063232,-1.4572421312332153,-3.8536901473999023,-3.780829429626465,1.3255138397216797,-4.936378479003906,-3.521267890930176,-2.1488916873931885,-6.0531182289123535,-5.657913684844971,-1.2348806858062744,6.3843889236450195,1.7431721687316895,4.834644317626953,4.2712483406066895,5.1674017906188965,2.2987921237945557,4.2976460456848145,2.5063772201538086,1.8997750282287598,1.037070870399475,4.131251811981201,0.06374993175268173,2.059826135635376,0.7562452554702759,2.8102195262908936,5.86588716506958,1.4886881113052368,0.20474132895469666,3.8911263942718506,0.03445446491241455,0.931120753288269,-0.8961266279220581,-0.10887088626623154,-3.8593246936798096,-0.2146419882774353,-1.5499504804611206,4.373516082763672
12,0.17490644752979279,-2.7664544582366943,-0.3351527452468872,-1.6820712089538574,-0.10579827427864075,-4.057089805603027,-1.0660830736160278,-1.8480952978134155,-2.513097047805786,-3.7408323287963867,-2.6981091499328613,0.031156830489635468,-4.537970066070557,-5.034500598907471,-1.4693087339401245,-6.313979148864746,1.3707846403121948,5.404542922973633,5.830516338348389,1.2114126682281494,5.17633581161499,2.4644792079925537,4.601975917816162,5.005973815917969,-5.043704986572266,0.28709810972213745,-4.506343364715576,-2.6121456623077393,-5.249672889709473,-1.1854195594787598,-5.308585166931152,-5.735391139984131,-0.5528024435043335,-0.5169950723648071,-4.277419090270996,-5.394221305847168,4.1168904304504395,-5.219227313995361,-1.3368322849273682,-5.96400260925293,-1.5371785163879395,-4.531711578369141,-4.149776458740234,-0.3808463215827942,-0.2429828643798828,1.3335273265838623,5.731988906860352,4.167518138885498,5.881448745727539,1.947514295578003,3.130164384841919,5.475498676300049,3.7568106651306152,3.9059128761291504,1.5212465524673462,5.19369649887085,5.002782821655273,0.7471644878387451,1.2492800951004028,0.29501375555992126,2.562437057495117,4.862395286560059,1.7559595108032227,5.09317684173584,2.062978506088257,0.16303271055221558,-0.17893704771995544,-2.0958964824676514,-5.166057586669922,6.433828353881836,-1.7345343828201294,-4.916326522827148,-2.5047569274902344,-0.003946336451917887,-0.6689897775650024,-5.07806396484375,-5.371918201446533,-1.4299019575119019,-3.832725763320923,-3.8080997467041016,1.3055893182754517,-4.978626728057861,-3.557250499725342,-2.1932175159454346,-6.12349796295166,-5.618223190307617,-1.257325291633606,6.361944198608398,1.782862663269043,4.7642645835876465,4.226922512054443,5.188232421875,2.2628095149993896,4.255397796630859,2.479106903076172,1.9207392930984497,1.0164119005203247,4.0918731689453125,0.05650712177157402,2.0716357231140137,0.8030757904052734,2.7639479637145996,5.882024765014648,1.566328763961792,0.21059012413024902,3.91225266456604,0.06473248451948166,0.8804928064346313,-0.9467545747756958,-0.07859286665916443,-3.83819842338562,-0.19811443984508514,-1.468809962272644,4.328956604003906
13,0.19106625020503998,-2.7348525524139404,-0.3708829879760742,-1.6801979541778564,-0.05865311622619629,-4.025207042694092,-1.0493944883346558,-1.8674031496047974,-2.4809556007385254,-3.694978952407837,-2.6869139671325684,0.06646493077278137,-4.468799591064453,-4.981539249420166,-1.4994494915008545,-6.278811931610107,1.3441970348358154,5.4426164627075195,5.813778400421143,1.1876368522644043,5.196511268615723,2.444504499435425,4.570082187652588,5.053542137145996,-4.996136665344238,0.25909632444381714,-4.53823709487915,-2.632120370864868,-5.23618221282959,-1.204258680343628,-5.328842639923096,-5.705550193786621,-0.5793899893760681,-0.48168694972991943,-4.244349479675293,-5.375288486480713,4.155540466308594,-5.2388386726379395,-1.3052141666412354,-5.918941497802734,-1.528471827507019,-4.4589338302612305,-4.104223251342773,-0.413737028837204,-0.2167382687330246,1.359771966934204,5.699098110198975,4.227391242980957,5.927001953125,2.020291805267334,3.138871192932129,5.520559787750244,3.788428783416748,3.886301279067993,1.508734941482544,5.1951165199279785,5.0630598068237305,0.7855821251869202,1.269118309020996,0.31698107719421387,2.5041511058807373,4.8992695808410645,1.725672721862793,5.112936973571777,2.0361034870147705,0.125299870967865,-0.21666988730430603,-2.1227715015411377,-5.146297454833984,6.484719753265381,-1.7752515077590942,-4.879090309143066,-2.5398452281951904,0.022822365164756775,-0.6305721402168274,-5.017786979675293,-5.370498180389404,-1.442413568496704,-3.852296829223633,-3.776057243347168,1.3378926515579224,-4.933892250061035,-3.548224449157715,-2.123242139816284,-6.080650329589844,-5.651260852813721,-1.2269359827041626,6.392333507537842,1.7498250007629395,4.807112216949463,4.296897888183594,5.168612480163574,2.2718355655670166,4.3001322746276855,2.5111494064331055,1.9011682271957397,1.0331004858016968,4.123755931854248,0.10365228354930878,2.0735089778900146,0.7653936743736267,2.797130823135376,5.9009575843811035,1.5025867223739624,0.17692945897579193,3.8926990032196045,0.05369329825043678,0.9308904409408569,-0.8963569402694702,-0.089632049202919,-3.8577520847320557,-0.2240992933511734,-1.5317572355270386,4.362026214599609
14,0.16874268651008606,-2.778456449508667,-0.3426653742790222,-1.6575977802276611,-0.04560175538063049,-4.063094139099121,-1.059877634048462,-1.8477625846862793,-2.51243257522583,-3.733335494995117,-2.7271714210510254,0.06335090845823288,-4.501995086669922,-5.026505470275879,-1.4495164155960083,-6.305451393127441,1.4182720184326172,5.444574356079102,5.8370561599731445,1.1793023347854614,5.180431365966797,2.463850259780884,4.609210014343262,5.027658462524414,-5.02202033996582,0.27698349952697754,-4.499109268188477,-2.612774610519409,-5.2558674812316895,-1.195293664932251,-5.30499792098999,-5.709737777709961,-0.5053149461746216,-0.4848009943962097,-4.285058975219727,-5.362027645111084,4.164193630218506,-5.219274997711182,-1.3366235494613647,-5.958627700805664,-1.573118805885315,-4.483441352844238,-4.160282135009766,-0.3767930865287781,-0.23589739203453064,1.340612769126892,5.736042022705078,4.190157413482666,5.870943069458008,1.9957841634750366,3.094224214553833,5.4808735847473145,3.757019281387329,3.9058644771575928,1.5242117643356323,5.245589733123779,5.017152309417725,0.7920899987220764,1.2892382144927979,0.27135348320007324,2.5706934928894043,4.870931625366211,1.7617921829223633,5.0938239097595215,2.07901668548584,0.17551012337207794,-0.16645963490009308,-2.0798583030700684,-5.16541051864624,6.445511341094971,-1.737069845199585,-4.906303405761719,-2.499974489212036,-0.020058557391166687,-0.6240642666816711,-5.063694477081299,-5.3200249671936035,-1.4269367456436157,-3.8327550888061523,-3.8075385093688965,1.3131669759750366,-4.972750663757324,-3.592052459716797,-2.153235673904419,-6.137068748474121,-5.609245300292969,-1.2440916299819946,6.375178337097168,1.791840672492981,4.7506937980651855,4.266904830932617,5.188143253326416,2.2280075550079346,4.2612738609313965,2.479668140411377,1.9207100868225098,1.0226173400878906,4.085868835449219,0.11670364439487457,2.09610915184021,0.7924346923828125,2.753253698348999,5.914218425750732,1.5436186790466309,0.21121320128440857,3.912503719329834,0.07750897854566574,0.8896989822387695,-0.9375483989715576,-0.06581636518239975,-3.837947368621826,-0.17610125243663788,-1.4879560470581055,4.321316719055176
15,0.17567984759807587,-2.7564713954925537,-0.38954958319664,-1.6519907712936401,-0.0102602019906044,-4.038264751434326,-1.0459234714508057,-1.8708657026290894,-2.472062349319458,-3.6941604614257812,-2.72611665725708,0.10800470411777496,-4.4416937828063965,-4.991513729095459,-1.475709080696106,-6.272850513458252,1.412582516670227,5.483130931854248,5.801036357879639,1.1807599067687988,5.188262939453125,2.44146466255188,4.567900657653809,5.063380718231201,-4.986298084259033,0.2491573691368103,-4.54041862487793,-2.635160207748413,-5.254525184631348,-1.20381498336792,-5.34544563293457,-5.67722749710083,-0.5110044479370117,-0.4401472210884094,-4.2533345222473145,-5.335771560668945,4.189033031463623,-5.242680072784424,-1.2971627712249756,-5.920276641845703,-1.5761877298355103,-4.420022964477539,-4.1327362060546875,-0.41250255703926086,-0.20787598192691803,1.3686342239379883,5.7003326416015625,4.2437567710876465,5.898488998413086,2.0592024326324463,3.0911552906036377,5.519224643707275,3.7964799404144287,3.8824591636657715,1.5152270793914795,5.193491458892822,5.077152252197266,0.7958678007125854,1.3077137470245361,0.2570265829563141,2.4939465522766113,4.905953407287598,1.7315943241119385,5.117343425750732,2.0371475219726562,0.1635020673274994,-0.17846769094467163,-2.121727466583252,-5.141891002655029,6.487339019775391,-1.7760896682739258,-4.871514797210693,-2.5679047107696533,-0.036541517823934555,-0.6202864646911621,-5.003694534301758,-5.3721232414245605,-1.4359214305877686,-3.8561155796051025,-3.767362594604492,1.3541792631149292,-4.933101177215576,-3.593562602996826,-2.0906827449798584,-6.1118083000183105,-5.649632930755615,-1.209153652191162,6.410116195678711,1.7514532804489136,4.775954246520996,4.329457759857178,5.164798736572266,2.2264974117279053,4.3009233474731445,2.5198440551757812,1.8973495960235596,1.0365715026855469,4.110698223114014,0.15204520523548126,2.1017160415649414,0.7442955374717712,2.777289867401123,5.940474510192871,1.4945553541183472,0.16366912424564362,3.8890576362609863,0.07071775197982788,0.9282150864601135,-0.8990322947502136,-0.07260759174823761,-3.861393451690674,-0.21698318421840668,-1.5371694564819336,4.353041172027588
16,0.15784719586372375,-2.7976393699645996,-0.38838455080986023,-1.6372456550598145,0.001622385811060667,-4.078835964202881,-1.0559284687042236,-1.839085340499878,-2.516796350479126,-3.726548671722412,-2.768105983734131,0.11547287553548813,-4.457676410675049,-5.024842262268066,-1.4190633296966553,-6.307216644287109,1.4939073324203491,5.491193771362305,5.809002876281738,1.1302764415740967,5.180269241333008,2.471766471862793,4.617888927459717,5.034296035766602,-5.015382766723633,0.2637898623943329,-4.4904303550720215,-2.6048583984375,-5.266275882720947,-1.2281265258789062,-5.337175369262695,-5.675784587860107,-0.4296797215938568,-0.43267905712127686,-4.296210289001465,-5.326259136199951,4.208498477935791,-5.210947513580322,-1.3415803909301758,-5.952269554138184,-1.6224294900894165,-4.43117094039917,-4.178518295288086,-0.36724406480789185,-0.23352442681789398,1.34298574924469,5.745591163635254,4.222596168518066,5.8527069091796875,2.0480544567108154,3.0449137687683105,5.487231731414795,3.7520620822906494,3.914191484451294,1.5294538736343384,5.274144649505615,5.035703182220459,0.8376027941703796,1.3280233144760132,0.2221919298171997,2.5506954193115234,4.876091957092285,1.7669212818145752,5.086171627044678,2.085808277130127,0.19910787045955658,-0.14286188781261444,-2.0730667114257812,-5.173062801361084,6.454667568206787,-1.7381690740585327,-4.9005255699157715,-2.530785322189331,-0.07929857820272446,-0.5785514712333679,-5.0451436042785645,-5.291470050811768,-1.4216946363449097,-3.824556350708008,-3.8117570877075195,1.313627004623413,-4.96465539932251,-3.638805627822876,-2.104217052459717,-6.158078193664551,-5.599924087524414,-1.233411431312561,6.385858058929443,1.8011620044708252,4.729684352874756,4.315923690795898,5.196237564086914,2.1812543869018555,4.269369125366211,2.475449562072754,1.9289088249206543,1.026566505432129,4.070127010345459,0.16392779350280762,2.1164610385894775,0.7444855570793152,2.735267400741577,5.949986934661865,1.5452611446380615,0.21130871772766113,3.920909881591797,0.09212637692689896,0.895952582359314,-0.9312947988510132,-0.051198966801166534,-3.8295412063598633,-0.16001714766025543,-1.4854395389556885,4.3101654052734375
17,0.1615096777677536,-2.780320644378662,-0.4420125186443329,-1.6283109188079834,0.009844550862908363,-4.052623748779297,-1.0355767011642456,-1.885664701461792,-2.4650509357452393,-3.6932170391082764,-2.7747995853424072,0.15861113369464874,-4.4038238525390625,-4.998867988586426,-1.4438413381576538,-6.269731521606445,1.5049301385879517,5.528514385223389,5.750716209411621,1.1798449754714966,5.185190677642822,2.427708387374878,4.566261291503906,5.055907249450684,-4.993771553039551,0.243063822388649,-4.542057991027832,-2.648916482925415,-5.272412300109863,-1.1930495500564575,-5.400737762451172,-5.643322944641113,-0.41865700483322144,-0.38954079151153564,-4.263561725616455,-5.286558151245117,4.223552227020264,-5.258063316345215,-1.2905648946762085,-5.918499946594238,-1.6333507299423218,-4.374390125274658,-4.159143924713135,-0.4127039313316345,-0.1926184743642807,1.3838917016983032,5.700130939483643,4.27516508102417,5.872081279754639,2.1048355102539062,3.0339925289154053,5.52100133895874,3.803077459335327,3.8670759201049805,1.5116658210754395,5.235671520233154,5.084218978881836,0.8211468458175659,1.3414808511734009,0.19166846573352814,2.4855823516845703,4.911917686462402,1.7399259805679321,5.133366584777832,2.0287587642669678,0.19155630469322205,-0.15041345357894897,-2.1301162242889404,-5.12586784362793,6.490697860717773,-1.7736945152282715,-4.866052150726318,-2.5966885089874268,-0.10855981707572937,-0.5950074195861816,-4.9966278076171875,-5.3299431800842285,-1.4394826889038086,-3.8715500831604004,-3.760448694229126,1.3686877489089966,-4.9293341636657715,-3.6472768783569336,-2.046579599380493,-6.140600681304932,-5.648940086364746,-1.1866346597671509,6.432634353637695,1.7521458864212036,4.747161865234375,4.373560905456543,5.149481773376465,2.172783136367798,4.304690361022949,2.5267579555511475,1.8819149732589722,1.046918272972107,4.096339225769043,0.17214995622634888,2.1253957748413086,0.690028965473175,2.7564704418182373,5.989687919616699,1.481215000152588,0.14656277000904083,3.8738739490509033,0.08497500419616699,0.9266036748886108,-0.9006437063217163,-0.0583503432571888,-3.876577138900757,-0.22013750672340393,-1.550472378730774,4.342813968658447
18,0.15720847249031067,-2.8077340126037598,-0.4562540352344513,-1.629412055015564,-0.0007784171029925346,-4.092286109924316,-1.0609560012817383,-1.8203740119934082,-2.518465995788574,-3.7218523025512695,-2.8142247200012207,0.1685841679573059,-4.4120941162109375,-5.0203657150268555,-1.3813095092773438,-6.319164752960205,1.588173508644104,5.53983736038208,5.738987445831299,1.0902833938598633,5.178213119506836,2.490311622619629,4.623091697692871,5.017664909362793,-5.032013893127441,0.2500380873680115,-4.485227584838867,-2.586313247680664,-5.284696102142334,-1.2566337585449219,-5.41181755065918,-5.636829853057861,-0.3354136049747467,-0.3795677423477173,-4.307575702667236,-5.2645978927612305,4.241428375244141,-5.192878246307373,-1.3435871601104736,-5.94655179977417,-1.6753519773483276,-4.380621433258057,-4.1933112144470215,-0.35923048853874207,-0.2338792234659195,1.3426309823989868,5.753604412078857,4.2616047859191895,5.837913990020752,2.098604440689087,2.9919912815093994,5.492949485778809,3.7500550746917725,3.9322609901428223,1.5448251962661743,5.2846879959106445,5.045087814331055,0.8561577796936035,1.3536573648452759,0.17249850928783417,2.5336222648620605,4.879505634307861,1.7659233808517456,5.068632125854492,2.077136278152466,0.2166987508535385,-0.1252710074186325,-2.0817387104034424,-5.1906023025512695,6.460773468017578,-1.7424331903457642,-4.900487899780273,-2.5740134716033936,-0.1389816850423813,-0.559996485710144,-5.035758972167969,-5.280926704406738,-1.4063233137130737,-3.806659460067749,-3.8137283325195312,1.3150112628936768,-4.9569902420043945,-3.687818765640259,-2.0525803565979004,-6.176782131195068,-5.592576503753662,-1.2282034158706665,6.39106559753418,1.8085094690322876,4.710980415344238,4.367559909820557,5.214158535003662,2.1322412490844727,4.277034282684326,2.473478317260742,1.946805477142334,1.0215389728546143,4.056676864624023,0.16152699291706085,2.1242945194244385,0.6749865412712097,2.7274818420410156,6.011648178100586,1.545155644416809,0.21111178398132324,3.939004898071289,0.1034177616238594,0.9062969088554382,-0.9209504723548889,-0.039907585829496384,-3.811446189880371,-0.15114156901836395,-1.4872900247573853,4.298799991607666
19,0.15727004408836365,-2.7963175773620605,-0.4985744059085846,-1.618782639503479,0.006658541038632393,-4.064357280731201,-1.0185267925262451,-1.8945395946502686,-2.46867299079895,-3.6969902515411377,-2.8204474449157715,0.20150071382522583,-4.373956680297852,-4.995258808135986,-1.4098598957061768,-6.2728118896484375,1.6049880981445312,5.571678638458252,5.6768269538879395,1.1609015464782715,5.2216925621032715,2.41780161857605,4.573785781860352,5.027361869812012,-5.022316932678223,0.2459753155708313,-4.534533500671387,-2.658823251724243,-5.249999046325684,-1.1759247779846191,-5.479443073272705,-5.610649108886719,-0.31859898567199707,-0.34665119647979736,-4.2772393226623535,-5.220396041870117,4.2485809326171875,-5.267466068267822,-1.2942924499511719,-5.921182632446289,-1.6842867136001587,-4.340301036834717,-4.175171375274658,-0.4133223295211792,-0.17456118762493134,1.4019489288330078,5.699512481689453,4.303925514221191,5.856053829193115,2.1389245986938477,2.9830565452575684,5.5183186531066895,3.799349784851074,3.857672691345215,1.4981393814086914,5.258145809173584,5.084887981414795,0.8601062893867493,1.3595860004425049,0.14947009086608887,2.4915268421173096,4.914151668548584,1.7631127834320068,5.143329620361328,2.023406982421875,0.20553147792816162,-0.1364382803440094,-2.135468006134033,-5.115904808044434,6.489288806915283,-1.7538524866104126,-4.874788761138916,-2.619025468826294,-0.1542869657278061,-0.5560479760169983,-4.9959588050842285,-5.307468891143799,-1.4530091285705566,-3.881176471710205,-3.7646102905273438,1.369938850402832,-4.930212497711182,-3.6935131549835205,-2.010655164718628,-6.160567760467529,-5.646769046783447,-1.1684479713439941,6.4508209228515625,1.7543171644210815,4.727194786071777,4.409485340118408,5.1402668952941895,2.126546859741211,4.303812026977539,2.5225963592529297,1.872288465499878,1.0639681816101074,4.084605693817139,0.1689639538526535,2.1349239349365234,0.6322197318077087,2.7437610626220703,6.055850028991699,1.4846957921981812,0.14260053634643555,3.864612579345703,0.09714429825544357,0.9251537322998047,-0.9020936489105225,-0.046181049197912216,-3.885838508605957,-0.21848663687705994,-1.5492973327636719,4.329136371612549
20,0.1698252558708191,-2.80558443069458,-0.5115021467208862,-1.6367032527923584,-0.02764252759516239,-4.095476150512695,-1.067420482635498,-1.8262460231781006,-2.5142698287963867,-3.718348503112793,-2.8486487865448,0.2103348970413208,-4.37893009185791,-5.00175666809082,-1.3490785360336304,-6.329894065856934,1.6723803281784058,5.579990863800049,5.655450820922852,1.1316114664077759,5.158419609069824,2.486344337463379,4.620233535766602,4.995303153991699,-5.054375648498535,0.2465737760066986,-4.488085746765137,-2.590280532836914,-5.319478511810303,-1.1556788682937622,-5.498932361602783,-5.6048994064331055,-0.2512068450450897,-0.3378170132637024,-4.311996936798096,-5.175662994384766,4.260550498962402,-5.199329376220703,-1.3395030498504639,-5.942384243011475,-1.7125804424285889,-4.343772888183594,-4.192192077636719,-0.35681864619255066,-0.229018896818161,1.3474912643432617,5.756016254425049,4.293957710266113,5.839033126831055,2.1354525089263916,2.9547626972198486,5.497117042541504,3.7541391849517822,3.925809144973755,1.5589501857757568,5.275749206542969,5.046143531799316,0.8498257994651794,1.363884449005127,0.15021495521068573,2.528007745742798,4.896245956420898,1.744280457496643,5.075363636016846,2.059666633605957,0.21175965666770935,-0.13021010160446167,-2.099208354949951,-5.183870792388916,6.467125415802002,-1.7666285037994385,-4.899270534515381,-2.610227108001709,-0.1606365293264389,-0.5663284659385681,-5.034703254699707,-5.289865493774414,-1.3921983242034912,-3.8131775856018066,-3.8105924129486084,1.3231838941574097,-4.951362133026123,-3.7197585105895996,-2.013453960418701,-6.18164587020874,-5.588669776916504,-1.2230443954467773,6.396224498748779,1.812416434288025,4.706116676330566,4.406686782836914,5.208592414855957,2.100301504135132,4.282662391662598,2.476614236831665,1.940287470817566,1.0150744915008545,4.0534868240356445,0.13466289639472961,2.1170032024383545,0.618560791015625,2.732635498046875,6.100583076477051,1.535898208618164,0.19991867244243622,3.9326589107513428,0.10479778051376343,0.9272032380104065,-0.9000441431999207,-0.03852757439017296,-3.8177921772003174,-0.1607244908809662,-1.4989970922470093,4.294378757476807
21,0.15436382591724396,-2.801528215408325,-0.5325228571891785,-1.6263940334320068,-0.000658595934510231,-4.070045471191406,-1.0070165395736694,-1.880986213684082,-2.478022336959839,-3.7019336223602295,-2.85262131690979,0.23589880764484406,-4.355258941650391,-4.976508617401123,-1.385552167892456,-6.277493953704834,1.6860525608062744,5.603261470794678,5.601443767547607,1.1703745126724243,5.225634574890137,2.430250644683838,4.5795135498046875,4.998235702514648,-5.051443099975586,0.24873434007167816,-4.528805732727051,-2.646374225616455,-5.253491401672363,-1.108347773551941,-5.55678653717041,-5.5875349044799805,-0.2375345528125763,-0.31225311756134033,-4.2864885330200195,-5.143204689025879,4.260964870452881,-5.254263877868652,-1.3034473657608032,-5.925204277038574,-1.715440273284912,-4.318843364715576,-4.1732401847839355,-0.4167959690093994,-0.16109630465507507,1.4154138565063477,5.696038722991943,4.317701816558838,5.857985019683838,2.16038179397583,2.9519028663635254,5.514297008514404,3.7901947498321533,3.8708744049072266,1.4919849634170532,5.266373634338379,5.083662986755371,0.8921442627906799,1.3646522760391235,0.13952845335006714,2.5066168308258057,4.895976543426514,1.7893996238708496,5.130384922027588,2.018935203552246,0.2062140554189682,-0.13575570285320282,-2.139939785003662,-5.128849506378174,6.485972881317139,-1.7206281423568726,-4.909763813018799,-2.6310601234436035,-0.16451139748096466,-0.5240100026130676,-4.997183799743652,-5.299241065979004,-1.4591635465621948,-3.868037223815918,-3.7752633094787598,1.3646913766860962,-4.933782577514648,-3.7193567752838135,-1.9871686697006226,-6.165765762329102,-5.647522926330566,-1.1575387716293335,6.461730003356934,1.753563404083252,4.721996784210205,4.432971954345703,5.15380334854126,2.100703239440918,4.300241947174072,2.5119433403015137,1.8854278326034546,1.075478434562683,4.078917503356934,0.16164682805538177,2.127312421798706,0.5976592302322388,2.739607572555542,6.1330413818359375,1.5002449750900269,0.1568254679441452,3.8779637813568115,0.1097550243139267,0.9312041997909546,-0.8960431814193726,-0.03357032686471939,-3.8724873065948486,-0.20592224597930908,-1.5339545011520386,4.319887161254883
22,0.17694787681102753,-2.7986576557159424,-0.5390350222587585,-1.659074068069458,-0.05396091192960739,-4.093505859375,-1.0599696636199951,-1.8386898040771484,-2.5154683589935303,-3.720355272293091,-2.873516798019409,0.23998859524726868,-4.363673210144043,-4.982967853546143,-1.3258479833602905,-6.3362298011779785,1.7369993925094604,5.607529163360596,5.584986686706543,1.113100290298462,5.201554298400879,2.472329616546631,4.615808010101318,4.974385738372803,-5.075293064117432,0.2463308870792389,-4.49251127243042,-2.604295253753662,-5.278043746948242,-1.1613209247589111,-5.571096897125244,-5.584512233734131,-0.18658772110939026,-0.3081633448600769,-4.3130950927734375,-5.085399150848389,4.272990703582764,-5.211998462677002,-1.3407291173934937,-5.9437713623046875,-1.7342535257339478,-4.325926780700684,-4.185034275054932,-0.3551231324672699,-0.22020137310028076,1.3563088178634644,5.757711410522461,4.305739879608154,5.846190929412842,2.1532986164093018,2.9330897331237793,5.495729923248291,3.752912759780884,3.913139581680298,1.5546451807022095,5.265913009643555,5.045797348022461,0.8442854881286621,1.3679587841033936,0.14678102731704712,2.528334379196167,4.921587944030762,1.7227593660354614,5.088234901428223,2.045335292816162,0.2135695517063141,-0.12840020656585693,-2.113539695739746,-5.170999526977539,6.4678754806518555,-1.789084553718567,-4.887192249298096,-2.637859582901001,-0.16132758557796478,-0.5718687772750854,-5.0350494384765625,-5.299701690673828,-1.3965033292770386,-3.825814962387085,-3.813509941101074,1.3258928060531616,-4.95280122756958,-3.736074447631836,-1.9937137365341187,-6.1838765144348145,-5.587072372436523,-1.2158783674240112,6.403390407562256,1.8140138387680054,4.703886032104492,4.426426887512207,5.196237564086914,2.0839855670928955,4.281223297119141,2.473696708679199,1.927649974822998,1.0225253105163574,4.05545711517334,0.10834451019763947,2.094632625579834,0.5904680490493774,2.740943670272827,6.190846920013428,1.530925989151001,0.18822766840457916,3.9200687408447266,0.10088665038347244,0.9419239163398743,-0.8853234648704529,-0.042438700795173645,-3.8303823471069336,-0.1780906617641449,-1.5032140016555786,4.293280601501465
23,0.1501396894454956,-2.8016915321350098,-0.542989194393158,-1.6612439155578613,-0.016356704756617546,-4.069424629211426,-1.007391095161438,-1.8718913793563843,-2.481005907058716,-3.7030117511749268,-2.8714687824249268,0.26357993483543396,-4.346638202667236,-4.956454753875732,-1.3693114519119263,-6.284291744232178,1.7380152940750122,5.622604846954346,5.543239593505859,1.162563681602478,5.209575653076172,2.440825939178467,4.575887203216553,4.986678123474121,-5.063000679016113,0.23938697576522827,-4.5324320793151855,-2.635798931121826,-5.273717403411865,-1.1044085025787354,-5.616799354553223,-5.575170040130615,-0.1855718046426773,-0.2845720052719116,-4.289848804473877,-5.067287921905518,4.2680487632751465,-5.245372295379639,-1.305864691734314,-5.9258575439453125,-1.7283389568328857,-4.309090614318848,-4.164735794067383,-0.414215087890625,-0.15922154486179352,1.4172886610031128,5.698619365692139,4.323696136474609,5.866489410400391,2.1701347827911377,2.9390041828155518,5.513643741607666,3.7877769470214844,3.8797659873962402,1.4969137907028198,5.275949001312256,5.080934524536133,0.8961876630783081,1.3677136898040771,0.1384391039609909,2.520508050918579,4.878913402557373,1.790440320968628,5.121660232543945,2.0053086280822754,0.20634165406227112,-0.1356281042098999,-2.153566360473633,-5.137574195861816,6.487821578979492,-1.7158936262130737,-4.935336112976074,-2.6402244567871094,-0.16212041676044464,-0.5199666023254395,-4.999912261962891,-5.289665699005127,-1.4542347192764282,-3.8590564727783203,-3.7798478603363037,1.3656485080718994,-4.935069561004639,-3.7275426387786865,-1.9751518964767456,-6.166676044464111,-5.644259929656982,-1.157160997390747,6.4621076583862305,1.7568265199661255,4.721086502075195,4.44498872756958,5.162993431091309,2.092517375946045,4.298954963684082,2.5073587894439697,1.8944084644317627,1.0751038789749146,4.079538345336914,0.14594870805740356,2.0924627780914307,0.586025595664978,2.739898204803467,6.208958148956299,1.502234697341919,0.16563960909843445,3.8869731426239014,0.11277469247579575,0.9432776570320129,-0.8839697241783142,-0.030550656840205193,-3.863477945327759,-0.2032921314239502,-1.5316805839538574,4.316526889801025
24,0.17191898822784424,-2.7794458866119385,-0.5489065051078796,-1.6931465864181519,-0.07511009275913239,-4.0896077156066895,-1.0414453744888306,-1.8447169065475464,-2.5194976329803467,-3.7257330417633057,-2.8904709815979004,0.25793027877807617,-4.3609299659729,-4.971712589263916,-1.3194750547409058,-6.3326239585876465,1.7794713973999023,5.6188130378723145,5.542707443237305,1.0929867029190063,5.207032680511475,2.467440366744995,4.611337184906006,4.9619903564453125,-5.087688446044922,0.23098351061344147,-4.496982097625732,-2.609184503555298,-5.273610591888428,-1.1867225170135498,-5.616211414337158,-5.578644275665283,-0.1441156268119812,-0.2902216613292694,-4.313183784484863,-5.015621185302734,4.28463888168335,-5.218259334564209,-1.3446964025497437,-5.948713302612305,-1.7445321083068848,-4.322561264038086,-4.180633068084717,-0.36219462752342224,-0.2067032903432846,1.3698068857192993,5.750639915466309,4.3047099113464355,5.850592136383057,2.1566638946533203,2.922811269760132,5.490787982940674,3.7489452362060547,3.906879186630249,1.537661075592041,5.265313625335693,5.042115211486816,0.8578884601593018,1.3725192546844482,0.15132558345794678,2.5349202156066895,4.929969310760498,1.7260463237762451,5.0948896408081055,2.0342748165130615,0.21953600645065308,-0.12243374437093735,-2.1246001720428467,-5.164344787597656,6.465575218200684,-1.780572533607483,-4.885608196258545,-2.6630120277404785,-0.1531379073858261,-0.5582658052444458,-5.038731575012207,-5.3003010749816895,-1.413487434387207,-3.831909656524658,-3.8191330432891846,1.3254505395889282,-4.958663463592529,-3.742367744445801,-1.9878493547439575,-6.190008163452148,-5.593720436096191,-1.2040770053863525,6.415191650390625,1.8073656558990479,4.697754383087158,4.432291030883789,5.189726829528809,2.0776922702789307,4.275361061096191,2.468073606491089,1.9215552806854248,1.041049599647522,4.05935525894165,0.08719532191753387,2.0605602264404297,0.5791652798652649,2.760021924972534,6.260624885559082,1.5315521955490112,0.18575890362262726,3.9140050411224365,0.09365223348140717,0.9423899054527283,-0.8848574757575989,-0.049673113971948624,-3.8364460468292236,-0.1865852028131485,-1.5016682147979736,4.293191909790039
25,0.1482354700565338,-2.8094754219055176,-0.5448554754257202,-1.7175837755203247,-0.040736306458711624,-4.0658793449401855,-1.011513590812683,-1.8681236505508423,-2.4828672409057617,-3.6973886489868164,-2.8782262802124023,0.2840980291366577,-4.337654113769531,-4.938429355621338,-1.3550724983215332,-6.293456554412842,1.768174171447754,5.634503364562988,5.509716033935547,1.1500635147094727,5.197678089141846,2.4458975791931152,4.570117950439453,4.991333961486816,-5.058344841003418,0.21502061188220978,-4.538201332092285,-2.6307272911071777,-5.290298938751221,-1.1187775135040283,-5.653632640838623,-5.570573329925537,-0.15541280806064606,-0.26405391097068787,-4.290552139282227,-5.002183437347412,4.275753974914551,-5.241866588592529,-1.3070555925369263,-5.9204301834106445,-1.7283130884170532,-4.30116605758667,-4.153193473815918,-0.4061274230480194,-0.16469457745552063,1.4118156433105469,5.706707000732422,4.3310770988464355,5.8780317306518555,2.1780593395233154,2.939030170440674,5.519071102142334,3.786586046218872,3.8832716941833496,1.5040174722671509,5.280093669891357,5.0757060050964355,0.88858562707901,1.373374104499817,0.1364544779062271,2.5372798442840576,4.884052276611328,1.775901198387146,5.11848783493042,1.9907715320587158,0.2059863656759262,-0.13598337769508362,-2.1681034564971924,-5.140746593475342,6.496446132659912,-1.7261605262756348,-4.934073448181152,-2.6494460105895996,-0.15563876926898956,-0.5275686383247375,-5.005140781402588,-5.285521030426025,-1.4471310377120972,-3.8553359508514404,-3.7830026149749756,1.36745285987854,-4.930363178253174,-3.7239863872528076,-1.9636911153793335,-6.164778232574463,-5.635014533996582,-1.1639288663864136,6.455339431762695,1.7660715579986572,4.722984313964844,4.456449508666992,5.1663899421691895,2.096073627471924,4.303661346435547,2.504204034805298,1.8981287479400635,1.0709813833236694,4.083083629608154,0.12156911194324493,2.0361227989196777,0.5826579332351685,2.7311320304870605,6.274062633514404,1.4991402626037598,0.17169907689094543,3.890695095062256,0.10278971493244171,0.9576491117477417,-0.8695982694625854,-0.04053562879562378,-3.8597559928894043,-0.20403261482715607,-1.5340286493301392,4.315823554992676
26,0.16405420005321503,-2.748959541320801,-0.5523234605789185,-1.7264986038208008,-0.09320344775915146,-4.087883472442627,-1.023412823677063,-1.8472857475280762,-2.522688627243042,-3.7379815578460693,-2.9045064449310303,0.26521313190460205,-4.368854522705078,-4.97410774230957,-1.320633053779602,-6.325967311859131,1.8128610849380493,5.618532657623291,5.5273966789245605,1.0847358703613281,5.204526901245117,2.465932846069336,4.606204986572266,4.950490951538086,-5.099187850952148,0.20254972577095032,-4.502114295959473,-2.610692024230957,-5.278768539428711,-1.1952258348464966,-5.636422634124756,-5.583545684814453,-0.11072587966918945,-0.28293880820274353,-4.316478252410889,-4.967189788818359,4.304385662078857,-5.221164226531982,-1.347680687904358,-5.960710525512695,-1.7520188093185425,-4.331823348999023,-4.18477725982666,-0.37300145626068115,-0.19363869726657867,1.3828715085983276,5.739832878112793,4.290696620941162,5.846447944641113,2.147401809692383,2.9153244495391846,5.478790760040283,3.7459609508514404,3.9039740562438965,1.5198240280151367,5.272569179534912,5.02872896194458,0.8695370554924011,1.380456566810608,0.15809586644172668,2.538179636001587,4.926940441131592,1.7309834957122803,5.09837007522583,2.023705005645752,0.2333446443080902,-0.10862509906291962,-2.1351699829101562,-5.160864353179932,6.456159591674805,-1.7688355445861816,-4.89185094833374,-2.6946144104003906,-0.1421218365430832,-0.5466172099113464,-5.052117824554443,-5.293045520782471,-1.4313244819641113,-3.834533929824829,-3.823416233062744,1.3258179426193237,-4.971441268920898,-3.747445583343506,-1.9935219287872314,-6.204159736633301,-5.602417945861816,-1.1929261684417725,6.426342010498047,1.7986681461334229,4.683602809906006,4.426618576049805,5.186427116394043,2.0726144313812256,4.262583255767822,2.4637904167175293,1.9189308881759644,1.0590821504592896,4.061079502105713,0.0691019669175148,2.027208089828491,0.5728716254234314,2.7902066707611084,6.309056282043457,1.5351736545562744,0.1877565085887909,3.911484956741333,0.08639881759881973,0.9245021343231201,-0.902745246887207,-0.05692652240395546,-3.838966131210327,-0.1829768270254135,-1.4958643913269043,4.289897441864014
27,0.14820273220539093,-2.815385103225708,-0.5440589785575867,-1.7783417701721191,-0.04748503863811493,-4.059303283691406,-1.017905354499817,-1.865623950958252,-2.4891724586486816,-3.683401107788086,-2.8738574981689453,0.300642728805542,-4.320244312286377,-4.918209552764893,-1.3442542552947998,-6.301095008850098,1.7811899185180664,5.647950649261475,5.488039493560791,1.1271770000457764,5.196627140045166,2.449218511581421,4.5674920082092285,5.009774208068848,-5.039904594421387,0.18629774451255798,-4.54082727432251,-2.627406358718872,-5.301111698150635,-1.1381473541259766,-5.67887544631958,-5.569223880767822,-0.14239707589149475,-0.2475091964006424,-4.288502216339111,-4.949187755584717,4.283235549926758,-5.239742279052734,-1.3122990131378174,-5.90704345703125,-1.7182796001434326,-4.28737211227417,-4.1363372802734375,-0.39852985739707947,-0.1710793823003769,1.405430793762207,5.714304447174072,4.34424352645874,5.894887924194336,2.1918532848358154,2.949063777923584,5.5324578285217285,3.7813425064086914,3.8853962421417236,1.5127737522125244,5.277584075927734,5.075026988983154,0.8847575187683105,1.381357192993164,0.12360615283250809,2.5633652210235596,4.891458511352539,1.7607754468917847,5.1169538497924805,1.9804407358169556,0.20020373165607452,-0.1417660117149353,-2.178434133529663,-5.142280578613281,6.512427806854248,-1.7348980903625488,-4.928997039794922,-2.65724515914917,-0.14431707561016083,-0.531396746635437,-5.005819797515869,-5.288030624389648,-1.4383747577667236,-3.852903366088867,-3.7902536392211914,1.3652207851409912,-4.9173078536987305,-3.7120587825775146,-1.9449820518493652,-6.155465602874756,-5.624481678009033,-1.1726186275482178,6.446649551391602,1.776604413986206,4.732296943664551,4.475158214569092,5.168416976928711,2.108001232147217,4.31671667098999,2.496953010559082,1.9005615711212158,1.0645896196365356,4.089659690856934,0.11482037603855133,1.9753649234771729,0.5808611512184143,2.7231836318969727,6.3270583152771,1.4966495037078857,0.17190025746822357,3.893181324005127,0.09182747453451157,0.9823104739189148,-0.8449369072914124,-0.051497865468263626,-3.857269763946533,-0.2014421820640564,-1.5335361957550049,4.317873477935791
28,0.15625783801078796,-2.738546133041382,-0.5549767017364502,-1.7471927404403687,-0.10511735081672668,-4.088518142700195,-1.0086605548858643,-1.8503894805908203,-2.5201072692871094,-3.7502737045288086,-2.918553590774536,0.26310989260673523,-4.379180431365967,-4.983127117156982,-1.3283196687698364,-6.314831256866455,1.8414098024368286,5.6188859939575195,5.523377895355225,1.080859661102295,5.198097229003906,2.4641411304473877,4.596280097961426,4.9431538581848145,-5.10652494430542,0.1715601235628128,-4.5120391845703125,-2.6124837398529053,-5.296963691711426,-1.1896116733551025,-5.645742416381836,-5.594930648803711,-0.08217725902795792,-0.28504201769828796,-4.322644233703613,-4.9373040199279785,4.337121963500977,-5.22463846206665,-1.343775987625122,-5.973358631134033,-1.7594759464263916,-4.345577716827393,-4.193613052368164,-0.3854779899120331,-0.1811496466398239,1.3953605890274048,5.727356433868408,4.273008823394775,5.837612152099609,2.1336474418640137,2.907867670059204,5.466142654418945,3.7498652935028076,3.9004998207092285,1.5040029287338257,5.285833835601807,5.010079383850098,0.8789445161819458,1.3924808502197266,0.15483182668685913,2.5329978466033936,4.925812244415283,1.7334541082382202,5.102536201477051,2.00689697265625,0.24690081179141998,-0.09506893157958984,-2.151977777481079,-5.156698226928711,6.445479393005371,-1.7586499452590942,-4.894362926483154,-2.7215545177459717,-0.12536026537418365,-0.5372097492218018,-5.070767402648926,-5.279780864715576,-1.4471455812454224,-3.837677478790283,-3.82071590423584,1.333194375038147,-4.984151840209961,-3.754227876663208,-2.0027778148651123,-6.219833850860596,-5.611902236938477,-1.1826002597808838,6.436667442321777,1.7891836166381836,4.667928695678711,4.417362213134766,5.182958126068115,2.0658321380615234,4.24987268447876,2.4664907455444336,1.9157874584197998,1.0738344192504883,4.0604448318481445,0.057188063859939575,2.006513833999634,0.5637697577476501,2.8000614643096924,6.338942050933838,1.5311336517333984,0.17199057340621948,3.9084835052490234,0.07760269194841385,0.9062750935554504,-0.9209722876548767,-0.06572264432907104,-3.8419675827026367,-0.17175763845443726,-1.4927176237106323,4.283731460571289
29,0.1433698534965515,-2.799394369125366,-0.5403717756271362,-1.8139309883117676,-0.03998887538909912,-4.052548885345459,-1.0239571332931519,-1.8627277612686157,-2.5018651485443115,-3.68182373046875,-2.870553970336914,0.3070075213909149,-4.311779975891113,-4.91357946395874,-1.3368988037109375,-6.305859088897705,1.794358253479004,5.666484832763672,5.474127769470215,1.0947983264923096,5.210519790649414,2.4526240825653076,4.5692267417907715,5.01614236831665,-5.033536434173584,0.1576249599456787,-4.539092540740967,-2.6240007877349854,-5.306572914123535,-1.1523354053497314,-5.6949262619018555,-5.570379257202148,-0.129228875041008,-0.24114437401294708,-4.285699844360352,-4.909816741943359,4.305777549743652,-5.237118244171143,-1.3225866556167603,-5.9060163497924805,-1.709036111831665,-4.283084392547607,-4.130237102508545,-0.3891386091709137,-0.1791435331106186,1.3973667621612549,5.723696231842041,4.3417863845825195,5.9009881019592285,2.196141004562378,2.9583075046539307,5.533484935760498,3.77105450630188,3.8880202770233154,1.5208487510681152,5.269908428192139,5.068586826324463,0.886227011680603,1.392756700515747,0.10017570108175278,2.5726027488708496,4.899730205535889,1.7481642961502075,5.115169048309326,1.9750821590423584,0.20409362018108368,-0.13787612318992615,-2.1837925910949707,-5.1440653800964355,6.514115810394287,-1.7388737201690674,-4.922897815704346,-2.6801769733428955,-0.12019098550081253,-0.5299272537231445,-5.0122599601745605,-5.295706272125244,-1.4302997589111328,-3.849987506866455,-3.802419900894165,1.3579343557357788,-4.916204929351807,-3.7031378746032715,-1.936038851737976,-6.155315399169922,-5.612276554107666,-1.1830238103866577,6.436244010925293,1.7888094186782837,4.732447147369385,4.484101295471191,5.171549320220947,2.11692214012146,4.317819595336914,2.4847867488861084,1.9034775495529175,1.0585378408432007,4.096414089202881,0.12231653928756714,1.9397755861282349,0.5772020220756531,2.737982749938965,6.366429328918457,1.5006978511810303,0.16258320212364197,3.8962490558624268,0.08709096163511276,0.9801518321037292,-0.8470955491065979,-0.05623437836766243,-3.8542020320892334,-0.17511716485023499,-1.519830346107483,4.320675849914551
30,0.13712666928768158,-2.7454373836517334,-0.5579150319099426,-1.7720483541488647,-0.10374930500984192,-4.091550350189209,-1.002367615699768,-1.852941870689392,-2.5171165466308594,-3.7431013584136963,-2.9212589263916016,0.26269376277923584,-4.370270729064941,-4.974923610687256,-1.339745283126831,-6.301412582397461,1.8519006967544556,5.628321647644043,5.512362957000732,1.0860310792922974,5.199533939361572,2.4627017974853516,4.582662582397461,4.959772109985352,-5.089906692504883,0.13376659154891968,-4.525656700134277,-2.6139230728149414,-5.318397045135498,-1.1593645811080933,-5.6592841148376465,-5.607670307159424,-0.07168644666671753,-0.28545811772346497,-4.328482627868652,-4.914162635803223,4.366370677947998,-5.2273383140563965,-1.3376997709274292,-5.966952800750732,-1.7553340196609497,-4.34183931350708,-4.185573101043701,-0.3945045471191406,-0.17309728264808655,1.403412938117981,5.718330383300781,4.272709846496582,5.845652103424072,2.1373860836029053,2.9120094776153564,5.472548484802246,3.75594162940979,3.8977999687194824,1.4972541332244873,5.299276828765869,5.001519203186035,0.8964848518371582,1.4073978662490845,0.13375936448574066,2.5429656505584717,4.921221733093262,1.7324481010437012,5.1059250831604,1.9871231317520142,0.235514298081398,-0.10645545274019241,-2.1717517375946045,-5.153309345245361,6.452620983123779,-1.7493046522140503,-4.900835990905762,-2.7253689765930176,-0.0980590432882309,-0.5196694135665894,-5.079327583312988,-5.266337871551514,-1.4538943767547607,-3.8401119709014893,-3.816714286804199,1.343091368675232,-4.977349281311035,-3.750791072845459,-1.9937628507614136,-6.215383529663086,-5.617463111877441,-1.1773570775985718,6.441910743713379,1.7836226224899292,4.672379016876221,4.426377296447754,5.181178092956543,2.0692691802978516,4.2566752433776855,2.470492362976074,1.9133529663085938,1.0801273584365845,4.057412624359131,0.058556102216243744,1.9816582202911377,0.5533090233802795,2.792126178741455,6.362083435058594,1.5173503160476685,0.1467539519071579,3.906149387359619,0.06666066497564316,0.9139618277549744,-0.9132855534553528,-0.07666467130184174,-3.844301700592041,-0.1544731706380844,-1.496370553970337,4.27789306640625
31,0.12709110975265503,-2.7870380878448486,-0.538036048412323,-1.8252379894256592,-0.04259997978806496,-4.046167850494385,-1.0246174335479736,-1.8615760803222656,-2.511368989944458,-3.692723512649536,-2.876828670501709,0.3038801848888397,-4.317344665527344,-4.921573638916016,-1.3340362310409546,-6.306589603424072,1.8142658472061157,5.674190521240234,5.475758075714111,1.0854456424713135,5.2308430671691895,2.4534215927124023,4.565080642700195,5.012630939483643,-5.037047863006592,0.11814984679222107,-4.543238639831543,-2.6232032775878906,-5.301079273223877,-1.1417851448059082,-5.695012092590332,-5.577789306640625,-0.10932126641273499,-0.24427169561386108,-4.280803680419922,-4.879796028137207,4.339223384857178,-5.236057758331299,-1.3295226097106934,-5.917438983917236,-1.7087187767028809,-4.293066501617432,-4.135403633117676,-0.3824179172515869,-0.18458835780620575,1.391921877861023,5.730416774749756,4.323625564575195,5.895821571350098,2.1861586570739746,2.958624839782715,5.522062301635742,3.7641186714172363,3.889080762863159,1.5226924419403076,5.258547782897949,5.054937362670898,0.8813139200210571,1.4073915481567383,0.08783911913633347,2.5658836364746094,4.8990607261657715,1.744038701057434,5.114931583404541,1.9672547578811646,0.22198815643787384,-0.11998159438371658,-2.191620111465454,-5.144302845001221,6.502567768096924,-1.7327817678451538,-4.924176216125488,-2.7078611850738525,-0.1052718386054039,-0.5348403453826904,-5.025909423828125,-5.307066917419434,-1.4284560680389404,-3.8487071990966797,-3.8109796047210693,1.3542588949203491,-4.927308559417725,-3.7044665813446045,-1.9413069486618042,-6.164881706237793,-5.60357141494751,-1.1904412508010864,6.428826332092285,1.7975143194198608,4.722880840301514,4.4788336753845215,5.173366069793701,2.115593671798706,4.306715965270996,2.476227045059204,1.9047577381134033,1.057877540588379,4.102795124053955,0.11970542371273041,1.9284685850143433,0.5719196796417236,2.749622344970703,6.396450042724609,1.5052801370620728,0.15007436275482178,3.8977162837982178,0.07590477913618088,0.960745096206665,-0.8665022850036621,-0.06742055714130402,-3.8527348041534424,-0.1470002681016922,-1.505564570426941,4.3255720138549805
32,0.11075948178768158,-2.752675771713257,-0.5560156106948853,-1.797033667564392,-0.1062031015753746,-4.098142147064209,-1.0002702474594116,-1.8523377180099487,-2.52099871635437,-3.7347657680511475,-2.918490409851074,0.26677215099334717,-4.358467102050781,-4.964112281799316,-1.3476099967956543,-6.292208194732666,1.8544996976852417,5.632413864135742,5.507307529449463,1.0935053825378418,5.2065229415893555,2.4635603427886963,4.57182502746582,4.977570056915283,-5.072108745574951,0.0857652798295021,-4.536494255065918,-2.6130645275115967,-5.327747821807861,-1.1310503482818604,-5.665620803833008,-5.619775295257568,-0.0690874457359314,-0.28137972950935364,-4.334249973297119,-4.891360759735107,4.38599157333374,-5.226847171783447,-1.338889241218567,-5.959084987640381,-1.7463736534118652,-4.335287570953369,-4.1742329597473145,-0.4000467360019684,-0.16836990416049957,1.4081404209136963,5.712787628173828,4.274030685424805,5.856992244720459,2.143937349319458,2.9209699630737305,5.480416297912598,3.7547521591186523,3.89829158782959,1.4955388307571411,5.309096813201904,4.999814033508301,0.9137824177742004,1.4221004247665405,0.12485581636428833,2.561044454574585,4.918441295623779,1.7260088920593262,5.106142997741699,1.9756463766098022,0.22701099514961243,-0.1149587482213974,-2.1832284927368164,-5.1530914306640625,6.460560321807861,-1.7456533908843994,-4.903796195983887,-2.724604606628418,-0.07917210459709167,-0.5023718476295471,-5.081032752990723,-5.2565178871154785,-1.455609679222107,-3.8393914699554443,-3.8200924396514893,1.345760464668274,-4.969237804412842,-3.7434587478637695,-1.981807827949524,-6.206376552581787,-5.61905574798584,-1.1761423349380493,6.443125247955322,1.7820297479629517,4.6813859939575195,4.438333034515381,5.182564735412598,2.076601505279541,4.264786720275879,2.467114210128784,1.9140737056732178,1.082224726676941,4.050820827484131,0.05610229820013046,1.9566729068756104,0.5501313209533691,2.784433126449585,6.384885311126709,1.5073769092559814,0.1315697729587555,3.906994581222534,0.05691871792078018,0.917466938495636,-0.9097804427146912,-0.08640661835670471,-3.843456506729126,-0.14315946400165558,-1.498997449874878,4.272125720977783
33,0.1075335368514061,-2.778268814086914,-0.5372387766838074,-1.8358012437820435,-0.0549817830324173,-4.043469429016113,-1.023674726486206,-1.8623361587524414,-2.5165159702301025,-3.70062518119812,-2.883246898651123,0.3016347289085388,-4.3209943771362305,-4.9274091720581055,-1.3315964937210083,-6.307272434234619,1.8276115655899048,5.6718010902404785,5.482458114624023,1.0849690437316895,5.246779918670654,2.452068567276001,4.55685567855835,5.0127739906311035,-5.036904811859131,0.07166177034378052,-4.551463603973389,-2.624556303024292,-5.293405055999756,-1.1294970512390137,-5.689969539642334,-5.5895490646362305,-0.0959756001830101,-0.246517151594162,-4.277215480804443,-4.853326320648193,4.3666582107543945,-5.236936569213867,-1.33323335647583,-5.925737380981445,-1.7092959880828857,-4.301676273345947,-4.13950252532959,-0.37783294916152954,-0.1880376636981964,1.3884726762771606,5.735001564025879,4.30816650390625,5.891722679138184,2.177549123764038,2.958047389984131,5.513763904571533,3.7604079246520996,3.8882017135620117,1.5228798389434814,5.253373622894287,5.0450639724731445,0.8766822814941406,1.422448992729187,0.08669977635145187,2.5519280433654785,4.895476341247559,1.7417447566986084,5.116608619689941,1.9601303339004517,0.23814816772937775,-0.10382157564163208,-2.198744535446167,-5.14262580871582,6.49413537979126,-1.7245371341705322,-4.927170276641846,-2.736018657684326,-0.09980856627225876,-0.5394719839096069,-5.035782814025879,-5.312241077423096,-1.4282686710357666,-3.8493669033050537,-3.8156092166900635,1.354029655456543,-4.9353251457214355,-3.707202911376953,-1.9446115493774414,-6.171268939971924,-5.596144199371338,-1.1966948509216309,6.422572612762451,1.804941177368164,4.716493606567383,4.475529193878174,5.172901153564453,2.1128573417663574,4.298699378967285,2.47159743309021,1.9040982723236084,1.0588202476501465,4.105493545532227,0.10732361674308777,1.917905330657959,0.5676359534263611,2.7585952281951904,6.422919750213623,1.507142186164856,0.14098970592021942,3.897287368774414,0.06579010933637619,0.9455047249794006,-0.8817426562309265,-0.0775352269411087,-3.853163719177246,-0.1298857033252716,-1.4962502717971802,4.329160213470459
34,0.08526255190372467,-2.759232759475708,-0.5530961155891418,-1.8168561458587646,-0.1118406131863594,-4.098361015319824,-0.9999693632125854,-1.8499089479446411,-2.526294708251953,-3.730102300643921,-2.9157602787017822,0.27174118161201477,-4.349702835083008,-4.957346439361572,-1.3536401987075806,-6.28499174118042,1.8560141324996948,5.634624004364014,5.507253170013428,1.0978569984436035,5.210446834564209,2.4659290313720703,4.5631632804870605,4.990313529968262,-5.059365272521973,0.037173252552747726,-4.545156002044678,-2.6106958389282227,-5.333376884460449,-1.1129332780838013,-5.666933059692383,-5.62782621383667,-0.06757298111915588,-0.27641069889068604,-4.3320817947387695,-4.868257999420166,4.4018940925598145,-5.224589824676514,-1.3419536352157593,-5.954637050628662,-1.7382080554962158,-4.3322625160217285,-4.167186260223389,-0.40552252531051636,-0.16353340446949005,1.412976861000061,5.707311630249023,4.27177619934082,5.864038944244385,2.146963357925415,2.929135322570801,5.484864234924316,3.751687526702881,3.9005484580993652,1.495963454246521,5.309126853942871,4.997842788696289,0.9254353642463684,1.435848355293274,0.12408564984798431,2.582667112350464,4.918541431427002,1.7161204814910889,5.104605674743652,1.9684263467788696,0.2285921573638916,-0.11337758600711823,-2.190448522567749,-5.154628753662109,6.464991092681885,-1.744499921798706,-4.902608871459961,-2.720250368118286,-0.07009865343570709,-0.49071890115737915,-5.083003997802734,-5.256487846374512,-1.455185055732727,-3.8369040489196777,-3.8250768184661865,1.3463259935379028,-4.964696884155273,-3.737562417984009,-1.9728569984436035,-6.200232982635498,-5.620344638824463,-1.1749764680862427,6.444290637969971,1.780740737915039,4.687529563903809,4.447283744812012,5.185308933258057,2.0824978351593018,4.269327640533447,2.462129831314087,1.916561245918274,1.082525610923767,4.050601959228516,0.05046478658914566,1.9368504285812378,0.5493873953819275,2.778042793273926,6.40798807144165,1.500199317932129,0.12231810390949249,3.909660816192627,0.04562581703066826,0.917330801486969,-0.9099165797233582,-0.09769952297210693,-3.840790271759033,-0.13558514416217804,-1.5001994371414185,4.274293899536133
35,0.08872262388467789,-2.770481586456299,-0.5364344716072083,-1.8462637662887573,-0.06796002388000488,-4.049505710601807,-1.0200538635253906,-1.864859938621521,-2.5192196369171143,-3.705143451690674,-2.888066530227661,0.30151987075805664,-4.321530342102051,-4.93090295791626,-1.328495740890503,-6.308916091918945,1.8351694345474243,5.667044162750244,5.488073825836182,1.08476984500885,5.256978511810303,2.4490668773651123,4.547675132751465,5.015265941619873,-5.034412860870361,0.02742718905210495,-4.560644149780273,-2.6275579929351807,-5.2885518074035645,-1.1217303276062012,-5.685810565948486,-5.6011528968811035,-0.08841772377490997,-0.24663202464580536,-4.281339645385742,-4.83262825012207,4.388561725616455,-5.239663600921631,-1.3353354930877686,-5.930484294891357,-1.7087548971176147,-4.307939529418945,-4.142282485961914,-0.37404224276542664,-0.19084754586219788,1.3856626749038696,5.7387919425964355,4.296015739440918,5.888942718505859,2.1712863445281982,2.9585883617401123,5.509016990661621,3.758305549621582,3.885474443435669,1.5205278396606445,5.258855819702148,5.036839962005615,0.8773226737976074,1.4367499351501465,0.08970621973276138,2.536284923553467,4.890639781951904,1.741181492805481,5.120112419128418,1.9551697969436646,0.24913741648197174,-0.09283233433961868,-2.203705072402954,-5.139122009277344,6.489316940307617,-1.7140737771987915,-4.930741786956787,-2.762049436569214,-0.09621444344520569,-0.5388315916061401,-5.044006824493408,-5.306758880615234,-1.4306206703186035,-3.8518576622009277,-3.8179337978363037,1.3553920984268188,-4.939940929412842,-3.7093536853790283,-1.9448786973953247,-6.174755573272705,-5.588775634765625,-1.2029443979263306,6.416322708129883,1.8123095035552979,4.713006973266602,4.475261688232422,5.170296669006348,2.1107065677642822,4.294083595275879,2.4692728519439697,1.9016075134277344,1.062441110610962,4.099457263946533,0.09434537589550018,1.9074428081512451,0.5648425221443176,2.7673959732055664,6.443617820739746,1.5084829330444336,0.13545949757099152,3.895106077194214,0.0592232272028923,0.9348069429397583,-0.8924404382705688,-0.08410211652517319,-3.8553450107574463,-0.11850868910551071,-1.4881579875946045,4.32503604888916
36,0.061707526445388794,-2.7652716636657715,-0.550345778465271,-1.8310580253601074,-0.11815725266933441,-4.0926408767700195,-1.0018737316131592,-1.8455549478530884,-2.5314197540283203,-3.72770357131958,-2.9139180183410645,0.27660661935806274,-4.342950820922852,-4.953344345092773,-1.3585125207901,-6.278979301452637,1.8572715520858765,5.636645793914795,5.5084638595581055,1.0990601778030396,5.211734771728516,2.4698948860168457,4.55670690536499,4.998948574066162,-5.050730228424072,-0.0020621176809072495,-4.551612377166748,-2.6067299842834473,-5.337773323059082,-1.101008415222168,-5.667018890380859,-5.633057117462158,-0.06631561368703842,-0.27154529094696045,-4.323762893676758,-4.845938205718994,4.416616916656494,-5.220486164093018,-1.3452398777008057,-5.95228385925293,-1.7311099767684937,-4.331906318664551,-4.163235664367676,-0.4108130633831024,-0.15864406526088715,1.4178661108016968,5.70202112197876,4.266978740692139,5.867989540100098,2.1473195552825928,2.9362332820892334,5.487217426300049,3.748401165008545,3.9046521186828613,1.4990010261535645,5.3023810386657715,4.993764400482178,0.9333431124687195,1.4483634233474731,0.12448091804981232,2.598271608352661,4.920533180236816,1.7041186094284058,5.101170063018799,1.963958978652954,0.23375657200813293,-0.10821319371461868,-2.194915771484375,-5.158064365386963,6.467318534851074,-1.7443510293960571,-4.8989739418029785,-2.7172722816467285,-0.06712622195482254,-0.48281118273735046,-5.087082386016846,-5.263233661651611,-1.4521474838256836,-3.8325634002685547,-3.8299195766448975,1.3463791608810425,-4.9623894691467285,-3.7334342002868652,-1.9659764766693115,-6.196397304534912,-5.621366500854492,-1.1737979650497437,6.445469379425049,1.7797187566757202,4.6913652420043945,4.454164028167725,5.189626693725586,2.0866260528564453,4.271635055541992,2.457287073135376,1.9209016561508179,1.0806212425231934,4.05632209777832,0.044148147106170654,1.922648549079895,0.5493109226226807,2.77284574508667,6.430307865142822,1.4935402870178223,0.11620769649744034,3.9142515659332275,0.03368561342358589,0.9158329367637634,-0.9114144444465637,-0.1096397340297699,-3.8361995220184326,-0.129780575633049,-1.5008870363235474,4.2826128005981445
37,0.07127401232719421,-2.7649848461151123,-0.5362057089805603,-1.8540408611297607,-0.07853754609823227,-4.058161735534668,-1.0136252641677856,-1.8694555759429932,-2.5207276344299316,-3.7077975273132324,-2.8916175365448,0.3029484450817108,-4.320250034332275,-4.932894229888916,-1.3259419202804565,-6.310403347015381,1.8396037817001343,5.663399696350098,5.491874694824219,1.085917353630066,5.262848854064941,2.4440786838531494,4.538764476776123,5.01812744140625,-5.031551361083984,-0.0078087761066854,-4.569554805755615,-2.6325461864471436,-5.286430358886719,-1.1146944761276245,-5.683334827423096,-5.6103315353393555,-0.08398334681987762,-0.24520345032215118,-4.287848472595215,-4.819724082946777,4.407140731811523,-5.244563579559326,-1.3362711668014526,-5.933165073394775,-1.7069225311279297,-4.313063144683838,-4.144164085388184,-0.3717430531978607,-0.19269715249538422,1.3838130235671997,5.741091251373291,4.285458087921143,5.88706111907959,2.1661627292633057,2.960420846939087,5.506336212158203,3.7573697566986084,3.8805744647979736,1.5154528617858887,5.26778507232666,5.028810977935791,0.8812583684921265,1.449502944946289,0.09414666891098022,2.532165050506592,4.885663986206055,1.741422414779663,5.125720024108887,1.9513392448425293,0.25687533617019653,-0.08509444445371628,-2.2075355052948,-5.133514404296875,6.4865875244140625,-1.7025374174118042,-4.934382438659668,-2.775860548019409,-0.09219161421060562,-0.5348959565162659,-5.052035808563232,-5.297829627990723,-1.4356956481933594,-3.856510639190674,-3.819108486175537,1.3578523397445679,-4.942750453948975,-3.710902214050293,-1.94345223903656,-6.176681995391846,-5.58257532119751,-1.2084589004516602,6.410808086395264,1.8185099363327026,4.711080551147461,4.476688385009766,5.165348052978516,2.1091580390930176,4.291274070739746,2.4680981636047363,1.8969544172286987,1.068869709968567,4.090801239013672,0.0837678536772728,1.8996657133102417,0.5623676180839539,2.7747535705566406,6.456521987915039,1.5080772638320923,0.13159020245075226,3.890855312347412,0.055610354989767075,0.9269185066223145,-0.9003288745880127,-0.08771498501300812,-3.859595775604248,-0.11090036481618881,-1.4811478853225708,4.3185272216796875
38,0.040824007242918015,-2.7677061557769775,-0.5474936962127686,-1.8401849269866943,-0.12427354604005814,-4.086968898773193,-1.0053702592849731,-1.839045763015747,-2.53613543510437,-3.7262566089630127,-2.9130918979644775,0.28213435411453247,-4.337086200714111,-4.950677394866943,-1.3613172769546509,-6.274951457977295,1.8578299283981323,5.638067245483398,5.509127616882324,1.0961942672729492,5.212773323059082,2.4754703044891357,4.552870750427246,5.00507116317749,-5.044607639312744,-0.02822163701057434,-4.555448532104492,-2.6011545658111572,-5.339922904968262,-1.09258234500885,-5.667771339416504,-5.6372599601745605,-0.06575720012187958,-0.2660175561904907,-4.315685749053955,-4.82827091217041,4.431264877319336,-5.2143168449401855,-1.3488575220108032,-5.950699329376221,-1.7247748374938965,-4.332911491394043,-4.160933017730713,-0.4141770899295807,-0.15513676404953003,1.4213733673095703,5.698657512664795,4.260962009429932,5.8702921867370605,2.1463146209716797,2.94256854057312,5.488801956176758,3.744783401489258,3.9108211994171143,1.5039805173873901,5.295617580413818,4.988790512084961,0.9367923140525818,1.4595534801483154,0.12427104264497757,2.598634719848633,4.922959804534912,1.691807746887207,5.095577716827393,1.962420105934143,0.23870927095413208,-0.10326050966978073,-2.1964547634124756,-5.163656711578369,6.468868732452393,-1.7440240383148193,-4.895420074462891,-2.7254714965820312,-0.06826929748058319,-0.47936201095581055,-5.0920562744140625,-5.2699971199035645,-1.447167992591858,-3.8261613845825195,-3.834383487701416,1.3459008932113647,-4.961092472076416,-3.7308428287506104,-1.960082769393921,-6.193838596343994,-5.620697498321533,-1.173850655555725,6.445416450500488,1.7803875207901,4.6939239501953125,4.460057735443115,5.195849895477295,2.0892174243927,4.272932052612305,2.4528231620788574,1.9273037910461426,1.0771247148513794,4.0619940757751465,0.03803185746073723,1.913521647453308,0.5499285459518433,2.7721712589263916,6.447975158691406,1.4882601499557495,0.11342636495828629,3.921001434326172,0.02298143319785595,0.9143825173377991,-0.9128648638725281,-0.12034390866756439,-3.8294496536254883,-0.12375783920288086,-1.4991048574447632,4.290689945220947
39,0.055059902369976044,-2.765092611312866,-0.536597728729248,-1.8584376573562622,-0.08753552287817001,-4.065369129180908,-1.0065487623214722,-1.8757210969924927,-2.521413564682007,-3.7097465991973877,-2.894580125808716,0.3053044378757477,-4.318121910095215,-4.933956623077393,-1.3254655599594116,-6.310079574584961,1.842574954032898,5.661107540130615,5.494385242462158,1.0906094312667847,5.264742374420166,2.4375832080841064,4.530488967895508,5.02036714553833,-5.029311656951904,-0.031629130244255066,-4.5778303146362305,-2.6390416622161865,-5.287001609802246,-1.1033567190170288,-5.682215690612793,-5.617208957672119,-0.08101220428943634,-0.24284745752811432,-4.2929863929748535,-4.815634250640869,4.424114227294922,-5.25121545791626,-1.335866928100586,-5.934905529022217,-1.704224705696106,-4.317801475524902,-4.145662784576416,-0.3723035752773285,-0.19222430884838104,1.3842859268188477,5.740530967712402,4.275551795959473,5.885562419891357,2.1614246368408203,2.9631187915802,5.504595756530762,3.7577741146087646,3.873922348022461,1.509514331817627,5.275814533233643,5.020193576812744,0.8875080347061157,1.4606322050094604,0.09923690557479858,2.539249897003174,4.882635593414307,1.7402331829071045,5.132928848266602,1.947345495223999,0.26281771063804626,-0.07915204763412476,-2.21152925491333,-5.12630558013916,6.484797477722168,-1.6923681497573853,-4.937265872955322,-2.776344060897827,-0.08825640380382538,-0.5286462903022766,-5.060653209686279,-5.28980016708374,-1.441634178161621,-3.8629138469696045,-3.819526195526123,1.3616870641708374,-4.9449968338012695,-3.7122716903686523,-1.9412614107131958,-6.177759170532227,-5.579037189483643,-1.211714744567871,6.407552242279053,1.8220478296279907,4.71000337600708,4.478878974914551,5.15861177444458,2.107788562774658,4.289027690887451,2.4676804542541504,1.8905513286590576,1.0759462118148804,4.083593845367432,0.07476987689733505,1.8952689170837402,0.5598975419998169,2.7771852016448975,6.460611820220947,1.5030035972595215,0.1270342618227005,3.8849027156829834,0.053003329783678055,0.9206476807594299,-0.9065997004508972,-0.09032201021909714,-3.8655483722686768,-0.10835880786180496,-1.476853847503662,4.313389301300049
40,0.02468862198293209,-2.765197992324829,-0.544974148273468,-1.8455668687820435,-0.12929734587669373,-4.0827178955078125,-1.0090125799179077,-1.8320629596710205,-2.541205883026123,-3.725142002105713,-2.9128832817077637,0.2887824773788452,-4.331505298614502,-4.9484710693359375,-1.360925316810608,-6.274130344390869,1.8577288389205933,5.63940954208374,5.509220600128174,1.085974097251892,5.216127872467041,2.481113910675049,4.551820278167725,5.00993013381958,-5.039748668670654,-0.04176107794046402,-4.556499004364014,-2.595510959625244,-5.33791971206665,-1.0876312255859375,-5.669540882110596,-5.640434741973877,-0.06585841625928879,-0.2593694031238556,-4.3093647956848145,-4.81886625289917,4.446290493011475,-5.207723140716553,-1.353368878364563,-5.949184894561768,-1.7187278270721436,-4.3344855308532715,-4.159521579742432,-0.41438227891921997,-0.15429456532001495,1.4222157001495361,5.698452472686768,4.254737854003906,5.871703624725342,2.144740343093872,2.948615789413452,5.490316390991211,3.740272283554077,3.917414665222168,1.5092021226882935,5.289951801300049,4.984111785888672,0.9367451071739197,1.469519853591919,0.1241636574268341,2.594045877456665,4.924537181854248,1.682310938835144,5.089460372924805,1.963393211364746,0.24356815218925476,-0.09840162098407745,-2.195481538772583,-5.169774055480957,6.470363616943359,-1.7408581972122192,-4.895073890686035,-2.7392451763153076,-0.07075303792953491,-0.47940918803215027,-5.096735000610352,-5.275662899017334,-1.4419463872909546,-3.8193342685699463,-3.8392550945281982,1.3444944620132446,-4.96024751663208,-3.729219675064087,-1.954537272453308,-6.191734313964844,-5.617033958435059,-1.1765220165252686,6.442745208740234,1.784050703048706,4.696028232574463,4.465603351593018,5.202425003051758,2.0908405780792236,4.273777008056641,2.447951555252075,1.9341309070587158,1.0734823942184448,4.066245079040527,0.03300804644823074,1.908139705657959,0.5506947040557861,2.7774293422698975,6.4573798179626465,1.4858896732330322,0.11545021086931229,3.9282729625701904,0.01606661267578602,0.913649320602417,-0.9135980606079102,-0.12725873291492462,-3.8221781253814697,-0.11570797860622406,-1.4921201467514038,4.297010898590088
41,0.04071640595793724,-2.768812894821167,-0.5370820164680481,-1.8605947494506836,-0.0956968143582344,-4.070878028869629,-1.001470685005188,-1.8806390762329102,-2.520181179046631,-3.711428642272949,-2.8974111080169678,0.30869653820991516,-4.315596103668213,-4.934468746185303,-1.3275119066238403,-6.307333469390869,1.8445560932159424,5.659378528594971,5.49599027633667,1.0972661972045898,5.263091564178467,2.4327263832092285,4.522762298583984,5.021852493286133,-5.027826309204102,-0.04400108754634857,-4.585556983947754,-2.6438984870910645,-5.28987455368042,-1.0851414203643799,-5.682476043701172,-5.622698783874512,-0.07903113961219788,-0.23945535719394684,-4.296706676483154,-4.819741249084473,4.440945148468018,-5.256522178649902,-1.3333733081817627,-5.936131954193115,-1.7011511325836182,-4.3223676681518555,-4.147149085998535,-0.37597256898880005,-0.18889953196048737,1.387610673904419,5.7368621826171875,4.266348361968994,5.884076118469238,2.156858205795288,2.9661924839019775,5.503369331359863,3.760267972946167,3.8686158657073975,1.5050171613693237,5.281863212585449,5.011690139770508,0.8932086229324341,1.470482349395752,0.1039770320057869,2.5467443466186523,4.883529186248779,1.7354382276535034,5.138576507568359,1.9425771236419678,0.26745930314064026,-0.07451047748327255,-2.2162976264953613,-5.120657920837402,6.483558654785156,-1.685536503791809,-4.939155578613281,-2.7739861011505127,-0.0857086181640625,-0.5229456424713135,-5.069156646728516,-5.283751487731934,-1.4461313486099243,-3.8679559230804443,-3.8181073665618896,1.3676481246948242,-4.947115898132324,-3.7138166427612305,-1.9386751651763916,-6.178343772888184,-5.578447341918945,-1.2122044563293457,6.407063007354736,1.8226373195648193,4.709418773651123,4.4814653396606445,5.153363227844238,2.10624361038208,4.2869086265563965,2.469099283218384,1.8855092525482178,1.0810242891311646,4.078084945678711,0.06660857796669006,1.8931118249893188,0.557815432548523,2.7760987281799316,6.456504821777344,1.4922963380813599,0.12040773779153824,3.880258083343506,0.049811068922281265,0.9157630205154419,-0.9114843606948853,-0.09351427853107452,-3.8701930046081543,-0.11256175488233566,-1.47555410861969,4.309669017791748
42,0.014620180241763592,-2.7610554695129395,-0.5431758761405945,-1.8490549325942993,-0.13300497829914093,-4.079636573791504,-1.0116081237792969,-1.8290503025054932,-2.5474836826324463,-3.7243940830230713,-2.9130959510803223,0.29545673727989197,-4.326313018798828,-4.946412086486816,-1.3581539392471313,-6.275944232940674,1.8576635122299194,5.640900611877441,5.509810924530029,1.066305160522461,5.223272323608398,2.4832448959350586,4.552879333496094,5.01378059387207,-5.035898208618164,-0.045086685568094254,-4.5554399490356445,-2.5933799743652344,-5.3309102058410645,-1.0886355638504028,-5.671891212463379,-5.642552852630615,-0.06592372804880142,-0.25269514322280884,-4.304638862609863,-4.818120002746582,4.4615397453308105,-5.205073356628418,-1.3592159748077393,-5.947808742523193,-1.712958574295044,-4.336552143096924,-4.158759117126465,-0.4125485420227051,-0.15545357763767242,1.4210566282272339,5.700286388397217,4.248767852783203,5.872466087341309,2.1426737308502197,2.9543850421905518,5.491692543029785,3.7344253063201904,3.92006516456604,1.5131604671478271,5.285272598266602,4.9794087409973145,0.9363753795623779,1.4783459901809692,0.12467880547046661,2.5928776264190674,4.926008701324463,1.6774928569793701,5.08719539642334,1.9664418697357178,0.24832314252853394,-0.09364662319421768,-2.1924328804016113,-5.172039031982422,6.47182559967041,-1.7330138683319092,-4.898804187774658,-2.7527239322662354,-0.07283885776996613,-0.47977888584136963,-5.101438045501709,-5.280342102050781,-1.437988042831421,-3.8164162635803223,-3.845468282699585,1.3417954444885254,-4.959865093231201,-3.7283143997192383,-1.9493123292922974,-6.189799785614014,-5.611158847808838,-1.1814463138580322,6.437820911407471,1.7899255752563477,4.697962760925293,4.470828056335449,5.205069541931152,2.0917458534240723,4.2741594314575195,2.4417383670806885,1.9370490312576294,1.0708868503570557,4.069326400756836,0.029300415888428688,1.9046516418457031,0.5511435866355896,2.7848002910614014,6.458126068115234,1.4867169857025146,0.12157510966062546,3.9316632747650146,0.014453353360295296,0.9134159684181213,-0.9138314127922058,-0.12887199223041534,-3.8187878131866455,-0.10678623616695404,-1.4793546199798584,4.301736831665039
43,0.02997850999236107,-2.773634195327759,-0.5372514724731445,-1.8622901439666748,-0.10187134891748428,-4.074837684631348,-0.9993780255317688,-1.8804384469985962,-2.5159780979156494,-3.712625741958618,-2.8998026847839355,0.313137024641037,-4.3126044273376465,-4.934360980987549,-1.330512523651123,-6.303712368011475,1.8455771207809448,5.65826940536499,5.496987819671631,1.1003936529159546,5.258248329162598,2.433413028717041,4.5156941413879395,5.022950172424316,-5.026728630065918,-0.04672185704112053,-4.592625141143799,-2.643211841583252,-5.29508113861084,-1.0633071660995483,-5.684545993804932,-5.6268463134765625,-0.07801014930009842,-0.235014870762825,-4.29925012588501,-4.828454971313477,4.458027362823486,-5.256659984588623,-1.3279997110366821,-5.9367218017578125,-1.697618842124939,-4.3265581130981445,-4.14857292175293,-0.3809179961681366,-0.18431812524795532,1.3921921253204346,5.731916904449463,4.258543014526367,5.882652282714844,2.15266752243042,2.969724655151367,5.502779483795166,3.765641450881958,3.868478536605835,1.5031055212020874,5.285748481750488,5.004391193389893,0.897089958190918,1.4792170524597168,0.1077064722776413,2.5518851280212402,4.888492107391357,1.7275439500808716,5.1388840675354,1.9365200996398926,0.27033546566963196,-0.07163430005311966,-2.2223546504974365,-5.120350360870361,6.483127593994141,-1.6809782981872559,-4.940093040466309,-2.7731773853302,-0.08471012860536575,-0.5190643072128296,-5.076455593109131,-5.2798662185668945,-1.4480429887771606,-3.867779493331909,-3.813859462738037,1.3761036396026611,-4.948782920837402,-3.7152395248413086,-1.9355134963989258,-6.178404808044434,-5.578879356384277,-1.2116940021514893,6.407573223114014,1.8222050666809082,4.709357738494873,4.484626770019531,5.153497695922852,2.104820728302002,4.285241603851318,2.4733471870422363,1.885685682296753,1.083116888999939,4.074125289916992,0.06043405085802078,1.8914164304733276,0.5564311742782593,2.773233652114868,6.44779109954834,1.4774045944213867,0.11329903453588486,3.880740165710449,0.04587214067578316,0.9129682779312134,-0.9142791032791138,-0.09745320677757263,-3.869710922241211,-0.12196741253137589,-1.4773356914520264,4.307125568389893
44,0.009401201270520687,-2.7559335231781006,-0.5422661900520325,-1.8513723611831665,-0.13574238121509552,-4.07758903503418,-1.0131548643112183,-1.8317724466323853,-2.5548102855682373,-3.7243895530700684,-2.9138541221618652,0.30091583728790283,-4.321978569030762,-4.9446892738342285,-1.3554939031600952,-6.277987003326416,1.8583327531814575,5.642300128936768,5.511929035186768,1.0421035289764404,5.232434272766113,2.4808034896850586,4.555208683013916,5.016217231750488,-5.033461570739746,-0.0417637974023819,-4.553110599517822,-2.5958213806152344,-5.321859359741211,-1.0985748767852783,-5.674681663513184,-5.644014835357666,-0.06525454670190811,-0.24723604321479797,-4.301358699798584,-4.823055744171143,4.477442741394043,-5.208115577697754,-1.366146445274353,-5.947140693664551,-1.7078925371170044,-4.339474678039551,-4.15881872177124,-0.4113016724586487,-0.15635086596012115,1.4201594591140747,5.701533317565918,4.2428975105285645,5.872406482696533,2.139751434326172,2.9594509601593018,5.492360591888428,3.727494478225708,3.917022705078125,1.5156790018081665,5.281754493713379,4.97378396987915,0.9376265406608582,1.4862416982650757,0.12587228417396545,2.597083806991577,4.929162502288818,1.676240086555481,5.090567111968994,1.971213459968567,0.25242412090301514,-0.08954563736915588,-2.1876614093780518,-5.168667316436768,6.472822189331055,-1.7213555574417114,-4.903548240661621,-2.7665820121765137,-0.0744553878903389,-0.4785277247428894,-5.107062816619873,-5.283860206604004,-1.4354695081710815,-3.8191325664520264,-3.8528754711151123,1.3377686738967896,-4.960237503051758,-3.728302240371704,-1.944746732711792,-6.188304901123047,-5.605352878570557,-1.1866191625595093,6.432647705078125,1.795731544494629,4.69945764541626,4.475393772125244,5.202084064483643,2.0917580127716064,4.273787021636963,2.434331178665161,1.9343327283859253,1.0693401098251343,4.07137393951416,0.026563014835119247,1.902334213256836,0.5510075688362122,2.7929210662841797,6.453190326690674,1.4909898042678833,0.12911124527454376,3.929386854171753,0.017285311594605446,0.9131085276603699,-0.9141388535499573,-0.1260400414466858,-3.8210642337799072,-0.09992896765470505,-1.4626911878585815,4.305016994476318
