,0,1,2,3,4,5,6,7,8,9,10,11,12,13,14,15,16,17,18,19,20,21,22,23,24,25,26,27,28,29,30,31,32,33,34,35,36,37,38,39,40,41,42,43,44,45,46,47,48,49,50,51,52,53,54,55,56,57,58,59,60,61,62,63,64,65,66,67,68,69,70,71,72,73,74,75,76,77,78,79,80,81,82,83,84,85,86,87,88,89,90,91,92,93,94,95,96,97,98,99,100,101,102,103,104,105,106,107,108,109,110,111,112,113
0,2.201098918914795,-5.754167079925537,-5.569813251495361,-2.36572003364563,-2.656466245651245,-3.4256765842437744,-2.875897169113159,-4.8398566246032715,-5.852916240692139,-2.508760452270508,-1.6613693237304688,3.4119906425476074,-5.528365612030029,-5.169549465179443,-0.3747566044330597,-2.448758125305176,3.873969554901123,2.5671401023864746,5.5484700202941895,5.924373626708984,1.0822334289550781,2.9639596939086914,5.163609504699707,3.274467945098877,-3.274467945098877,1.549975872039795,-5.163609504699707,-2.9639596939086914,-1.0822334289550781,-5.924373626708984,-5.5484700202941895,-2.5671401023864746,-3.873969554901123,-3.4119906425476074,-4.425788879394531,-0.8186545372009277,2.2046022415161133,-5.097660541534424,-5.365677356719971,-4.15811824798584,-1.46157705783844,-0.07666027545928955,-2.2046022415161133,-1.549975872039795,-2.201098918914795,3.9662232398986816,0.6501187682151794,0.07666027545928955,2.8242268562316895,4.908575534820557,4.2158308029174805,0.16076362133026123,2.2058839797973633,0.2831527888774872,0.46145498752593994,6.2503180503845215,6.263108730316162,0.32188987731933594,1.46157705783844,3.0725929737091064,2.1233489513397217,3.873701572418213,1.2184312343597412,2.213737726211548,4.226371765136719,0.7921260595321655,-0.7921260595321655,-4.226371765136719,-2.213737726211548,4.15811824798584,-1.2184312343597412,-3.873701572418213,-2.1233489513397217,-3.0725929737091064,-0.32188987731933594,-6.263108730316162,-6.2503180503845215,-0.46145498752593994,-0.2831527888774872,-2.2058839797973633,5.365677356719971,-0.16076362133026123,-4.2158308029174805,-4.908575534820557,-2.8242268562316895,-0.6501187682151794,-3.9662232398986816,2.448758125305176,0.3747566044330597,5.169549465179443,5.528365612030029,5.097660541534424,1.6613693237304688,2.508760452270508,5.852916240692139,4.8398566246032715,2.875897169113159,3.4256765842437744,2.656466245651245,2.36572003364563,5.569813251495361,5.754167079925537,0.8186545372009277,4.284862518310547,5.440003871917725,1.1469284296035767,5.360579490661621,0.709543764591217,-0.709543764591217,-5.360579490661621,-1.1469284296035767,-5.440003871917725,-4.284862518310547,4.425788879394531
1,2.201098918914795,-5.806989669799805,-5.516990661621094,-2.3128974437713623,-2.7092745304107666,-3.4256765842437744,-2.875897169113159,-4.8398566246032715,-5.852916240692139,-2.4559381008148193,-1.7141919136047363,3.4582479000091553,-5.581187725067139,-5.222372055053711,-0.3747566044330597,-2.448758125305176,3.821150779724121,2.5143182277679443,5.601291656494141,5.924373626708984,1.0822334289550781,2.9639596939086914,5.216430187225342,3.3213658332824707,-3.227570056915283,1.549975872039795,-5.110788822174072,-2.9639596939086914,-1.0822334289550781,-5.924373626708984,-5.495648384094238,-2.619961977005005,-3.926788330078125,-3.3657333850860596,-4.425788879394531,-0.8186545372009277,2.1517796516418457,-5.097660541534424,-5.365677356719971,-4.1052961349487305,-1.5143996477127075,-0.12948280572891235,-2.257424831390381,-1.549975872039795,-2.201098918914795,3.9662232398986816,0.6501187682151794,0.023837748914957047,2.771404266357422,4.855753421783447,4.163008213043213,0.21358592808246613,2.2058839797973633,0.2831527888774872,0.46145498752593994,6.2503180503845215,6.210299491882324,0.37471240758895874,1.4087544679641724,3.019770383834839,2.070526361465454,3.873701572418213,1.2184312343597412,2.213737726211548,4.279193878173828,0.8449485898017883,-0.7393035292625427,-4.173549652099609,-2.213737726211548,4.210940361022949,-1.2184312343597412,-3.873701572418213,-2.1761715412139893,-3.125415563583374,-0.26906734704971313,-6.31591796875,-6.2503180503845215,-0.46145498752593994,-0.2831527888774872,-2.2058839797973633,5.365677356719971,-0.10794132202863693,-4.268653392791748,-4.961397647857666,-2.877049446105957,-0.6501187682151794,-3.9662232398986816,2.448758125305176,0.3747566044330597,5.116726875305176,5.47554349899292,5.097660541534424,1.6085467338562012,2.5615828037261963,5.852916240692139,4.8398566246032715,2.875897169113159,3.4256765842437744,2.6036579608917236,2.4185426235198975,5.622635841369629,5.7013444900512695,0.8186545372009277,4.284862518310547,5.440003871917725,1.1469284296035767,5.413402080535889,0.7623663544654846,-0.6567211747169495,-5.3077569007873535,-1.1469284296035767,-5.440003871917725,-4.284862518310547,4.425788879394531
2,2.148850679397583,-5.820523262023926,-5.47489070892334,-2.3357179164886475,-2.657029390335083,-3.4779255390167236,-2.928145170211792,-4.892104148864746,-5.8006672859191895,-2.5064537525177,-1.744438648223877,3.5104968547821045,-5.6330366134643555,-5.213949203491211,-0.3225076496601105,-2.501007080078125,3.7688333988189697,2.5655481815338135,5.598347187042236,5.872176170349121,1.0299853086471558,3.016207456588745,5.268747329711914,3.2691171169281006,-3.2798187732696533,1.602224588394165,-5.0584716796875,-2.9117119312286377,-1.1344817876815796,-5.976602077484131,-5.492189407348633,-2.568636178970337,-3.9791057109832764,-3.3134844303131104,-4.373539924621582,-0.8709027767181396,2.1500449180603027,-5.149905204772949,-5.3134284019470215,-4.1523613929748535,-1.5453717708587646,-0.18095174431800842,-2.2604992389678955,-1.4977270364761353,-2.253347396850586,3.9139747619628906,0.7023676633834839,-0.027786538004875183,2.7683298587799072,4.804284572601318,4.132035732269287,0.1665206253528595,2.2581326961517334,0.23090803623199463,0.40920695662498474,6.302565574645996,6.262532711029053,0.32962560653686523,1.3778259754180908,3.0068609714508057,2.0195398330688477,3.82145619392395,1.2706798315048218,2.2659852504730225,4.328579425811768,0.8651434779167175,-0.7191086411476135,-4.12416410446167,-2.1614902019500732,4.164347171783447,-1.1661827564239502,-3.9259493350982666,-2.227424383163452,-3.134472608566284,-0.31415414810180664,-6.2636847496032715,-6.198070526123047,-0.5137029886245728,-0.23093253374099731,-2.153635263442993,5.41792631149292,-0.1536039113998413,-4.299747943878174,-5.01256799697876,-2.882607936859131,-0.597869873046875,-4.018472194671631,2.3965094089508057,0.4270055294036865,5.111168384552002,5.424373149871826,5.045417785644531,1.5774520635604858,2.5159201622009277,5.905165195465088,4.8920769691467285,2.8236491680145264,3.373427629470825,2.6559031009674072,2.3957221508026123,5.666586875915527,5.691797733306885,0.7664062976837158,4.337110996246338,5.387754917144775,1.094679832458496,5.4224653244018555,0.7972160577774048,-0.6218714714050293,-5.298693656921387,-1.1991770267486572,-5.387754917144775,-4.337107181549072,4.4780378341674805
3,2.205148220062256,-5.861048221588135,-5.466413974761963,-2.283933639526367,-2.6705665588378906,-3.5184006690979004,-2.8722336292266846,-4.836053848266602,-5.847290992736816,-2.451605796813965,-1.7608414888381958,3.513521909713745,-5.6108078956604,-5.210517406463623,-0.2822756767272949,-2.4641687870025635,3.716547966003418,2.543924331665039,5.654837131500244,5.928591728210449,0.9806191921234131,2.9603826999664307,5.222964763641357,3.2126853466033936,-3.3362505435943604,1.54702889919281,-5.104254245758057,-2.967536687850952,-1.1753178834915161,-5.920212745666504,-5.435689449310303,-2.58695387840271,-4.031391143798828,-3.3104593753814697,-4.340623378753662,-0.8146177530288696,2.141449451446533,-5.093564987182617,-5.365710735321045,-4.0963287353515625,-1.5596425533294678,-0.1491510570049286,-2.264817476272583,-1.5008562803268433,-2.1974472999572754,3.969874858856201,0.6992384791374207,-0.0033628074452281,2.7640116214752197,4.836084842681885,4.117764949798584,0.2225533425807953,2.205850601196289,0.287248432636261,0.4653576612472534,6.248860836029053,6.209228038787842,0.3612706661224365,1.3634321689605713,3.0378408432006836,2.017656087875366,3.877619743347168,1.245662808418274,2.209908962249756,4.379822731018066,0.8710883259773254,-0.7131637930870056,-4.072920799255371,-2.21756649017334,4.220414161682129,-1.2132488489151,-3.8704583644866943,-2.2273190021514893,-3.164203405380249,-0.28250908851623535,-6.316989421844482,-6.25177526473999,-0.4575522840023041,-0.1744917631149292,-2.204303503036499,5.36573600769043,-0.09748400002717972,-4.314381122589111,-4.974104404449463,-2.8951034545898438,-0.572688639163971,-3.9640469551086426,2.450934648513794,0.45218679308891296,5.098672866821289,5.462836742401123,5.10179328918457,1.5628188848495483,2.57204008102417,5.854496955871582,4.948517322540283,2.879560708999634,3.3329524993896484,2.6423659324645996,2.4475064277648926,5.692724704742432,5.65179443359375,0.8226913213729858,4.3936285972595215,5.348714828491211,1.0390293598175049,5.466933250427246,0.8010076880455017,-0.6180798411369324,-5.254225730895996,-1.2548274993896484,-5.356599807739258,-4.2807416915893555,4.5109543800354
4,2.213040590286255,-5.867557525634766,-5.459078311920166,-2.2676615715026855,-2.629956007003784,-3.539293050765991,-2.8602917194366455,-4.895754814147949,-5.791563034057617,-2.4598867893218994,-1.777815818786621,3.5182485580444336,-5.6427226066589355,-5.17614221572876,-0.3327600657939911,-2.5187458992004395,3.6557390689849854,2.4876387119293213,5.69386100769043,5.888518810272217,1.038015604019165,3.0177161693573,5.282532691955566,3.222358226776123,-3.326577663421631,1.4990272521972656,-5.044686317443848,-2.910203218460083,-1.119816780090332,-5.958606243133545,-5.3896074295043945,-2.6432406902313232,-4.092199802398682,-3.3057327270507812,-4.3204474449157715,-0.8060532808303833,2.1698317527770996,-5.153321743011475,-5.313002586364746,-4.097653388977051,-1.5772863626480103,-0.17777712643146515,-2.236159563064575,-1.55833899974823,-2.2291817665100098,3.938140392303467,0.6417558193206787,-0.039103101938962936,2.7926695346832275,4.807458877563477,4.100121021270752,0.22122861444950104,2.258558750152588,0.2274915724992752,0.47714942693710327,6.206249237060547,6.185151100158691,0.34659630060195923,1.3451015949249268,3.0695595741271973,2.008439064025879,3.9069061279296875,1.1868098974227905,2.268345594406128,4.3380045890808105,0.8973087668418884,-0.6869433522224426,-4.114738941192627,-2.1591298580169678,4.21967077255249,-1.2617543935775757,-3.8454980850219727,-2.252976894378662,-3.130462646484375,-0.29718345403671265,-6.341066360473633,-6.294386863708496,-0.4457605183124542,-0.23420993983745575,-2.1504926681518555,5.417572021484375,-0.09778334945440292,-4.332343578338623,-4.992425918579102,-2.8725943565368652,-0.6296454071998596,-3.9847850799560547,2.430196523666382,0.3952300250530243,5.121181964874268,5.444515228271484,5.042135715484619,1.5448561906814575,2.5717408657073975,5.9083075523376465,4.88879919052124,2.891502618789673,3.3120601177215576,2.682976484298706,2.463778495788574,5.703834056854248,5.661698341369629,0.8312557935714722,4.376150608062744,5.298003673553467,1.098514437675476,5.44169807434082,0.8184505701065063,-0.6006369590759277,-5.279460906982422,-1.1953424215316772,-5.33811616897583,-4.281537055969238,4.531130313873291
5,2.240119695663452,-5.868493556976318,-5.423577785491943,-2.251176357269287,-2.597550392150879,-3.571045398712158,-2.82305645942688,-4.872585773468018,-5.8260321617126465,-2.420182466506958,-1.7963639497756958,3.5662550926208496,-5.626852989196777,-5.167455196380615,-0.30782246589660645,-2.5704450607299805,3.602134943008423,2.444819211959839,5.727970123291016,5.93699836730957,1.0602943897247314,3.001648426055908,5.258947372436523,3.1754579544067383,-3.3734779357910156,1.5005829334259033,-5.068271636962891,-2.9262709617614746,-1.080955982208252,-5.902038097381592,-5.375821590423584,-2.6830708980560303,-4.145803928375244,-3.2577261924743652,-4.306036472320557,-0.777465283870697,2.1837334632873535,-5.13059139251709,-5.350273132324219,-4.061014652252197,-1.5956296920776367,-0.1633262038230896,-2.2279112339019775,-1.5264219045639038,-2.2427282333374023,3.924593925476074,0.6736729741096497,-0.03220784291625023,2.800917863845825,4.8219099044799805,4.081777572631836,0.2578674554824829,2.221287965774536,0.25022178888320923,0.5184988975524902,6.174342632293701,6.1434712409973145,0.34278568625450134,1.3240644931793213,3.1278417110443115,1.99077308177948,3.8726158142089844,1.2360334396362305,2.235715866088867,4.386593341827393,0.9129409790039062,-0.6713111400604248,-4.066150188446045,-2.1917595863342285,4.259134292602539,-1.2056946754455566,-3.8735740184783936,-2.266633987426758,-3.0879924297332764,-0.30099406838417053,-6.38274621963501,-6.326293468475342,-0.4044110178947449,-0.20998325943946838,-2.185072660446167,5.376136779785156,-0.059279218316078186,-4.351520538330078,-4.962263584136963,-2.8791885375976562,-0.6009367108345032,-4.005436420440674,2.409545660018921,0.42393869161605835,5.114587783813477,5.474677562713623,5.066885471343994,1.5256794691085815,2.6102449893951416,5.873727321624756,4.913025856018066,2.9287378787994385,3.2803077697753906,2.7153820991516113,2.4802637100219727,5.7461838722229,5.656566619873047,0.8598437905311584,4.415998458862305,5.319437026977539,1.071167230606079,5.4597978591918945,0.8087356090545654,-0.6103519201278687,-5.261361122131348,-1.2226896286010742,-5.282362461090088,-4.239501476287842,4.545541286468506
6,2.2600035667419434,-5.854486465454102,-5.386052131652832,-2.2601096630096436,-2.563093900680542,-3.606046438217163,-2.78652286529541,-4.895244121551514,-5.784310340881348,-2.4474639892578125,-1.8035125732421875,3.598677635192871,-5.663444995880127,-5.1431965827941895,-0.3628670573234558,-2.616783618927002,3.558181047439575,2.398895502090454,5.781930923461914,5.885354995727539,1.010631799697876,3.0210800170898438,5.3100385665893555,3.200636863708496,-3.348299026489258,1.4675986766815186,-5.017180442810059,-2.906839370727539,-1.1416163444519043,-5.937209606170654,-5.318146705627441,-2.7354252338409424,-4.189757823944092,-3.2253036499023438,-4.283293724060059,-0.753783106803894,2.217644691467285,-5.156382083892822,-5.309650421142578,-4.085818290710449,-1.6064200401306152,-0.20381809771060944,-2.1996026039123535,-1.5724753141403198,-2.263909101486206,3.9034130573272705,0.6276195645332336,-0.07620544731616974,2.829226493835449,4.7814178466796875,4.070987224578857,0.23306366801261902,2.2619104385375977,0.22443105280399323,0.5528218150138855,6.132765769958496,6.112534046173096,0.3378952145576477,1.3070001602172852,3.128514528274536,1.9906057119369507,3.925032138824463,1.2195683717727661,2.2499890327453613,4.35072660446167,0.940091073513031,-0.6441610455513,-4.102016925811768,-2.1774864196777344,4.240553855895996,-1.2051260471343994,-3.8308095932006836,-2.2883973121643066,-3.053187370300293,-0.30588454008102417,-6.4136834144592285,-6.367870330810547,-0.3700881004333496,-0.23206552863121033,-2.1432390213012695,5.408969402313232,-0.08341524749994278,-4.363458633422852,-4.990123748779297,-2.8612303733825684,-0.6566523313522339,-4.029158115386963,2.3858237266540527,0.36822307109832764,5.132546424865723,5.446817398071289,5.043636322021484,1.513741374015808,2.586108922958374,5.915560722351074,4.89094352722168,2.965271472930908,3.2453067302703857,2.7498385906219482,2.471330404281616,5.772799968719482,5.681677341461182,0.8835259675979614,4.385805606842041,5.249516487121582,1.0947519540786743,5.4316887855529785,0.8255853652954102,-0.5935021638870239,-5.289470195770264,-1.199104905128479,-5.34712028503418,-4.273660182952881,4.568284034729004
7,2.25750470161438,-5.8523664474487305,-5.343272686004639,-2.2370495796203613,-2.548546552658081,-3.6128337383270264,-2.7403626441955566,-4.872314453125,-5.821211814880371,-2.405153512954712,-1.807318925857544,3.661994218826294,-5.617490291595459,-5.181061267852783,-0.31960737705230713,-2.6803982257843018,3.4986772537231445,2.3472588062286377,5.811295032501221,5.89202880859375,1.0706528425216675,3.0249319076538086,5.287206172943115,3.154050350189209,-3.394885540008545,1.4821274280548096,-5.040012836456299,-2.902987480163574,-1.0824044942855835,-5.903367519378662,-5.316110610961914,-2.782268524169922,-4.249261379241943,-3.161987066268921,-4.305457592010498,-0.749626874923706,2.21665620803833,-5.133339881896973,-5.346080303192139,-4.053329944610596,-1.6103851795196533,-0.1660669893026352,-2.2291927337646484,-1.5214250087738037,-2.301009178161621,3.8663129806518555,0.6786698698997498,-0.038388289511203766,2.7996363639831543,4.819168567657471,4.06702184677124,0.2655516564846039,2.225480556488037,0.2474735975265503,0.5972440838813782,6.2057414054870605,6.07642126083374,0.3205505609512329,1.2914454936981201,3.19088077545166,1.991567611694336,3.914900302886963,1.251625895500183,2.217634439468384,4.391979217529297,0.9332898259162903,-0.6509622931480408,-4.060764312744141,-2.209841012954712,4.282668113708496,-1.1662232875823975,-3.8368632793426514,-2.2806215286254883,-2.9995288848876953,-0.32322919368743896,-6.449796199798584,-6.294894695281982,-0.3256658911705017,-0.20790773630142212,-2.1787304878234863,5.365175724029541,-0.048062559217214584,-4.368368625640869,-4.938359260559082,-2.9083120822906494,-0.614237904548645,-4.081733226776123,2.3332486152648926,0.4106375277042389,5.0854644775390625,5.498581886291504,5.07075834274292,1.5088316202163696,2.6214616298675537,5.880069255828857,4.915101528167725,3.0114316940307617,3.2385194301605225,2.764385938644409,2.4943904876708984,5.818471431732178,5.676962852478027,0.8876821994781494,4.4068827629089355,5.292727470397949,1.0672446489334106,5.449192047119141,0.7919767498970032,-0.6271107792854309,-5.271966934204102,-1.2266122102737427,-5.302413463592529,-4.2460174560546875,4.5461201667785645
8,2.3135406970977783,-5.848855495452881,-5.2951812744140625,-2.2440195083618164,-2.53367280960083,-3.662959098815918,-2.69612717628479,-4.896318435668945,-5.777872085571289,-2.4575729370117188,-1.7970471382141113,3.6905219554901123,-5.6617751121521,-5.1729044914245605,-0.3856285810470581,-2.6912591457366943,3.4664130210876465,2.307422161102295,5.878213882446289,5.850939750671387,1.031747579574585,3.0390214920043945,5.343509674072266,3.207231044769287,-3.341704845428467,1.4500563144683838,-4.983709335327148,-2.8888978958129883,-1.1300047636032104,-5.940396785736084,-5.248391151428223,-2.8331847190856934,-4.2815260887146,-3.1334593296051025,-4.253018379211426,-0.6911933422088623,2.2512621879577637,-5.1616716384887695,-5.303116798400879,-4.103571891784668,-1.604062557220459,-0.2147531360387802,-2.2194230556488037,-1.567025899887085,-2.2686939239501953,3.8986282348632812,0.6330689191818237,-0.08189237862825394,2.809406042098999,4.770482540130615,4.073344707489014,0.21530970931053162,2.268444299697876,0.2191418707370758,0.6449751853942871,6.131965160369873,6.05241584777832,0.3207862973213196,1.283249855041504,3.131014347076416,1.9941818714141846,3.9322524070739746,1.233346700668335,2.2397985458374023,4.354823112487793,0.9148265719413757,-0.6694255471229553,-4.0979204177856445,-2.1876769065856934,4.23906946182251,-1.1563788652420044,-3.8136115074157715,-2.30566668510437,-3.045433759689331,-0.3229934573173523,-6.473801612854004,-6.36867094039917,-0.2779347896575928,-0.2300434559583664,-2.1352176666259766,5.391805648803711,-0.09810410439968109,-4.364154815673828,-4.979075908660889,-2.900693655014038,-0.6785590052604675,-4.065176963806152,2.3498048782348633,0.346316397190094,5.093082904815674,5.457865238189697,5.044743061065674,1.5130454301834106,2.571420192718506,5.923582077026367,4.892965793609619,3.0556671619415283,3.188394069671631,2.77925968170166,2.4874205589294434,5.850062847137451,5.6961798667907715,0.9461157321929932,4.367912769317627,5.248164653778076,1.0904935598373413,5.424264430999756,0.8290513157844543,-0.5900362133979797,-5.296894550323486,-1.203363299369812,-5.33859395980835,-4.292269706726074,4.598559379577637
9,2.2709908485412598,-5.84547758102417,-5.270685195922852,-2.208235025405884,-2.528271436691284,-3.6365010738372803,-2.6637721061706543,-4.86909294128418,-5.814743518829346,-2.4266862869262695,-1.7861664295196533,3.76387095451355,-5.619234561920166,-5.225088596343994,-0.34406009316444397,-2.7683093547821045,3.415640115737915,2.261380672454834,5.9305877685546875,5.860517978668213,1.0729248523712158,3.0287511348724365,5.321630954742432,3.1717376708984375,-3.3771982192993164,1.4330923557281494,-5.005588054656982,-2.8991682529449463,-1.0934557914733887,-5.918333053588867,-5.219894886016846,-2.874844789505005,-4.332298755645752,-3.060110330581665,-4.273075103759766,-0.7274423241615295,2.2618567943573,-5.133263111114502,-5.3405537605285645,-4.085425853729248,-1.5907254219055176,-0.17923903465270996,-2.2678346633911133,-1.5242712497711182,-2.335256338119507,3.8320658206939697,0.6758235096931458,-0.036988746374845505,2.7609944343566895,4.805996894836426,4.086681842803955,0.23345571756362915,2.2310073375701904,0.24755042791366577,0.6569326519966125,6.193375587463379,6.047543048858643,0.2616737186908722,1.2728279829025269,3.1847777366638184,1.9955216646194458,3.938222646713257,1.2461726665496826,2.2047500610351562,4.396735668182373,0.9003264307975769,-0.6839256882667542,-4.0560078620910645,-2.2227253913879395,4.271634101867676,-1.1485663652420044,-3.7978718280792236,-2.2947499752044678,-2.9759292602539062,-0.3821060359477997,-6.478674411773682,-6.307260513305664,-0.26597732305526733,-0.20250417292118073,-2.1715502738952637,5.3454365730285645,-0.0757158100605011,-4.352616786956787,-4.934699058532715,-2.9596269130706787,-0.6405136585235596,-4.137918949127197,2.2770626544952393,0.38436177372932434,5.034150123596191,5.502242088317871,5.075600624084473,1.5245834589004517,2.593808650970459,5.88724946975708,4.920505046844482,3.088022232055664,3.2148520946502686,2.784661054611206,2.523205041885376,5.879759311676025,5.6917877197265625,0.9098667502403259,4.392165660858154,5.281919002532959,1.0612872838974,5.450496673583984,0.7943137884140015,-0.6247737407684326,-5.270662307739258,-1.2325695753097534,-5.304144382476807,-4.261407375335693,4.578502655029297
10,2.3264198303222656,-5.818032264709473,-5.259733200073242,-2.1992945671081543,-2.5311331748962402,-3.6544482707977295,-2.609527349472046,-4.912110805511475,-5.7630438804626465,-2.4700398445129395,-1.7653493881225586,3.8245584964752197,-5.6457695960998535,-5.2362518310546875,-0.3890405595302582,-2.7754135131835938,3.3661153316497803,2.2577600479125977,5.999878406524658,5.8039093017578125,1.0449106693267822,3.0699641704559326,5.386224269866943,3.211223840713501,-3.337712049484253,1.4184294939041138,-4.940994739532471,-2.85795521736145,-1.1455341577529907,-5.945102691650391,-5.151339530944824,-2.8899521827697754,-4.381823539733887,-2.999422788619995,-4.262580871582031,-0.6679266095161438,2.2999351024627686,-5.177375793457031,-5.2884907722473145,-4.129288673400879,-1.571955919265747,-0.2051890641450882,-2.281463623046875,-1.5427459478378296,-2.300773859024048,3.8665482997894287,0.6573486924171448,-0.041566912084817886,2.7473654747009277,4.7800469398498535,4.105451583862305,0.18959307670593262,2.2830703258514404,0.20343764126300812,0.7175498604774475,6.157543659210205,6.037302494049072,0.2534553110599518,1.2660211324691772,3.145540237426758,2.048795223236084,3.9136741161346436,1.230267882347107,2.2430312633514404,4.342350482940674,0.8592668771743774,-0.7249852418899536,-4.110393047332764,-2.1844441890716553,4.24484395980835,-1.1164311170578003,-3.811518907546997,-2.2700181007385254,-3.0069591999053955,-0.3903244435787201,-6.488914966583252,-6.343092441558838,-0.20536012947559357,-0.24428802728652954,-2.119633674621582,5.359650135040283,-0.11695395410060883,-4.334963798522949,-4.957002639770508,-2.972806930541992,-0.681570827960968,-4.118826389312744,2.2961554527282715,0.3433046042919159,5.020970344543457,5.479938507080078,5.035248279571533,1.542236566543579,2.5525705814361572,5.939166069030762,4.878721237182617,3.1422669887542725,3.1969048976898193,2.78179931640625,2.5321455001831055,5.87748384475708,5.736173629760742,0.9693824648857117,4.352813720703125,5.239608287811279,1.1028183698654175,5.409122943878174,0.8238043189048767,-0.5952832102775574,-5.312036037445068,-1.1910384893417358,-5.347894191741943,-4.303339004516602,4.588996887207031
11,2.299276351928711,-5.791005611419678,-5.29116153717041,-2.1735286712646484,-2.5336010456085205,-3.614161729812622,-2.6128756999969482,-4.849301815032959,-5.814022064208984,-2.470895528793335,-1.7492395639419556,3.909013509750366,-5.614230155944824,-5.2895827293396,-0.3677741587162018,-2.8296124935150146,3.33438777923584,2.2803754806518555,6.089847087860107,5.870206356048584,1.0863407850265503,2.999393939971924,5.355806827545166,3.1869568824768066,-3.3619790077209473,1.3854751586914062,-4.971412181854248,-2.928525447845459,-1.1067248582839966,-5.88607931137085,-5.066779136657715,-2.8712339401245117,-4.413551330566406,-2.9149677753448486,-4.258882999420166,-0.6883523464202881,2.328054428100586,-5.115100383758545,-5.3406195640563965,-4.134783744812012,-1.550656795501709,-0.17182599008083344,-2.340092420578003,-1.5233548879623413,-2.334076166152954,3.8332459926605225,0.6767396926879883,-0.000883517786860466,2.6887366771698,4.81341028213501,4.126750946044922,0.18409818410873413,2.2309417724609375,0.26571303606033325,0.700982391834259,6.210806846618652,6.060925006866455,0.20123998820781708,1.2564189434051514,3.157930612564087,2.0163302421569824,3.9543349742889404,1.2179574966430664,2.1778690814971924,4.397478103637695,0.8747814893722534,-0.7094706296920776,-4.055265426635742,-2.2496063709259033,4.265185832977295,-1.152343988418579,-3.7504029273986816,-2.2862818241119385,-2.9836926460266113,-0.4425397515296936,-6.465292453765869,-6.289829254150391,-0.22192759811878204,-0.1798875331878662,-2.170452117919922,5.297969341278076,-0.12113466113805771,-4.316460132598877,-4.921366214752197,-3.0316176414489746,-0.6632464528083801,-4.160808086395264,2.254173994064331,0.3616289496421814,4.962159156799316,5.515574932098389,5.098097801208496,1.5607401132583618,2.5483896732330322,5.88834810256958,4.943121910095215,3.13891863822937,3.2371914386749268,2.7793314456939697,2.5579113960266113,5.845714092254639,5.7493109703063965,0.9489567279815674,4.401228904724121,5.292516708374023,1.0385141372680664,5.448399543762207,0.8136823177337646,-0.6054052114486694,-5.272759437561035,-1.255342721939087,-5.280818939208984,-4.267951011657715,4.5926947593688965
12,2.3436737060546875,-5.771820545196533,-5.334087371826172,-2.179762840270996,-2.5395359992980957,-3.5969676971435547,-2.5720410346984863,-4.923539161682129,-5.746551513671875,-2.4982218742370605,-1.721142053604126,3.9778695106506348,-5.612244129180908,-5.297963619232178,-0.40440353751182556,-2.829129934310913,3.2968056201934814,2.3359525203704834,6.147690296173096,5.813957691192627,1.112930417060852,3.0788490772247314,5.432876110076904,3.2110936641693115,-3.3378422260284424,1.427049994468689,-4.89434289932251,-2.8490703105926514,-1.149911880493164,-5.8994317054748535,-5.007633209228516,-2.8242528438568115,-4.4511332511901855,-2.84611177444458,-4.294391632080078,-0.6370576620101929,2.359405279159546,-5.1894917488098145,-5.272708892822266,-4.162769794464111,-1.5196592807769775,-0.16429434716701508,-2.342038631439209,-1.5542291402816772,-2.2863757610321045,3.880946397781372,0.6458654403686523,0.025871073827147484,2.6867904663085938,4.820941925048828,4.157748222351074,0.1561119556427002,2.2988524436950684,0.19132140278816223,0.753049373626709,6.195218563079834,6.077700138092041,0.19128207862377167,1.250163197517395,3.1162831783294678,2.084724187850952,3.876927375793457,1.2290321588516235,2.2499454021453857,4.327914714813232,0.8547413349151611,-0.7295107841491699,-4.124828815460205,-2.17753005027771,4.269748687744141,-1.0729143619537354,-3.8059494495391846,-2.241976261138916,-3.032025098800659,-0.452497661113739,-6.448517322540283,-6.305417537689209,-0.1698606312274933,-0.25400102138519287,-2.1033971309661865,5.295617580413818,-0.14832571148872375,-4.288020133972168,-4.917222023010254,-3.035356283187866,-0.6983921527862549,-4.127963066101074,2.2870192527770996,0.32648327946662903,4.958420276641846,5.519719123840332,5.025137901306152,1.5891802310943604,2.5211985111236572,5.955402851104736,4.8690080642700195,3.179753303527832,3.254385471343994,2.7733964920043945,2.5516772270202637,5.799376487731934,5.802279472351074,1.0002514123916626,4.353715419769287,5.2372002601623535,1.1123101711273193,5.392300128936768,0.8155876398086548,-0.6034998893737793,-5.328858852386475,-1.181546688079834,-5.341818332672119,-4.308972358703613,4.557186126708984
13,2.299144983291626,-5.756794452667236,-5.404463768005371,-2.1830546855926514,-2.5487778186798096,-3.5338971614837646,-2.609241008758545,-4.85828161239624,-5.802028656005859,-2.497080087661743,-1.704335331916809,4.058063507080078,-5.5717573165893555,-5.332380771636963,-0.3789287209510803,-2.873893976211548,3.291605234146118,2.389615058898926,6.234622478485107,5.836482524871826,1.066339373588562,3.0018584728240967,5.3879899978637695,3.1944687366485596,-3.3544671535491943,1.44168221950531,-4.9392290115356445,-2.926060914993286,-1.1597148180007935,-5.935678005218506,-4.919929504394531,-2.7700138092041016,-4.456334114074707,-2.765918016433716,-4.316277980804443,-0.6755200028419495,2.372227668762207,-5.125648498535156,-5.328265190124512,-4.162908554077148,-1.4943660497665405,-0.12460920959711075,-2.366926670074463,-1.5628852844238281,-2.3200602531433105,3.847261905670166,0.6372091770172119,0.06895813345909119,2.66190242767334,4.860627174377441,4.183041572570801,0.15597331523895264,2.2432961463928223,0.25516510009765625,0.7088478207588196,6.251707077026367,6.114881992340088,0.1710772067308426,1.2420320510864258,3.102933168411255,2.0454885959625244,3.9370477199554443,1.1691670417785645,2.186903476715088,4.381896018981934,0.8936262726783752,-0.6906258463859558,-4.070847511291504,-2.240571975708008,4.299051761627197,-1.1328091621398926,-3.7203352451324463,-2.2686679363250732,-3.050693988800049,-0.4727025330066681,-6.411335468292236,-6.248929023742676,-0.2140621840953827,-0.18786415457725525,-2.15865159034729,5.243578910827637,-0.14865179359912872,-4.267609596252441,-4.8756208419799805,-3.0667858123779297,-0.6859999895095825,-4.159959316253662,2.2550227642059326,0.3388754427433014,4.926990509033203,5.5613203048706055,5.092297077178955,1.6095906496047974,2.5208723545074463,5.900148391723633,4.935144901275635,3.1425533294677734,3.317456007003784,2.7641546726226807,2.5483853816986084,5.731233596801758,5.804508209228516,0.961789071559906,4.402103424072266,5.2890825271606445,1.0471452474594116,5.448009967803955,0.7924737334251404,-0.6266137957572937,-5.273149013519287,-1.2467116117477417,-5.287950038909912,-4.2811079025268555,4.535299777984619
14,2.356991767883301,-5.766834735870361,-5.449533939361572,-2.2246053218841553,-2.5536324977874756,-3.538313865661621,-2.537504196166992,-4.91095495223999,-5.740861892700195,-2.5158209800720215,-1.6863802671432495,4.115693092346191,-5.5774078369140625,-5.3254194259643555,-0.4190722107887268,-2.855544090270996,3.291564702987671,2.4552502632141113,6.279262542724609,5.822967529296875,1.154529333114624,3.0652477741241455,5.452249050140381,3.2188923358917236,-3.3300435543060303,1.4965401887893677,-4.874969959259033,-2.8626716136932373,-1.1472809314727783,-5.887342929840088,-4.8739705085754395,-2.706598997116089,-4.456374645233154,-2.7082881927490234,-4.341702461242676,-0.6143317818641663,2.3890585899353027,-5.179375648498535,-5.265748977661133,-4.181931972503662,-1.4699822664260864,-0.12770682573318481,-2.336088180541992,-1.5879381895065308,-2.265094757080078,3.9022274017333984,0.6121562123298645,0.09841057658195496,2.6927409172058105,4.857529640197754,4.207425117492676,0.13694997131824493,2.305812358856201,0.20143793523311615,0.7850481867790222,6.2079901695251465,6.142423629760742,0.19802545011043549,1.235227108001709,3.0502209663391113,2.115360736846924,3.853466272354126,1.2349032163619995,2.2380332946777344,4.31549072265625,0.8648766279220581,-0.719375491142273,-4.1372528076171875,-2.1894421577453613,4.3061137199401855,-1.0489170551300049,-3.7920665740966797,-2.2059850692749023,-3.11387300491333,-0.4457542598247528,-6.383793830871582,-6.2926459312438965,-0.13786186277866364,-0.23997528851032257,-2.097898483276367,5.229421615600586,-0.16895699501037598,-4.248385429382324,-4.880934238433838,-3.0526866912841797,-0.7166483402252197,-4.106794834136963,2.308187246322632,0.3082271218299866,4.941089630126953,5.556006908416748,5.038822174072266,1.6288148164749146,2.5005671977996826,5.960901260375977,4.883033752441406,3.214290142059326,3.3130393028259277,2.7592999935150146,2.5068347454071045,5.684662818908691,5.846162796020508,1.022977352142334,4.356108665466309,5.2647013664245605,1.0987989902496338,5.395040035247803,0.7790741324424744,-0.6400133967399597,-5.3261189460754395,-1.1950578689575195,-5.324413299560547,-4.321624755859375,4.509875297546387
15,2.281946897506714,-5.795706272125244,-5.505339622497559,-2.244584083557129,-2.5718140602111816,-3.480496644973755,-2.59057879447937,-4.86810827255249,-5.797980785369873,-2.500819683074951,-1.6872278451919556,4.162443161010742,-5.556564807891846,-5.368276596069336,-0.36236676573753357,-2.918484687805176,3.306382417678833,2.4893574714660645,6.330972671508789,5.798922538757324,1.0816088914871216,3.0057332515716553,5.398650169372559,3.22406005859375,-3.324875831604004,1.5135289430618286,-4.9285688400268555,-2.9221861362457275,-1.2108951807022095,-5.946493148803711,-4.82536506652832,-2.668900728225708,-4.441556930541992,-2.6615383625030518,-4.372644424438477,-0.6864745020866394,2.380762815475464,-5.1385345458984375,-5.321835994720459,-4.169278144836426,-1.4632734060287476,-0.11078297346830368,-2.3595800399780273,-1.5997991561889648,-2.3350584506988525,3.832263708114624,0.6002951860427856,0.1357608139514923,2.6692490577697754,4.874453544616699,4.214134216308594,0.14960381388664246,2.249725341796875,0.24227897822856903,0.7172830700874329,6.271113872528076,6.171212673187256,0.18919923901557922,1.2260476350784302,3.0606377124786377,2.0562708377838135,3.9137933254241943,1.1566839218139648,2.198211193084717,4.36925745010376,0.8905527591705322,-0.6936993598937988,-4.083486080169678,-2.229264259338379,4.336054801940918,-1.112223505973816,-3.722214460372925,-2.265468120574951,-3.1024396419525146,-0.45458048582077026,-6.355004787445068,-6.229522228240967,-0.20562699437141418,-0.19662407040596008,-2.1546027660369873,5.192846298217773,-0.15469223260879517,-4.246935844421387,-4.859849452972412,-3.0911433696746826,-0.6792168617248535,-4.168246746063232,2.2467353343963623,0.3456586003303528,4.902632713317871,5.577091693878174,5.083199501037598,1.6302642822265625,2.514831781387329,5.9041972160339355,4.926384925842285,3.1612155437469482,3.370856523513794,2.7411184310913086,2.486855983734131,5.6318793296813965,5.811464309692383,0.9508346319198608,4.38633918762207,5.286491394042969,1.0565840005874634,5.450199127197266,0.7404178380966187,-0.6786696910858154,-5.270959854125977,-1.23727285861969,-5.3055596351623535,-4.309445381164551,4.478933334350586
16,2.3371527194976807,-5.780519485473633,-5.517528057098389,-2.2730419635772705,-2.5894253253936768,-3.5002338886260986,-2.5237302780151367,-4.899312973022461,-5.7482757568359375,-2.5317819118499756,-1.679909348487854,4.186349868774414,-5.580844402313232,-5.334373474121094,-0.40913352370262146,-2.867865562438965,3.3124961853027344,2.5270183086395264,6.346556186676025,5.849245071411133,1.158598780632019,3.055316209793091,5.447230339050293,3.245774030685425,-3.303161859512329,1.5648304224014282,-4.879988670349121,-2.872603178024292,-1.1639277935028076,-5.874413967132568,-4.812236785888672,-2.6323492527008057,-4.43544340133667,-2.637631893157959,-4.40313196182251,-0.630109429359436,2.383671522140503,-5.170623779296875,-5.271374702453613,-4.201085090637207,-1.4504165649414062,-0.13614819943904877,-2.3031020164489746,-1.6287809610366821,-2.259927272796631,3.9073948860168457,0.5713133811950684,0.1514478176832199,2.725727081298828,4.849088191986084,4.226991176605225,0.11779704689979553,2.3001866340637207,0.21018965542316437,0.782696008682251,6.21977424621582,6.185846328735352,0.21502956748008728,1.2183037996292114,3.0157313346862793,2.1162164211273193,3.856112003326416,1.1997475624084473,2.2282826900482178,4.313931941986084,0.8464371562004089,-0.7378149628639221,-4.1388115882873535,-2.199192762374878,4.318288326263428,-1.0560753345489502,-3.772935390472412,-2.2057669162750244,-3.1493635177612305,-0.4287501573562622,-6.340371131896973,-6.280861854553223,-0.14021407067775726,-0.2273515909910202,-2.1054461002349854,5.177032947540283,-0.18806885182857513,-4.239503860473633,-4.883995056152344,-3.0516977310180664,-0.7167612314224243,-4.093806266784668,2.3211758136749268,0.3081142008304596,4.942078113555908,5.552946090698242,5.048214912414551,1.6376961469650269,2.4814553260803223,5.953353404998779,4.895657062530518,3.2280640602111816,3.35111927986145,2.7235071659088135,2.4583981037139893,5.617504119873047,5.865336894989014,1.007199764251709,4.351650238037109,5.291839599609375,1.086268424987793,5.3975396156311035,0.7516250610351562,-0.6674624681472778,-5.323619365692139,-1.2075884342193604,-5.318200588226318,-4.336888790130615,4.448445796966553
17,2.2854185104370117,-5.82149076461792,-5.549707412719727,-2.2832226753234863,-2.6076104640960693,-3.4549825191497803,-2.510073661804199,-4.876745223999023,-5.7923126220703125,-2.486618995666504,-1.6971133947372437,4.198270797729492,-5.547054290771484,-5.39794921875,-0.35998135805130005,-2.9242658615112305,3.32770037651062,2.5449907779693604,6.365272521972656,5.832435131072998,1.1009618043899536,3.012178421020508,5.404682159423828,3.222109079360962,-3.326826810836792,1.5836617946624756,-4.922536849975586,-2.915740966796875,-1.229642629623413,-5.897050380706787,-4.799769401550293,-2.611649513244629,-4.420239448547363,-2.625710964202881,-4.420098781585693,-0.6803756952285767,2.3663225173950195,-5.149077415466309,-5.314636707305908,-4.157061576843262,-1.45955491065979,-0.10104112327098846,-2.3544890880584717,-1.5975180864334106,-2.3180294036865234,3.849292755126953,0.6025763154029846,0.18393699824810028,2.674340009689331,4.884195327758789,4.21785306930542,0.16182082891464233,2.256924867630005,0.231735959649086,0.762471079826355,6.26447057723999,6.191539287567139,0.2153978943824768,1.2089943885803223,3.0388410091400146,2.082073450088501,3.885988473892212,1.1544861793518066,2.207202911376953,4.352560520172119,0.8745127320289612,-0.7097393870353699,-4.100183010101318,-2.2202725410461426,4.373195648193359,-1.0940121412277222,-3.739253044128418,-2.2357635498046875,-3.1280300617218018,-0.4283818304538727,-6.3346781730651855,-6.236165523529053,-0.16043898463249207,-0.20459018647670746,-2.1492886543273926,5.1507463455200195,-0.14222639799118042,-4.254111289978027,-4.8480000495910645,-3.11208176612854,-0.6636325716972351,-4.1493940353393555,2.2655882835388184,0.3612428903579712,4.881694316864014,5.5889410972595215,5.071211814880371,1.6230887174606323,2.5272977352142334,5.909510612487793,4.9184184074401855,3.241720676422119,3.3963706493377686,2.705322027206421,2.4482173919677734,5.5901994705200195,5.827645778656006,0.9569334983825684,4.366152286529541,5.288023948669434,1.0650659799575806,5.437665939331055,0.698610246181488,-0.720477283000946,-5.2834930419921875,-1.2287908792495728,-5.327232837677002,-4.3314690589904785,4.431478977203369
18,2.3109567165374756,-5.810684680938721,-5.55059814453125,-2.3183820247650146,-2.6089231967926025,-3.4787299633026123,-2.5446999073028564,-4.890624046325684,-5.759072303771973,-2.5584909915924072,-1.6781920194625854,4.206998825073242,-5.600602149963379,-5.3389105796813965,-0.40537530183792114,-2.891798496246338,3.3201258182525635,2.561584949493408,6.37238073348999,5.882565498352051,1.1522512435913086,3.0424726009368896,5.436357498168945,3.2932441234588623,-3.2556917667388916,1.6220957040786743,-4.890861511230469,-2.885446786880493,-1.197442650794983,-5.8481340408325195,-4.797522068023682,-2.6018617153167725,-4.42781400680542,-2.61698317527771,-4.442089080810547,-0.6542807221412659,2.3650152683258057,-5.164841651916504,-5.280952453613281,-4.232339859008789,-1.43942391872406,-0.16019970178604126,-2.28395414352417,-1.680960774421692,-2.2758777141571045,3.891444444656372,0.5191335678100586,0.1691880226135254,2.744874954223633,4.825036525726318,4.2379841804504395,0.08654261380434036,2.290609121322632,0.21597205102443695,0.7604519724845886,6.232293605804443,6.212355136871338,0.1847754269838333,1.2014734745025635,3.0054144859313965,2.0999231338500977,3.852149724960327,1.1748765707015991,2.2211265563964844,4.318117141723633,0.849861741065979,-0.734390377998352,-4.134626388549805,-2.2063488960266113,4.304280757904053,-1.0627899169921875,-3.7702324390411377,-2.2298576831817627,-3.137295722961426,-0.459004282951355,-6.313862323760986,-6.2683424949646,-0.16245810687541962,-0.21842527389526367,-2.116302251815796,5.132997989654541,-0.21634018421173096,-4.237682342529297,-4.903141021728516,-3.0511651039123535,-0.7264853119850159,-4.104978084564209,2.310004234313965,0.29839015007019043,4.942611217498779,5.53380012512207,5.053361892700195,1.6395176649093628,2.453183889389038,5.942497253417969,4.90458345413208,3.207094430923462,3.3726232051849365,2.7040092945098877,2.413058042526245,5.591034889221191,5.861357688903809,0.9830284714698792,4.356481552124023,5.311659812927246,1.0778462886810303,5.398870944976807,0.7531202435493469,-0.6659672856330872,-5.3222880363464355,-1.216010570526123,-5.325885772705078,-4.332803249359131,4.409488677978516
19,2.288918972015381,-5.827005386352539,-5.573631286621094,-2.2748005390167236,-2.6319689750671387,-3.4503653049468994,-2.454364538192749,-4.88571310043335,-5.784554958343506,-2.4798529148101807,-1.7075071334838867,4.204885482788086,-5.53463888168335,-5.399409770965576,-0.36583685874938965,-2.920355796813965,3.342345714569092,2.5837175846099854,6.379077911376953,5.884544372558594,1.1186283826828003,3.0179460048675537,5.411758899688721,3.2173755168914795,-3.3315603733062744,1.640812635421753,-4.915460109710693,-2.909973382949829,-1.2405916452407837,-5.850855350494385,-4.793920993804932,-2.585672616958618,-4.405594348907471,-2.619096517562866,-4.441106796264648,-0.6747754812240601,2.3412673473358154,-5.159930229187012,-5.306055068969727,-4.152694225311279,-1.4594788551330566,-0.08941469341516495,-2.3364157676696777,-1.6007100343704224,-2.297309637069702,3.8700125217437744,0.5993843674659729,0.2150905728340149,2.692413330078125,4.895821571350098,4.217929363250732,0.16618800163269043,2.2655065059661865,0.22088363766670227,0.81781005859375,6.25252628326416,6.173384189605713,0.23703250288963318,1.1909695863723755,3.0171284675598145,2.1169345378875732,3.865114212036133,1.149978518486023,2.2156825065612793,4.335209369659424,0.8729149103164673,-0.7113372087478638,-4.117534160614014,-2.2117929458618164,4.389190673828125,-1.0833886861801147,-3.756065845489502,-2.19372296333313,-3.155827522277832,-0.4067471921443939,-6.352833271026611,-6.248109817504883,-0.10509999096393585,-0.21394774317741394,-2.1415860652923584,5.1148247718811035,-0.1368391066789627,-4.263395309448242,-4.834249973297119,-3.108759880065918,-0.6592822670936584,-4.1315226554870605,2.283459424972534,0.36559322476387024,4.885016441345215,5.602691173553467,5.057233810424805,1.6138046979904175,2.5326850414276123,5.917213439941406,4.909060955047607,3.2974298000335693,3.4009878635406494,2.6809635162353516,2.456639528274536,5.582077980041504,5.846184730529785,0.962533712387085,4.35072135925293,5.305055618286133,1.074913740158081,5.424741744995117,0.6793187260627747,-0.7397688031196594,-5.296417236328125,-1.2189431190490723,-5.3480987548828125,-4.334026336669922,4.410470962524414
20,2.2891414165496826,-5.837059020996094,-5.5743231773376465,-2.3360188007354736,-2.61362886428833,-3.4726412296295166,-2.5247063636779785,-4.881165981292725,-5.770595550537109,-2.5481679439544678,-1.681479573249817,4.207900047302246,-5.597299098968506,-5.356686115264893,-0.3896104097366333,-2.9106061458587646,3.331209897994995,2.5848138332366943,6.382412910461426,5.901963233947754,1.1470794677734375,3.0296335220336914,5.424422740936279,3.2929816246032715,-3.2559542655944824,1.652828335762024,-4.902796268463135,-2.8982858657836914,-1.2310404777526855,-5.858099937438965,-4.795508861541748,-2.5980868339538574,-4.4167304039001465,-2.616081953048706,-4.454022407531738,-0.6733534932136536,2.340143918991089,-5.158450603485107,-5.29102087020874,-4.223536491394043,-1.4355473518371582,-0.15593980252742767,-2.285980224609375,-1.677912712097168,-2.286057949066162,3.8812642097473145,0.5221816301345825,0.1836501657962799,2.7428488731384277,4.829296112060547,4.241861343383789,0.09534583240747452,2.2805404663085938,0.22236308455467224,0.7657960057258606,6.237868785858154,6.217439651489258,0.1628299504518509,1.1844756603240967,2.998647928237915,2.082594394683838,3.8494482040405273,1.1558862924575806,2.2127554416656494,4.323511123657227,0.8592838644981384,-0.7249682545661926,-4.129232406616211,-2.2147200107574463,4.3223557472229,-1.0709376335144043,-3.7713193893432617,-2.247356414794922,-3.127159357070923,-0.4809497594833374,-6.308777809143066,-6.262767314910889,-0.15711404383182526,-0.20959487557411194,-2.1277668476104736,5.099681377410889,-0.20623575150966644,-4.241848468780518,-4.898080825805664,-3.065513849258423,-0.7178336381912231,-4.117532730102539,2.2974493503570557,0.30704185366630554,4.928262710571289,5.538860321044922,5.057737350463867,1.6353516578674316,2.4632883071899414,5.931032657623291,4.9134135246276855,3.22708797454834,3.3787119388580322,2.69930362701416,2.395421266555786,5.591332912445068,5.851524829864502,0.9639557003974915,4.349100589752197,5.329832553863525,1.069831132888794,5.406670570373535,0.738109827041626,-0.6809777021408081,-5.314488410949707,-1.2240257263183594,-5.348097324371338,-4.325380325317383,4.397555351257324
21,2.2893500328063965,-5.8336896896362305,-5.58640718460083,-2.2861945629119873,-2.6399190425872803,-3.454464912414551,-2.4591870307922363,-4.892780303955078,-5.7805280685424805,-2.4961395263671875,-1.7089899778366089,4.200674533843994,-5.550036430358887,-5.400418281555176,-0.3717750310897827,-2.921010732650757,3.348752021789551,2.603318452835083,6.380538463592529,5.905189514160156,1.1444759368896484,3.028890371322632,5.413197994232178,3.2448890209198,-3.304046869277954,1.6492960453033447,-4.914021015167236,-2.899029016494751,-1.2458546161651611,-5.853519439697266,-4.803249359130859,-2.585463762283325,-4.399188041687012,-2.623307228088379,-4.4485650062561035,-0.6714414954185486,2.3157689571380615,-5.169579982757568,-5.30078649520874,-4.171397686004639,-1.4555026292800903,-0.10626371949911118,-2.3220062255859375,-1.6278258562088013,-2.2838895320892334,3.883432626724243,0.572268545627594,0.21764789521694183,2.7068228721618652,4.878972053527832,4.221905708312988,0.14748471975326538,2.270775079727173,0.2112337201833725,0.8240148425102234,6.239323139190674,6.175577640533447,0.21043641865253448,1.173689603805542,3.0002121925354004,2.1145241260528564,3.8536593914031982,1.1458585262298584,2.222801446914673,4.325462341308594,0.8653598427772522,-0.7188922762870789,-4.127281188964844,-2.204674005508423,4.378305912017822,-1.0786736011505127,-3.766793727874756,-2.2019705772399902,-3.1575353145599365,-0.4333433210849762,-6.350639820098877,-6.261312961578369,-0.09889525175094604,-0.2216360718011856,-2.137721538543701,5.0791778564453125,-0.1540246158838272,-4.267678260803223,-4.849373817443848,-3.1068081855773926,-0.6753990054130554,-4.125070095062256,2.2899117469787598,0.34947654604911804,4.886968612670898,5.587567329406738,5.04628849029541,1.6095221042633057,2.5154993534088135,5.921077728271484,4.901371955871582,3.292607307434082,3.396888256072998,2.67301344871521,2.4452455043792725,5.588818550109863,5.853021144866943,0.9658676981925964,4.336450099945068,5.323265552520752,1.0831873416900635,5.417638301849365,0.6905245780944824,-0.7285629510879517,-5.303520679473877,-1.2106695175170898,-5.366748332977295,-4.331142902374268,4.403012752532959
22,2.2813026905059814,-5.845874309539795,-5.585477352142334,-2.3275182247161865,-2.621692657470703,-3.464529275894165,-2.500758171081543,-4.871499538421631,-5.7750067710876465,-2.53460431098938,-1.688091516494751,4.201150894165039,-5.585712909698486,-5.365643501281738,-0.383438378572464,-2.9214749336242676,3.3413662910461426,2.6034324169158936,6.382867336273193,5.918715953826904,1.155326247215271,3.021545171737671,5.417013168334961,3.287951946258545,-3.260983943939209,1.6395858526229858,-4.910205841064453,-2.906374216079712,-1.2617440223693848,-5.863887310028076,-4.806413173675537,-2.591405153274536,-4.40657377243042,-2.622830629348755,-4.459400177001953,-0.6781260371208191,2.3102705478668213,-5.150242328643799,-5.294480323791504,-4.212080478668213,-1.4336165189743042,-0.14393608272075653,-2.2803149223327637,-1.6770408153533936,-2.2845072746276855,3.882814884185791,0.5230535268783569,0.19553494453430176,2.748514175415039,4.841299533843994,4.243791580200195,0.10680195689201355,2.2770814895629883,0.23057129979133606,0.7892839908599854,6.238943576812744,6.1995086669921875,0.16534587740898132,1.1676628589630127,2.997755289077759,2.0821592807769775,3.8492515087127686,1.143417239189148,2.204223871231079,4.320196151733398,0.8675772547721863,-0.7166748642921448,-4.132547378540039,-2.2232515811920166,4.341338157653809,-1.0761830806732178,-3.770814895629883,-2.2448184490203857,-3.1290698051452637,-0.47843387722969055,-6.326708793640137,-6.261692523956299,-0.13362614810466766,-0.20020277798175812,-2.1323485374450684,5.060269832611084,-0.19323110580444336,-4.248797416687012,-4.88555383682251,-3.0711212158203125,-0.7105294466018677,-4.123276233673096,2.29170560836792,0.3143461048603058,4.9226555824279785,5.551387310028076,5.064828872680664,1.628402829170227,2.476292848587036,5.926450729370117,4.922805309295654,3.2510361671447754,3.386823892593384,2.691239833831787,2.4039218425750732,5.5950751304626465,5.85089635848999,0.9591831564903259,4.342929363250732,5.339920520782471,1.061598300933838,5.408481597900391,0.7262910604476929,-0.6927964687347412,-5.312677383422852,-1.2322585582733154,-5.366008758544922,-4.3249359130859375,4.392177581787109
23,2.282654047012329,-5.837906360626221,-5.5886406898498535,-2.2939178943634033,-2.640819787979126,-3.462650775909424,-2.4557840824127197,-4.903989315032959,-5.779637336730957,-2.5037827491760254,-1.7107070684432983,4.195754528045654,-5.558796405792236,-5.406513214111328,-0.3778868317604065,-2.9251325130462646,3.353499412536621,2.615809440612793,6.38124418258667,5.911431312561035,1.1700588464736938,3.0411624908447266,5.409635066986084,3.2590620517730713,-3.2898738384246826,1.6335594654083252,-4.91758394241333,-2.8867568969726562,-1.2602509260177612,-5.856903076171875,-4.8153252601623535,-2.5827972888946533,-4.394440650939941,-2.6282272338867188,-4.448798179626465,-0.6755366921424866,2.289071798324585,-5.18214225769043,-5.299063682556152,-4.18145227432251,-1.4491411447525024,-0.11565316468477249,-2.31424880027771,-1.6468265056610107,-2.277735948562622,3.8895862102508545,0.5532678365707397,0.2152749001979828,2.7145802974700928,4.869582176208496,4.228267192840576,0.13743017613887787,2.27249813079834,0.19867107272148132,0.8331382274627686,6.235527992248535,6.173385143280029,0.19343653321266174,1.1562024354934692,2.9988512992858887,2.105081558227539,3.845034599304199,1.1489126682281494,2.233987808227539,4.3190765380859375,0.8567039966583252,-0.7275481224060059,-4.1336669921875,-2.1934876441955566,4.37519645690918,-1.073068618774414,-3.7725515365600586,-2.214806079864502,-3.1496498584747314,-0.45034319162368774,-6.352832317352295,-6.265108108520508,-0.08977187424898148,-0.23321503400802612,-2.137110471725464,5.0385589599609375,-0.16243517398834229,-4.270247936248779,-4.857820510864258,-3.1103594303131104,-0.6845283508300781,-4.123957633972168,2.2910239696502686,0.34034717082977295,4.88341760635376,5.579120635986328,5.033782005310059,1.6069523096084595,2.5070886611938477,5.921688556671143,4.889793395996094,3.2960102558135986,3.388702392578125,2.6721127033233643,2.4375221729278564,5.596877574920654,5.856354713439941,0.9617725014686584,4.328980445861816,5.3365888595581055,1.0958690643310547,5.412327289581299,0.6992863416671753,-0.7198011875152588,-5.308831691741943,-1.1979877948760986,-5.378233432769775,-4.3267693519592285,4.402779579162598
24,2.2737321853637695,-5.849689483642578,-5.5885910987854,-2.3188273906707764,-2.625364065170288,-3.461381196975708,-2.483450174331665,-4.856740951538086,-5.777560710906982,-2.5273826122283936,-1.6930028200149536,4.196041584014893,-5.580266952514648,-5.371330261230469,-0.385465145111084,-2.9282140731811523,3.3509247303009033,2.614149332046509,6.384765625,5.934822082519531,1.1626508235931396,3.009586811065674,5.409742832183838,3.2867844104766846,-3.2621514797210693,1.6234747171401978,-4.917476177215576,-2.918332576751709,-1.3036037683486938,-5.878710746765137,-4.81671142578125,-2.5875167846679688,-4.39701509475708,-2.6279401779174805,-4.463727951049805,-0.6833495497703552,2.2816061973571777,-5.135951995849609,-5.29661750793457,-4.207351207733154,-1.4288443326950073,-0.13851457834243774,-2.272857427597046,-1.6821634769439697,-2.2811331748962402,3.8861889839172363,0.517930805683136,0.20007115602493286,2.755971670150757,4.8467206954956055,4.24856424331665,0.11153161525726318,2.274944543838501,0.24486134946346283,0.8097859025001526,6.240391254425049,6.186346530914307,0.16439902782440186,1.151168704032898,3.0011096000671387,2.0800702571868896,3.85245943069458,1.1332685947418213,2.190342664718628,4.3163533210754395,0.8768336772918701,-0.7074184417724609,-4.136390209197998,-2.2371327877044678,4.352433204650879,-1.0809004306793213,-3.758484363555908,-2.246222972869873,-3.128288745880127,-0.47938069701194763,-6.339870929718018,-6.260244846343994,-0.11312422156333923,-0.18546129763126373,-2.135152816772461,5.018373012542725,-0.1867087185382843,-4.253296852111816,-4.879550933837891,-3.073826551437378,-0.7087795734405518,-4.125476360321045,2.2895050048828125,0.3160959482192993,4.919950485229492,5.557390213012695,5.07850456237793,1.623903512954712,2.4828152656555176,5.923646450042725,4.937547206878662,3.2683441638946533,3.389971971511841,2.687568426132202,2.4126126766204834,5.60012149810791,5.852092266082764,0.9539596438407898,4.341099739074707,5.345216751098633,1.0482689142227173,5.406824588775635,0.7242211699485779,-0.6948663592338562,-5.314334392547607,-1.245587944984436,-5.3812174797058105,-4.322831153869629,4.387849807739258
25,2.2744526863098145,-5.8420329093933105,-5.58831787109375,-2.2945051193237305,-2.640038013458252,-3.4710652828216553,-2.4484734535217285,-4.916146755218506,-5.778426170349121,-2.5064778327941895,-1.7137243747711182,4.1925435066223145,-5.563957214355469,-5.412069320678711,-0.38601890206336975,-2.9294869899749756,3.3609814643859863,2.6221976280212402,6.384406089782715,5.912616729736328,1.2044607400894165,3.0579030513763428,5.404840469360352,3.2645928859710693,-3.2843430042266846,1.6200979948043823,-4.9223785400390625,-2.87001633644104,-1.2682477235794067,-5.875687599182129,-4.824923515319824,-2.582163095474243,-4.386958599090576,-2.631438732147217,-4.449890613555908,-0.6817403435707092,2.2622129917144775,-5.194816589355469,-5.297497272491455,-4.186458587646484,-1.4427218437194824,-0.12079787254333496,-2.3076577186584473,-1.6605304479599,-2.2740471363067627,3.893275022506714,0.5395638346672058,0.21253885328769684,2.7211713790893555,4.864437580108643,4.234686374664307,0.13242404162883759,2.274064540863037,0.18599677085876465,0.8460993766784668,6.233128070831299,6.1698431968688965,0.180943563580513,1.139290690422058,3.001035690307617,2.0977444648742676,3.824979305267334,1.16752028465271,2.246377468109131,4.3139872550964355,0.8516139388084412,-0.7326381802558899,-4.138756275177002,-2.181097984313965,4.375733852386475,-1.0576368570327759,-3.772613286972046,-2.224623680114746,-3.145754814147949,-0.4628361463546753,-6.356374263763428,-6.267508029937744,-0.07681076228618622,-0.24547679722309113,-2.1362481117248535,4.99776029586792,-0.16578534245491028,-4.273048400878906,-4.862529754638672,-3.113476037979126,-0.6906043887138367,-4.124504566192627,2.2904770374298096,0.334271103143692,4.880300521850586,5.574411392211914,5.021448612213135,1.6041518449783325,2.5037386417388916,5.922551155090332,4.8775315284729,3.30332088470459,3.3802878856658936,2.6728944778442383,2.4369349479675293,5.604185104370117,5.857995986938477,0.9555688500404358,4.316882610321045,5.350484371185303,1.1091517210006714,5.406876564025879,0.7051230072975159,-0.7139645218849182,-5.314282417297363,-1.184705138206482,-5.384073734283447,-4.317538261413574,4.401687145233154
26,2.2653114795684814,-5.851530075073242,-5.5899200439453125,-2.3111658096313477,-2.625563621520996,-3.459906578063965,-2.470423698425293,-4.851985931396484,-5.778607368469238,-2.522747755050659,-1.697407603263855,4.192283630371094,-5.578022480010986,-5.376984119415283,-0.39160704612731934,-2.9328367710113525,3.362002372741699,2.6180243492126465,6.3882269859313965,5.942384243011475,1.1745766401290894,3.00502872467041,5.4025774002075195,3.284238815307617,-3.2646970748901367,1.6118870973587036,-4.9246416091918945,-2.9228906631469727,-1.338578462600708,-5.927738666534424,-4.825413703918457,-2.588006019592285,-4.385937213897705,-2.6316986083984375,-4.469374179840088,-0.6899946331977844,2.2541587352752686,-5.1309638023376465,-5.297708511352539,-4.20505428314209,-1.423209309577942,-0.13594777882099152,-2.26709246635437,-1.6890349388122559,-2.277653932571411,3.8896682262420654,0.5110594034194946,0.20144663751125336,2.7617366313934326,4.849287509918213,4.254199028015137,0.1138281375169754,2.273853302001953,0.24984964728355408,0.8278312683105469,6.241113185882568,6.177040100097656,0.16106994450092316,1.135587215423584,3.005129814147949,2.0771307945251465,3.857985734939575,1.122017502784729,2.1862921714782715,4.313300132751465,0.8864745497703552,-0.6977775692939758,-4.139443397521973,-2.241183280944824,4.359451770782471,-1.0871315002441406,-3.7196853160858154,-2.2498297691345215,-3.1282291412353516,-0.48270976543426514,-6.349177360534668,-6.259522914886475,-0.09507886320352554,-0.1808200627565384,-2.136488199234009,4.977832317352295,-0.18267087638378143,-4.257000923156738,-4.876748561859131,-3.0768580436706543,-0.7097489237785339,-4.126760005950928,2.2882213592529297,0.31512656807899475,4.916918754577637,5.560192584991455,5.084234237670898,1.6201993227005005,2.4868531227111816,5.922311305999756,4.942188262939453,3.2813706398010254,3.391446590423584,2.687368869781494,2.420274257659912,5.604942798614502,5.85386848449707,0.9473145604133606,4.332247257232666,5.345611572265625,1.0451669692993164,5.403887748718262,0.7248031497001648,-0.6942843794822693,-5.3172712326049805,-1.248689889907837,-5.397831439971924,-4.3128790855407715,4.382203578948975
27,2.2654738426208496,-5.8441338539123535,-5.588798522949219,-2.2918224334716797,-2.6393544673919678,-3.4774744510650635,-2.4415924549102783,-4.909845352172852,-5.777763366699219,-2.5070433616638184,-1.7169779539108276,4.190681457519531,-5.5676140785217285,-5.415225028991699,-0.3964422047138214,-2.9335596561431885,3.3701019287109375,2.6230111122131348,6.388739585876465,5.924795627593994,1.2280484437942505,3.0585384368896484,5.39918327331543,3.2638657093048096,-3.2850701808929443,1.609542727470398,-4.928035736083984,-2.8693809509277344,-1.2906041145324707,-5.920980930328369,-4.8328657150268555,-2.5851709842681885,-4.377837657928467,-2.633300542831421,-4.454614162445068,-0.6891613602638245,2.2358956336975098,-5.188378810882568,-5.296891212463379,-4.188986778259277,-1.436035394668579,-0.12358110398054123,-2.2999584674835205,-1.671791434288025,-2.27119779586792,3.8961243629455566,0.5283030271530151,0.2101989984512329,2.7288706302642822,4.861653804779053,4.241373062133789,0.12989535927772522,2.274670124053955,0.1924344152212143,0.8598579168319702,6.230954170227051,6.165209770202637,0.17179353535175323,1.1239280700683594,3.0048019886016846,2.0928211212158203,3.795119524002075,1.1915199756622314,2.241471290588379,4.311722278594971,0.8519134521484375,-0.7323386669158936,-4.141021251678467,-2.186004161834717,4.3771867752075195,-1.0356463193893433,-3.7647454738616943,-2.2312939167022705,-3.144592046737671,-0.47198617458343506,-6.3610076904296875,-6.269681930541992,-0.06305219233036041,-0.2390664964914322,-2.1360533237457275,4.958136081695557,-0.1668504923582077,-4.275722026824951,-4.86554479598999,-3.1143198013305664,-0.6965168118476868,-4.1260881423950195,2.288893461227417,0.3283587098121643,4.879456996917725,5.571396350860596,5.027743816375732,1.6014783382415771,2.502673625946045,5.922746181488037,4.883942127227783,3.31020188331604,3.3738787174224854,2.6735780239105225,2.43961763381958,5.609392166137695,5.859315395355225,0.9481478333473206,4.303324222564697,5.365745544433594,1.1039111614227295,5.4029765129089355,0.7100194096565247,-0.7090681195259094,-5.318182468414307,-1.1899456977844238,-5.385636806488037,-4.304372310638428,4.396963596343994
28,2.2551355361938477,-5.854368209838867,-5.590343952178955,-2.307180643081665,-2.624051570892334,-3.4610753059387207,-2.4614853858947754,-4.862423419952393,-5.777044296264648,-2.5211567878723145,-1.7005493640899658,4.189039707183838,-5.5785651206970215,-5.384459495544434,-0.4009597599506378,-2.9358036518096924,3.3718011379241943,2.6163504123687744,6.392335414886475,5.954543590545654,1.2025145292282104,3.0173418521881104,5.397693157196045,3.2796194553375244,-3.2693164348602295,1.60356867313385,-4.929525852203369,-2.9105775356292725,-1.3487725257873535,-5.962468147277832,-4.833418846130371,-2.592801809310913,-4.376138210296631,-2.6349422931671143,-4.475800514221191,-0.6987773776054382,2.227433443069458,-5.140957832336426,-5.296446800231934,-4.204986572265625,-1.4171299934387207,-0.13521762192249298,-2.264551877975464,-1.696334958076477,-2.2738888263702393,3.8934333324432373,0.5037594437599182,0.20077404379844666,2.764277219772339,4.850017070770264,4.260278224945068,0.11389532685279846,2.2751147747039795,0.2398555874824524,0.8436341285705566,6.241498947143555,6.173267364501953,0.15635962784290314,1.1206914186477661,3.010610342025757,2.0734198093414307,3.858788013458252,1.1177853345870972,2.1978869438171387,4.310062408447266,0.8941680192947388,-0.6900840997695923,-4.142681121826172,-2.229588508605957,4.36331033706665,-1.0909496545791626,-3.6883440017700195,-2.2554068565368652,-3.126709461212158,-0.48742008209228516,-6.352950096130371,-6.259137153625488,-0.07927600294351578,-0.19137637317180634,-2.1353423595428467,4.938892364501953,-0.1814177930355072,-4.259817123413086,-4.8766188621521,-3.0821568965911865,-0.7130864858627319,-4.1277947425842285,2.287186861038208,0.31178900599479675,4.911620140075684,5.560322284698486,5.074754238128662,1.6173831224441528,2.4881062507629395,5.92345666885376,4.931632041931152,3.290308952331543,3.390277862548828,2.6888809204101562,2.4242594242095947,5.609537601470947,5.854727745056152,0.9385318160057068,4.319814205169678,5.351067066192627,1.0572431087493896,5.399735927581787,0.7251402139663696,-0.6939473152160645,-5.321423053741455,-1.2366137504577637,-5.407769203186035,-4.297430992126465,4.375777244567871
29,2.2557525634765625,-5.842091083526611,-5.591002941131592,-2.2867376804351807,-2.641298294067383,-3.48284912109375,-2.4346835613250732,-4.898787498474121,-5.778154373168945,-2.5064857006073,-1.719909906387329,4.1891303062438965,-5.569726943969727,-5.417608261108398,-0.4096972644329071,-2.936505079269409,3.3785204887390137,2.6191577911376953,6.393962383270264,5.954179286956787,1.2379943132400513,3.0501902103424072,5.392980098724365,3.263216018676758,-3.285719871520996,1.6045517921447754,-4.934238910675049,-2.8777291774749756,-1.3224847316741943,-5.942783832550049,-4.838834762573242,-2.591707468032837,-4.369418621063232,-2.6348512172698975,-4.460946559906006,-0.6976265907287598,2.2092223167419434,-5.177047252655029,-5.297778129577637,-4.18965482711792,-1.4297845363616943,-0.12378230690956116,-2.292226552963257,-1.6808750629425049,-2.268688678741455,3.8986334800720215,0.5192193388938904,0.20917023718357086,2.736602544784546,4.861452579498291,4.247623443603516,0.12922710180282593,2.2737834453582764,0.20376603305339813,0.8752477169036865,6.228694915771484,6.159994602203369,0.16916127502918243,1.1099762916564941,3.0096981525421143,2.091846227645874,3.789318323135376,1.1902128458023071,2.23225736618042,4.31172513961792,0.8557142615318298,-0.7285378575325012,-4.141018390655518,-2.195218086242676,4.380514621734619,-1.032151699066162,-3.7498176097869873,-2.233388900756836,-3.1453869342803955,-0.47461840510368347,-6.366222858428955,-6.271941184997559,-0.04766242578625679,-0.22795014083385468,-2.1369736194610596,4.920212268829346,-0.16667671501636505,-4.278408050537109,-4.867064952850342,-3.114442825317383,-0.7031357288360596,-4.1280012130737305,2.2869808673858643,0.3217397630214691,4.879334449768066,5.569876194000244,5.038810729980469,1.5987920761108398,2.50284743309021,5.921825408935547,4.8950581550598145,3.317110776901245,3.368504047393799,2.6716341972351074,2.444702386856079,5.612046241760254,5.86200475692749,0.9396826028823853,4.295783519744873,5.373660087585449,1.0946431159973145,5.401493549346924,0.7128425240516663,-0.7062450051307678,-5.319665431976318,-1.1992137432098389,-5.392807483673096,-4.300124645233154,4.390631198883057
30,2.2431020736694336,-5.860045909881592,-5.590590476989746,-2.3065052032470703,-2.622051954269409,-3.4616482257843018,-2.454580068588257,-4.87039852142334,-5.774029731750488,-2.5212666988372803,-1.7030055522918701,4.186007499694824,-5.580638885498047,-5.391480922698975,-0.412381649017334,-2.9369688034057617,3.3801262378692627,2.613187074661255,6.397187232971191,5.976914882659912,1.2219769954681396,3.0254571437835693,5.395084857940674,3.279139280319214,-3.26979660987854,1.6015512943267822,-4.93213415145874,-2.9024622440338135,-1.3650561571121216,-5.964128017425537,-4.839079856872559,-2.5986416339874268,-4.367812633514404,-2.6379740238189697,-4.480892658233643,-0.7096397876739502,2.201732635498047,-5.148802280426025,-5.294069290161133,-4.2062859535217285,-1.411049485206604,-0.1350054293870926,-2.262195587158203,-1.703864574432373,-2.2703983783721924,3.896923780441284,0.4962298274040222,0.19921407103538513,2.7666335105895996,4.850229263305664,4.266358375549316,0.11259555071592331,2.2774922847747803,0.232011079788208,0.8586171865463257,6.241958141326904,6.172491073608398,0.1520201712846756,1.1070785522460938,3.018322467803955,2.0701022148132324,3.844219207763672,1.1294044256210327,2.206300973892212,4.3077287673950195,0.8975199460983276,-0.6867321729660034,-4.145014762878418,-2.221174478530884,4.365790843963623,-1.0807368755340576,-3.6901464462280273,-2.2610347270965576,-3.123950242996216,-0.4917595088481903,-6.353726387023926,-6.258677959442139,-0.06429292261600494,-0.1994534432888031,-2.1328554153442383,4.9026336669921875,-0.18185602128505707,-4.262201309204102,-4.8780975341796875,-3.0870723724365234,-0.7181141376495361,-4.128641605377197,2.2863404750823975,0.30676135420799255,4.906704902648926,5.558843612670898,5.06666374206543,1.6149989366531372,2.487668037414551,5.925943374633789,4.92355489730835,3.2972142696380615,3.389704942703247,2.690880537033081,2.4249348640441895,5.613563060760498,5.852983474731445,0.9276694059371948,4.314419746398926,5.3607611656188965,1.0672283172607422,5.396005153656006,0.7257471680641174,-0.6933403611183167,-5.325153827667236,-1.2266285419464111,-5.413076400756836,-4.287444114685059,4.37068510055542
31,2.2460274696350098,-5.840404033660889,-5.594525337219238,-2.2805256843566895,-2.6445207595825195,-3.4874489307403564,-2.427607297897339,-4.89286994934082,-5.778624534606934,-2.5049304962158203,-1.7228477001190186,4.188541889190674,-5.570870399475098,-5.420125484466553,-0.42485398054122925,-2.9386093616485596,3.3859732151031494,2.615813732147217,6.398976802825928,5.98045015335083,1.246482253074646,3.045459508895874,5.38670015335083,3.2658708095550537,-3.2830650806427,1.6052535772323608,-4.940518856048584,-2.882459878921509,-1.3501673936843872,-5.947931289672852,-4.843686103820801,-2.597537040710449,-4.361965656280518,-2.63543963432312,-4.465577602386475,-0.7062790393829346,2.183405637741089,-5.171130657196045,-5.299452781677246,-4.189416408538818,-1.424047589302063,-0.12212345004081726,-2.2853686809539795,-1.6889578104019165,-2.2670037746429443,3.9003183841705322,0.5111366510391235,0.20873761177062988,2.7434604167938232,4.8631110191345215,4.253360271453857,0.12946487963199615,2.272108554840088,0.20968249440193176,0.8919594287872314,6.226469993591309,6.154541492462158,0.1700950413942337,1.0973609685897827,3.016061305999756,2.093096971511841,3.797390937805176,1.1777697801589966,2.2270987033843994,4.312646865844727,0.8627269864082336,-0.7215251326560974,-4.140096664428711,-2.2003767490386963,4.384370803833008,-1.0407147407531738,-3.7332775592803955,-2.2333390712738037,-3.1463398933410645,-0.4736846387386322,-6.371675968170166,-6.274166107177734,-0.030950672924518585,-0.2220301628112793,-2.1379661560058594,4.885462760925293,-0.16547788679599762,-4.281187057495117,-4.867656707763672,-3.1146976947784424,-0.710163950920105,-4.130796432495117,2.2841858863830566,0.3147115409374237,4.879079341888428,5.569284439086914,5.044455528259277,1.5960134267807007,2.5040462017059326,5.920832633972168,4.900978088378906,3.3241870403289795,3.3639042377471924,2.6684117317199707,2.4509143829345703,5.613023281097412,5.8639421463012695,0.9310301542282104,4.2897820472717285,5.380310535430908,1.0908305644989014,5.400972843170166,0.7128836512565613,-0.7062038779258728,-5.320186138153076,-1.203026294708252,-5.400468349456787,-4.302464008331299,4.386000156402588
32,2.230134963989258,-5.866728782653809,-5.590637683868408,-2.3077731132507324,-2.61940336227417,-3.4610249996185303,-2.449404001235962,-4.874063968658447,-5.76993989944458,-2.52213978767395,-1.7053799629211426,4.183568477630615,-5.583685398101807,-5.397316932678223,-0.42461010813713074,-2.9362571239471436,3.386937141418457,2.61198353767395,6.402371883392334,5.996712684631348,1.2359614372253418,3.029554605484009,5.393791198730469,3.282090663909912,-3.266845226287842,1.6041220426559448,-4.933427810668945,-2.898364782333374,-1.3840856552124023,-5.961916923522949,-4.8426313400268555,-2.6024954319000244,-4.361001491546631,-2.640413284301758,-4.484074115753174,-0.7215633392333984,2.1776676177978516,-5.152595043182373,-5.2912421226501465,-4.208547115325928,-1.4052507877349854,-0.13482961058616638,-2.2591376304626465,-1.7121729850769043,-2.266505241394043,3.9008169174194336,0.48792141675949097,0.1972396820783615,2.7696914672851562,4.850404739379883,4.272157192230225,0.11033400148153305,2.2803194522857666,0.22821803390979767,0.8725937008857727,6.242101669311523,6.172764301300049,0.1470547467470169,1.095007061958313,3.0263826847076416,2.0673820972442627,3.831806182861328,1.1395772695541382,2.209702491760254,4.305819511413574,0.8984143137931824,-0.6858378052711487,-4.146924018859863,-2.217772960662842,4.366844654083252,-1.070428729057312,-3.6972808837890625,-2.266409397125244,-3.121245861053467,-0.496724933385849,-6.353453159332275,-6.2585344314575195,-0.05031640827655792,-0.20320968329906464,-2.129289388656616,4.870245456695557,-0.18303246796131134,-4.264629364013672,-4.880602836608887,-3.090838670730591,-0.7241081595420837,-4.129242897033691,2.2857396602630615,0.30076730251312256,4.9029388427734375,5.556338310241699,5.062620162963867,1.612571358680725,2.4864916801452637,5.92950963973999,4.919798851013184,3.3023903369903564,3.3903281688690186,2.6935291290283203,2.4236669540405273,5.617593765258789,5.850188255310059,0.9157458543777466,4.314431667327881,5.369649887084961,1.073216438293457,5.391857147216797,0.7271944880485535,-0.6918930411338806,-5.329301834106445,-1.2206404209136963,-5.418931007385254,-4.279986381530762,4.367503643035889
33,2.236402988433838,-5.8403000831604,-5.598927021026611,-2.27431058883667,-2.6483066082000732,-3.4907987117767334,-2.421051263809204,-4.890085697174072,-5.779897212982178,-2.502567768096924,-1.7258434295654297,4.188904762268066,-5.571475028991699,-5.423158168792725,-0.44095033407211304,-2.9409267902374268,3.391660451889038,2.6150145530700684,6.40339994430542,5.9996418952941895,1.2549086809158325,3.043663263320923,5.379522323608398,3.2686989307403564,-3.2802369594573975,1.607959508895874,-4.947696685791016,-2.88425612449646,-1.3736803531646729,-5.951103687286377,-4.848198890686035,-2.6011099815368652,-4.356278419494629,-2.6350769996643066,-4.4685750007629395,-0.7149243950843811,2.159203290939331,-5.168466091156006,-5.302481174468994,-4.188513278961182,-1.4189141988754272,-0.11889279633760452,-2.2795910835266113,-1.6964030265808105,-2.266300678253174,3.9010214805603027,0.5036913156509399,0.20919449627399445,2.7492380142211914,4.866341590881348,4.258493900299072,0.13036814332008362,2.269080400466919,0.21234700083732605,0.9089707732200623,6.224516868591309,6.148823261260986,0.17281688749790192,1.086068868637085,3.02311110496521,2.0954253673553467,3.80264949798584,1.1705634593963623,2.224318265914917,4.315507411956787,0.8705012798309326,-0.7137508392333984,-4.13723611831665,-2.2031571865081787,4.388356685638428,-1.0457894802093506,-3.724522590637207,-2.232335090637207,-3.1480886936187744,-0.4709628224372864,-6.377394199371338,-6.276119232177734,-0.01393930148333311,-0.21926799416542053,-2.1397860050201416,4.854430675506592,-0.16337615251541138,-4.284106254577637,-4.867642879486084,-3.1155762672424316,-0.7173812389373779,-4.135543346405029,2.2794389724731445,0.30749422311782837,4.878201007843018,5.569298267364502,5.046889781951904,1.5930943489074707,2.506148099899292,5.919013023376465,4.903740406036377,3.3307430744171143,3.3605544567108154,2.664625883102417,2.45712947845459,5.6133527755737305,5.8645830154418945,0.9223847985267639,4.28331184387207,5.387528896331787,1.0903944969177246,5.401767730712891,0.7118059992790222,-0.7072815299034119,-5.319391250610352,-1.2034623622894287,-5.40730619430542,-4.308131217956543,4.383002758026123
34,2.2168185710906982,-5.87252140045166,-5.590573310852051,-2.3101205825805664,-2.6170735359191895,-3.460056781768799,-2.4464011192321777,-4.875466346740723,-5.763593673706055,-2.523824691772461,-1.7071259021759033,4.1815338134765625,-5.587819576263428,-5.402288913726807,-0.43730029463768005,-2.9330360889434814,3.3909833431243896,2.6126291751861572,6.4073357582092285,6.014514446258545,1.2484337091445923,3.032447576522827,5.395016193389893,3.2860562801361084,-3.2628796100616455,1.609222412109375,-4.9322028160095215,-2.8954718112945557,-1.401989221572876,-5.9604387283325195,-4.844786643981934,-2.604645252227783,-4.356955528259277,-2.6424479484558105,-4.486255645751953,-0.7339046001434326,2.1556131839752197,-5.15419864654541,-5.286594867706299,-4.211605072021484,-1.3997020721435547,-0.13457906246185303,-2.255601406097412,-1.7209068536758423,-2.260435104370117,3.9068870544433594,0.4791874587535858,0.19519072771072388,2.7732276916503906,4.850655555725098,4.277706146240234,0.10727621614933014,2.2849669456481934,0.22661417722702026,0.8851880431175232,6.242246150970459,6.1745381355285645,0.14102330803871155,1.0843242406845093,3.034189224243164,2.065675973892212,3.8265044689178467,1.1438158750534058,2.210733413696289,4.302446365356445,0.9004769921302795,-0.6837751269340515,-4.150297164916992,-2.2167420387268066,4.366613864898682,-1.064492106437683,-3.700716018676758,-2.271487236022949,-3.118748426437378,-0.5027564167976379,-6.35167932510376,-6.258389949798584,-0.03772202134132385,-0.20471210777759552,-2.12347412109375,4.841927528381348,-0.18489736318588257,-4.26668643951416,-4.884106159210205,-3.093871831893921,-0.7309883236885071,-4.128758430480957,2.286224126815796,0.29388707876205444,4.899905681610107,5.552834987640381,5.0608038902282715,1.6105141639709473,2.4846267700195312,5.935324668884277,4.9182963371276855,3.3053932189941406,3.39129638671875,2.695858955383301,2.4213194847106934,5.622061252593994,5.8488240242004395,0.9034045934677124,4.318863868713379,5.378818988800049,1.0770819187164307,5.386185646057129,0.7296850085258484,-0.6894025206565857,-5.334973335266113,-1.2167749404907227,-5.425042152404785,-4.27101993560791,4.365322113037109
35,2.2265748977661133,-5.843216419219971,-5.604138374328613,-2.26991868019104,-2.651495933532715,-3.492565155029297,-2.4158613681793213,-4.8887224197387695,-5.784032344818115,-2.499622344970703,-1.728753685951233,4.189671993255615,-5.571966648101807,-5.426427364349365,-0.4574858844280243,-2.9449684619903564,3.394500970840454,2.6157960891723633,6.407680511474609,6.014315605163574,1.2622886896133423,3.0429489612579346,5.369495868682861,3.2706055641174316,-3.2783303260803223,1.6110447645187378,-4.957723140716553,-2.8849704265594482,-1.3946559429168701,-5.95518159866333,-4.852346897125244,-2.603447914123535,-4.353437900543213,-2.634310007095337,-4.471405029296875,-0.7237818837165833,2.136763334274292,-5.167233943939209,-5.308650970458984,-4.186840534210205,-1.414730191230774,-0.11421949416399002,-2.2743940353393555,-1.7031558752059937,-2.2677559852600098,3.899566173553467,0.4969384968280792,0.21082347631454468,2.7544350624084473,4.8710150718688965,4.262678146362305,0.1320408284664154,2.262911081314087,0.21357928216457367,0.9253658652305603,6.222634315490723,6.142004489898682,0.17697012424468994,1.076063632965088,3.0308287143707275,2.0983150005340576,3.8048622608184814,1.1686947345733643,2.2228007316589355,4.322135925292969,0.8784076571464539,-0.7058444619178772,-4.130607604980469,-2.20467472076416,4.392653465270996,-1.0465210676193237,-3.721623659133911,-2.2310760021209717,-3.1510796546936035,-0.46680960059165955,-6.384212970733643,-6.27800178527832,0.002455801237374544,-0.21795161068439484,-2.1445155143737793,4.827328205108643,-0.16049090027809143,-4.287259578704834,-4.867337226867676,-3.1169450283050537,-0.7248647809028625,-4.143979072570801,2.271003007888794,0.300010621547699,4.876832485198975,5.56960391998291,5.04791259765625,1.589941143989563,2.509033203125,5.914283275604248,4.905056953430176,3.335932970046997,3.358788013458252,2.6614365577697754,2.4615213871002197,5.613726615905762,5.8638787269592285,0.9135273098945618,4.2754130363464355,5.393880844116211,1.0916107892990112,5.40554666519165,0.7100961804389954,-0.7089913487434387,-5.315612316131592,-1.202246069908142,-5.41580057144165,-4.316624164581299,4.3801727294921875
36,2.2038044929504395,-5.877632141113281,-5.590986251831055,-2.3120415210723877,-2.6167795658111572,-3.4602463245391846,-2.4451589584350586,-4.875773906707764,-5.752933979034424,-2.526242971420288,-1.7078509330749512,4.179928302764893,-5.592992305755615,-5.406952381134033,-0.4505252242088318,-2.925781726837158,3.39111590385437,2.614513874053955,6.411769390106201,6.0339741706848145,1.2605770826339722,3.0350632667541504,5.401101589202881,3.290391683578491,-3.2585442066192627,1.6183708906173706,-4.926117420196533,-2.8928561210632324,-1.4176751375198364,-5.957189083099365,-4.845989227294922,-2.6058712005615234,-4.356822490692139,-2.6440534591674805,-4.487092971801758,-0.7459473013877869,2.1353046894073486,-5.1547627449035645,-5.277856826782227,-4.215048789978027,-1.3944580554962158,-0.13389012217521667,-2.2520334720611572,-1.7289626598358154,-2.2494940757751465,3.91782808303833,0.47113165259361267,0.19319164752960205,2.7767956256866455,4.851344585418701,4.282949924468994,0.10383246839046478,2.293705463409424,0.226050466299057,0.8970282077789307,6.242101192474365,6.17827844619751,0.1339276134967804,1.0746804475784302,3.041551113128662,2.066932439804077,3.826833724975586,1.1436740159988403,2.2109055519104004,4.2951860427856445,0.9039991497993469,-0.6802529692649841,-4.157557487487793,-2.2165699005126953,4.365572452545166,-1.0606094598770142,-3.700704574584961,-2.275575637817383,-3.117201805114746,-0.5098521113395691,-6.3479390144348145,-6.258534908294678,-0.02588186413049698,-0.20518144965171814,-2.113386869430542,4.81768798828125,-0.18721556663513184,-4.268218517303467,-4.888396739959717,-3.0968120098114014,-0.738257884979248,-4.125277996063232,2.289703845977783,0.2866175174713135,4.896965980529785,5.548544406890869,5.059999942779541,1.6089820861816406,2.4823083877563477,5.9454121589660645,4.917827129364014,3.3066353797912598,3.3911068439483643,2.696152925491333,2.419398546218872,5.627111434936523,5.852405071258545,0.8913618922233582,4.326728343963623,5.391694068908691,1.079889178276062,5.377577304840088,0.7331427931785583,-0.6859447360038757,-5.343581676483154,-1.2139676809310913,-5.430665969848633,-4.259908199310303,4.364484786987305
37,2.2159130573272705,-5.854441165924072,-5.609816551208496,-2.2698960304260254,-2.6516966819763184,-3.491696834564209,-2.4137346744537354,-4.887884616851807,-5.792842388153076,-2.496879816055298,-1.7309205532073975,4.190089702606201,-5.573067665100098,-5.428824424743652,-0.47367551922798157,-2.9528963565826416,3.393324613571167,2.6175291538238525,6.412683010101318,6.0271430015563965,1.266730785369873,3.041682481765747,5.355191707611084,3.2722060680389404,-3.2767298221588135,1.6149381399154663,-4.97202730178833,-2.8862369060516357,-1.4149158000946045,-5.959865093231201,-4.856232643127441,-2.6053318977355957,-4.354613780975342,-2.6338918209075928,-4.474727153778076,-0.7333298921585083,2.1157279014587402,-5.166582107543945,-5.319512367248535,-4.184904098510742,-1.4114196300506592,-0.10870730876922607,-2.268610954284668,-1.7095977067947388,-2.2739357948303223,3.8933863639831543,0.4904966354370117,0.2133554369211197,2.7602181434631348,4.876527309417725,4.265988349914551,0.13397739827632904,2.252049684524536,0.2142307609319687,0.939415693283081,6.221181869506836,6.134241104125977,0.18126115202903748,1.0673840045928955,3.040160894393921,2.100947856903076,3.805811882019043,1.1705517768859863,2.2219765186309814,4.334362506866455,0.8873051404953003,-0.6969469785690308,-4.118381023406982,-2.2054989337921143,4.3968281745910645,-1.0429707765579224,-3.7220540046691895,-2.2318994998931885,-3.1543192863464355,-0.462518572807312,-6.391976356506348,-6.279454231262207,0.016505613923072815,-0.21725721657276154,-2.1539316177368164,4.804027557373047,-0.15740592777729034,-4.290376663208008,-4.867386341094971,-3.1178784370422363,-0.7327395081520081,-4.158405780792236,2.2565760612487793,0.2921358644962311,4.875899791717529,5.569554805755615,5.048264980316162,1.58682382106781,2.512118101119995,5.904867649078369,4.9057512283325195,3.338059663772583,3.35965633392334,2.661235809326172,2.4615440368652344,5.61521577835083,5.862689018249512,0.9039793014526367,4.2684550285339355,5.398360252380371,1.0935930013656616,5.413712501525879,0.7081791162490845,-0.7109084129333496,-5.307446479797363,-1.2002638578414917,-5.430416107177734,-4.324013710021973,4.376850605010986
38,2.1921157836914062,-5.885481357574463,-5.593031406402588,-2.311399459838867,-2.6202688217163086,-3.463914632797241,-2.4442553520202637,-4.875815391540527,-5.73939847946167,-2.528374671936035,-1.7079850435256958,4.179322719573975,-5.598278999328613,-5.412492275238037,-0.46531617641448975,-2.913527250289917,3.386183738708496,2.617586851119995,6.4157819747924805,6.056996822357178,1.2726434469223022,3.0376973152160645,5.41041898727417,3.294801712036133,-3.254134178161621,1.6349693536758423,-4.916800022125244,-2.8902220726013184,-1.4299105405807495,-5.949888706207275,-4.847158908843994,-2.606395959854126,-4.361754417419434,-2.6446588039398193,-4.48420524597168,-0.7565280795097351,2.115689516067505,-5.1551833152771,-5.266369819641113,-4.217435359954834,-1.3901537656784058,-0.13163608312606812,-2.2495124340057373,-1.7342946529388428,-2.232191562652588,3.9351305961608887,0.4657997190952301,0.19192661345005035,2.7793166637420654,4.853598594665527,4.287254333496094,0.10144621878862381,2.305191993713379,0.22562941908836365,0.9100023508071899,6.24078893661499,6.182580947875977,0.1276939958333969,1.0656027793884277,3.0480079650878906,2.0745902061462402,3.8323469161987305,1.1398444175720215,2.2112314701080322,4.285082817077637,0.908210039138794,-0.6760420799255371,-4.167660713195801,-2.2162439823150635,4.365231513977051,-1.0553711652755737,-3.69706392288208,-2.27858829498291,-3.1181962490081787,-0.516085684299469,-6.343636512756348,-6.259847164154053,-0.012907756492495537,-0.2055547684431076,-2.1004586219787598,4.797126770019531,-0.18870478868484497,-4.269839763641357,-4.892462730407715,-3.1008963584899902,-0.7449755668640137,-4.1173858642578125,2.297595977783203,0.2798997759819031,4.892881870269775,5.544478416442871,5.059229373931885,1.6073607206344604,2.4808192253112793,5.958340644836426,4.917453289031982,3.3075389862060547,3.3874385356903076,2.6926636695861816,2.4200406074523926,5.632478713989258,5.868399143218994,0.8807811141014099,4.332939624786377,5.413799285888672,1.082368016242981,5.36764669418335,0.7365960478782654,-0.6824914813041687,-5.353512287139893,-1.2114888429641724,-5.436336994171143,-4.2521867752075195,4.367372512817383
39,2.203291177749634,-5.88598108291626,-5.614749908447266,-2.275954484939575,-2.647066831588745,-3.4870097637176514,-2.417187213897705,-4.886662483215332,-5.799495220184326,-2.4961955547332764,-1.7310655117034912,4.189157009124756,-5.5760908126831055,-5.428561687469482,-0.4888906180858612,-2.962711811065674,3.3859329223632812,2.619981527328491,6.418803691864014,6.038246154785156,1.267237663269043,3.038989543914795,5.344523906707764,3.2749595642089844,-3.2739763259887695,1.6208069324493408,-4.98269510269165,-2.888929843902588,-1.4359819889068604,-5.966026782989502,-4.860217094421387,-2.606947183609009,-4.362005710601807,-2.634824514389038,-4.478515625,-0.7443789839744568,2.0962917804718018,-5.16575288772583,-5.327940464019775,-4.184278964996338,-1.4080634117126465,-0.1038210317492485,-2.2603375911712646,-1.7165532112121582,-2.2834866046905518,3.883835554122925,0.4835411608219147,0.21561665832996368,2.768491506576538,4.881413459777832,4.269344806671143,0.13460229337215424,2.243621587753296,0.21506008505821228,0.9487488269805908,6.221053600311279,6.128653049468994,0.18253768980503082,1.0603744983673096,3.051957607269287,2.1036927700042725,3.808156728744507,1.173158884048462,2.221229314804077,4.3450822830200195,0.8976805806159973,-0.6865715384483337,-4.107661247253418,-2.2062461376190186,4.39937686920166,-1.0327439308166504,-3.722715377807617,-2.2393105030059814,-3.1551873683929443,-0.4612419903278351,-6.39756441116333,-6.279582500457764,0.02583872526884079,-0.2164490520954132,-2.16102933883667,4.784407138824463,-0.15575610101222992,-4.292387962341309,-4.869152545928955,-3.1165950298309326,-0.7415054440498352,-4.175302982330322,2.2396788597106934,0.28336989879608154,4.877183437347412,5.567788600921631,5.048550605773926,1.5848127603530884,2.513767957687378,5.897769927978516,4.906558990478516,3.3346071243286133,3.3643434047698975,2.665865659713745,2.4554855823516846,5.6192474365234375,5.86571741104126,0.8929302096366882,4.268204212188721,5.402642250061035,1.0954391956329346,5.420681953430176,0.707794725894928,-0.7112928032875061,-5.300477027893066,-1.1984176635742188,-5.4568376541137695,-4.32375431060791,4.3730621337890625
40,2.181596517562866,-5.894530773162842,-5.597890853881836,-2.3079495429992676,-2.6271584033966064,-3.470477342605591,-2.4423844814300537,-4.87615442276001,-5.735715866088867,-2.5286874771118164,-1.7087618112564087,4.179893970489502,-5.6022772789001465,-5.420070171356201,-0.48299872875213623,-2.9035704135894775,3.374814510345459,2.621061086654663,6.420260906219482,6.074625492095947,1.2840745449066162,3.0406553745269775,5.409663200378418,3.2979021072387695,-3.2510337829589844,1.6538225412368774,-4.917555809020996,-2.8872640132904053,-1.4371329545974731,-5.946310043334961,-4.850415229797363,-2.606707811355591,-4.373124122619629,-2.644087314605713,-4.477421760559082,-0.7654815316200256,2.0970845222473145,-5.156051158905029,-5.264769077301025,-4.217179298400879,-1.3876060247421265,-0.12668755650520325,-2.248810291290283,-1.7358288764953613,-2.2190756797790527,3.948246479034424,0.46426549553871155,0.19242244958877563,2.7800188064575195,4.858547210693359,4.289802074432373,0.1017020121216774,2.306792736053467,0.2247616946697235,0.9254904985427856,6.238073348999023,6.183717727661133,0.12549348175525665,1.057408332824707,3.054330348968506,2.0883235931396484,3.840646982192993,1.1357630491256714,2.212430953979492,4.284668922424316,0.9128879308700562,-0.6713641881942749,-4.168074607849121,-2.2150444984436035,4.367207050323486,-1.0450618267059326,-3.6919474601745605,-2.281585693359375,-3.1214826107025146,-0.5182861685752869,-6.342499732971191,-6.2625627517700195,0.0025803979951888323,-0.20646549761295319,-2.097273111343384,4.779762268066406,-0.18782564997673035,-4.27242374420166,-4.895096302032471,-3.1072018146514893,-0.7508824467658997,-4.112945079803467,2.3020362854003906,0.2739928662776947,4.8865766525268555,5.541844844818115,5.057929515838623,1.6047768592834473,2.4816982746124268,5.961525917053223,4.9165425300598145,3.3094098567962646,3.380875825881958,2.685774087905884,2.423490524291992,5.636923313140869,5.902960300445557,0.8718276619911194,4.330441951751709,5.446179389953613,1.085175633430481,5.366920471191406,0.7380164861679077,-0.6810710430145264,-5.354238510131836,-1.2086812257766724,-5.442302703857422,-4.255144119262695,4.3741559982299805
41,2.188535451889038,-5.937378406524658,-5.619001865386963,-2.2845804691314697,-2.640552043914795,-3.47918963432312,-2.423736572265625,-4.884616374969482,-5.7933526039123535,-2.4976003170013428,-1.7300728559494019,4.187216758728027,-5.58077335357666,-5.427921295166016,-0.5045301914215088,-2.9630117416381836,3.371610641479492,2.6221914291381836,6.423534870147705,6.041327476501465,1.2682548761367798,3.037184476852417,5.347915172576904,3.2780942916870117,-3.270841598510742,1.6250945329666138,-4.97930383682251,-2.890734910964966,-1.4560997486114502,-5.979548931121826,-4.863707542419434,-2.6085927486419678,-4.376327991485596,-2.6367647647857666,-4.482328414916992,-0.7568889260292053,2.0806567668914795,-5.164309024810791,-5.3232831954956055,-4.1853508949279785,-1.4044995307922363,-0.09973294287919998,-2.2510464191436768,-1.7235541343688965,-2.283855676651001,3.8834664821624756,0.4765402376651764,0.216664656996727,2.777782678604126,4.885501861572266,4.272908687591553,0.13353009521961212,2.2482786178588867,0.21650409698486328,0.9555099010467529,6.22223424911499,6.125912666320801,0.1810268759727478,1.0551480054855347,3.0652403831481934,2.1085987091064453,3.8142881393432617,1.1717184782028198,2.2204465866088867,4.342085361480713,0.907887876033783,-0.6763642430305481,-4.110658168792725,-2.207028865814209,4.399910926818848,-1.0180234909057617,-3.7211713790893555,-2.2523274421691895,-3.152150869369507,-0.4627527892589569,-6.400304794311523,-6.278401851654053,0.032599788159132004,-0.21512733399868011,-2.154949903488159,4.769906997680664,-0.15596270561218262,-4.293226718902588,-4.8726911544799805,-3.114805221557617,-0.7512345910072327,-4.1810173988342285,2.233963966369629,0.2736407220363617,4.878973007202148,5.5642499923706055,5.049410820007324,1.583974003791809,2.513561248779297,5.903849124908447,4.907880783081055,3.3280577659606934,3.3721635341644287,2.6723804473876953,2.44685959815979,5.624540328979492,5.872989654541016,0.8804202675819397,4.273937225341797,5.410738945007324,1.096663475036621,5.417120456695557,0.709793210029602,-0.709294319152832,-5.3040385246276855,-1.1971933841705322,-5.4886555671691895,-4.317782878875732,4.36924934387207
42,2.169428586959839,-5.887060642242432,-5.60492467880249,-2.3057174682617188,-2.634521722793579,-3.474569320678711,-2.441688299179077,-4.875945091247559,-5.7425713539123535,-2.528451681137085,-1.7095415592193604,4.1812872886657715,-5.605924606323242,-5.427765846252441,-0.5024182200431824,-2.9036107063293457,3.3564038276672363,2.6234130859375,6.42471170425415,6.0802106857299805,1.2961760759353638,3.0447068214416504,5.398791790008545,3.2984278202056885,-3.2505080699920654,1.6586931943893433,-4.928427219390869,-2.8832125663757324,-1.4400315284729004,-5.953827381134033,-4.855355262756348,-2.607836961746216,-4.391534805297852,-2.6426939964294434,-4.473731517791748,-0.775428295135498,2.0827152729034424,-5.1564226150512695,-5.273452281951904,-4.2164306640625,-1.3853055238723755,-0.12065865099430084,-2.2470767498016357,-1.7374857664108276,-2.2206296920776367,3.94669246673584,0.4626086354255676,0.19329096376895905,2.781752347946167,4.8645758628845215,4.292102813720703,0.10245053470134735,2.298110008239746,0.22439056634902954,0.9401674270629883,6.235089302062988,6.181827068328857,0.12586979568004608,1.051193356513977,3.060992479324341,2.1001768112182617,3.846303701400757,1.135543942451477,2.213785409927368,4.293999671936035,0.9191898107528687,-0.6650623083114624,-4.158743858337402,-2.2136900424957275,4.36926794052124,-1.0329039096832275,-3.69148588180542,-2.2835028171539307,-3.123444080352783,-0.5179098844528198,-6.344390392303467,-6.265546798706055,0.017257338389754295,-0.20695184171199799,-2.104208469390869,4.766497611999512,-0.18650709092617035,-4.274430274963379,-4.8976569175720215,-3.1135451793670654,-0.7581824064254761,-4.119650363922119,2.2953310012817383,0.2666929364204407,4.880232810974121,5.5392842292785645,5.057073593139648,1.602770209312439,2.4830167293548584,5.954590320587158,4.9160566329956055,3.310106039047241,3.376783847808838,2.678410768508911,2.425722599029541,5.639449596405029,5.941808700561523,0.861880898475647,4.320734024047852,5.474206447601318,1.087843656539917,5.374303340911865,0.7383909225463867,-0.6806966066360474,-5.346855640411377,-1.2060132026672363,-5.447874546051025,-4.266721248626709,4.3778462409973145
43,2.1728293895721436,-5.9768757820129395,-5.623933792114258,-2.2920784950256348,-2.636840581893921,-3.4704339504241943,-2.426734685897827,-4.882357597351074,-5.783831596374512,-2.4984195232391357,-1.7304127216339111,4.185354709625244,-5.585244655609131,-5.431119441986084,-0.5225574970245361,-2.953554391860962,3.3525943756103516,2.623131275177002,6.426385879516602,6.039694786071777,1.2719707489013672,3.0371553897857666,5.355130195617676,3.278488874435425,-3.270447015762329,1.6223117113113403,-4.972088813781738,-2.890763998031616,-1.4729180335998535,-5.99556827545166,-4.864986419677734,-2.611074924468994,-4.395344257354736,-2.6386265754699707,-4.48598575592041,-0.7700636386871338,2.069864273071289,-5.162659168243408,-5.314916610717773,-4.186145305633545,-1.402100920677185,-0.09467212110757828,-2.2442333698272705,-1.7288624048233032,-2.2754812240600586,3.891840934753418,0.47123202681541443,0.21724167466163635,2.7845957279205322,4.890562534332275,4.275307655334473,0.13273614645004272,2.256646156311035,0.21815384924411774,0.9656684398651123,6.223384857177734,6.122353553771973,0.17963004112243652,1.0509275197982788,3.078134536743164,2.114999532699585,3.82254695892334,1.1665643453598022,2.2200777530670166,4.3340582847595215,0.9171144962310791,-0.667137622833252,-4.118685245513916,-2.207397699356079,4.400238513946533,-1.0075408220291138,-3.7195308208465576,-2.2613706588745117,-3.148240804672241,-0.4641496241092682,-6.403863906860352,-6.277251243591309,0.042758338153362274,-0.21367181837558746,-2.144930839538574,4.762235164642334,-0.15596675872802734,-4.294493675231934,-4.8763041496276855,-3.116536855697632,-0.7609342336654663,-4.176554203033447,2.238426923751831,0.2639411389827728,4.877241134643555,5.5606369972229,5.050473690032959,1.5827066898345947,2.513557195663452,5.913867950439453,4.909336566925049,3.325059652328491,3.3809192180633545,2.6760919094085693,2.439361572265625,5.628881931304932,5.8758955001831055,0.8672455549240112,4.282011985778809,5.423121929168701,1.0978318452835083,5.410086631774902,0.7115874290466309,-0.7075001001358032,-5.31107234954834,-1.196025013923645,-5.509384632110596,-4.310031414031982,4.365592002868652
44,2.1549742221832275,-5.890296459197998,-5.613254070281982,-2.306098461151123,-2.642324209213257,-3.4761316776275635,-2.4438416957855225,-4.874959945678711,-5.749274253845215,-2.5288801193237305,-1.7093092203140259,4.183518886566162,-5.6104817390441895,-5.43357515335083,-0.5225005745887756,-2.906757116317749,3.331855058670044,2.6245529651641846,6.428232669830322,6.082876205444336,1.3076680898666382,3.0488851070404053,5.388964653015137,3.297419548034668,-3.251516342163086,1.6526691913604736,-4.938254356384277,-2.8790342807769775,-1.4432921409606934,-5.96297550201416,-4.858517646789551,-2.6101250648498535,-4.416083335876465,-2.6404621601104736,-4.475090026855469,-0.7874194383621216,2.0735349655151367,-5.156030178070068,-5.281496524810791,-4.216891765594482,-1.3820781707763672,-0.11490413546562195,-2.2421774864196777,-1.7419281005859375,-2.228109836578369,3.9392123222351074,0.4581664204597473,0.19334028661251068,2.786651611328125,4.870330333709717,4.29533052444458,0.1019894927740097,2.2900664806365967,0.2247827649116516,0.9518513083457947,6.232279300689697,6.17850923538208,0.1260683536529541,1.0464677810668945,3.067056179046631,2.1070351600646973,3.8494086265563965,1.136786937713623,2.21482253074646,4.302029609680176,0.9280338883399963,-0.6562182307243347,-4.150713920593262,-2.2126529216766357,4.369675159454346,-1.0225410461425781,-3.6961145401000977,-2.284895181655884,-3.1231489181518555,-0.517711341381073,-6.347708225250244,-6.268356800079346,0.02894122526049614,-0.20663924515247345,-2.1103529930114746,4.759110450744629,-0.18631897866725922,-4.274511814117432,-4.90139627456665,-3.1179873943328857,-0.7684444785118103,-4.129688739776611,2.285292625427246,0.2564309239387512,4.875790119171143,5.5355448722839355,5.056713581085205,1.6026886701583862,2.4832050800323486,5.948446273803711,4.9163689613342285,3.307952642440796,3.3752214908599854,2.6706082820892334,2.4253416061401367,5.640426158905029,5.958961486816406,0.8498897552490234,4.31270170211792,5.487705230712891,1.0901875495910645,5.37935733795166,0.7394826412200928,-0.6796048879623413,-5.341801643371582,-1.2036693096160889,-5.459492206573486,-4.276871204376221,4.376487731933594
45,2.1562931537628174,-5.9748077392578125,-5.626959323883057,-2.3003063201904297,-2.63503360748291,-3.461613416671753,-2.425541400909424,-4.880404472351074,-5.777074813842773,-2.498116970062256,-1.73216712474823,4.18233060836792,-5.589223861694336,-5.437507629394531,-0.5428111553192139,-2.9424545764923096,3.330958604812622,2.62473201751709,6.428552150726318,6.041024684906006,1.2765328884124756,3.0376479625701904,5.359507083892822,3.277780771255493,-3.2711551189422607,1.619667887687683,-4.967711925506592,-2.8902714252471924,-1.4866303205490112,-6.005924224853516,-4.865036487579346,-2.6130728721618652,-4.416979789733887,-2.641650915145874,-4.4876275062561035,-0.7842799425125122,2.0621891021728516,-5.161383152008057,-5.309442043304443,-4.186126232147217,-1.4010974168777466,-0.08816416561603546,-2.239060163497925,-1.7328346967697144,-2.2673349380493164,3.89998722076416,0.46725982427597046,0.2178943008184433,2.789768934249878,4.897070407867432,4.27631139755249,0.13275490701198578,2.2621207237243652,0.2194298803806305,0.9799731969833374,6.2235798835754395,6.118790149688721,0.17722336947917938,1.0467000007629395,3.0885462760925293,2.12280011177063,3.8309197425842285,1.160504698753357,2.220329761505127,4.32805061340332,0.9270401000976562,-0.6572120189666748,-4.124692916870117,-2.2071456909179688,4.400908470153809,-1.0014976263046265,-3.7201638221740723,-2.2637927532196045,-3.147240400314331,-0.4665563106536865,-6.4074273109436035,-6.2770562171936035,0.05706307664513588,-0.21242709457874298,-2.1374564170837402,4.758687973022461,-0.15522333979606628,-4.296563625335693,-4.879598140716553,-3.1214206218719482,-0.7705920934677124,-4.170712471008301,2.2442684173583984,0.2542833387851715,4.87235689163208,5.557343006134033,5.050837516784668,1.580636739730835,2.514300584793091,5.921342849731445,4.910581111907959,3.3262529373168945,3.389739751815796,2.67789888381958,2.43113374710083,5.635171890258789,5.893310546875,0.8530292510986328,4.288029193878174,5.440485000610352,1.0992213487625122,5.403270721435547,0.7122326493263245,-0.7068548798561096,-5.317888259887695,-1.1946355104446411,-5.51731014251709,-4.304620742797852,4.363950252532959
