,0,1,2,3,4,5,6,7,8,9,10,11,12,13,14,15,16,17,18,19,20,21,22,23,24,25,26,27,28,29,30,31,32,33,34,35,36,37,38,39,40,41,42,43,44,45,46,47,48,49,50,51,52,53,54,55,56,57,58,59,60,61,62,63,64,65,66,67,68,69,70,71,72,73,74,75,76,77,78,79,80,81,82,83,84,85,86,87,88,89,90,91,92,93,94,95,96,97,98,99,100,101,102,103,104,105,106,107,108,109,110,111,112,113
0,2.8384673595428467,-1.2538074254989624,-1.0889486074447632,-2.305551767349243,-3.7510910034179688,-3.2445387840270996,-1.331434726715088,-2.9408202171325684,-2.6065917015075684,-1.8622868061065674,-4.842300891876221,6.265260219573975,-0.14159759879112244,-4.987739562988281,-0.9340190887451172,-5.4184722900390625,1.063130497932434,3.9852006435394287,0.23571795225143433,6.185556411743164,3.5770699977874756,3.6778674125671387,6.282725811004639,4.1434736251831055,-4.1434736251831055,6.076383113861084,-6.282725811004639,-3.6778674125671387,-3.5770699977874756,-6.185556411743164,-0.23571795225143433,-3.9852006435394287,-1.063130497932434,-6.265260219573975,-1.1293002367019653,-5.118009567260742,5.7639689445495605,-0.8554708361625671,-0.4318932294845581,-2.8677713871002197,-2.9533843994140625,-2.494957685470581,-5.7639689445495605,-6.076383113861084,-2.8384673595428467,5.373842716217041,3.9042840003967285,2.494957685470581,4.955549716949463,0.5262845158576965,2.3066768646240234,1.4852166175842285,1.822518229484558,2.3532257080078125,1.3591831922531128,2.0249617099761963,5.543778896331787,5.4308905601501465,2.9533843994140625,2.950615644454956,2.7020039558410645,5.816633224487305,2.2013537883758545,4.232807636260986,0.35395824909210205,0.3042207658290863,-0.3042207658290863,-0.35395824909210205,-4.232807636260986,2.8677713871002197,-2.2013537883758545,-5.816633224487305,-2.7020039558410645,-2.950615644454956,-5.4308905601501465,-5.543778896331787,-2.0249617099761963,-1.3591831922531128,-2.3532257080078125,-1.822518229484558,0.4318932294845581,-1.4852166175842285,-2.3066768646240234,-0.5262845158576965,-4.955549716949463,-3.9042840003967285,-5.373842716217041,5.4184722900390625,0.9340190887451172,4.987739562988281,0.14159759879112244,0.8554708361625671,4.842300891876221,1.8622868061065674,2.6065917015075684,2.9408202171325684,1.331434726715088,3.2445387840270996,3.7510910034179688,2.305551767349243,1.0889486074447632,1.2538074254989624,5.118009567260742,2.5615837574005127,2.431040048599243,5.039088726043701,1.042905330657959,1.8999332189559937,-1.8999332189559937,-1.042905330657959,-5.039088726043701,-2.431040048599243,-2.5615837574005127,1.1293002367019653
1,2.8384673595428467,-1.2009848356246948,-1.1417711973190308,-2.2527291774749756,-3.8037846088409424,-3.2445387840270996,-1.331434726715088,-2.9408202171325684,-2.6065917015075684,-1.8094645738601685,-4.895123481750488,6.318070411682129,-0.19442012906074524,-5.040562152862549,-0.9340190887451172,-5.4184722900390625,1.1159530878067017,3.932378053665161,0.18289555609226227,6.185556411743164,3.5770699977874756,3.6778674125671387,6.229903697967529,4.090651512145996,-4.196295738220215,6.076383113861084,-6.335547924041748,-3.6778674125671387,-3.5770699977874756,-6.185556411743164,-0.2885403633117676,-4.038022994995117,-1.0103079080581665,-6.21245002746582,-1.1293002367019653,-5.118009567260742,5.711146354675293,-0.8554708361625671,-0.4318932294845581,-2.8149490356445312,-3.00620698928833,-2.5477802753448486,-5.816791534423828,-6.076383113861084,-2.8384673595428467,5.373842716217041,3.9042840003967285,2.4421350955963135,4.902727127075195,0.47346198558807373,2.253854274749756,1.5380388498306274,1.822518229484558,2.3532257080078125,1.3591831922531128,2.0249617099761963,5.596570014953613,5.483713150024414,2.900561809539795,3.0034382343292236,2.754826545715332,5.816633224487305,2.2013537883758545,4.232807636260986,0.3011358380317688,0.35704079270362854,-0.25140073895454407,-0.4067806601524353,-4.232807636260986,2.920593738555908,-2.2013537883758545,-5.816633224487305,-2.649181365966797,-2.8977930545806885,-5.378067970275879,-5.490987777709961,-2.0249617099761963,-1.3591831922531128,-2.3532257080078125,-1.822518229484558,0.4318932294845581,-1.4323943853378296,-2.359499454498291,-0.5791070461273193,-5.0083723068237305,-3.9042840003967285,-5.373842716217041,5.4184722900390625,0.9340190887451172,4.934916973114014,0.08877507597208023,0.8554708361625671,4.789478302001953,1.9151090383529663,2.6065917015075684,2.9408202171325684,1.331434726715088,3.2445387840270996,3.698397397994995,2.3583743572235107,1.0361260175704956,1.30663001537323,5.118009567260742,2.5615837574005127,2.431040048599243,5.039088726043701,1.0957279205322266,1.8471113443374634,-1.952755093574524,-0.990082859992981,-5.039088726043701,-2.431040048599243,-2.5615837574005127,1.1293002367019653
2,2.8907158374786377,-1.1584335565567017,-1.177562952041626,-2.232658624649048,-3.8560383319854736,-3.2967875003814697,-1.3836829662322998,-2.8885715007781982,-2.5543429851531982,-1.8612685203552246,-4.924629211425781,6.265835762023926,-0.24660232663154602,-5.040212154388428,-0.8817701935768127,-5.470721244812012,1.0877782106399536,3.9370322227478027,0.2293827086687088,6.133307933807373,3.6293187141418457,3.730116367340088,6.278103351593018,4.078752517700195,-4.208194732666016,6.024134635925293,-6.28734827041626,-3.6256184577941895,-3.5248210430145264,-6.237805366516113,-0.24094326794147491,-4.031382083892822,-1.0384827852249146,-6.264684677124023,-1.1815489530563354,-5.170258522033691,5.712927341461182,-0.9077191948890686,-0.37964436411857605,-2.8664846420288086,-3.0373167991638184,-2.5999317169189453,-5.8145856857299805,-6.024138927459717,-2.7862188816070557,5.42609167098999,3.9565279483795166,2.390101909637451,4.904932975769043,0.4213106632232666,2.2227444648742676,1.486503005027771,1.8747670650482178,2.3009772300720215,1.4114315509796143,1.9727129936218262,5.544327735900879,5.444887161254883,2.8696725368499756,3.03985333442688,2.803678512573242,5.7643842697143555,2.1491048336029053,4.180558681488037,0.2560051381587982,0.305067241191864,-0.3033742904663086,-0.4519113600254059,-4.2850565910339355,2.8692266941070557,-2.2536022663116455,-5.868880748748779,-2.6003124713897705,-2.861149787902832,-5.41689395904541,-5.543230056762695,-2.0772104263305664,-1.3069348335266113,-2.3009777069091797,-1.7702696323394775,0.48414212465286255,-1.4841270446777344,-2.3896491527557373,-0.631283164024353,-5.007457733154297,-3.8520352840423584,-5.42609167098999,5.366223335266113,0.9862678647041321,4.935831546783447,0.036598946899175644,0.8032221794128418,4.759328365325928,1.8633763790130615,2.6588404178619385,2.993068218231201,1.279186487197876,3.1922900676727295,3.646143674850464,2.3784449100494385,1.0002167224884033,1.3467942476272583,5.065760612487793,2.613832712173462,2.378805637359619,5.091337203979492,1.0974031686782837,1.8892987966537476,-1.9105676412582397,-0.988407552242279,-4.98684024810791,-2.378791332244873,-2.5093348026275635,1.0770515203475952
3,2.9471049308776855,-1.120593547821045,-1.2213826179504395,-2.180327892303467,-3.9081621170043945,-3.2441952228546143,-1.4073095321655273,-2.944700002670288,-2.6075668334960938,-1.808162808418274,-4.9425129890441895,6.303885459899902,-0.2329612374305725,-5.037161350250244,-0.917045533657074,-5.516688346862793,1.0919532775878906,3.93991756439209,0.2597357928752899,6.076779365539551,3.5758583545684814,3.6767115592956543,6.233550071716309,4.125362873077393,-4.161584377288818,5.967604160308838,-6.331901550292969,-3.679023265838623,-3.57681941986084,-6.29434061050415,-0.21320730447769165,-4.027888298034668,-1.0343077182769775,-6.226634979248047,-1.218828558921814,-5.226203441619873,5.7058234214782715,-0.9642429947853088,-0.4334690272808075,-2.8118181228637695,-3.0564796924591064,-2.5833261013031006,-5.8111395835876465,-6.080539703369141,-2.7305901050567627,5.481720447540283,3.900127410888672,2.409712314605713,4.908379077911377,0.4379163384437561,2.2035815715789795,1.54116952419281,1.8209424018859863,2.2444534301757812,1.4639191627502441,2.0254247188568115,5.55821418762207,5.495451927185059,2.8501532077789307,3.088045597076416,2.8265349864959717,5.818012237548828,2.1775805950164795,4.235107898712158,0.30223411321640015,0.35872191190719604,-0.24971961975097656,-0.40568238496780396,-4.2305073738098145,2.924168586730957,-2.2052040100097656,-5.812709331512451,-2.5803630352020264,-2.813030242919922,-5.366329193115234,-5.529343605041504,-2.024498701095581,-1.2544472217559814,-2.357314109802246,-1.8260440826416016,0.4300738573074341,-1.4303089380264282,-2.4060614109039307,-0.6144924163818359,-5.004688262939453,-3.906609296798706,-5.458580017089844,5.33373498916626,0.9316937327384949,4.938601016998291,0.05338968709111214,0.7466787695884705,4.742915630340576,1.9171944856643677,2.6030657291412354,2.9367318153381348,1.2555599212646484,3.244882345199585,3.594019889831543,2.4307756423950195,0.9563656449317932,1.3839224576950073,5.009815692901611,2.6149253845214844,2.322333812713623,5.035128116607666,1.1531591415405273,1.8345786333084106,-1.9652878046035767,-0.9326515793800354,-5.043049335479736,-2.413672924041748,-2.5334832668304443,1.0397719144821167
4,3.0018086433410645,-1.0791895389556885,-1.2265905141830444,-2.1715474128723145,-3.86145281791687,-3.3015191555023193,-1.3518916368484497,-2.9005463123321533,-2.548240900039673,-1.8017816543579102,-4.95556116104126,6.3088579177856445,-0.2737776041030884,-5.010653972625732,-0.8606513142585754,-5.491950511932373,1.0623646974563599,3.9702298641204834,0.21858534216880798,6.103601455688477,3.6318492889404297,3.6857922077178955,6.216108322143555,4.090367794036865,-4.196579456329346,5.964937686920166,-6.349343299865723,-3.669942617416382,-3.521188259124756,-6.2630109786987305,-0.2535373866558075,-3.997093439102173,-1.0638962984085083,-6.221662521362305,-1.1606000661849976,-5.267060279846191,5.733877658843994,-0.9197814464569092,-0.3782278597354889,-2.7999777793884277,-3.0773448944091797,-2.6195521354675293,-5.7851643562316895,-6.066926956176758,-2.6751036643981934,5.537206649780273,3.9137399196624756,2.373081922531128,4.934354305267334,0.40169039368629456,2.1827163696289062,1.5530098676681519,1.8761835098266602,2.288914918899536,1.4372613430023193,1.9678802490234375,5.499679088592529,5.46405553817749,2.8296661376953125,3.1099720001220703,2.87394642829895,5.794910907745361,2.159524440765381,4.18623685836792,0.24789190292358398,0.3201974034309387,-0.2882441282272339,-0.4600245952606201,-4.279378414154053,2.934450149536133,-2.1662135124206543,-5.836349964141846,-2.5317471027374268,-2.791109085083008,-5.397725582122803,-5.587878704071045,-2.082043170928955,-1.2811050415039062,-2.3130414485931396,-1.7714941501617432,0.48227229714393616,-1.4230090379714966,-2.4232735633850098,-0.6558449268341064,-4.9761762619018555,-3.864203929901123,-5.402229309082031,5.390085697174072,0.9740989804267883,4.967113018035889,0.012037133798003197,0.796556293964386,4.725703239440918,1.9244943857192993,2.6576156616210938,2.981004476547241,1.310977816581726,3.18755841255188,3.6407291889190674,2.439556121826172,0.9498929381370544,1.4163825511932373,4.968958854675293,2.665361166000366,2.374882698059082,5.076502323150635,1.1045130491256714,1.8842626810073853,-1.915603756904602,-0.9812976121902466,-5.001675128936768,-2.3706979751586914,-2.498690605163574,1.098000407218933
5,2.9468133449554443,-1.052183747291565,-1.261433482170105,-2.2197604179382324,-3.84165096282959,-3.3073627948760986,-1.419121265411377,-2.9247968196868896,-2.547849655151367,-1.7528901100158691,-4.969059944152832,6.35746955871582,-0.29482659697532654,-5.021044731140137,-0.901845395565033,-5.55875825881958,1.0324424505233765,3.9894094467163086,0.20520782470703125,6.072892665863037,3.622581958770752,3.6460516452789307,6.180758476257324,4.122835159301758,-4.164112091064453,5.924017429351807,-6.384693145751953,-3.7096831798553467,-3.532115936279297,-6.292614459991455,-0.2747544050216675,-3.978313684463501,-1.0938185453414917,-6.173050880432129,-1.1524827480316162,-5.298915863037109,5.728193759918213,-0.9434479475021362,-0.394497275352478,-2.7531378269195557,-3.0950145721435547,-2.6405162811279297,-5.794981002807617,-6.121684551239014,-2.7356009483337402,5.476709842681885,3.8589823246002197,2.353745460510254,4.924537658691406,0.3807260990142822,2.1650466918945312,1.599849820137024,1.8599140644073486,2.2652485370635986,1.5047268867492676,1.9621506929397583,5.458552837371826,5.44119930267334,2.8111355304718018,3.147240400314331,2.9159228801727295,5.81219482421875,2.1828322410583496,4.200405597686768,0.2521370053291321,0.33910730481147766,-0.26933422684669495,-0.455779492855072,-4.265209674835205,2.9825637340545654,-2.132542133331299,-5.824680328369141,-2.4922335147857666,-2.7538580894470215,-5.420581817626953,-5.629004955291748,-2.087772846221924,-1.213639497756958,-2.3367490768432617,-1.7918968200683594,0.4604319930076599,-1.3754369020462036,-2.438809633255005,-0.6781008243560791,-4.9843430519104,-3.9129302501678467,-5.46826171875,5.3240532875061035,0.9253726601600647,4.958946228027344,-0.010218764655292034,0.7802181243896484,4.710166931152344,1.9720665216445923,2.6372129917144775,2.957296848297119,1.2437481880187988,3.1817147731781006,3.6605310440063477,2.391343116760254,0.91485595703125,1.440851092338562,4.937103271484375,2.630352258682251,2.35029673576355,5.045170307159424,1.134526252746582,1.883680820465088,-1.9161856174468994,-0.9512843489646912,-5.0330071449279785,-2.4025113582611084,-2.5411875247955322,1.1061177253723145
6,2.998131036758423,-1.043662190437317,-1.2789627313613892,-2.2739148139953613,-3.8010365962982178,-3.3449857234954834,-1.410731554031372,-2.902944803237915,-2.517681360244751,-1.7053509950637817,-4.975869178771973,6.396467685699463,-0.33940842747688293,-5.03037691116333,-0.8488889336585999,-5.538488388061523,0.9935914278030396,3.998541831970215,0.16250507533550262,6.061450958251953,3.6342661380767822,3.629781484603882,6.163059234619141,4.137768745422363,-4.149178504943848,5.895832538604736,-6.402392387390137,-3.7259533405303955,-3.5232994556427,-6.299597263336182,-0.31406891345977783,-3.968597650527954,-1.1326695680618286,-6.134052753448486,-1.1058615446090698,-5.362020015716553,5.72545862197876,-0.9195599555969238,-0.3829990327358246,-2.7098963260650635,-3.105508327484131,-2.6848490238189697,-5.793803691864014,-6.136366367340088,-2.6882290840148926,5.524081707000732,3.8443007469177246,2.309729814529419,4.92571496963501,0.3363932967185974,2.154552936553955,1.6430912017822266,1.8714122772216797,2.2891364097595215,1.5010524988174438,1.923567295074463,5.427011489868164,5.389782428741455,2.7990520000457764,3.1733875274658203,2.967951774597168,5.7855682373046875,2.2033469676971436,4.173919200897217,0.20887033641338348,0.3118664622306824,-0.29657506942749023,-0.4990461766719818,-4.291696071624756,3.027949094772339,-2.082610845565796,-5.862165451049805,-2.440674304962158,-2.7275681495666504,-5.471998691558838,-5.66054630279541,-2.1263561248779297,-1.2173138856887817,-2.3137612342834473,-1.7801344394683838,0.46840423345565796,-1.3300505876541138,-2.4495551586151123,-0.7249580025672913,-4.980576038360596,-3.8690950870513916,-5.43817663192749,5.354138374328613,0.9692078828811646,4.962713241577148,-0.05707593262195587,0.8128629922866821,4.699421405792236,2.0174527168273926,2.648975372314453,2.9802846908569336,1.2521378993988037,3.144091844558716,3.7011454105377197,2.337188720703125,0.8970696330070496,1.4364310503005981,4.873999118804932,2.6576881408691406,2.395925521850586,5.050556659698486,1.1222889423370361,1.9278641939163208,-1.8720022439956665,-0.9635215997695923,-5.027620792388916,-2.3540420532226562,-2.5302066802978516,1.1527389287948608
7,2.9875056743621826,-1.0599794387817383,-1.3013386726379395,-2.301764965057373,-3.81821346282959,-3.291293144226074,-1.4349346160888672,-2.9163646697998047,-2.5498127937316895,-1.6602489948272705,-4.982384204864502,6.406404495239258,-0.36307841539382935,-5.057438850402832,-0.8898757100105286,-5.5780816078186035,0.961252748966217,3.99245023727417,0.19416727125644684,6.059234142303467,3.608217477798462,3.6013364791870117,6.111606121063232,4.142691135406494,-4.144256114959717,5.838146686553955,-6.453845500946045,-3.7543983459472656,-3.5570008754730225,-6.302331447601318,-0.30506229400634766,-3.9747045040130615,-1.1650081872940063,-6.124115943908691,-1.133184552192688,-5.392294406890869,5.7013468742370605,-0.9334084391593933,-0.4235853850841522,-2.669811725616455,-3.1078407764434814,-2.71240234375,-5.81082820892334,-6.199538707733154,-2.7097361087799072,5.502574443817139,3.7811286449432373,2.2790443897247314,4.908690452575684,0.3088398575782776,2.1522204875946045,1.683175802230835,1.830825924873352,2.2752878665924072,1.5248197317123413,1.9758888483047485,5.441651344299316,5.357854843139648,2.7960424423217773,3.1887710094451904,3.0207788944244385,5.746835708618164,2.2218871116638184,4.187134265899658,0.22102436423301697,0.33817043900489807,-0.27027109265327454,-0.4868921637535095,-4.2784810066223145,3.071561574935913,-2.086857318878174,-5.911828994750977,-2.391810417175293,-2.712212562561035,-5.5039262771606445,-5.645906448364258,-2.0740346908569336,-1.1935466527938843,-2.3259122371673584,-1.8260456323623657,0.4309069812297821,-1.2860983610153198,-2.457118034362793,-0.7566511034965515,-4.990979194641113,-3.9151482582092285,-5.478562355041504,5.3137526512146,0.9231548309326172,4.952310085296631,-0.08876903355121613,0.805508017539978,4.691858291625977,2.0614049434661865,2.6030642986297607,2.9681336879730225,1.2279348373413086,3.197784423828125,3.6839685440063477,2.3093385696411133,0.8746758103370667,1.4098055362701416,4.843724727630615,2.5983338356018066,2.3413422107696533,5.013237476348877,1.1710219383239746,1.9157532453536987,-1.8841131925582886,-0.9147886633872986,-5.064939975738525,-2.3911521434783936,-2.578862190246582,1.1254159212112427
8,3.039212465286255,-1.0827100276947021,-1.3057969808578491,-2.3034868240356445,-3.7961323261260986,-3.325770139694214,-1.4653477668762207,-2.8800110816955566,-2.5053632259368896,-1.6271690130233765,-4.9897332191467285,6.404250621795654,-0.3820742964744568,-5.05298376083374,-0.8257458209991455,-5.537451267242432,0.9410240054130554,3.952470302581787,0.12530356645584106,6.073037147521973,3.607222318649292,3.6253957748413086,6.16167688369751,4.163206100463867,-4.123741149902344,5.866007328033447,-6.403774738311768,-3.7303390502929688,-3.5719661712646484,-6.278676509857178,-0.36373838782310486,-4.014227390289307,-1.185236930847168,-6.126269817352295,-1.0777320861816406,-5.455175876617432,5.704721927642822,-0.8996648788452148,-0.3958413898944855,-2.6421737670898438,-3.106302261352539,-2.7292182445526123,-5.801514148712158,-6.180058479309082,-2.6636836528778076,5.548626899719238,3.8006088733673096,2.2585935592651367,4.918004512786865,0.2920239269733429,2.153759002685547,1.7108137607574463,1.858569860458374,2.3090314865112305,1.5640816688537598,1.9398752450942993,5.45745325088501,5.340901851654053,2.7975754737854004,3.189528703689575,3.0631422996520996,5.729137420654297,2.285323143005371,4.18295955657959,0.15013831853866577,0.28033649921417236,-0.32810503244400024,-0.5577781796455383,-4.282655715942383,3.098914861679077,-2.0092906951904297,-5.932328224182129,-2.3472118377685547,-2.7111849784851074,-5.52087926864624,-5.6301045417785645,-2.110048532485962,-1.1542847156524658,-2.2910609245300293,-1.7872086763381958,0.4577648937702179,-1.252223014831543,-2.462564468383789,-0.7833834290504456,-4.9642815589904785,-3.853806734085083,-5.433422565460205,5.358892440795898,0.9844962358474731,4.979007720947266,-0.11550133675336838,0.840587317943573,4.686411380767822,2.095280170440674,2.6419014930725098,3.0029850006103516,1.197521686553955,3.1633074283599854,3.706049680709839,2.307616710662842,0.870266854763031,1.366560459136963,4.780843257904053,2.6687982082366943,2.3966991901397705,5.036303520202637,1.1215927600860596,1.9635308980941772,-1.83633553981781,-0.9642178416252136,-5.041873931884766,-2.3214964866638184,-2.508364200592041,1.18086838722229
9,3.0108017921447754,-1.10056734085083,-1.3025164604187012,-2.297686815261841,-3.796720266342163,-3.258164644241333,-1.4289484024047852,-2.9201161861419678,-2.565737009048462,-1.6115151643753052,-4.998719692230225,6.395085334777832,-0.37731751799583435,-5.073715686798096,-0.872097909450531,-5.5741095542907715,0.9066358804702759,3.9691104888916016,0.18288405239582062,6.074160575866699,3.584869146347046,3.5948612689971924,6.104068279266357,4.128390789031982,-4.1585564613342285,5.8079915046691895,-6.46138334274292,-3.760873556137085,-3.6085050106048584,-6.281950950622559,-0.310590922832489,-3.995145797729492,-1.2196249961853027,-6.135435104370117,-1.1315536499023438,-5.427763938903809,5.713505744934082,-0.9371598362922668,-0.4534895420074463,-2.63818359375,-3.106543779373169,-2.7293455600738525,-5.815036773681641,-6.2441792488098145,-2.704211473464966,5.50809907913208,3.736487865447998,2.251826047897339,4.904481887817383,0.2918967604637146,2.153517484664917,1.71480393409729,1.8009216785430908,2.2715365886688232,1.5222543478012085,2.006636619567871,5.4619879722595215,5.335249900817871,2.7992618083953857,3.178231954574585,3.1091198921203613,5.726640701293945,2.2422194480895996,4.166873931884766,0.2017950564622879,0.3291177749633789,-0.2793237566947937,-0.5061214566230774,-4.298741340637207,3.1061840057373047,-2.0745911598205566,-5.947075366973877,-2.311617374420166,-2.7221596240997314,-5.526531219482422,-5.625569820404053,-2.0432870388031006,-1.196112036705017,-2.330331325531006,-1.8512234687805176,0.40884456038475037,-1.239442229270935,-2.4726107120513916,-0.8000358939170837,-4.9583740234375,-3.908017873764038,-5.479728698730469,5.312586307525635,0.9302849769592285,4.984915256500244,-0.13215379416942596,0.8042216897010803,4.676364898681641,2.108060836791992,2.5778868198394775,2.963714599609375,1.2339210510253906,3.230912923812866,3.7054617404937744,2.3134167194366455,0.8722166419029236,1.3497360944747925,4.808255195617676,2.615786552429199,2.3269457817077637,4.9892497062683105,1.184152603149414,1.9204858541488647,-1.8793805837631226,-0.9016580581665039,-5.088927745819092,-2.3885347843170166,-2.560134172439575,1.127046823501587
10,3.051724910736084,-1.1262547969818115,-1.2952309846878052,-2.284825563430786,-3.782248020172119,-3.297666549682617,-1.4873216152191162,-2.8715765476226807,-2.5222623348236084,-1.591229796409607,-5.009986877441406,6.3699822425842285,-0.371520072221756,-5.092538356781006,-0.8186429142951965,-5.536581039428711,0.9107708930969238,3.919102907180786,0.11762341111898422,6.083932876586914,3.604626417160034,3.63403058052063,6.126222610473633,4.162353038787842,-4.124594211578369,5.862465858459473,-6.4392290115356445,-3.7217042446136475,-3.6139402389526367,-6.256422519683838,-0.36921924352645874,-4.0437164306640625,-1.2154899835586548,-6.160538196563721,-1.0812058448791504,-5.484803199768066,5.730760097503662,-0.8925417065620422,-0.4166606366634369,-2.626805543899536,-3.104400157928467,-2.723393678665161,-5.8136820793151855,-6.212284088134766,-2.6701090335845947,5.542201519012451,3.768383264541626,2.251969575881958,4.905836582183838,0.2978487014770508,2.155661106109619,1.726181983947754,1.8377505540847778,2.3161544799804688,1.58321213722229,1.9652858972549438,5.491824626922607,5.342977046966553,2.801990270614624,3.170309543609619,3.1313722133636475,5.701517581939697,2.303809404373169,4.167377471923828,0.14861230552196503,0.2852129638195038,-0.3232285678386688,-0.5593041777610779,-4.2982378005981445,3.114309787750244,-2.0120105743408203,-5.956438064575195,-2.2832047939300537,-2.7293691635131836,-5.51880407333374,-5.595733165740967,-2.0846376419067383,-1.1351542472839355,-2.2836408615112305,-1.8080766201019287,0.4484856128692627,-1.2180019617080688,-2.4801206588745117,-0.8066130876541138,-4.956160545349121,-3.856813907623291,-5.443305969238281,5.349009037017822,0.9814891219139099,4.987128734588623,-0.1387310028076172,0.8495062589645386,4.668854713439941,2.1295011043548584,2.6210336685180664,3.0104050636291504,1.1755478382110596,3.191411018371582,3.7199339866638184,2.3262779712677,0.8797420263290405,1.306270956993103,4.751215934753418,2.6704845428466797,2.3658227920532227,5.035239219665527,1.1370065212249756,1.9549224376678467,-1.8449440002441406,-0.9488042593002319,-5.042938232421875,-2.3519680500030518,-2.5080182552337646,1.1773946285247803
11,3.0298163890838623,-1.1400654315948486,-1.2801897525787354,-2.2986514568328857,-3.7397806644439697,-3.246885299682617,-1.4463765621185303,-2.922562599182129,-2.5576932430267334,-1.5917872190475464,-5.0190653800964355,6.409298896789551,-0.3734513521194458,-5.06485652923584,-0.8502475619316101,-5.566594123840332,0.8552834391593933,3.9731101989746094,0.15375958383083344,6.0775556564331055,3.5877861976623535,3.622602701187134,6.117326736450195,4.124344825744629,-4.162602424621582,5.830018043518066,-6.448124885559082,-3.7331321239471436,-3.649712324142456,-6.268820285797119,-0.3292984962463379,-3.988670825958252,-1.27097749710083,-6.121221542358398,-1.1312987804412842,-5.456214904785156,5.7767558097839355,-0.9427409172058105,-0.4472321569919586,-2.640981435775757,-3.106290340423584,-2.728738307952881,-5.7919392585754395,-6.2588701248168945,-2.702092170715332,5.510218620300293,3.721797466278076,2.237220287322998,4.927579402923584,0.2925039529800415,2.153770923614502,1.7120059728622437,1.8071789741516113,2.2659554481506348,1.5416182279586792,2.015712022781372,5.452352046966553,5.331105709075928,2.8028411865234375,3.149407148361206,3.160159111022949,5.734797477722168,2.2992589473724365,4.194735527038574,0.18054607510566711,0.3161160945892334,-0.2923254370689392,-0.5273703932762146,-4.270879745483398,3.1019885540008545,-2.044543743133545,-5.947603702545166,-2.2610809803009033,-2.750063180923462,-5.530675411224365,-5.6352057456970215,-2.0342116355895996,-1.1767481565475464,-2.334638833999634,-1.8458412885665894,0.4262566864490509,-1.2232069969177246,-2.489673614501953,-0.8326887488365173,-4.904147148132324,-3.895470380783081,-5.4795684814453125,5.312746524810791,0.9428324699401855,5.03914213180542,-0.16480663418769836,0.7954860925674438,4.6593017578125,2.124296188354492,2.583268880844116,2.959407091140747,1.2164928913116455,3.242192268371582,3.7624013423919678,2.3124520778656006,0.8936251401901245,1.2920159101486206,4.779804229736328,2.6458122730255127,2.326852798461914,4.98092794418335,1.172842025756836,1.9235719442367554,-1.876294493675232,-0.9129687547683716,-5.097249507904053,-2.3923466205596924,-2.5349233150482178,1.1273016929626465
12,3.0615234375,-1.1725001335144043,-1.2792497873306274,-2.270355463027954,-3.7913057804107666,-3.2748477458953857,-1.4855729341506958,-2.8685364723205566,-2.54178524017334,-1.5658422708511353,-5.025757312774658,6.32948112487793,-0.33296269178390503,-5.1526970863342285,-0.8132805228233337,-5.535025119781494,0.9099428653717041,3.9098381996154785,0.09406404197216034,6.082043170928955,3.6154580116271973,3.6422929763793945,6.0542802810668945,4.161159515380859,-4.125787734985352,5.870150566101074,-6.511171340942383,-3.713441848754883,-3.6652491092681885,-6.246331214904785,-0.3919897675514221,-4.051043510437012,-1.216318130493164,-6.2010393142700195,-1.0935232639312744,-5.496859073638916,5.746290683746338,-0.8865832090377808,-0.43204835057258606,-2.6215102672576904,-3.1014180183410645,-2.6934289932250977,-5.8508405685424805,-6.24023962020874,-2.676961898803711,5.535349369049072,3.7404277324676514,2.2611098289489746,4.868678092956543,0.32781338691711426,2.1586432456970215,1.731476902961731,1.8223627805709839,2.322113275527954,1.5818983316421509,1.9858235120773315,5.526440620422363,5.3644328117370605,2.8084352016448975,3.1473686695098877,3.1715035438537598,5.712391376495361,2.318127155303955,4.123317241668701,0.1679759919643402,0.29184791445732117,-0.31659361720085144,-0.5399404764175415,-4.3422980308532715,3.115205764770508,-2.008413076400757,-5.958130836486816,-2.2491250038146973,-2.7520065307617188,-5.497348308563232,-5.561117172241211,-2.0641000270843506,-1.1364680528640747,-2.280827760696411,-1.829468846321106,0.4527418911457062,-1.1960934400558472,-2.4940762519836426,-0.8051896095275879,-4.982221603393555,-3.8610496520996094,-5.450948715209961,5.341366291046143,0.9772533774375916,4.9610676765441895,-0.13730743527412415,0.8547335863113403,4.6548991203308105,2.15140962600708,2.5996410846710205,3.0132181644439697,1.17729651927948,3.2142298221588135,3.710876226425171,2.3407480716705322,0.8954230546951294,1.2560158967971802,4.739160060882568,2.665100574493408,2.338355541229248,5.038270473480225,1.1523948907852173,1.9385876655578613,-1.861278772354126,-0.9334158897399902,-5.039906978607178,-2.3822691440582275,-2.524416208267212,1.1650772094726562
13,3.047135591506958,-1.158050537109375,-1.2611405849456787,-2.327336311340332,-3.7146687507629395,-3.241492748260498,-1.458545207977295,-2.9235918521881104,-2.5442421436309814,-1.587362289428711,-5.028782844543457,6.391537189483643,-0.3723796010017395,-5.081892967224121,-0.8350731134414673,-5.5588812828063965,0.8350218534469604,3.9782941341400146,0.13154162466526031,6.061670780181885,3.595975875854492,3.6553866863250732,6.123675346374512,4.10805606842041,-4.178891181945801,5.858647346496582,-6.441776275634766,-3.700348138809204,-3.6963837146759033,-6.273428916931152,-0.3412069082260132,-3.982273578643799,-1.2912392616271973,-6.138983249664307,-1.133528709411621,-5.476845741271973,5.82399845123291,-0.9446136951446533,-0.4268507957458496,-2.6559841632843018,-3.1064302921295166,-2.731259346008301,-5.77626895904541,-6.2694091796875,-2.6982603073120117,5.5140509605407715,3.7112584114074707,2.2074949741363525,4.943249702453613,0.2899828851222992,2.1536309719085693,1.6970030069351196,1.827560305595398,2.264082908630371,1.5544332265853882,2.018738031387329,5.459810733795166,5.3144025802612305,2.8093371391296387,3.1227450370788574,3.186793088912964,5.7173309326171875,2.334202289581299,4.195724964141846,0.1695806384086609,0.30726853013038635,-0.30117300152778625,-0.5383358001708984,-4.269890308380127,3.081414222717285,-2.019912004470825,-6.01924991607666,-2.231370449066162,-2.7767715454101562,-5.5473785400390625,-5.627747058868408,-2.0311856269836426,-1.1639331579208374,-2.335857391357422,-1.8349937200546265,0.4601285457611084,-1.2232587337493896,-2.49922251701355,-0.8641166687011719,-4.902421474456787,-3.887296676635742,-5.4778218269348145,5.314493179321289,0.9510062336921692,5.040867805480957,-0.19623449444770813,0.7927475571632385,4.649752616882324,2.124244213104248,2.5941162109375,2.958188533782959,1.2043242454528809,3.247584819793701,3.787513256072998,2.2837672233581543,0.9126120209693909,1.255521535873413,4.759173393249512,2.6720519065856934,2.3432295322418213,4.979725360870361,1.1620103120803833,1.9251370429992676,-1.8747293949127197,-0.9238004684448242,-5.098452091217041,-2.3816137313842773,-2.521117687225342,1.1250717639923096
14,3.070068836212158,-1.192994236946106,-1.2784318923950195,-2.2596561908721924,-3.736954927444458,-3.26168155670166,-1.4847983121871948,-2.877685308456421,-2.5563435554504395,-1.5486907958984375,-5.031700611114502,6.3465352058410645,-0.3098403215408325,-5.150184154510498,-0.8105471134185791,-5.536496639251709,0.8846157789230347,3.9336299896240234,0.0807005912065506,6.058201789855957,3.6275014877319336,3.6467554569244385,6.053787708282471,4.161459922790527,-4.125487327575684,5.888815879821777,-6.511663913726807,-3.708979368209839,-3.7154669761657715,-6.264153957366943,-0.3976040482521057,-4.0267558097839355,-1.241645336151123,-6.183985233306885,-1.1073813438415527,-5.506222724914551,5.795817852020264,-0.8938416242599487,-0.43436384201049805,-2.617884635925293,-3.099248170852661,-2.6792640686035156,-5.832942962646484,-6.262245178222656,-2.681993246078491,5.530317783355713,3.7184224128723145,2.2476577758789062,4.886575698852539,0.3419780433177948,2.160813093185425,1.735102653503418,1.8200472593307495,2.314854860305786,1.5814108848571777,1.9972645044326782,5.505309104919434,5.376784801483154,2.8209877014160156,3.1334939002990723,3.2083513736724854,5.762857913970947,2.348179817199707,4.120983123779297,0.1836356818675995,0.30379968881607056,-0.30464184284210205,-0.5242807865142822,-4.344632148742676,3.113218307495117,-1.9983848333358765,-5.964561939239502,-2.215153932571411,-2.766012191772461,-5.484996318817139,-5.582248687744141,-2.052659034729004,-1.1369554996490479,-2.2902376651763916,-1.8463082313537598,0.4710405170917511,-1.1826003789901733,-2.503992795944214,-0.8129099607467651,-4.963030815124512,-3.8652806282043457,-5.458384037017822,5.333930969238281,0.9730222821235657,4.980258464813232,-0.1450277864933014,0.8464582562446594,4.64498233795166,2.164902448654175,2.5828018188476562,3.0038082599639893,1.178071141242981,3.227396011352539,3.7652270793914795,2.351447343826294,0.8967297673225403,1.2238335609436035,4.729796409606934,2.6626687049865723,2.3207149505615234,5.034916877746582,1.166320562362671,1.9198228120803833,-1.880043625831604,-0.9194903373718262,-5.04326057434082,-2.4018585681915283,-2.5402023792266846,1.151219129562378
15,3.061352252960205,-1.1880888938903809,-1.2586661577224731,-2.3213508129119873,-3.712254762649536,-3.241597890853882,-1.461905598640442,-2.9170143604278564,-2.5394768714904785,-1.5781620740890503,-5.033653736114502,6.348516941070557,-0.3530787229537964,-5.113317012786865,-0.8258235454559326,-5.554797172546387,0.8333526253700256,3.976154088973999,0.0916367694735527,6.0438642501831055,3.6146786212921143,3.6676459312438965,6.095249176025391,4.108458518981934,-4.178488731384277,5.885537624359131,-6.470202445983887,-3.688088893890381,-3.7516653537750244,-6.282320499420166,-0.3741857707500458,-3.9840688705444336,-1.2929084300994873,-6.182003498077393,-1.1362721920013428,-5.4923787117004395,5.856845855712891,-0.9370347857475281,-0.413941353559494,-2.65885591506958,-3.1038734912872314,-2.7164387702941895,-5.778969764709473,-6.288271903991699,-2.697537422180176,5.514773845672607,3.6923959255218506,2.194213390350342,4.940548896789551,0.30480337142944336,2.1561877727508545,1.6941313743591309,1.8404697179794312,2.2716617584228516,1.5592267513275146,2.0173909664154053,5.48710823059082,5.326306343078613,2.822722911834717,3.112118721008301,3.202996253967285,5.71459436416626,2.3334314823150635,4.173112392425537,0.16783179342746735,0.30073487758636475,-0.30770665407180786,-0.5400846600532532,-4.2925028800964355,3.072922468185425,-2.01423716545105,-6.041017532348633,-2.215029001235962,-2.78733229637146,-5.53547477722168,-5.600449562072754,-2.0325324535369873,-1.159139633178711,-2.329754114151001,-1.83109712600708,0.4965302646160126,-1.2159409523010254,-2.509948492050171,-0.8678823709487915,-4.917293071746826,-3.8854267597198486,-5.479325771331787,5.312989234924316,0.9528759717941284,5.025996208190918,-0.20000016689300537,0.8011481761932373,4.639026165008545,2.131561756134033,2.598012924194336,2.96429181098938,1.2009638547897339,3.2474796772003174,3.7899272441864014,2.289752721786499,0.9161856174468994,1.2121751308441162,4.743640422821045,2.684096097946167,2.3420066833496094,4.9948859214782715,1.155541181564331,1.9249416589736938,-1.8749247789382935,-0.9302697777748108,-5.083291530609131,-2.38723087310791,-2.5208280086517334,1.122328281402588
16,3.08347487449646,-1.2127151489257812,-1.269640564918518,-2.271526336669922,-3.7028486728668213,-3.257462501525879,-1.4804219007492065,-2.8863823413848877,-2.559913396835327,-1.542989730834961,-5.0378642082214355,6.33663272857666,-0.30933481454849243,-5.156434535980225,-0.8032920956611633,-5.533370018005371,0.849118173122406,3.9599151611328125,0.054921455681324005,6.03709602355957,3.6423985958099365,3.657942533493042,6.041106700897217,4.15431022644043,-4.132637023925781,5.915085315704346,-6.5243449211120605,-3.6977922916412354,-3.777409315109253,-6.280440807342529,-0.4122239649295807,-4.000425815582275,-1.277142882347107,-6.193887710571289,-1.122477412223816,-5.517184734344482,5.8530592918396,-0.9014108180999756,-0.4266918897628784,-2.62398624420166,-3.0960373878479004,-2.6782515048980713,-5.809778690338135,-6.284167289733887,-2.6819334030151367,5.5303778648376465,3.696500539779663,2.2188661098480225,4.909739971160889,0.3429906368255615,2.1640238761901855,1.7290009260177612,1.8277192115783691,2.307285785675049,1.5789260864257812,2.0010995864868164,5.501585960388184,5.37301778793335,2.8347554206848145,3.1151554584503174,3.2306203842163086,5.770417213439941,2.357405424118042,4.1174635887146,0.18519175052642822,0.3130291700363159,-0.2954123616218567,-0.5227246880531311,-4.348151683807373,3.102842330932617,-2.003103256225586,-5.987971782684326,-2.19340443611145,-2.7841579914093018,-5.488763332366943,-5.585971832275391,-2.048823833465576,-1.1394402980804443,-2.29978609085083,-1.8513782024383545,0.5080034732818604,-1.1793725490570068,-2.515927791595459,-0.8342551589012146,-4.953425884246826,-3.865544080734253,-5.46074104309082,5.331573963165283,0.9727587103843689,4.989863395690918,-0.16637293994426727,0.8386000394821167,4.633046627044678,2.1681301593780518,2.5777318477630615,2.994259834289551,1.1824475526809692,3.2316150665283203,3.799333333969116,2.3395771980285645,0.9067045450210571,1.1877925395965576,4.718834400177002,2.6720340251922607,2.312347173690796,5.034677505493164,1.168757438659668,1.9123300313949585,-1.8875364065170288,-0.9170535206794739,-5.043499946594238,-2.414109230041504,-2.5372977256774902,1.1361230611801147
17,3.0734786987304688,-1.2126634120941162,-1.258633017539978,-2.314146041870117,-3.6901278495788574,-3.243807077407837,-1.45987069606781,-2.915898084640503,-2.541492223739624,-1.5672355890274048,-5.040528774261475,6.320801734924316,-0.33983683586120605,-5.134753704071045,-0.8193692564964294,-5.5539164543151855,0.8072887063026428,3.9886279106140137,0.049349941313266754,6.025606155395508,3.634632110595703,3.678586006164551,6.066779136657715,4.114965438842773,-4.1719818115234375,5.917495250701904,-6.4986724853515625,-3.6771488189697266,-3.821101427078247,-6.293242931365967,-0.40643998980522156,-3.971707582473755,-1.3189723491668701,-6.209718704223633,-1.1448230743408203,-5.505185604095459,5.9028544425964355,-0.9342105388641357,-0.4087243378162384,-2.654256820678711,-3.0962047576904297,-2.700742244720459,-5.768750190734863,-6.312433242797852,-2.699136734008789,5.513174533843994,3.6682345867156982,2.176753282546997,4.95076847076416,0.3204999566078186,2.1638565063476562,1.6987303495407104,1.8456867933273315,2.2744863033294678,1.5591835975646973,2.0151126384735107,5.495678424835205,5.341374397277832,2.8405847549438477,3.098341941833496,3.222825288772583,5.731795787811279,2.341062068939209,4.1557135581970215,0.1632290482521057,0.3042306900024414,-0.3042108416557312,-0.5446873307228088,-4.309901714324951,3.0727450847625732,-2.0194191932678223,-6.043034553527832,-2.1964666843414307,-2.8007259368896484,-5.520406723022461,-5.591879367828369,-2.034810781478882,-1.1591827869415283,-2.329580307006836,-1.8338178396224976,0.5359758734703064,-1.2039347887039185,-2.5213706493377686,-0.873343825340271,-4.923455715179443,-3.8864963054656982,-5.484026908874512,5.308288097381592,0.9518066644668579,5.019833564758301,-0.20546160638332367,0.8040969371795654,4.627604007720947,2.1435680389404297,2.595292091369629,2.964465618133545,1.2029987573623657,3.2452704906463623,3.81205415725708,2.296957492828369,0.9176504015922546,1.1742578744888306,4.730833530426025,2.6963982582092285,2.3364453315734863,5.006472110748291,1.1522862911224365,1.9276466369628906,-1.8722198009490967,-0.9335246682167053,-5.071705341339111,-2.395019054412842,-2.5139501094818115,1.1137773990631104
18,3.0985190868377686,-1.235034704208374,-1.2638490200042725,-2.283278703689575,-3.672799825668335,-3.2577826976776123,-1.4741555452346802,-2.890815496444702,-2.5648512840270996,-1.5409550666809082,-5.048515796661377,6.30849027633667,-0.3096274435520172,-5.167492389678955,-0.7937771677970886,-5.528263092041016,0.8072505593299866,3.9825642108917236,0.012829821556806564,6.026184558868408,3.657080888748169,3.6711933612823486,6.017519950866699,4.145421504974365,-4.141525745391846,5.948753356933594,-6.547931671142578,-3.6845414638519287,-3.857072591781616,-6.288324356079102,-0.4430980980396271,-3.97794246673584,-1.3190104961395264,-6.222030162811279,-1.1359777450561523,-5.52862548828125,5.910752773284912,-0.9051125049591064,-0.42333343625068665,-2.626553773880005,-3.0895402431488037,-2.6713802814483643,-5.7860283851623535,-6.306894779205322,-2.680152177810669,5.532158851623535,3.6737732887268066,2.187516927719116,4.93349027633667,0.3498618006706238,2.1705210208892822,1.7264336347579956,1.8310776948928833,2.303584337234497,1.5753793716430664,2.00144100189209,5.504204750061035,5.373770713806152,2.8509812355041504,3.095391273498535,3.25219464302063,5.773242473602295,2.368748188018799,4.111665725708008,0.1824091225862503,0.3227010667324066,-0.285740464925766,-0.5255072712898254,-4.353949546813965,3.0950510501861572,-2.0139319896698,-6.004014492034912,-2.1734607219696045,-2.803612232208252,-5.488010406494141,-5.583353042602539,-2.0484824180603027,-1.1429870128631592,-2.305173635482788,-1.8578277826309204,0.5520716309547424,-1.1754738092422485,-2.5304172039031982,-0.8521060347557068,-4.949499607086182,-3.863675594329834,-5.461127758026123,5.3311872482299805,0.9746273756027222,4.9937896728515625,-0.18422380089759827,0.8342685103416443,4.618557453155518,2.1720290184020996,2.571282148361206,2.9888722896575928,1.1887139081954956,3.231294870376587,3.8293821811676025,2.327824831008911,0.9143005013465881,1.1534547805786133,4.707393646240234,2.679123878479004,2.307887315750122,5.03918981552124,1.1686087846755981,1.9134550094604492,-1.886411428451538,-0.9172021746635437,-5.038987636566162,-2.4229142665863037,-2.534104824066162,1.1226227283477783
19,3.0858094692230225,-1.235638976097107,-1.2562217712402344,-2.3168628215789795,-3.6538517475128174,-3.246081590652466,-1.454052209854126,-2.916665554046631,-2.543611526489258,-1.5604795217514038,-5.049274444580078,6.29497766494751,-0.33320969343185425,-5.150425434112549,-0.8137446641921997,-5.554405689239502,0.7656394243240356,4.006802082061768,-0.0007465784437954426,6.00272274017334,3.6584365367889404,3.6943397521972656,6.037676811218262,4.118626594543457,-4.168320655822754,5.955380916595459,-6.527774810791016,-3.6613950729370117,-3.9025180339813232,-6.311007976531982,-0.44202160835266113,-3.9537606239318848,-1.360621690750122,-6.2355427742004395,-1.1558740139007568,-5.516326904296875,5.954376220703125,-0.9338814616203308,-0.4085727035999298,-2.6483871936798096,-3.0855348110198975,-2.6839349269866943,-5.7513628005981445,-6.337822914123535,-2.700287103652954,5.512024402618408,3.6428451538085938,2.149609327316284,4.968155860900879,0.3373069763183594,2.1745264530181885,1.70460045337677,1.8458384275436401,2.274815559387207,1.555844783782959,2.01387619972229,5.493950366973877,5.350868225097656,2.8603243827819824,3.081374406814575,3.24904465675354,5.744277477264404,2.351879835128784,4.145081043243408,0.15214449167251587,0.3087247312068939,-0.2997168004512787,-0.5557718873023987,-4.3205342292785645,3.073637008666992,-2.0310795307159424,-6.048162460327148,-2.171649694442749,-2.8169682025909424,-5.510912895202637,-5.593607425689697,-2.0360472202301025,-1.1625216007232666,-2.331223964691162,-1.8377898931503296,0.5805009603500366,-1.1921865940093994,-2.5335354804992676,-0.8818217515945435,-4.925283908843994,-3.888310194015503,-5.4900641441345215,5.302250862121582,0.9499927759170532,5.01800537109375,-0.21393948793411255,0.8035486340522766,4.615438938140869,2.1553163528442383,2.591320276260376,2.9628219604492188,1.2088172435760498,3.2429959774017334,3.84833025932312,2.294240713119507,0.9219368100166321,1.1425186395645142,4.719692230224609,2.7093594074249268,2.338822364807129,5.015552520751953,1.145265817642212,1.9345531463623047,-1.8653132915496826,-0.9405451416969299,-5.062624931335449,-2.395758867263794,-2.5049245357513428,1.1027264595031738
20,3.1131880283355713,-1.258239984512329,-1.2587662935256958,-2.2988922595977783,-3.6401023864746094,-3.260159969329834,-1.4666506052017212,-2.8922505378723145,-2.5713419914245605,-1.5418241024017334,-5.0583882331848145,6.268292427062988,-0.3094784617424011,-5.176888465881348,-0.7837671637535095,-5.523866176605225,0.7583585381507874,4.002890110015869,-0.041745126247406006,6.018161773681641,3.6705408096313477,3.682440757751465,5.9885454177856445,4.137885570526123,-4.149061679840088,5.988210678100586,-6.576906204223633,-3.6732940673828125,-3.951746940612793,-6.29627799987793,-0.48479145765304565,-3.957953691482544,-1.3679025173187256,-6.262228012084961,-1.146704077720642,-5.539844036102295,5.970251560211182,-0.9056503176689148,-0.42719385027885437,-2.625335931777954,-3.0795297622680664,-2.6579222679138184,-5.7599592208862305,-6.330498695373535,-2.6780314445495605,5.534280300140381,3.6501691341400146,2.1496939659118652,4.959559440612793,0.36331966519355774,2.1805315017700195,1.727651596069336,1.8272173404693604,2.303046703338623,1.5709118843078613,2.000762462615967,5.509555339813232,5.3740949630737305,2.8697280883789062,3.0769643783569336,3.283498525619507,5.780506134033203,2.383467435836792,4.103455066680908,0.17574819922447205,0.33309099078178406,-0.27535054087638855,-0.5321682095527649,-4.3621602058410645,3.089794874191284,-2.0293967723846436,-6.01371431350708,-2.144812822341919,-2.8214290142059326,-5.4876861572265625,-5.578002452850342,-2.049160957336426,-1.1474545001983643,-2.3075177669525146,-1.8675607442855835,0.5990999937057495,-1.16995370388031,-2.543935537338257,-0.8666901588439941,-4.945640563964844,-3.8612282276153564,-5.462253093719482,5.330061912536621,0.9770746231079102,4.9976487159729,-0.19880791008472443,0.8329169750213623,4.605039119720459,2.177549123764038,2.561549425125122,2.986528158187866,1.1962188482284546,3.2289175987243652,3.862079620361328,2.312211275100708,0.9221127033233643,1.12580144405365,4.6961750984191895,2.6786179542541504,2.306971788406372,5.047198295593262,1.1662399768829346,1.9134547710418701,-1.8864116668701172,-0.9195709824562073,-5.030979156494141,-2.4310030937194824,-2.5383260250091553,1.1118963956832886
21,3.099994659423828,-1.2570539712905884,-1.2488163709640503,-2.3259623050689697,-3.6062028408050537,-3.2477245330810547,-1.4465793371200562,-2.918225049972534,-2.541999340057373,-1.558713674545288,-5.057194232940674,6.272991180419922,-0.3288024961948395,-5.156721115112305,-0.8070956468582153,-5.554636001586914,0.7122662663459778,4.027315616607666,-0.059481631964445114,5.971636772155762,3.687286853790283,3.713869094848633,6.0092902183532715,4.121310234069824,-4.165637016296387,5.998040676116943,-6.556161403656006,-3.6418657302856445,-3.9927029609680176,-6.340368270874023,-0.4799787402153015,-3.9335267543792725,-1.4139947891235352,-6.257529258728027,-1.1662017107009888,-5.528017520904541,6.009596824645996,-0.9346189498901367,-0.4128910005092621,-2.6421799659729004,-3.072943687438965,-2.6628646850585938,-5.7279253005981445,-6.362505912780762,-2.698596954345703,5.513714790344238,3.618161678314209,2.1124088764190674,4.991593360900879,0.3583773076534271,2.187117576599121,1.7108075618743896,1.8415201902389526,2.274078130722046,1.5513826608657837,2.0143988132476807,5.486177921295166,5.354040622711182,2.880793571472168,3.0628774166107178,3.2844996452331543,5.753982067108154,2.3584604263305664,4.138041019439697,0.13348320126533508,0.3090400993824005,-0.2994014322757721,-0.5744332075119019,-4.327574253082275,3.0746848583221436,-2.0486671924591064,-6.056593894958496,-2.1367342472076416,-2.833948850631714,-5.507740497589111,-5.601379871368408,-2.035524606704712,-1.166983723640442,-2.33341383934021,-1.8400564193725586,0.6271551251411438,-1.1807060241699219,-2.5450327396392822,-0.8892587423324585,-4.920464515686035,-3.8891890048980713,-5.495950698852539,5.2963643074035645,0.9491139650344849,5.022824764251709,-0.22137649357318878,0.8012767434120178,4.603941917419434,2.166796922683716,2.5890536308288574,2.960632085800171,1.2162901163101196,3.2413530349731445,3.895979166030884,2.2851412296295166,0.9320860505104065,1.1195653676986694,4.708001613616943,2.7222018241882324,2.349522829055786,5.023187637329102,1.1294721364974976,1.9429112672805786,-1.8569551706314087,-0.9563387632369995,-5.054989814758301,-2.3897016048431396,-2.4958503246307373,1.092398762702942
22,3.125628709793091,-1.2810856103897095,-1.251784086227417,-2.3189456462860107,-3.6091525554656982,-3.2633864879608154,-1.4579561948776245,-2.8912770748138428,-2.578474760055542,-1.5473980903625488,-5.06581449508667,6.220916271209717,-0.30674171447753906,-5.178527355194092,-0.775059163570404,-5.522291660308838,0.7060551643371582,4.019552707672119,-0.10659472644329071,6.013507843017578,3.675872802734375,3.687535047531128,5.9582719802856445,4.128573894500732,-4.1583733558654785,6.029928684234619,-6.607179641723633,-3.6681997776031494,-4.059250354766846,-6.305211067199707,-0.533958911895752,-3.9417786598205566,-1.4202059507369995,-6.309604167938232,-1.1518571376800537,-5.5507378578186035,6.031442642211914,-0.9034376740455627,-0.4376864433288574,-2.622790575027466,-3.0673696994781494,-2.638033390045166,-5.729808330535889,-6.356054306030273,-2.676258087158203,5.536053657531738,3.624613046646118,2.103187322616577,4.989710330963135,0.3832087218761444,2.1926915645599365,1.7301970720291138,1.8167246580123901,2.3052594661712646,1.5654054880142212,2.0001325607299805,5.520864009857178,5.370433330535889,2.889655590057373,3.0606722831726074,3.3251285552978516,5.793967247009277,2.4014720916748047,4.092822074890137,0.16889943182468414,0.34245753288269043,-0.2659839987754822,-0.5390169620513916,-4.372793197631836,3.084393262863159,-2.0468592643737793,-6.018774032592773,-2.106698989868164,-2.836209297180176,-5.491347789764404,-5.5666937828063965,-2.049790859222412,-1.1529608964920044,-2.3073768615722656,-1.8802369832992554,0.6451104879379272,-1.1647090911865234,-2.5551140308380127,-0.877388060092926,-4.936848163604736,-3.860283851623535,-5.466383934020996,5.325931072235107,0.9780189990997314,5.006441116333008,-0.2095058113336563,0.8346763849258423,4.593860626220703,2.1827938556671143,2.54887318611145,2.9866690635681152,1.2049132585525513,3.225691080093384,3.8930294513702393,2.2921578884124756,0.9331690073013306,1.1066992282867432,4.685281276702881,2.6712088584899902,2.307173252105713,5.057485580444336,1.1598670482635498,1.909267783164978,-1.8905986547470093,-0.925943911075592,-5.020691871643066,-2.440325975418091,-2.5500948429107666,1.106743335723877
23,3.1161320209503174,-1.270921230316162,-1.234671950340271,-2.3359599113464355,-3.5552608966827393,-3.248263120651245,-1.4394701719284058,-2.919318675994873,-2.5372226238250732,-1.5607603788375854,-5.064296722412109,6.2602128982543945,-0.3232883810997009,-5.151118755340576,-0.797946035861969,-5.552696704864502,0.6530817151069641,4.04609489440918,-0.12565229833126068,5.9390869140625,3.7202136516571045,3.733877182006836,5.983678817749023,4.1261162757873535,-4.160830974578857,6.043159008026123,-6.581772804260254,-3.6218576431274414,-4.083093643188477,-6.378478527069092,-0.5171726942062378,-3.9149580001831055,-1.4731794595718384,-6.270307540893555,-1.1733386516571045,-5.541922092437744,6.065328598022461,-0.9348578453063965,-0.41922372579574585,-2.635282516479492,-3.059256076812744,-2.637716293334961,-5.699530124664307,-6.3853440284729,-2.692492723464966,5.5198187828063965,3.595323085784912,2.0673937797546387,5.019988536834717,0.38352569937705994,2.200805187225342,1.7177051305770874,1.8351874351501465,2.273839235305786,1.5479109287261963,2.0170865058898926,5.478701114654541,5.350757598876953,2.901660203933716,3.0415289402008057,3.325681209564209,5.760247707366943,2.353316068649292,4.131209373474121,0.11414791643619537,0.3065783679485321,-0.3018631637096405,-0.5937684774398804,-4.334405899047852,3.0762856006622314,-2.0738744735717773,-6.068640232086182,-2.0950210094451904,-2.8521933555603027,-5.51102352142334,-5.608856678009033,-2.0328369140625,-1.1704554557800293,-2.3347601890563965,-1.8404988050460815,0.6705667972564697,-1.1684753894805908,-2.5554850101470947,-0.893027126789093,-4.907497406005859,-3.887892246246338,-5.499882698059082,5.2924323081970215,0.9504106044769287,5.035791873931885,-0.2251448780298233,0.7991666793823242,4.593489646911621,2.179027557373047,2.588611364364624,2.9592857360839844,1.22339928150177,3.240814447402954,3.9469211101531982,2.275143623352051,0.9504569172859192,1.109932780265808,4.69409704208374,2.731205940246582,2.361943006515503,5.030094623565674,1.105756163597107,1.9502182006835938,-1.8496482372283936,-0.9800546765327454,-5.0480828285217285,-2.3837010860443115,-2.4913268089294434,1.0852618217468262
24,3.1357197761535645,-1.2986910343170166,-1.241614580154419,-2.337726593017578,-3.5821471214294434,-3.266831874847412,-1.4479888677597046,-2.890037775039673,-2.5832767486572266,-1.5580755472183228,-5.072545051574707,6.186944007873535,-0.30095189809799194,-5.169473648071289,-0.768618643283844,-5.523566722869873,0.6569994688034058,4.029944896697998,-0.17762057483196259,6.001983165740967,3.6751112937927246,3.689061403274536,5.933448314666748,4.115943908691406,-4.171003341674805,6.0711798667907715,-6.632003307342529,-3.666673421859741,-4.16693639755249,-6.325230121612549,-0.5814024209976196,-3.9316868782043457,-1.469261646270752,-6.343576431274414,-1.1498926877975464,-5.561290264129639,6.090703964233398,-0.9006342887878418,-0.44966670870780945,-2.620931625366211,-3.053576946258545,-2.6143901348114014,-5.696680545806885,-6.3828535079956055,-2.673693895339966,5.538618087768555,3.597813606262207,2.050469398498535,5.022838115692139,0.40685200691223145,2.206484317779541,1.732055902481079,1.8047444820404053,2.308062791824341,1.5588756799697876,1.9998162984848022,5.533416271209717,5.362976551055908,2.911069631576538,3.0446174144744873,3.3698203563690186,5.8137383460998535,2.4182183742523193,4.083170413970947,0.16357620060443878,0.34665408730506897,-0.26178744435310364,-0.544340193271637,-4.382444858551025,3.07734751701355,-2.0602433681488037,-6.021039962768555,-2.0652832984924316,-2.848884105682373,-5.498804569244385,-5.554141521453857,-2.05010724067688,-1.159490704536438,-2.3067359924316406,-1.8911241292953491,0.6848526000976562,-1.160897970199585,-2.5640153884887695,-0.8846243023872375,-4.920753479003906,-3.8620471954345703,-5.4736647605896,5.318650245666504,0.9762556552886963,5.022535800933838,-0.21674205362796783,0.8374923467636108,4.584959506988525,2.186605215072632,2.5379862785339355,2.9873099327087402,1.2148805856704712,3.222245693206787,3.920034885406494,2.273376941680908,0.9488580822944641,1.095001220703125,4.674728870391846,2.667969226837158,2.310563087463379,5.066629409790039,1.1450843811035156,1.9047868251800537,-1.8950796127319336,-0.9407265186309814,-5.011548042297363,-2.445568799972534,-2.558185338973999,1.1087077856063843
25,3.1317174434661865,-1.2691617012023926,-1.219387412071228,-2.343134641647339,-3.5247766971588135,-3.2477304935455322,-1.4331223964691162,-2.917555570602417,-2.5361316204071045,-1.5650420188903809,-5.071990489959717,6.242945194244385,-0.31607934832572937,-5.138347148895264,-0.7874919176101685,-5.548935413360596,0.5999743342399597,4.056012153625488,-0.19413651525974274,5.921170711517334,3.738593578338623,3.743107557296753,5.962111473083496,4.131697654724121,-4.15524959564209,6.08802604675293,-6.603340148925781,-3.6126272678375244,-4.170864582061768,-6.4081501960754395,-0.5542338490486145,-3.904831886291504,-1.5262868404388428,-6.2875752449035645,-1.1764315366744995,-5.557164669036865,6.118323802947998,-0.9318509101867676,-0.42677775025367737,-2.6268720626831055,-3.0448360443115234,-2.612114667892456,-5.669754981994629,-6.406824588775635,-2.6830735206604004,5.529238224029541,3.5738422870635986,2.0209622383117676,5.0497636795043945,0.40912747383117676,2.2152252197265625,1.726115345954895,1.8276335000991821,2.276846170425415,1.5456751585006714,2.0215003490448,5.486979007720947,5.344234466552734,2.9246535301208496,3.018676996231079,3.3650119304656982,5.768084526062012,2.3466014862060547,4.1210198402404785,0.10557135194540024,0.30961138010025024,-0.29883015155792236,-0.6023450493812561,-4.344595432281494,3.0782625675201416,-2.1038830280303955,-6.077523231506348,-2.0560011863708496,-2.8704681396484375,-5.517546653747559,-5.600578784942627,-2.028423309326172,-1.1726912260055542,-2.3330464363098145,-1.8443982601165771,0.7031136155128479,-1.1556252241134644,-2.565166473388672,-0.8951043486595154,-4.890765190124512,-3.8854997158050537,-5.502157688140869,5.290157318115234,0.9528032541275024,5.052524089813232,-0.22722209990024567,0.8008205890655518,4.583807945251465,2.191878080368042,2.584712028503418,2.9609994888305664,1.2297470569610596,3.241347074508667,3.977405309677124,2.2679688930511475,0.9717099666595459,1.1177990436553955,4.678854465484619,2.727811098098755,2.365971803665161,5.0387349128723145,1.0841280221939087,1.9503470659255981,-1.8495193719863892,-1.0016828775405884,-5.039442539215088,-2.388486385345459,-2.500124931335449,1.0821689367294312
26,3.145320415496826,-1.3028068542480469,-1.2268972396850586,-2.3415496349334717,-3.5527637004852295,-3.2702882289886475,-1.438534140586853,-2.890408515930176,-2.5823075771331787,-1.572869896888733,-5.080754280090332,6.179568290710449,-0.2976696491241455,-5.14944314956665,-0.7629702091217041,-5.524655818939209,0.612995982170105,4.034811973571777,-0.24573463201522827,5.9804558753967285,3.6855316162109375,3.700894594192505,5.918259620666504,4.10685396194458,-4.180093288421631,6.112307548522949,-6.647192001342773,-3.6548402309417725,-4.25507116317749,-6.357371807098389,-0.6152552962303162,-3.926344156265259,-1.5132652521133423,-6.3509521484375,-1.142396330833435,-5.5728840827941895,6.144043445587158,-0.8997461795806885,-0.45678210258483887,-2.6209728717803955,-3.039963722229004,-2.5916969776153564,-5.664971351623535,-6.4088826179504395,-2.6683621406555176,5.543949604034424,3.571784257888794,1.9966779947280884,5.054547309875488,0.42954525351524353,2.220097541809082,1.7320146560668945,1.7976291179656982,2.308950901031494,1.5533146858215332,1.9995545148849487,5.5362162590026855,5.355508327484131,2.9344048500061035,3.0258209705352783,3.406235694885254,5.827607154846191,2.4190690517425537,4.079625606536865,0.15817849338054657,0.34336909651756287,-0.26507243514060974,-0.5497379302978516,-4.385989665985107,3.0686581134796143,-2.071394920349121,-6.026458263397217,-2.0292067527770996,-2.862942934036255,-5.506272792816162,-5.551341533660889,-2.0503692626953125,-1.1650516986846924,-2.307058095932007,-1.895108938217163,0.715732753276825,-1.1578863859176636,-2.5729026794433594,-0.8900793194770813,-4.898340225219727,-3.8646860122680664,-5.480954170227051,5.311360836029053,0.9736167788505554,5.044949054718018,-0.2221970558166504,0.836525022983551,4.576071739196777,2.1896169185638428,2.534001350402832,2.986987829208374,1.2243353128433228,3.2187893390655518,3.949418306350708,2.2695538997650146,0.9692186713218689,1.0928764343261719,4.663135051727295,2.6722795963287354,2.3205177783966064,5.071800708770752,1.119769811630249,1.9012043476104736,-1.8986620903015137,-0.9660411477088928,-5.00637674331665,-2.4438695907592773,-2.5592598915100098,1.1162041425704956
27,3.144709825515747,-1.2574701309204102,-1.2088851928710938,-2.3429336547851562,-3.5183629989624023,-3.244980573654175,-1.4268733263015747,-2.913883924484253,-2.53910231590271,-1.571108341217041,-5.079807281494141,6.226631164550781,-0.31116101145744324,-5.124157428741455,-0.7786065340042114,-5.545422554016113,0.5603097677230835,4.0548176765441895,-0.2560715079307556,5.913845062255859,3.7437362670898438,3.748255968093872,5.944265365600586,4.135375499725342,-4.151571750640869,6.131338596343994,-6.621186256408691,-3.6074788570404053,-4.2554240226745605,-6.426071643829346,-0.5882425308227539,-3.905202627182007,-1.5659515857696533,-6.303889274597168,-1.177680492401123,-5.572296619415283,6.165435314178467,-0.926487922668457,-0.43775424361228943,-2.6178250312805176,-3.0317540168762207,-2.5890440940856934,-5.645652770996094,-6.428530216217041,-2.672516107559204,5.539795875549316,3.5521368980407715,1.9773707389831543,5.07386589050293,0.432198166847229,2.2283072471618652,1.7351624965667725,1.8166569471359253,2.2822091579437256,1.5439127683639526,2.028132677078247,5.509025573730469,5.338986396789551,2.9485726356506348,2.9979543685913086,3.39681077003479,5.785182476043701,2.349362373352051,4.111888885498047,0.10644742101430893,0.3161248564720154,-0.2923166751861572,-0.6014689803123474,-4.353726387023926,3.0789177417755127,-2.121220350265503,-6.0757365226745605,-2.025312900543213,-2.886772632598877,-5.522794723510742,-5.5785322189331055,-2.0217912197113037,-1.174453616142273,-2.3293309211730957,-1.8516881465911865,0.7243269085884094,-1.1431424617767334,-2.574185848236084,-0.8993560075759888,-4.875823974609375,-3.8846006393432617,-5.5049285888671875,5.287386417388916,0.9537020325660706,5.067465305328369,-0.23147380352020264,0.8047053813934326,4.574788570404053,2.2043607234954834,2.5774221420288086,2.964715003967285,1.235996127128601,3.2440969944000244,3.983819007873535,2.26816987991333,0.9882370233535767,1.1358587741851807,4.663722515106201,2.7166271209716797,2.364933490753174,5.047634124755859,1.065093994140625,1.9426323175430298,-1.8572341203689575,-1.0207170248031616,-5.030543327331543,-2.3988842964172363,-2.517083168029785,1.0809199810028076
28,3.1548149585723877,-1.2927045822143555,-1.2140194177627563,-2.330108880996704,-3.52945613861084,-3.2740001678466797,-1.4299103021621704,-2.8914473056793213,-2.580127239227295,-1.5908513069152832,-5.087177276611328,6.18479061126709,-0.3009602129459381,-5.126092910766602,-0.7570430636405945,-5.52310848236084,0.5770858526229858,4.033474922180176,-0.300946980714798,5.961236000061035,3.7008426189422607,3.721081018447876,5.909554481506348,4.101592063903809,-4.185355186462402,6.152204990386963,-6.65589714050293,-3.6346538066864014,-4.32708740234375,-6.385344505310059,-0.6369079947471619,-3.92659592628479,-1.549175500869751,-6.345729827880859,-1.1315577030181885,-5.585245132446289,6.1895294189453125,-0.9002223014831543,-0.4632256031036377,-2.6233911514282227,-3.0289769172668457,-2.5732030868530273,-5.640446662902832,-6.4329915046691895,-2.659942865371704,5.552369117736816,3.547675848007202,1.9453363418579102,5.079071998596191,0.44803935289382935,2.2310843467712402,1.7295962572097778,1.7911854982376099,2.3084747791290283,1.5491262674331665,1.998494267463684,5.536880970001221,5.3499884605407715,2.9575798511505127,3.0055129528045654,3.4277846813201904,5.834966659545898,2.4119632244110107,4.081505298614502,0.1557360291481018,0.33692434430122375,-0.27151718735694885,-0.5521804094314575,-4.384109973907471,3.058077335357666,-2.0832128524780273,-6.0324859619140625,-2.0070903301239014,-2.8787081241607666,-5.5117926597595215,-5.5506768226623535,-2.0514297485351562,-1.169240117073059,-2.307605028152466,-1.8966854810714722,0.7361268401145935,-1.1558722257614136,-2.5800836086273193,-0.8964349627494812,-4.876575946807861,-3.86651349067688,-5.485625743865967,5.306689262390137,0.9717891216278076,5.066713333129883,-0.22855275869369507,0.8321572542190552,4.568890571594238,2.1916308403015137,2.5324249267578125,2.986440896987915,1.2329591512680054,3.2150774002075195,3.9727258682250977,2.2809946537017822,0.9867860674858093,1.103415846824646,4.650774002075195,2.6732306480407715,2.3301780223846436,5.074178695678711,1.09306001663208,1.895257830619812,-1.9046086072921753,-0.9927511215209961,-5.003998756408691,-2.443352699279785,-2.564072608947754,1.1270427703857422
29,3.1553244590759277,-1.241318941116333,-1.204565167427063,-2.332338333129883,-3.524089813232422,-3.2397189140319824,-1.421358585357666,-2.9097352027893066,-2.540532112121582,-1.5768208503723145,-5.087832927703857,6.219653606414795,-0.30980613827705383,-5.113302707672119,-0.7727707624435425,-5.542502403259277,0.5329027771949768,4.04775333404541,-0.3063338100910187,5.909017562866211,3.7498135566711426,3.7601776123046875,5.929451942443848,4.141903400421143,-4.145043849945068,6.170894145965576,-6.63599967956543,-3.59555721282959,-4.32828426361084,-6.437657356262207,-0.6138023734092712,-3.9108595848083496,-1.5933586359024048,-6.310866832733154,-1.178418517112732,-5.587049961090088,6.203256607055664,-0.9210705161094666,-0.4505963921546936,-2.607581615447998,-3.021883487701416,-2.5691776275634766,-5.631674289703369,-6.4496307373046875,-2.661440134048462,5.550871849060059,3.5310370922088623,1.9415209293365479,5.087844371795654,0.4520649313926697,2.23817777633667,1.745405673980713,1.8038147687911987,2.2876267433166504,1.5430551767349243,2.036498546600342,5.535461902618408,5.337159633636475,2.9701383113861084,2.9806125164031982,3.4192261695861816,5.803310394287109,2.3508288860321045,4.108208656311035,0.10881534963846207,0.32041555643081665,-0.28802597522735596,-0.5991010665893555,-4.3574066162109375,3.0796217918395996,-2.127357006072998,-6.068904876708984,-2.003403425216675,-2.9004011154174805,-5.524621486663818,-5.552095890045166,-2.013425350189209,-1.1753112077713013,-2.3249728679656982,-1.8564263582229614,0.7377684712409973,-1.1292990446090698,-2.5826711654663086,-0.9050135612487793,-4.86666202545166,-3.8859922885894775,-5.508389472961426,5.283925533294678,0.9523103833198547,5.076627254486084,-0.23713137209415436,0.8073087334632874,4.566303253173828,2.2182037830352783,2.5726842880249023,2.9690730571746826,1.2415108680725098,3.249358654022217,3.9780921936035156,2.2787652015686035,0.997340738773346,1.1554542779922485,4.6489691734313965,2.703787088394165,2.3652191162109375,5.054770469665527,1.0457030534744263,1.933515191078186,-1.8663512468338013,-1.04010808467865,-5.023406982421875,-2.408352851867676,-2.535784959793091,1.0801819562911987
30,3.163727045059204,-1.276642918586731,-1.2076927423477173,-2.314216375350952,-3.509268045425415,-3.2768256664276123,-1.421291470527649,-2.893667697906494,-2.5815255641937256,-1.6134872436523438,-5.090259552001953,6.1966729164123535,-0.31130677461624146,-5.104564189910889,-0.7516627907752991,-5.518456935882568,0.5490631461143494,4.0295820236206055,-0.33698156476020813,5.9476141929626465,3.7156965732574463,3.7428109645843506,5.904316425323486,4.093871593475342,-4.193075656890869,6.187201023101807,-6.661135196685791,-3.6129238605499268,-4.386348247528076,-6.40390157699585,-0.6489453911781311,-3.928764581680298,-1.5771982669830322,-6.333847522735596,-1.1213390827178955,-5.596743106842041,6.226645469665527,-0.9019182920455933,-0.4741656482219696,-2.629964590072632,-3.021246910095215,-2.5592963695526123,-5.624447822570801,-6.454406261444092,-2.6494641304016113,5.56284761428833,3.526261568069458,1.899176836013794,5.095070838928223,0.46194612979888916,2.238814353942871,1.7230225801467896,1.7802455425262451,2.306778907775879,1.5453840494155884,1.9974199533462524,5.533341884613037,5.343101978302002,2.978193998336792,2.986556053161621,3.436065673828125,5.8447160720825195,2.4069464206695557,4.086545467376709,0.1593768447637558,0.32961466908454895,-0.27882686257362366,-0.5485395789146423,-4.379069805145264,3.043877363204956,-2.0902678966522217,-6.033689975738525,-2.001591205596924,-2.8938307762145996,-5.518679141998291,-5.554215908050537,-2.052504062652588,-1.1729823350906372,-2.3093135356903076,-1.9006990194320679,0.7445322275161743,-1.157684326171875,-2.5830352306365967,-0.9054355025291443,-4.858428001403809,-3.8679277896881104,-5.48732852935791,5.304986476898193,0.9703749418258667,5.0848612785339355,-0.23755328357219696,0.8261235952377319,4.565938949584961,2.1898183822631836,2.528411626815796,2.9847323894500732,1.2415779829025269,3.212251901626587,3.9929139614105225,2.296887159347534,0.9967352151870728,1.1178950071334839,4.639276027679443,2.6686313152313232,2.3384132385253906,5.073957443237305,1.0725806951522827,1.8867888450622559,-1.9130775928497314,-1.0132304430007935,-5.004220008850098,-2.445922374725342,-2.575033664703369,1.1372613906860352
31,3.1646108627319336,-1.2241368293762207,-1.2110767364501953,-2.3149209022521973,-3.5404052734375,-3.235599994659424,-1.417897343635559,-2.904144048690796,-2.536442756652832,-1.5777308940887451,-5.097541809082031,6.212597370147705,-0.3056260049343109,-5.11100959777832,-0.7702298164367676,-5.5394816398620605,0.5193902850151062,4.0368523597717285,-0.34991928935050964,5.905003547668457,3.7605433464050293,3.7791709899902344,5.913194179534912,4.154481887817383,-4.132465362548828,6.203283786773682,-6.652257442474365,-3.576563835144043,-4.388360500335693,-6.4441237449646,-0.6354740262031555,-3.9190175533294678,-1.6068710088729858,-6.317923069000244,-1.1748629808425903,-5.601849555969238,6.229862213134766,-0.9151350259780884,-0.46482086181640625,-2.59212327003479,-3.0143916606903076,-2.5515122413635254,-5.628713607788086,-6.468560218811035,-2.6495816707611084,5.562730312347412,3.5121078491210938,1.9206510782241821,5.0908050537109375,0.46973028779029846,2.2456696033477783,1.7608639001846313,1.7895903587341309,2.293562173843384,1.544014811515808,2.042186975479126,5.570219993591309,5.341989040374756,2.9877960681915283,2.972681999206543,3.4380643367767334,5.816684246063232,2.3449199199676514,4.109631538391113,0.10745646059513092,0.3241153061389923,-0.2843262255191803,-0.6004599332809448,-4.355983734130859,3.085008144378662,-2.1309549808502197,-6.061071872711182,-1.9846125841140747,-2.905165672302246,-5.519792079925537,-5.517337799072266,-2.007736921310425,-1.1743515729904175,-2.318986177444458,-1.8550242185592651,0.7457860112190247,-1.1106723546981812,-2.5914547443389893,-0.9079977869987488,-4.8676652908325195,-3.889533042907715,-5.5119171142578125,5.280397891998291,0.9487695097923279,5.075623989105225,-0.24011558294296265,0.8090384602546692,4.557519912719727,2.236830472946167,2.5740864276885986,2.975059747695923,1.2449721097946167,3.2534775733947754,3.9617767333984375,2.296182632446289,0.994085431098938,1.1714223623275757,4.634169578552246,2.691143274307251,2.368774652481079,5.0611186027526855,1.0259941816329956,1.929565668106079,-1.8703007698059082,-1.0598169565200806,-5.017058849334717,-2.4173946380615234,-2.554994583129883,1.0837374925613403
32,3.1722755432128906,-1.2565088272094727,-1.2061938047409058,-2.3051352500915527,-3.4825279712677,-3.2744874954223633,-1.413192868232727,-2.8991165161132812,-2.586622953414917,-1.6417210102081299,-5.088708400726318,6.220820903778076,-0.3311476409435272,-5.080670356750488,-0.7474097013473511,-5.511507987976074,0.5193643569946289,4.030402660369873,-0.3428427577018738,5.938391208648682,3.730828285217285,3.765382766723633,5.904326915740967,4.086592674255371,-4.20035457611084,6.213617324829102,-6.6611247062683105,-3.5903520584106445,-4.431295394897461,-6.410677433013916,-0.6449261903762817,-3.924309492111206,-1.6068968772888184,-6.309699535369873,-1.1176782846450806,-5.607588291168213,6.258219242095947,-0.9062893986701965,-0.4915786683559418,-2.6420702934265137,-3.01601243019104,-2.551164388656616,-5.612093448638916,-6.472388744354248,-2.6370162963867188,5.575295925140381,3.5082790851593018,1.8583647012710571,5.107425212860107,0.4700782895088196,2.244048833847046,1.7109168767929077,1.762832522392273,2.302407741546631,1.5426617860794067,2.00071120262146,5.515707015991211,5.326354026794434,2.9956371784210205,2.967501640319824,3.432478427886963,5.859330654144287,2.4064698219299316,4.094597816467285,0.16809315979480743,0.321552574634552,-0.2868889570236206,-0.5398232340812683,-4.3710174560546875,3.0251293182373047,-2.093522548675537,-6.029593467712402,-2.014925003051758,-2.9099128246307373,-5.535427093505859,-5.571850776672363,-2.049212694168091,-1.1757045984268188,-2.3142921924591064,-1.9080619812011719,0.7422656416893005,-1.1654762029647827,-2.5800952911376953,-0.9199745655059814,-4.839073657989502,-3.8695859909057617,-5.486928462982178,5.305386543273926,0.9687167406082153,5.104215621948242,-0.2520923614501953,0.8173788785934448,4.5688796043396,2.1820266246795654,2.5210485458374023,2.9797537326812744,1.2496765851974487,3.214590072631836,4.019653797149658,2.3059682846069336,1.0007081031799316,1.1325159072875977,4.6284308433532715,2.661638021469116,2.3491499423980713,5.069986820220947,1.06133234500885,1.8813447952270508,-1.9185216426849365,-1.024478793144226,-5.008190631866455,-2.4526476860046387,-2.5909178256988525,1.14092218875885
33,3.1739628314971924,-1.2165839672088623,-1.2336167097091675,-2.287940502166748,-3.555373191833496,-3.2371740341186523,-1.4151403903961182,-2.8951165676116943,-2.5286459922790527,-1.5783910751342773,-5.11245059967041,6.188507080078125,-0.2870934009552002,-5.118776321411133,-0.7687329053878784,-5.535435676574707,0.5306907892227173,4.017208576202393,-0.3977600038051605,5.905198097229004,3.7762980461120605,3.806771993637085,5.8837361335754395,4.165449619293213,-4.121497631072998,6.224047660827637,-6.681715488433838,-3.5489628314971924,-4.4399566650390625,-6.438607692718506,-0.6680129170417786,-3.932858467102051,-1.59557044506073,-6.342013359069824,-1.1634997129440308,-5.6156840324401855,6.245257377624512,-0.9065605401992798,-0.48487451672554016,-2.5757558345794678,-3.0082106590270996,-2.5333104133605957,-5.634881496429443,-6.483741283416748,-2.6352880001068115,5.577024459838867,3.4969263076782227,1.9122661352157593,5.08463716506958,0.4879322946071625,2.2518506050109863,1.7772313356399536,1.7695367336273193,2.3021364212036133,1.5455838441848755,2.040606737136841,5.603289604187012,5.360406875610352,3.0010061264038086,2.982430934906006,3.464416265487671,5.824997901916504,2.3375091552734375,4.115607261657715,0.1041594073176384,0.3282623291015625,-0.2801792025566101,-0.6037569642066956,-4.350008010864258,3.090674638748169,-2.1341209411621094,-6.051668167114258,-1.9626984596252441,-2.892721176147461,-5.501374244689941,-5.4842681884765625,-2.00931715965271,-1.17278254032135,-2.309067964553833,-1.8506704568862915,0.7496314644813538,-1.0936384201049805,-2.6031179428100586,-0.9009024500846863,-4.88024377822876,-3.893671989440918,-5.514477252960205,5.277837753295898,0.94463050365448,5.063045501708984,-0.23302021622657776,0.8112418055534363,4.545856952667236,2.2538645267486572,2.578439950942993,2.984977960586548,1.2477290630340576,3.251903533935547,3.9468085765838623,2.3231630325317383,0.9733071327209473,1.1722381114959717,4.620335102081299,2.681123733520508,2.3767647743225098,5.068908214569092,1.0079079866409302,1.9301432371139526,-1.8697232007980347,-1.077903151512146,-5.0092692375183105,-2.4310970306396484,-2.5747363567352295,1.0951007604599
34,3.1801490783691406,-1.219714879989624,-1.2044671773910522,-2.3184967041015625,-3.4740707874298096,-3.2651565074920654,-1.4074699878692627,-2.9077672958374023,-2.5836732387542725,-1.6582722663879395,-5.081192493438721,6.252871513366699,-0.3493020832538605,-5.06003999710083,-0.7454132437705994,-5.5071940422058105,0.4733433425426483,4.042611598968506,-0.3192713260650635,5.9315996170043945,3.7492198944091797,3.79377818107605,5.912754058837891,4.098202228546143,-4.188745021820068,6.228202819824219,-6.652697563171387,-3.5619566440582275,-4.457395553588867,-6.401726245880127,-0.6172019243240356,-3.9050838947296143,-1.6529178619384766,-6.27764892578125,-1.122733473777771,-5.6186933517456055,6.28397274017334,-0.9135464429855347,-0.5150594115257263,-2.6427743434906006,-3.011228084564209,-2.5415661334991455,-5.603210926055908,-6.486171245574951,-2.6222617626190186,5.59005069732666,3.4944961071014404,1.8354380130767822,5.116307735443115,0.4796765446662903,2.248833179473877,1.7102127075195312,1.7393518686294556,2.2951505184173584,1.5421628952026367,2.010619640350342,5.51522970199585,5.297111988067627,3.015655994415283,2.9405064582824707,3.422717332839966,5.874565124511719,2.4037482738494873,4.107680797576904,0.16822189092636108,0.31256118416786194,-0.29588034749031067,-0.5396944880485535,-4.357934474945068,3.0171444416046143,-2.1002681255340576,-6.022317886352539,-2.0342841148376465,-2.9349265098571777,-5.564669132232666,-5.572328090667725,-2.039304256439209,-1.1762034893035889,-2.322301149368286,-1.9086164236068726,0.731253445148468,-1.1634265184402466,-2.572235107421875,-0.9440913796424866,-4.823266983032227,-3.872849702835083,-5.488329887390137,5.303985118865967,0.9654528498649597,5.120022296905518,-0.27620911598205566,0.8045624494552612,4.57673978805542,2.1840765476226807,2.520493984222412,2.9717447757720947,1.255399465560913,3.223921060562134,4.028111457824707,2.292606830596924,1.0036965608596802,1.1609710454940796,4.617325782775879,2.655728340148926,2.3676724433898926,5.062286853790283,1.0524545907974243,1.8952348232269287,-1.9046316146850586,-1.0333565473556519,-5.015890598297119,-2.4644885063171387,-2.6109275817871094,1.1358669996261597
35,3.1822071075439453,-1.2390817403793335,-1.2546154260635376,-2.2536725997924805,-3.5350863933563232,-3.2431511878967285,-1.408515214920044,-2.887746810913086,-2.5316104888916016,-1.5970104932785034,-5.120110511779785,6.177736759185791,-0.27362921833992004,-5.119580268859863,-0.7643874883651733,-5.529422283172607,0.5481376647949219,3.9978322982788086,-0.4161074757575989,5.915842533111572,3.784334421157837,3.8349742889404297,5.847369194030762,4.164237976074219,-4.122709274291992,6.233652591705322,-6.718082427978516,-3.5207605361938477,-4.484339237213135,-6.4161810874938965,-0.6982734799385071,-3.94575834274292,-1.5781235694885254,-6.352783679962158,-1.1487069129943848,-5.624520301818848,6.256100654602051,-0.8991387486457825,-0.5129633545875549,-2.577347755432129,-3.0087890625,-2.503861427307129,-5.644474506378174,-6.4947381019592285,-2.6193084716796875,5.59300422668457,3.485928773880005,1.8929979801177979,5.07504415512085,0.5173811316490173,2.251272201538086,1.775639295578003,1.741447925567627,2.309558391571045,1.543593406677246,2.034311532974243,5.602011680603027,5.372309684753418,3.018965005874634,2.99178409576416,3.481539487838745,5.835861682891846,2.3480305671691895,4.123980522155762,0.11251870542764664,0.324140340089798,-0.28430119156837463,-0.5953976511955261,-4.341634750366211,3.0785226821899414,-2.124600410461426,-6.03958797454834,-1.9624968767166138,-2.882009267807007,-5.489471435546875,-5.485546112060547,-2.0156123638153076,-1.1747729778289795,-2.3008344173431396,-1.8578299283981323,0.7455728054046631,-1.0959045886993408,-2.61126446723938,-0.8895266652107239,-4.8843584060668945,-3.8947267532348633,-5.51378870010376,5.278526306152344,0.9435756802558899,5.05893087387085,-0.22164437174797058,0.8110012412071228,4.537710666656494,2.251598358154297,2.5712804794311523,2.993211507797241,1.2543542385101318,3.2459263801574707,3.9670958518981934,2.357430934906006,0.9537088871002197,1.1389105319976807,4.611498832702637,2.672386884689331,2.3833909034729004,5.075584888458252,1.0018260478973389,1.9189211130142212,-1.8809453248977661,-1.0839850902557373,-5.00259256362915,-2.454334259033203,-2.5955679416656494,1.109893560409546
36,3.185641050338745,-1.1878703832626343,-1.2140353918075562,-2.3187670707702637,-3.4813132286071777,-3.2571704387664795,-1.4022793769836426,-2.912301778793335,-2.5715174674987793,-1.6626263856887817,-5.074950695037842,6.250725269317627,-0.34664204716682434,-5.06210470199585,-0.7456054091453552,-5.507562637329102,0.46219900250434875,4.049837112426758,-0.3244350850582123,5.9249396324157715,3.7663638591766357,3.823887586593628,5.903379440307617,4.120303153991699,-4.166644096374512,6.236708641052246,-6.66207218170166,-3.5318472385406494,-4.473313808441162,-6.389648914337158,-0.620718777179718,-3.8919994831085205,-1.6640621423721313,-6.279795169830322,-1.1282802820205688,-5.627249240875244,6.294934272766113,-0.9180993437767029,-0.5369201898574829,-2.6294784545898438,-3.014536142349243,-2.5096750259399414,-5.616715431213379,-6.496945381164551,-2.6082637310028076,5.604048728942871,3.4837217330932617,1.8311705589294434,5.1028032302856445,0.5115674734115601,2.2455251216888428,1.7235084772109985,1.7174911499023438,2.290597915649414,1.54117751121521,2.0195815563201904,5.533684730529785,5.2921552658081055,3.042921304702759,2.9223897457122803,3.428194761276245,5.880637168884277,2.3950698375701904,4.121828079223633,0.1570691466331482,0.302925705909729,-0.3055158257484436,-0.5508472323417664,-4.34378719329834,3.021181344985962,-2.1052870750427246,-6.017949104309082,-2.033640146255493,-2.9519078731536865,-5.5696258544921875,-5.553873062133789,-2.0303423404693604,-1.1771888732910156,-2.326585531234741,-1.8990577459335327,0.7200093269348145,-1.1493169069290161,-2.5748040676116943,-0.9557288885116577,-4.8271050453186035,-3.877121925354004,-5.492323398590088,5.299991607666016,0.961180567741394,5.116184234619141,-0.28784656524658203,0.7939223647117615,4.57417106628418,2.198185920715332,2.530052661895752,2.9674603939056396,1.2605900764465332,3.2319071292877197,4.020869255065918,2.2923364639282227,0.9952777028083801,1.1895015239715576,4.60876989364624,2.6528162956237793,2.386430263519287,5.058077812194824,1.0388200283050537,1.9102016687393188,-1.8896647691726685,-1.0469911098480225,-5.020099639892578,-2.47040057182312,-2.6244699954986572,1.1303201913833618
37,3.186119794845581,-1.2354307174682617,-1.2636162042617798,-2.254958152770996,-3.514646053314209,-3.2466390132904053,-1.4027317762374878,-2.8844058513641357,-2.5397112369537354,-1.6206859350204468,-5.106024742126465,6.194046497344971,-0.28664523363113403,-5.108538627624512,-0.7612393498420715,-5.526320934295654,0.5305770635604858,3.99950909614563,-0.39766624569892883,5.927468776702881,3.7813515663146973,3.8510897159576416,5.841962814331055,4.16027307510376,-4.126674175262451,6.241769313812256,-6.723488807678223,-3.5046451091766357,-4.507736682891846,-6.395225524902344,-0.6897439360618591,-3.940349817276001,-1.5956841707229614,-6.3364739418029785,-1.1404041051864624,-5.631843090057373,6.2698869705200195,-0.895063579082489,-0.535959005355835,-2.581571102142334,-3.0148682594299316,-2.4739291667938232,-5.656056880950928,-6.505120754241943,-2.6062498092651367,5.606062889099121,3.47554612159729,1.8721493482589722,5.063461780548096,0.5473133325576782,2.2451930046081543,1.7714158296585083,1.7184522151947021,2.313633680343628,1.5420743227005005,2.0313057899475098,5.591728210449219,5.357524871826172,3.046992063522339,2.9767491817474365,3.4758379459381104,5.846737384796143,2.3594439029693604,4.126376628875732,0.12322551757097244,0.3175184726715088,-0.2909230589866638,-0.5846908688545227,-4.33923864364624,3.0633838176727295,-2.1158220767974854,-6.0306715965271,-1.9812947511672974,-2.8968489170074463,-5.504256248474121,-5.4958295822143555,-2.018618106842041,-1.176292061805725,-2.2974092960357666,-1.8674548864364624,0.7393001914024353,-1.1009037494659424,-2.607653856277466,-0.9035301208496094,-4.87486457824707,-3.8946456909179688,-5.512820243835449,5.279494762420654,0.9436568021774292,5.068424701690674,-0.2356477975845337,0.809609591960907,4.541321277618408,2.246598958969116,2.5616555213928223,2.9966366291046143,1.260137677192688,3.242438554763794,3.9875364303588867,2.3561453819274902,0.9462644457817078,1.13825523853302,4.604176044464111,2.660083055496216,2.387300729751587,5.078777313232422,1.0061355829238892,1.9052979946136475,-1.8945684432983398,-1.079675555229187,-4.9994001388549805,-2.471431016921997,-2.6163110733032227,1.1181963682174683
38,3.1880199909210205,-1.1905035972595215,-1.233059048652649,-2.297588586807251,-3.4820139408111572,-3.2545900344848633,-1.3974578380584717,-2.915729284286499,-2.564702033996582,-1.6704720258712769,-5.076219081878662,6.243216514587402,-0.33823850750923157,-5.067093849182129,-0.7446992993354797,-5.5073370933532715,0.4747905135154724,4.038808822631836,-0.3388670086860657,5.917282581329346,3.780383586883545,3.8466222286224365,5.88342809677124,4.128047466278076,-4.158899784088135,6.246208667755127,-6.682023525238037,-3.509112596511841,-4.492125511169434,-6.383856773376465,-0.6377895474433899,-3.8999075889587402,-1.6514707803726196,-6.287303924560547,-1.128944754600525,-5.634411334991455,6.299257755279541,-0.9216676950454712,-0.5529996156692505,-2.61869478225708,-3.019071578979492,-2.4768028259277344,-5.6351518630981445,-6.5072021484375,-2.5963339805603027,5.615978717803955,3.4734644889831543,1.829508900642395,5.084366798400879,0.5444396734237671,2.2409896850585938,1.7342921495437622,1.7014116048812866,2.28702974319458,1.5403728485107422,2.0232350826263428,5.547646999359131,5.304025173187256,3.0665857791900635,2.9292054176330566,3.4354212284088135,5.880478382110596,2.383894920349121,4.130338668823242,0.1504535675048828,0.29823964834213257,-0.31020188331604004,-0.5574628114700317,-4.3352766036987305,3.0226454734802246,-2.110062599182129,-6.0196428298950195,-2.0311100482940674,-2.944570302963257,-5.557755947113037,-5.539910793304443,-2.026688814163208,-1.1779935359954834,-2.329909086227417,-1.8924076557159424,0.7209932804107666,-1.1384801864624023,-2.5850226879119873,-0.9523434638977051,-4.835351943969727,-3.878587245941162,-5.493472576141357,5.298842430114746,0.9597153067588806,5.107937335968018,-0.2844611406326294,0.7862213850021362,4.563952445983887,2.2090225219726562,2.536702871322632,2.964136838912964,1.265411615371704,3.234487533569336,4.020168304443359,2.3135149478912354,0.9774457216262817,1.1841565370559692,4.601607799530029,2.6534841060638428,2.399991035461426,5.05324125289917,1.0281764268875122,1.910534143447876,-1.8893322944641113,-1.057634711265564,-5.024936199188232,-2.468212604522705,-2.6294517517089844,1.1296557188034058
39,3.186861991882324,-1.2172749042510986,-1.2709120512008667,-2.259042739868164,-3.504601001739502,-3.24729323387146,-1.3980735540390015,-2.880321741104126,-2.544109582901001,-1.642430305480957,-5.0964860916137695,6.21006965637207,-0.29950177669525146,-5.097745895385742,-0.7610428333282471,-5.526803970336914,0.5165911316871643,4.004014492034912,-0.38289517164230347,5.9392194747924805,3.7804770469665527,3.8585944175720215,5.846268177032471,4.155979156494141,-4.13096809387207,6.2506103515625,-6.719183444976807,-3.497140407562256,-4.521628379821777,-6.377910614013672,-0.6813275814056396,-3.933459997177124,-1.6096701622009277,-6.320450782775879,-1.137506127357483,-5.6386871337890625,6.282211780548096,-0.8900708556175232,-0.5509027242660522,-2.581024646759033,-3.0175108909606934,-2.4505863189697266,-5.661806583404541,-6.5156989097595215,-2.595585584640503,5.616727352142334,3.4649674892425537,1.8596059083938599,5.057712078094482,0.5706562399864197,2.2425503730773926,1.771962285041809,1.7035084962844849,2.318626642227173,1.5415633916854858,2.0314366817474365,5.586604118347168,5.345545291900635,3.070749044418335,2.967998743057251,3.469794988632202,5.854992389678955,2.360703229904175,4.122348785400391,0.13033419847488403,0.3178115785121918,-0.29062995314598083,-0.5775821805000305,-4.343266487121582,3.052891731262207,-2.1116528511047363,-6.024191856384277,-1.995795488357544,-2.905320882797241,-5.516235828399658,-5.500953674316406,-2.0184872150421143,-1.1768029928207397,-2.2933030128479004,-1.8723641633987427,0.736970067024231,-1.102033257484436,-2.604785203933716,-0.9180047512054443,-4.868907928466797,-3.8959434032440186,-5.51357364654541,5.278741359710693,0.942359209060669,5.074381351470947,-0.25012245774269104,0.8107521533966064,4.544189929962158,2.245469331741333,2.556746482849121,3.0007429122924805,1.2647958993911743,3.2417843341827393,3.9975812435150146,2.3520607948303223,0.9403061270713806,1.1553852558135986,4.597332000732422,2.647614002227783,2.392061233520508,5.081099987030029,1.011487603187561,1.898123025894165,-1.9017434120178223,-1.0743235349655151,-4.997077465057373,-2.4778354167938232,-2.6346471309661865,1.1210943460464478
40,3.1881322860717773,-1.1906976699829102,-1.2496814727783203,-2.285064220428467,-3.4812259674072266,-3.254086494445801,-1.393323302268982,-2.9196717739105225,-2.558840751647949,-1.6828546524047852,-5.077787399291992,6.239887237548828,-0.3334491550922394,-5.067903995513916,-0.743018627166748,-5.5060954093933105,0.48396798968315125,4.029857158660889,-0.3479037582874298,5.907988548278809,3.797567129135132,3.8631269931793213,5.870726585388184,4.128671646118164,-4.158275604248047,6.254786968231201,-6.694725036621094,-3.492607831954956,-4.5020880699157715,-6.383187770843506,-0.6476849317550659,-3.906834363937378,-1.6422933340072632,-6.290633201599121,-1.1280205249786377,-5.64100456237793,6.302753925323486,-0.9255355596542358,-0.5626529455184937,-2.6100752353668213,-3.0195910930633545,-2.4502153396606445,-5.646058082580566,-6.51638650894165,-2.5852267742156982,5.6270856857299805,3.464279890060425,1.8291634321212769,5.073460578918457,0.5710272192955017,2.2404701709747314,1.742911458015442,1.691758394241333,2.2831618785858154,1.5403127670288086,2.0245890617370605,5.557138442993164,5.311464786529541,3.085183620452881,2.9385335445404053,3.4383785724639893,5.879121780395508,2.371220111846924,4.135194301605225,0.14594420790672302,0.2976396083831787,-0.3108019232749939,-0.5619722008705139,-4.330420970916748,3.0220916271209717,-2.115779161453247,-6.025417327880859,-2.031930685043335,-2.934706926345825,-5.550316333770752,-5.53041934967041,-2.0253348350524902,-1.178053617477417,-2.3335251808166504,-1.8865339756011963,0.7271205186843872,-1.1306482553482056,-2.5910234451293945,-0.9502070546150208,-4.842254638671875,-3.878007411956787,-5.492163181304932,5.30015230178833,0.9602952003479004,5.101034164428711,-0.28232476115226746,0.7800406813621521,4.5579514503479,2.2168545722961426,2.542576789855957,2.9605207443237305,1.2695461511611938,3.2349910736083984,4.020956039428711,2.3260393142700195,0.9621178507804871,1.1824696063995361,4.595014572143555,2.658841133117676,2.416001558303833,5.0462846755981445,1.0202240943908691,1.9113620519638062,-1.8885043859481812,-1.065587043762207,-5.031892776489258,-2.457594633102417,-2.6298487186431885,1.130579948425293
41,3.185662269592285,-1.2043681144714355,-1.2784311771392822,-2.2597601413726807,-3.496255397796631,-3.247110366821289,-1.3935370445251465,-2.876722812652588,-2.546851396560669,-1.6633790731430054,-5.091068267822266,6.220269203186035,-0.306932657957077,-5.0900797843933105,-0.7625685930252075,-5.529057502746582,0.5103734731674194,4.0069780349731445,-0.3758677840232849,5.95237922668457,3.7763922214508057,3.8546159267425537,5.849252700805664,4.151869773864746,-4.135077476501465,6.25799036026001,-6.716198921203613,-3.5011188983917236,-4.535555362701416,-6.360772132873535,-0.6805812120437622,-3.928823232650757,-1.6158877611160278,-6.310251235961914,-1.1364824771881104,-5.6443772315979,6.290016174316406,-0.8852940201759338,-0.5607309937477112,-2.577876329421997,-3.016702175140381,-2.4290761947631836,-5.6654582023620605,-6.525204181671143,-2.585939645767212,5.626373291015625,3.4554619789123535,1.851866364479065,5.054060459136963,0.5921663045883179,2.243359088897705,1.7751104831695557,1.6936802864074707,2.3234033584594727,1.541096568107605,2.032290458679199,5.584654808044434,5.33922815322876,3.089012622833252,2.9649765491485596,3.465951681137085,5.863265514373779,2.359074354171753,4.114727020263672,0.13626468181610107,0.3223687410354614,-0.2860727906227112,-0.5716516971588135,-4.350888252258301,3.0449748039245605,-2.1064374446868896,-6.019485950469971,-2.0062317848205566,-2.9077823162078857,-5.522552967071533,-5.502902984619141,-2.0176334381103516,-1.1772698163986206,-2.289440870285034,-1.8753739595413208,0.7413848638534546,-1.1012645959854126,-2.602982759475708,-0.9266738891601562,-4.868247032165527,-3.898113250732422,-5.515194416046143,5.277121067047119,0.9401893615722656,5.075041770935059,-0.25879156589508057,0.8136981725692749,4.545991897583008,2.2462382316589355,2.553736686706543,3.0046050548553467,1.2693324089050293,3.24196720123291,4.005926609039307,2.3513433933258057,0.9343264102935791,1.168007493019104,4.591641902923584,2.6336727142333984,2.3915863037109375,5.083327293395996,1.0181941986083984,1.8925572633743286,-1.9073091745376587,-1.0676169395446777,-4.994850158691406,-2.484531879425049,-2.654940366744995,1.1221179962158203
42,3.1867921352386475,-1.1892422437667847,-1.2631514072418213,-2.279170274734497,-3.478400945663452,-3.2542786598205566,-1.3899685144424438,-2.9231245517730713,-2.553753137588501,-1.698654294013977,-5.078965187072754,6.239256381988525,-0.3317802846431732,-5.066244602203369,-0.7412046194076538,-5.504496097564697,0.48963046073913574,4.024574279785156,-0.3531457185745239,5.895945072174072,3.820188522338867,3.8772025108337402,5.862791538238525,4.12515115737915,-4.1617960929870605,6.26147985458374,-6.702660083770752,-3.478532314300537,-4.500345706939697,-6.392802715301514,-0.6517150402069092,-3.9106717109680176,-1.6366307735443115,-6.291264057159424,-1.126863956451416,-5.647075176239014,6.304928302764893,-0.9288293719291687,-0.5680817365646362,-2.602729082107544,-3.017103910446167,-2.4269442558288574,-5.653412818908691,-6.523844242095947,-2.5744967460632324,5.637816429138184,3.456822156906128,1.8290456533432007,5.066105842590332,0.5942983627319336,2.242957353591919,1.7502578496932983,1.6863294839859009,2.2798681259155273,1.5409449338912964,2.024982213973999,5.563180923461914,5.31471586227417,3.10084867477417,2.9437437057495117,3.4384148120880127,5.876992702484131,2.3590424060821533,4.137714385986328,0.14220663905143738,0.29688170552253723,-0.3115598261356354,-0.5657097101211548,-4.3279008865356445,3.020353317260742,-2.118962049484253,-6.035592555999756,-2.034989356994629,-2.928438186645508,-5.547065258026123,-5.52437686920166,-2.0249416828155518,-1.1774214506149292,-2.336106777191162,-1.8806171417236328,0.73272305727005,-1.1247327327728271,-2.59419584274292,-0.9505152106285095,-4.847839832305908,-3.876448154449463,-5.489646911621094,5.302668571472168,0.9618545174598694,5.095448970794678,-0.28263288736343384,0.7759050130844116,4.554778575897217,2.2227699756622314,2.5484936237335205,2.9579391479492188,1.272900938987732,3.2347989082336426,4.0237812995910645,2.3319332599639893,0.9504938721656799,1.1836498975753784,4.588943958282471,2.6721370220184326,2.4355556964874268,5.039137840270996,1.0126473903656006,1.9156793355941772,-1.88418710231781,-1.0731637477874756,-5.039039611816406,-2.439551591873169,-2.6233160495758057,1.1317365169525146
43,3.1832540035247803,-1.195153832435608,-1.2873294353485107,-2.2592813968658447,-3.4881482124328613,-3.246685028076172,-1.388908863067627,-2.8755767345428467,-2.549710750579834,-1.6837598085403442,-5.089066028594971,6.226380825042725,-0.3113340437412262,-5.084652423858643,-0.7648980021476746,-5.531966209411621,0.5089497566223145,4.007699489593506,-0.372283399105072,5.963109493255615,3.7680563926696777,3.83728289604187,5.851691722869873,4.149271488189697,-4.137675762176514,6.263458251953125,-6.713759899139404,-3.5184519290924072,-4.5504326820373535,-6.346635818481445,-0.6846456527709961,-3.92697811126709,-1.6173114776611328,-6.304139614105225,-1.1362324953079224,-5.648831367492676,6.293773174285889,-0.882761538028717,-0.5673006176948547,-2.5729148387908936,-3.0124049186706543,-2.4081647396087646,-5.670003890991211,-6.533207416534424,-2.57696795463562,5.635345458984375,3.4474589824676514,1.8469364643096924,5.0495147705078125,0.6130779385566711,2.2476563453674316,1.7800720930099487,1.6871106624603271,2.3259358406066895,1.5404325723648071,2.03316593170166,5.584336757659912,5.336180210113525,3.104149103164673,2.9628262519836426,3.4632301330566406,5.8733086585998535,2.3579115867614746,4.106321334838867,0.14111371338367462,0.33245062828063965,-0.27599090337753296,-0.5668026208877563,-4.3592939376831055,3.0394091606140137,-2.0990092754364014,-6.017720699310303,-2.0143940448760986,-2.9087069034576416,-5.525600910186768,-5.503221035003662,-2.0167579650878906,-1.1779338121414185,-2.287559986114502,-1.8773456811904907,0.7481525540351868,-1.0990670919418335,-2.601508855819702,-0.9321920275688171,-4.8699140548706055,-3.900580644607544,-5.51701545715332,5.275300025939941,0.9377220273017883,5.0733747482299805,-0.26430967450141907,0.8172655701637268,4.547465801239014,2.2484357357025146,2.551764965057373,3.006485939025879,1.2739605903625488,3.2423925399780273,4.014034271240234,2.3518221378326416,0.9279453754425049,1.1773890256881714,4.587187767028809,2.6180880069732666,2.3843929767608643,5.084957599639893,1.027077317237854,1.8835575580596924,-1.916308879852295,-1.0587338209152222,-4.99321985244751,-2.494258403778076,-2.67836594581604,1.1223679780960083
44,3.184433937072754,-1.188551664352417,-1.275636076927185,-2.2777581214904785,-3.473607063293457,-3.2546353340148926,-1.3873916864395142,-2.9235877990722656,-2.550727605819702,-1.716521978378296,-5.082733154296875,6.239473819732666,-0.3320033550262451,-5.06428861618042,-0.7398216128349304,-5.5032196044921875,0.49395039677619934,4.020877838134766,-0.3561975955963135,5.887394428253174,3.8393237590789795,3.8846919536590576,5.857324123382568,4.117161750793457,-4.169785499572754,6.266313552856445,-6.708127498626709,-3.4710428714752197,-4.4938459396362305,-6.410500526428223,-0.6530762910842896,-3.9133999347686768,-1.6323108673095703,-6.291046619415283,-1.1259605884552002,-5.652649879455566,6.305881500244141,-0.9294850826263428,-0.5701389908790588,-2.5958292484283447,-3.0102267265319824,-2.405817747116089,-5.660892009735107,-6.529702186584473,-2.5643861293792725,5.647927284240723,3.4509642124176025,1.828434944152832,5.058626651763916,0.6154249906539917,2.2498345375061035,1.7571574449539185,1.684272289276123,2.279212236404419,1.5421485900878906,2.024956703186035,5.567166805267334,5.315561771392822,3.1153361797332764,2.9442780017852783,3.436525583267212,5.873706340789795,2.348149538040161,4.136996269226074,0.1390175223350525,0.2943437695503235,-0.3140977621078491,-0.5688987970352173,-4.328619003295898,3.017958879470825,-2.118640661239624,-6.049616813659668,-2.0395569801330566,-2.9254422187805176,-5.546219348907471,-5.52039098739624,-2.0249671936035156,-1.176217794418335,-2.3351428508758545,-1.87462317943573,0.7341169118881226,-1.1197630167007446,-2.5959203243255615,-0.9521130919456482,-4.852235317230225,-3.8748271465301514,-5.487052917480469,5.305262565612793,0.9634755849838257,5.091053485870361,-0.2842307686805725,0.775665819644928,4.553054332733154,2.2277398109436035,2.554487466812134,2.9589030742645264,1.2754777669906616,3.2344422340393066,4.028575420379639,2.333345413208008,0.941588819026947,1.1844955682754517,4.583369255065918,2.686082363128662,2.4510576725006104,5.035137176513672,1.0056297779083252,1.923447608947754,-1.8764188289642334,-1.080181360244751,-5.0430402755737305,-2.4227964878082275,-2.6156952381134033,1.1326398849487305
