,0,1,2,3,4,5,6,7,8,9,10,11,12,13,14,15,16,17,18,19,20,21,22,23,24,25,26,27,28,29,30,31,32,33,34,35,36,37,38,39,40,41,42,43,44,45,46,47,48,49,50,51,52,53,54,55,56,57,58,59,60,61,62,63,64,65,66,67,68,69,70,71,72,73,74,75,76,77,78,79,80,81,82,83,84,85,86,87,88,89,90,91,92,93,94,95,96,97,98,99,100,101,102,103,104,105,106,107,108,109,110,111,112,113
0,0.060727983713150024,-4.221451759338379,-0.27553048729896545,-4.232306003570557,-3.12290096282959,-4.467469215393066,-1.8316690921783447,-1.3035027980804443,-1.1118632555007935,-1.5284091234207153,-1.1135368347167969,0.5480496287345886,-2.21980357170105,-4.238092422485352,-4.177830696105957,-5.934020042419434,2.202944040298462,1.2523442506790161,3.0908749103546143,3.845794200897217,2.7081565856933594,0.9890981912612915,4.436878204345703,0.10722225159406662,-0.10722225159406662,3.7139909267425537,-4.436878204345703,-0.9890981912612915,-2.7081565856933594,-3.845794200897217,-3.0908749103546143,-1.2523442506790161,-2.202944040298462,-0.5480496287345886,-4.385047435760498,-4.465932369232178,2.9904747009277344,-6.147636413574219,-5.513405799865723,-5.651670932769775,-5.701047420501709,-1.167336106300354,-2.9904747009277344,-3.7139909267425537,-0.060727983713150024,2.3858282566070557,5.734448432922363,1.167336106300354,6.004246711730957,3.135984420776367,3.2757985591888428,0.29783061146736145,1.3917474746704102,3.964341402053833,4.7905144691467285,1.8287538290023804,1.2934938669204712,4.179599285125732,5.701047420501709,5.523821830749512,4.0230841636657715,6.116153240203857,2.074465751647949,5.1351094245910645,3.947723627090454,4.64607048034668,-4.64607048034668,-3.947723627090454,-5.1351094245910645,5.651670932769775,-2.074465751647949,-6.116153240203857,-4.0230841636657715,-5.523821830749512,-4.179599285125732,-1.2934938669204712,-1.8287538290023804,-4.7905144691467285,-3.964341402053833,-1.3917474746704102,5.513405799865723,-0.29783061146736145,-3.2757985591888428,-3.135984420776367,-6.004246711730957,-5.734448432922363,-2.3858282566070557,5.934020042419434,4.177830696105957,4.238092422485352,2.21980357170105,6.147636413574219,1.1135368347167969,1.5284091234207153,1.1118632555007935,1.3035027980804443,1.8316690921783447,4.467469215393066,3.12290096282959,4.232306003570557,0.27553048729896545,4.221451759338379,4.465932369232178,4.834519863128662,5.128215789794922,1.3058512210845947,3.1716248989105225,0.9610231518745422,-0.9610231518745422,-3.1716248989105225,-1.3058512210845947,-5.128215789794922,-4.834519863128662,4.385047435760498
1,0.060727983713150024,-4.2742743492126465,-0.22270791232585907,-4.285128116607666,-3.070096731185913,-4.467469215393066,-1.8316690921783447,-1.3035027980804443,-1.1118632555007935,-1.4755868911743164,-1.1663594245910645,0.6008630990982056,-2.2726261615753174,-4.290915012359619,-4.177830696105957,-5.934020042419434,2.2557666301727295,1.3051668405532837,3.0380523204803467,3.845794200897217,2.7081565856933594,0.9890981912612915,4.4897003173828125,0.05439986288547516,-0.16004464030265808,3.7139909267425537,-4.384056091308594,-0.9890981912612915,-2.7081565856933594,-3.845794200897217,-3.143697500228882,-1.1995216608047485,-2.1501214504241943,-0.4952361583709717,-4.385047435760498,-4.465932369232178,2.937652111053467,-6.147636413574219,-5.513405799865723,-5.598848819732666,-5.753870010375977,-1.2201586961746216,-3.043297290802002,-3.7139909267425537,-0.060727983713150024,2.3858282566070557,5.734448432922363,1.1145135164260864,5.9514241218566895,3.0831618309020996,3.222975969314575,0.35065293312072754,1.3917474746704102,3.964341402053833,4.7905144691467285,1.8287538290023804,1.3443678617477417,4.232421398162842,5.648224830627441,5.576644420623779,4.075906276702881,6.116153240203857,2.074465751647949,5.1351094245910645,4.000545501708984,4.5932488441467285,-4.698892116546631,-3.894901752471924,-5.1351094245910645,5.704493045806885,-2.074465751647949,-6.116153240203857,-3.970261573791504,-5.470999240875244,-4.126777172088623,-1.2426198720932007,-1.8287538290023804,-4.7905144691467285,-3.964341402053833,-1.3917474746704102,5.513405799865723,-0.24500830471515656,-3.3286211490631104,-3.1888070106506348,-6.057069301605225,-5.734448432922363,-2.3858282566070557,5.934020042419434,4.177830696105957,4.185269832611084,2.1669809818267822,6.147636413574219,1.0607142448425293,1.5812313556671143,1.1118632555007935,1.3035027980804443,1.8316690921783447,4.467469215393066,3.1757051944732666,4.179483890533447,0.32835304737091064,4.168629169464111,4.465932369232178,4.834519863128662,5.128215789794922,1.3058512210845947,3.224447250366211,0.9082005620002747,-1.0138458013534546,-3.118802547454834,-1.3058512210845947,-5.128215789794922,-4.834519863128662,4.385047435760498
2,0.1129753366112709,-4.322724342346191,-0.18423576653003693,-4.240100860595703,-3.1223409175872803,-4.519718170166016,-1.779420256614685,-1.2512543201446533,-1.0596145391464233,-1.5269635915756226,-1.1975312232971191,0.548618495464325,-2.3248486518859863,-4.273336410522461,-4.125581741333008,-5.986268997192383,2.2433512210845947,1.312233328819275,2.991387128829956,3.7935454845428467,2.6559078693389893,0.9368494153022766,4.514331817626953,0.10140160471200943,-0.11304289847612381,3.7662389278411865,-4.359424591064453,-1.0413469076156616,-2.7604050636291504,-3.898042917251587,-3.1901097297668457,-1.1904271841049194,-2.162536859512329,-0.5474807620048523,-4.332798480987549,-4.4136834144592285,2.9446287155151367,-6.0953874588012695,-5.461156845092773,-5.650071620941162,-5.784333229064941,-1.2722996473312378,-3.0270895957946777,-3.7662391662597656,-0.11297453939914703,2.3335816860198975,5.682199954986572,1.0623914003372192,5.967631816864014,3.0310206413269043,3.1925125122070312,0.2994299829006195,1.4439961910247803,4.016590118408203,4.738265514373779,1.8810023069381714,1.3966169357299805,4.232580184936523,5.617159843444824,5.593212604522705,4.057201385498047,6.168402194976807,2.126713991165161,5.1873579025268555,4.052119255065918,4.644314765930176,-4.647826194763184,-3.8433282375335693,-5.082860946655273,5.653468132019043,-2.022217273712158,-6.063904285430908,-3.9912333488464355,-5.455136775970459,-4.126618385314941,-1.190370798110962,-1.7765053510665894,-4.842763423919678,-3.912092924118042,-1.33949875831604,5.565654754638672,-0.29615381360054016,-3.359438180923462,-3.2409937381744385,-6.037076950073242,-5.7866973876953125,-2.438076972961426,5.881771087646484,4.125581741333008,4.205262184143066,2.1147942543029785,6.199885368347168,1.0298970937728882,1.5300859212875366,1.1641119718551636,1.3557512760162354,1.8839179277420044,4.415220260620117,3.1234610080718994,4.22451114654541,0.3671097755432129,4.119872093200684,4.518181324005127,4.782270908355713,5.0759687423706055,1.2536027431488037,3.261967420578003,0.878755509853363,-1.0432908535003662,-3.081282377243042,-1.3580996990203857,-5.075967788696289,-4.886768817901611,4.437296390533447
3,0.16950365900993347,-4.341876029968262,-0.15798231959342957,-4.282696723937988,-3.0921149253845215,-4.476273059844971,-1.8206636905670166,-1.3072104454040527,-1.1155821084976196,-1.472182273864746,-1.215721607208252,0.5553035140037537,-2.313833236694336,-4.263855457305908,-4.072976589202881,-5.933167457580566,2.262334108352661,1.3387479782104492,3.002690553665161,3.8460206985473633,2.7000691890716553,0.992418646812439,4.4586663246154785,0.04581756517291069,-0.16862693428993225,3.821256637573242,-4.415090084075928,-0.9857776761054993,-2.7107012271881104,-3.845383644104004,-3.166179895401001,-1.1641737222671509,-2.1435539722442627,-0.5407957434654236,-4.387142658233643,-4.466287136077881,2.9372925758361816,-6.1513471603393555,-5.517088890075684,-5.5950493812561035,-5.801460266113281,-1.2582377195358276,-3.0337822437286377,-3.711355209350586,-0.05664708837866783,2.389909029006958,5.737083911895752,1.0753355026245117,5.960938930511475,3.0450828075408936,3.1753857135772705,0.3544524312019348,1.3880641460418701,3.960630178451538,4.684293270111084,1.8263497352600098,1.341367483139038,4.192468166351318,5.599856376647949,5.612613201141357,4.031896591186523,6.112611770629883,2.183258295059204,5.131066799163818,3.9990689754486084,4.588681221008301,-4.703459739685059,-3.896378755569458,-5.1391520500183105,5.70873498916626,-1.9660263061523438,-6.119453430175781,-4.014094352722168,-5.435551166534424,-4.1667304039001465,-1.2456202507019043,-1.831157922744751,-4.896735668182373,-3.96808123588562,-1.3954473733901978,5.5096917152404785,-0.24108488857746124,-3.376356601715088,-3.2269058227539062,-6.024173259735107,-5.754854202270508,-2.3835227489471436,5.936325550079346,4.1574249267578125,4.218165874481201,2.1288821697235107,6.143977165222168,1.0129786729812622,1.5851547718048096,1.1081633567810059,1.2997628450393677,1.8426744937896729,4.458665370941162,3.153687000274658,4.181915283203125,0.38426709175109863,4.105812072753906,4.465577602386475,4.835632801055908,5.1320013999938965,1.3095158338546753,3.3184497356414795,0.8668588995933533,-1.055187463760376,-3.0248000621795654,-1.3021866083145142,-5.0194196701049805,-4.833199501037598,4.3829522132873535
4,0.11814018338918686,-4.3873677253723145,-0.12356828898191452,-4.260661602020264,-3.1108293533325195,-4.441399097442627,-1.7625203132629395,-1.29132080078125,-1.08260178565979,-1.442014455795288,-1.237502098083496,0.516770601272583,-2.3443875312805176,-4.237058162689209,-4.055011749267578,-5.980930805206299,2.2634735107421875,1.3718137741088867,3.0538644790649414,3.8304102420806885,2.697772979736328,0.9690351486206055,4.430005073547363,0.016216550022363663,-0.19822795689105988,3.7656679153442383,-4.443751335144043,-1.009161114692688,-2.698441505432129,-3.8642759323120117,-3.1160218715667725,-1.1329357624053955,-2.1424145698547363,-0.5793286561965942,-4.384261608123779,-4.412367343902588,2.9552500247955322,-6.14155387878418,-5.488349914550781,-5.563563823699951,-5.8242292404174805,-1.28533136844635,-3.005518913269043,-3.7626545429229736,-0.10669288039207458,2.3398633003234863,5.685784816741943,1.0460386276245117,5.989202499389648,3.017989158630371,3.152616500854492,0.3859380781650543,1.4168033599853516,3.970423698425293,4.717595100402832,1.8475298881530762,1.3504743576049805,4.17523717880249,5.577139854431152,5.600821495056152,4.0392889976501465,6.134079933166504,2.1568217277526855,5.162829399108887,4.051357746124268,4.5869011878967285,-4.705239772796631,-3.844090223312378,-5.107389450073242,5.739988327026367,-2.0174567699432373,-6.105022430419922,-4.018985271453857,-5.446561813354492,-4.183961391448975,-1.236513376235962,-1.8099777698516846,-4.863433837890625,-3.952086925506592,-1.3643321990966797,5.535987377166748,-0.20741717517375946,-3.3991215229034424,-3.2544970512390137,-5.993172645568848,-5.816002368927002,-2.43583607673645,5.884012222290039,4.096276760101318,4.249166488647461,2.1012909412384033,6.155187129974365,0.9902138113975525,1.618822455406189,1.139278531074524,1.3157572746276855,1.90081787109375,4.493539333343506,3.13497257232666,4.20395040512085,0.4147564470767975,4.057639122009277,4.519497394561768,4.796249866485596,5.089358329772949,1.290204405784607,3.2837798595428467,0.8682945966720581,-1.053751826286316,-3.0594699382781982,-1.3214980363845825,-5.047321319580078,-4.871448040008545,4.385833263397217
5,0.1711600124835968,-4.424724578857422,-0.08884771913290024,-4.239053726196289,-3.111227512359619,-4.405043125152588,-1.803728699684143,-1.3163682222366333,-1.1071113348007202,-1.4085277318954468,-1.2522273063659668,0.48531803488731384,-2.3756556510925293,-4.24629020690918,-3.9931442737579346,-5.929455757141113,2.2426023483276367,1.4043102264404297,3.0489094257354736,3.817343235015869,2.6512973308563232,0.9865853786468506,4.423550128936768,-0.020487310364842415,-0.2349318265914917,3.8275275230407715,-4.450206279754639,-0.9916108846664429,-2.721334457397461,-3.8744800090789795,-3.12113881111145,-1.1037778854370117,-2.163285732269287,-0.610781192779541,-4.373910903930664,-4.456902503967285,2.9437363147735596,-6.166195392608643,-5.511791229248047,-5.527475833892822,-5.84217643737793,-1.3187406063079834,-3.0116257667541504,-3.705573797225952,-0.05355183780193329,2.3930044174194336,5.742865562438965,1.007524013519287,5.983095645904541,2.9845798015594482,3.134669303894043,0.4220258891582489,1.393362283706665,3.945782423019409,4.656216621398926,1.851197600364685,1.3282181024551392,4.111712455749512,5.559715747833252,5.588390827178955,4.046018123626709,6.102280616760254,2.151947259902954,5.150949954986572,4.023667335510254,4.569455623626709,-4.72268533706665,-3.8717803955078125,-5.119268894195557,5.775191783905029,-2.05627179145813,-6.148470401763916,-4.013674736022949,-5.456346035003662,-4.247486114501953,-1.2587696313858032,-1.8063100576400757,-4.924812316894531,-3.9759092330932617,-1.3872135877609253,5.506890773773193,-0.16975224018096924,-3.4170236587524414,-3.288113594055176,-5.995014667510986,-5.770514011383057,-2.383713483810425,5.9361348152160645,4.141765117645264,4.247324466705322,2.067674398422241,6.135356903076172,0.9723116755485535,1.6564873456954956,1.1163971424102783,1.291934847831726,1.8596094846725464,4.529895305633545,3.1345744132995605,4.225558280944824,0.4457273483276367,4.021355152130127,4.47496223449707,4.8247833251953125,5.055113792419434,1.3120958805084229,3.3164572715759277,0.8890392184257507,-1.0330071449279785,-3.026792526245117,-1.2996065616607666,-5.063591480255127,-4.844333171844482,4.396183967590332
6,0.1273461878299713,-4.45448112487793,-0.05908975750207901,-4.219244956970215,-3.135026454925537,-4.347666263580322,-1.7514070272445679,-1.2726720571517944,-1.0764329433441162,-1.3800241947174072,-1.2506372928619385,0.44244712591171265,-2.4066457748413086,-4.252283096313477,-4.003897666931152,-5.977130889892578,2.217944860458374,1.4255887269973755,3.0833709239959717,3.8425846099853516,2.710521936416626,0.9508845210075378,4.382861614227295,-0.04828067123889923,-0.26272520422935486,3.7811710834503174,-4.490894794464111,-1.0273118019104004,-2.652644157409668,-3.856201171875,-3.0854227542877197,-1.0891163349151611,-2.18794322013855,-0.6536521315574646,-4.3679518699646,-4.40981388092041,2.9268712997436523,-6.128815174102783,-5.479694843292236,-5.497621536254883,-5.849254131317139,-1.355500340461731,-3.014429807662964,-3.755521059036255,-0.0969485193490982,2.3496077060699463,5.692918300628662,0.9644224047660828,5.980291843414307,2.947819948196411,3.127591371536255,0.45187997817993164,1.425458550453186,3.9831626415252686,4.688910484313965,1.8722596168518066,1.3079490661621094,4.1077680587768555,5.552936553955078,5.555521488189697,3.9894042015075684,6.123079776763916,2.1438238620758057,5.168961048126221,4.059131622314453,4.566799640655518,-4.725341320037842,-3.8363161087036133,-5.101257801055908,5.804872989654541,-2.0796077251434326,-6.143388748168945,-4.0763936042785645,-5.488615036010742,-4.251430511474609,-1.279038667678833,-1.785248041152954,-4.892118453979492,-3.9314398765563965,-1.353410005569458,5.5352044105529785,-0.13778188824653625,-3.4235622882843018,-3.323629379272461,-5.996082305908203,-5.828970909118652,-2.430358648300171,5.889489650726318,4.083308219909668,4.2462568283081055,2.032158613204956,6.169713973999023,0.9657730460166931,1.6884576082229614,1.1502007246017456,1.3364042043685913,1.9119311571121216,4.5872721672058105,3.1107754707336426,4.245367050170898,0.4734649956226349,3.9871597290039062,4.522050857543945,4.803363800048828,5.030300617218018,1.2667489051818848,3.285553455352783,0.9122627973556519,-1.0097836256027222,-3.0576963424682617,-1.3449535369873047,-5.083047866821289,-4.867169380187988,4.4021430015563965
7,0.17195741832256317,-4.46864652633667,-0.028429284691810608,-4.230341911315918,-3.142045021057129,-4.334553241729736,-1.7786329984664917,-1.3446993827819824,-1.111612319946289,-1.3596208095550537,-1.2400877475738525,0.41471776366233826,-2.418903350830078,-4.287499904632568,-3.9508068561553955,-5.942408084869385,2.2153491973876953,1.418382167816162,3.0683693885803223,3.786738395690918,2.6394472122192383,1.0141797065734863,4.437216758728027,-0.060774609446525574,-0.2752191424369812,3.8191885948181152,-4.436539649963379,-0.9640165567398071,-2.7147178649902344,-3.8897764682769775,-3.104949712753296,-1.0984705686569214,-2.1905388832092285,-0.6813815236091614,-4.409653663635254,-4.446658611297607,2.881648540496826,-6.201626777648926,-5.508545398712158,-5.475436687469482,-5.851754665374756,-1.3817460536956787,-3.0529065132141113,-3.7217557430267334,-0.05330019071698189,2.3932559490203857,5.726683616638184,0.9255759716033936,5.941815376281738,2.921574354171753,3.1250903606414795,0.4740643799304962,1.3966079950332642,3.9103505611419678,4.635628700256348,1.8188955783843994,1.3231687545776367,4.063560485839844,5.550806522369385,5.5280303955078125,3.997152090072632,6.1005635261535645,2.178342342376709,5.162327289581299,4.036247730255127,4.563139915466309,-4.729001045227051,-3.8591997623443604,-5.10789155960083,5.827332496643066,-2.0921425819396973,-6.170578479766846,-4.076234340667725,-5.515052318572998,-4.295638084411621,-1.2638189792633057,-1.8386120796203613,-4.945400238037109,-4.003503322601318,-1.3843690156936646,5.497504711151123,-0.11345984786748886,-3.425365447998047,-3.349121332168579,-6.025623321533203,-5.805021286010742,-2.3921995162963867,5.927649021148682,4.107257843017578,4.2167158126831055,2.006666660308838,6.097001552581787,0.9639698266983032,1.7127796411514282,1.119241714477539,1.2643406391143799,1.8847051858901978,4.6003851890563965,3.103756904602051,4.234270095825195,0.504586935043335,3.971803665161133,4.485206127166748,4.830933094024658,5.0385050773620605,1.3384803533554077,3.3285531997680664,0.9362714290618896,-0.9857749938964844,-3.0146965980529785,-1.2732220888137817,-5.067116737365723,-4.841916561126709,4.360441207885742
8,0.14384841918945312,-4.471185207366943,-0.009575488977134228,-4.233695030212402,-3.13910174369812,-4.299637794494629,-1.7374647855758667,-1.283515214920044,-1.0788257122039795,-1.3624213933944702,-1.2186671495437622,0.3876464366912842,-2.4430205821990967,-4.262392997741699,-3.937077760696411,-5.975333213806152,2.177384853363037,1.404059648513794,3.1268486976623535,3.8329169750213623,2.7043821811676025,0.952284574508667,4.367932319641113,-0.07467018067836761,-0.28911474347114563,3.7927417755126953,-4.505824089050293,-1.0259116888046265,-2.6462385654449463,-3.8450422286987305,-3.0474987030029297,-1.119249939918518,-2.2285032272338867,-0.7084528207778931,-4.373555660247803,-4.413150787353516,2.882338285446167,-6.141323089599609,-5.468066692352295,-5.474992275238037,-5.8453168869018555,-1.4188083410263062,-3.032092332839966,-3.739523410797119,-0.08259829133749008,2.3639578819274902,5.708915710449219,0.885290801525116,5.962629795074463,2.884512186050415,3.13152813911438,0.47450876235961914,1.4370869398117065,3.9706547260284424,4.6530914306640625,1.8691444396972656,1.2700742483139038,4.111611843109131,5.556396484375,5.487794876098633,3.933795213699341,6.134754657745361,2.1729304790496826,5.168905258178711,4.046867370605469,4.5698041915893555,-4.722336769104004,-3.8485801219940186,-5.101313591003418,5.835916996002197,-2.088101387023926,-6.1513895988464355,-4.142546653747559,-5.556424140930176,-4.247586727142334,-1.3169134855270386,-1.7883632183074951,-4.9279375076293945,-3.942248821258545,-1.345326542854309,5.538275241851807,-0.1134415715932846,-3.419386863708496,-3.3874106407165527,-5.998912334442139,-5.838501930236816,-2.425363302230835,5.894484996795654,4.073777198791504,4.24342679977417,1.9683771133422852,6.15744686126709,0.9699485301971436,1.7127978801727295,1.1582841873168945,1.3255951404571533,1.9258733987808228,4.635300636291504,3.1067001819610596,4.230916976928711,0.524290144443512,3.9639251232147217,4.51871395111084,4.823437213897705,4.991954326629639,1.2771176099777222,3.289243221282959,0.9358763098716736,-0.9861701130867004,-3.054006576538086,-1.3345848321914673,-5.0890655517578125,-4.851563930511475,4.396539211273193
9,0.1759577840566635,-4.480811595916748,0.020542528480291367,-4.283534526824951,-3.16074538230896,-4.306565284729004,-1.7524768114089966,-1.3256725072860718,-1.115244746208191,-1.339224934577942,-1.2039726972579956,0.3634284734725952,-2.420562505722046,-4.31704044342041,-3.8887882232666016,-5.954700946807861,2.2137725353240967,1.3899298906326294,3.09334397315979,3.7896454334259033,2.662537097930908,0.991193950176239,4.3976263999938965,-0.0860474556684494,-0.3004920184612274,3.8033499717712402,-4.47613000869751,-0.9870023131370544,-2.682821750640869,-3.8760268688201904,-3.08548903465271,-1.132861852645874,-2.192115545272827,-0.732670783996582,-4.429890155792236,-4.435691833496094,2.827484607696533,-6.184558391571045,-5.494734764099121,-5.45346736907959,-5.8490447998046875,-1.41471529006958,-3.089092493057251,-3.722874402999878,-0.05097103863954544,2.395585060119629,5.725564956665039,0.8655984401702881,5.905629634857178,2.8886053562164307,3.1277999877929688,0.4960336983203888,1.41041898727417,3.927419662475586,4.607197284698486,1.813785433769226,1.316041350364685,4.091118335723877,5.554016590118408,5.461258888244629,3.9527153968811035,6.113926410675049,2.1931395530700684,5.168951988220215,4.000990390777588,4.569112777709961,-4.723028182983398,-3.8944571018218994,-5.101266860961914,5.858730316162109,-2.1110117435455322,-6.176741600036621,-4.130371570587158,-5.5821757316589355,-4.268080234527588,-1.2709463834762573,-1.8437222242355347,-4.973831653594971,-3.984492063522339,-1.3761829137802124,5.501794338226318,-0.09114137291908264,-3.4237442016601562,-3.383934497833252,-6.047096252441406,-5.82295560836792,-2.40022349357605,5.9196248054504395,4.0893235206604,4.195242881774902,1.9718533754348755,6.11560583114624,0.9655911326408386,1.7350980043411255,1.1274278163909912,1.2833517789840698,1.9108613729476929,4.628373146057129,3.0850565433502197,4.181077480316162,0.5552811622619629,3.9533004760742188,4.496172904968262,4.833552837371826,5.023715496063232,1.3195295333862305,3.3315587043762207,0.9447516202926636,-0.9772948026657104,-3.011691093444824,-1.292172908782959,-5.052877902984619,-4.842134952545166,4.34020471572876
10,0.15101070702075958,-4.477485656738281,0.03569091111421585,-4.311415672302246,-3.1374266147613525,-4.284038543701172,-1.7151994705200195,-1.2976998090744019,-1.0821927785873413,-1.3578118085861206,-1.1733508110046387,0.3490735590457916,-2.4261951446533203,-4.282522201538086,-3.864715099334717,-5.984768867492676,2.14900803565979,1.3582943677902222,3.1507129669189453,3.8093228340148926,2.6969006061553955,0.956240177154541,4.358287334442139,-0.06710237264633179,-0.281546950340271,3.7615013122558594,-4.515469074249268,-1.021955966949463,-2.645357608795166,-3.8620641231536865,-3.028355360031128,-1.1575217247009277,-2.256880044937134,-0.7470256686210632,-4.370605945587158,-4.407100677490234,2.8562533855438232,-6.157066345214844,-5.456085205078125,-5.473222732543945,-5.8376593589782715,-1.4466930627822876,-3.0612852573394775,-3.7399773597717285,-0.07660253345966339,2.3699536323547363,5.708462238311768,0.8235500454902649,5.933436870574951,2.8566274642944336,3.1391851902008057,0.47627881169319153,1.4490687847137451,3.954911470413208,4.61910343170166,1.8696885108947754,1.2559055089950562,4.123411655426025,5.564222812652588,5.4207658767700195,3.9027819633483887,6.14597225189209,2.191835403442383,5.187969207763672,4.037408351898193,4.592967987060547,-4.6991729736328125,-3.858038902282715,-5.082249641418457,5.846988677978516,-2.109865188598633,-6.150310516357422,-4.181032657623291,-5.625533103942871,-4.2357869148254395,-1.3310822248458862,-1.7878191471099854,-4.961925506591797,-3.956541061401367,-1.3384581804275513,5.540565490722656,-0.11220873892307281,-3.414642810821533,-3.414898633956909,-6.0107741355896,-5.858313083648682,-2.4338860511779785,5.88596248626709,4.053966045379639,4.231564998626709,1.9408893585205078,6.141598701477051,0.9746925234794617,1.7140306234359741,1.1651525497436523,1.3113027811050415,1.94813871383667,4.650899887084961,3.108375310897827,4.153196334838867,0.5714608430862427,3.94659686088562,4.524764060974121,4.840976715087891,5.005705833435059,1.2915562391281128,3.2948296070098877,0.9162693023681641,-1.00577712059021,-3.0484201908111572,-1.3201462030410767,-5.053928852081299,-4.834625244140625,4.399488925933838
11,0.18283197283744812,-4.501307010650635,0.06503886729478836,-4.366209030151367,-3.160933017730713,-4.339008331298828,-1.7240493297576904,-1.321244716644287,-1.1276092529296875,-1.3315701484680176,-1.1537319421768188,0.3316057026386261,-2.4054338932037354,-4.333128929138184,-3.806945323944092,-5.962987899780273,2.1862692832946777,1.3514901399612427,3.1183362007141113,3.7933216094970703,2.6765565872192383,0.9802244305610657,4.3807759284973145,-0.09572112560272217,-0.3101657032966614,3.775714159011841,-4.492980480194092,-0.9979717135429382,-2.6568284034729004,-3.867445945739746,-3.065434455871582,-1.1622658967971802,-2.219618797302246,-0.7644935250282288,-4.422609329223633,-4.428725242614746,2.809868812561035,-6.180774688720703,-5.488749980926514,-5.447622299194336,-5.844141483306885,-1.43295156955719,-3.117980480194092,-3.7064690589904785,-0.04257696121931076,2.4039793014526367,5.741970539093018,0.8080040812492371,5.876741886138916,2.8703689575195312,3.1327030658721924,0.5018793940544128,1.416404128074646,3.9312028884887695,4.568292617797852,1.8192930221557617,1.303837776184082,4.0815749168396,5.560415744781494,5.394510269165039,3.947101354598999,6.120172023773193,2.215961456298828,5.165658950805664,3.9731826782226562,4.58087158203125,-4.711269378662109,-3.922264575958252,-5.104559898376465,5.876349449157715,-2.118962287902832,-6.179205894470215,-4.141417980194092,-5.649801254272461,-4.277623653411865,-1.2831499576568604,-1.838214635848999,-5.0127363204956055,-3.980074644088745,-1.3770431280136108,5.501582622528076,-0.08712830394506454,-3.42307186126709,-3.4032421112060547,-6.057734966278076,-5.825068950653076,-2.4079906940460205,5.911857604980469,4.087210178375244,4.184604167938232,1.9525458812713623,6.119579315185547,0.9662635326385498,1.739111065864563,1.1265676021575928,1.287769079208374,1.939288854598999,4.595930099487305,3.084868907928467,4.098402976989746,0.6004655957221985,3.9239232540130615,4.503139495849609,4.835565090179443,5.000823974609375,1.3149909973144531,3.343933582305908,0.9276514053344727,-0.9943950176239014,-2.9993162155151367,-1.2967114448547363,-5.041455268859863,-4.838835716247559,4.347485542297363
12,0.15612110495567322,-4.499777793884277,0.06720536202192307,-4.402519702911377,-3.1337668895721436,-4.291598320007324,-1.6899621486663818,-1.3018494844436646,-1.08554208278656,-1.3487521409988403,-1.1170116662979126,0.3272313177585602,-2.4083738327026367,-4.308526992797852,-3.7910542488098145,-5.998627662658691,2.121671199798584,1.3193175792694092,3.161620855331421,3.8020336627960205,2.698387861251831,0.9500706195831299,4.355503559112549,-0.0635785385966301,-0.2780231237411499,3.712175130844116,-4.518252849578857,-1.0281254053115845,-2.631453037261963,-3.87300705909729,-3.0199077129364014,-1.180047869682312,-2.28421688079834,-0.7688679099082947,-4.3564324378967285,-4.395068168640137,2.8392648696899414,-6.161947727203369,-5.441033363342285,-5.473454475402832,-5.834498882293701,-1.4631505012512207,-3.1016428470611572,-3.752031087875366,-0.06950035691261292,2.3770558834075928,5.696408271789551,0.7622866630554199,5.8930792808532715,2.840169906616211,3.142345666885376,0.47604724764823914,1.4641209840774536,3.9500298500061035,4.5739665031433105,1.8749719858169556,1.244696021080017,4.124820709228516,5.569663047790527,5.361279010772705,3.8823742866516113,6.152878284454346,2.208671808242798,5.194721698760986,4.026407241821289,4.615589141845703,-4.676551818847656,-3.86903977394104,-5.075497150421143,5.856451988220215,-2.130211591720581,-6.148505210876465,-4.203210353851318,-5.6860833168029785,-4.234377861022949,-1.3422917127609253,-1.7825356721878052,-5.0070624351501465,-3.9607927799224854,-1.3298430442810059,5.546530246734619,-0.11710063368082047,-3.416508436203003,-3.4312849044799805,-6.035418510437012,-5.877923011779785,-2.4470741748809814,5.872774600982666,4.034356117248535,4.206920623779297,1.924503207206726,6.135925769805908,0.9728269577026367,1.7091387510299683,1.1737676858901978,1.3070510625839233,1.9733760356903076,4.643340110778809,3.112035036087036,4.062092304229736,0.6034178137779236,3.90716290473938,4.536796569824219,4.860633850097656,5.0047783851623535,1.2959370613098145,3.3016560077667236,0.8743459582328796,-1.0477004051208496,-3.0415937900543213,-1.315765380859375,-5.02869176864624,-4.8124589920043945,4.413662433624268
13,0.18592272698879242,-4.532809257507324,0.08827932178974152,-4.45682954788208,-3.1616714000701904,-4.36820650100708,-1.6831578016281128,-1.3209196329116821,-1.1351577043533325,-1.3201569318771362,-1.0920426845550537,0.31485432386398315,-2.404926061630249,-4.344497203826904,-3.7273619174957275,-5.9739298820495605,2.158705949783325,1.3162492513656616,3.1469292640686035,3.797928810119629,2.6815733909606934,0.9733321666717529,4.378007888793945,-0.09751582145690918,-0.3119604289531708,3.737151622772217,-4.495748519897461,-1.0048637390136719,-2.635873317718506,-3.8657944202423096,-3.0412399768829346,-1.1812232732772827,-2.2471821308135986,-0.7812449336051941,-4.4176812171936035,-4.41477108001709,2.8097705841064453,-6.180670261383057,-5.477055549621582,-5.444334983825684,-5.843649387359619,-1.451151728630066,-3.1496524810791016,-3.702104091644287,-0.03730139136314392,2.409255027770996,5.746335506439209,0.7422769665718079,5.845069408416748,2.8521687984466553,3.133195161819458,0.5051664113998413,1.4280987977981567,3.931307315826416,4.5262627601623535,1.8191827535629272,1.2965680360794067,4.063977241516113,5.5649261474609375,5.33400297164917,3.943770408630371,6.119965553283691,2.2361855506896973,5.158915042877197,3.967416524887085,4.591447353363037,-4.700693607330322,-3.928030490875244,-5.111303806304932,5.889679431915283,-2.1310503482818604,-6.183343887329102,-4.144629001617432,-5.711629390716553,-4.295221328735352,-1.2904196977615356,-1.8383249044418335,-5.0547661781311035,-3.9799563884735107,-1.3708900213241577,5.505235195159912,-0.08802253007888794,-3.428449869155884,-3.4210402965545654,-6.074249744415283,-5.835118293762207,-2.4241909980773926,5.895657539367676,4.077160835266113,4.168089389801025,1.9347478151321411,6.119581699371338,0.9608855247497559,1.7382168769836426,1.132720708847046,1.287887692451477,1.9801803827285767,4.566731929779053,3.0841305255889893,4.007782459259033,0.6204134225845337,3.875920534133911,4.517093658447266,4.824046611785889,4.988627910614014,1.3147790431976318,3.354111433029175,0.8981056809425354,-1.0239406824111938,-2.98913836479187,-1.2969233989715576,-5.0176286697387695,-4.840362548828125,4.352413654327393
14,0.16407671570777893,-4.5314788818359375,0.07622351497411728,-4.495283603668213,-3.130775213241577,-4.332968711853027,-1.6548506021499634,-1.3003965616226196,-1.0967857837677002,-1.3346368074417114,-1.0484676361083984,0.32637831568717957,-2.4199037551879883,-4.327513217926025,-3.713818311691284,-6.006699085235596,2.097498655319214,1.2959140539169312,3.1701996326446533,3.801172971725464,2.696075916290283,0.9438976645469666,4.358275413513184,-0.06190251186490059,-0.2763471305370331,3.6785411834716797,-4.515480995178223,-1.034298300743103,-2.616574287414551,-3.8824563026428223,-3.0134005546569824,-1.1836670637130737,-2.30838942527771,-0.7697209119796753,-4.357894420623779,-4.3821563720703125,2.834538221359253,-6.160762310028076,-5.4297308921813965,-5.468867301940918,-5.838562965393066,-1.4791207313537598,-3.144641637802124,-3.745562791824341,-0.0598042868077755,2.386752128601074,5.702876567840576,0.6955103278160095,5.8500800132751465,2.824199676513672,3.1382813453674316,0.480633944272995,1.4754235744476318,3.9512155055999756,4.524521827697754,1.8751453161239624,1.247795581817627,4.119438171386719,5.5699028968811035,5.321063041687012,3.879845142364502,6.149291515350342,2.223367691040039,5.185603618621826,4.015847206115723,4.629299163818359,-4.662841796875,-3.8795998096466064,-5.084615230560303,5.86828088760376,-2.1539955139160156,-6.156459808349609,-4.2060675621032715,-5.727283954620361,-4.239760398864746,-1.3391921520233154,-1.7823623418807983,-5.056507110595703,-3.9597220420837402,-1.3247184753417969,5.547421932220459,-0.12184466421604156,-3.426673173904419,-3.450453042984009,-6.066641807556152,-5.88547420501709,-2.461832284927368,5.858016490936279,4.0268049240112305,4.175697326660156,1.9053350687026978,6.13788366317749,0.9626622200012207,1.7043946981430054,1.1788922548294067,1.3081220388412476,2.0084877014160156,4.6019697189331055,3.1150267124176025,3.9693284034729004,0.6093131303787231,3.852389335632324,4.549708366394043,4.870120048522949,4.982488632202148,1.2947043180465698,3.3164632320404053,0.83931964635849,-1.0827267169952393,-3.0267865657806396,-1.3169981241226196,-5.003887176513672,-4.791207313537598,4.412200450897217
15,0.1858065128326416,-4.562668800354004,0.08070731908082962,-4.547582626342773,-3.1595892906188965,-4.403552055358887,-1.6376851797103882,-1.3238260746002197,-1.1414849758148193,-1.3028576374053955,-1.015425443649292,0.32456791400909424,-2.42756986618042,-4.358020782470703,-3.656982421875,-5.985439300537109,2.1244213581085205,1.302319884300232,3.1705591678619385,3.8026621341705322,2.673166513442993,0.9731308817863464,4.380836009979248,-0.09306666254997253,-0.30751127004623413,3.685375928878784,-4.492920398712158,-1.0050650835037231,-2.625098943710327,-3.8698623180389404,-3.019636392593384,-1.177322506904602,-2.2814667224884033,-0.7715312838554382,-4.413682460784912,-4.393187046051025,2.823068380355835,-6.184233665466309,-5.460567951202393,-5.435827732086182,-5.846554279327393,-1.4698395729064941,-3.1850762367248535,-3.7101802825927734,-0.03612475469708443,2.4104316234588623,5.7382588386535645,0.6698211431503296,5.809645652770996,2.8334810733795166,3.1302902698516846,0.5136738419532776,1.4445863962173462,3.9277443885803223,4.486577987670898,1.823656678199768,1.299660325050354,4.070749759674072,5.566394805908203,5.296506881713867,3.9377312660217285,6.121426105499268,2.252896547317505,5.1532440185546875,3.97017502784729,4.599853038787842,-4.692287921905518,-3.925271987915039,-5.116974830627441,5.903998851776123,-2.1476519107818604,-6.184268951416016,-4.150125026702881,-5.750912189483643,-4.288448810577393,-1.2873274087905884,-1.8338509798049927,-5.094450950622559,-3.9833438396453857,-1.3593580722808838,5.509877681732178,-0.09119251370429993,-3.4376187324523926,-3.4429147243499756,-6.100560665130615,-5.858975887298584,-2.4493520259857178,5.87049674987793,4.053303241729736,4.141778469085693,1.9128735065460205,6.116440296173096,0.9517166018486023,1.7350468635559082,1.1442526578903198,1.2845003604888916,2.02565336227417,4.531386375427246,3.086212635040283,3.9170291423797607,0.6046044826507568,3.8220860958099365,4.53867769241333,4.819958686828613,4.977423667907715,1.3180104494094849,3.363758087158203,0.8697306513786316,-1.0523157119750977,-2.979491710662842,-1.2936919927597046,-4.978393077850342,-4.82867956161499,4.356412410736084
16,0.1735670417547226,-4.558973789215088,0.06028751656413078,-4.580573558807373,-3.1539087295532227,-4.379709243774414,-1.611897349357605,-1.2920455932617188,-1.1096667051315308,-1.3266925811767578,-0.9646115899085999,0.3412242531776428,-2.4619877338409424,-4.346371650695801,-3.636857748031616,-6.00793981552124,2.074618339538574,1.285622000694275,3.183199644088745,3.809220790863037,2.6908159255981445,0.9380029439926147,4.35710334777832,-0.054554302245378494,-0.2689988911151886,3.6451244354248047,-4.516653060913086,-1.04019296169281,-2.6007184982299805,-3.8838632106781006,-3.0021278858184814,-1.179803729057312,-2.3312697410583496,-0.7548750042915344,-4.364156723022461,-4.366313934326172,2.850969076156616,-6.152613639831543,-5.417443752288818,-5.460454940795898,-5.8458123207092285,-1.4986883401870728,-3.182497024536133,-3.7303857803344727,-0.05048232525587082,2.396074056625366,5.718053340911865,0.6208922863006592,5.812224864959717,2.8046321868896484,3.1310319900512695,0.48904648423194885,1.4877105951309204,3.959364175796509,4.481035232543945,1.8741458654403687,1.267176866531372,4.121453285217285,5.565937519073486,5.31203031539917,3.8933839797973633,6.148836612701416,2.2392756938934326,5.172447204589844,4.009574890136719,4.640402793884277,-4.651738166809082,-3.8858723640441895,-5.097771644592285,5.881357192993164,-2.1722099781036377,-6.159689903259277,-4.1936211585998535,-5.737499713897705,-4.23774528503418,-1.3198108673095703,-1.783361792564392,-5.099993705749512,-3.951921224594116,-1.317979335784912,5.546622276306152,-0.12870271503925323,-3.439992904663086,-3.4777510166168213,-6.095816612243652,-5.8950629234313965,-2.479135274887085,5.8407135009765625,4.017216205596924,4.146522521972656,1.8780373334884644,6.148972988128662,0.9493423700332642,1.6975367069244385,1.1856313943862915,1.3159230947494507,2.051441192626953,4.555229187011719,3.091893196105957,3.8840384483337402,0.5882118344306946,3.79728364944458,4.565550804138184,4.866443157196045,4.943977355957031,1.2864795923233032,3.3323166370391846,0.8215343356132507,-1.1005120277404785,-3.0109331607818604,-1.3252228498458862,-4.973960876464844,-4.778219699859619,4.405938148498535
17,0.18482591211795807,-4.575826644897461,0.04507868364453316,-4.630234241485596,-3.1587586402893066,-4.439762115478516,-1.5918371677398682,-1.3321162462234497,-1.1493265628814697,-1.284814715385437,-0.9238210916519165,0.3618849217891693,-2.463270902633667,-4.388332366943359,-3.590226411819458,-5.9915666580200195,2.088285446166992,1.3144426345825195,3.1792006492614746,3.8082330226898193,2.653102397918701,0.9817553758621216,4.386005401611328,-0.08920099586248398,-0.3036455810070038,3.6364078521728516,-4.487751007080078,-0.9964405298233032,-2.6252918243408203,-3.867252826690674,-3.010648488998413,-1.1532474756240845,-2.3176026344299316,-0.7342143654823303,-4.41152286529541,-4.368263244628906,2.847727060317993,-6.193337440490723,-5.44537878036499,-5.417462348937988,-5.8483476638793945,-1.4789361953735352,-3.223017930984497,-3.707913398742676,-0.03692637011408806,2.409630060195923,5.740525722503662,0.6016263961791992,5.771703720092773,2.8243842124938965,3.1284968852996826,0.5320389270782471,1.4597759246826172,3.918640613555908,4.4562554359436035,1.8286687135696411,1.307913899421692,4.090559482574463,5.565541744232178,5.29945182800293,3.9475886821746826,6.122626781463623,2.2610113620758057,5.152692794799805,3.973433017730713,4.602999210357666,-4.689141750335693,-3.9220142364501953,-5.117526054382324,5.9250030517578125,-2.174915313720703,-6.1820549964904785,-4.141201496124268,-5.749901294708252,-4.268639087677002,-1.2790738344192505,-1.8288389444351196,-5.1247735023498535,-3.9921202659606934,-1.3483591079711914,5.509770393371582,-0.09304409474134445,-3.445033311843872,-3.46285343170166,-6.133083820343018,-5.88502836227417,-2.4774370193481445,5.842411518096924,4.02725076675415,4.109255313873291,1.8929349184036255,6.108894348144531,0.9443019032478333,1.7331953048706055,1.1552516222000122,1.2757240533828735,2.0715014934539795,4.495176315307617,3.087043285369873,3.8343780040740967,0.557249128818512,3.7821648120880127,4.563601493835449,4.820361614227295,4.957074165344238,1.326568365097046,3.3743338584899902,0.857420802116394,-1.0646255016326904,-2.9689159393310547,-1.2851340770721436,-4.936828136444092,-4.813056468963623,4.358572006225586
18,0.18097899854183197,-4.573355197906494,0.023849712684750557,-4.63431453704834,-3.2121639251708984,-4.419171333312988,-1.5706018209457397,-1.2793140411376953,-1.1205686330795288,-1.3347471952438354,-0.8665826320648193,0.3589438796043396,-2.5226187705993652,-4.386154651641846,-3.5691800117492676,-6.005936622619629,2.057295083999634,1.2773066759109497,3.2155091762542725,3.818704128265381,2.6889169216156006,0.9306485652923584,4.346944808959961,-0.03657209873199463,-0.25101667642593384,3.6091504096984863,-4.526811599731445,-1.047547459602356,-2.582019805908203,-3.8683488368988037,-2.975114345550537,-1.184938669204712,-2.34859299659729,-0.7371554374694824,-4.368697166442871,-4.349249362945557,2.8873634338378906,-6.139794826507568,-5.4069976806640625,-5.456266403198242,-5.847385406494141,-1.524672269821167,-3.207953929901123,-3.7104475498199463,-0.0442657545208931,2.4022905826568604,5.7379913330078125,0.5412876605987549,5.786767482757568,2.7786481380462646,3.1294591426849365,0.49323493242263794,1.498157024383545,3.9721832275390625,4.4511942863464355,1.8755401372909546,1.2837553024291992,4.131538391113281,5.5611772537231445,5.331299304962158,3.9248433113098145,6.1525349617004395,2.2604804039001465,5.154489517211914,4.0025954246521,4.650068283081055,-4.642072677612305,-3.8928513526916504,-5.115729331970215,5.888278484344482,-2.1764602661132812,-6.154757976531982,-4.164202690124512,-5.720310211181641,-4.227660179138184,-1.3032324314117432,-1.7819675207138062,-5.1298346519470215,-3.939648151397705,-1.3120369911193848,5.543111324310303,-0.14370910823345184,-3.44635009765625,-3.5149142742156982,-6.112918853759766,-5.908797740936279,-2.4986519813537598,5.821196556091309,4.003481388092041,4.129420280456543,1.8408740758895874,6.166491508483887,0.9429850578308105,1.6825302839279175,1.1915737390518188,1.3281961679458618,2.0927367210388184,4.5157670974731445,3.0336380004882812,3.8302979469299316,0.5494385361671448,3.755920171737671,4.582615375518799,4.856194496154785,4.904762268066406,1.2738540172576904,3.3452913761138916,0.8203023672103882,-1.1017439365386963,-2.9979584217071533,-1.337848424911499,-4.938592910766602,-4.77388334274292,4.401397705078125
19,0.1829734444618225,-4.556761264801025,-0.007724749855697155,-4.694478511810303,-3.1520769596099854,-4.466222286224365,-1.5528711080551147,-1.337567925453186,-1.1495778560638428,-1.2695335149765015,-0.8256697058677673,0.413075715303421,-2.491542339324951,-4.446494102478027,-3.533348321914673,-5.994012355804443,2.053363561630249,1.3414908647537231,3.158778429031372,3.804689407348633,2.6359596252441406,0.9885351061820984,4.390422344207764,-0.08893992751836777,-0.3033845126628876,3.5945370197296143,-4.483334064483643,-0.989660918712616,-2.6239187717437744,-3.8457705974578857,-3.028932571411133,-1.118699312210083,-2.352524518966675,-0.6830235719680786,-4.406099796295166,-4.3431925773620605,2.8762478828430176,-6.19880485534668,-5.429701805114746,-5.394062042236328,-5.844563007354736,-1.4725117683410645,-3.259164333343506,-3.6976704597473145,-0.03897538408637047,2.407580852508545,5.750768661499023,0.5545054078102112,5.7355570793151855,2.830808639526367,3.13228178024292,0.5554391741752625,1.4754531383514404,3.9131734371185303,4.435657978057861,1.8352583646774292,1.3088452816009521,4.1185688972473145,5.564127445220947,5.343507289886475,3.974846363067627,6.124323844909668,2.2537999153137207,5.161054611206055,3.976595163345337,4.596619606018066,-4.695521354675293,-3.918851613998413,-5.109164237976074,5.950910568237305,-2.212090015411377,-6.178189754486084,-4.1166839599609375,-5.708885192871094,-4.24062967300415,-1.2781424522399902,-1.8222492933273315,-5.145370960235596,-3.997952938079834,-1.3358137607574463,5.506956100463867,-0.09196168929338455,-3.4446542263031006,-3.470778703689575,-6.164152145385742,-5.907772064208984,-2.5019960403442383,5.81785249710083,4.004507064819336,4.078186988830566,1.8850098848342896,6.107748031616211,0.9446810483932495,1.7342777252197266,1.1677969694137573,1.2698912620544434,2.1104671955108643,4.468716144561768,3.0937249660491943,3.7701339721679688,0.4910229444503784,3.7752909660339355,4.588672161102295,4.829397678375244,4.931388854980469,1.3321815729141235,3.376513957977295,0.8566781282424927,-1.0653680562973022,-2.96673583984375,-1.279520869255066,-4.91241979598999,-4.794472694396973,4.36399507522583
20,0.18368008732795715,-4.567312717437744,-0.022834302857518196,-4.656900405883789,-3.2376482486724854,-4.448003768920898,-1.5387626886367798,-1.2801035642623901,-1.133374810218811,-1.3403589725494385,-0.7657680511474609,0.3773837089538574,-2.5763752460479736,-4.448917865753174,-3.5197691917419434,-6.0070624351501465,2.0494837760925293,1.2784558534622192,3.2439486980438232,3.8016586303710938,2.6800596714019775,0.9339357018470764,4.341151237487793,-0.015372847206890583,-0.22981742024421692,3.5747854709625244,-4.532605171203613,-1.0442602634429932,-2.575827121734619,-3.842064380645752,-2.949861526489258,-1.180130124092102,-2.3564043045043945,-0.7187156081199646,-4.37320613861084,-4.334890365600586,2.9292969703674316,-6.139677047729492,-5.408514976501465,-5.4549994468688965,-5.840640068054199,-1.5475283861160278,-3.220649480819702,-3.6922354698181152,-0.04174927994608879,2.4048068523406982,5.756203651428223,0.47137418389320374,5.774072170257568,2.7557921409606934,3.136204957962036,0.49450162053108215,1.4966402053833008,3.9723012447357178,4.435063362121582,1.8739982843399048,1.2922635078430176,4.139531135559082,5.555577754974365,5.367183685302734,3.96840500831604,6.1502203941345215,2.2759761810302734,5.13339900970459,3.9857633113861084,4.652023792266846,-4.640117168426514,-3.9096834659576416,-5.136819839477539,5.890620231628418,-2.1742725372314453,-6.155339241027832,-4.123156547546387,-5.690343856811523,-4.219667434692383,-1.2947242259979248,-1.783509373664856,-5.145965576171875,-3.9407947063446045,-1.3163827657699585,5.5309553146362305,-0.15868864953517914,-3.442019462585449,-3.548082113265991,-6.119528770446777,-5.92310094833374,-2.5176517963409424,5.802196979522705,3.989178419113159,4.122810363769531,1.807706594467163,6.172121047973633,0.9473158121109009,1.6675506830215454,1.1872279644012451,1.3270493745803833,2.124575614929199,4.486934661865234,3.0081536769866943,3.8077120780944824,0.5022689700126648,3.747735023498535,4.5969743728637695,4.829935550689697,4.880447864532471,1.2747327089309692,3.359621524810791,0.8246423602104187,-1.0974037647247314,-2.983628273010254,-1.3369697332382202,-4.8995866775512695,-4.791072845458984,4.396888732910156
21,0.18143904209136963,-4.5239763259887695,-0.06107183173298836,-4.721822261810303,-3.1715335845947266,-4.482168197631836,-1.522493600845337,-1.3306658267974854,-1.1357475519180298,-1.2694627046585083,-0.7279711365699768,0.44286757707595825,-2.5258917808532715,-4.518215179443359,-3.489370107650757,-5.996618747711182,2.0331966876983643,1.3505860567092896,3.16970157623291,3.7849409580230713,2.6305744647979736,0.9837464690208435,4.3837385177612305,-0.07335492968559265,-0.28779950737953186,3.557812213897705,-4.490017890930176,-0.9944494962692261,-2.612076759338379,-3.822089433670044,-3.0199191570281982,-1.1049962043762207,-2.3726913928985596,-0.6532317399978638,-4.4008917808532715,-4.323297500610352,2.9107041358947754,-6.190483093261719,-5.410464286804199,-5.385901927947998,-5.833237648010254,-1.4823877811431885,-3.274815559387207,-3.6850361824035645,-0.04052821174263954,2.4060280323028564,5.763402938842773,0.5085679888725281,5.719905853271484,2.820932626724243,3.1436073780059814,0.5635994076728821,1.4946908950805664,3.9214954376220703,4.422806739807129,1.841918706893921,1.3136929273605347,4.1462812423706055,5.559957504272461,5.406460762023926,4.007527828216553,6.135019302368164,2.2376911640167236,5.168655872344971,3.9804229736328125,4.5901641845703125,-4.701976776123047,-3.9150238037109375,-5.101562976837158,5.96043586730957,-2.230729103088379,-6.172176361083984,-4.087573051452637,-5.65230131149292,-4.212917327880859,-1.2732948064804077,-1.8155889511108398,-5.158222198486328,-3.991457223892212,-1.3185549974441528,5.509180068969727,-0.09943845868110657,-3.4348390102386475,-3.489384889602661,-6.1741557121276855,-5.922934532165527,-2.5203728675842285,5.79947566986084,3.989345073699951,4.068183422088623,1.8664039373397827,6.122328758239746,0.9544963240623474,1.726800799369812,1.1850557327270508,1.2763869762420654,2.1408445835113525,4.452770233154297,3.074268341064453,3.7427899837493896,0.4322550892829895,3.787029266357422,4.608567237854004,4.857531547546387,4.8997392654418945,1.325353741645813,3.3639004230499268,0.8554469347000122,-1.0665992498397827,-2.979349374771118,-1.2863487005233765,-4.917712211608887,-4.761127471923828,4.369203090667725
22,0.17707951366901398,-4.533538818359375,-0.08472853153944016,-4.686206817626953,-3.229586362838745,-4.464364528656006,-1.5111005306243896,-1.287488579750061,-1.1455425024032593,-1.327358365058899,-0.6725481748580933,0.41432350873947144,-2.5961105823516846,-4.537079334259033,-3.479752540588379,-6.007483959197998,2.0286285877227783,1.2986794710159302,3.2367215156555176,3.763360023498535,2.657562732696533,0.9443760514259338,4.348060607910156,-0.009854460135102272,-0.22429902851581573,3.5320394039154053,-4.52569580078125,-1.0338199138641357,-2.5824694633483887,-3.845870018005371,-2.9577383995056152,-1.1497983932495117,-2.3772594928741455,-0.6817758083343506,-4.3759284019470215,-4.317248821258545,2.9551265239715576,-6.145160675048828,-5.420328140258789,-5.441455841064453,-5.829971790313721,-1.5472438335418701,-3.241180658340454,-3.6788759231567383,-0.04533671960234642,2.401219367980957,5.7695631980896,0.43282583355903625,5.753540992736816,2.7560765743255615,3.1468732357025146,0.5080456733703613,1.4848268032073975,3.966817855834961,4.428732395172119,1.8655763864517212,1.2895532846450806,4.149739742279053,5.548111915588379,5.432323932647705,4.012428283691406,6.140048027038574,2.273895025253296,5.119714736938477,3.959012508392334,4.644135475158691,-4.648005485534668,-3.936434268951416,-5.150504112243652,5.905159950256348,-2.1789968013763428,-6.1716461181640625,-4.081425666809082,-5.633965492248535,-4.209458827972412,-1.2974344491958618,-1.7919312715530396,-5.152296543121338,-3.9486851692199707,-1.329951286315918,5.505431175231934,-0.15806038677692413,-3.4325952529907227,-3.5557143688201904,-6.1368865966796875,-5.933905124664307,-2.53452205657959,5.7853264808654785,3.978374481201172,4.105452537536621,1.8000742197036743,6.172091007232666,0.9567400217056274,1.668178915977478,1.1736594438552856,1.3191592693328857,2.1522374153137207,4.470573902130127,3.0162155628204346,3.7784054279327393,0.4351882040500641,3.780036687850952,4.6146159172058105,4.7970452308654785,4.882500171661377,1.28218674659729,3.37148380279541,0.8241150379180908,-1.0979312658309937,-2.9717659950256348,-1.3295156955718994,-4.869215965270996,-4.824323654174805,4.394166469573975
23,0.17299355566501617,-4.475107669830322,-0.12054470926523209,-4.7286295890808105,-3.1849112510681152,-4.494128704071045,-1.4926766157150269,-1.3276726007461548,-1.1087429523468018,-1.2688376903533936,-0.635994017124176,0.46143412590026855,-2.5535271167755127,-4.599523067474365,-3.450780153274536,-5.994511127471924,2.0232841968536377,1.3522264957427979,3.17406964302063,3.76297926902771,2.6143314838409424,0.9856984615325928,4.3742780685424805,-0.054035890847444534,-0.26848044991493225,3.5085318088531494,-4.499478340148926,-0.9924975037574768,-2.6069791316986084,-3.819446325302124,-3.0134880542755127,-1.094035267829895,-2.382603883743286,-0.6346651911735535,-4.40635347366333,-4.305967330932617,2.941344738006592,-6.185661792755127,-5.386971473693848,-5.384783744812012,-5.821872711181641,-1.5000348091125488,-3.285537004470825,-3.6676201820373535,-0.04515702649950981,2.4013988971710205,5.780818939208984,0.45989301800727844,5.709184646606445,2.803285598754883,3.1549718379974365,0.5647178292274475,1.5181833505630493,3.926316738128662,4.422333717346191,1.836879849433899,1.3110225200653076,4.160351276397705,5.549398422241211,5.481558322906494,4.038776397705078,6.152108192443848,2.224797010421753,5.17628288269043,3.9909424781799316,4.596868991851807,-4.695271968841553,-3.9045042991638184,-5.093935966491699,5.961721420288086,-2.2401020526885986,-6.165774822235107,-4.0576324462890625,-5.584558010101318,-4.19884729385376,-1.2759652137756348,-1.8206278085708618,-5.158695220947266,-3.9890687465667725,-1.2961983680725098,5.512487411499023,-0.10809527337551117,-3.425281286239624,-3.512144088745117,-6.181698322296143,-5.929315567016602,-2.5350892543792725,5.784759521484375,3.9829635620117188,4.060640811920166,1.8436444997787476,6.13194465637207,0.9640538096427917,1.7181440591812134,1.2074123620986938,1.2787758111953735,2.170661211013794,4.440809726715088,3.0608906745910645,3.735982656478882,0.371614545583725,3.8229737281799316,4.625897407531738,4.875816822052002,4.867859363555908,1.3223330974578857,3.335951328277588,0.8458879590034485,-1.0761584043502808,-3.007298469543457,-1.2893693447113037,-4.936861515045166,-4.744825839996338,4.363741397857666
24,0.16267400979995728,-4.49583625793457,-0.15081122517585754,-4.7060441970825195,-3.214970827102661,-4.464240074157715,-1.484847068786621,-1.2903226613998413,-1.1665747165679932,-1.3133430480957031,-0.588107168674469,0.44477054476737976,-2.605006217956543,-4.6206793785095215,-3.446598529815674,-6.005299091339111,1.9961678981781006,1.3130658864974976,3.234694004058838,3.736919641494751,2.632755994796753,0.95846027135849,4.3598408699035645,-0.005143798887729645,-0.21958835422992706,3.47383451461792,-4.513915538787842,-1.0197356939315796,-2.5856027603149414,-3.8561553955078125,-2.9607720375061035,-1.1230952739715576,-2.4097201824188232,-0.6513288021087646,-4.372293949127197,-4.297483921051025,2.9714772701263428,-6.146139144897461,-5.446234226226807,-5.4301862716674805,-5.821805953979492,-1.5519685745239258,-3.260999917984009,-3.6693267822265625,-0.053378626704216,2.3931775093078613,5.779112815856934,0.39791762828826904,5.733721733093262,2.751351833343506,3.155038595199585,0.5193154215812683,1.4589203596115112,3.965839385986328,4.429006576538086,1.8584383726119995,1.2817860841751099,4.156952381134033,5.5370259284973145,5.504526615142822,4.040757179260254,6.124460220336914,2.271421432495117,5.109570503234863,3.922311544418335,4.641053676605225,-4.651087284088135,-3.973135232925415,-5.160648345947266,5.917220115661621,-2.1919548511505127,-6.205756187438965,-4.048560619354248,-5.569121837615967,-4.202246189117432,-1.3052016496658325,-1.7990692853927612,-5.152022361755371,-3.951982021331787,-1.3567609786987305,5.459687232971191,-0.15484198927879333,-3.425727605819702,-3.564793825149536,-6.154738426208496,-5.937915802001953,-2.546588897705078,5.773260116577148,3.974363088607788,4.0876007080078125,1.7909948825836182,6.17556619644165,0.9636075496673584,1.67139732837677,1.1468497514724731,1.3158624172210693,2.1784908771514893,4.470698356628418,3.0308310985565186,3.758568525314331,0.36676812171936035,3.8262994289398193,4.63438081741333,4.792158126831055,4.892428398132324,1.2850135564804077,3.389674425125122,0.8167685866355896,-1.1052777767181396,-2.953575372695923,-1.3266888856887817,-4.865968704223633,-4.829561233520508,4.397800922393799
25,0.15680953860282898,-4.426448345184326,-0.1729045957326889,-4.726086616516113,-3.1809914112091064,-4.499950408935547,-1.4642177820205688,-1.3220417499542236,-1.0810410976409912,-1.2641518115997314,-0.5606578588485718,0.47421783208847046,-2.57071590423584,-4.669095993041992,-3.4218297004699707,-5.991345405578613,2.0228443145751953,1.3546602725982666,3.170321464538574,3.7370615005493164,2.5956664085388184,0.9841470122337341,4.359933376312256,-0.036546144634485245,-0.25099068880081177,3.449345588684082,-4.51382303237915,-0.9940489530563354,-2.5998666286468506,-3.8437819480895996,-3.0146217346191406,-1.077853798866272,-2.3830437660217285,-0.6218814849853516,-4.413462162017822,-4.289208889007568,2.957836627960205,-6.178564548492432,-5.364328861236572,-5.383458137512207,-5.818082332611084,-1.519408106803894,-3.296055555343628,-3.6500017642974854,-0.05365720018744469,2.3928990364074707,5.798437595367432,0.41751646995544434,5.698666572570801,2.783912181854248,3.158761978149414,0.5660434365272522,1.540825605392456,3.9334137439727783,4.429841041564941,1.8246573209762573,1.3023039102554321,4.163877487182617,5.531525135040283,5.540842056274414,4.051095485687256,6.183131694793701,2.238344669342041,5.179460525512695,4.004128932952881,4.610488414764404,-4.681652545928955,-3.8913180828094482,-5.090758323669434,5.964174270629883,-2.2443928718566895,-6.149077415466309,-4.031811714172363,-5.532477378845215,-4.195321083068848,-1.2846838235855103,-1.8328503370285034,-5.151187896728516,-3.9838922023773193,-1.2743198871612549,5.520092487335205,-0.1119004637002945,-3.42383074760437,-3.5344040393829346,-6.189967632293701,-5.9211344718933105,-2.5415313243865967,5.778317451477051,3.9911441802978516,4.052371501922607,1.8213845491409302,6.141683578491211,0.9655043482780457,1.7143388986587524,1.2292908430099487,1.283952236175537,2.199120283126831,4.434988021850586,3.0648105144500732,3.7385263442993164,0.3158513307571411,3.853101968765259,4.642655849456787,4.869454383850098,4.897293567657471,1.3167110681533813,3.3048601150512695,0.8227514624595642,-1.099294900894165,-3.0383896827697754,-1.294991374015808,-4.930582046508789,-4.757142543792725,4.356632709503174
26,0.14233987033367157,-4.463932514190674,-0.20162485539913177,-4.718575477600098,-3.1912548542022705,-4.456610202789307,-1.4631651639938354,-1.2964974641799927,-1.1616085767745972,-1.298044204711914,-0.5186582803726196,0.46569061279296875,-2.6024563312530518,-4.6817121505737305,-3.4246010780334473,-6.0058088302612305,1.9715443849563599,1.3243017196655273,3.2297966480255127,3.7346031665802,2.6106960773468018,0.9793565273284912,4.376810550689697,-0.0008472809568047523,-0.215291827917099,3.4070022106170654,-4.496945858001709,-0.9988394379615784,-2.5791070461273193,-3.8521904945373535,-2.9675357341766357,-1.0977717638015747,-2.4343438148498535,-0.6304086446762085,-4.365255832672119,-4.275933742523193,2.9759292602539062,-6.151872634887695,-5.446736812591553,-5.419416427612305,-5.820067882537842,-1.5562621355056763,-3.2777249813079834,-3.6691479682922363,-0.06640243530273438,2.3801536560058594,5.77929162979126,0.3719181418418884,5.716996669769287,2.747058153152466,3.156776189804077,0.5300853252410889,1.4584174156188965,3.9601058959960938,4.432688236236572,1.8556472063064575,1.276552438735962,4.1657633781433105,5.521844863891602,5.553856372833252,4.039238929748535,6.122969627380371,2.2733986377716064,5.116250514984131,3.9194538593292236,4.64555549621582,-4.646585464477539,-3.9759931564331055,-5.153968334197998,5.929109573364258,-2.238083839416504,-6.221615314483643,-4.024662971496582,-5.525223731994629,-4.193435192108154,-1.3104352951049805,-1.8018604516983032,-5.148340702056885,-3.9589762687683105,-1.357344150543213,5.436996936798096,-0.14761509001255035,-3.426724910736084,-3.5717780590057373,-6.169260025024414,-5.93153715133667,-2.5513768196105957,5.768472194671631,3.980741262435913,4.0730791091918945,1.7840107679367065,6.172523021697998,0.9626099467277527,1.6786242723464966,1.1462665796279907,1.3088679313659668,2.2001729011535645,4.478328227996826,3.054547071456909,3.746037721633911,0.31216052174568176,3.848493814468384,4.655930995941162,4.80516242980957,4.864388465881348,1.2911312580108643,3.382293224334717,0.8024471402168274,-1.1195992231369019,-2.960956573486328,-1.3205711841583252,-4.908870220184326,-4.8187255859375,4.404839038848877
27,0.13974039256572723,-4.405361652374268,-0.21091219782829285,-4.724160671234131,-3.1631736755371094,-4.5050249099731445,-1.4380311965942383,-1.313369631767273,-1.0918505191802979,-1.2594720125198364,-0.49977436661720276,0.4813987910747528,-2.5764122009277344,-4.713057041168213,-3.401395082473755,-5.988810062408447,2.022096633911133,1.355379343032837,3.1779441833496094,3.742211103439331,2.586679220199585,0.9869598746299744,4.356912136077881,-0.0276176780462265,-0.24206222593784332,3.392686128616333,-4.516844272613525,-0.9912360906600952,-2.584940195083618,-3.855954647064209,-3.014817237854004,-1.0635181665420532,-2.383791446685791,-0.614700436592102,-4.420593738555908,-4.280111312866211,2.9616363048553467,-6.169520854949951,-5.3805694580078125,-5.3820977210998535,-5.822429656982422,-1.533574104309082,-3.302494525909424,-3.6279184818267822,-0.060177870094776154,2.386378288269043,5.820520877838135,0.38677701354026794,5.692226886749268,2.7697460651397705,3.154414415359497,0.5674039125442505,1.5245845317840576,3.9424571990966797,4.439781665802002,1.808595895767212,1.2992085218429565,4.155101299285889,5.511284828186035,5.564992904663086,4.048280239105225,6.1845831871032715,2.282888412475586,5.163654804229736,3.9829964637756348,4.62680721282959,-4.6653337478637695,-3.9124505519866943,-5.106564044952393,5.967927932739258,-2.2479288578033447,-6.158531665802002,-4.006363868713379,-5.515178680419922,-4.204097270965576,-1.2877792119979858,-1.8489117622375488,-5.141247272491455,-3.976147413253784,-1.291189432144165,5.490067958831787,-0.11297892034053802,-3.4306232929229736,-3.5510053634643555,-6.1930012702941895,-5.8992600440979,-2.539327621459961,5.780521392822266,4.0130181312561035,4.049337863922119,1.8047834634780884,6.15353536605835,0.9587115049362183,1.713260531425476,1.2124212980270386,1.2916966676712036,2.225306987762451,4.429913520812988,3.0826282501220703,3.740452766418457,0.2739558219909668,3.8681836128234863,4.6517534255981445,4.847774028778076,4.94140625,1.3085325956344604,3.3117833137512207,0.8002210259437561,-1.1218253374099731,-3.031466484069824,-1.303169846534729,-4.896867275238037,-4.781182765960693,4.349501132965088
28,0.12387850880622864,-4.4240241050720215,-0.23085513710975647,-4.731406211853027,-3.1707589626312256,-4.43930721282959,-1.4521191120147705,-1.299150824546814,-1.1387089490890503,-1.2848963737487793,-0.46220651268959045,0.4721096456050873,-2.595775604248047,-4.717343807220459,-3.4230921268463135,-6.023141860961914,1.964110016822815,1.3272626399993896,3.215752601623535,3.7625229358673096,2.6006853580474854,0.9885650873184204,4.381115913391113,0.0004015672020614147,-0.21404299139976501,3.3401389122009277,-4.492640495300293,-0.9896308779716492,-2.556920051574707,-3.826580047607422,-2.984792947769165,-1.082526683807373,-2.4417779445648193,-0.6239895820617676,-4.352108955383301,-4.26057767868042,2.973395824432373,-6.1553144454956055,-5.429324150085449,-5.409665107727051,-5.82591438293457,-1.5599952936172485,-3.2864573001861572,-3.6769165992736816,-0.0824107751250267,2.364145278930664,5.771522521972656,0.352946400642395,5.708263874053955,2.7433249950408936,3.1509296894073486,0.5398361682891846,1.475830078125,3.9566638469696045,4.4383955001831055,1.8636763095855713,1.2709496021270752,4.1959123611450195,5.503781318664551,5.577779293060303,4.015020847320557,6.145789623260498,2.287477493286133,5.13167667388916,3.9349772930145264,4.655725479125977,-4.636415481567383,-3.9604697227478027,-5.138542175292969,5.9416632652282715,-2.264244794845581,-6.203459739685059,-4.028602123260498,-5.505076885223389,-4.163286209106445,-1.3160381317138672,-1.7938313484191895,-5.142633438110352,-3.9628255367279053,-1.3405402898788452,5.4378461837768555,-0.13990990817546844,-3.433959484100342,-3.5779240131378174,-6.173105239868164,-5.933350563049316,-2.5608766078948975,5.758972644805908,3.9789273738861084,4.0692338943481445,1.7778645753860474,6.170496940612793,0.9553754329681396,1.6863294839859009,1.1630704402923584,1.305018663406372,2.211219072341919,4.495631217956543,3.075042963027954,3.7332072257995605,0.2760962247848511,3.871424674987793,4.6712870597839355,4.820415496826172,4.866034030914307,1.2940692901611328,3.3567371368408203,0.7858474254608154,-1.1361989974975586,-2.9865126609802246,-1.3176331520080566,-4.930735111236572,-4.806097030639648,4.417985916137695
29,0.13362187147140503,-4.390110969543457,-0.23302073776721954,-4.7322235107421875,-3.148787260055542,-4.510787487030029,-1.4114233255386353,-1.310333490371704,-1.1006965637207031,-1.2560068368911743,-0.4464789032936096,0.4773459732532501,-2.574378252029419,-4.731266498565674,-3.373873472213745,-5.9718708992004395,2.0203804969787598,1.3489030599594116,3.1835005283355713,3.7625081539154053,2.5774073600769043,0.9930416941642761,4.365621566772461,-0.023487096652388573,-0.23793165385723114,3.351274251937866,-4.508134841918945,-0.9851542711257935,-2.5689914226531982,-3.844235897064209,-3.0160021781921387,-1.059898018836975,-2.385507583618164,-0.6187532544136047,-4.42913818359375,-4.292935371398926,2.9574108123779297,-6.166816711425781,-5.394493103027344,-5.379889488220215,-5.830554008483887,-1.5419365167617798,-3.3051905632019043,-3.591785192489624,-0.04773838818073273,2.398817777633667,5.856653690338135,0.36425280570983887,5.689530849456787,2.7613837718963623,3.1462900638580322,0.5696116089820862,1.510661244392395,3.9451615810394287,4.434406280517578,1.7899246215820312,1.3084709644317627,4.116950035095215,5.491755962371826,5.561134338378906,4.067026615142822,6.178232192993164,2.2946338653564453,5.156966686248779,3.9666836261749268,4.651880264282227,-4.640260696411133,-3.9287633895874023,-5.11325216293335,5.972078323364258,-2.265756607055664,-6.169689178466797,-3.9740517139434814,-5.525004863739014,-4.24224853515625,-1.2785167694091797,-1.8675830364227295,-5.146622657775879,-3.974294424057007,-1.3060752153396606,5.462490558624268,-0.11335261166095734,-3.4392082691192627,-3.562150478363037,-6.185812950134277,-5.87028169631958,-2.525663137435913,5.794185638427734,4.041996479034424,4.056526184082031,1.793637990951538,6.1592488288879395,0.9501266479492188,1.7128868103027344,1.197535514831543,1.29354989528656,2.2519147396087646,4.4241509437561035,3.0970146656036377,3.732389450073242,0.2481994330883026,3.888436794281006,4.63892936706543,4.833226680755615,4.933095455169678,1.3058192729949951,3.3175439834594727,0.7869849801063538,-1.1350613832473755,-3.0257058143615723,-1.3058831691741943,-4.881808280944824,-4.797335624694824,4.340956687927246
30,0.10594407469034195,-4.397092819213867,-0.2446388602256775,-4.740632057189941,-3.1529407501220703,-4.429726600646973,-1.4466108083724976,-1.2988412380218506,-1.1237143278121948,-1.2734724283218384,-0.4165400266647339,0.4685286581516266,-2.584712028503418,-4.732682228088379,-3.4434988498687744,-6.056735038757324,1.9878568649291992,1.3300390243530273,3.2037785053253174,3.779940128326416,2.588264226913452,0.9912843108177185,4.38021993637085,-0.002086369786411524,-0.2165309190750122,3.2869951725006104,-4.493536472320557,-0.9869116544723511,-2.5433757305145264,-3.8192954063415527,-2.999647617340088,-1.0720229148864746,-2.4180312156677246,-0.6275705695152283,-4.348305702209473,-4.258057594299316,2.954720973968506,-6.155635833740234,-5.419522762298584,-5.398784637451172,-5.8347086906433105,-1.5593212842941284,-3.2990400791168213,-3.6744863986968994,-0.10753489285707474,2.3390212059020996,5.773952484130859,0.34216123819351196,5.695681095123291,2.7439990043640137,3.1421351432800293,0.55071622133255,1.4856319427490234,3.9563426971435547,4.459113121032715,1.8662607669830322,1.2581053972244263,4.225146770477295,5.482083797454834,5.596460342407227,3.9809112548828125,6.161533832550049,2.302535057067871,5.139066219329834,3.9419796466827393,4.658849239349365,-4.633291721343994,-3.95346736907959,-5.131152629852295,5.953977108001709,-2.26863169670105,-6.1908087730407715,-4.054824352264404,-5.489861965179443,-4.13405179977417,-1.3288823366165161,-1.7912468910217285,-5.121915817260742,-3.9634268283843994,-1.3317360877990723,5.433258056640625,-0.13166850805282593,-3.441174030303955,-3.5792691707611084,-6.167514801025391,-5.946774005889893,-2.5861566066741943,5.733691692352295,3.9655039310455322,4.074824333190918,1.7765194177627563,6.172169208526611,0.9481608271598816,1.6945708990097046,1.1718746423721313,1.304417371749878,2.2167274951934814,4.50521183013916,3.0928611755371094,3.7239811420440674,0.25259843468666077,3.8940787315368652,4.673807144165039,4.825786590576172,4.877814769744873,1.2940921783447266,3.3391151428222656,0.7788704633712769,-1.1431759595870972,-3.0041346549987793,-1.317610263824463,-4.917764186859131,-4.803319454193115,4.421789169311523
31,0.13478665053844452,-4.390801429748535,-0.24007311463356018,-4.754509925842285,-3.146608591079712,-4.496272563934326,-1.3955793380737305,-1.3088175058364868,-1.103804588317871,-1.259095311164856,-0.3938089907169342,0.46459370851516724,-2.569329261779785,-4.726372241973877,-3.3588931560516357,-5.968726634979248,2.0261921882629395,1.3383586406707764,3.1843550205230713,3.7774462699890137,2.5677390098571777,0.9970160126686096,4.374456882476807,-0.014806550927460194,-0.22925108671188354,3.31351637840271,-4.4992995262146,-0.98117995262146,-2.5553383827209473,-3.835275411605835,-3.0189361572265625,-1.0642198324203491,-2.3796958923339844,-0.6315054893493652,-4.418300628662109,-4.306614875793457,2.939601182937622,-6.166079521179199,-5.402275085449219,-5.381148338317871,-5.8358354568481445,-1.5488272905349731,-3.3094263076782227,-3.5843167304992676,-0.03868315368890762,2.4078729152679443,5.86412239074707,0.34624767303466797,5.685295104980469,2.754492998123169,3.1410086154937744,0.5683526396751404,1.5028793811798096,3.94589900970459,4.402712821960449,1.794203281402588,1.3155531883239746,4.127349853515625,5.472291469573975,5.556092739105225,4.063098907470703,6.173810958862305,2.2922446727752686,5.15643835067749,3.9581258296966553,4.673412322998047,-4.6187286376953125,-3.937321186065674,-5.113780498504639,5.971327304840088,-2.2883682250976562,-6.179209232330322,-3.9718451499938965,-5.53379487991333,-4.23184871673584,-1.2714345455169678,-1.8633043766021729,-5.178316116333008,-3.9738194942474365,-1.31491219997406,5.442634582519531,-0.11803567409515381,-3.441762924194336,-3.570791006088257,-6.1618733406066895,-5.8689141273498535,-2.519411563873291,5.800436973571777,4.043363571166992,4.080465793609619,1.7849977016448975,6.162288665771484,0.9475718140602112,1.708203673362732,1.1886985301971436,1.2940245866775513,2.267759084701538,4.438665866851807,3.0991933345794678,3.7101027965545654,0.24160559475421906,3.8890020847320557,4.625249862670898,4.8280863761901855,4.910004615783691,1.3044148683547974,3.318711280822754,0.7754940390586853,-1.146552324295044,-3.024538516998291,-1.307287573814392,-4.883484840393066,-4.804275989532471,4.351794242858887
32,0.09938500076532364,-4.386739253997803,-0.25052493810653687,-4.750391006469727,-3.1403648853302,-4.440344333648682,-1.4247123003005981,-1.2979052066802979,-1.114536166191101,-1.2649803161621094,-0.36983010172843933,0.45827919244766235,-2.571030616760254,-4.729661464691162,-3.42708420753479,-6.046957492828369,2.0316855907440186,1.3338409662246704,3.194854259490967,3.7966368198394775,2.576901912689209,0.9913598895072937,4.38310432434082,-0.0031467974185943604,-0.21759133040905,3.2622053623199463,-4.490652084350586,-0.9868360757827759,-2.5331051349639893,-3.815096139907837,-3.010509490966797,-1.0661126375198364,-2.3742024898529053,-0.6378200054168701,-4.3631205558776855,-4.280120372772217,2.925466537475586,-6.155163764953613,-5.41469144821167,-5.3881144523620605,-5.836507797241211,-1.5560039281845093,-3.313378095626831,-3.6436879634857178,-0.1002601683139801,2.3462958335876465,5.804750919342041,0.3358105421066284,5.681343078613281,2.747316360473633,3.140336513519287,0.5613865256309509,1.4904632568359375,3.956814765930176,4.455108642578125,1.848928451538086,1.260450839996338,4.205866813659668,5.4624104499816895,5.583751201629639,3.9939370155334473,6.169136047363281,2.3105030059814453,5.142167568206787,3.945655107498169,4.663036346435547,-4.6291046142578125,-3.94979190826416,-5.128051280975342,5.963925361633301,-2.271681785583496,-6.185625076293945,-4.038463592529297,-5.505487442016602,-4.153331756591797,-1.3265368938446045,-1.8085792064666748,-5.125920295715332,-3.963343620300293,-1.3277029991149902,5.4252142906188965,-0.12504486739635468,-3.4406259059906006,-3.5776453018188477,-6.1524834632873535,-5.930314064025879,-2.5803980827331543,5.739450454711914,3.981963872909546,4.089855670928955,1.7781434059143066,6.174685001373291,0.9487088918685913,1.701194405555725,1.1759077310562134,1.3045003414154053,2.23862624168396,4.494594097137451,3.1054370403289795,3.714221477508545,0.23820170760154724,3.9003047943115234,4.651744365692139,4.82557487487793,4.879162311553955,1.2934139966964722,3.3284966945648193,0.7790416479110718,-1.1430046558380127,-3.0147531032562256,-1.3182884454727173,-4.903075695037842,-4.806311130523682,4.4069743156433105
33,0.11814889311790466,-4.390330791473389,-0.24435822665691376,-4.770775318145752,-3.1427159309387207,-4.479369163513184,-1.3949397802352905,-1.3095998764038086,-1.1028133630752563,-1.2613040208816528,-0.34571120142936707,0.45278164744377136,-2.560110092163086,-4.724538326263428,-3.377210855484009,-5.997483253479004,2.0224595069885254,1.3317443132400513,3.1816892623901367,3.791567325592041,2.5565128326416016,0.9998190402984619,4.381290435791016,-0.006482753437012434,-0.22092728316783905,3.2712459564208984,-4.492465972900391,-0.9783769249916077,-2.5469000339508057,-3.8312864303588867,-3.023876905441284,-1.0661146640777588,-2.3834285736083984,-0.6433175802230835,-4.403810977935791,-4.300360202789307,2.91339373588562,-6.167369842529297,-5.4052910804748535,-5.382078170776367,-5.839778900146484,-1.551016092300415,-3.3173587322235107,-3.5991437435150146,-0.060780398547649384,2.385775566101074,5.849294662475586,0.3348570466041565,5.677362442016602,2.7523043155670166,3.1370654106140137,0.5674226880073547,1.499863862991333,3.944608688354492,4.412508964538574,1.8085654973983765,1.3049765825271606,4.152019500732422,5.4543328285217285,5.554866313934326,4.039796829223633,6.172097206115723,2.2963647842407227,5.154727935791016,3.9556593894958496,4.677835941314697,-4.614305019378662,-3.9397876262664795,-5.115490913391113,5.970449447631836,-2.294512987136841,-6.183829307556152,-3.991752862930298,-5.537075996398926,-4.207179069519043,-1.2820111513137817,-1.8489421606063843,-5.168519973754883,-3.975541353225708,-1.3185030221939087,5.427975177764893,-0.12130075693130493,-3.4437150955200195,-3.5738914012908936,-6.146938323974609,-5.8896098136901855,-2.5416927337646484,5.778155326843262,4.02266788482666,4.095400810241699,1.7818970680236816,6.162949562072754,0.9456195831298828,1.704938530921936,1.185107707977295,1.2923026084899902,2.2683987617492676,4.455569267272949,3.103085994720459,3.6938369274139404,0.23803302645683289,3.8875010013580322,4.631504535675049,4.826729774475098,4.8959503173828125,1.3053654432296753,3.316767692565918,0.7717050909996033,-1.150341272354126,-3.026482105255127,-1.3063369989395142,-4.876707077026367,-4.807374477386475,4.366283893585205
34,0.09998859465122223,-4.377142429351807,-0.2570364773273468,-4.7462992668151855,-3.1266894340515137,-4.451013088226318,-1.410388469696045,-1.2947585582733154,-1.108827829360962,-1.2601834535598755,-0.3313004970550537,0.447989284992218,-2.5619778633117676,-4.726953029632568,-3.408111333847046,-6.033969879150391,2.0509426593780518,1.3349719047546387,3.189143180847168,3.8076353073120117,2.566866397857666,0.9882431030273438,4.387054443359375,-0.002476267982274294,-0.21692079305648804,3.239020586013794,-4.486701965332031,-0.9899528622627258,-2.5230600833892822,-3.8156652450561523,-3.017946720123291,-1.060745358467102,-2.354945421218872,-0.6481099128723145,-4.375882148742676,-4.288052558898926,2.895758628845215,-6.1525468826293945,-5.412446975708008,-5.382192134857178,-5.8423027992248535,-1.555670142173767,-3.3213820457458496,-3.626317024230957,-0.08803874999284744,2.3585171699523926,5.8221211433410645,0.3286663889884949,5.673339366912842,2.747650384902954,3.1345415115356445,0.5673086643218994,1.4927078485488892,3.9594311714172363,4.434881687164307,1.8387478590011597,1.272972822189331,4.190695762634277,5.44252347946167,5.57099723815918,4.004058361053467,6.17103910446167,2.3115899562835693,5.1424784660339355,3.948045015335083,4.665719509124756,-4.6264214515686035,-3.947402000427246,-5.127740383148193,5.970089435577393,-2.279465436935425,-6.186648845672607,-4.0258378982543945,-5.521382808685303,-4.1685028076171875,-1.3140149116516113,-1.818759799003601,-5.14614725112915,-3.961062431335449,-1.3259358406066895,5.415424346923828,-0.12188196182250977,-3.445680856704712,-3.5789237022399902,-6.144320011138916,-5.915981292724609,-2.5679073333740234,5.751940727233887,3.9962968826293945,4.098019123077393,1.776864767074585,6.179280757904053,0.94365394115448,1.7043572664260864,1.1776748895645142,1.3067814111709595,2.2529501914978027,4.4839253425598145,3.119112491607666,3.718312978744507,0.2268911898136139,3.9063422679901123,4.64381217956543,4.82346248626709,4.871626377105713,1.2904703617095947,3.3220431804656982,0.7801178693771362,-1.1419284343719482,-3.0212066173553467,-1.3212320804595947,-4.891243934631348,-4.810771465301514,4.39421272277832
35,0.10574351251125336,-4.389309883117676,-0.2453240305185318,-4.775611877441406,-3.134812593460083,-4.471584796905518,-1.3945649862289429,-1.3134912252426147,-1.1008967161178589,-1.262384295463562,-0.30865001678466797,0.4417709708213806,-2.5520944595336914,-4.722986698150635,-3.385613441467285,-6.012892723083496,2.0125772953033447,1.3267573118209839,3.1790573596954346,3.8009557723999023,2.542456865310669,1.0043171644210815,4.38637638092041,-0.0017403003294020891,-0.2161848247051239,3.238515615463257,-4.487380027770996,-0.973878800868988,-2.543471574783325,-3.831815719604492,-3.028074264526367,-1.0647344589233398,-2.393310785293579,-0.6543281674385071,-4.3970489501953125,-4.298183441162109,2.8858795166015625,-6.171767234802246,-5.406799793243408,-5.382160663604736,-5.848282337188721,-1.5522958040237427,-3.322467565536499,-3.604766368865967,-0.07100978493690491,2.3755462169647217,5.843672275543213,0.3269943296909332,5.6722540855407715,2.7510247230529785,3.1285619735717773,0.567340075969696,1.4983553886413574,3.9402108192443848,4.418461799621582,1.8188599348068237,1.299593448638916,4.161595344543457,5.435138702392578,5.555342674255371,4.027129650115967,6.173337459564209,2.3029630184173584,5.154454231262207,3.955169916152954,4.677123546600342,-4.615017414093018,-3.940277099609375,-5.115764617919922,5.971481800079346,-2.294905185699463,-6.18492317199707,-4.001946926116943,-5.538941860198975,-4.197603225708008,-1.2873942852020264,-1.838647723197937,-5.162567138671875,-3.9803378582000732,-1.3203957080841064,5.414927959442139,-0.12304037064313889,-3.4516656398773193,-3.5763750076293945,-6.14016056060791,-5.896529197692871,-2.5510733127593994,5.76877498626709,4.015748977661133,4.102178573608398,1.7794133424758911,6.16018533706665,0.9376692175865173,1.7031989097595215,1.1832150220870972,1.2875059843063354,2.2687737941741943,4.463353633880615,3.1109893321990967,3.688999891281128,0.23607097566127777,3.885544776916504,4.633681297302246,4.827603816986084,4.885538578033447,1.309436321258545,3.3143839836120605,0.7666200995445251,-1.155426263809204,-3.0288658142089844,-1.3022661209106445,-4.866177558898926,-4.807485103607178,4.373045921325684
36,0.09592768549919128,-4.370844841003418,-0.2596243917942047,-4.737103462219238,-3.1141345500946045,-4.456742763519287,-1.402438998222351,-1.2884517908096313,-1.1038696765899658,-1.256518006324768,-0.30122339725494385,0.4379425644874573,-2.555044651031494,-4.7217116355896,-3.3999130725860596,-6.030864238739014,2.0626845359802246,1.3372080326080322,3.186964273452759,3.814181327819824,2.5598909854888916,0.9811146259307861,4.389083385467529,-0.0020569805055856705,-0.21650150418281555,3.2172439098358154,-4.484673023223877,-0.9970813393592834,-2.5112404823303223,-3.816645383834839,-3.0214619636535645,-1.052820086479187,-2.343203544616699,-0.6581565737724304,-4.382301330566406,-4.292852878570557,2.8643062114715576,-6.146790027618408,-5.410332679748535,-5.3777995109558105,-5.8508734703063965,-1.556706428527832,-3.326192855834961,-3.617690324783325,-0.08348087221384048,2.363075017929077,5.830748081207275,0.3231062591075897,5.6685285568237305,2.7466142177581787,3.1259706020355225,0.571701169013977,1.4948222637176514,3.9651882648468018,4.4278388023376465,1.8356064558029175,1.2785871028900146,4.1844401359558105,5.42200231552124,5.565513610839844,4.00498104095459,6.172548770904541,2.311593770980835,5.141221046447754,3.9503979682922363,4.664194107055664,-4.627946853637695,-3.9450490474700928,-5.128997802734375,5.975470542907715,-2.2861366271972656,-6.188926696777344,-4.022818088531494,-5.530028343200684,-4.174758434295654,-1.3084006309509277,-1.8219012022018433,-5.1531901359558105,-3.9555866718292236,-1.3241876363754272,5.406033992767334,-0.11929035186767578,-3.454059600830078,-3.581247329711914,-6.139455795288086,-5.907992362976074,-2.5625362396240234,5.757312297821045,4.00428581237793,4.102883338928223,1.7745411396026611,6.1869306564331055,0.9352750778198242,1.7069488763809204,1.1794230937957764,1.312257170677185,2.260899782180786,4.478195667266846,3.131667375564575,3.727508783340454,0.2195170670747757,3.9082255363464355,4.639011859893799,4.820752143859863,4.859440326690674,1.2843424081802368,3.3168678283691406,0.780465304851532,-1.1415810585021973,-3.0263819694519043,-1.3273600339889526,-4.88259220123291,-4.8156890869140625,4.38779354095459
37,0.09653913974761963,-4.393124103546143,-0.2424347698688507,-4.778172016143799,-3.130521297454834,-4.468512535095215,-1.3928155899047852,-1.32129967212677,-1.0996181964874268,-1.2639468908309937,-0.27796661853790283,0.4305875301361084,-2.543776512145996,-4.717746734619141,-3.3877053260803223,-6.020261287689209,2.005464792251587,1.3228386640548706,3.1787939071655273,3.8048808574676514,2.5258336067199707,1.012227177619934,4.390773296356201,0.0029619107954204082,-0.21148261427879333,3.2134337425231934,-4.482983112335205,-0.9659687280654907,-2.54499888420105,-3.8305044174194336,-3.0291690826416016,-1.0620378255844116,-2.400423288345337,-0.6655116677284241,-4.394012928009033,-4.298841953277588,2.8563547134399414,-6.180074214935303,-5.408358573913574,-5.382679462432861,-5.856965065002441,-1.5530158281326294,-3.325530529022217,-3.605363368988037,-0.07474823296070099,2.371807813644409,5.843074798583984,0.3215383291244507,5.669190406799316,2.750304937362671,3.1198790073394775,0.5668209195137024,1.4967964887619019,3.9319040775299072,4.420037269592285,1.8244175910949707,1.2990880012512207,4.163558483123779,5.416509628295898,5.5549798011779785,4.020600318908691,6.175297260284424,2.3092098236083984,5.155721664428711,3.9549121856689453,4.677677154541016,-4.614463806152344,-3.940534830093384,-5.114497184753418,5.972295761108398,-2.294055938720703,-6.186190128326416,-4.006508827209473,-5.541790962219238,-4.1956400871276855,-1.2878997325897217,-1.83309006690979,-5.160991668701172,-3.9890308380126953,-1.3222538232803345,5.401972770690918,-0.12482216209173203,-3.460127830505371,-3.5781311988830566,-6.134883880615234,-5.897083759307861,-2.55387020111084,5.7659783363342285,4.015194416046143,4.107455253601074,1.777657151222229,6.153130054473877,0.9292069673538208,1.701417088508606,1.1813569068908691,1.2788128852844238,2.2705233097076416,4.466425895690918,3.1152806282043457,3.6864402294158936,0.23743067681789398,3.877354621887207,4.633022785186768,4.830537796020508,4.877985000610352,1.317441701889038,3.3132872581481934,0.7614364624023438,-1.1606098413467407,-3.0299625396728516,-1.2942607402801514,-4.852412700653076,-4.805441856384277,4.376081943511963
38,0.0897059366106987,-4.367048740386963,-0.2584732472896576,-4.729021072387695,-3.1048853397369385,-4.45945405960083,-1.3976829051971436,-1.2787234783172607,-1.0984201431274414,-1.2528868913650513,-0.2758695185184479,0.4281228184700012,-2.5480148792266846,-4.713472843170166,-3.3960795402526855,-6.031396865844727,2.067880392074585,1.3410120010375977,3.1874008178710938,3.81679368019104,2.556727170944214,0.9699428081512451,4.38897705078125,-0.0017091869376599789,-0.21615371108055115,3.1979422569274902,-4.484779357910156,-1.0082529783248901,-2.4973361492156982,-3.80715274810791,-3.0218892097473145,-1.0432699918746948,-2.338007688522339,-0.6679763793945312,-4.384796619415283,-4.2957940101623535,2.831204414367676,-6.137508392333984,-5.40686559677124,-5.373505115509033,-5.858358383178711,-1.5568063259124756,-3.32948899269104,-3.613163948059082,-0.08224515616893768,2.3643109798431396,5.8352742195129395,0.3204580247402191,5.665232181549072,2.746514320373535,3.118485450744629,0.5759955048561096,1.4982895851135254,3.9744696617126465,4.425268650054932,1.835114598274231,1.2803986072540283,4.182206630706787,5.402820587158203,5.5630574226379395,4.00209903717041,6.175384998321533,2.3112919330596924,5.138782501220703,3.9540250301361084,4.661113739013672,-4.6310272216796875,-3.9414219856262207,-5.131436347961426,5.980963706970215,-2.290503978729248,-6.1921706199646,-4.023959636688232,-5.535579204559326,-4.176991939544678,-1.306589126586914,-1.8223930597305298,-5.155760288238525,-3.946638584136963,-1.3210641145706177,5.39794397354126,-0.11635520309209824,-3.461428165435791,-3.5823283195495605,-6.135143280029297,-5.903076648712158,-2.560122013092041,5.759726047515869,4.009201526641846,4.107195854187012,1.7734599113464355,6.197857856750488,0.9279068112373352,1.7098840475082397,1.182546615600586,1.3212051391601562,2.265655994415283,4.475484371185303,3.140916585922241,3.735591173171997,0.2147432565689087,3.9058632850646973,4.636070728302002,4.816829204559326,4.8447651863098145,1.2747975587844849,3.311887741088867,0.7809158563613892,-1.1411304473876953,-3.0313620567321777,-1.3369048833847046,-4.876911640167236,-4.822409152984619,4.385298252105713
39,0.08860607445240021,-4.398285388946533,-0.23867693543434143,-4.7767181396484375,-3.128350257873535,-4.467667102813721,-1.3904908895492554,-1.3305394649505615,-1.099737524986267,-1.2655587196350098,-0.2527503967285156,0.41942858695983887,-2.536555290222168,-4.7103800773620605,-3.3874597549438477,-6.0242228507995605,2.0055041313171387,1.3201836347579956,3.1819050312042236,3.801865339279175,2.5084521770477295,1.0214556455612183,4.394664764404297,0.008858779445290565,-0.20558573305606842,3.1940925121307373,-4.479091644287109,-0.956740140914917,-2.548861503601074,-3.8124284744262695,-3.026048421859741,-1.0584923028945923,-2.400383949279785,-0.6766706705093384,-4.392622947692871,-4.300270080566406,2.8245275020599365,-6.189646244049072,-5.4104461669921875,-5.383680820465088,-5.8640828132629395,-1.5539473295211792,-3.3274338245391846,-3.604196071624756,-0.07628324627876282,2.3702728748321533,5.844242095947266,0.31709057092666626,5.667287349700928,2.749373435974121,3.1127612590789795,0.5658198595046997,1.4947093725204468,3.9223315715789795,4.420217514038086,1.8269994258880615,1.2997699975967407,4.163474082946777,5.399049282073975,5.554417610168457,4.016088008880615,6.17807674407959,2.3152365684509277,5.157782077789307,3.9543638229370117,4.68076229095459,-4.6113786697387695,-3.9410831928253174,-5.112436771392822,5.972458839416504,-2.291515827178955,-6.189712047576904,-4.009424686431885,-5.544949531555176,-4.1957244873046875,-1.2872177362442017,-1.8305082321166992,-5.160811424255371,-3.999088764190674,-1.3246153593063354,5.387913703918457,-0.1267668604850769,-3.4670488834381104,-3.57979416847229,-6.12978458404541,-5.895428657531738,-2.554351329803467,5.765497207641602,4.016849517822266,4.112554550170898,1.7759941816329956,6.1444573402404785,0.9222860932350159,1.699472427368164,1.1789953708648682,1.2687548398971558,2.272848129272461,4.467271327972412,3.1174516677856445,3.687894105911255,0.23921668529510498,3.8673360347747803,4.631594657897949,4.835923194885254,4.874239444732666,1.3269059658050537,3.314192295074463,0.7574538588523865,-1.1645925045013428,-3.029057502746582,-1.2847964763641357,-4.836227893829346,-4.801227569580078,4.377471923828125
40,0.08277100324630737,-4.366376876831055,-0.2528004050254822,-4.727153778076172,-3.099705219268799,-4.460655212402344,-1.394466519355774,-1.272232174873352,-1.0921854972839355,-1.2491109371185303,-0.2538606822490692,0.41878461837768555,-2.5401294231414795,-4.704479217529297,-3.393927812576294,-6.032931804656982,2.0661323070526123,1.3445028066635132,3.188565969467163,3.8104636669158936,2.552161693572998,0.9620892405509949,4.387080192565918,-0.0013622638070955873,-0.2158067673444748,3.1816771030426025,-4.486676216125488,-1.0161066055297852,-2.488199234008789,-3.775019645690918,-3.02103590965271,-1.034093976020813,-2.3397557735443115,-0.6773146390914917,-4.385270595550537,-4.297695636749268,2.7975330352783203,-6.131250858306885,-5.401696681976318,-5.369117259979248,-5.8643269538879395,-1.5551860332489014,-3.3320233821868896,-3.6104846000671387,-0.08223050087690353,2.364325523376465,5.837953567504883,0.3202337324619293,5.662698268890381,2.7481348514556885,3.1125173568725586,0.5803834795951843,1.5034587383270264,3.980726957321167,4.424115180969238,1.8354570865631104,1.281523585319519,4.180988311767578,5.386369228363037,5.56225061416626,3.998913526535034,6.181066513061523,2.3111989498138428,5.137789726257324,3.9597182273864746,4.659567356109619,-4.63257360458374,-3.9357287883758545,-5.132429122924805,5.986636638641357,-2.2917370796203613,-6.196626663208008,-4.025745391845703,-5.539764404296875,-4.178210258483887,-1.3054641485214233,-1.8220505714416504,-5.156913757324219,-3.9409170150756836,-1.3162800073623657,5.390511512756348,-0.1130172535777092,-3.4672765731811523,-3.581409215927124,-6.131095886230469,-5.899667263031006,-2.5588629245758057,5.760985851287842,4.012610912322998,4.11124324798584,1.7743791341781616,6.205151557922363,0.9220584630966187,1.7132220268249512,1.187330722808838,1.326926589012146,2.2688724994659424,4.474283218383789,3.146096706390381,3.7374584674835205,0.21269981563091278,3.8985137939453125,4.634169101715088,4.812744140625,4.830811023712158,1.2685294151306152,3.306781530380249,0.7792418599128723,-1.142804503440857,-3.036468267440796,-1.3431730270385742,-4.872541427612305,-4.830108165740967,4.384824275970459
41,0.08135915547609329,-4.401958465576172,-0.23658668994903564,-4.771228313446045,-3.1253843307495117,-4.467708110809326,-1.3883157968521118,-1.3311303853988647,-1.1011148691177368,-1.2663697004318237,-0.23225611448287964,0.4087304472923279,-2.53192138671875,-4.701398849487305,-3.3865716457366943,-6.026782512664795,2.010159730911255,1.3190884590148926,3.1888184547424316,3.789994478225708,2.4984617233276367,1.0216186046600342,4.397125720977783,0.015914754942059517,-0.19852975010871887,3.1790478229522705,-4.476630687713623,-0.9565773010253906,-2.54539155960083,-3.7698628902435303,-3.0187463760375977,-1.0539555549621582,-2.395728349685669,-0.6873688101768494,-4.391889572143555,-4.302070140838623,2.791429281234741,-6.190381050109863,-5.412603378295898,-5.384750843048096,-5.869233131408691,-1.5561513900756836,-3.3280029296875,-3.602504253387451,-0.07688403129577637,2.3696720600128174,5.84593391418457,0.3125137686729431,5.66671895980835,2.747169256210327,3.1076114177703857,0.5647498369216919,1.492552399635315,3.9215970039367676,4.419924259185791,1.8281407356262207,1.2995519638061523,4.163535118103027,5.38352632522583,5.5544209480285645,4.0119452476501465,6.181845188140869,2.31968355178833,5.1573028564453125,3.95326828956604,4.685265064239502,-4.606875896453857,-3.942178726196289,-5.112915992736816,5.972208023071289,-2.2889068126678467,-6.196920394897461,-4.012183666229248,-5.54797887802124,-4.1956634521484375,-1.28743577003479,-1.82936692237854,-5.161104679107666,-4.000424861907959,-1.3271127939224243,5.372871398925781,-0.12849126756191254,-3.472006320953369,-3.5824310779571533,-6.124239444732666,-5.89348840713501,-2.554236888885498,5.76561164855957,4.018789768218994,4.118099689483643,1.7733571529388428,6.1444010734558105,0.9173288941383362,1.697748064994812,1.1764979362487793,1.267418622970581,2.2750232219696045,4.467230319976807,3.120417594909668,3.6933839321136475,0.23870183527469635,3.8583617210388184,4.629794597625732,4.840174674987793,4.869132041931152,1.327771544456482,3.3168859481811523,0.7557632923126221,-1.166283130645752,-3.0263638496398926,-1.2839308977127075,-4.82457971572876,-4.799088001251221,4.378205299377441
42,0.07574979960918427,-4.367272853851318,-0.24408602714538574,-4.728878021240234,-3.0959739685058594,-4.461084365844727,-1.3921605348587036,-1.276696801185608,-1.086334228515625,-1.2441315650939941,-0.23564334213733673,0.4105527102947235,-2.5307631492614746,-4.697824954986572,-3.392483949661255,-6.034567832946777,2.0639021396636963,1.3481402397155762,3.1896798610687256,3.794083595275879,2.540400505065918,0.9652142524719238,4.3850202560424805,-0.0016353853279724717,-0.21607989072799683,3.168358087539673,-4.488736152648926,-1.012981653213501,-2.4892101287841797,-3.7358834743499756,-3.0196034908294678,-1.0245392322540283,-2.3419859409332275,-0.6855465173721313,-4.38480806350708,-4.299635887145996,2.763719320297241,-6.135702610015869,-5.396369934082031,-5.363822937011719,-5.8695292472839355,-1.551266074180603,-3.334831476211548,-3.6083710193634033,-0.08220715820789337,2.364348888397217,5.840066909790039,0.32220444083213806,5.659890174865723,2.7520546913146973,3.1073150634765625,0.5856777429580688,1.5087859630584717,3.97627592086792,4.4232683181762695,1.8361293077468872,1.2828916311264038,4.180785179138184,5.372284412384033,5.5636773109436035,3.9958431720733643,6.188395023345947,2.3098642826080322,5.142196178436279,3.9656453132629395,4.657921314239502,-4.634219646453857,-3.9298017024993896,-5.12802267074585,5.992917537689209,-2.2920868396759033,-6.19915771484375,-4.027639865875244,-5.5424981117248535,-4.178413391113281,-1.3040961027145386,-1.8213783502578735,-5.1577606201171875,-3.9461684226989746,-1.3113384246826172,5.382300853729248,-0.10853982716798782,-3.472378730773926,-3.5779669284820557,-6.128306865692139,-5.897444248199463,-2.5582587718963623,5.761590003967285,4.014833927154541,4.11403226852417,1.77782142162323,6.201127529144287,0.9169564247131348,1.7176995277404785,1.1922723054885864,1.321675181388855,2.2711784839630127,4.473854064941406,3.1498279571533203,3.735733985900879,0.21132798492908478,3.8891024589538574,4.632228851318359,4.812958717346191,4.824028968811035,1.2732897996902466,3.3024377822875977,0.7754562497138977,-1.1465901136398315,-3.0408120155334473,-1.3384126424789429,-4.865897178649902,-4.832790374755859,4.385286808013916
43,0.07397645711898804,-4.407653331756592,-0.2366960644721985,-4.766139507293701,-3.1226601600646973,-4.4684271812438965,-1.3861418962478638,-1.323054313659668,-1.1033589839935303,-1.2685984373092651,-0.21450920403003693,0.39826250076293945,-2.5314669609069824,-4.689128398895264,-3.3851630687713623,-6.028207778930664,2.0121281147003174,1.3167635202407837,3.1993167400360107,3.7727105617523193,2.497358798980713,1.0131300687789917,4.3966240882873535,0.02587396465241909,-0.1885705441236496,3.1671228408813477,-4.477132320404053,-0.9650657773017883,-2.533536911010742,-3.7352397441864014,-3.0083138942718506,-1.050435185432434,-2.3937599658966064,-0.697836697101593,-4.391730785369873,-4.303791046142578,2.760035753250122,-6.18227481842041,-5.414782524108887,-5.387855529785156,-5.873065948486328,-1.5617133378982544,-3.32570743560791,-3.6005477905273438,-0.0768604576587677,2.3696956634521484,5.8478899002075195,0.3061617314815521,5.6690144538879395,2.741607427597046,3.10377836227417,0.5616450905799866,1.4903732538223267,3.929704189300537,4.419091701507568,1.8280307054519653,1.2991483211517334,4.162288188934326,5.369974613189697,5.554013252258301,4.009320259094238,6.183614730834961,2.321329355239868,5.152711391448975,3.9509425163269043,4.690569877624512,-4.601571083068848,-3.944504499435425,-5.117507457733154,5.969687461853027,-2.2878103256225586,-6.204061985015869,-4.0133137702941895,-5.552280902862549,-4.196910381317139,-1.287839412689209,-1.8294769525527954,-5.161937236785889,-3.9930689334869385,-1.3296918869018555,5.358072757720947,-0.13199080526828766,-3.475731611251831,-3.588181495666504,-6.116440296173096,-5.8916544914245605,-2.5538330078125,5.766016006469727,4.020623683929443,4.125898838043213,1.7676067352294922,6.153034210205078,0.9136034846305847,1.6942485570907593,1.1739188432693481,1.2747749090194702,2.2771971225738525,4.466511249542236,3.1231417655944824,3.698472499847412,0.2374044805765152,3.8461074829101562,4.628073692321777,4.839241981506348,4.858942985534668,1.320021629333496,3.3210105895996094,0.7542374134063721,-1.167809009552002,-3.0222392082214355,-1.2916808128356934,-4.8219685554504395,-4.802622318267822,4.378364086151123
44,0.06813506036996841,-4.365520477294922,-0.2335425615310669,-4.730226516723633,-3.0898375511169434,-4.4608073234558105,-1.3905891180038452,-1.285697340965271,-1.080173134803772,-1.235597848892212,-0.2218758463859558,0.40503421425819397,-2.518880844116211,-4.695943355560303,-3.391716241836548,-6.0363593101501465,2.065760374069214,1.3553118705749512,3.1909382343292236,3.775970935821533,2.5267908573150635,0.9718043804168701,4.383119106292725,-0.004850618541240692,-0.21929512917995453,3.157216787338257,-4.490637302398682,-1.0063915252685547,-2.492656946182251,-3.721667528152466,-3.018028736114502,-1.0106037855148315,-2.34012770652771,-0.6910649538040161,-4.383512020111084,-4.300929069519043,2.7299294471740723,-6.144206523895264,-5.390673637390137,-5.355142116546631,-5.873976707458496,-1.5429069995880127,-3.3397843837738037,-3.60714054107666,-0.08262079954147339,2.3639352321624756,5.841297626495361,0.32909971475601196,5.654937744140625,2.760413646697998,3.102867603302002,0.5943588018417358,1.5144821405410767,3.9677727222442627,4.422739505767822,1.8375049829483032,1.2840741872787476,4.183353424072266,5.3593645095825195,5.568586826324463,3.9913105964660645,6.192685604095459,2.3036675453186035,5.149308204650879,3.9709198474884033,4.649924278259277,-4.642216682434082,-3.924527168273926,-5.12091064453125,6.002249717712402,-2.2944231033325195,-6.195488929748535,-4.030793190002441,-5.543473720550537,-4.175845146179199,-1.3029135465621948,-1.8200026750564575,-5.158289432525635,-3.95589017868042,-1.305930256843567,5.374948024749756,-0.1005963459610939,-3.4768409729003906,-3.5699541568756104,-6.128442764282227,-5.896152019500732,-2.5581727027893066,5.761676788330078,4.0161261558532715,4.113896369934082,1.7858339548110962,6.1926589012146,0.9124942421913147,1.7256430387496948,1.1976804733276367,1.3119535446166992,2.272749900817871,4.474131107330322,3.1559643745422363,3.7343857288360596,0.20680661499500275,3.882397413253784,4.6309356689453125,4.818077564239502,4.825453281402588,1.28262460231781,3.29797625541687,0.7711384296417236,-1.1509079933166504,-3.045273542404175,-1.3290778398513794,-4.859206199645996,-4.828800201416016,4.386582851409912
